FANN_FLO_2.1
num_layers=3
learning_rate=0.700000
connection_rate=1.000000
network_type=0
learning_momentum=0.000000
training_algorithm=2
train_error_function=0
train_stop_function=0
cascade_output_change_fraction=0.010000
quickprop_decay=0.822818
quickprop_mu=1.750000
rprop_increase_factor=1.200000
rprop_decrease_factor=0.500000
rprop_delta_min=0.000000
rprop_delta_max=50.000000
rprop_delta_zero=0.100000
cascade_output_stagnation_epochs=12
cascade_candidate_change_fraction=0.010000
cascade_candidate_stagnation_epochs=12
cascade_max_out_epochs=150
cascade_min_out_epochs=50
cascade_max_cand_epochs=150
cascade_min_cand_epochs=50
cascade_num_candidate_groups=2
bit_fail_limit=3.49999994039535522461e-01
cascade_candidate_limit=1.00000000000000000000e+03
cascade_weight_multiplier=4.00000005960464477539e-01
cascade_activation_functions_count=10
cascade_activation_functions=3 5 7 8 10 11 14 15 16 17
cascade_activation_steepnesses_count=4
cascade_activation_steepnesses=2.50000000000000000000e-01 5.00000000000000000000e-01 7.50000000000000000000e-01 1.00000000000000000000e+00
layer_sizes=10 61 5
scale_included=1
scale_mean_in=1.792000 2.642000 6.007000 0.491600 9.027000 2.019000 4.438000 6.608000 1.852000
scale_deviation_in=0.053374 0.530771 0.852495 0.066420 1.605656 0.271316 1.104537 0.185325 0.363237
scale_new_min_in=-1.000000 -1.000000 -1.000000 -1.000000 -1.000000 -1.000000 -1.000000 -1.000000 -1.000000
scale_factor_in=1.000000 1.000000 1.000000 1.000000 1.000000 1.000000 1.000000 1.000000 1.000000
scale_mean_out=0.002103 0.007925 0.023829 0.050173
scale_deviation_out=0.000318 0.000695 0.001660 0.002200
scale_new_min_out=-1.000000 -1.000000 -1.000000 -1.000000
scale_factor_out=1.000000 1.000000 1.000000 1.000000
neurons (num_inputs, activation_function, activation_steepness)=(0, 0, 0.00000000000000000000e+00) (0, 0, 0.00000000000000000000e+00) (0, 0, 0.00000000000000000000e+00) (0, 0, 0.00000000000000000000e+00) (0, 0, 0.00000000000000000000e+00) (0, 0, 0.00000000000000000000e+00) (0, 0, 0.00000000000000000000e+00) (0, 0, 0.00000000000000000000e+00) (0, 0, 0.00000000000000000000e+00) (0, 0, 0.00000000000000000000e+00) (10, 5, 5.00000000000000000000e-01) (10, 5, 5.00000000000000000000e-01) (10, 5, 5.00000000000000000000e-01) (10, 5, 5.00000000000000000000e-01) (10, 5, 5.00000000000000000000e-01) (10, 5, 5.00000000000000000000e-01) (10, 5, 5.00000000000000000000e-01) (10, 5, 5.00000000000000000000e-01) (10, 5, 5.00000000000000000000e-01) (10, 5, 5.00000000000000000000e-01) (10, 5, 5.00000000000000000000e-01) (10, 5, 5.00000000000000000000e-01) (10, 5, 5.00000000000000000000e-01) (10, 5, 5.00000000000000000000e-01) (10, 5, 5.00000000000000000000e-01) (10, 5, 5.00000000000000000000e-01) (10, 5, 5.00000000000000000000e-01) (10, 5, 5.00000000000000000000e-01) (10, 5, 5.00000000000000000000e-01) (10, 5, 5.00000000000000000000e-01) (10, 5, 5.00000000000000000000e-01) (10, 5, 5.00000000000000000000e-01) (10, 5, 5.00000000000000000000e-01) (10, 5, 5.00000000000000000000e-01) (10, 5, 5.00000000000000000000e-01) (10, 5, 5.00000000000000000000e-01) (10, 5, 5.00000000000000000000e-01) (10, 5, 5.00000000000000000000e-01) (10, 5, 5.00000000000000000000e-01) (10, 5, 5.00000000000000000000e-01) (10, 5, 5.00000000000000000000e-01) (10, 5, 5.00000000000000000000e-01) (10, 5, 5.00000000000000000000e-01) (10, 5, 5.00000000000000000000e-01) (10, 5, 5.00000000000000000000e-01) (10, 5, 5.00000000000000000000e-01) (10, 5, 5.00000000000000000000e-01) (10, 5, 5.00000000000000000000e-01) (10, 5, 5.00000000000000000000e-01) (10, 5, 5.00000000000000000000e-01) (10, 5, 5.00000000000000000000e-01) (10, 5, 5.00000000000000000000e-01) (10, 5, 5.00000000000000000000e-01) (10, 5, 5.00000000000000000000e-01) (10, 5, 5.00000000000000000000e-01) (10, 5, 5.00000000000000000000e-01) (10, 5, 5.00000000000000000000e-01) (10, 5, 5.00000000000000000000e-01) (10, 5, 5.00000000000000000000e-01) (10, 5, 5.00000000000000000000e-01) (10, 5, 5.00000000000000000000e-01) (10, 5, 5.00000000000000000000e-01) (10, 5, 5.00000000000000000000e-01) (10, 5, 5.00000000000000000000e-01) (10, 5, 5.00000000000000000000e-01) (10, 5, 5.00000000000000000000e-01) (10, 5, 5.00000000000000000000e-01) (10, 5, 5.00000000000000000000e-01) (10, 5, 5.00000000000000000000e-01) (10, 5, 5.00000000000000000000e-01) (0, 5, 0.00000000000000000000e+00) (61, 0, 5.00000000000000000000e-01) (61, 0, 5.00000000000000000000e-01) (61, 0, 5.00000000000000000000e-01) (61, 0, 5.00000000000000000000e-01) (0, 0, 0.00000000000000000000e+00)
connections (connected_to_neuron, weight)=(0, 3.97274971008300781250e-01) (1, -2.79147088527679443359e-01) (2, 4.76428061723709106445e-01) (3, 1.76471307873725891113e-01) (4, 6.02676749229431152344e-01) (5, 1.24022305011749267578e+00) (6, 9.97026920318603515625e-01) (7, 2.81150519847869873047e-01) (8, 8.07498037815093994141e-01) (9, -8.45242798328399658203e-01) (0, 6.53046444058418273926e-02) (1, 6.30461633205413818359e-01) (2, 1.09420490264892578125e+00) (3, 2.04197034239768981934e-01) (4, -6.14023923873901367188e-01) (5, 1.07025372982025146484e+00) (6, 3.65353077650070190430e-01) (7, 4.96617168188095092773e-01) (8, 6.82837128639221191406e-01) (9, -7.63519942760467529297e-01) (0, 2.26984471082687377930e-01) (1, 4.58342470228672027588e-02) (2, 5.67984402179718017578e-01) (3, -2.35684141516685485840e-02) (4, -7.62384414672851562500e-01) (5, 1.89822268486022949219e+00) (6, 4.13214117288589477539e-01) (7, -5.79643905162811279297e-01) (8, 6.04986995458602905273e-02) (9, 8.19699525833129882812e-01) (0, -3.01483988761901855469e-01) (1, -2.64330291748046875000e+00) (2, -1.10756397247314453125e-01) (3, 1.71914792060852050781e+00) (4, -1.64258790016174316406e+00) (5, -3.46032083034515380859e-01) (6, 1.45854666829109191895e-01) (7, -2.26913928985595703125e-01) (8, 1.83856651186943054199e-01) (9, 9.79645729064941406250e-01) (0, 1.33191585540771484375e-01) (1, 1.35882699489593505859e+00) (2, 4.29233089089393615723e-02) (3, -6.33597075939178466797e-01) (4, 7.50251471996307373047e-01) (5, 4.52097505331039428711e-02) (6, -5.44092893600463867188e-01) (7, -2.90736667811870574951e-02) (8, -6.08719825744628906250e-01) (9, -4.43215109407901763916e-02) (0, -1.11377835273742675781e+00) (1, 2.66582995653152465820e-01) (2, -2.44689166545867919922e-01) (3, -1.06173717975616455078e+00) (4, -7.07387208938598632812e-01) (5, 1.03688001632690429688e+00) (6, 1.89712655544281005859e+00) (7, 8.11635553836822509766e-01) (8, 3.92163842916488647461e-01) (9, -1.52996814250946044922e+00) (0, 1.03876650333404541016e+00) (1, -5.42863905429840087891e-01) (2, 4.39654320478439331055e-01) (3, -7.14132249355316162109e-01) (4, 1.19063436985015869141e+00) (5, -1.20647750794887542725e-01) (6, 2.98711478710174560547e-01) (7, 5.85959255695343017578e-01) (8, 4.48356688022613525391e-01) (9, 8.69136512279510498047e-01) (0, -2.74554014205932617188e-01) (1, 1.30381122231483459473e-01) (2, 7.51751422882080078125e-01) (3, 3.31053078174591064453e-01) (4, 2.15677469968795776367e-01) (5, 1.84829249978065490723e-01) (6, 1.21642005443572998047e+00) (7, 1.24216444790363311768e-01) (8, 4.13437098264694213867e-01) (9, -1.16821682453155517578e+00) (0, 3.07058423757553100586e-01) (1, 1.71811819076538085938e+00) (2, 1.65102481842041015625e+00) (3, -7.71776914596557617188e-01) (4, 6.13161504268646240234e-01) (5, -4.85905706882476806641e-01) (6, 1.41317999362945556641e+00) (7, 9.17727112770080566406e-01) (8, 8.88046085834503173828e-01) (9, 2.09995880722999572754e-01) (0, -2.20334112644195556641e-01) (1, 3.57120901346206665039e-01) (2, 4.34356212615966796875e-01) (3, 5.62841236591339111328e-01) (4, 2.35131764411926269531e+00) (5, -7.35096991062164306641e-01) (6, -1.29969799518585205078e+00) (7, -3.59976500272750854492e-01) (8, 1.59012690186500549316e-01) (9, 2.87594938278198242188e+00) (0, -5.35700619220733642578e-01) (1, 6.49149119853973388672e-01) (2, -3.03060561418533325195e-02) (3, 1.38427972793579101562e+00) (4, -4.84673529863357543945e-01) (5, -2.31148988008499145508e-01) (6, 4.11282539367675781250e-01) (7, 1.23862481117248535156e+00) (8, 3.41953396797180175781e-01) (9, -7.60593533515930175781e-01) (0, 5.51593780517578125000e-01) (1, 1.20982551574707031250e+00) (2, -6.17358684539794921875e-01) (3, 6.34203374385833740234e-01) (4, -3.54382604360580444336e-01) (5, 1.44105362892150878906e+00) (6, 4.03512418270111083984e-01) (7, 9.58105802536010742188e-01) (8, -4.83712404966354370117e-01) (9, 5.49697458744049072266e-01) (0, -5.58612234890460968018e-02) (1, -4.35762405395507812500e-01) (2, -1.07255423069000244141e+00) (3, -1.95625528693199157715e-01) (4, -5.61499774456024169922e-01) (5, 9.55622613430023193359e-01) (6, 4.00346279144287109375e-01) (7, 5.77497005462646484375e-01) (8, 1.13134961575269699097e-02) (9, -2.63383245468139648438e+00) (0, -4.64206874370574951172e-01) (1, 4.00198310613632202148e-01) (2, -2.60550025850534439087e-02) (3, 1.03518223762512207031e+00) (4, 1.83164343237876892090e-01) (5, 8.55052709579467773438e-01) (6, 8.45585823059082031250e-01) (7, 7.24783122539520263672e-01) (8, 5.15632629394531250000e-01) (9, 4.53749224543571472168e-02) (0, 8.93916428089141845703e-01) (1, 2.40543460845947265625e+00) (2, 1.91544091701507568359e+00) (3, 3.20267200469970703125e-01) (4, -1.39025366306304931641e+00) (5, 4.03600662946701049805e-01) (6, 2.12723761796951293945e-02) (7, -7.88805603981018066406e-01) (8, -7.35081136226654052734e-02) (9, 1.22622573375701904297e+00) (0, -6.32719099521636962891e-01) (1, -2.01890215277671813965e-01) (2, 2.68973290920257568359e-01) (3, 5.07088243961334228516e-01) (4, 9.08173322677612304688e-01) (5, 5.67923724651336669922e-01) (6, 5.24263441562652587891e-01) (7, -2.86119014024734497070e-01) (8, 1.22693014144897460938e+00) (9, 5.77741563320159912109e-01) (0, 1.06136143207550048828e+00) (1, -2.03620284795761108398e-01) (2, 7.86993920803070068359e-01) (3, 2.29519722051918506622e-03) (4, 6.47294104099273681641e-01) (5, -3.82621288299560546875e-01) (6, -7.99650788307189941406e-01) (7, 1.09343028068542480469e+00) (8, -2.17773810029029846191e-01) (9, 2.99365699291229248047e-01) (0, 1.31135964393615722656e+00) (1, 1.37009873986244201660e-01) (2, 4.57267393358051776886e-04) (3, 2.65740007162094116211e-01) (4, -6.30923688411712646484e-01) (5, 7.67911791801452636719e-01) (6, 2.17673242092132568359e-01) (7, 7.08921790122985839844e-01) (8, 1.09766936302185058594e+00) (9, -5.10422527790069580078e-01) (0, 1.37424692511558532715e-01) (1, -2.16898888349533081055e-01) (2, -1.54560399055480957031e+00) (3, 1.03136956691741943359e+00) (4, 9.62221384048461914062e-01) (5, -3.52886772155761718750e+00) (6, -1.84230014681816101074e-01) (7, -1.72073513269424438477e-01) (8, -7.36406967043876647949e-02) (9, -2.76311367750167846680e-01) (0, -8.07145476341247558594e-01) (1, -4.14311528205871582031e-01) (2, 1.24267899990081787109e+00) (3, 8.79894614219665527344e-01) (4, -2.67646983265876770020e-02) (5, 1.20848111808300018311e-01) (6, 2.53693580627441406250e+00) (7, 1.36885881423950195312e+00) (8, 1.01243817806243896484e+00) (9, -4.90287765860557556152e-02) (0, 1.33368182182312011719e+00) (1, 1.00194025039672851562e+00) (2, -1.01591312885284423828e+00) (3, 1.89601391553878784180e-01) (4, 4.95473295450210571289e-02) (5, 4.22771036624908447266e-01) (6, -1.66749119758605957031e-01) (7, 1.25905656814575195312e+00) (8, -1.51697039604187011719e-01) (9, -3.57973068952560424805e-01) (0, 3.67023110389709472656e-01) (1, 8.08762311935424804688e-01) (2, 2.00690001249313354492e-01) (3, -4.35779392719268798828e-02) (4, 1.26452040672302246094e+00) (5, -6.05809688568115234375e-01) (6, 1.57504975795745849609e-01) (7, 1.50865459442138671875e+00) (8, 3.68918031454086303711e-01) (9, -1.03915143013000488281e+00) (0, 1.01802742481231689453e+00) (1, 6.12611174583435058594e-01) (2, -7.13592648506164550781e-01) (3, 3.65651875734329223633e-01) (4, 5.50044178962707519531e-01) (5, -8.45351338386535644531e-01) (6, 1.16977536678314208984e+00) (7, 8.47592532634735107422e-01) (8, 2.88038522005081176758e-01) (9, 6.53389453887939453125e-01) (0, 9.74726796150207519531e-01) (1, 1.59743952751159667969e+00) (2, 5.98080396652221679688e-01) (3, -6.30867660045623779297e-01) (4, -1.29846942424774169922e+00) (5, -9.21410918235778808594e-02) (6, -2.17991679906845092773e-01) (7, -7.11558520793914794922e-01) (8, 3.56741547584533691406e-02) (9, 7.26403892040252685547e-01) (0, -3.51792275905609130859e-01) (1, -8.99668514728546142578e-01) (2, -1.03681588172912597656e+00) (3, -4.12064582109451293945e-01) (4, 1.48317253589630126953e+00) (5, -2.38582038879394531250e+00) (6, 2.12292641401290893555e-01) (7, 7.78360515832901000977e-02) (8, 1.52960732579231262207e-01) (9, 2.65119695663452148438e+00) (0, -1.17028895765542984009e-02) (1, -2.69215285778045654297e-01) (2, 6.76033854484558105469e-01) (3, -3.97499278187751770020e-02) (4, 6.83970093727111816406e-01) (5, -1.37327581644058227539e-01) (6, 7.99360930919647216797e-01) (7, 2.41887986660003662109e-01) (8, 1.09758913516998291016e+00) (9, 6.10868692398071289062e-01) (0, 1.12797997891902923584e-01) (1, 7.76680052280426025391e-01) (2, 6.33836388587951660156e-02) (3, -4.59403157234191894531e-01) (4, 1.08717536926269531250e+00) (5, 1.56516209244728088379e-01) (6, -4.96037274599075317383e-01) (7, -5.75518488883972167969e-01) (8, -3.76849293708801269531e-01) (9, 9.19504985213279724121e-02) (0, 6.91093266010284423828e-01) (1, 4.52038437128067016602e-01) (2, 2.38215506076812744141e-01) (3, -4.41520720720291137695e-01) (4, 5.42833328247070312500e-01) (5, 1.06249690055847167969e+00) (6, -4.48868870735168457031e-01) (7, 1.32001429796218872070e-01) (8, 1.76236897706985473633e-01) (9, 5.32059013843536376953e-01) (0, 9.45144832134246826172e-01) (1, 1.25303304195404052734e+00) (2, 4.64557766914367675781e-01) (3, 2.46788904070854187012e-01) (4, 4.08810257911682128906e-01) (5, -2.80872285366058349609e-01) (6, 9.70948517322540283203e-01) (7, -1.54554069042205810547e-01) (8, 2.47394844889640808105e-01) (9, 7.47634828090667724609e-01) (0, 8.29344153404235839844e-01) (1, -9.26369726657867431641e-01) (2, 5.67260384559631347656e-02) (3, 2.71933346986770629883e-01) (4, 2.14862585067749023438e+00) (5, -3.56145769357681274414e-01) (6, 2.08662033081054687500e+00) (7, 8.83683025836944580078e-01) (8, 1.19267866015434265137e-01) (9, -8.13324213027954101562e-01) (0, -4.14345234632492065430e-01) (1, -9.00211334228515625000e-01) (2, 1.27165734767913818359e+00) (3, 4.45844858884811401367e-01) (4, -2.02261172235012054443e-02) (5, 6.01693749427795410156e-01) (6, -3.66173028945922851562e-01) (7, 1.95603430271148681641e-01) (8, 9.90449965000152587891e-01) (9, 7.85628437995910644531e-01) (0, -6.58200800418853759766e-01) (1, 2.93357759714126586914e-01) (2, -5.89472241699695587158e-03) (3, 1.11351060867309570312e+00) (4, -7.35309481620788574219e-01) (5, 7.34800219535827636719e-01) (6, -7.10905566811561584473e-02) (7, -9.85629200935363769531e-01) (8, 5.20472943782806396484e-01) (9, -2.11083307862281799316e-01) (0, 8.46445441246032714844e-01) (1, 1.11740708351135253906e+00) (2, 1.07514023780822753906e+00) (3, -6.88198447227478027344e-01) (4, -7.70322024822235107422e-01) (5, -3.99169027805328369141e-01) (6, 1.56986210495233535767e-02) (7, -1.85312259197235107422e+00) (8, -6.94375813007354736328e-01) (9, 5.90259969234466552734e-01) (0, -2.36146226525306701660e-01) (1, -6.80649697780609130859e-01) (2, 3.59488725662231445312e-01) (3, -3.31340283155441284180e-01) (4, 3.65008980035781860352e-01) (5, -8.64656805992126464844e-01) (6, 5.16871631145477294922e-01) (7, 8.35403144359588623047e-01) (8, 2.91724056005477905273e-01) (9, 2.43275344371795654297e-01) (0, 2.83033013343811035156e-01) (1, 1.30444538593292236328e+00) (2, -1.97648480534553527832e-01) (3, 1.08121275901794433594e+00) (4, 2.42011323571205139160e-01) (5, 3.81336035206913948059e-03) (6, 4.52956527471542358398e-01) (7, -5.86115956306457519531e-01) (8, 3.92924785614013671875e-01) (9, 7.61847913265228271484e-01) (0, -1.62776678800582885742e-01) (1, 3.21466952562332153320e-01) (2, 9.46764111518859863281e-01) (3, -5.51438629627227783203e-01) (4, 8.60228955745697021484e-01) (5, 2.29619354009628295898e-01) (6, -3.51310908794403076172e-01) (7, -3.68465185165405273438e-01) (8, 5.84390103816986083984e-01) (9, -1.72094374895095825195e-01) (0, 5.27555383741855621338e-02) (1, 7.05273270606994628906e-01) (2, 3.41198056936264038086e-01) (3, 1.07593190670013427734e+00) (4, -7.14768886566162109375e-01) (5, 1.67345774173736572266e+00) (6, -5.32602369785308837891e-01) (7, -5.78681051731109619141e-01) (8, -1.47879049181938171387e-01) (9, 1.38407051563262939453e+00) (0, 5.04396736621856689453e-01) (1, -1.21222281455993652344e+00) (2, -2.88600325584411621094e-01) (3, 3.94289568066596984863e-02) (4, -6.58383309841156005859e-01) (5, 8.45288097858428955078e-01) (6, -1.68138146400451660156e-02) (7, 1.14692342281341552734e+00) (8, 1.27970755100250244141e+00) (9, -6.31143987178802490234e-01) (0, 5.31769275665283203125e-01) (1, 1.79398465156555175781e+00) (2, 1.04338657855987548828e+00) (3, -6.20305478572845458984e-01) (4, -1.18077051639556884766e+00) (5, 7.15804994106292724609e-01) (6, 2.84655427932739257812e+00) (7, -3.90361249446868896484e-02) (8, 1.01538449525833129883e-01) (9, -3.10689091682434082031e-01) (0, 6.65077924728393554688e-01) (1, 6.52263760566711425781e-01) (2, 3.55811238288879394531e-01) (3, -3.09100806713104248047e-01) (4, -7.40799188613891601562e-01) (5, 1.02175980806350708008e-01) (6, -6.06486022472381591797e-01) (7, -5.14638483524322509766e-01) (8, -2.15223670005798339844e-01) (9, 5.93273818492889404297e-01) (0, 2.10158035159111022949e-01) (1, 5.19061923027038574219e-01) (2, 1.11618316173553466797e+00) (3, -4.37441140413284301758e-01) (4, 3.11587095260620117188e-01) (5, -1.02078907191753387451e-01) (6, -4.40124452114105224609e-01) (7, 6.19643807411193847656e-01) (8, -3.92104834318161010742e-01) (9, -3.30768465995788574219e-01) (0, -2.28142321109771728516e-01) (1, 2.85957098007202148438e-01) (2, -7.73548662662506103516e-01) (3, -1.12230205535888671875e+00) (4, 2.88351798057556152344e+00) (5, 1.48736906051635742188e+00) (6, 4.52109426259994506836e-02) (7, 3.54254961013793945312e+00) (8, -6.58550858497619628906e-01) (9, 3.57304781675338745117e-01) (0, 1.16017181426286697388e-02) (1, 6.49282395839691162109e-01) (2, 8.81348490715026855469e-01) (3, -2.77680814266204833984e-01) (4, -1.85808524489402770996e-01) (5, -7.45745837688446044922e-01) (6, 9.95860815048217773438e-01) (7, -2.31198653578758239746e-01) (8, -4.42422151565551757812e-01) (9, 6.40137374401092529297e-01) (0, -9.00954842567443847656e-01) (1, -1.85790613293647766113e-01) (2, 4.65197935700416564941e-02) (3, 1.00405395030975341797e+00) (4, -5.92706739902496337891e-01) (5, -3.77136975526809692383e-01) (6, -2.93646872043609619141e-01) (7, -2.13263869285583496094e-01) (8, 1.56878268718719482422e+00) (9, -1.61601632833480834961e-01) (0, 8.61766397953033447266e-01) (1, 1.16274118423461914062e+00) (2, -1.02455210685729980469e+00) (3, 4.95686620473861694336e-01) (4, 3.05379807949066162109e-01) (5, -5.46957314014434814453e-01) (6, -2.67592877149581909180e-01) (7, 3.18834424018859863281e-01) (8, 3.07953476905822753906e-01) (9, -3.21869045495986938477e-01) (0, 9.19183254241943359375e-01) (1, 1.89180448651313781738e-01) (2, 2.96043574810028076172e-01) (3, 5.99356114864349365234e-01) (4, -3.50102901458740234375e-01) (5, 5.11039793491363525391e-01) (6, 8.14603269100189208984e-01) (7, 1.08851575851440429688e+00) (8, 8.00203204154968261719e-01) (9, -4.90933775901794433594e-01) (0, 1.13909292221069335938e+00) (1, 7.68081486225128173828e-01) (2, 3.91194820404052734375e-01) (3, 1.04595875740051269531e+00) (4, 2.98649644851684570312e+00) (5, 1.90398621559143066406e+00) (6, 6.98154389858245849609e-01) (7, -1.13659453392028808594e+00) (8, -6.17613911628723144531e-01) (9, 7.04745709896087646484e-01) (0, -4.47622507810592651367e-01) (1, 3.07865232229232788086e-01) (2, 3.68316531181335449219e-01) (3, 2.60002404451370239258e-01) (4, -6.93177461624145507812e-01) (5, -1.66505753993988037109e-01) (6, -4.22400355339050292969e-01) (7, 2.00254976749420166016e-01) (8, 6.23077154159545898438e-01) (9, -4.80534166097640991211e-01) (0, -7.20729529857635498047e-01) (1, -1.56143069267272949219e+00) (2, -1.49886637926101684570e-01) (3, 1.79694747924804687500e+00) (4, 4.23722937703132629395e-02) (5, 1.10293018817901611328e+00) (6, -2.44407474994659423828e-01) (7, -8.04558277130126953125e-01) (8, -6.63221105933189392090e-02) (9, 5.22202670574188232422e-01) (0, -9.39090728759765625000e-01) (1, 5.53585410118103027344e-01) (2, -5.73058068752288818359e-01) (3, 7.71542131900787353516e-01) (4, 1.35183227062225341797e+00) (5, -9.58184301853179931641e-01) (6, -5.81344449892640113831e-03) (7, 9.31562840938568115234e-01) (8, -8.93335103988647460938e-01) (9, 2.82132387161254882812e-01) (0, -8.06297600269317626953e-01) (1, -1.11900770664215087891e+00) (2, -3.84736150503158569336e-01) (3, 8.34110677242279052734e-01) (4, 6.38241946697235107422e-01) (5, -1.58078745007514953613e-01) (6, -4.33096259832382202148e-01) (7, 1.02366077899932861328e+00) (8, 1.11966156959533691406e+00) (9, 7.78572857379913330078e-01) (0, 1.11810433864593505859e+00) (1, -5.00082433223724365234e-01) (2, 8.23592722415924072266e-01) (3, -1.27502344548702239990e-03) (4, 8.82649958133697509766e-01) (5, 6.71967208385467529297e-01) (6, -5.08266448974609375000e-01) (7, -1.28143501281738281250e+00) (8, -4.35682237148284912109e-01) (9, -4.15531769394874572754e-02) (0, -1.46867558360099792480e-01) (1, 3.02021056413650512695e-01) (2, 8.32258999347686767578e-01) (3, 3.81076902151107788086e-01) (4, 1.71561166644096374512e-01) (5, 8.77193272113800048828e-01) (6, 1.07156462967395782471e-01) (7, -4.09380704164505004883e-01) (8, 3.70521456003189086914e-01) (9, 6.42881929874420166016e-01) (0, 3.67162257432937622070e-01) (1, 9.42658305168151855469e-01) (2, 8.19875657558441162109e-01) (3, 4.44909065961837768555e-01) (4, 7.11566627025604248047e-01) (5, 1.38845801353454589844e-01) (6, 8.52063119411468505859e-01) (7, -4.01467889547348022461e-01) (8, -8.66441786289215087891e-01) (9, -2.12897658348083496094e-01) (0, -2.01816573739051818848e-01) (1, 9.36206281185150146484e-02) (2, 1.91628599166870117188e+00) (3, 4.51330184936523437500e-01) (4, -1.35018244385719299316e-01) (5, 5.80131649971008300781e-01) (6, -4.06345240771770477295e-02) (7, -2.74234443902969360352e-01) (8, 2.77084559202194213867e-01) (9, 1.34095698595046997070e-01) (0, -6.67378246784210205078e-01) (1, 8.07457447052001953125e-01) (2, 1.61805307865142822266e+00) (3, 1.33957076072692871094e+00) (4, 9.71099615097045898438e-01) (5, 4.07693356275558471680e-01) (6, 1.09623491764068603516e+00) (7, 1.20695567131042480469e+00) (8, 8.47275912761688232422e-01) (9, 3.34526151418685913086e-01) (0, -3.66050638258457183838e-02) (1, 1.06483384966850280762e-01) (2, 1.62487685680389404297e-01) (3, 3.74843597412109375000e-01) (4, 7.67881989479064941406e-01) (5, 2.12908792495727539062e+00) (6, -6.15765154361724853516e-01) (7, -1.13559737801551818848e-01) (8, 3.87042284011840820312e-01) (9, -1.16741871833801269531e+00) (0, 7.78441429138183593750e-01) (1, 1.31326103210449218750e+00) (2, -7.28191673755645751953e-01) (3, -7.25062638521194458008e-02) (4, 6.35294127278029918671e-04) (5, 2.61488854885101318359e-01) (6, 4.54878628253936767578e-01) (7, 1.11706674098968505859e+00) (8, 9.52482819557189941406e-01) (9, -5.70885300636291503906e-01) (0, -3.38930636644363403320e-01) (1, 1.26403594017028808594e+00) (2, -1.84758529067039489746e-01) (3, 1.02751874923706054688e+00) (4, 2.02712804079055786133e-01) (5, 1.03234283626079559326e-01) (6, -2.03388947993516921997e-02) (7, 5.97669184207916259766e-01) (8, 9.54568311572074890137e-02) (9, 1.12034511566162109375e+00) (0, -1.35671332478523254395e-01) (1, 4.47352856397628784180e-01) (2, 3.48037272691726684570e-01) (3, -9.09120500087738037109e-01) (4, -9.28510487079620361328e-01) (5, 1.89780578017234802246e-01) (6, -6.31185591220855712891e-01) (7, -9.58046987652778625488e-02) (8, 3.92984360456466674805e-01) (9, -4.09105010330677032471e-02) (10, -3.43947738409042358398e-01) (11, 2.52152681350708007812e-01) (12, 5.14887094497680664062e-01) (13, 3.31177383661270141602e-01) (14, 3.47518146038055419922e-01) (15, 9.84314441680908203125e-01) (16, -4.44894731044769287109e-01) (17, -3.03312331438064575195e-01) (18, -9.42177712917327880859e-01) (19, -8.29937338829040527344e-01) (20, -5.85437566041946411133e-02) (21, -3.60950767993927001953e-01) (22, 1.02252304553985595703e+00) (23, 6.20173394680023193359e-01) (24, 1.35266914963722229004e-01) (25, 4.97122466564178466797e-01) (26, -6.69191777706146240234e-02) (27, 5.23313343524932861328e-01) (28, 1.12089157104492187500e+00) (29, 1.30937591195106506348e-01) (30, 9.01312410831451416016e-01) (31, 5.38420528173446655273e-02) (32, 1.15549266338348388672e+00) (33, 3.47515851259231567383e-01) (34, 1.93023157119750976562e+00) (35, -4.39428091049194335938e-01) (36, -7.68501818180084228516e-01) (37, 7.53994762897491455078e-01) (38, -2.98422157764434814453e-01) (39, -6.44283533096313476562e-01) (40, 1.04972600936889648438e+00) (41, 5.85893750190734863281e-01) (42, 3.08300495147705078125e-01) (43, 4.57381099462509155273e-01) (44, -3.77842068672180175781e-01) (45, 6.85017764568328857422e-01) (46, 1.32275843620300292969e+00) (47, 8.33952352404594421387e-02) (48, 6.26291692256927490234e-01) (49, -2.59751051664352416992e-01) (50, 1.55260160565376281738e-01) (51, 4.09814924001693725586e-01) (52, 5.60729324817657470703e-01) (53, -2.35615834593772888184e-01) (54, -4.70362938940525054932e-02) (55, -7.67471492290496826172e-01) (56, 1.27476942539215087891e+00) (57, 2.58189290761947631836e-01) (58, 1.08663797378540039062e+00) (59, 1.22526369988918304443e-01) (60, -7.36897468566894531250e-01) (61, 3.06851178407669067383e-01) (62, -2.78218656778335571289e-01) (63, -4.69209909439086914062e-01) (64, -2.17208027839660644531e-01) (65, 7.42230355739593505859e-01) (66, -7.37219870090484619141e-01) (67, 2.29758560657501220703e-01) (68, -1.44456863403320312500e-01) (69, 2.40798473358154296875e-01) (70, -7.12055921554565429688e-01) (10, -3.41452285647392272949e-02) (11, -9.08185720443725585938e-01) (12, -1.22033543884754180908e-01) (13, 3.96577864885330200195e-01) (14, -2.42952451109886169434e-01) (15, 6.28746569156646728516e-01) (16, -1.07871010899543762207e-01) (17, 9.42741811275482177734e-01) (18, -6.73411309719085693359e-01) (19, -1.54052436351776123047e+00) (20, -5.45208036899566650391e-01) (21, 2.65591870993375778198e-02) (22, 1.03889667987823486328e+00) (23, -5.05466699600219726562e-01) (24, 1.20245027542114257812e+00) (25, 5.34333169460296630859e-01) (26, -2.37485304474830627441e-01) (27, -2.60103255510330200195e-01) (28, 5.18437147140502929688e-01) (29, 4.18444931507110595703e-01) (30, 2.38739058375358581543e-01) (31, 1.99389263987541198730e-01) (32, -3.31391185522079467773e-01) (33, 1.67621791362762451172e-01) (34, 2.93170475959777832031e+00) (35, 6.51593625545501708984e-01) (36, 6.38363361358642578125e-02) (37, -7.43429303169250488281e-01) (38, -4.38959419727325439453e-01) (39, -7.88189589977264404297e-01) (40, -5.54565072059631347656e-01) (41, -7.53719151020050048828e-01) (42, 2.72501587867736816406e-01) (43, 3.22587043046951293945e-03) (44, -8.27504813671112060547e-01) (45, -5.50666689872741699219e-01) (46, 8.85940790176391601562e-01) (47, 1.93486344069242477417e-02) (48, 7.73754775524139404297e-01) (49, 1.01516866683959960938e+00) (50, 6.92645549774169921875e-01) (51, 6.49133503437042236328e-01) (52, -3.14216464757919311523e-01) (53, 7.14171946048736572266e-01) (54, 4.68603700399398803711e-01) (55, 9.98232066631317138672e-01) (56, 6.50535285472869873047e-01) (57, 6.82569265365600585938e-01) (58, 3.40588480234146118164e-01) (59, 4.68133240938186645508e-01) (60, -2.69863605499267578125e-02) (61, 6.06335461139678955078e-01) (62, 1.12396919727325439453e+00) (63, 3.18730264902114868164e-01) (64, -3.68871867656707763672e-01) (65, 3.31776857376098632812e-01) (66, 8.60334038734436035156e-02) (67, 1.70293986797332763672e-01) (68, 3.40407699346542358398e-01) (69, 8.27504813671112060547e-01) (70, -7.04068541526794433594e-01) (10, 7.55909502506256103516e-01) (11, -3.95308822393417358398e-01) (12, 7.64403566718101501465e-02) (13, -1.79263755679130554199e-01) (14, -2.54862129688262939453e-01) (15, 5.45732617378234863281e-01) (16, 1.42009392380714416504e-01) (17, 8.25597107410430908203e-01) (18, -1.16953682899475097656e+00) (19, -1.03008615970611572266e+00) (20, 2.68576323986053466797e-01) (21, -1.68672308325767517090e-01) (22, 2.27649435400962829590e-01) (23, 3.17751526832580566406e-01) (24, -1.18361711502075195312e-01) (25, -2.24099323153495788574e-01) (26, -6.99151337146759033203e-01) (27, -2.91775137186050415039e-01) (28, 1.00684404373168945312e+00) (29, 3.54676961898803710938e-01) (30, 5.41900455951690673828e-01) (31, -2.30744853615760803223e-01) (32, 2.57525861263275146484e-01) (33, 1.36718571186065673828e+00) (34, 2.52958154678344726562e+00) (35, -3.12908858060836791992e-01) (36, -2.68190562725067138672e-01) (37, 5.95375597476959228516e-02) (38, -7.82625138759613037109e-01) (39, -1.01381587982177734375e+00) (40, 5.22479787468910217285e-02) (41, 5.06654739379882812500e-01) (42, 4.18057739734649658203e-01) (43, -7.64114201068878173828e-01) (44, -6.20878696441650390625e-01) (45, 6.11021578311920166016e-01) (46, 1.04562199115753173828e+00) (47, 8.85072410106658935547e-01) (48, 6.36636137962341308594e-01) (49, -5.59775829315185546875e-01) (50, 9.16714966297149658203e-01) (51, 3.95932495594024658203e-01) (52, -3.25773775577545166016e-01) (53, -1.60762682557106018066e-01) (54, 3.51382076740264892578e-01) (55, 5.00952899456024169922e-01) (56, 9.85772788524627685547e-01) (57, 7.57915735244750976562e-01) (58, 5.99261522293090820312e-01) (59, 2.95871168375015258789e-01) (60, -2.17516154050827026367e-01) (61, -5.46908304095268249512e-02) (62, 7.14783906936645507812e-01) (63, 4.47125375270843505859e-01) (64, -2.57578313350677490234e-01) (65, 8.11568915843963623047e-01) (66, -4.95961040258407592773e-01) (67, 2.79157936573028564453e-01) (68, -8.30147981643676757812e-01) (69, -4.56753313541412353516e-01) (70, 2.72420078516006469727e-01) (10, 1.22630767524242401123e-01) (11, -9.11918878555297851562e-01) (12, -2.05405339598655700684e-01) (13, 9.38507556915283203125e-01) (14, -1.07331883907318115234e+00) (15, 1.17303836345672607422e+00) (16, 3.58719050884246826172e-01) (17, 5.40015459060668945312e-01) (18, 2.99545601010322570801e-02) (19, -1.19860136508941650391e+00) (20, 5.16723245382308959961e-02) (21, 8.73650982975959777832e-02) (22, 1.35382401943206787109e+00) (23, -2.98110008239746093750e-01) (24, 8.56748700141906738281e-01) (25, 1.73492208123207092285e-01) (26, 2.76907652616500854492e-01) (27, -1.37447446584701538086e-01) (28, 5.59088349342346191406e-01) (29, 3.14000457525253295898e-01) (30, 5.64920067787170410156e-01) (31, 1.96260556578636169434e-01) (32, 4.85867053270339965820e-01) (33, 9.19134438037872314453e-01) (34, 3.34885978698730468750e+00) (35, -4.87514406442642211914e-01) (36, 7.04869270324707031250e-01) (37, -5.49835920333862304688e-01) (38, -1.67985880374908447266e+00) (39, -9.51882958412170410156e-01) (40, 7.06898629665374755859e-01) (41, 2.74194896221160888672e-01) (42, 9.96165633201599121094e-01) (43, -4.49376821517944335938e-01) (44, -3.58077853918075561523e-01) (45, -1.41784787178039550781e-01) (46, -4.04589891433715820312e-01) (47, 8.65721702575683593750e-01) (48, 1.05987346172332763672e+00) (49, 6.14803612232208251953e-01) (50, 1.06788001954555511475e-01) (51, 8.14202368259429931641e-01) (52, 3.77313226461410522461e-01) (53, 4.22025114297866821289e-01) (54, 8.50854516029357910156e-01) (55, -9.79303345084190368652e-02) (56, 1.05756294727325439453e+00) (57, 2.98769861459732055664e-01) (58, 2.48374819755554199219e-01) (59, 5.82933068275451660156e-01) (60, 5.37509955465793609619e-02) (61, 1.63474887609481811523e-01) (62, 1.01566183567047119141e+00) (63, 7.71387457847595214844e-01) (64, -6.69307261705398559570e-02) (65, 2.31925055384635925293e-01) (66, 5.54854214191436767578e-01) (67, -2.52161920070648193359e-01) (68, 2.47878387570381164551e-01) (69, 9.02416288852691650391e-01) (70, -7.43862509727478027344e-01)
input_names='a' 'betan' 'bt' 'delta' 'ip' 'kappa' 'neped' 'r' 'zeffped'
output_names='OUT_p_E1_0' 'OUT_p_E1_2' 'OUT_wid_E1_0' 'OUT_wid_E1_2'
norm_output=-0.324993958950689 -0.031607149763372644 0.9312455684175893 0.12488737176047943 0.9206606811803661 -1.5210736376799652 0.25708541031476084 0.1288236239797365 0.19715872165619702 -0.47680515854983246 -0.09155382825844015 0.6512225364205029 0.6983989805242949 0.9156447702351479 -0.8711012880305987 0.34760952496753295 -0.3107201880095888 0.24688032058386178 0.8681387251144406 -0.022869556864905338 0.45031875871224364 0.09765090395643512 -0.5358767314751398 -0.011323797984938332 0.13449279466415562 0.1150827573771555 0.09973467878890203 0.7638199376681876 -0.04636445278822197 0.32544614215571155 0.3588690952405993 -0.5418833918247082 0.2853260748147929 0.176041461451028 -0.14969917066734084 0.12259904971323753
MSE= 2.02643847466