FANN_FLO_2.1
num_layers=3
learning_rate=0.700000
connection_rate=1.000000
network_type=0
learning_momentum=0.000000
training_algorithm=2
train_error_function=0
train_stop_function=0
cascade_output_change_fraction=0.010000
quickprop_decay=1.017836
quickprop_mu=1.750000
rprop_increase_factor=1.200000
rprop_decrease_factor=0.500000
rprop_delta_min=0.000000
rprop_delta_max=50.000000
rprop_delta_zero=0.100000
cascade_output_stagnation_epochs=12
cascade_candidate_change_fraction=0.010000
cascade_candidate_stagnation_epochs=12
cascade_max_out_epochs=150
cascade_min_out_epochs=50
cascade_max_cand_epochs=150
cascade_min_cand_epochs=50
cascade_num_candidate_groups=2
bit_fail_limit=3.49999994039535522461e-01
cascade_candidate_limit=1.00000000000000000000e+03
cascade_weight_multiplier=4.00000005960464477539e-01
cascade_activation_functions_count=10
cascade_activation_functions=3 5 7 8 10 11 14 15 16 17
cascade_activation_steepnesses_count=4
cascade_activation_steepnesses=2.50000000000000000000e-01 5.00000000000000000000e-01 7.50000000000000000000e-01 1.00000000000000000000e+00
layer_sizes=10 61 5
scale_included=1
scale_mean_in=1.792000 2.642000 6.007000 0.491600 9.027000 2.019000 4.438000 6.608000 1.852000
scale_deviation_in=0.053374 0.530771 0.852495 0.066420 1.605656 0.271316 1.104537 0.185325 0.363237
scale_new_min_in=-1.000000 -1.000000 -1.000000 -1.000000 -1.000000 -1.000000 -1.000000 -1.000000 -1.000000
scale_factor_in=1.000000 1.000000 1.000000 1.000000 1.000000 1.000000 1.000000 1.000000 1.000000
scale_mean_out=0.002103 0.007925 0.023829 0.050173
scale_deviation_out=0.000318 0.000695 0.001660 0.002200
scale_new_min_out=-1.000000 -1.000000 -1.000000 -1.000000
scale_factor_out=1.000000 1.000000 1.000000 1.000000
neurons (num_inputs, activation_function, activation_steepness)=(0, 0, 0.00000000000000000000e+00) (0, 0, 0.00000000000000000000e+00) (0, 0, 0.00000000000000000000e+00) (0, 0, 0.00000000000000000000e+00) (0, 0, 0.00000000000000000000e+00) (0, 0, 0.00000000000000000000e+00) (0, 0, 0.00000000000000000000e+00) (0, 0, 0.00000000000000000000e+00) (0, 0, 0.00000000000000000000e+00) (0, 0, 0.00000000000000000000e+00) (10, 5, 5.00000000000000000000e-01) (10, 5, 5.00000000000000000000e-01) (10, 5, 5.00000000000000000000e-01) (10, 5, 5.00000000000000000000e-01) (10, 5, 5.00000000000000000000e-01) (10, 5, 5.00000000000000000000e-01) (10, 5, 5.00000000000000000000e-01) (10, 5, 5.00000000000000000000e-01) (10, 5, 5.00000000000000000000e-01) (10, 5, 5.00000000000000000000e-01) (10, 5, 5.00000000000000000000e-01) (10, 5, 5.00000000000000000000e-01) (10, 5, 5.00000000000000000000e-01) (10, 5, 5.00000000000000000000e-01) (10, 5, 5.00000000000000000000e-01) (10, 5, 5.00000000000000000000e-01) (10, 5, 5.00000000000000000000e-01) (10, 5, 5.00000000000000000000e-01) (10, 5, 5.00000000000000000000e-01) (10, 5, 5.00000000000000000000e-01) (10, 5, 5.00000000000000000000e-01) (10, 5, 5.00000000000000000000e-01) (10, 5, 5.00000000000000000000e-01) (10, 5, 5.00000000000000000000e-01) (10, 5, 5.00000000000000000000e-01) (10, 5, 5.00000000000000000000e-01) (10, 5, 5.00000000000000000000e-01) (10, 5, 5.00000000000000000000e-01) (10, 5, 5.00000000000000000000e-01) (10, 5, 5.00000000000000000000e-01) (10, 5, 5.00000000000000000000e-01) (10, 5, 5.00000000000000000000e-01) (10, 5, 5.00000000000000000000e-01) (10, 5, 5.00000000000000000000e-01) (10, 5, 5.00000000000000000000e-01) (10, 5, 5.00000000000000000000e-01) (10, 5, 5.00000000000000000000e-01) (10, 5, 5.00000000000000000000e-01) (10, 5, 5.00000000000000000000e-01) (10, 5, 5.00000000000000000000e-01) (10, 5, 5.00000000000000000000e-01) (10, 5, 5.00000000000000000000e-01) (10, 5, 5.00000000000000000000e-01) (10, 5, 5.00000000000000000000e-01) (10, 5, 5.00000000000000000000e-01) (10, 5, 5.00000000000000000000e-01) (10, 5, 5.00000000000000000000e-01) (10, 5, 5.00000000000000000000e-01) (10, 5, 5.00000000000000000000e-01) (10, 5, 5.00000000000000000000e-01) (10, 5, 5.00000000000000000000e-01) (10, 5, 5.00000000000000000000e-01) (10, 5, 5.00000000000000000000e-01) (10, 5, 5.00000000000000000000e-01) (10, 5, 5.00000000000000000000e-01) (10, 5, 5.00000000000000000000e-01) (10, 5, 5.00000000000000000000e-01) (10, 5, 5.00000000000000000000e-01) (10, 5, 5.00000000000000000000e-01) (10, 5, 5.00000000000000000000e-01) (0, 5, 0.00000000000000000000e+00) (61, 0, 5.00000000000000000000e-01) (61, 0, 5.00000000000000000000e-01) (61, 0, 5.00000000000000000000e-01) (61, 0, 5.00000000000000000000e-01) (0, 0, 0.00000000000000000000e+00)
connections (connected_to_neuron, weight)=(0, 1.07885682582855224609e+00) (1, 2.35164821147918701172e-01) (2, -3.71328353881835937500e-01) (3, 2.22993230819702148438e+00) (4, -4.98223394155502319336e-01) (5, 1.70667088031768798828e+00) (6, 2.98165772110223770142e-02) (7, -8.03106427192687988281e-01) (8, 4.24127340316772460938e-01) (9, 9.58379387855529785156e-01) (0, -9.14150536060333251953e-01) (1, 1.97792753577232360840e-01) (2, -6.92402064800262451172e-01) (3, 2.72335801273584365845e-02) (4, -6.40973746776580810547e-01) (5, -9.05406381934881210327e-03) (6, -8.74281764030456542969e-01) (7, 5.61928033828735351562e-01) (8, -6.52106761932373046875e-01) (9, -5.70360481739044189453e-01) (0, 1.68180477619171142578e+00) (1, 4.39702749252319335938e-01) (2, 3.34081649780273437500e+00) (3, 1.26933646202087402344e+00) (4, -2.04587936401367187500e+00) (5, -5.60446262359619140625e-01) (6, 4.33470010757446289062e-01) (7, 4.81647074222564697266e-01) (8, 5.77687658369541168213e-02) (9, -5.69476306438446044922e-01) (0, -5.08609712123870849609e-01) (1, -1.42352998256683349609e+00) (2, -8.84354770183563232422e-01) (3, 1.38210594654083251953e+00) (4, 6.13758191466331481934e-02) (5, 2.11856913566589355469e+00) (6, 3.78293246030807495117e-01) (7, 2.52757698297500610352e-01) (8, -1.84515689034014940262e-03) (9, -8.99560898542404174805e-02) (0, 1.06961280107498168945e-01) (1, 8.14821958541870117188e-01) (2, -1.75508761405944824219e+00) (3, 9.01673614978790283203e-01) (4, 5.11258363723754882812e-01) (5, 2.35271263122558593750e+00) (6, -2.49830871820449829102e-01) (7, -9.47920441627502441406e-01) (8, 1.54156434535980224609e+00) (9, 8.35200369358062744141e-01) (0, 2.89845395088195800781e+00) (1, -4.59919303655624389648e-01) (2, 5.82966923713684082031e-01) (3, 3.51828289031982421875e+00) (4, -7.28876173496246337891e-01) (5, -2.94779926538467407227e-01) (6, 1.67900517582893371582e-01) (7, -9.48872268199920654297e-01) (8, -6.55246317386627197266e-01) (9, 3.60468059778213500977e-01) (0, -5.10406315326690673828e-01) (1, 3.40335071086883544922e-01) (2, -1.37271553277969360352e-01) (3, -2.37064272165298461914e-01) (4, -6.03378891944885253906e-01) (5, 6.11997172236442565918e-02) (6, -6.36063635349273681641e-01) (7, 7.99862563610076904297e-01) (8, -1.68505519628524780273e-01) (9, -1.47064268589019775391e-01) (0, -6.96749910712242126465e-02) (1, 1.02153588086366653442e-02) (2, 8.65777075290679931641e-01) (3, -1.48931473493576049805e-01) (4, -3.77022325992584228516e-01) (5, -2.63150874525308609009e-03) (6, -2.93688118457794189453e-01) (7, -1.20308026671409606934e-02) (8, -4.28054004907608032227e-01) (9, 6.17626607418060302734e-01) (0, -1.26000058650970458984e+00) (1, -6.91006839275360107422e-01) (2, 1.09841477870941162109e+00) (3, 8.23175609111785888672e-01) (4, 1.68582355976104736328e+00) (5, 1.39094471931457519531e+00) (6, 4.60392683744430541992e-01) (7, 6.17921352386474609375e-01) (8, 6.27692580223083496094e-01) (9, 1.05100549757480621338e-01) (0, 9.46878790855407714844e-01) (1, 4.46501858532428741455e-02) (2, -2.72954493761062622070e-01) (3, -6.60763323307037353516e-01) (4, -8.56202304363250732422e-01) (5, 1.46113365888595581055e-01) (6, 8.41314554214477539062e-01) (7, -6.59196674823760986328e-01) (8, -3.32749873399734497070e-01) (9, -1.41238212585449218750e+00) (0, 1.54515504837036132812e-01) (1, -1.04710318148136138916e-01) (2, -1.47883534431457519531e-01) (3, -1.03322990238666534424e-01) (4, 9.71089124679565429688e-01) (5, -2.26983964443206787109e-01) (6, 5.73441207408905029297e-01) (7, 1.80009692907333374023e-01) (8, -1.17660067975521087646e-01) (9, 9.92428958415985107422e-01) (0, -3.45426023006439208984e-01) (1, -1.76070845127105712891e+00) (2, -1.93127319216728210449e-01) (3, -2.01255631446838378906e+00) (4, 1.78564894199371337891e+00) (5, -3.62375617027282714844e+00) (6, 6.35175108909606933594e-01) (7, 2.89852648973464965820e-01) (8, 3.39606404304504394531e-01) (9, 5.86409378051757812500e+00) (0, 1.16425096988677978516e+00) (1, -2.72309005260467529297e-01) (2, 7.37341761589050292969e-01) (3, -2.39131259918212890625e+00) (4, -3.42930227518081665039e-01) (5, -1.02268218994140625000e-01) (6, 4.40903842449188232422e-01) (7, -4.49575424194335937500e-01) (8, -9.05408039689064025879e-02) (9, 8.61025094985961914062e-01) (0, 6.05870425701141357422e-01) (1, -7.06213891506195068359e-01) (2, 6.69120788574218750000e-01) (3, 6.69529616832733154297e-01) (4, -2.32231035828590393066e-01) (5, -4.65363693237304687500e+00) (6, -2.19429448246955871582e-01) (7, 1.25043764710426330566e-01) (8, 8.28186273574829101562e-02) (9, 6.35633915662765502930e-02) (0, -1.27133703231811523438e+00) (1, 3.09236854314804077148e-01) (2, -7.87880048155784606934e-02) (3, 8.96322309970855712891e-01) (4, 1.96896374225616455078e+00) (5, -1.19742202758789062500e+00) (6, -2.52020396292209625244e-02) (7, 3.00144553184509277344e-01) (8, -5.05826413631439208984e-01) (9, -1.52245042845606803894e-02) (0, 1.04969155788421630859e+00) (1, 4.45056498050689697266e-01) (2, 1.69066095352172851562e+00) (3, 9.60980653762817382812e-02) (4, -1.50082147121429443359e+00) (5, 3.05915832519531250000e+00) (6, -4.79871451854705810547e-01) (7, -7.32645034790039062500e-01) (8, -1.02961635589599609375e+00) (9, -6.05772018432617187500e-01) (0, 2.08117270469665527344e+00) (1, 3.39829862117767333984e-01) (2, 2.37268164753913879395e-01) (3, 3.48719358444213867188e-01) (4, 7.23651826381683349609e-01) (5, -1.00034618377685546875e+00) (6, 5.42947709560394287109e-01) (7, -6.20347201824188232422e-01) (8, -2.97060990333557128906e+00) (9, 4.75490182638168334961e-01) (0, 1.93521320819854736328e+00) (1, 2.03662678599357604980e-01) (2, 9.11347806453704833984e-01) (3, -3.00845813751220703125e+00) (4, 9.48338031768798828125e-01) (5, -4.92753274738788604736e-02) (6, -7.66822040081024169922e-01) (7, 1.79168403148651123047e+00) (8, 2.29986026883125305176e-01) (9, 7.14520066976547241211e-02) (0, 7.98641681671142578125e-01) (1, 3.88439154624938964844e+00) (2, 6.42255783081054687500e-01) (3, -4.76081192493438720703e-01) (4, 7.99433410167694091797e-01) (5, 6.27088308334350585938e-01) (6, -1.19664812088012695312e+00) (7, 1.40025889873504638672e+00) (8, 1.16338515281677246094e+00) (9, -1.17573893070220947266e+00) (0, -3.44425648450851440430e-01) (1, 9.44291770458221435547e-01) (2, 3.24712246656417846680e-01) (3, 1.67886480689048767090e-01) (4, -2.62471556663513183594e-01) (5, 7.86095857620239257812e-01) (6, 4.27546352148056030273e-01) (7, -8.62023770809173583984e-01) (8, 6.35857805609703063965e-02) (9, -2.11528204381465911865e-02) (0, 1.98621079325675964355e-01) (1, -3.27245771884918212891e-01) (2, -5.28223395347595214844e-01) (3, 2.96896308660507202148e-01) (4, -5.37920556962490081787e-02) (5, -2.79244136810302734375e+00) (6, 2.13596999645233154297e-01) (7, 1.54985457658767700195e-01) (8, -3.67037057876586914062e-01) (9, 2.10287523269653320312e+00) (0, 2.01745152473449707031e+00) (1, -3.91472190618515014648e-01) (2, 1.71609759330749511719e-01) (3, -8.27422976493835449219e-01) (4, 1.09835219383239746094e+00) (5, 1.11484158039093017578e+00) (6, -2.79895246028900146484e-01) (7, 4.50469672679901123047e-01) (8, 4.77019809186458587646e-02) (9, -7.37599670886993408203e-01) (0, -7.02509582042694091797e-01) (1, 9.30729229003190994263e-03) (2, -2.97110825777053833008e-01) (3, 6.45309448242187500000e-01) (4, 5.84583640098571777344e-01) (5, 2.93973147869110107422e-01) (6, -2.30916544795036315918e-01) (7, -5.29155910015106201172e-01) (8, 4.25364196300506591797e-01) (9, -7.05952703952789306641e-01) (0, -6.07446193695068359375e-01) (1, -6.51622533798217773438e-01) (2, 9.16883349418640136719e-01) (3, 2.49246060848236083984e-01) (4, 1.19681727886199951172e+00) (5, -3.26887875795364379883e-01) (6, -1.32432524114847183228e-02) (7, 1.60531485080718994141e+00) (8, 1.23472750186920166016e-01) (9, -3.30362379550933837891e-01) (0, -6.30042850971221923828e-01) (1, -4.06957343220710754395e-02) (2, 8.58481884002685546875e-01) (3, 8.95775318145751953125e-01) (4, 1.63939690589904785156e+00) (5, 1.23193752765655517578e+00) (6, -4.77137470245361328125e+00) (7, 6.25093579292297363281e-01) (8, 1.01876664161682128906e+00) (9, -5.42782306671142578125e-01) (0, 2.08265289664268493652e-01) (1, 1.66243600845336914062e+00) (2, 1.91793692111968994141e+00) (3, 1.35270202159881591797e+00) (4, 8.64874005317687988281e-01) (5, 2.52976274490356445312e+00) (6, -2.93646547943353652954e-02) (7, -2.56506800651550292969e-01) (8, 1.61692547798156738281e+00) (9, -9.68988001346588134766e-01) (0, 1.51074397563934326172e+00) (1, 4.92838525772094726562e+00) (2, -8.64655897021293640137e-02) (3, -1.12265264987945556641e+00) (4, 2.00187611579895019531e+00) (5, -1.44737005233764648438e-01) (6, -8.42335283756256103516e-01) (7, -3.22720557451248168945e-01) (8, -1.43783736228942871094e+00) (9, -1.60814869403839111328e+00) (0, -7.18365013599395751953e-01) (1, 1.26849877834320068359e+00) (2, 5.61173379421234130859e-01) (3, 1.38280582427978515625e+00) (4, -1.15652704238891601562e+00) (5, -1.53301626443862915039e-01) (6, 7.32465609908103942871e-02) (7, 6.22447252273559570312e-01) (8, 1.22064197063446044922e+00) (9, 1.51613920927047729492e-01) (0, -2.44376373291015625000e+00) (1, 2.55669355392456054688e+00) (2, 3.18330019712448120117e-01) (3, -1.84001398086547851562e+00) (4, 9.14143860340118408203e-01) (5, 6.85715436935424804688e-01) (6, 9.32303488254547119141e-01) (7, -3.09155368804931640625e+00) (8, -8.87741804122924804688e-01) (9, 1.91797828674316406250e+00) (0, 2.07788801193237304688e+00) (1, 2.01169431209564208984e-01) (2, 6.92061603069305419922e-01) (3, -5.63545763492584228516e-01) (4, 9.96180593967437744141e-01) (5, -7.87958443164825439453e-01) (6, -1.44430768489837646484e+00) (7, 1.19399690628051757812e+00) (8, 1.99478551745414733887e-01) (9, 3.16246181726455688477e-01) (0, 2.03568387031555175781e+00) (1, 1.42838823795318603516e+00) (2, 1.14267802238464355469e+00) (3, -2.66011506319046020508e-01) (4, 2.22101306915283203125e+00) (5, 2.61375814676284790039e-01) (6, 1.50908485054969787598e-01) (7, -7.59122014045715332031e-01) (8, -1.89146488904953002930e-01) (9, 3.48907887935638427734e-01) (0, -3.70739012956619262695e-01) (1, -6.98036432266235351562e-01) (2, -1.16100348532199859619e-01) (3, 5.93200564384460449219e-01) (4, 4.40704405307769775391e-01) (5, -3.18794697523117065430e-01) (6, 3.75244051218032836914e-01) (7, -2.51426219940185546875e-01) (8, 1.62392541766166687012e-01) (9, 1.96420297026634216309e-01) (0, 1.12765133380889892578e+00) (1, -3.38726311922073364258e-01) (2, 5.71848273277282714844e-01) (3, 2.25534415245056152344e+00) (4, -3.76193284988403320312e-01) (5, -1.23562848567962646484e+00) (6, -3.44079136848449707031e-01) (7, 2.34174823760986328125e+00) (8, -1.83792078495025634766e+00) (9, -3.83381620049476623535e-02) (0, -7.34210550785064697266e-01) (1, 4.75882381200790405273e-01) (2, 3.61346691846847534180e-01) (3, 1.07380485534667968750e+00) (4, 2.58428514003753662109e-01) (5, 6.32735908031463623047e-01) (6, 8.48429799079895019531e-01) (7, 4.62730705738067626953e-01) (8, 1.65112543106079101562e+00) (9, 2.20804393291473388672e-01) (0, -1.64913141727447509766e+00) (1, 6.49039566516876220703e-01) (2, 1.85898411273956298828e+00) (3, 1.33522999286651611328e+00) (4, 3.28080344200134277344e+00) (5, -8.72709929943084716797e-01) (6, -2.12640017271041870117e-01) (7, 7.51904487609863281250e-01) (8, 8.24177920818328857422e-01) (9, 1.66459321975708007812e+00) (0, -1.67323672771453857422e+00) (1, -7.88862109184265136719e-01) (2, 1.23551976680755615234e+00) (3, -1.58944621682167053223e-01) (4, 3.48915553092956542969e+00) (5, -6.99455142021179199219e-01) (6, 1.91496744751930236816e-01) (7, 1.78173208236694335938e+00) (8, 1.21251034736633300781e+00) (9, 4.80102121829986572266e-01) (0, 6.49606764316558837891e-01) (1, 5.96299469470977783203e-01) (2, -2.39645934104919433594e+00) (3, 2.18483448028564453125e-01) (4, 1.24736082553863525391e+00) (5, 8.15682053565979003906e-01) (6, -9.39357757568359375000e-01) (7, -3.34957927465438842773e-01) (8, 2.39948654174804687500e+00) (9, -1.46600055694580078125e+00) (0, -6.29776954650878906250e-01) (1, -2.91789531707763671875e-01) (2, -3.61897796392440795898e-01) (3, -8.87215495109558105469e-01) (4, 1.91911399364471435547e-01) (5, 1.85656070709228515625e-01) (6, -8.60446766018867492676e-02) (7, 3.01143109798431396484e-01) (8, 1.05806386470794677734e+00) (9, -1.11299085617065429688e+00) (0, -3.79825890064239501953e-01) (1, 4.88694787025451660156e-01) (2, 2.57516682147979736328e-01) (3, 8.59071612358093261719e-01) (4, 2.14718684554100036621e-01) (5, -2.92346417903900146484e-01) (6, -7.03805029392242431641e-01) (7, 1.93951018154621124268e-02) (8, -3.80618453025817871094e-01) (9, -2.49951648712158203125e+00) (0, 2.45724201202392578125e+00) (1, -1.88400253653526306152e-01) (2, 2.30046319961547851562e+00) (3, 4.20192509889602661133e-01) (4, 5.04323840141296386719e-01) (5, -2.77442193031311035156e+00) (6, -5.61846256256103515625e-01) (7, 7.57814586162567138672e-01) (8, 1.09197294712066650391e+00) (9, 3.55686694383621215820e-01) (0, 1.58857810497283935547e+00) (1, 1.37006449699401855469e+00) (2, -1.24367251992225646973e-01) (3, 1.11785280704498291016e+00) (4, 1.26500809192657470703e+00) (5, 4.85246209427714347839e-03) (6, -3.71124409139156341553e-02) (7, 5.95814406871795654297e-01) (8, -1.70291376113891601562e+00) (9, -1.18900847434997558594e+00) (0, -1.20626240968704223633e-02) (1, 7.42441117763519287109e-01) (2, 1.41260683536529541016e+00) (3, -3.12870740890502929688e-01) (4, -9.43432033061981201172e-01) (5, 1.51508808135986328125e+00) (6, 4.02561128139495849609e-01) (7, 2.79431253671646118164e-01) (8, -8.73979091644287109375e-01) (9, 1.95773613452911376953e+00) (0, 1.32837831974029541016e+00) (1, 2.82246446609497070312e+00) (2, 7.35666871070861816406e-01) (3, 9.78880047798156738281e-01) (4, -9.39278781414031982422e-01) (5, 1.23685884475708007812e+00) (6, -2.11587473750114440918e-02) (7, -2.05242037773132324219e+00) (8, 5.77303588390350341797e-01) (9, -9.20680463314056396484e-01) (0, 7.76810795068740844727e-02) (1, 3.99720996618270874023e-01) (2, -2.81934571266174316406e+00) (3, -1.14261829853057861328e+00) (4, -3.10135054588317871094e+00) (5, -7.42131531238555908203e-01) (6, -9.80781495571136474609e-01) (7, 1.32733988761901855469e+00) (8, 1.09768293797969818115e-01) (9, -5.98733365535736083984e-01) (0, 9.90646660327911376953e-01) (1, -6.41573488712310791016e-01) (2, -6.70435667037963867188e-01) (3, 2.92901545763015747070e-01) (4, 5.07215559482574462891e-01) (5, -1.91181683540344238281e+00) (6, 6.35168850421905517578e-02) (7, 1.16034078598022460938e+00) (8, 3.06722939014434814453e-01) (9, 1.62511929869651794434e-01) (0, 9.19725120067596435547e-01) (1, 1.85840487480163574219e+00) (2, 1.59499812126159667969e+00) (3, -1.03873312473297119141e+00) (4, -2.13381075859069824219e+00) (5, -7.55241792649030685425e-03) (6, -4.10716921091079711914e-01) (7, -1.01977074146270751953e+00) (8, -2.48628169298171997070e-01) (9, 8.41525733470916748047e-01) (0, -1.62666410207748413086e-01) (1, -9.14284139871597290039e-02) (2, 9.91091690957546234131e-03) (3, 2.24719929695129394531e+00) (4, 9.36699330806732177734e-01) (5, -1.04361951351165771484e+00) (6, -3.65332913398742675781e+00) (7, 1.29985153675079345703e-01) (8, -1.23381257057189941406e+00) (9, 1.73173069953918457031e+00) (0, 6.54448151588439941406e-01) (1, 2.60288506746292114258e-01) (2, 1.77027612924575805664e-01) (3, -2.54468083381652832031e-01) (4, 1.42185163497924804688e+00) (5, 8.60613286495208740234e-01) (6, -8.49424451589584350586e-02) (7, -1.25109052658081054688e+00) (8, -1.57027983665466308594e+00) (9, 8.46041679382324218750e-01) (0, 5.40968537330627441406e-01) (1, -2.65036761760711669922e-01) (2, 2.11949795484542846680e-01) (3, -6.74829035997390747070e-02) (4, 5.14410555362701416016e-01) (5, -7.52215445041656494141e-01) (6, -4.76014614105224609375e-01) (7, 1.20160698890686035156e+00) (8, -5.41923642158508300781e-01) (9, 1.19418013095855712891e+00) (0, 1.24788367748260498047e+00) (1, -2.77922563254833221436e-02) (2, -2.19456613063812255859e-01) (3, 8.33950817584991455078e-01) (4, -2.25326672196388244629e-01) (5, -7.86229312419891357422e-01) (6, -3.75531464815139770508e-01) (7, 9.32818576693534851074e-02) (8, -3.58227938413619995117e-01) (9, -6.45581305027008056641e-01) (0, 3.30374622344970703125e+00) (1, -8.08409094810485839844e-01) (2, 5.89323401451110839844e-01) (3, -1.19838392734527587891e+00) (4, 4.12887901067733764648e-01) (5, -3.03232192993164062500e-01) (6, -6.88565015792846679688e-01) (7, 2.10018849372863769531e+00) (8, -2.11521506309509277344e-01) (9, -9.83211159706115722656e-01) (0, 8.67763102054595947266e-01) (1, -1.89643502235412597656e-01) (2, -2.85377681255340576172e-01) (3, -1.31030008196830749512e-01) (4, 1.05161452293395996094e+00) (5, -4.63644623756408691406e-01) (6, -1.83237373828887939453e-01) (7, -6.39135658740997314453e-01) (8, 5.66772282123565673828e-01) (9, -3.28539162874221801758e-01) (0, 1.62083756923675537109e+00) (1, -1.07635879516601562500e+00) (2, -9.05649006366729736328e-01) (3, -7.98207402229309082031e-01) (4, 2.27192425727844238281e+00) (5, -1.19195401668548583984e+00) (6, 8.30269455909729003906e-01) (7, 1.67658078670501708984e+00) (8, -7.22542703151702880859e-01) (9, -2.12713122367858886719e+00) (0, 5.29001533985137939453e-01) (1, -3.20651841163635253906e+00) (2, -5.75267493724822998047e-01) (3, -2.11084127426147460938e+00) (4, 1.68053579330444335938e+00) (5, 1.45273816585540771484e+00) (6, -1.85171127319335937500e+00) (7, 9.56961989402770996094e-01) (8, 5.44074475765228271484e-01) (9, -1.89363822340965270996e-01) (0, 6.30048930644989013672e-01) (1, 3.19400519132614135742e-01) (2, 3.06808829307556152344e+00) (3, 2.57588148117065429688e+00) (4, 1.77258551120758056641e+00) (5, 4.00025397539138793945e-02) (6, 2.98231720924377441406e-01) (7, -2.13963046669960021973e-01) (8, 4.28939685225486755371e-02) (9, 3.61865401268005371094e-01) (0, -1.23573645949363708496e-01) (1, 5.00758886337280273438e-01) (2, 6.56460702419281005859e-01) (3, -4.37083482742309570312e-01) (4, 1.21104931831359863281e+00) (5, -6.39691710472106933594e-01) (6, 6.00533664226531982422e-01) (7, -2.99352335929870605469e+00) (8, 9.29661631584167480469e-01) (9, 5.03069353103637695312e+00) (0, 6.19997262954711914062e-01) (1, -1.59852194786071777344e+00) (2, -2.64539271593093872070e-01) (3, 3.22273421287536621094e+00) (4, -7.19567179679870605469e-01) (5, -1.72992777824401855469e+00) (6, 1.08414173126220703125e+00) (7, -5.54589293897151947021e-02) (8, -1.67440962791442871094e+00) (9, 2.37955320626497268677e-02) (0, 8.47083210945129394531e-01) (1, 1.12037515640258789062e+00) (2, 1.41635835170745849609e+00) (3, 5.32598078250885009766e-01) (4, -9.50494408607482910156e-01) (5, 1.06519913673400878906e+00) (6, -4.86654698848724365234e-01) (7, -3.94153624773025512695e-01) (8, 3.54506999254226684570e-01) (9, 1.42537653446197509766e+00) (0, 5.59176564216613769531e-01) (1, 2.84576769918203353882e-02) (2, 3.00724005699157714844e+00) (3, 1.86054110527038574219e-01) (4, 1.10552358627319335938e+00) (5, -8.44576954841613769531e-01) (6, -1.76388978958129882812e-01) (7, 8.57666611671447753906e-01) (8, -5.48552870750427246094e-01) (9, 5.86409091949462890625e-01) (0, 3.36470127105712890625e-01) (1, -8.13824594020843505859e-01) (2, 4.93523895740509033203e-01) (3, 5.93710482120513916016e-01) (4, -1.02878682315349578857e-01) (5, 1.56079208850860595703e+00) (6, 7.73734033107757568359e-01) (7, -7.43665814399719238281e-01) (8, -5.08604824542999267578e-01) (9, 1.50539159774780273438e+00) (10, 7.23162651062011718750e-01) (11, 9.61131870746612548828e-01) (12, 7.20063209533691406250e-01) (13, 1.47564911842346191406e+00) (14, 8.92396569252014160156e-01) (15, -1.08983480930328369141e+00) (16, -6.16036951541900634766e-01) (17, -7.98125147819519042969e-01) (18, 9.20172989368438720703e-01) (19, 1.30802762508392333984e+00) (20, -5.13420581817626953125e-01) (21, 2.10119533538818359375e+00) (22, 1.20046281814575195312e+00) (23, 6.01421594619750976562e-01) (24, 8.48361611366271972656e-01) (25, -7.71807074546813964844e-01) (26, -3.35106462240219116211e-01) (27, -3.69824171066284179688e-01) (28, 1.23928856849670410156e+00) (29, -2.24545449018478393555e-01) (30, 1.38484311103820800781e+00) (31, 6.76795005798339843750e-01) (32, -1.64692446589469909668e-01) (33, 6.45819783210754394531e-01) (34, -2.36623197793960571289e-01) (35, -5.19902169704437255859e-01) (36, -5.61597704887390136719e-01) (37, -2.44801089167594909668e-01) (38, 7.43101060390472412109e-01) (39, -1.01353622972965240479e-01) (40, -7.19485342502593994141e-01) (41, -8.67604076862335205078e-01) (42, 1.27393752336502075195e-01) (43, 1.07725858688354492188e+00) (44, -1.12700857222080230713e-01) (45, -8.25085163116455078125e-01) (46, 2.23922014236450195312e-01) (47, 7.73473739624023437500e-01) (48, 1.77004599571228027344e+00) (49, -1.05914604663848876953e+00) (50, 8.55004370212554931641e-01) (51, -1.90461605787277221680e-01) (52, 4.20354694128036499023e-01) (53, 8.33576261997222900391e-01) (54, 6.60440444946289062500e-01) (55, 1.04808497428894042969e+00) (56, -6.07363641262054443359e-01) (57, 6.69310569763183593750e-01) (58, 2.03053161501884460449e-01) (59, 7.44060099124908447266e-01) (60, -4.85119670629501342773e-01) (61, 9.44266840815544128418e-02) (62, -6.54062688350677490234e-01) (63, 8.80427122116088867188e-01) (64, 1.08827435970306396484e+00) (65, -6.34466648101806640625e-01) (66, 7.84640610218048095703e-01) (67, 3.94028067588806152344e-01) (68, 8.70491683483123779297e-01) (69, 9.73637282848358154297e-01) (70, 1.22216895222663879395e-01) (10, 4.45918440818786621094e-02) (11, 1.44097506999969482422e+00) (12, -4.51975911855697631836e-01) (13, 8.87998700141906738281e-01) (14, -4.79295164346694946289e-01) (15, -4.01658445596694946289e-01) (16, -2.26865679025650024414e-01) (17, 4.18950617313385009766e-01) (18, 6.95937395095825195312e-01) (19, 6.80943727493286132812e-01) (20, -3.98425996303558349609e-01) (21, 1.03766214847564697266e+00) (22, 8.20499658584594726562e-01) (23, 1.11091089248657226562e+00) (24, 1.30898427963256835938e+00) (25, -1.16913008689880371094e+00) (26, -5.17740845680236816406e-01) (27, -4.49411362409591674805e-01) (28, 1.16270446777343750000e+00) (29, 4.95320409536361694336e-01) (30, 9.06447529792785644531e-01) (31, 4.95016247034072875977e-01) (32, 1.13977360725402832031e+00) (33, 7.43022143840789794922e-01) (34, -6.96872353553771972656e-01) (35, -9.60715234279632568359e-01) (36, -1.47640860080718994141e+00) (37, 7.20170557498931884766e-01) (38, 7.77085602283477783203e-01) (39, -3.27962368726730346680e-01) (40, -9.03433561325073242188e-02) (41, -3.26647371053695678711e-01) (42, -2.28563830256462097168e-01) (43, 5.49028158187866210938e-01) (44, -1.24274814128875732422e+00) (45, 1.63579598069190979004e-01) (46, 9.89097833633422851562e-01) (47, 4.59843486547470092773e-01) (48, 6.28120124340057373047e-01) (49, -1.37102627754211425781e+00) (50, 1.56252169609069824219e+00) (51, 1.25673127174377441406e+00) (52, 4.69005823135375976562e-01) (53, 9.87728893756866455078e-01) (54, 9.62360978126525878906e-01) (55, 1.47197532653808593750e+00) (56, -1.71934318542480468750e+00) (57, 7.08001911640167236328e-01) (58, 1.19031228125095367432e-01) (59, 6.69118404388427734375e-01) (60, 6.65306568145751953125e-01) (61, 1.08950114250183105469e+00) (62, -1.00707340240478515625e+00) (63, 1.40777301788330078125e+00) (64, 1.01099014282226562500e+00) (65, -4.88924473524093627930e-01) (66, 1.01059758663177490234e+00) (67, 1.60447204113006591797e+00) (68, 9.16375041007995605469e-01) (69, -2.62700498104095458984e-01) (70, -3.62201809883117675781e-01) (10, 7.73797750473022460938e-01) (11, 2.41243615746498107910e-01) (12, 7.65292048454284667969e-01) (13, 2.13848876953125000000e+00) (14, 6.51654183864593505859e-01) (15, -1.46424400806427001953e+00) (16, 8.94324839115142822266e-01) (17, 9.32573914527893066406e-01) (18, 1.63417708873748779297e+00) (19, 8.67926776409149169922e-01) (20, 5.52113354206085205078e-01) (21, 2.30519032478332519531e+00) (22, 1.79780650138854980469e+00) (23, 6.41232848167419433594e-01) (24, 1.20737886428833007812e+00) (25, -1.00271821022033691406e+00) (26, 8.75750929117202758789e-02) (27, -5.80163478851318359375e-01) (28, 1.64422714710235595703e+00) (29, 3.77631008625030517578e-01) (30, 1.94695973396301269531e+00) (31, 7.04780340194702148438e-01) (32, 1.57990425825119018555e-01) (33, -4.32381033897399902344e-01) (34, -3.61452221870422363281e-01) (35, -4.84926939010620117188e-01) (36, -6.18935644626617431641e-01) (37, 5.61069130897521972656e-01) (38, 9.64181602001190185547e-01) (39, -4.48850125074386596680e-01) (40, -3.17119359970092773438e-01) (41, -6.33783638477325439453e-01) (42, 4.37618821859359741211e-01) (43, 6.70256167650222778320e-02) (44, -3.29409658908843994141e-01) (45, -8.18209528923034667969e-01) (46, 5.22457122802734375000e-01) (47, 8.90420138835906982422e-01) (48, 2.57629108428955078125e+00) (49, -1.17888486385345458984e+00) (50, 7.39581823348999023438e-01) (51, -2.17774242162704467773e-01) (52, 2.97056108713150024414e-01) (53, 6.87391996383666992188e-01) (54, 9.03617382049560546875e-01) (55, 9.47307109832763671875e-01) (56, -8.68233740329742431641e-01) (57, -2.69438564777374267578e-01) (58, -4.09727841615676879883e-01) (59, 1.28671193122863769531e+00) (60, -3.38401168584823608398e-01) (61, 7.42455005645751953125e-01) (62, -5.35300731658935546875e-01) (63, 1.57125890254974365234e+00) (64, 8.34626555442810058594e-01) (65, -9.40921723842620849609e-01) (66, 9.69669401645660400391e-01) (67, 8.39731574058532714844e-01) (68, 7.48583197593688964844e-01) (69, 1.12802755832672119141e+00) (70, -1.10100425779819488525e-01) (10, -5.19056141376495361328e-01) (11, 1.49167275428771972656e+00) (12, -5.98567366600036621094e-01) (13, 8.36384952068328857422e-01) (14, -1.54508635401725769043e-01) (15, -2.88817495107650756836e-01) (16, 2.88166940212249755859e-01) (17, 2.54588901996612548828e-01) (18, 7.54140794277191162109e-01) (19, 8.91720831394195556641e-01) (20, 6.31043970584869384766e-01) (21, 1.00121009349822998047e+00) (22, 5.35341560840606689453e-01) (23, 1.08225715160369873047e+00) (24, 1.46502971649169921875e+00) (25, -1.13694620132446289062e+00) (26, -1.80183768272399902344e-01) (27, -4.22884166240692138672e-01) (28, 1.31436598300933837891e+00) (29, -7.43447363376617431641e-01) (30, 7.70097374916076660156e-01) (31, 7.77539908885955810547e-01) (32, 2.75520503520965576172e-01) (33, 2.58730530738830566406e-01) (34, -8.83114278316497802734e-01) (35, -6.38431608676910400391e-01) (36, -1.44030356407165527344e+00) (37, 9.00271415710449218750e-01) (38, 9.02327716350555419922e-01) (39, 4.20079976320266723633e-01) (40, -4.21278864145278930664e-01) (41, 5.80571115016937255859e-01) (42, -5.10909795761108398438e-01) (43, 9.60548371076583862305e-02) (44, -1.23461282253265380859e+00) (45, 5.16159236431121826172e-01) (46, 8.83017838001251220703e-01) (47, 9.54439163208007812500e-01) (48, 1.28981506824493408203e+00) (49, -1.29846727848052978516e+00) (50, 1.41695618629455566406e+00) (51, 1.02534472942352294922e+00) (52, 5.69176197052001953125e-01) (53, 1.09038901329040527344e+00) (54, 4.31996226310729980469e-01) (55, 1.49353861808776855469e+00) (56, -1.61543440818786621094e+00) (57, 5.03109991550445556641e-01) (58, -4.72272187471389770508e-01) (59, 9.75283682346343994141e-01) (60, 1.38697087764739990234e-01) (61, 7.73179113864898681641e-01) (62, -1.03507673740386962891e+00) (63, 1.28509449958801269531e+00) (64, 9.90738689899444580078e-01) (65, -3.70947122573852539062e-01) (66, 1.09368240833282470703e+00) (67, 2.39183735847473144531e+00) (68, 8.85802209377288818359e-01) (69, 4.33696389198303222656e-01) (70, -4.83604550361633300781e-01)
input_names='a' 'betan' 'bt' 'delta' 'ip' 'kappa' 'neped' 'r' 'zeffped'
output_names='OUT_p_E1_0' 'OUT_p_E1_2' 'OUT_wid_E1_0' 'OUT_wid_E1_2'
norm_output=-0.324993958950689 -0.031607149763372644 0.9312455684175893 0.12488737176047943 0.9206606811803661 -1.5210736376799652 0.25708541031476084 0.1288236239797365 0.19715872165619702 -0.47680515854983246 -0.09155382825844015 0.6512225364205029 0.6983989805242949 0.9156447702351479 -0.8711012880305987 0.34760952496753295 -0.3107201880095888 0.24688032058386178 0.8681387251144406 -0.022869556864905338 0.45031875871224364 0.09765090395643512 -0.5358767314751398 -0.011323797984938332 0.13449279466415562 0.1150827573771555 0.09973467878890203 0.7638199376681876 -0.04636445278822197 0.32544614215571155 0.3588690952405993 -0.5418833918247082 0.2853260748147929 0.176041461451028 -0.14969917066734084 0.12259904971323753
MSE= 1.58235549927