FANN_FLO_2.1
num_layers=3
learning_rate=0.700000
connection_rate=1.000000
network_type=0
learning_momentum=0.000000
training_algorithm=2
train_error_function=0
train_stop_function=0
cascade_output_change_fraction=0.010000
quickprop_decay=1.044033
quickprop_mu=1.750000
rprop_increase_factor=1.200000
rprop_decrease_factor=0.500000
rprop_delta_min=0.000000
rprop_delta_max=50.000000
rprop_delta_zero=0.100000
cascade_output_stagnation_epochs=12
cascade_candidate_change_fraction=0.010000
cascade_candidate_stagnation_epochs=12
cascade_max_out_epochs=150
cascade_min_out_epochs=50
cascade_max_cand_epochs=150
cascade_min_cand_epochs=50
cascade_num_candidate_groups=2
bit_fail_limit=3.49999994039535522461e-01
cascade_candidate_limit=1.00000000000000000000e+03
cascade_weight_multiplier=4.00000005960464477539e-01
cascade_activation_functions_count=10
cascade_activation_functions=3 5 7 8 10 11 14 15 16 17
cascade_activation_steepnesses_count=4
cascade_activation_steepnesses=2.50000000000000000000e-01 5.00000000000000000000e-01 7.50000000000000000000e-01 1.00000000000000000000e+00
layer_sizes=10 61 5
scale_included=1
scale_mean_in=1.792000 2.642000 6.007000 0.491600 9.027000 2.019000 4.438000 6.608000 1.852000
scale_deviation_in=0.053374 0.530771 0.852495 0.066420 1.605656 0.271316 1.104537 0.185325 0.363237
scale_new_min_in=-1.000000 -1.000000 -1.000000 -1.000000 -1.000000 -1.000000 -1.000000 -1.000000 -1.000000
scale_factor_in=1.000000 1.000000 1.000000 1.000000 1.000000 1.000000 1.000000 1.000000 1.000000
scale_mean_out=0.002103 0.007925 0.023829 0.050173
scale_deviation_out=0.000318 0.000695 0.001660 0.002200
scale_new_min_out=-1.000000 -1.000000 -1.000000 -1.000000
scale_factor_out=1.000000 1.000000 1.000000 1.000000
neurons (num_inputs, activation_function, activation_steepness)=(0, 0, 0.00000000000000000000e+00) (0, 0, 0.00000000000000000000e+00) (0, 0, 0.00000000000000000000e+00) (0, 0, 0.00000000000000000000e+00) (0, 0, 0.00000000000000000000e+00) (0, 0, 0.00000000000000000000e+00) (0, 0, 0.00000000000000000000e+00) (0, 0, 0.00000000000000000000e+00) (0, 0, 0.00000000000000000000e+00) (0, 0, 0.00000000000000000000e+00) (10, 5, 5.00000000000000000000e-01) (10, 5, 5.00000000000000000000e-01) (10, 5, 5.00000000000000000000e-01) (10, 5, 5.00000000000000000000e-01) (10, 5, 5.00000000000000000000e-01) (10, 5, 5.00000000000000000000e-01) (10, 5, 5.00000000000000000000e-01) (10, 5, 5.00000000000000000000e-01) (10, 5, 5.00000000000000000000e-01) (10, 5, 5.00000000000000000000e-01) (10, 5, 5.00000000000000000000e-01) (10, 5, 5.00000000000000000000e-01) (10, 5, 5.00000000000000000000e-01) (10, 5, 5.00000000000000000000e-01) (10, 5, 5.00000000000000000000e-01) (10, 5, 5.00000000000000000000e-01) (10, 5, 5.00000000000000000000e-01) (10, 5, 5.00000000000000000000e-01) (10, 5, 5.00000000000000000000e-01) (10, 5, 5.00000000000000000000e-01) (10, 5, 5.00000000000000000000e-01) (10, 5, 5.00000000000000000000e-01) (10, 5, 5.00000000000000000000e-01) (10, 5, 5.00000000000000000000e-01) (10, 5, 5.00000000000000000000e-01) (10, 5, 5.00000000000000000000e-01) (10, 5, 5.00000000000000000000e-01) (10, 5, 5.00000000000000000000e-01) (10, 5, 5.00000000000000000000e-01) (10, 5, 5.00000000000000000000e-01) (10, 5, 5.00000000000000000000e-01) (10, 5, 5.00000000000000000000e-01) (10, 5, 5.00000000000000000000e-01) (10, 5, 5.00000000000000000000e-01) (10, 5, 5.00000000000000000000e-01) (10, 5, 5.00000000000000000000e-01) (10, 5, 5.00000000000000000000e-01) (10, 5, 5.00000000000000000000e-01) (10, 5, 5.00000000000000000000e-01) (10, 5, 5.00000000000000000000e-01) (10, 5, 5.00000000000000000000e-01) (10, 5, 5.00000000000000000000e-01) (10, 5, 5.00000000000000000000e-01) (10, 5, 5.00000000000000000000e-01) (10, 5, 5.00000000000000000000e-01) (10, 5, 5.00000000000000000000e-01) (10, 5, 5.00000000000000000000e-01) (10, 5, 5.00000000000000000000e-01) (10, 5, 5.00000000000000000000e-01) (10, 5, 5.00000000000000000000e-01) (10, 5, 5.00000000000000000000e-01) (10, 5, 5.00000000000000000000e-01) (10, 5, 5.00000000000000000000e-01) (10, 5, 5.00000000000000000000e-01) (10, 5, 5.00000000000000000000e-01) (10, 5, 5.00000000000000000000e-01) (10, 5, 5.00000000000000000000e-01) (10, 5, 5.00000000000000000000e-01) (10, 5, 5.00000000000000000000e-01) (10, 5, 5.00000000000000000000e-01) (0, 5, 0.00000000000000000000e+00) (61, 0, 5.00000000000000000000e-01) (61, 0, 5.00000000000000000000e-01) (61, 0, 5.00000000000000000000e-01) (61, 0, 5.00000000000000000000e-01) (0, 0, 0.00000000000000000000e+00)
connections (connected_to_neuron, weight)=(0, -6.70724391937255859375e-01) (1, 3.58466923236846923828e-01) (2, 2.88613229990005493164e-01) (3, -6.60594403743743896484e-02) (4, 1.25243902206420898438e-01) (5, 2.92963474988937377930e-01) (6, 9.15915548801422119141e-01) (7, 7.05206334590911865234e-01) (8, 1.22877068817615509033e-01) (9, -1.00878047943115234375e+00) (0, 5.48044979572296142578e-01) (1, -6.88067302107810974121e-02) (2, -9.16386581957340240479e-03) (3, -3.70078235864639282227e-02) (4, 5.96350133419036865234e-01) (5, 7.65192210674285888672e-01) (6, 7.16612696647644042969e-01) (7, -7.69253909587860107422e-01) (8, 7.51990914344787597656e-01) (9, -1.18613779544830322266e+00) (0, 5.81494867801666259766e-01) (1, 8.84259879589080810547e-01) (2, -1.26684665679931640625e+00) (3, 1.33209735155105590820e-01) (4, -5.97340047359466552734e-01) (5, 3.43002736568450927734e-01) (6, 7.35395133495330810547e-01) (7, 1.31003165245056152344e+00) (8, -5.65055534243583679199e-02) (9, 9.86525774002075195312e-01) (0, -2.61600166559219360352e-01) (1, 8.91759812831878662109e-01) (2, 7.33317434787750244141e-01) (3, 1.02102851867675781250e+00) (4, -9.81463372707366943359e-01) (5, 1.24128329753875732422e+00) (6, 5.86322307586669921875e-01) (7, -1.20512664318084716797e+00) (8, 5.84861755371093750000e-01) (9, 5.54554522037506103516e-01) (0, -6.70307338237762451172e-01) (1, -4.79104995727539062500e-01) (2, 7.20279335975646972656e-01) (3, 1.29345953464508056641e-01) (4, 9.24994826316833496094e-01) (5, 5.86270093917846679688e-01) (6, -2.30268657207489013672e-01) (7, 3.82335305213928222656e-01) (8, -4.79172229766845703125e-01) (9, 7.24642276763916015625e-01) (0, 1.05304181575775146484e+00) (1, 8.77423956990242004395e-03) (2, -1.17405943572521209717e-01) (3, 1.17711806297302246094e+00) (4, -3.09935927391052246094e-01) (5, 2.73331999778747558594e+00) (6, 3.11946183443069458008e-01) (7, -1.12923964858055114746e-01) (8, -5.25749444961547851562e-01) (9, 1.18850660324096679688e+00) (0, 2.44212388992309570312e-01) (1, 1.22839367389678955078e+00) (2, 1.74290323257446289062e+00) (3, 1.91475942730903625488e-01) (4, -9.61436510086059570312e-01) (5, 1.55051839351654052734e+00) (6, -1.85286641120910644531e-01) (7, -8.21287572383880615234e-01) (8, 1.33484080433845520020e-01) (9, 2.85746860504150390625e+00) (0, 7.48349726200103759766e-01) (1, -7.24778249859809875488e-02) (2, -2.46119976043701171875e+00) (3, -4.32049296796321868896e-02) (4, -9.56511080265045166016e-01) (5, 1.52087199687957763672e+00) (6, 5.43590009212493896484e-01) (7, 1.38964068889617919922e+00) (8, 2.00005307793617248535e-01) (9, -1.79375207424163818359e+00) (0, 1.23191311955451965332e-01) (1, 2.60571897029876708984e-01) (2, 3.49543273448944091797e-01) (3, -1.55572503805160522461e-01) (4, 4.54829856753349304199e-02) (5, 3.42322289943695068359e-01) (6, 7.18155205249786376953e-01) (7, 4.65439498424530029297e-01) (8, 6.93572998046875000000e-01) (9, -6.91200613975524902344e-01) (0, 1.12612009048461914062e+00) (1, -2.21920466423034667969e+00) (2, 5.00250756740570068359e-01) (3, -5.06254076957702636719e-01) (4, -7.60636091232299804688e-01) (5, -4.36679035425186157227e-01) (6, -5.98088264465332031250e-01) (7, 5.61226606369018554688e-01) (8, -2.32377678155899047852e-01) (9, -2.18561172485351562500e-01) (0, -2.03614458441734313965e-01) (1, 4.71279412508010864258e-01) (2, -5.00254929065704345703e-01) (3, -9.93538141250610351562e-01) (4, -2.78575628995895385742e-01) (5, -1.36463567614555358887e-01) (6, -5.90772151947021484375e-01) (7, -4.19120103120803833008e-01) (8, -9.26713824272155761719e-01) (9, 9.03306186199188232422e-01) (0, -1.58029735088348388672e-01) (1, 1.44490882754325866699e-01) (2, -1.22635042667388916016e+00) (3, -8.98858189582824707031e-01) (4, 9.04026687145233154297e-01) (5, 6.85869753360748291016e-01) (6, 1.94842785596847534180e-01) (7, 6.05019211769104003906e-01) (8, -2.87581443786621093750e-01) (9, -4.48772698640823364258e-01) (0, 1.79002717137336730957e-01) (1, 8.39920520782470703125e-01) (2, 7.17053592205047607422e-01) (3, 7.32153356075286865234e-01) (4, -7.18428850173950195312e-01) (5, 4.40311878919601440430e-02) (6, 1.48245662450790405273e-01) (7, -4.06003862619400024414e-01) (8, 1.18704915046691894531e+00) (9, 8.23535978794097900391e-01) (0, -9.45944786071777343750e-02) (1, -8.80518138408660888672e-01) (2, 6.49824380874633789062e-01) (3, -1.67073404788970947266e+00) (4, 1.74104857444763183594e+00) (5, 1.71981239318847656250e+00) (6, 5.57206571102142333984e-01) (7, -1.22216194868087768555e-01) (8, 7.44232162833213806152e-02) (9, 2.70145416259765625000e-01) (0, -3.09365481138229370117e-01) (1, -5.72431385517120361328e-02) (2, 3.12235563993453979492e-01) (3, -6.46759092807769775391e-01) (4, 3.72692376375198364258e-01) (5, -2.25101321935653686523e-01) (6, 4.97658610343933105469e-01) (7, -4.98950898647308349609e-01) (8, 1.37141501903533935547e+00) (9, -8.03305447101593017578e-01) (0, 3.10645014047622680664e-01) (1, 1.73458647727966308594e+00) (2, 1.21989715099334716797e+00) (3, 5.93162059783935546875e-01) (4, -6.26576066017150878906e-01) (5, -9.53654110431671142578e-01) (6, 8.42457234859466552734e-01) (7, -1.06685984134674072266e+00) (8, -5.39600476622581481934e-02) (9, 5.59019386768341064453e-01) (0, 2.40728482604026794434e-01) (1, -3.84082645177841186523e-01) (2, -1.49665370583534240723e-01) (3, -3.91458459198474884033e-02) (4, 5.13630390167236328125e-01) (5, -7.53624141216278076172e-01) (6, 3.85618768632411956787e-02) (7, 5.62114834785461425781e-01) (8, 8.07519078254699707031e-01) (9, -1.42123401165008544922e-01) (0, 2.24649786949157714844e-01) (1, 7.89787918329238891602e-02) (2, 8.97213339805603027344e-01) (3, -1.72448945045471191406e+00) (4, 3.84658724069595336914e-01) (5, 6.09920918941497802734e-01) (6, -1.36909234523773193359e+00) (7, 4.08113300800323486328e-01) (8, -2.23856806755065917969e-01) (9, 4.41052794456481933594e-01) (0, 2.40505743026733398438e+00) (1, 2.39243650436401367188e+00) (2, 1.25983488559722900391e+00) (3, 1.79730868339538574219e+00) (4, 2.11886143684387207031e+00) (5, -6.86587572097778320312e-01) (6, 6.90852105617523193359e-01) (7, -1.86503738164901733398e-01) (8, -5.49069464206695556641e-01) (9, -1.83550405502319335938e+00) (0, -9.80833530426025390625e-01) (1, -2.90236830711364746094e-01) (2, 8.29370558261871337891e-01) (3, -6.38468563556671142578e-01) (4, 1.08269584178924560547e+00) (5, 2.06467777490615844727e-01) (6, -8.55267718434333801270e-02) (7, 1.15560591220855712891e+00) (8, -3.59249830245971679688e-01) (9, 4.60392624139785766602e-01) (0, -8.98452177643775939941e-02) (1, 9.98095750808715820312e-01) (2, -3.96907716989517211914e-01) (3, -1.25217139720916748047e-01) (4, 7.36483216285705566406e-01) (5, -2.79410392045974731445e-01) (6, -6.61900758743286132812e-01) (7, 3.11783105134963989258e-02) (8, 1.35960280895233154297e+00) (9, -2.54916578531265258789e-01) (0, 7.44803473353385925293e-02) (1, 4.30104613304138183594e-01) (2, -1.04857957363128662109e+00) (3, 5.19628286361694335938e-01) (4, 1.26979851722717285156e+00) (5, 8.82776618003845214844e-01) (6, 4.99953508377075195312e-01) (7, -1.59082394093275070190e-02) (8, 4.03895348310470581055e-01) (9, -7.33877494931221008301e-02) (0, 6.77135407924652099609e-01) (1, 2.41143107414245605469e-01) (2, 2.23979979753494262695e-01) (3, 6.94769799709320068359e-01) (4, 8.59733283519744873047e-01) (5, 7.07119643688201904297e-01) (6, 1.14405397325754165649e-02) (7, -2.24150285124778747559e-01) (8, 2.44654059410095214844e-01) (9, 2.55824685096740722656e-01) (0, -5.75624167919158935547e-01) (1, 1.16051900386810302734e+00) (2, 5.18151760101318359375e-01) (3, 1.25858232378959655762e-01) (4, -9.67194318771362304688e-01) (5, 4.70035910606384277344e-01) (6, 5.90898804366588592529e-02) (7, -5.46110153198242187500e-01) (8, 6.20460629463195800781e-01) (9, 4.78040218353271484375e-01) (0, -4.09557700157165527344e-01) (1, -8.00394058227539062500e-01) (2, -2.73724675178527832031e-01) (3, 1.52921557426452636719e-01) (4, 9.92578744888305664062e-01) (5, -4.63877230882644653320e-01) (6, 8.62431228160858154297e-01) (7, 3.31558823585510253906e-01) (8, 6.84015810489654541016e-01) (9, -3.42188358306884765625e-01) (0, 6.41748547554016113281e-01) (1, 5.73804557323455810547e-01) (2, 7.91212975978851318359e-01) (3, 5.50926625728607177734e-01) (4, -3.01272690296173095703e-01) (5, 3.60627591609954833984e-01) (6, -1.26290678977966308594e-01) (7, 5.37864267826080322266e-01) (8, -4.09425854682922363281e-01) (9, 4.68447655439376831055e-01) (0, -5.78455686569213867188e-01) (1, -1.35978266596794128418e-01) (2, 1.13214039802551269531e+00) (3, 1.51341545581817626953e+00) (4, 4.26258593797683715820e-02) (5, 2.82775700092315673828e-01) (6, 1.17166295647621154785e-01) (7, 5.35192787647247314453e-01) (8, 5.63174247741699218750e-01) (9, -6.81427001953125000000e-01) (0, 9.74237918853759765625e-02) (1, 9.44422423839569091797e-01) (2, -9.81938838958740234375e-02) (3, 2.58582383394241333008e-01) (4, 4.41362172365188598633e-01) (5, -4.98506188392639160156e-01) (6, -2.01023072004318237305e-02) (7, -3.58155220746994018555e-01) (8, 5.73393523693084716797e-01) (9, -2.77671307325363159180e-01) (0, 2.95986741781234741211e-01) (1, 4.18077111244201660156e-01) (2, -1.31846681237220764160e-01) (3, -1.05020217597484588623e-01) (4, -1.13587117195129394531e+00) (5, 8.36580514907836914062e-01) (6, 1.13680601119995117188e+00) (7, 1.01931202411651611328e+00) (8, 2.79098115861415863037e-02) (9, -6.10018372535705566406e-01) (0, 3.13975930213928222656e-01) (1, 2.41877004504203796387e-01) (2, -1.01013839244842529297e+00) (3, 1.11301326751708984375e+00) (4, 1.68554246425628662109e+00) (5, -3.61104279756546020508e-01) (6, 5.04106104373931884766e-01) (7, 9.81945216655731201172e-01) (8, 5.25007486343383789062e-01) (9, 6.92654788494110107422e-01) (0, 6.90044164657592773438e-01) (1, -6.38118743896484375000e-01) (2, -5.05637899041175842285e-02) (3, 5.00856861472129821777e-02) (4, -1.23453497886657714844e-01) (5, 3.55455517768859863281e-01) (6, -2.97700226306915283203e-01) (7, -1.61247700452804565430e-02) (8, -5.56386411190032958984e-02) (9, 1.32008719444274902344e+00) (0, -1.07131659984588623047e+00) (1, 4.63104426860809326172e-01) (2, 2.40673616528511047363e-01) (3, -5.72673082351684570312e-01) (4, -1.22602856159210205078e+00) (5, 4.40213620662689208984e-01) (6, -9.73730027675628662109e-01) (7, -9.06965196132659912109e-01) (8, 2.04394720494747161865e-02) (9, 5.58585971593856811523e-02) (0, -8.06074202060699462891e-01) (1, 8.04026186466217041016e-01) (2, -6.07593238353729248047e-01) (3, 2.52358734607696533203e-01) (4, -9.24246609210968017578e-02) (5, 1.20270466804504394531e+00) (6, 6.29056215286254882812e-01) (7, -2.80530661344528198242e-01) (8, 1.88472941517829895020e-01) (9, 6.78382515907287597656e-01) (0, 4.45112752914428710938e+00) (1, 1.00731360912322998047e+00) (2, 1.19769144058227539062e+00) (3, 3.56062591075897216797e-01) (4, 5.27661859989166259766e-01) (5, 1.26345008611679077148e-01) (6, 1.01874375343322753906e+00) (7, -4.34696286916732788086e-01) (8, 7.91086196899414062500e-01) (9, -1.84002116322517395020e-01) (0, -1.84241080284118652344e+00) (1, 2.96212732791900634766e-01) (2, -3.31372916698455810547e-01) (3, 1.62120386958122253418e-01) (4, -3.71191191673278808594e+00) (5, -2.37289166450500488281e+00) (6, 4.23201173543930053711e-01) (7, -7.36504793167114257812e-01) (8, -5.35951912403106689453e-01) (9, 1.51720774173736572266e+00) (0, -2.14705869555473327637e-01) (1, -3.07191431522369384766e-01) (2, -9.95109915733337402344e-01) (3, 1.53514516353607177734e+00) (4, -5.18448054790496826172e-02) (5, 1.82414329051971435547e+00) (6, 6.51018142700195312500e-01) (7, 2.29688823223114013672e-01) (8, 5.87539076805114746094e-01) (9, 1.11682283878326416016e+00) (0, -1.23485589027404785156e+00) (1, 7.14282914996147155762e-02) (2, 5.44317901134490966797e-01) (3, 5.50417482852935791016e-01) (4, 2.42232656478881835938e+00) (5, -3.34928393363952636719e-01) (6, -1.23271274566650390625e+00) (7, 5.84711790084838867188e-01) (8, -4.95045911520719528198e-03) (9, 2.35468149185180664062e+00) (0, 5.86453139781951904297e-01) (1, 4.91589277982711791992e-01) (2, 1.18078851699829101562e+00) (3, 9.41156029701232910156e-01) (4, -1.77041935920715332031e+00) (5, 1.78436863422393798828e+00) (6, 3.51966947317123413086e-01) (7, 1.36681902408599853516e+00) (8, 9.46967303752899169922e-01) (9, -1.12679409980773925781e+00) (0, 5.80300629138946533203e-01) (1, 3.28446149826049804688e-01) (2, -4.10214453935623168945e-01) (3, -8.39120328426361083984e-01) (4, 4.69303011894226074219e-01) (5, 3.97567391395568847656e-01) (6, -3.44496011734008789062e-01) (7, 2.46446490287780761719e+00) (8, -3.39088827371597290039e-01) (9, -1.11645019054412841797e+00) (0, 2.63973206281661987305e-01) (1, -9.66484844684600830078e-01) (2, 7.03256309032440185547e-01) (3, -4.32569652795791625977e-01) (4, 6.28036677837371826172e-01) (5, 1.26958191394805908203e-01) (6, 1.21473357081413269043e-01) (7, 8.90432476997375488281e-01) (8, 7.94634461402893066406e-01) (9, 6.53517305850982666016e-01) (0, 3.48240196704864501953e-01) (1, 2.66198217868804931641e-01) (2, 9.51423466205596923828e-01) (3, -2.00740918517112731934e-01) (4, -6.17447614669799804688e-01) (5, 2.53486347198486328125e+00) (6, -7.89241492748260498047e-01) (7, -3.24218831956386566162e-02) (8, 4.31372702121734619141e-01) (9, -1.20757365226745605469e+00) (0, 6.70099020004272460938e-01) (1, 3.64917248487472534180e-01) (2, 1.79963767528533935547e-01) (3, 1.13353595137596130371e-01) (4, -4.94476199150085449219e-01) (5, 5.53815662860870361328e-01) (6, 8.63446652889251708984e-01) (7, 1.14225482940673828125e+00) (8, -2.02679604291915893555e-01) (9, -4.96660292148590087891e-01) (0, 5.55177867412567138672e-01) (1, 1.96662390232086181641e+00) (2, 8.40374290943145751953e-01) (3, -9.29058670997619628906e-01) (4, 2.33795523643493652344e+00) (5, -6.03808164596557617188e-02) (6, 6.13270103931427001953e-01) (7, -4.16723847389221191406e-01) (8, 1.88201904296875000000e-01) (9, 8.14383864402770996094e-01) (0, -4.84288871288299560547e-01) (1, 1.44356763362884521484e+00) (2, 9.79716181755065917969e-01) (3, 1.45542234182357788086e-01) (4, -9.01529371738433837891e-01) (5, 1.50369608402252197266e+00) (6, 2.45045468211174011230e-01) (7, -2.75510519742965698242e-01) (8, -2.77036845684051513672e-01) (9, -1.62169706821441650391e+00) (0, -3.87238711118698120117e-01) (1, 6.22177004814147949219e-01) (2, -1.32777345180511474609e+00) (3, 7.58350908756256103516e-01) (4, 7.31906712055206298828e-01) (5, -7.37403869628906250000e-01) (6, 2.16544792056083679199e-01) (7, 8.02907869219779968262e-02) (8, -2.02546343207359313965e-01) (9, -1.91862955689430236816e-01) (0, -2.68584489822387695312e+00) (1, -1.40028846263885498047e+00) (2, 1.86848595738410949707e-01) (3, -8.83640706539154052734e-01) (4, 7.07003593444824218750e-01) (5, -1.13482646644115447998e-01) (6, -1.07962004840373992920e-01) (7, 9.67590928077697753906e-01) (8, 4.71989333629608154297e-01) (9, 8.88700306415557861328e-01) (0, 4.24044668674468994141e-01) (1, -5.67354619503021240234e-01) (2, 7.64692366123199462891e-01) (3, 3.86661082506179809570e-01) (4, 4.52649021148681640625e+00) (5, 1.94438791275024414062e+00) (6, -2.16765239834785461426e-01) (7, -5.25833964347839355469e-01) (8, -6.76726937294006347656e-01) (9, 2.42391541600227355957e-01) (0, 1.32831501960754394531e+00) (1, -1.72301650047302246094e+00) (2, 2.82573513686656951904e-04) (3, -6.26354068517684936523e-02) (4, 5.38745737075805664062e+00) (5, 2.77585715055465698242e-01) (6, 7.54863321781158447266e-01) (7, 7.38208949565887451172e-01) (8, -2.51113772392272949219e-01) (9, -1.02320635318756103516e+00) (0, -1.14181578159332275391e+00) (1, -1.52448618412017822266e+00) (2, -6.77504241466522216797e-01) (3, -6.15628898143768310547e-01) (4, 2.33661890029907226562e+00) (5, 3.97338390350341796875e-01) (6, 1.71457797288894653320e-01) (7, -2.17241838574409484863e-01) (8, -2.17366665601730346680e-01) (9, 1.67826160788536071777e-01) (0, 1.28697618842124938965e-01) (1, -2.10537120699882507324e-01) (2, 1.92235469818115234375e-01) (3, 3.03558528423309326172e-01) (4, -4.87060844898223876953e-01) (5, 1.10101580619812011719e+00) (6, 7.91619122028350830078e-01) (7, 2.37009704113006591797e-01) (8, 1.23319268226623535156e+00) (9, 9.33506369590759277344e-01) (0, -4.46517527103424072266e-01) (1, -9.35407876968383789062e-01) (2, -1.07169306278228759766e+00) (3, 2.38467097282409667969e-01) (4, 1.74102771282196044922e+00) (5, -7.67395138740539550781e-01) (6, 3.91328603029251098633e-01) (7, 8.41322898864746093750e-01) (8, 3.15508693456649780273e-01) (9, -1.03110241889953613281e+00) (0, -1.03053355216979980469e+00) (1, 5.59884548187255859375e-01) (2, 7.80946671962738037109e-01) (3, -1.44486352801322937012e-01) (4, -6.55393898487091064453e-01) (5, 7.27307870984077453613e-02) (6, -4.21673834323883056641e-01) (7, -6.18559896945953369141e-01) (8, 8.41999530792236328125e-01) (9, -2.17162934131920337677e-03) (0, 1.31972849369049072266e+00) (1, -4.02765512466430664062e-01) (2, -6.09813868999481201172e-01) (3, -2.13570952415466308594e-01) (4, -2.70946681499481201172e-01) (5, 5.41335403919219970703e-01) (6, 1.00265932083129882812e+00) (7, 5.71318626403808593750e-01) (8, 6.03062398731708526611e-02) (9, 1.20533967018127441406e+00) (0, -6.71182096004486083984e-01) (1, 2.35684895515441894531e+00) (2, -2.01003290712833404541e-02) (3, 7.16070711612701416016e-01) (4, 4.54943478107452392578e-01) (5, 4.44404125213623046875e-01) (6, 3.42613518238067626953e-01) (7, -6.47754251956939697266e-01) (8, -1.67459189891815185547e-01) (9, -2.38545253872871398926e-01) (0, -7.31605738401412963867e-02) (1, 8.37661623954772949219e-01) (2, 7.34502613544464111328e-01) (3, 9.07126069068908691406e-01) (4, 1.48670256137847900391e+00) (5, -2.37599775195121765137e-01) (6, 4.20169442892074584961e-01) (7, 8.49362075328826904297e-01) (8, -2.34654203057289123535e-01) (9, -2.92579531669616699219e-01) (0, 8.45708966255187988281e-01) (1, 1.56270420551300048828e+00) (2, 3.81541132926940917969e-01) (3, 1.93350404500961303711e-01) (4, 1.54888355731964111328e+00) (5, -1.25485908985137939453e+00) (6, -6.19115121662616729736e-02) (7, 1.10406732559204101562e+00) (8, -3.14726680517196655273e-01) (9, 5.62919259071350097656e-01) (0, -2.41224840283393859863e-01) (1, 7.33473300933837890625e-02) (2, -2.48989760875701904297e-01) (3, 8.58123958110809326172e-01) (4, 1.63522279262542724609e+00) (5, 1.74195975065231323242e-01) (6, -1.62297189235687255859e+00) (7, 5.35128295421600341797e-01) (8, 4.46031272411346435547e-01) (9, 1.16380763053894042969e+00) (0, 2.77902811765670776367e-01) (1, -2.99479275941848754883e-01) (2, 1.08030295372009277344e+00) (3, 4.00797426700592041016e-01) (4, -9.32520925998687744141e-01) (5, -8.93459320068359375000e-02) (6, 4.74526941776275634766e-01) (7, 3.62661063671112060547e-01) (8, -5.13352155685424804688e-01) (9, 7.66113474965095520020e-02) (0, -7.06795215606689453125e-01) (1, 8.77168715000152587891e-01) (2, 4.88032847642898559570e-01) (3, 9.00638222694396972656e-01) (4, 7.60913729667663574219e-01) (5, 4.96304929256439208984e-02) (6, -7.94036865234375000000e-01) (7, 5.29111862182617187500e-01) (8, 4.53732937574386596680e-01) (9, -2.11980596184730529785e-01) (0, 4.36675041913986206055e-01) (1, 9.39733088016510009766e-01) (2, 1.13211143016815185547e+00) (3, 3.30712199211120605469e-01) (4, -4.21317487955093383789e-01) (5, 1.03887820243835449219e+00) (6, 5.13893425464630126953e-01) (7, 5.26271998882293701172e-01) (8, -3.34978960454463958740e-02) (9, -2.19403967261314392090e-01) (10, 5.36993920803070068359e-01) (11, -2.11368590593338012695e-01) (12, -9.15409266948699951172e-01) (13, 4.82211679220199584961e-01) (14, 8.42061996459960937500e-01) (15, 9.09693956375122070312e-01) (16, 1.22209060192108154297e+00) (17, 4.33249473571777343750e-01) (18, -7.79139250516891479492e-02) (19, 8.54063093662261962891e-01) (20, 3.20689588785171508789e-01) (21, 5.53856730461120605469e-01) (22, 1.55941560864448547363e-01) (23, -4.84786778688430786133e-01) (24, 5.66789388656616210938e-01) (25, -6.57562553882598876953e-01) (26, 4.87265080213546752930e-01) (27, -5.75092574581503868103e-03) (28, 6.74132287502288818359e-01) (29, -1.27656921744346618652e-01) (30, 8.80524814128875732422e-01) (31, 7.36192941665649414062e-01) (32, 8.50445985794067382812e-01) (33, 5.39998233318328857422e-01) (34, 4.24391418695449829102e-01) (35, -5.50414398312568664551e-02) (36, 5.56217908859252929688e-01) (37, 2.63129808008670806885e-02) (38, 1.23553407192230224609e+00) (39, 1.59322664141654968262e-01) (40, 6.32145822048187255859e-01) (41, 4.92619365453720092773e-01) (42, 6.06431484222412109375e-01) (43, -4.47180211544036865234e-01) (44, -7.08964943885803222656e-01) (45, 2.82220125198364257812e-01) (46, -6.87835276126861572266e-01) (47, -4.15860503911972045898e-01) (48, 1.29591330885887145996e-01) (49, 3.48435282707214355469e-01) (50, -1.35950767993927001953e+00) (51, -2.47286632657051086426e-02) (52, -5.45989215373992919922e-01) (53, -7.82621085643768310547e-01) (54, 7.37417936325073242188e-01) (55, 1.22096098959445953369e-01) (56, 3.84836107492446899414e-01) (57, -7.07217335700988769531e-01) (58, -1.48306101560592651367e-01) (59, -3.51551473140716552734e-01) (60, -5.72417140007019042969e-01) (61, -5.08998155593872070312e-01) (62, -6.46908104419708251953e-01) (63, 5.66505610942840576172e-01) (64, -3.83485794067382812500e-01) (65, -7.61626213788986206055e-02) (66, -3.06379169225692749023e-01) (67, 1.04687213897705078125e+00) (68, -6.19219481945037841797e-01) (69, -1.90691530704498291016e-01) (70, -4.43918734788894653320e-01) (10, 1.33925461769104003906e+00) (11, 7.68248319625854492188e-01) (12, -1.22982394695281982422e+00) (13, 1.79675564169883728027e-01) (14, -7.21990287303924560547e-01) (15, 8.54088783264160156250e-01) (16, 2.46238827705383300781e+00) (17, 3.95842850208282470703e-01) (18, -4.17389243841171264648e-01) (19, 2.44331419467926025391e-01) (20, -4.40281145274639129639e-02) (21, 6.19848191738128662109e-01) (22, 3.18229824304580688477e-01) (23, -6.72034680843353271484e-01) (24, 9.15896296501159667969e-01) (25, -7.26606607437133789062e-01) (26, 8.85001182556152343750e-01) (27, -6.88281118869781494141e-01) (28, 1.36133372783660888672e+00) (29, 1.14325749874114990234e+00) (30, -6.31175637245178222656e-02) (31, 2.76867449283599853516e-01) (32, -5.93484640121459960938e-01) (33, -3.25037032365798950195e-01) (34, -6.52933180332183837891e-01) (35, 9.65764760971069335938e-01) (36, -4.22628730535507202148e-01) (37, 9.67816233634948730469e-01) (38, 2.62820810079574584961e-01) (39, 4.49186563491821289062e-01) (40, -2.14976623654365539551e-01) (41, 7.99006402492523193359e-01) (42, -4.01250809431076049805e-01) (43, -5.71896553039550781250e-01) (44, -8.35302352905273437500e-01) (45, 6.63765519857406616211e-03) (46, -1.27778577804565429688e+00) (47, -8.11983108520507812500e-01) (48, 9.16869759559631347656e-01) (49, 7.65174403786659240723e-02) (50, -1.55761110782623291016e+00) (51, 1.10408115386962890625e+00) (52, -8.03857266902923583984e-01) (53, -6.52208626270294189453e-01) (54, 2.48323425650596618652e-01) (55, 3.48994195461273193359e-01) (56, 1.05774903297424316406e+00) (57, -1.17387497425079345703e+00) (58, -2.01383188366889953613e-01) (59, -8.77680629491806030273e-03) (60, -7.67779707908630371094e-01) (61, 5.16090810298919677734e-01) (62, -3.95087063312530517578e-01) (63, -6.80285573005676269531e-01) (64, 5.32213032245635986328e-01) (65, -4.82093811035156250000e-01) (66, -9.64337348937988281250e-01) (67, -5.23989975452423095703e-01) (68, 1.08657829463481903076e-01) (69, -8.45327198505401611328e-01) (70, 4.21752572059631347656e-01) (10, 2.70332135260105133057e-02) (11, -3.42213213443756103516e-01) (12, -8.12916398048400878906e-01) (13, 6.65853083133697509766e-01) (14, 2.05125492066144943237e-02) (15, 9.75241184234619140625e-01) (16, 1.65095281600952148438e+00) (17, 8.13953816890716552734e-01) (18, 2.83909171819686889648e-01) (19, -6.09450340270996093750e-01) (20, 8.99576023221015930176e-02) (21, 2.76979804039001464844e-01) (22, 4.34451580047607421875e-01) (23, -9.35777649283409118652e-02) (24, 1.31730043888092041016e+00) (25, -7.90291428565979003906e-01) (26, -6.25853657722473144531e-01) (27, 1.55838131904602050781e-01) (28, 9.53450620174407958984e-01) (29, 1.19494214653968811035e-01) (30, -1.17226414382457733154e-01) (31, -2.08981394767761230469e-01) (32, 4.16608572006225585938e-01) (33, -2.33862295746803283691e-01) (34, -8.43742966651916503906e-01) (35, -6.17984533309936523438e-01) (36, -2.84587472677230834961e-01) (37, -3.01663249731063842773e-01) (38, 9.86972004175186157227e-02) (39, 7.17297270894050598145e-02) (40, -6.47179126739501953125e-01) (41, -1.98848143219947814941e-01) (42, -2.98130005598068237305e-01) (43, -3.61914634704589843750e-01) (44, -1.01084804534912109375e+00) (45, 7.99669682979583740234e-01) (46, -4.79386568069458007812e-01) (47, -5.82096457481384277344e-01) (48, 5.59334158897399902344e-01) (49, -7.06630468368530273438e-01) (50, -1.33109295368194580078e+00) (51, 1.39993965625762939453e-01) (52, -3.76639008522033691406e-01) (53, -9.90029215812683105469e-01) (54, 1.32245004177093505859e+00) (55, 1.65457472205162048340e-01) (56, 5.58745443820953369141e-01) (57, -1.35149550437927246094e+00) (58, -1.27370640635490417480e-01) (59, 7.59617149829864501953e-01) (60, 1.03846028447151184082e-01) (61, -1.04468859732151031494e-01) (62, -4.97528135776519775391e-01) (63, -1.38394415378570556641e+00) (64, 3.34853112697601318359e-01) (65, -3.38605344295501708984e-01) (66, -3.58420938253402709961e-01) (67, 8.14910650253295898438e-01) (68, 6.84159278869628906250e-01) (69, 1.37839347124099731445e-01) (70, -3.72639089822769165039e-01) (10, 8.60071718692779541016e-01) (11, 4.03260320425033569336e-01) (12, -1.42006993293762207031e+00) (13, -4.84339833259582519531e-01) (14, 6.27012610435485839844e-01) (15, 2.55809545516967773438e-01) (16, 2.51070141792297363281e+00) (17, 9.14067924022674560547e-01) (18, 6.18668437004089355469e-01) (19, 3.25875580310821533203e-01) (20, 1.21634280681610107422e+00) (21, -5.92606775462627410889e-02) (22, -8.03712785243988037109e-01) (23, -1.14326453208923339844e+00) (24, 4.33571904897689819336e-01) (25, -5.21549940109252929688e-01) (26, -3.16991716623306274414e-01) (27, -2.74885296821594238281e-01) (28, 1.04268801212310791016e+00) (29, 3.79141047596931457520e-02) (30, 6.45413756370544433594e-01) (31, 3.73437404632568359375e-01) (32, 5.11973440647125244141e-01) (33, 1.12213039398193359375e+00) (34, -1.01687774062156677246e-01) (35, -4.41976159811019897461e-01) (36, -4.05092202126979827881e-02) (37, 9.03074502944946289062e-01) (38, 4.78168308734893798828e-01) (39, 2.57469594478607177734e-01) (40, -3.04577887058258056641e-01) (41, -2.71820724010467529297e-01) (42, -4.21294450759887695312e-01) (43, -7.73706063628196716309e-02) (44, -1.05916082859039306641e+00) (45, -1.27218186855316162109e-01) (46, -1.69050359725952148438e+00) (47, -6.66680574417114257812e-01) (48, 5.94578742980957031250e-01) (49, 8.09350967407226562500e-01) (50, -1.64583277702331542969e+00) (51, 6.91786527633666992188e-01) (52, -1.22151815891265869141e+00) (53, -4.38981324434280395508e-01) (54, 1.08526718616485595703e+00) (55, 7.66317307949066162109e-01) (56, 1.31731081008911132812e+00) (57, -1.47886347770690917969e+00) (58, -5.39307594299316406250e-01) (59, -1.31104499101638793945e-01) (60, -5.66956460475921630859e-01) (61, 8.99388790130615234375e-01) (62, -3.49702835083007812500e-01) (63, -1.12119615077972412109e+00) (64, 1.03074693679809570312e+00) (65, -7.02988803386688232422e-01) (66, -5.45426070690155029297e-01) (67, -3.78015190362930297852e-01) (68, -5.26902318000793457031e-01) (69, 2.58034229278564453125e-01) (70, 5.73417305946350097656e-01)
input_names='a' 'betan' 'bt' 'delta' 'ip' 'kappa' 'neped' 'r' 'zeffped'
output_names='OUT_p_E1_0' 'OUT_p_E1_2' 'OUT_wid_E1_0' 'OUT_wid_E1_2'
norm_output=-0.324993958950689 -0.031607149763372644 0.9312455684175893 0.12488737176047943 0.9206606811803661 -1.5210736376799652 0.25708541031476084 0.1288236239797365 0.19715872165619702 -0.47680515854983246 -0.09155382825844015 0.6512225364205029 0.6983989805242949 0.9156447702351479 -0.8711012880305987 0.34760952496753295 -0.3107201880095888 0.24688032058386178 0.8681387251144406 -0.022869556864905338 0.45031875871224364 0.09765090395643512 -0.5358767314751398 -0.011323797984938332 0.13449279466415562 0.1150827573771555 0.09973467878890203 0.7638199376681876 -0.04636445278822197 0.32544614215571155 0.3588690952405993 -0.5418833918247082 0.2853260748147929 0.176041461451028 -0.14969917066734084 0.12259904971323753
MSE= 2.01319694519