FANN_FLO_2.1
num_layers=3
learning_rate=0.700000
connection_rate=1.000000
network_type=0
learning_momentum=0.000000
training_algorithm=2
train_error_function=0
train_stop_function=0
cascade_output_change_fraction=0.010000
quickprop_decay=0.587520
quickprop_mu=1.750000
rprop_increase_factor=1.200000
rprop_decrease_factor=0.500000
rprop_delta_min=0.000000
rprop_delta_max=50.000000
rprop_delta_zero=0.100000
cascade_output_stagnation_epochs=12
cascade_candidate_change_fraction=0.010000
cascade_candidate_stagnation_epochs=12
cascade_max_out_epochs=150
cascade_min_out_epochs=50
cascade_max_cand_epochs=150
cascade_min_cand_epochs=50
cascade_num_candidate_groups=2
bit_fail_limit=3.49999994039535522461e-01
cascade_candidate_limit=1.00000000000000000000e+03
cascade_weight_multiplier=4.00000005960464477539e-01
cascade_activation_functions_count=10
cascade_activation_functions=3 5 7 8 10 11 14 15 16 17
cascade_activation_steepnesses_count=4
cascade_activation_steepnesses=2.50000000000000000000e-01 5.00000000000000000000e-01 7.50000000000000000000e-01 1.00000000000000000000e+00
layer_sizes=10 61 5
scale_included=1
scale_mean_in=1.792000 2.642000 6.007000 0.491600 9.027000 2.019000 4.438000 6.608000 1.852000
scale_deviation_in=0.053374 0.530771 0.852495 0.066420 1.605656 0.271316 1.104537 0.185325 0.363237
scale_new_min_in=-1.000000 -1.000000 -1.000000 -1.000000 -1.000000 -1.000000 -1.000000 -1.000000 -1.000000
scale_factor_in=1.000000 1.000000 1.000000 1.000000 1.000000 1.000000 1.000000 1.000000 1.000000
scale_mean_out=0.002103 0.007925 0.023829 0.050173
scale_deviation_out=0.000318 0.000695 0.001660 0.002200
scale_new_min_out=-1.000000 -1.000000 -1.000000 -1.000000
scale_factor_out=1.000000 1.000000 1.000000 1.000000
neurons (num_inputs, activation_function, activation_steepness)=(0, 0, 0.00000000000000000000e+00) (0, 0, 0.00000000000000000000e+00) (0, 0, 0.00000000000000000000e+00) (0, 0, 0.00000000000000000000e+00) (0, 0, 0.00000000000000000000e+00) (0, 0, 0.00000000000000000000e+00) (0, 0, 0.00000000000000000000e+00) (0, 0, 0.00000000000000000000e+00) (0, 0, 0.00000000000000000000e+00) (0, 0, 0.00000000000000000000e+00) (10, 5, 5.00000000000000000000e-01) (10, 5, 5.00000000000000000000e-01) (10, 5, 5.00000000000000000000e-01) (10, 5, 5.00000000000000000000e-01) (10, 5, 5.00000000000000000000e-01) (10, 5, 5.00000000000000000000e-01) (10, 5, 5.00000000000000000000e-01) (10, 5, 5.00000000000000000000e-01) (10, 5, 5.00000000000000000000e-01) (10, 5, 5.00000000000000000000e-01) (10, 5, 5.00000000000000000000e-01) (10, 5, 5.00000000000000000000e-01) (10, 5, 5.00000000000000000000e-01) (10, 5, 5.00000000000000000000e-01) (10, 5, 5.00000000000000000000e-01) (10, 5, 5.00000000000000000000e-01) (10, 5, 5.00000000000000000000e-01) (10, 5, 5.00000000000000000000e-01) (10, 5, 5.00000000000000000000e-01) (10, 5, 5.00000000000000000000e-01) (10, 5, 5.00000000000000000000e-01) (10, 5, 5.00000000000000000000e-01) (10, 5, 5.00000000000000000000e-01) (10, 5, 5.00000000000000000000e-01) (10, 5, 5.00000000000000000000e-01) (10, 5, 5.00000000000000000000e-01) (10, 5, 5.00000000000000000000e-01) (10, 5, 5.00000000000000000000e-01) (10, 5, 5.00000000000000000000e-01) (10, 5, 5.00000000000000000000e-01) (10, 5, 5.00000000000000000000e-01) (10, 5, 5.00000000000000000000e-01) (10, 5, 5.00000000000000000000e-01) (10, 5, 5.00000000000000000000e-01) (10, 5, 5.00000000000000000000e-01) (10, 5, 5.00000000000000000000e-01) (10, 5, 5.00000000000000000000e-01) (10, 5, 5.00000000000000000000e-01) (10, 5, 5.00000000000000000000e-01) (10, 5, 5.00000000000000000000e-01) (10, 5, 5.00000000000000000000e-01) (10, 5, 5.00000000000000000000e-01) (10, 5, 5.00000000000000000000e-01) (10, 5, 5.00000000000000000000e-01) (10, 5, 5.00000000000000000000e-01) (10, 5, 5.00000000000000000000e-01) (10, 5, 5.00000000000000000000e-01) (10, 5, 5.00000000000000000000e-01) (10, 5, 5.00000000000000000000e-01) (10, 5, 5.00000000000000000000e-01) (10, 5, 5.00000000000000000000e-01) (10, 5, 5.00000000000000000000e-01) (10, 5, 5.00000000000000000000e-01) (10, 5, 5.00000000000000000000e-01) (10, 5, 5.00000000000000000000e-01) (10, 5, 5.00000000000000000000e-01) (10, 5, 5.00000000000000000000e-01) (10, 5, 5.00000000000000000000e-01) (10, 5, 5.00000000000000000000e-01) (10, 5, 5.00000000000000000000e-01) (0, 5, 0.00000000000000000000e+00) (61, 0, 5.00000000000000000000e-01) (61, 0, 5.00000000000000000000e-01) (61, 0, 5.00000000000000000000e-01) (61, 0, 5.00000000000000000000e-01) (0, 0, 0.00000000000000000000e+00)
connections (connected_to_neuron, weight)=(0, -8.02251338958740234375e-01) (1, 1.42201638221740722656e+00) (2, 7.37704873085021972656e-01) (3, 1.84101700782775878906e+00) (4, 1.89613103866577148438e-01) (5, -4.05068963766098022461e-01) (6, 2.99215584993362426758e-01) (7, -9.69571173191070556641e-01) (8, -5.60515895485877990723e-02) (9, 6.36488497257232666016e-01) (0, -5.39608970284461975098e-02) (1, 3.00517261028289794922e-01) (2, 8.30694437026977539062e-02) (3, -5.40280818939208984375e-01) (4, 1.53680205345153808594e+00) (5, -6.88771009445190429688e-01) (6, -3.34680110216140747070e-01) (7, 3.21327471733093261719e+00) (8, 1.07395708560943603516e+00) (9, 1.56331443786621093750e+00) (0, 5.69272398948669433594e-01) (1, 3.28628569841384887695e-01) (2, 8.15635919570922851562e-01) (3, -2.33502745628356933594e-01) (4, 1.92299103736877441406e+00) (5, 5.75798332691192626953e-01) (6, -3.06143581867218017578e-01) (7, 3.33831548690795898438e-01) (8, -1.15459784865379333496e-01) (9, -1.49498307704925537109e+00) (0, -7.60974586009979248047e-01) (1, 3.09059232473373413086e-01) (2, 1.36248123645782470703e+00) (3, -4.00622487068176269531e-02) (4, -6.86379801481962203979e-03) (5, -9.73758995532989501953e-01) (6, 4.87684845924377441406e-01) (7, 5.33109605312347412109e-01) (8, -1.26122042536735534668e-01) (9, 2.34174823760986328125e+00) (0, -2.54115247726440429688e+00) (1, 3.40476632118225097656e-01) (2, -4.50876384973526000977e-01) (3, 2.06125959753990173340e-01) (4, 3.92290085554122924805e-01) (5, -3.51931065320968627930e-01) (6, 1.61202624440193176270e-01) (7, 8.73705923557281494141e-01) (8, -5.00249981880187988281e-01) (9, -2.22781315445899963379e-01) (0, 1.18766474723815917969e+00) (1, -8.75007092952728271484e-01) (2, -7.14488148689270019531e-01) (3, 1.17172706127166748047e+00) (4, -1.28284943103790283203e+00) (5, 8.29566866159439086914e-02) (6, 1.04727494716644287109e+00) (7, -1.04252755641937255859e+00) (8, 4.08549964427947998047e-01) (9, -5.97301542758941650391e-01) (0, -2.37467363476753234863e-02) (1, -6.67414247989654541016e-01) (2, 8.74969303607940673828e-01) (3, -4.85765904188156127930e-01) (4, 9.41881239414215087891e-01) (5, -1.73888236284255981445e-01) (6, 2.78768569231033325195e-01) (7, -5.81414699554443359375e-01) (8, 6.03599011898040771484e-01) (9, -3.42708528041839599609e-01) (0, -1.65760970115661621094e+00) (1, 1.49350941181182861328e+00) (2, -8.76371189951896667480e-02) (3, 5.26366472244262695312e-01) (4, -2.38704681396484375000e+00) (5, 8.77891778945922851562e-01) (6, -7.19867944717407226562e-01) (7, 4.40202355384826660156e-01) (8, 9.28879857063293457031e-01) (9, 4.72424179315567016602e-01) (0, 9.92940187454223632812e-01) (1, 4.52105313539505004883e-01) (2, 1.22760951519012451172e+00) (3, 8.06967616081237792969e-01) (4, 9.10252258181571960449e-02) (5, 1.64876759052276611328e-01) (6, 7.21668183803558349609e-01) (7, -6.22096478939056396484e-01) (8, 6.13612830638885498047e-01) (9, -1.74731910228729248047e-01) (0, 1.61440335214138031006e-02) (1, -5.41206955909729003906e-01) (2, -3.48200529813766479492e-01) (3, -8.92166554927825927734e-01) (4, -2.36098074913024902344e+00) (5, 8.81706416606903076172e-01) (6, 1.29118233919143676758e-01) (7, 1.41091239452362060547e+00) (8, 2.01278313994407653809e-01) (9, 1.32305967807769775391e+00) (0, -9.88362371921539306641e-01) (1, 4.55259203910827636719e-01) (2, 7.72692322731018066406e-01) (3, 8.83669331669807434082e-02) (4, -9.85225021839141845703e-01) (5, 1.52581095695495605469e+00) (6, -1.90086826682090759277e-01) (7, -2.28426843881607055664e-01) (8, -4.00648474693298339844e-01) (9, -1.14819657802581787109e+00) (0, -3.61546069383621215820e-01) (1, -5.65102756023406982422e-01) (2, 6.00440025329589843750e-01) (3, -3.41483563184738159180e-01) (4, -1.76748022437095642090e-01) (5, 1.35404229164123535156e+00) (6, 6.87980473041534423828e-01) (7, 5.86692035198211669922e-01) (8, 1.52866947650909423828e+00) (9, 3.61642360687255859375e-01) (0, -6.91803395748138427734e-01) (1, -2.55587077140808105469e+00) (2, -3.83964717388153076172e-01) (3, 1.13447403907775878906e+00) (4, -2.20985651016235351562e-01) (5, 2.17260408401489257812e+00) (6, 7.12318047881126403809e-02) (7, -3.26231747865676879883e-01) (8, 7.34722971916198730469e-01) (9, 2.38195836544036865234e-01) (0, 9.32718906551599502563e-03) (1, 7.69764602184295654297e-01) (2, 8.07259082794189453125e-01) (3, -1.11521649360656738281e+00) (4, 2.23564997315406799316e-01) (5, -2.14854907989501953125e+00) (6, -4.05451625585556030273e-01) (7, 1.91804423928260803223e-01) (8, -2.04366430640220642090e-01) (9, -4.81856137514114379883e-01) (0, 1.16511821746826171875e+00) (1, 7.03388392925262451172e-01) (2, -8.00866857171058654785e-02) (3, 1.03018128871917724609e+00) (4, 1.50064647197723388672e+00) (5, -6.17489635944366455078e-01) (6, 1.38403236865997314453e+00) (7, 2.82133165746927261353e-02) (8, -2.86710351705551147461e-01) (9, 4.16300326585769653320e-01) (0, -7.65724360942840576172e-01) (1, 1.18915224075317382812e+00) (2, -1.37815415859222412109e+00) (3, 3.23897153139114379883e-01) (4, -8.07174503803253173828e-01) (5, 9.43261206150054931641e-01) (6, 8.76565694808959960938e-01) (7, 2.57120370864868164062e+00) (8, -2.64275717735290527344e+00) (9, 1.21758115291595458984e+00) (0, -3.51586073637008666992e-01) (1, 5.45526206493377685547e-01) (2, -9.00744855403900146484e-01) (3, -4.36400264501571655273e-01) (4, -2.77659535408020019531e-01) (5, -6.18971049785614013672e-01) (6, -2.98062503337860107422e-01) (7, -1.65474042296409606934e-01) (8, 3.99338096380233764648e-01) (9, 7.21355736255645751953e-01) (0, 8.87303292751312255859e-01) (1, -5.41667222976684570312e-01) (2, 7.24842429161071777344e-01) (3, 8.28461050987243652344e-01) (4, -8.30573022365570068359e-01) (5, -1.57852661609649658203e+00) (6, 5.31377494335174560547e-01) (7, -8.50202858448028564453e-01) (8, 1.71121746301651000977e-01) (9, 1.89457428455352783203e+00) (0, 1.00660395622253417969e+00) (1, 2.19111889600753784180e-01) (2, 1.22618103027343750000e+00) (3, -1.16674339771270751953e+00) (4, 3.76049965620040893555e-01) (5, -2.04554408788681030273e-01) (6, 2.89674818515777587891e-01) (7, -1.50514793395996093750e+00) (8, -1.89276158809661865234e-01) (9, 5.43243110179901123047e-01) (0, 3.91087025403976440430e-01) (1, -7.03841522336006164551e-02) (2, 4.74394500255584716797e-01) (3, 8.90984460711479187012e-02) (4, 9.54080820083618164062e-01) (5, 1.56781494617462158203e-01) (6, 1.38732993602752685547e+00) (7, -6.14715635776519775391e-01) (8, 3.84487718343734741211e-01) (9, 1.20882081985473632812e+00) (0, -8.20069789886474609375e-01) (1, -3.96098047494888305664e-01) (2, 5.52085578441619873047e-01) (3, 5.21528460085391998291e-02) (4, -3.24922174215316772461e-01) (5, -2.81962871551513671875e-01) (6, 2.14101839065551757812e+00) (7, 6.55357480049133300781e-01) (8, -8.50672602653503417969e-01) (9, -2.04257637262344360352e-01) (0, -9.11376237869262695312e-01) (1, 1.15522706508636474609e+00) (2, 7.28699386119842529297e-01) (3, -2.01077491044998168945e-01) (4, -2.02717494964599609375e+00) (5, 1.12142257392406463623e-01) (6, -6.45003139972686767578e-01) (7, -1.56528681516647338867e-01) (8, 3.06889623403549194336e-01) (9, 6.37709975242614746094e-01) (0, 6.19212090969085693359e-01) (1, -1.40229582786560058594e+00) (2, -5.42267501354217529297e-01) (3, 4.23552811145782470703e-01) (4, -3.38198482990264892578e-01) (5, -2.58807110786437988281e+00) (6, -5.59271395206451416016e-01) (7, -4.69928890466690063477e-01) (8, -5.66556155681610107422e-01) (9, 1.45253765583038330078e+00) (0, 2.52172172069549560547e-01) (1, -1.98064908385276794434e-01) (2, -3.01543146371841430664e-01) (3, 1.23410232365131378174e-01) (4, 9.85199868679046630859e-01) (5, 1.26991784572601318359e+00) (6, 1.18561297655105590820e-01) (7, 1.16905331611633300781e+00) (8, -9.51585099101066589355e-02) (9, 5.63954293727874755859e-01) (0, -2.16575190424919128418e-01) (1, 5.15620827674865722656e-01) (2, 5.28041601181030273438e-01) (3, -8.98870751261711120605e-02) (4, 5.29843628406524658203e-01) (5, 6.74347281455993652344e-01) (6, 4.77803468704223632812e-01) (7, -5.10268211364746093750e-01) (8, -4.56729441881179809570e-01) (9, -8.16766768693923950195e-02) (0, 5.99809408187866210938e-01) (1, -3.35176020860671997070e-01) (2, 1.23674440383911132812e+00) (3, 4.17675882577896118164e-01) (4, -8.55586409568786621094e-01) (5, 2.35070037841796875000e+00) (6, -1.19177472591400146484e+00) (7, -3.04181128740310668945e-01) (8, 3.18794667720794677734e-01) (9, -1.88006508350372314453e+00) (0, 5.71666955947875976562e-01) (1, 1.29534351825714111328e+00) (2, 6.96286737918853759766e-01) (3, 7.09853410720825195312e-01) (4, -4.23604786396026611328e-01) (5, 2.08798527717590332031e-01) (6, 7.11826205253601074219e-01) (7, -7.60786414146423339844e-01) (8, 2.18298316001892089844e-01) (9, -8.09391140937805175781e-01) (0, 4.52002793550491333008e-01) (1, 2.14390826225280761719e+00) (2, 2.24644827842712402344e+00) (3, -1.10898745059967041016e+00) (4, -8.32819283008575439453e-01) (5, 3.55714291334152221680e-01) (6, 4.40202839672565460205e-02) (7, 6.22312128543853759766e-01) (8, -6.28833100199699401855e-02) (9, 7.36101746559143066406e-01) (0, -2.22170427441596984863e-02) (1, 2.56294161081314086914e-01) (2, 2.66125231981277465820e-01) (3, 4.16477411985397338867e-01) (4, 5.92833280563354492188e-01) (5, 1.62235903739929199219e+00) (6, 1.05893349647521972656e+00) (7, 1.30758285522460937500e+00) (8, 1.26903876662254333496e-01) (9, 6.20924055576324462891e-01) (0, -5.28204739093780517578e-01) (1, -8.82590770721435546875e-01) (2, 7.60408490896224975586e-02) (3, 7.91267871856689453125e-01) (4, 6.23366534709930419922e-01) (5, 1.43857002258300781250e+00) (6, -3.24022263288497924805e-01) (7, 2.73397937417030334473e-02) (8, 2.56378799676895141602e-01) (9, 1.82664632797241210938e-01) (0, 8.01601186394691467285e-02) (1, 1.01073884963989257812e+00) (2, 2.97979205846786499023e-01) (3, -1.25620469450950622559e-01) (4, 1.04764330387115478516e+00) (5, 6.61824271082878112793e-02) (6, 1.20693469047546386719e+00) (7, 8.20770502090454101562e-01) (8, 1.10182762145996093750e+00) (9, 7.06158638000488281250e-01) (0, 3.63398283720016479492e-01) (1, -5.11225283145904541016e-01) (2, -5.47014594078063964844e-01) (3, -1.12496733665466308594e-01) (4, -1.66821107268333435059e-01) (5, 2.04416319727897644043e-01) (6, 8.30806612968444824219e-01) (7, -4.67437535524368286133e-01) (8, 5.47695100307464599609e-01) (9, 6.68146371841430664062e-01) (0, 1.07066214084625244141e+00) (1, 2.53294324874877929688e+00) (2, 6.28006935119628906250e-01) (3, -3.33606898784637451172e-02) (4, -5.82920432090759277344e-01) (5, -2.65950500965118408203e-01) (6, -9.05038058757781982422e-01) (7, 4.12408143281936645508e-01) (8, 1.26325368881225585938e-01) (9, -9.82870101928710937500e-01) (0, -6.01688802242279052734e-01) (1, 4.30374532938003540039e-01) (2, 2.88341045379638671875e-01) (3, 9.72756594419479370117e-02) (4, 7.10130870342254638672e-01) (5, -2.24589884281158447266e-01) (6, 2.07622349262237548828e-01) (7, 1.25995910167694091797e+00) (8, -6.25280261039733886719e-01) (9, -4.12839770317077636719e-01) (0, 5.10624766349792480469e-01) (1, 4.00433331727981567383e-01) (2, 1.64329782128334045410e-01) (3, 9.29847240447998046875e-01) (4, 5.03454983234405517578e-01) (5, 3.99104237556457519531e-01) (6, 7.64145255088806152344e-01) (7, 3.94071638584136962891e-01) (8, 5.07419168949127197266e-01) (9, 1.03065121173858642578e+00) (0, -1.01827096939086914062e+00) (1, 1.82353600859642028809e-01) (2, 8.30662846565246582031e-01) (3, -3.57421725988388061523e-01) (4, -7.28511631488800048828e-01) (5, 7.30801761150360107422e-01) (6, 2.94445514678955078125e+00) (7, 4.73234564065933227539e-01) (8, -1.60630553960800170898e-01) (9, -6.77588760852813720703e-01) (0, 4.67611402273178100586e-01) (1, 2.53730267286300659180e-01) (2, -2.69516557455062866211e-01) (3, -6.65946662425994873047e-01) (4, -7.53547608852386474609e-01) (5, 4.23486143350601196289e-01) (6, 9.28888201713562011719e-01) (7, -3.61866913735866546631e-02) (8, 7.76567578315734863281e-01) (9, 2.45198011398315429688e+00) (0, 7.16032207012176513672e-01) (1, 1.84840098023414611816e-01) (2, -6.47096931934356689453e-01) (3, -2.88192003965377807617e-01) (4, -8.55974018573760986328e-01) (5, -1.04096329212188720703e+00) (6, 5.74440002441406250000e-01) (7, -5.40469825267791748047e-01) (8, 8.76274704933166503906e-01) (9, -2.48331129550933837891e-01) (0, 5.13508737087249755859e-01) (1, 5.40847480297088623047e-01) (2, -2.25572511553764343262e-01) (3, 7.85080194473266601562e-01) (4, 3.57357263565063476562e-01) (5, -1.74774909019470214844e+00) (6, 2.28910699486732482910e-01) (7, -5.32770194113254547119e-02) (8, -5.48274666070938110352e-02) (9, -3.82063686847686767578e-01) (0, -4.96445335447788238525e-02) (1, -3.82126122713088989258e-01) (2, 2.82752633094787597656e-01) (3, 5.42431354522705078125e-01) (4, 4.71364483237266540527e-02) (5, 1.70363593101501464844e+00) (6, 4.53532427549362182617e-01) (7, -3.50062936544418334961e-01) (8, 1.22851036489009857178e-01) (9, 6.74105942249298095703e-01) (0, 7.56929099559783935547e-01) (1, -5.46046912670135498047e-01) (2, -4.07827329635620117188e+00) (3, -3.39322686195373535156e-01) (4, 1.23834991455078125000e+00) (5, -7.05107092857360839844e-01) (6, -2.25873827934265136719e-01) (7, -1.19748699665069580078e+00) (8, -6.78497776389122009277e-02) (9, 1.81958094239234924316e-01) (0, 6.04090213775634765625e-01) (1, 1.53290018439292907715e-01) (2, -1.20859228074550628662e-01) (3, -1.77446871995925903320e-01) (4, -5.11664986610412597656e-01) (5, -1.24064052104949951172e+00) (6, -4.58668656647205352783e-02) (7, 4.34680134057998657227e-02) (8, 7.37511694431304931641e-01) (9, 7.77581751346588134766e-01) (0, 8.43842923641204833984e-01) (1, 7.33888804912567138672e-01) (2, -1.29193484783172607422e-01) (3, 5.34816943109035491943e-02) (4, 7.46897339820861816406e-01) (5, 2.36055061221122741699e-01) (6, -3.30195166170597076416e-02) (7, -3.99868249893188476562e-01) (8, 4.42599654197692871094e-01) (9, 9.00764226913452148438e-01) (0, 2.36011907458305358887e-01) (1, 1.05740332603454589844e+00) (2, -2.23159715533256530762e-01) (3, 1.30624875426292419434e-01) (4, -5.68355560302734375000e-01) (5, -4.96084421873092651367e-01) (6, 9.04808878898620605469e-01) (7, 6.05844080448150634766e-01) (8, 2.27488189935684204102e-01) (9, -3.13088506460189819336e-01) (0, -3.95455539226531982422e-01) (1, -3.35543662309646606445e-01) (2, 1.40428975224494934082e-01) (3, 6.92708313465118408203e-01) (4, 7.08354115486145019531e-02) (5, 1.72376886010169982910e-01) (6, 9.14757132530212402344e-01) (7, 3.34541231393814086914e-01) (8, 9.02618914842605590820e-02) (9, 1.85763239860534667969e-01) (0, 8.06372463703155517578e-02) (1, -4.59408581256866455078e-01) (2, -5.75992226600646972656e-01) (3, -5.34678459167480468750e-01) (4, 5.56659847497940063477e-02) (5, 2.71514505147933959961e-01) (6, 4.88480985164642333984e-01) (7, -6.52022421360015869141e-01) (8, 3.53339940309524536133e-01) (9, 1.16020902991294860840e-01) (0, 3.40911269187927246094e-01) (1, -8.06689977645874023438e-01) (2, -8.96844506263732910156e-01) (3, -7.38364830613136291504e-02) (4, 4.64254915714263916016e-01) (5, -1.65311777591705322266e+00) (6, -3.19978535175323486328e-01) (7, 6.74749433994293212891e-01) (8, 1.32846668362617492676e-01) (9, 8.54225933551788330078e-01) (0, 3.65965902805328369141e-01) (1, -5.88329844176769256592e-02) (2, -7.80046343803405761719e-01) (3, -7.41718292236328125000e-01) (4, 3.79468798637390136719e-02) (5, -4.87483650445938110352e-01) (6, 4.16496366262435913086e-01) (7, -9.86974388360977172852e-02) (8, 7.87338852882385253906e-01) (9, -3.78022581338882446289e-01) (0, 7.01749205589294433594e-01) (1, 9.03626918792724609375e-01) (2, 4.25445169210433959961e-01) (3, 6.43748700618743896484e-01) (4, 3.49077612161636352539e-01) (5, -8.61309349536895751953e-01) (6, 1.19709658622741699219e+00) (7, 9.44586217403411865234e-01) (8, -2.30495959520339965820e-01) (9, -1.07925617694854736328e+00) (0, -1.37940955162048339844e+00) (1, -3.84743690490722656250e+00) (2, -2.15005779266357421875e+00) (3, 6.58986210823059082031e-01) (4, 2.07781815528869628906e+00) (5, -9.93418216705322265625e-01) (6, -6.18456184864044189453e-01) (7, 1.02247691154479980469e+00) (8, 1.73027828335762023926e-01) (9, -1.18997073173522949219e+00) (0, 1.02961707115173339844e+00) (1, -1.88312411308288574219e-01) (2, 1.24541926383972167969e+00) (3, 1.30279922485351562500e+00) (4, -2.28551340103149414062e+00) (5, 1.49703454971313476562e+00) (6, 2.15393590927124023438e+00) (7, 1.07625997066497802734e+00) (8, 9.42085683345794677734e-02) (9, 8.73582303524017333984e-01) (0, -1.05327284336090087891e+00) (1, 6.88879549503326416016e-01) (2, 8.92674982547760009766e-01) (3, -1.58073768019676208496e-01) (4, 9.02116239070892333984e-01) (5, 9.11526322364807128906e-01) (6, 1.20135471224784851074e-01) (7, -1.53459459543228149414e-02) (8, 3.30590873956680297852e-01) (9, 9.27247941493988037109e-01) (0, -4.62500214576721191406e-01) (1, -4.12972033023834228516e-01) (2, -1.51675999164581298828e+00) (3, 2.15170547366142272949e-01) (4, 5.33854663372039794922e-01) (5, 1.02678358554840087891e+00) (6, 8.56201052665710449219e-01) (7, 2.51471489667892456055e-01) (8, -1.86349660158157348633e-01) (9, 1.02163958549499511719e+00) (0, -1.65627562999725341797e+00) (1, 7.35410928726196289062e-01) (2, 2.89613318443298339844e+00) (3, -8.43285143375396728516e-01) (4, 8.46416875720024108887e-02) (5, 2.88515233993530273438e+00) (6, 5.30555367469787597656e-01) (7, -6.93703711032867431641e-01) (8, 8.92718136310577392578e-02) (9, 2.41753488779067993164e-01) (0, -2.93209969997406005859e-01) (1, 1.01997208595275878906e+00) (2, 5.36773130297660827637e-02) (3, -2.09784194827079772949e-01) (4, 6.19404986500740051270e-02) (5, 4.29594576358795166016e-01) (6, -2.25035965442657470703e-01) (7, 8.09576272964477539062e-01) (8, -9.32504981756210327148e-02) (9, 2.10488867759704589844e+00) (0, 5.57433068752288818359e-01) (1, 5.97220718860626220703e-01) (2, -5.25251150131225585938e-01) (3, 8.72910559177398681641e-01) (4, -9.81304347515106201172e-01) (5, -4.80421304702758789062e-01) (6, -1.86270326375961303711e-01) (7, 1.18166661262512207031e+00) (8, 7.21522688865661621094e-01) (9, 6.85507953166961669922e-01) (0, 7.41223812103271484375e-01) (1, -1.99804782867431640625e-01) (2, 5.66168129444122314453e-01) (3, 9.25877928733825683594e-01) (4, -5.05700409412384033203e-01) (5, -3.12898087501525878906e+00) (6, 9.19200658798217773438e-01) (7, -6.38551294803619384766e-01) (8, 6.02225184440612792969e-01) (9, -5.75490415096282958984e-01) (0, 8.12230631709098815918e-02) (1, 5.33547163009643554688e-01) (2, 9.31571125984191894531e-01) (3, 3.78506451845169067383e-01) (4, -3.49451839923858642578e-01) (5, 2.54474091529846191406e+00) (6, -1.73791795969009399414e-01) (7, -6.98547840118408203125e-01) (8, 1.47236123681068420410e-01) (9, 3.99112701416015625000e+00) (0, -1.10071130096912384033e-01) (1, 8.04292410612106323242e-02) (2, 4.62802439928054809570e-01) (3, -4.12037402391433715820e-01) (4, 6.68542981147766113281e-02) (5, 3.49974066019058227539e-01) (6, -2.83112853765487670898e-01) (7, 7.45678722858428955078e-01) (8, 2.16738268733024597168e-01) (9, 7.12998434901237487793e-02) (0, 3.14311385154724121094e-01) (1, 1.07419168949127197266e+00) (2, 2.70804166793823242188e-01) (3, -9.46581602096557617188e-01) (4, 5.56374192237854003906e-01) (5, 5.09590744972229003906e-01) (6, 2.99940681457519531250e+00) (7, -3.87381576001644134521e-03) (8, 8.90305876731872558594e-01) (9, 1.04721653461456298828e+00) (10, -8.27602326869964599609e-01) (11, -9.37089681625366210938e-01) (12, 8.98940384387969970703e-01) (13, -6.12043082714080810547e-01) (14, -6.55484870076179504395e-02) (15, -6.57085835933685302734e-01) (16, 2.19063997268676757812e-01) (17, 1.17728114128112792969e+00) (18, -5.45121967792510986328e-01) (19, -6.82006835937500000000e-01) (20, 4.89495247602462768555e-01) (21, 2.23947539925575256348e-01) (22, 7.24135816097259521484e-01) (23, -8.00722181797027587891e-01) (24, 1.96439251303672790527e-01) (25, -6.67543351650238037109e-01) (26, -6.80023074150085449219e-01) (27, -7.78872966766357421875e-01) (28, 3.75059276819229125977e-01) (29, -5.51194310188293457031e-01) (30, 6.54109001159667968750e-01) (31, 5.98958909511566162109e-01) (32, 1.18555223941802978516e+00) (33, 8.87603282928466796875e-01) (34, 1.84358403086662292480e-01) (35, -1.38798654079437255859e+00) (36, 3.75212013721466064453e-01) (37, 1.01688539981842041016e+00) (38, 6.01384341716766357422e-01) (39, 1.20745730400085449219e+00) (40, 2.35751364380121231079e-03) (41, 3.52658331394195556641e-01) (42, 5.20185232162475585938e-01) (43, 7.57621601223945617676e-02) (44, -1.53904110193252563477e-01) (45, 4.99245896935462951660e-02) (46, -4.39251065254211425781e-01) (47, 5.48129081726074218750e-01) (48, 1.01879274845123291016e+00) (49, 1.37032878398895263672e+00) (50, 5.16037762165069580078e-01) (51, 6.24334633350372314453e-01) (52, -4.31373208761215209961e-01) (53, 8.57522010803222656250e-01) (54, 7.68460035324096679688e-02) (55, -9.92548167705535888672e-01) (56, 1.18808019161224365234e+00) (57, 2.63264149427413940430e-01) (58, -7.54816055297851562500e-01) (59, -8.10151815414428710938e-01) (60, 3.67338955402374267578e-01) (61, 1.68311253190040588379e-01) (62, 6.21170461177825927734e-01) (63, -6.31357967853546142578e-01) (64, -7.19443261623382568359e-01) (65, -1.02160513401031494141e-01) (66, 2.26032316684722900391e-01) (67, 9.02425706386566162109e-01) (68, -6.38677656650543212891e-01) (69, -1.59257337450981140137e-01) (70, 3.88839654624462127686e-02) (10, -1.28218126296997070312e+00) (11, -4.73374515771865844727e-01) (12, 1.50852036476135253906e+00) (13, -1.02557432651519775391e+00) (14, 8.24171483516693115234e-01) (15, 5.79291343688964843750e-01) (16, 7.16651260852813720703e-01) (17, 8.23369324207305908203e-01) (18, -4.22287210822105407715e-02) (19, -1.13963663578033447266e+00) (20, 6.79472610354423522949e-02) (21, 5.85188791155815124512e-02) (22, 1.55148565769195556641e+00) (23, 9.25895497202873229980e-02) (24, 2.85363942384719848633e-01) (25, -1.01706039905548095703e+00) (26, 6.92274868488311767578e-02) (27, -1.28294146060943603516e+00) (28, 1.00821912288665771484e+00) (29, -1.04821614921092987061e-01) (30, 7.08922624588012695312e-01) (31, 1.40233433246612548828e+00) (32, 5.38732528686523437500e-01) (33, -9.30434390902519226074e-02) (34, -1.03545539081096649170e-01) (35, -1.81702113151550292969e+00) (36, -8.64126980304718017578e-01) (37, 1.43519252538681030273e-01) (38, 3.38800311088562011719e-01) (39, 9.54398989677429199219e-01) (40, 6.73313811421394348145e-02) (41, -2.24922433495521545410e-01) (42, 4.98950421810150146484e-01) (43, 2.65750348567962646484e-01) (44, -7.81305551528930664062e-01) (45, 1.21991181373596191406e+00) (46, -1.11583352088928222656e+00) (47, -4.24540936946868896484e-01) (48, -1.95468708872795104980e-01) (49, 1.23215839266777038574e-01) (50, 7.84979641437530517578e-01) (51, 5.65868735313415527344e-01) (52, 7.54794329404830932617e-02) (53, 4.72958475351333618164e-01) (54, -8.04802715778350830078e-01) (55, 7.55487903952598571777e-02) (56, 1.86735987663269042969e+00) (57, -2.29240924119949340820e-01) (58, 3.34682494401931762695e-01) (59, -1.97754073143005371094e+00) (60, 1.42966365814208984375e+00) (61, -5.41455298662185668945e-02) (62, 2.85425060428678989410e-03) (63, -6.08709335327148437500e-01) (64, 4.32299256324768066406e-01) (65, 7.84616470336914062500e-01) (66, 4.45896565914154052734e-01) (67, 1.51143491268157958984e+00) (68, -4.22349452972412109375e-01) (69, -7.05696463584899902344e-01) (70, -5.75400054454803466797e-01) (10, -1.11149799823760986328e+00) (11, -6.73140466213226318359e-01) (12, 8.88633012771606445312e-01) (13, 2.13770121335983276367e-01) (14, 6.60424828529357910156e-01) (15, -6.24745488166809082031e-01) (16, -5.71988582611083984375e-01) (17, 1.07942688465118408203e+00) (18, -3.02425056695938110352e-01) (19, -7.92042255401611328125e-01) (20, -8.91497492790222167969e-01) (21, 8.10925245285034179688e-01) (22, 1.13985526561737060547e+00) (23, -6.45982265472412109375e-01) (24, -7.12817788124084472656e-01) (25, -7.48066842555999755859e-01) (26, 8.00914764404296875000e-01) (27, -6.93227648735046386719e-01) (28, 7.29278206825256347656e-01) (29, -1.72600537538528442383e-01) (30, -3.54238599538803100586e-01) (31, 2.19860583543777465820e-01) (32, 8.04475069046020507812e-01) (33, -1.17959819734096527100e-01) (34, 7.97292232513427734375e-01) (35, -1.63883996009826660156e+00) (36, 3.21380615234375000000e-01) (37, 5.41892945766448974609e-01) (38, 1.30407619476318359375e+00) (39, 8.17309796810150146484e-01) (40, -5.05859971046447753906e-01) (41, -7.00001537799835205078e-01) (42, 3.16494554281234741211e-01) (43, -8.86208266019821166992e-02) (44, 9.79287505149841308594e-01) (45, 1.10105895996093750000e+00) (46, -6.09717607498168945312e-01) (47, 9.03154492378234863281e-01) (48, 7.82030582427978515625e-01) (49, 4.58556115627288818359e-01) (50, 5.75830221176147460938e-01) (51, -5.79897642135620117188e-01) (52, -1.19297169148921966553e-01) (53, -9.12128388881683349609e-01) (54, 1.72869265079498291016e-01) (55, 1.71865746378898620605e-01) (56, 2.16197624802589416504e-01) (57, -2.30273470282554626465e-01) (58, 1.03601884841918945312e+00) (59, -1.00698542594909667969e+00) (60, 5.79761564731597900391e-01) (61, -8.33785355091094970703e-01) (62, -1.80240005254745483398e-01) (63, -8.82036507129669189453e-01) (64, -6.41404807567596435547e-01) (65, 2.49906137585639953613e-01) (66, 4.65195812284946441650e-03) (67, 1.40852057933807373047e+00) (68, -4.75349009037017822266e-01) (69, -6.18310332298278808594e-01) (70, -4.32390362024307250977e-01) (10, -9.59640383720397949219e-01) (11, -6.68173611164093017578e-01) (12, 1.05358207225799560547e+00) (13, -1.41658306121826171875e+00) (14, -7.24821016192436218262e-02) (15, 1.15753054618835449219e-01) (16, 6.28762960433959960938e-01) (17, 4.52608048915863037109e-01) (18, -8.92253756523132324219e-01) (19, -1.14794778823852539062e+00) (20, -2.36777067184448242188e-01) (21, 2.58105874061584472656e-01) (22, 1.93919169902801513672e+00) (23, 1.02673657238483428955e-01) (24, 4.43872541189193725586e-01) (25, -9.50609743595123291016e-01) (26, 9.45451259613037109375e-01) (27, -8.37864875793457031250e-01) (28, 4.45950269699096679688e-01) (29, -8.21216523647308349609e-01) (30, 4.50357586145401000977e-01) (31, 2.23050522804260253906e+00) (32, 6.10496938228607177734e-01) (33, 1.05755639076232910156e+00) (34, -7.15538680553436279297e-01) (35, -2.01329421997070312500e+00) (36, -6.61103248596191406250e-01) (37, 7.58662104606628417969e-01) (38, -3.06147098541259765625e-01) (39, 2.62292951345443725586e-01) (40, -5.11685788631439208984e-01) (41, -1.65815994143486022949e-01) (42, 6.23574495315551757812e-01) (43, 6.86832845211029052734e-01) (44, 5.84042668342590332031e-01) (45, 7.64068007469177246094e-01) (46, -1.19253504276275634766e+00) (47, -5.34348547458648681641e-01) (48, 9.29718494415283203125e-01) (49, 1.58175662159919738770e-01) (50, 1.10844171047210693359e+00) (51, -3.63390706479549407959e-02) (52, -4.93951529264450073242e-01) (53, -9.58354413509368896484e-01) (54, 7.81914472579956054688e-01) (55, 7.76212573051452636719e-01) (56, 4.93081808090209960938e-01) (57, 1.48874312639236450195e-01) (58, 8.66191029548645019531e-01) (59, -1.90741598606109619141e+00) (60, 1.37791550159454345703e+00) (61, -5.74512854218482971191e-02) (62, -5.23288786411285400391e-01) (63, -8.50159227848052978516e-01) (64, 2.10114821791648864746e-01) (65, -3.80346775054931640625e-01) (66, 7.64888107776641845703e-01) (67, 1.90038287639617919922e+00) (68, 1.02388691902160644531e+00) (69, 2.89617955684661865234e-01) (70, -8.77598702907562255859e-01)
input_names='a' 'betan' 'bt' 'delta' 'ip' 'kappa' 'neped' 'r' 'zeffped'
output_names='OUT_p_E1_0' 'OUT_p_E1_2' 'OUT_wid_E1_0' 'OUT_wid_E1_2'
norm_output=-0.324993958950689 -0.031607149763372644 0.9312455684175893 0.12488737176047943 0.9206606811803661 -1.5210736376799652 0.25708541031476084 0.1288236239797365 0.19715872165619702 -0.47680515854983246 -0.09155382825844015 0.6512225364205029 0.6983989805242949 0.9156447702351479 -0.8711012880305987 0.34760952496753295 -0.3107201880095888 0.24688032058386178 0.8681387251144406 -0.022869556864905338 0.45031875871224364 0.09765090395643512 -0.5358767314751398 -0.011323797984938332 0.13449279466415562 0.1150827573771555 0.09973467878890203 0.7638199376681876 -0.04636445278822197 0.32544614215571155 0.3588690952405993 -0.5418833918247082 0.2853260748147929 0.176041461451028 -0.14969917066734084 0.12259904971323753
MSE= 1.84966635704