FANN_FLO_2.1
num_layers=3
learning_rate=0.700000
connection_rate=1.000000
network_type=0
learning_momentum=0.000000
training_algorithm=2
train_error_function=0
train_stop_function=0
cascade_output_change_fraction=0.010000
quickprop_decay=0.573412
quickprop_mu=1.750000
rprop_increase_factor=1.200000
rprop_decrease_factor=0.500000
rprop_delta_min=0.000000
rprop_delta_max=50.000000
rprop_delta_zero=0.100000
cascade_output_stagnation_epochs=12
cascade_candidate_change_fraction=0.010000
cascade_candidate_stagnation_epochs=12
cascade_max_out_epochs=150
cascade_min_out_epochs=50
cascade_max_cand_epochs=150
cascade_min_cand_epochs=50
cascade_num_candidate_groups=2
bit_fail_limit=3.49999994039535522461e-01
cascade_candidate_limit=1.00000000000000000000e+03
cascade_weight_multiplier=4.00000005960464477539e-01
cascade_activation_functions_count=10
cascade_activation_functions=3 5 7 8 10 11 14 15 16 17
cascade_activation_steepnesses_count=4
cascade_activation_steepnesses=2.50000000000000000000e-01 5.00000000000000000000e-01 7.50000000000000000000e-01 1.00000000000000000000e+00
layer_sizes=10 61 5
scale_included=1
scale_mean_in=1.792000 2.642000 6.007000 0.491600 9.027000 2.019000 4.438000 6.608000 1.852000
scale_deviation_in=0.053374 0.530771 0.852495 0.066420 1.605656 0.271316 1.104537 0.185325 0.363237
scale_new_min_in=-1.000000 -1.000000 -1.000000 -1.000000 -1.000000 -1.000000 -1.000000 -1.000000 -1.000000
scale_factor_in=1.000000 1.000000 1.000000 1.000000 1.000000 1.000000 1.000000 1.000000 1.000000
scale_mean_out=0.002103 0.007925 0.023829 0.050173
scale_deviation_out=0.000318 0.000695 0.001660 0.002200
scale_new_min_out=-1.000000 -1.000000 -1.000000 -1.000000
scale_factor_out=1.000000 1.000000 1.000000 1.000000
neurons (num_inputs, activation_function, activation_steepness)=(0, 0, 0.00000000000000000000e+00) (0, 0, 0.00000000000000000000e+00) (0, 0, 0.00000000000000000000e+00) (0, 0, 0.00000000000000000000e+00) (0, 0, 0.00000000000000000000e+00) (0, 0, 0.00000000000000000000e+00) (0, 0, 0.00000000000000000000e+00) (0, 0, 0.00000000000000000000e+00) (0, 0, 0.00000000000000000000e+00) (0, 0, 0.00000000000000000000e+00) (10, 5, 5.00000000000000000000e-01) (10, 5, 5.00000000000000000000e-01) (10, 5, 5.00000000000000000000e-01) (10, 5, 5.00000000000000000000e-01) (10, 5, 5.00000000000000000000e-01) (10, 5, 5.00000000000000000000e-01) (10, 5, 5.00000000000000000000e-01) (10, 5, 5.00000000000000000000e-01) (10, 5, 5.00000000000000000000e-01) (10, 5, 5.00000000000000000000e-01) (10, 5, 5.00000000000000000000e-01) (10, 5, 5.00000000000000000000e-01) (10, 5, 5.00000000000000000000e-01) (10, 5, 5.00000000000000000000e-01) (10, 5, 5.00000000000000000000e-01) (10, 5, 5.00000000000000000000e-01) (10, 5, 5.00000000000000000000e-01) (10, 5, 5.00000000000000000000e-01) (10, 5, 5.00000000000000000000e-01) (10, 5, 5.00000000000000000000e-01) (10, 5, 5.00000000000000000000e-01) (10, 5, 5.00000000000000000000e-01) (10, 5, 5.00000000000000000000e-01) (10, 5, 5.00000000000000000000e-01) (10, 5, 5.00000000000000000000e-01) (10, 5, 5.00000000000000000000e-01) (10, 5, 5.00000000000000000000e-01) (10, 5, 5.00000000000000000000e-01) (10, 5, 5.00000000000000000000e-01) (10, 5, 5.00000000000000000000e-01) (10, 5, 5.00000000000000000000e-01) (10, 5, 5.00000000000000000000e-01) (10, 5, 5.00000000000000000000e-01) (10, 5, 5.00000000000000000000e-01) (10, 5, 5.00000000000000000000e-01) (10, 5, 5.00000000000000000000e-01) (10, 5, 5.00000000000000000000e-01) (10, 5, 5.00000000000000000000e-01) (10, 5, 5.00000000000000000000e-01) (10, 5, 5.00000000000000000000e-01) (10, 5, 5.00000000000000000000e-01) (10, 5, 5.00000000000000000000e-01) (10, 5, 5.00000000000000000000e-01) (10, 5, 5.00000000000000000000e-01) (10, 5, 5.00000000000000000000e-01) (10, 5, 5.00000000000000000000e-01) (10, 5, 5.00000000000000000000e-01) (10, 5, 5.00000000000000000000e-01) (10, 5, 5.00000000000000000000e-01) (10, 5, 5.00000000000000000000e-01) (10, 5, 5.00000000000000000000e-01) (10, 5, 5.00000000000000000000e-01) (10, 5, 5.00000000000000000000e-01) (10, 5, 5.00000000000000000000e-01) (10, 5, 5.00000000000000000000e-01) (10, 5, 5.00000000000000000000e-01) (10, 5, 5.00000000000000000000e-01) (10, 5, 5.00000000000000000000e-01) (10, 5, 5.00000000000000000000e-01) (10, 5, 5.00000000000000000000e-01) (0, 5, 0.00000000000000000000e+00) (61, 0, 5.00000000000000000000e-01) (61, 0, 5.00000000000000000000e-01) (61, 0, 5.00000000000000000000e-01) (61, 0, 5.00000000000000000000e-01) (0, 0, 0.00000000000000000000e+00)
connections (connected_to_neuron, weight)=(0, 7.62077391147613525391e-01) (1, -4.45285618305206298828e-01) (2, 9.05971288681030273438e-01) (3, 5.70042669773101806641e-01) (4, -3.54737430810928344727e-01) (5, -7.25441575050354003906e-01) (6, -1.23501263558864593506e-01) (7, -3.78339737653732299805e-01) (8, 2.99844086170196533203e-01) (9, -3.88178169727325439453e-01) (0, -4.09063518047332763672e-01) (1, 4.09721791744232177734e-01) (2, 4.74610865116119384766e-01) (3, 1.02529299259185791016e+00) (4, 4.29444611072540283203e-01) (5, 8.45620095729827880859e-01) (6, 3.28365832567214965820e-01) (7, 7.47910797595977783203e-01) (8, -8.28601002693176269531e-01) (9, -7.43637382984161376953e-01) (0, -1.69670581817626953125e-01) (1, 3.24111551046371459961e-01) (2, 1.89945518970489501953e-01) (3, 5.06454110145568847656e-01) (4, 3.08179557323455810547e-01) (5, 9.08687293529510498047e-01) (6, -8.03996980190277099609e-01) (7, -8.92803192138671875000e-01) (8, 3.44509541988372802734e-01) (9, -5.86262978613376617432e-02) (0, 4.75709676742553710938e-01) (1, 2.60953712463378906250e+00) (2, 4.36051040887832641602e-01) (3, 2.24481391906738281250e+00) (4, 1.18876421451568603516e+00) (5, 1.30250167846679687500e+00) (6, 9.66859102249145507812e-01) (7, -7.20781385898590087891e-01) (8, -1.00402755737304687500e+01) (9, 5.08951425552368164062e-01) (0, -3.29770892858505249023e-01) (1, -1.00047707557678222656e+00) (2, -5.25495946407318115234e-01) (3, -5.85853993892669677734e-01) (4, 9.72213029861450195312e-01) (5, 6.32872283458709716797e-01) (6, -7.20308780670166015625e-01) (7, -6.30095183849334716797e-01) (8, -4.13961783051490783691e-02) (9, -7.39262521266937255859e-01) (0, -4.08207684755325317383e-01) (1, -6.67439699172973632812e-01) (2, -6.26128494739532470703e-01) (3, 1.11380577087402343750e+00) (4, 6.37060701847076416016e-02) (5, 1.52835154533386230469e+00) (6, 7.07419037818908691406e-01) (7, -5.83257615566253662109e-01) (8, 7.18911170959472656250e-01) (9, 7.22389817237854003906e-01) (0, 6.69251322746276855469e-01) (1, 6.02934956550598144531e-01) (2, -8.53860378265380859375e-02) (3, -1.24227547645568847656e+00) (4, -2.60117769241333007812e+00) (5, 2.75271624326705932617e-01) (6, 1.62683403491973876953e+00) (7, 4.69419091939926147461e-01) (8, -1.02803066372871398926e-01) (9, -1.72163701057434082031e+00) (0, -8.82804989814758300781e-02) (1, -1.12845814228057861328e+00) (2, -7.84482240676879882812e-01) (3, -3.08350026607513427734e-01) (4, -1.03497445583343505859e+00) (5, 3.36847007274627685547e-01) (6, -2.72161751985549926758e-01) (7, -7.38352775573730468750e-01) (8, -6.40946865081787109375e-01) (9, -1.04507780075073242188e+00) (0, 6.73670411109924316406e-01) (1, 2.72091299295425415039e-01) (2, -3.88226024806499481201e-02) (3, -1.01077653467655181885e-01) (4, -1.07385732233524322510e-01) (5, 1.73721909523010253906e-01) (6, 8.32699537277221679688e-01) (7, 2.37571280449628829956e-02) (8, 8.61077547073364257812e-01) (9, 2.65540242195129394531e-01) (0, -5.14950931072235107422e-01) (1, 2.72475838661193847656e-01) (2, -2.33744978904724121094e-01) (3, 4.43427443504333496094e-01) (4, 9.57462728023529052734e-01) (5, 7.57218778133392333984e-01) (6, 1.05762231349945068359e+00) (7, 2.05672960728406906128e-02) (8, 3.20185482501983642578e-01) (9, 6.39247987419366836548e-03) (0, 4.37240123748779296875e-01) (1, 6.88293695449829101562e-01) (2, 3.38092595338821411133e-01) (3, 1.06924593448638916016e+00) (4, -3.48522871732711791992e-01) (5, -4.19694036245346069336e-01) (6, 5.33323526382446289062e-01) (7, -1.30897074937820434570e-01) (8, 1.16728164255619049072e-01) (9, 7.39584445953369140625e-01) (0, 9.66206848621368408203e-01) (1, -6.28492474555969238281e-01) (2, -7.82348364591598510742e-02) (3, -7.15746104717254638672e-01) (4, 1.00844250991940498352e-02) (5, 1.71006679534912109375e-01) (6, 6.72362148761749267578e-01) (7, -1.06385305523872375488e-01) (8, -1.16882421076297760010e-01) (9, 5.42639017105102539062e-01) (0, 8.92040610313415527344e-01) (1, 8.50295662879943847656e-01) (2, -6.87852978706359863281e-01) (3, 2.59699553251266479492e-01) (4, -6.63458943367004394531e-01) (5, -7.31900036334991455078e-01) (6, 6.33435845375061035156e-01) (7, -1.11557459831237792969e+00) (8, 6.46579802036285400391e-01) (9, -5.25394976139068603516e-02) (0, 1.51244699954986572266e-01) (1, 2.78364092111587524414e-01) (2, -2.18614228069782257080e-02) (3, 6.05406820774078369141e-01) (4, -1.06305193901062011719e+00) (5, 1.33380398154258728027e-01) (6, -5.33519983291625976562e-01) (7, 7.25832104682922363281e-01) (8, 1.01767742633819580078e+00) (9, 4.86631877720355987549e-02) (0, 4.92969840764999389648e-01) (1, 8.61586749553680419922e-01) (2, 9.10712122917175292969e-01) (3, -7.18344271183013916016e-01) (4, -1.37805700302124023438e+00) (5, -1.61126255989074707031e-01) (6, -1.41839496791362762451e-03) (7, 9.75918292999267578125e-01) (8, -2.53249138593673706055e-01) (9, -2.62794286012649536133e-01) (0, 2.75599241256713867188e-01) (1, -4.89895850419998168945e-01) (2, 3.23723852634429931641e-01) (3, 2.48148381710052490234e-01) (4, -2.75801241397857666016e-01) (5, 4.07899588346481323242e-01) (6, 6.70627295970916748047e-01) (7, -7.19200074672698974609e-01) (8, 9.67394232749938964844e-01) (9, 8.41058697551488876343e-03) (0, 9.72447216510772705078e-01) (1, -1.40550434589385986328e-01) (2, 5.20695567131042480469e-01) (3, 7.71339118480682373047e-01) (4, 7.11995780467987060547e-01) (5, -6.94312810897827148438e-01) (6, -5.57881534099578857422e-01) (7, -9.84236001968383789062e-01) (8, 1.84886693954467773438e-01) (9, -2.24769067764282226562e+00) (0, 1.82037568092346191406e+00) (1, 6.66289567947387695312e-01) (2, -1.05416417121887207031e+00) (3, 1.42179000377655029297e+00) (4, -1.08165240287780761719e+00) (5, 2.94038206338882446289e-01) (6, 8.09676289558410644531e-01) (7, -1.75976836681365966797e+00) (8, 6.14152610301971435547e-01) (9, 5.61805255711078643799e-02) (0, -6.13980829715728759766e-01) (1, -1.04359054565429687500e+00) (2, -3.90971451997756958008e-02) (3, 6.83798134326934814453e-01) (4, -5.46075344085693359375e-01) (5, 9.16451692581176757812e-01) (6, 7.82002732157707214355e-02) (7, 6.07800126075744628906e-01) (8, 2.34533756971359252930e-01) (9, -5.10107874870300292969e-01) (0, -2.08949163556098937988e-01) (1, 1.18538357317447662354e-01) (2, -3.53447526693344116211e-01) (3, -7.56089687347412109375e-02) (4, 5.38399398326873779297e-01) (5, -1.42119908332824707031e+00) (6, 5.96130728721618652344e-01) (7, 6.67519688606262207031e-01) (8, -7.26399242877960205078e-01) (9, 1.04191231727600097656e+00) (0, -3.85757446289062500000e+00) (1, 1.97423899173736572266e+00) (2, -5.71633040904998779297e-01) (3, 3.81999090313911437988e-02) (4, -2.10714840888977050781e+00) (5, -4.34232026338577270508e-01) (6, -4.55379068851470947266e-01) (7, 6.67219579219818115234e-01) (8, -1.07564508914947509766e-01) (9, -1.16592669486999511719e+00) (0, -9.13441181182861328125e-01) (1, -1.14533543586730957031e+00) (2, -1.47320836782455444336e-01) (3, 1.69449853897094726562e+00) (4, 8.54607224464416503906e-01) (5, 2.62251186370849609375e+00) (6, 4.64531600475311279297e-01) (7, 8.19891571998596191406e-01) (8, -1.06247484683990478516e-01) (9, 7.88149535655975341797e-02) (0, -5.26290297508239746094e-01) (1, -2.27793544530868530273e-01) (2, 3.43418180942535400391e-01) (3, 3.01872074604034423828e-01) (4, -9.04630422592163085938e-01) (5, -2.33329489827156066895e-01) (6, -1.48839086294174194336e-01) (7, 2.49348953366279602051e-01) (8, -4.42592531442642211914e-01) (9, -9.52170431613922119141e-01) (0, -1.66599363088607788086e-01) (1, -9.09437537193298339844e-01) (2, -2.70490288734436035156e-01) (3, -6.73582673072814941406e-01) (4, 2.38526895642280578613e-01) (5, -6.14407770335674285889e-02) (6, -1.26042175292968750000e+00) (7, 1.17241370677947998047e+00) (8, 1.03770756721496582031e+00) (9, 1.92934322357177734375e+00) (0, 6.38758957386016845703e-01) (1, -5.34080386161804199219e-01) (2, 2.09211453795433044434e-01) (3, -1.53454214334487915039e-01) (4, -4.74278718233108520508e-01) (5, 5.56792914867401123047e-01) (6, 7.87785589694976806641e-01) (7, 1.18610346317291259766e+00) (8, 8.80270600318908691406e-01) (9, -5.12430369853973388672e-01) (0, 8.40050995349884033203e-01) (1, -6.68789684772491455078e-01) (2, -9.85834836959838867188e-01) (3, -1.21273422241210937500e+00) (4, 1.46202671527862548828e+00) (5, 7.55409002304077148438e-01) (6, -4.35818463563919067383e-01) (7, 4.41812098026275634766e-01) (8, 3.14143836498260498047e-01) (9, -6.94166898727416992188e-01) (0, 1.53475260734558105469e+00) (1, -7.18000769615173339844e-01) (2, 1.61424890160560607910e-01) (3, -1.83918225765228271484e+00) (4, 1.73327803611755371094e-01) (5, 1.48747360706329345703e+00) (6, 1.85535863041877746582e-01) (7, 3.89708131551742553711e-02) (8, 3.44889551401138305664e-01) (9, -6.04214847087860107422e-01) (0, -7.28985220193862915039e-02) (1, 9.87001359462738037109e-02) (2, -6.26699268817901611328e-01) (3, -3.06436717510223388672e-01) (4, -2.93658047914505004883e-01) (5, -3.38446497917175292969e+00) (6, 1.29599785804748535156e+00) (7, 6.66575193405151367188e-01) (8, -1.76755324006080627441e-01) (9, -5.14562225341796875000e+00) (0, -2.35372647643089294434e-01) (1, -7.66247272491455078125e-01) (2, -8.40916205197572708130e-03) (3, 7.41245269775390625000e-01) (4, 1.43797826766967773438e+00) (5, 1.02113679051399230957e-01) (6, 4.49972212314605712891e-01) (7, 1.15833318233489990234e+00) (8, 1.14770853519439697266e+00) (9, -2.90389567613601684570e-01) (0, 4.89051252603530883789e-01) (1, 5.11021912097930908203e-01) (2, -8.05993735790252685547e-01) (3, 3.83343338966369628906e-01) (4, 8.54847505688667297363e-02) (5, -7.15915679931640625000e-01) (6, 1.51271951198577880859e+00) (7, -8.59261453151702880859e-01) (8, 4.61277663707733154297e-01) (9, -4.49117541313171386719e-01) (0, 1.32807216141372919083e-03) (1, -3.76879930496215820312e-01) (2, 8.44580233097076416016e-01) (3, 7.05188274383544921875e-01) (4, 9.75494682788848876953e-01) (5, 4.06060725450515747070e-01) (6, -4.33470666408538818359e-01) (7, -8.62937234342098236084e-03) (8, -2.54299014806747436523e-01) (9, -7.83540755510330200195e-02) (0, -8.84565114974975585938e-02) (1, 3.65171432495117187500e-01) (2, -5.73124401271343231201e-02) (3, 3.91755759716033935547e-01) (4, 1.62554824352264404297e+00) (5, -2.20745787024497985840e-01) (6, -4.66684937477111816406e-01) (7, 1.36228799819946289062e-01) (8, -1.66459560394287109375e-01) (9, -2.65904188156127929688e+00) (0, 8.00405383110046386719e-01) (1, -1.08689463138580322266e+00) (2, 6.39752984046936035156e-01) (3, -7.90733005851507186890e-03) (4, -5.08216142654418945312e-01) (5, -1.37498483061790466309e-01) (6, 3.39768469333648681641e-01) (7, 6.58428609371185302734e-01) (8, 6.14445149898529052734e-01) (9, 3.77305224537849426270e-02) (0, 1.01100039482116699219e+00) (1, -4.23748582601547241211e-01) (2, 6.89478278160095214844e-01) (3, 9.14831876754760742188e-01) (4, -3.16949635744094848633e-01) (5, 7.17542529106140136719e-01) (6, 7.88527205586433410645e-02) (7, 1.12367117404937744141e+00) (8, -7.59717285633087158203e-01) (9, 8.71062397956848144531e-01) (0, -3.79105329513549804688e-01) (1, -6.79755508899688720703e-01) (2, 8.23587477207183837891e-01) (3, -4.72228825092315673828e-01) (4, 4.31713724136352539062e+00) (5, -6.74999237060546875000e-01) (6, 1.12202227115631103516e+00) (7, 9.27407503128051757812e-01) (8, 5.50490021705627441406e-01) (9, -1.62881568074226379395e-01) (0, 3.36472958326339721680e-01) (1, 4.03235077857971191406e-01) (2, 2.80653268098831176758e-01) (3, -1.86488449573516845703e-01) (4, -3.15127015113830566406e-01) (5, 5.85830569267272949219e-01) (6, 1.17469787597656250000e+00) (7, 6.55467987060546875000e-01) (8, -2.18283712863922119141e-01) (9, -1.41015380620956420898e-01) (0, -5.41383862495422363281e-01) (1, -4.00586843490600585938e-01) (2, 2.38743126392364501953e-01) (3, 7.22907364368438720703e-01) (4, -1.70105665922164916992e-01) (5, 4.43137496709823608398e-01) (6, -1.93761304020881652832e-01) (7, -9.14757847785949707031e-02) (8, -3.55259329080581665039e-01) (9, 2.51343622803688049316e-02) (0, -2.16845139861106872559e-01) (1, 4.89094614982604980469e-01) (2, -9.60068643093109130859e-01) (3, 3.90185192227363586426e-02) (4, -9.59082365036010742188e-01) (5, -7.10699141025543212891e-01) (6, 1.95462739467620849609e+00) (7, -1.24756538867950439453e+00) (8, 4.36978131532669067383e-01) (9, -1.62891641259193420410e-01) (0, -1.44411578774452209473e-01) (1, 1.06691563129425048828e+00) (2, -9.21084642410278320312e-01) (3, 8.28284144401550292969e-01) (4, -1.07341611385345458984e+00) (5, -5.20591549575328826904e-02) (6, -1.80535838007926940918e-01) (7, 6.84218108654022216797e-01) (8, 1.32219481468200683594e+00) (9, 5.56160032749176025391e-01) (0, 1.01207113265991210938e+00) (1, 3.94936561584472656250e-01) (2, 1.30052149295806884766e+00) (3, -1.04289555549621582031e+00) (4, 1.03885209560394287109e+00) (5, 7.89867281913757324219e-01) (6, 9.49783682823181152344e-01) (7, -1.46711516380310058594e+00) (8, -2.93680500984191894531e+00) (9, 4.38308596611022949219e-01) (0, 5.48964917659759521484e-01) (1, -1.82378470897674560547e+00) (2, -1.20363938808441162109e+00) (3, -3.30917030572891235352e-01) (4, 2.00573468208312988281e+00) (5, -3.18773126602172851562e+00) (6, -2.56831437349319458008e-01) (7, 3.23591023683547973633e-01) (8, -5.98689243197441101074e-02) (9, 3.26487565040588378906e+00) (0, 4.04444962739944458008e-01) (1, 5.23488879203796386719e-01) (2, 2.05708169937133789062e+00) (3, 8.64267423748970031738e-02) (4, -1.03275704383850097656e+00) (5, 2.66709542274475097656e+00) (6, 1.54818892478942871094e-01) (7, -1.90345421433448791504e-02) (8, 7.41900563240051269531e-01) (9, -7.86612272262573242188e-01) (0, 5.68926371634006500244e-02) (1, -3.61826896667480468750e-01) (2, -1.60898298025131225586e-01) (3, -7.52106845378875732422e-01) (4, 3.36781382560729980469e-01) (5, -1.00659275054931640625e+00) (6, 6.38566136360168457031e-01) (7, 8.62703442573547363281e-01) (8, 3.52744042873382568359e-01) (9, -6.32542312145233154297e-01) (0, 1.53205502033233642578e+00) (1, 3.02422523498535156250e+00) (2, -1.85639417171478271484e+00) (3, 2.44414210319519042969e-01) (4, 1.11052565276622772217e-01) (5, 9.37235057353973388672e-02) (6, -1.07278597354888916016e+00) (7, 1.58372652530670166016e+00) (8, 1.62678718566894531250e-01) (9, -1.01138901710510253906e+00) (0, 6.57359898090362548828e-01) (1, -5.44088304042816162109e-01) (2, -4.04329836368560791016e-01) (3, 3.48954796791076660156e-01) (4, 5.82156062126159667969e-01) (5, 8.30806434154510498047e-01) (6, 3.97348940372467041016e-01) (7, 8.43239545822143554688e-01) (8, 2.41026446223258972168e-01) (9, 2.39097312092781066895e-01) (0, -3.31230759620666503906e-01) (1, 2.84749865531921386719e-01) (2, 6.58298254013061523438e-01) (3, -1.87487807124853134155e-02) (4, 2.97085344791412353516e-01) (5, -2.52547472715377807617e-01) (6, 3.47774999681860208511e-04) (7, 2.42101028561592102051e-02) (8, -4.58779394626617431641e-01) (9, 7.15524792671203613281e-01) (0, 1.45508766174316406250e+00) (1, 2.74493098258972167969e+00) (2, -8.70252251625061035156e-02) (3, 1.71115863323211669922e+00) (4, -1.37588322162628173828e+00) (5, -1.71899020671844482422e+00) (6, -3.90549093484878540039e-01) (7, 1.27079439163208007812e+00) (8, 5.88885188102722167969e-01) (9, -1.79793012142181396484e+00) (0, -9.68616127967834472656e-01) (1, 1.16684627532958984375e+00) (2, 4.75287348031997680664e-01) (3, 1.24418698251247406006e-01) (4, -1.97607595473527908325e-02) (5, -1.94016054272651672363e-01) (6, -7.67724871635437011719e-01) (7, 7.29017317295074462891e-01) (8, -4.54212874174118041992e-01) (9, -1.62088644504547119141e+00) (0, 2.40552246570587158203e-01) (1, -1.44804507493972778320e-01) (2, 8.63304674625396728516e-01) (3, 1.99065655469894409180e-01) (4, 4.61183190345764160156e-01) (5, 2.12914705276489257812e-01) (6, 5.26477277278900146484e-01) (7, -7.22953826189041137695e-02) (8, 8.56736123561859130859e-01) (9, 2.57514625787734985352e-01) (0, -1.39388704299926757812e+00) (1, -9.25848245620727539062e-01) (2, 2.24906101822853088379e-01) (3, 5.60020625591278076172e-01) (4, -4.31345999240875244141e-01) (5, 3.35158518282696604729e-04) (6, 1.84571802616119384766e+00) (7, 3.00802439451217651367e-01) (8, 2.69810974597930908203e-01) (9, 7.76883482933044433594e-01) (0, 8.08535099029541015625e-01) (1, -2.42190107703208923340e-01) (2, -1.12424522638320922852e-01) (3, 2.13006401062011718750e+00) (4, -8.98334801197052001953e-01) (5, -3.12976050376892089844e+00) (6, 2.07784342765808105469e+00) (7, -6.73207461833953857422e-01) (8, 4.89849835634231567383e-01) (9, -8.60403776168823242188e-01) (0, 1.86228677630424499512e-01) (1, 3.55705678462982177734e-01) (2, 4.95548874139785766602e-01) (3, -8.05774390697479248047e-01) (4, 8.96756887435913085938e-01) (5, 6.58422410488128662109e-01) (6, 4.25738811492919921875e-01) (7, 4.15548890829086303711e-01) (8, 9.73084092140197753906e-01) (9, -2.46458292007446289062e-01) (0, 6.99357807636260986328e-01) (1, -3.78723621368408203125e-01) (2, 2.03824591636657714844e+00) (3, -6.35531425476074218750e-01) (4, 7.46473741531372070312e+00) (5, 9.70184624195098876953e-01) (6, -1.83267161250114440918e-01) (7, 7.50264972448348999023e-02) (8, -1.50809630751609802246e-01) (9, 5.13615846633911132812e-01) (0, 5.55406749248504638672e-01) (1, -7.61168301105499267578e-01) (2, 3.29966545104980468750e-01) (3, -6.83804377913475036621e-02) (4, 4.04592543840408325195e-01) (5, -4.69211116433143615723e-02) (6, -9.70970466732978820801e-02) (7, 1.72501519322395324707e-01) (8, 7.28875517845153808594e-01) (9, -1.80915370583534240723e-01) (0, 5.47454833984375000000e-01) (1, -2.30960249900817871094e-01) (2, 9.22664552927017211914e-02) (3, 7.97557950019836425781e-01) (4, 9.19722974300384521484e-01) (5, -6.17207527160644531250e-01) (6, -1.54124033451080322266e+00) (7, 4.46910947561264038086e-01) (8, -6.07132732868194580078e-01) (9, 1.45682048797607421875e+00) (0, -2.34772458672523498535e-01) (1, -1.86441317200660705566e-01) (2, 1.10299894586205482483e-02) (3, 1.09240508079528808594e+00) (4, -7.44047045707702636719e-01) (5, 2.43936944007873535156e+00) (6, 1.98319420218467712402e-01) (7, 5.72553455829620361328e-01) (8, 2.22127735614776611328e-01) (9, 7.40269243717193603516e-01) (0, 5.36180734634399414062e-01) (1, 7.84787014126777648926e-02) (2, 8.28524827957153320312e-01) (3, -3.86871188879013061523e-01) (4, 2.69217461347579956055e-01) (5, -1.96943902969360351562e+00) (6, 5.13346314430236816406e-01) (7, 1.26235103607177734375e+00) (8, -5.43974876403808593750e-01) (9, -8.09400379657745361328e-01) (0, 2.58521363139152526855e-02) (1, 1.63867354393005371094e+00) (2, 1.58189225196838378906e+00) (3, 2.27762997150421142578e-01) (4, -1.61766815185546875000e+00) (5, 7.44859933853149414062e-01) (6, -3.14731508493423461914e-01) (7, -4.84431684017181396484e-01) (8, -1.95096090435981750488e-01) (9, 1.95761144161224365234e+00) (0, -2.84200221300125122070e-01) (1, -3.47719758749008178711e-01) (2, -3.61417829990386962891e-01) (3, -4.28135097026824951172e-01) (4, -3.90981107950210571289e-01) (5, 7.85455033183097839355e-02) (6, -3.71791183948516845703e-01) (7, 7.06900954246520996094e-01) (8, 1.50571465492248535156e-02) (9, 6.50945782661437988281e-01) (0, 1.00293731689453125000e+00) (1, -4.89758431911468505859e-01) (2, -3.10575318336486816406e+00) (3, -1.27479091286659240723e-01) (4, -3.33012533187866210938e+00) (5, 5.55748581886291503906e-01) (6, 3.25383275747299194336e-01) (7, -1.45846962928771972656e+00) (8, 6.02366149425506591797e-01) (9, 8.28726708889007568359e-01) (10, 8.77611875534057617188e-01) (11, -5.92987060546875000000e-01) (12, 2.48327881097793579102e-01) (13, -5.25888264179229736328e-01) (14, 1.57844021916389465332e-01) (15, 1.69530951976776123047e+00) (16, 2.17067077755928039551e-01) (17, 4.24318939447402954102e-01) (18, -1.36111304163932800293e-01) (19, 5.15455603599548339844e-01) (20, -1.42897918820381164551e-01) (21, 5.63102960586547851562e-01) (22, 1.83831363916397094727e-01) (23, 5.93675533309578895569e-03) (24, 9.77977931499481201172e-01) (25, -2.44196534156799316406e-01) (26, 9.10911142826080322266e-01) (27, -2.46608272194862365723e-01) (28, 1.23971164226531982422e-01) (29, 9.47182118892669677734e-01) (30, 5.15491127967834472656e-01) (31, 8.55991840362548828125e-01) (32, 2.52778768539428710938e-01) (33, -1.52909129858016967773e-01) (34, 2.64460574835538864136e-02) (35, 1.25188887119293212891e+00) (36, 4.35767173767089843750e-01) (37, -9.09636259078979492188e-01) (38, -5.02862036228179931641e-01) (39, 5.44607579708099365234e-01) (40, -1.98015630245208740234e-01) (41, 9.33988213539123535156e-01) (42, 9.79897975921630859375e-01) (43, -1.85161679983139038086e-01) (44, -9.70278799533843994141e-01) (45, -2.28432759642601013184e-01) (46, 8.52625906467437744141e-01) (47, 3.40499907732009887695e-01) (48, 8.17196071147918701172e-01) (49, 8.43734264373779296875e-01) (50, 1.09982120990753173828e+00) (51, -5.31636834144592285156e-01) (52, 5.31044483184814453125e-01) (53, 6.85303986072540283203e-01) (54, 1.69110015034675598145e-01) (55, 1.49196192622184753418e-01) (56, 2.58475005626678466797e-01) (57, 8.81318628787994384766e-01) (58, -2.45865404605865478516e-01) (59, 8.33267927169799804688e-01) (60, 8.47554743289947509766e-01) (61, -2.16864347457885742188e-01) (62, 1.06770801544189453125e+00) (63, -4.39184099435806274414e-01) (64, -1.62695363163948059082e-01) (65, 7.53446459770202636719e-01) (66, -8.57022404670715332031e-01) (67, 1.35283267498016357422e+00) (68, 4.24108475446701049805e-01) (69, -6.34969651699066162109e-01) (70, -3.65901529788970947266e-01) (10, 1.16840571165084838867e-01) (11, 4.47783559560775756836e-01) (12, -2.81133919954299926758e-01) (13, -6.87072157859802246094e-01) (14, 8.03894817829132080078e-01) (15, 6.32370233535766601562e-01) (16, 1.22100722789764404297e+00) (17, 2.51229107379913330078e-01) (18, -6.40726804733276367188e-01) (19, -3.75041812658309936523e-01) (20, 9.91517305374145507812e-02) (21, -6.08794510364532470703e-01) (22, -6.21241964399814605713e-02) (23, 7.86454260349273681641e-01) (24, -7.30807125568389892578e-01) (25, 8.93559634685516357422e-01) (26, 1.10060012340545654297e+00) (27, -7.05356597900390625000e-01) (28, 1.10897362232208251953e+00) (29, -2.80344545841217041016e-01) (30, 1.22025167942047119141e+00) (31, 1.73448875546455383301e-01) (32, -3.99186432361602783203e-01) (33, -7.49631226062774658203e-02) (34, 5.17510771751403808594e-01) (35, 9.29267525672912597656e-01) (36, 7.57031679153442382812e-01) (37, -1.14368891716003417969e+00) (38, -3.23956698179244995117e-01) (39, 2.10457310080528259277e-01) (40, 3.73178124427795410156e-01) (41, 6.66095852851867675781e-01) (42, 1.71880781650543212891e-01) (43, 4.56032514572143554688e-01) (44, -7.43555068969726562500e-01) (45, 9.59843754768371582031e-01) (46, 1.40056414529681205750e-02) (47, 4.66044247150421142578e-01) (48, 9.78545472025871276855e-02) (49, 1.12934505939483642578e+00) (50, 1.38940107822418212891e+00) (51, -1.59532105922698974609e+00) (52, -5.56195855140686035156e-01) (53, 9.26263272762298583984e-01) (54, -6.73222422599792480469e-01) (55, -6.83157205581665039062e-01) (56, 7.20840692520141601562e-01) (57, -4.60529774427413940430e-02) (58, -6.55942678451538085938e-01) (59, 7.09344267845153808594e-01) (60, 7.91305243968963623047e-01) (61, 3.15025538206100463867e-01) (62, 6.95039451122283935547e-01) (63, 6.43475115299224853516e-01) (64, -9.62084472179412841797e-01) (65, -5.05244553089141845703e-01) (66, 5.97526371479034423828e-01) (67, 2.08025145530700683594e+00) (68, -5.21439373493194580078e-01) (69, -6.64922297000885009766e-01) (70, 6.15931928157806396484e-01) (10, 9.52875137329101562500e-01) (11, 6.73289537429809570312e-01) (12, -5.24286687374114990234e-01) (13, -5.62415003776550292969e-01) (14, 7.37526267766952514648e-02) (15, 2.68510055541992187500e+00) (16, 7.47977674007415771484e-01) (17, 5.66148340702056884766e-01) (18, -1.43551111221313476562e+00) (19, 7.37688064575195312500e-01) (20, -3.52334141731262207031e-01) (21, 6.16969108581542968750e-01) (22, 6.85412645339965820312e-01) (23, 8.30877065658569335938e-01) (24, 6.07029199600219726562e-01) (25, -3.69814485311508178711e-01) (26, 7.52054333686828613281e-01) (27, -6.48993909358978271484e-01) (28, -1.60216931253671646118e-02) (29, -1.52248084545135498047e-01) (30, 8.26882064342498779297e-01) (31, 6.15428686141967773438e-01) (32, 4.62245970964431762695e-01) (33, 2.06541316583752632141e-03) (34, 8.47205698490142822266e-01) (35, 1.12869489192962646484e+00) (36, 4.81000781059265136719e-01) (37, -1.02739107608795166016e+00) (38, -1.01757407188415527344e+00) (39, 3.16232107579708099365e-02) (40, -1.10347166657447814941e-01) (41, 8.75308334827423095703e-01) (42, 5.53707368671894073486e-02) (43, 1.01476259529590606689e-01) (44, -1.09862124919891357422e+00) (45, 1.73469632863998413086e-01) (46, -4.50875610113143920898e-01) (47, 9.06642436981201171875e-01) (48, 4.74011808633804321289e-01) (49, 8.57499718666076660156e-01) (50, 1.71291720867156982422e+00) (51, -1.40998947620391845703e+00) (52, -1.19882190227508544922e+00) (53, 6.51399016380310058594e-01) (54, -6.52334153652191162109e-01) (55, 6.09056830406188964844e-01) (56, 2.10111409425735473633e-01) (57, 6.32380068302154541016e-01) (58, 7.14611053466796875000e-01) (59, 2.91928499937057495117e-01) (60, 1.05297672748565673828e+00) (61, 6.83729290962219238281e-01) (62, 1.00300467014312744141e+00) (63, 3.85182380676269531250e-01) (64, 1.10866233706474304199e-01) (65, 6.23790621757507324219e-01) (66, -4.37408126890659332275e-02) (67, 6.60085439682006835938e-01) (68, 6.92073479294776916504e-02) (69, -5.75078427791595458984e-01) (70, -3.35817366838455200195e-01) (10, -1.40519710257649421692e-02) (11, 6.96546435356140136719e-01) (12, 4.75646853446960449219e-01) (13, -6.44986271858215332031e-01) (14, 7.52135276794433593750e-01) (15, -6.62853717803955078125e-01) (16, 1.08772122859954833984e+00) (17, 6.81701064109802246094e-01) (18, 7.81856477260589599609e-01) (19, -7.69360005855560302734e-01) (20, 4.49109748005867004395e-02) (21, -5.93853950500488281250e-01) (22, -4.14913952350616455078e-01) (23, -5.26622354984283447266e-01) (24, -2.99794316291809082031e-01) (25, 5.68947911262512207031e-01) (26, 1.11327230930328369141e+00) (27, -5.74101507663726806641e-01) (28, 7.12326645851135253906e-01) (29, 7.32965111732482910156e-01) (30, 1.27673995494842529297e+00) (31, 5.35844147205352783203e-01) (32, 4.88749921321868896484e-01) (33, -2.35522255301475524902e-01) (34, -4.30501967668533325195e-01) (35, 1.46777200698852539062e+00) (36, 1.04103147983551025391e+00) (37, -1.39889037609100341797e+00) (38, -2.03593119978904724121e-01) (39, 4.05924767255783081055e-01) (40, 5.53943812847137451172e-01) (41, 3.83617728948593139648e-01) (42, 7.14643716812133789062e-01) (43, 3.00965338945388793945e-01) (44, -1.21225547790527343750e+00) (45, -9.97051969170570373535e-02) (46, 6.93883657455444335938e-01) (47, 1.02297103404998779297e+00) (48, 1.00424456596374511719e+00) (49, 1.15262210369110107422e+00) (50, 1.22427654266357421875e+00) (51, -1.18592286109924316406e+00) (52, 6.39403820037841796875e-01) (53, 1.11380910873413085938e+00) (54, 3.68023693561553955078e-01) (55, -1.11245763301849365234e+00) (56, 6.48591935634613037109e-01) (57, 1.63814917206764221191e-01) (58, 2.20035582780838012695e-01) (59, 9.68675732612609863281e-01) (60, 9.78799104690551757812e-01) (61, -1.59882411360740661621e-01) (62, 8.50905656814575195312e-01) (63, 8.93423080444335937500e-01) (64, -9.50853466987609863281e-01) (65, -3.21949362754821777344e-01) (66, -5.21261215209960937500e-01) (67, 2.31496477127075195312e+00) (68, 5.46705871820449829102e-02) (69, -1.16126847267150878906e+00) (70, 3.75276356935501098633e-01)
input_names='a' 'betan' 'bt' 'delta' 'ip' 'kappa' 'neped' 'r' 'zeffped'
output_names='OUT_p_E1_0' 'OUT_p_E1_2' 'OUT_wid_E1_0' 'OUT_wid_E1_2'
norm_output=-0.324993958950689 -0.031607149763372644 0.9312455684175893 0.12488737176047943 0.9206606811803661 -1.5210736376799652 0.25708541031476084 0.1288236239797365 0.19715872165619702 -0.47680515854983246 -0.09155382825844015 0.6512225364205029 0.6983989805242949 0.9156447702351479 -0.8711012880305987 0.34760952496753295 -0.3107201880095888 0.24688032058386178 0.8681387251144406 -0.022869556864905338 0.45031875871224364 0.09765090395643512 -0.5358767314751398 -0.011323797984938332 0.13449279466415562 0.1150827573771555 0.09973467878890203 0.7638199376681876 -0.04636445278822197 0.32544614215571155 0.3588690952405993 -0.5418833918247082 0.2853260748147929 0.176041461451028 -0.14969917066734084 0.12259904971323753
MSE= 1.79386818409