FANN_FLO_2.1
num_layers=3
learning_rate=0.700000
connection_rate=1.000000
network_type=0
learning_momentum=0.000000
training_algorithm=2
train_error_function=0
train_stop_function=0
cascade_output_change_fraction=0.010000
quickprop_decay=1.122428
quickprop_mu=1.750000
rprop_increase_factor=1.200000
rprop_decrease_factor=0.500000
rprop_delta_min=0.000000
rprop_delta_max=50.000000
rprop_delta_zero=0.100000
cascade_output_stagnation_epochs=12
cascade_candidate_change_fraction=0.010000
cascade_candidate_stagnation_epochs=12
cascade_max_out_epochs=150
cascade_min_out_epochs=50
cascade_max_cand_epochs=150
cascade_min_cand_epochs=50
cascade_num_candidate_groups=2
bit_fail_limit=3.49999994039535522461e-01
cascade_candidate_limit=1.00000000000000000000e+03
cascade_weight_multiplier=4.00000005960464477539e-01
cascade_activation_functions_count=10
cascade_activation_functions=3 5 7 8 10 11 14 15 16 17
cascade_activation_steepnesses_count=4
cascade_activation_steepnesses=2.50000000000000000000e-01 5.00000000000000000000e-01 7.50000000000000000000e-01 1.00000000000000000000e+00
layer_sizes=10 61 5
scale_included=1
scale_mean_in=1.792000 2.642000 6.007000 0.491600 9.027000 2.019000 4.438000 6.608000 1.852000
scale_deviation_in=0.053374 0.530771 0.852495 0.066420 1.605656 0.271316 1.104537 0.185325 0.363237
scale_new_min_in=-1.000000 -1.000000 -1.000000 -1.000000 -1.000000 -1.000000 -1.000000 -1.000000 -1.000000
scale_factor_in=1.000000 1.000000 1.000000 1.000000 1.000000 1.000000 1.000000 1.000000 1.000000
scale_mean_out=0.002103 0.007925 0.023829 0.050173
scale_deviation_out=0.000318 0.000695 0.001660 0.002200
scale_new_min_out=-1.000000 -1.000000 -1.000000 -1.000000
scale_factor_out=1.000000 1.000000 1.000000 1.000000
neurons (num_inputs, activation_function, activation_steepness)=(0, 0, 0.00000000000000000000e+00) (0, 0, 0.00000000000000000000e+00) (0, 0, 0.00000000000000000000e+00) (0, 0, 0.00000000000000000000e+00) (0, 0, 0.00000000000000000000e+00) (0, 0, 0.00000000000000000000e+00) (0, 0, 0.00000000000000000000e+00) (0, 0, 0.00000000000000000000e+00) (0, 0, 0.00000000000000000000e+00) (0, 0, 0.00000000000000000000e+00) (10, 5, 5.00000000000000000000e-01) (10, 5, 5.00000000000000000000e-01) (10, 5, 5.00000000000000000000e-01) (10, 5, 5.00000000000000000000e-01) (10, 5, 5.00000000000000000000e-01) (10, 5, 5.00000000000000000000e-01) (10, 5, 5.00000000000000000000e-01) (10, 5, 5.00000000000000000000e-01) (10, 5, 5.00000000000000000000e-01) (10, 5, 5.00000000000000000000e-01) (10, 5, 5.00000000000000000000e-01) (10, 5, 5.00000000000000000000e-01) (10, 5, 5.00000000000000000000e-01) (10, 5, 5.00000000000000000000e-01) (10, 5, 5.00000000000000000000e-01) (10, 5, 5.00000000000000000000e-01) (10, 5, 5.00000000000000000000e-01) (10, 5, 5.00000000000000000000e-01) (10, 5, 5.00000000000000000000e-01) (10, 5, 5.00000000000000000000e-01) (10, 5, 5.00000000000000000000e-01) (10, 5, 5.00000000000000000000e-01) (10, 5, 5.00000000000000000000e-01) (10, 5, 5.00000000000000000000e-01) (10, 5, 5.00000000000000000000e-01) (10, 5, 5.00000000000000000000e-01) (10, 5, 5.00000000000000000000e-01) (10, 5, 5.00000000000000000000e-01) (10, 5, 5.00000000000000000000e-01) (10, 5, 5.00000000000000000000e-01) (10, 5, 5.00000000000000000000e-01) (10, 5, 5.00000000000000000000e-01) (10, 5, 5.00000000000000000000e-01) (10, 5, 5.00000000000000000000e-01) (10, 5, 5.00000000000000000000e-01) (10, 5, 5.00000000000000000000e-01) (10, 5, 5.00000000000000000000e-01) (10, 5, 5.00000000000000000000e-01) (10, 5, 5.00000000000000000000e-01) (10, 5, 5.00000000000000000000e-01) (10, 5, 5.00000000000000000000e-01) (10, 5, 5.00000000000000000000e-01) (10, 5, 5.00000000000000000000e-01) (10, 5, 5.00000000000000000000e-01) (10, 5, 5.00000000000000000000e-01) (10, 5, 5.00000000000000000000e-01) (10, 5, 5.00000000000000000000e-01) (10, 5, 5.00000000000000000000e-01) (10, 5, 5.00000000000000000000e-01) (10, 5, 5.00000000000000000000e-01) (10, 5, 5.00000000000000000000e-01) (10, 5, 5.00000000000000000000e-01) (10, 5, 5.00000000000000000000e-01) (10, 5, 5.00000000000000000000e-01) (10, 5, 5.00000000000000000000e-01) (10, 5, 5.00000000000000000000e-01) (10, 5, 5.00000000000000000000e-01) (10, 5, 5.00000000000000000000e-01) (10, 5, 5.00000000000000000000e-01) (10, 5, 5.00000000000000000000e-01) (0, 5, 0.00000000000000000000e+00) (61, 0, 5.00000000000000000000e-01) (61, 0, 5.00000000000000000000e-01) (61, 0, 5.00000000000000000000e-01) (61, 0, 5.00000000000000000000e-01) (0, 0, 0.00000000000000000000e+00)
connections (connected_to_neuron, weight)=(0, 3.71812671422958374023e-01) (1, -5.31027257442474365234e-01) (2, 7.94448137283325195312e-01) (3, 5.74727654457092285156e-01) (4, -1.39304590225219726562e+00) (5, 5.33538823947310447693e-03) (6, 9.30439114570617675781e-01) (7, 4.47377532720565795898e-01) (8, 1.11129023134708404541e-01) (9, -1.46590784192085266113e-01) (0, 6.53737962245941162109e-01) (1, -4.23661231994628906250e-01) (2, 5.18137454986572265625e-01) (3, 6.61129891872406005859e-01) (4, 1.57303258776664733887e-01) (5, -2.70299464464187622070e-01) (6, -5.84352910518646240234e-01) (7, 1.91954255104064941406e-01) (8, -6.09809935092926025391e-01) (9, -1.85394227504730224609e-01) (0, -6.29101336002349853516e-01) (1, -1.81878849864006042480e-01) (2, -1.39410388469696044922e+00) (3, 8.21239411830902099609e-01) (4, 1.05710089206695556641e+00) (5, -2.64568996429443359375e+00) (6, -8.82153213024139404297e-03) (7, 3.48415732383728027344e-01) (8, 1.12980119884014129639e-01) (9, -5.30528686940670013428e-02) (0, -2.70185261964797973633e-01) (1, 5.05224168300628662109e-01) (2, 2.74155646562576293945e-01) (3, 7.60461926460266113281e-01) (4, -7.51616835594177246094e-01) (5, -2.30140149593353271484e-01) (6, -5.32793030142784118652e-02) (7, -3.31382870674133300781e-01) (8, -5.90368986129760742188e-01) (9, 1.31738555431365966797e+00) (0, 2.78773039579391479492e-01) (1, -8.29833865165710449219e-01) (2, -3.39143872261047363281e-01) (3, -4.61760371923446655273e-01) (4, 5.28604209423065185547e-01) (5, 4.62985455989837646484e-01) (6, -1.22732363641262054443e-01) (7, 2.06764400005340576172e-01) (8, 4.27647590637207031250e-01) (9, 1.90838471055030822754e-01) (0, -4.77496355772018432617e-01) (1, -9.75909292697906494141e-01) (2, 2.22598001360893249512e-01) (3, -4.73994404077529907227e-01) (4, -5.99776506423950195312e-01) (5, 2.44178622961044311523e-01) (6, -1.23267248272895812988e-01) (7, 6.71924293041229248047e-01) (8, -6.14458434283733367920e-02) (9, -5.57956159114837646484e-01) (0, 5.86273014545440673828e-01) (1, 1.06280565261840820312e+00) (2, 1.65647745132446289062e+00) (3, -1.04819488525390625000e+00) (4, 6.59632325172424316406e-01) (5, -1.06880471110343933105e-01) (6, -1.13698532804846763611e-02) (7, 5.31608313322067260742e-02) (8, -1.32736116647720336914e-01) (9, 2.95374602079391479492e-01) (0, -1.71802389621734619141e+00) (1, 5.64166247844696044922e-01) (2, 4.24954980611801147461e-01) (3, -1.42992720007896423340e-01) (4, 4.27691191434860229492e-01) (5, -4.85839754343032836914e-01) (6, -7.65181005001068115234e-01) (7, 3.78490686416625976562e-01) (8, -6.21072053909301757812e-01) (9, 2.27274969220161437988e-01) (0, 2.31246924400329589844e+00) (1, -2.53696262836456298828e-01) (2, 3.79850447177886962891e-01) (3, 7.81417727470397949219e-01) (4, 2.81829684972763061523e-01) (5, 1.17964220046997070312e+00) (6, -6.79481506347656250000e-01) (7, 9.11285042762756347656e-01) (8, -3.19793194532394409180e-01) (9, 6.71610832214355468750e-02) (0, -3.89901041984558105469e-01) (1, -4.43240143358707427979e-02) (2, -4.91636872291564941406e-01) (3, 4.03442561626434326172e-01) (4, 7.35667999833822250366e-03) (5, 3.95823955535888671875e-01) (6, -7.15457275509834289551e-02) (7, -3.22091788053512573242e-01) (8, -2.67045706510543823242e-01) (9, -7.75857329368591308594e-01) (0, 6.65830612182617187500e-01) (1, 7.62166321277618408203e-01) (2, 3.68059277534484863281e-01) (3, -2.69177347421646118164e-01) (4, -3.02792876958847045898e-01) (5, 5.02513468265533447266e-01) (6, -2.80472598969936370850e-02) (7, -6.58876448869705200195e-02) (8, 1.10352706909179687500e+00) (9, 6.47240579128265380859e-01) (0, -8.93699109554290771484e-01) (1, 2.25757336616516113281e+00) (2, 8.38795423507690429688e-01) (3, 2.03398299217224121094e+00) (4, -1.39126181602478027344e+00) (5, -1.52039873600006103516e+00) (6, 1.74297475814819335938e+00) (7, -1.53053987026214599609e+00) (8, 2.02352460473775863647e-02) (9, 6.36634051799774169922e-01) (0, 4.65582579374313354492e-01) (1, -2.64648973941802978516e-01) (2, 5.96627332270145416260e-02) (3, 1.21589088439941406250e+00) (4, 1.77245855331420898438e-01) (5, -3.25380474328994750977e-01) (6, 1.06138009577989578247e-02) (7, 3.28209489583969116211e-01) (8, 1.69812396168708801270e-01) (9, 8.97462740540504455566e-02) (0, -4.44606304168701171875e-01) (1, -3.96310210227966308594e-01) (2, -5.95496892929077148438e-02) (3, 5.52398502826690673828e-01) (4, 1.30355405807495117188e+00) (5, -6.18025422096252441406e-01) (6, -9.80631589889526367188e-01) (7, 9.68959480524063110352e-02) (8, 2.61934667825698852539e-01) (9, 8.95897746086120605469e-01) (0, -2.58539152145385742188e+00) (1, 2.09019288420677185059e-01) (2, -3.82481932640075683594e-01) (3, -7.71785676479339599609e-01) (4, -2.68023204803466796875e+00) (5, -2.19439983367919921875e+00) (6, 6.30677044391632080078e-01) (7, 7.91393756866455078125e-01) (8, 9.68237280845642089844e-01) (9, 6.80306375026702880859e-01) (0, 1.65357542037963867188e+00) (1, -1.42384362220764160156e+00) (2, -6.65990233421325683594e-01) (3, -7.39861607551574707031e-01) (4, 1.47070622444152832031e+00) (5, -1.03987514972686767578e+00) (6, -2.28330686688423156738e-01) (7, 1.18670374155044555664e-01) (8, 3.73714953660964965820e-01) (9, 1.73787748813629150391e+00) (0, 5.06462872028350830078e-01) (1, 8.12485873699188232422e-01) (2, -6.73326313495635986328e-01) (3, -5.44219315052032470703e-01) (4, -3.57673138380050659180e-01) (5, -8.74946951866149902344e-01) (6, 4.76960837841033935547e-01) (7, 3.51847037672996520996e-02) (8, 5.35071134567260742188e-01) (9, -4.00539278984069824219e-01) (0, -6.20464801788330078125e-01) (1, 9.84538316726684570312e-01) (2, 2.54730768501758575439e-02) (3, -5.74314773082733154297e-01) (4, -1.43662381172180175781e+00) (5, 1.53943479061126708984e-01) (6, -1.49053663015365600586e-01) (7, -1.25075030326843261719e+00) (8, -3.87201547622680664062e-01) (9, 5.96237778663635253906e-01) (0, 7.24781334400177001953e-01) (1, 7.54550397396087646484e-01) (2, 1.03668248653411865234e+00) (3, 4.17587709426879882812e+00) (4, -8.41751337051391601562e-01) (5, 7.80042171478271484375e-01) (6, 7.78086423873901367188e-01) (7, 9.02020871639251708984e-01) (8, 7.17776119709014892578e-01) (9, -1.14981424808502197266e+00) (0, -3.39425414800643920898e-01) (1, -5.43064028024673461914e-02) (2, -1.17812097072601318359e+00) (3, -3.69136542081832885742e-01) (4, 1.33905088901519775391e+00) (5, -2.00923538208007812500e+00) (6, 4.60918903350830078125e-01) (7, 3.61060768365859985352e-01) (8, 3.67476701736450195312e-01) (9, 1.49773716926574707031e+00) (0, 3.79532247781753540039e-01) (1, -9.06473100185394287109e-01) (2, 4.44818228483200073242e-01) (3, -3.82965147495269775391e-01) (4, 2.18345069885253906250e+00) (5, -6.67447268962860107422e-01) (6, 6.75993919372558593750e-01) (7, 8.88805165886878967285e-02) (8, -8.96800994873046875000e-01) (9, 2.10152938961982727051e-01) (0, 1.15114545822143554688e+00) (1, 9.12422776222229003906e-01) (2, -4.47188347578048706055e-01) (3, 1.44327831268310546875e+00) (4, 6.36122941970825195312e-01) (5, 1.47359400987625122070e-01) (6, 2.13319063186645507812e-01) (7, -6.30715668201446533203e-01) (8, 9.00845110416412353516e-01) (9, 3.48645485937595367432e-02) (0, 2.13059091567993164062e+00) (1, -1.18272411823272705078e+00) (2, -1.21707171201705932617e-01) (3, -7.41772949695587158203e-02) (4, 1.67348253726959228516e+00) (5, 1.19218182563781738281e+00) (6, 7.64238476753234863281e-01) (7, 4.01132822036743164062e-01) (8, -1.50897940620779991150e-02) (9, 5.21942555904388427734e-01) (0, -2.28941226005554199219e+00) (1, 9.51997399330139160156e-01) (2, 3.03793340921401977539e-01) (3, -1.01393707096576690674e-01) (4, -3.26515746116638183594e+00) (5, 9.71983671188354492188e-02) (6, -5.45910775661468505859e-01) (7, 4.42493379116058349609e-01) (8, 2.77012735605239868164e-01) (9, 5.77272832393646240234e-01) (0, -6.99390232563018798828e-01) (1, 1.47111028432846069336e-01) (2, 1.42894417047500610352e-01) (3, -1.98773860931396484375e-01) (4, -1.24566704034805297852e-01) (5, 2.46678903698921203613e-01) (6, 4.64603066444396972656e-01) (7, 3.88213783502578735352e-01) (8, 1.58990666270256042480e-01) (9, 4.25544947385787963867e-01) (0, 7.25103914737701416016e-02) (1, 5.33608019351959228516e-01) (2, 1.94077752530574798584e-02) (3, 5.93346655368804931641e-01) (4, 1.21036112308502197266e-01) (5, -6.16616368293762207031e-01) (6, 1.35142892599105834961e-01) (7, 4.66414764523506164551e-02) (8, -3.20582807064056396484e-01) (9, 2.04526856541633605957e-01) (0, 8.16614210605621337891e-01) (1, -5.87033390998840332031e-01) (2, 6.04808628559112548828e-01) (3, -3.56347441673278808594e-01) (4, 7.77227461338043212891e-01) (5, 7.59599924087524414062e-01) (6, -2.59913861751556396484e-01) (7, -4.01402026414871215820e-01) (8, -1.65523216128349304199e-01) (9, 3.26181232929229736328e-01) (0, 4.93426382541656494141e-01) (1, 4.76625293493270874023e-01) (2, -3.71253162622451782227e-01) (3, 1.57207414507865905762e-01) (4, 4.38623607158660888672e-01) (5, -1.55566483736038208008e-01) (6, 4.73092228174209594727e-01) (7, -1.44768476486206054688e-01) (8, -9.49016436934471130371e-02) (9, -6.01212143898010253906e-01) (0, 1.30666518211364746094e+00) (1, -1.48479056358337402344e+00) (2, 1.19870769977569580078e+00) (3, -4.82242316007614135742e-01) (4, 2.25697708129882812500e+00) (5, -2.97401726245880126953e-01) (6, -9.72462892532348632812e-02) (7, -2.19772607088088989258e-01) (8, 3.83024781942367553711e-01) (9, 4.73776578903198242188e-01) (0, 5.04046320915222167969e-01) (1, 5.82513511180877685547e-01) (2, 5.45192062854766845703e-01) (3, 2.39784881472587585449e-01) (4, 9.54000592231750488281e-01) (5, 4.53883171081542968750e-01) (6, -4.17118698358535766602e-01) (7, -2.23548933863639831543e-01) (8, 1.50160908699035644531e-01) (9, 2.11749583482742309570e-01) (0, 8.14504325389862060547e-01) (1, 1.33415246009826660156e+00) (2, 1.29322695732116699219e+00) (3, -8.30359816551208496094e-01) (4, -6.83851599693298339844e-01) (5, -1.76732584834098815918e-01) (6, -2.17033714056015014648e-01) (7, -1.68346405029296875000e-01) (8, -5.88513314723968505859e-01) (9, 3.59365820884704589844e-01) (0, -5.51479607820510864258e-02) (1, 1.56148111820220947266e+00) (2, 6.70073568820953369141e-01) (3, -2.28191113471984863281e+00) (4, -4.00222492218017578125e+00) (5, 1.66732013225555419922e-01) (6, 4.19626379013061523438e+00) (7, 7.97564625740051269531e-01) (8, 7.27648675441741943359e-01) (9, -4.14582610130310058594e-01) (0, -2.65258122235536575317e-02) (1, 3.43335181474685668945e-01) (2, -5.38743317127227783203e-01) (3, -8.17328095436096191406e-02) (4, -1.53293564915657043457e-01) (5, -2.38462805747985839844e+00) (6, 1.61721551418304443359e+00) (7, -2.45651766657829284668e-01) (8, -7.96664599329233169556e-03) (9, 1.15860879421234130859e+00) (0, -1.23323881626129150391e+00) (1, -3.48772823810577392578e-01) (2, 3.73286068439483642578e-01) (3, 6.26974761486053466797e-01) (4, -1.66179731488227844238e-01) (5, 5.75817465782165527344e-01) (6, 6.08739912509918212891e-01) (7, 3.73003147542476654053e-02) (8, 1.46884012222290039062e+00) (9, -7.74403810501098632812e-01) (0, 6.88550770282745361328e-01) (1, -4.84370380640029907227e-01) (2, -5.26166498661041259766e-01) (3, -6.69980227947235107422e-01) (4, -2.63475656509399414062e-01) (5, -2.03228974342346191406e+00) (6, 1.00547087192535400391e+00) (7, -1.01786804199218750000e+00) (8, 1.14914171397686004639e-01) (9, 1.37120473384857177734e+00) (0, 7.78157413005828857422e-01) (1, -6.51064291596412658691e-02) (2, 2.22927188873291015625e+00) (3, 2.64944362640380859375e+00) (4, -1.91664075851440429688e+00) (5, -4.50915336608886718750e+00) (6, 9.66886520385742187500e-01) (7, -1.10511672496795654297e+00) (8, 1.12598907947540283203e+00) (9, -6.29014313220977783203e-01) (0, -4.05879050493240356445e-01) (1, 3.70072871446609497070e-01) (2, 7.76491343975067138672e-01) (3, -3.00357460975646972656e-01) (4, -2.19292685389518737793e-01) (5, -1.29302501678466796875e+00) (6, 1.25347420573234558105e-01) (7, -6.29992187023162841797e-01) (8, 6.00421369075775146484e-01) (9, 1.18399105966091156006e-01) (0, -9.93509292602539062500e-01) (1, -1.05898344516754150391e+00) (2, -6.19238197803497314453e-01) (3, 9.91746902465820312500e-01) (4, 3.38405758142471313477e-01) (5, 1.50080490112304687500e+00) (6, 4.35489088296890258789e-01) (7, -7.21667855978012084961e-02) (8, 6.46230399608612060547e-01) (9, 2.49239280819892883301e-01) (0, 1.38158440589904785156e-01) (1, 7.14258849620819091797e-02) (2, -6.36690437793731689453e-01) (3, 8.16478908061981201172e-01) (4, 2.43398651480674743652e-01) (5, 2.28010606765747070312e+00) (6, -3.07773828506469726562e-01) (7, -5.58298751711845397949e-02) (8, -6.11544966697692871094e-01) (9, 1.09008800983428955078e+00) (0, -1.10220335423946380615e-01) (1, -1.07555471360683441162e-01) (2, -7.31725394725799560547e-02) (3, 1.20510303974151611328e+00) (4, -5.24090588092803955078e-01) (5, 1.50223529338836669922e+00) (6, 9.68573331832885742188e-01) (7, -5.51218867301940917969e-01) (8, 5.05743205547332763672e-01) (9, 1.12303686141967773438e+00) (0, -1.36735200881958007812e+00) (1, 1.25754928588867187500e+00) (2, 3.31907480955123901367e-01) (3, -9.43742170929908752441e-02) (4, -4.30004417896270751953e-01) (5, -2.20907591283321380615e-02) (6, 3.17805796861648559570e-01) (7, 9.99368429183959960938e-01) (8, -1.30066111683845520020e-01) (9, -1.56551504135131835938e+00) (0, 1.63206487894058227539e-01) (1, -6.43964469432830810547e-01) (2, -4.29378271102905273438e-01) (3, 7.52097189426422119141e-01) (4, 8.65440070629119873047e-01) (5, 8.04724931716918945312e-01) (6, 4.59599435329437255859e-01) (7, -8.49364101886749267578e-01) (8, -7.09132701158523559570e-02) (9, -6.17753446102142333984e-01) (0, -2.27725505828857421875e-01) (1, -6.74484074115753173828e-02) (2, -2.21375837922096252441e-01) (3, 2.67104417085647583008e-01) (4, 1.15177428722381591797e+00) (5, -1.25054702162742614746e-01) (6, -9.98293161392211914062e-01) (7, 4.44801360368728637695e-01) (8, -3.21398168802261352539e-01) (9, 1.60327851772308349609e+00) (0, 6.18548512458801269531e-01) (1, -5.44388711452484130859e-01) (2, 2.72848337888717651367e-01) (3, 8.05651247501373291016e-02) (4, 8.96575510501861572266e-01) (5, 2.09934890270233154297e-01) (6, 2.57078737020492553711e-01) (7, 1.65035322308540344238e-01) (8, -1.42882585525512695312e+00) (9, 6.92393211647868156433e-03) (0, 1.87689080834388732910e-01) (1, 9.27049636840820312500e-01) (2, 5.02908885478973388672e-01) (3, 1.12079095840454101562e+00) (4, -1.05134737491607666016e+00) (5, 1.47794389724731445312e+00) (6, -1.00802637636661529541e-01) (7, -4.29855167865753173828e-01) (8, 8.30518305301666259766e-01) (9, 7.02468514442443847656e-01) (0, 2.83576808869838714600e-02) (1, 1.96430277824401855469e+00) (2, 4.88479822874069213867e-01) (3, -3.79423737525939941406e-01) (4, -1.26829653978347778320e-01) (5, 3.08293521404266357422e-01) (6, 9.97359633445739746094e-01) (7, 1.60206183791160583496e-01) (8, 1.30385625362396240234e+00) (9, -1.10168349742889404297e+00) (0, -7.11548089981079101562e-01) (1, 2.58264362812042236328e-01) (2, -2.02095627784729003906e+00) (3, 1.04590463638305664062e+00) (4, -7.57654547691345214844e-01) (5, -3.75085696578025817871e-02) (6, -1.57956466078758239746e-01) (7, 3.04199576377868652344e-01) (8, 7.89359092712402343750e-01) (9, 1.06669843196868896484e+00) (0, -4.03816699981689453125e-01) (1, 9.78913187980651855469e-01) (2, 6.59494280815124511719e-01) (3, 7.01415657997131347656e-01) (4, 1.82393085956573486328e+00) (5, -7.47175574302673339844e-01) (6, -4.87612247467041015625e-01) (7, 1.92241525650024414062e+00) (8, -1.79257094860076904297e-02) (9, 2.82397818565368652344e+00) (0, -1.08303092420101165771e-01) (1, -6.19930550456047058105e-02) (2, 1.80736497044563293457e-01) (3, -1.06589980423450469971e-01) (4, 1.13717699050903320312e+00) (5, 1.72479629516601562500e-01) (6, -4.38839077949523925781e-01) (7, 1.19989252090454101562e+00) (8, -5.36231219768524169922e-01) (9, -3.48300933837890625000e-01) (0, 1.37326467037200927734e+00) (1, 4.36965847015380859375e+00) (2, 2.47371101379394531250e+00) (3, -3.58846247196197509766e-01) (4, -1.50899839401245117188e+00) (5, 1.29341673851013183594e+00) (6, 2.03566104173660278320e-01) (7, -1.24488449096679687500e+00) (8, 1.58129498362541198730e-01) (9, 2.67163062095642089844e+00) (0, 7.59443044662475585938e-01) (1, 8.05230885744094848633e-02) (2, -1.11086368560791015625e+00) (3, -4.58198785781860351562e-01) (4, -1.40761244297027587891e+00) (5, 6.42742097377777099609e-01) (6, 4.38742309808731079102e-01) (7, -1.13992966711521148682e-01) (8, -1.65310483425855636597e-02) (9, 1.62650227546691894531e+00) (0, 4.23984616994857788086e-01) (1, 1.04286372661590576172e+00) (2, 1.08840560913085937500e+00) (3, 9.48300883173942565918e-02) (4, 1.66204667091369628906e+00) (5, 2.89328503608703613281e+00) (6, -3.73909145593643188477e-01) (7, -5.39160706102848052979e-02) (8, 3.34540382027626037598e-02) (9, -6.74568533897399902344e-01) (0, 8.62870156764984130859e-01) (1, 4.77168172597885131836e-01) (2, 9.17433142662048339844e-01) (3, -3.60611788928508758545e-02) (4, 8.25365245342254638672e-01) (5, 4.90000069141387939453e-01) (6, 2.74210069328546524048e-02) (7, -1.80928206443786621094e+00) (8, -1.32515537738800048828e+00) (9, 9.03707444667816162109e-02) (0, 2.55610609054565429688e+00) (1, 1.03455901145935058594e+00) (2, 1.50603246688842773438e+00) (3, -1.23572599887847900391e+00) (4, 1.69098079204559326172e+00) (5, -5.17146468162536621094e-01) (6, 1.41359555721282958984e+00) (7, -6.71364605426788330078e-01) (8, -1.25061404705047607422e+00) (9, 4.33450877666473388672e-01) (0, 8.83292317390441894531e-01) (1, 2.02135279774665832520e-01) (2, -6.17211461067199707031e-02) (3, 7.23436415195465087891e-01) (4, 1.37589108943939208984e+00) (5, 1.07719933986663818359e+00) (6, 4.26739491522312164307e-02) (7, -7.26205527782440185547e-01) (8, -6.32429480552673339844e-01) (9, 1.40990927815437316895e-01) (0, 4.92272853851318359375e-01) (1, -8.72058510780334472656e-01) (2, -2.94443488121032714844e-01) (3, -7.44188249111175537109e-01) (4, 7.12449073791503906250e-01) (5, -8.53100657463073730469e-01) (6, 7.28186011314392089844e-01) (7, 3.23739290237426757812e-01) (8, -2.68205106258392333984e-01) (9, -2.78270691633224487305e-01) (0, 4.75802838802337646484e-01) (1, 2.92888164520263671875e-01) (2, 2.29923796653747558594e+00) (3, 8.18787693977355957031e-01) (4, 1.21030545234680175781e+00) (5, 9.78160023689270019531e-01) (6, 6.09407603740692138672e-01) (7, 1.75775301456451416016e+00) (8, -8.37114512920379638672e-01) (9, 1.43166482448577880859e+00) (0, -6.98073446750640869141e-01) (1, -9.43274378776550292969e-01) (2, -8.03386569023132324219e-01) (3, -4.62924152612686157227e-01) (4, -4.28208827972412109375e-01) (5, 7.47406721115112304688e-01) (6, 9.60620582103729248047e-01) (7, 7.69127547740936279297e-01) (8, -4.29859876632690429688e-01) (9, -2.51699542999267578125e+00) (0, 6.26425743103027343750e-02) (1, 6.98724091053009033203e-02) (2, -7.09420263767242431641e-01) (3, 5.89477539062500000000e-01) (4, -2.43019610643386840820e-01) (5, 1.05687654018402099609e+00) (6, 5.41731357574462890625e-01) (7, 5.56364297866821289062e-01) (8, 8.25467929244041442871e-02) (9, -2.77780920267105102539e-01) (0, -2.15342116355895996094e+00) (1, 7.25954771041870117188e-01) (2, 1.14715433120727539062e+00) (3, -8.97750616073608398438e-01) (4, 1.48996725678443908691e-01) (5, 1.32245302200317382812e+00) (6, -1.88118016719818115234e+00) (7, 8.97586822509765625000e-01) (8, -2.04992875456809997559e-01) (9, 1.94203126430511474609e+00) (10, -5.40614545345306396484e-01) (11, 3.50242294371128082275e-02) (12, 8.58152627944946289062e-01) (13, -1.30898758769035339355e-01) (14, 3.47893178462982177734e-01) (15, -1.52131900191307067871e-01) (16, -7.72724151611328125000e-01) (17, 8.75358283519744873047e-02) (18, 2.78527647256851196289e-01) (19, -7.09733128547668457031e-01) (20, 1.43844097852706909180e-01) (21, -1.09281897544860839844e+00) (22, 5.79623639583587646484e-01) (23, -1.75341069698333740234e-01) (24, -5.00941991806030273438e-01) (25, 1.18933212757110595703e+00) (26, -3.38951945304870605469e-02) (27, 4.46226119995117187500e-01) (28, -3.45991283655166625977e-01) (29, 1.23145210742950439453e+00) (30, -6.58564209938049316406e-01) (31, -1.05813527107238769531e+00) (32, -1.06755566596984863281e+00) (33, 9.95046645402908325195e-02) (34, 1.49958238005638122559e-01) (35, 2.83476173877716064453e-01) (36, 7.47263193130493164062e-01) (37, 1.65265023708343505859e-01) (38, -1.39122053980827331543e-01) (39, -3.38304877281188964844e-01) (40, 2.06797981262207031250e+00) (41, 3.00377458333969116211e-01) (42, 1.00656402111053466797e+00) (43, -2.54436433315277099609e-01) (44, 4.37375158071517944336e-01) (45, 9.72750425338745117188e-01) (46, -1.27662401646375656128e-02) (47, 2.55241489410400390625e+00) (48, 1.58924198150634765625e+00) (49, 7.99515128135681152344e-01) (50, 9.02347505092620849609e-01) (51, -1.46278500556945800781e-01) (52, -9.57694292068481445312e-01) (53, 3.55680257081985473633e-01) (54, 1.75704085826873779297e+00) (55, 1.80606290698051452637e-01) (56, 1.10136218369007110596e-01) (57, -3.20600479841232299805e-01) (58, 7.83181428909301757812e-01) (59, 5.21906554698944091797e-01) (60, -8.57421338558197021484e-01) (61, -3.59896630048751831055e-01) (62, -2.35488966107368469238e-01) (63, -4.09149438142776489258e-01) (64, 1.00877273082733154297e+00) (65, 1.85024693608283996582e-01) (66, 4.80336427688598632812e-01) (67, 9.43146288394927978516e-01) (68, -7.29412794113159179688e-01) (69, -7.64721035957336425781e-01) (70, -8.24520409107208251953e-01) (10, 8.62824320793151855469e-01) (11, -8.48034843802452087402e-02) (12, 1.07034277915954589844e+00) (13, -4.26130384206771850586e-01) (14, 8.33908140659332275391e-01) (15, 1.19268178939819335938e+00) (16, -1.04683375358581542969e+00) (17, 4.33179080486297607422e-01) (18, 6.98259055614471435547e-01) (19, 7.73079335689544677734e-01) (20, -1.73171460628509521484e-01) (21, -1.32602202892303466797e+00) (22, 8.98221373558044433594e-01) (23, -7.06373274326324462891e-01) (24, -1.49245989322662353516e+00) (25, 1.13781487941741943359e+00) (26, -7.02515602111816406250e-01) (27, 9.51836585998535156250e-01) (28, -1.11163198947906494141e+00) (29, 1.81893503665924072266e+00) (30, -8.93372833728790283203e-01) (31, -6.20017170906066894531e-01) (32, -1.55915939807891845703e+00) (33, 9.83648538589477539062e-01) (34, -7.73554682731628417969e-01) (35, 6.05299234390258789062e-01) (36, -1.98228910565376281738e-01) (37, 7.53412663936614990234e-01) (38, 3.73125314712524414062e-01) (39, 6.77971243858337402344e-01) (40, 6.78943693637847900391e-01) (41, 8.43735277652740478516e-01) (42, 1.02906560897827148438e+00) (43, 7.57431149482727050781e-01) (44, -1.38290748000144958496e-01) (45, 6.74017906188964843750e-01) (46, 2.29667305946350097656e-01) (47, 5.94063401222229003906e-01) (48, 1.37120753526687622070e-01) (49, -5.61204314231872558594e-01) (50, -2.54926562309265136719e-01) (51, 4.47929769754409790039e-01) (52, -3.32283526659011840820e-01) (53, -2.31807649135589599609e-01) (54, 1.39023995399475097656e+00) (55, 9.29387390613555908203e-01) (56, -7.70869925618171691895e-02) (57, -5.34534692764282226562e-01) (58, 1.00336885452270507812e+00) (59, 1.76002454757690429688e+00) (60, -1.19467031955718994141e+00) (61, -1.03617560863494873047e+00) (62, 7.50692963600158691406e-01) (63, -5.35410881042480468750e-01) (64, 8.14415037631988525391e-01) (65, 8.06421995162963867188e-01) (66, 8.79474043846130371094e-01) (67, 1.36159110069274902344e+00) (68, 5.65221369266510009766e-01) (69, -2.63198077678680419922e-01) (70, 7.22262680530548095703e-01) (10, 5.37475168704986572266e-01) (11, 1.19326400756835937500e+00) (12, 1.41604745388031005859e+00) (13, -2.48506456613540649414e-01) (14, -5.39605736732482910156e-01) (15, 6.70928180217742919922e-01) (16, 5.38196980953216552734e-01) (17, 4.09031540155410766602e-01) (18, 7.64383554458618164062e-01) (19, -1.67892634868621826172e-01) (20, -1.61826923489570617676e-01) (21, -1.82235455513000488281e+00) (22, -2.49034494161605834961e-01) (23, -2.11936011910438537598e-02) (24, -2.50225365161895751953e-01) (25, 1.74179100990295410156e+00) (26, 3.19350212812423706055e-01) (27, 9.41373527050018310547e-01) (28, -8.51409733295440673828e-01) (29, 1.38051140308380126953e+00) (30, 4.58030104637145996094e-01) (31, -9.70388114452362060547e-01) (32, -9.00445342063903808594e-01) (33, -2.96556115150451660156e-01) (34, 1.40026226639747619629e-01) (35, -1.57013610005378723145e-01) (36, 9.77495133876800537109e-01) (37, 3.50919991731643676758e-01) (38, -5.94461262226104736328e-01) (39, 1.17261283099651336670e-01) (40, 1.99976170063018798828e+00) (41, 7.34506487846374511719e-01) (42, 8.59661877155303955078e-01) (43, 2.53184251487255096436e-02) (44, 7.19211220741271972656e-01) (45, 1.30106818675994873047e+00) (46, 3.62868696451187133789e-01) (47, 2.86838364601135253906e+00) (48, 1.50806212425231933594e+00) (49, 7.60297358036041259766e-01) (50, 8.17616820335388183594e-01) (51, -3.08079749345779418945e-01) (52, -1.89888760447502136230e-01) (53, 3.07924207299947738647e-02) (54, 2.17075514793395996094e+00) (55, 5.42942643165588378906e-01) (56, 1.14740252494812011719e+00) (57, -7.66516923904418945312e-01) (58, 8.32343876361846923828e-01) (59, 4.52906280755996704102e-01) (60, -1.46690058708190917969e+00) (61, -5.49538671970367431641e-01) (62, 7.16323435306549072266e-01) (63, -7.71222233772277832031e-01) (64, 6.54259085655212402344e-01) (65, -6.38719558715820312500e-01) (66, 2.09984287619590759277e-01) (67, 9.36864495277404785156e-01) (68, 8.67508471012115478516e-01) (69, -9.81047987937927246094e-01) (70, -8.43813657760620117188e-01) (10, 9.72176373004913330078e-01) (11, 2.05820381641387939453e-01) (12, 1.21251797676086425781e+00) (13, -1.60943612456321716309e-01) (14, -2.82740712165832519531e-01) (15, 1.06221127510070800781e+00) (16, -7.92555451393127441406e-01) (17, 8.45929920673370361328e-01) (18, 7.58135497570037841797e-01) (19, 9.22935307025909423828e-01) (20, 4.22106087207794189453e-01) (21, -1.49977540969848632812e+00) (22, -1.60781845450401306152e-01) (23, -1.13034331798553466797e+00) (24, -1.59813559055328369141e+00) (25, 1.85698091983795166016e+00) (26, -6.75065457820892333984e-01) (27, 5.81012845039367675781e-01) (28, -1.01762342453002929688e+00) (29, 1.60824537277221679688e+00) (30, -4.20348346233367919922e-01) (31, 6.01103603839874267578e-01) (32, -1.89328861236572265625e+00) (33, 4.30951535701751708984e-01) (34, -8.01669359207153320312e-02) (35, -1.31978183984756469727e-01) (36, 5.87234020233154296875e-01) (37, -4.50171053409576416016e-01) (38, -1.83271005749702453613e-01) (39, -5.13899087905883789062e-01) (40, -2.30352520942687988281e-01) (41, 8.93877029418945312500e-01) (42, 9.32233214378356933594e-01) (43, 9.11516785621643066406e-01) (44, 1.62111967802047729492e-01) (45, 6.93024396896362304688e-01) (46, -5.52679479122161865234e-01) (47, 5.64521968364715576172e-01) (48, -6.38649566099047660828e-03) (49, -4.13145244121551513672e-01) (50, 2.01744318008422851562e-01) (51, -4.72201913595199584961e-01) (52, 3.84131252765655517578e-01) (53, -7.22890645265579223633e-02) (54, 8.29853594303131103516e-01) (55, 8.57596993446350097656e-01) (56, 7.88639783859252929688e-02) (57, -6.89688861370086669922e-01) (58, 3.98628979921340942383e-01) (59, 1.78484833240509033203e+00) (60, -1.52881872653961181641e+00) (61, -8.88885855674743652344e-01) (62, 8.02396953105926513672e-01) (63, -2.41948395967483520508e-01) (64, 8.42564344406127929688e-01) (65, -3.72413426637649536133e-01) (66, 1.14916455745697021484e+00) (67, 1.32265686988830566406e+00) (68, 1.17209844291210174561e-01) (69, -7.36508905887603759766e-01) (70, 1.38461947441101074219e-01)
input_names='a' 'betan' 'bt' 'delta' 'ip' 'kappa' 'neped' 'r' 'zeffped'
output_names='OUT_p_E1_0' 'OUT_p_E1_2' 'OUT_wid_E1_0' 'OUT_wid_E1_2'
norm_output=-0.324993958950689 -0.031607149763372644 0.9312455684175893 0.12488737176047943 0.9206606811803661 -1.5210736376799652 0.25708541031476084 0.1288236239797365 0.19715872165619702 -0.47680515854983246 -0.09155382825844015 0.6512225364205029 0.6983989805242949 0.9156447702351479 -0.8711012880305987 0.34760952496753295 -0.3107201880095888 0.24688032058386178 0.8681387251144406 -0.022869556864905338 0.45031875871224364 0.09765090395643512 -0.5358767314751398 -0.011323797984938332 0.13449279466415562 0.1150827573771555 0.09973467878890203 0.7638199376681876 -0.04636445278822197 0.32544614215571155 0.3588690952405993 -0.5418833918247082 0.2853260748147929 0.176041461451028 -0.14969917066734084 0.12259904971323753
MSE= 1.74585008621