FANN_FLO_2.1
num_layers=4
learning_rate=0.700000
connection_rate=1.000000
network_type=0
learning_momentum=0.000000
training_algorithm=2
train_error_function=0
train_stop_function=0
cascade_output_change_fraction=0.010000
quickprop_decay=0.019447
quickprop_mu=1.750000
rprop_increase_factor=1.200000
rprop_decrease_factor=0.500000
rprop_delta_min=0.000000
rprop_delta_max=50.000000
rprop_delta_zero=0.100000
cascade_output_stagnation_epochs=12
cascade_candidate_change_fraction=0.010000
cascade_candidate_stagnation_epochs=12
cascade_max_out_epochs=150
cascade_min_out_epochs=50
cascade_max_cand_epochs=150
cascade_min_cand_epochs=50
cascade_num_candidate_groups=2
bit_fail_limit=3.49999994039535522461e-01
cascade_candidate_limit=1.00000000000000000000e+03
cascade_weight_multiplier=4.00000005960464477539e-01
cascade_activation_functions_count=10
cascade_activation_functions=3 5 7 8 10 11 14 15 16 17
cascade_activation_steepnesses_count=4
cascade_activation_steepnesses=2.50000000000000000000e-01 5.00000000000000000000e-01 7.50000000000000000000e-01 1.00000000000000000000e+00
layer_sizes=11 31 31 5
scale_included=1
scale_mean_in=1.687400 1.938604 3.999407 0.476214 9.078313 1.811375 2.087834 6.829363 5.223328 1.894653
scale_deviation_in=0.591254 0.578284 1.480562 0.057234 5.097051 0.080780 0.438018 3.594788 1.846431 0.593833
scale_new_min_in=-1.000000 -1.000000 -1.000000 -1.000000 -1.000000 -1.000000 -1.000000 -1.000000 -1.000000 -1.000000
scale_factor_in=1.000000 1.000000 1.000000 1.000000 1.000000 1.000000 1.000000 1.000000 1.000000 1.000000
scale_mean_out=0.004471 0.004795 0.038556 0.039926
scale_deviation_out=0.000723 0.000778 0.003051 0.003201
scale_new_min_out=-1.000000 -1.000000 -1.000000 -1.000000
scale_factor_out=1.000000 1.000000 1.000000 1.000000
neurons (num_inputs, activation_function, activation_steepness)=(0, 0, 0.00000000000000000000e+00) (0, 0, 0.00000000000000000000e+00) (0, 0, 0.00000000000000000000e+00) (0, 0, 0.00000000000000000000e+00) (0, 0, 0.00000000000000000000e+00) (0, 0, 0.00000000000000000000e+00) (0, 0, 0.00000000000000000000e+00) (0, 0, 0.00000000000000000000e+00) (0, 0, 0.00000000000000000000e+00) (0, 0, 0.00000000000000000000e+00) (0, 0, 0.00000000000000000000e+00) (11, 5, 5.00000000000000000000e-01) (11, 5, 5.00000000000000000000e-01) (11, 5, 5.00000000000000000000e-01) (11, 5, 5.00000000000000000000e-01) (11, 5, 5.00000000000000000000e-01) (11, 5, 5.00000000000000000000e-01) (11, 5, 5.00000000000000000000e-01) (11, 5, 5.00000000000000000000e-01) (11, 5, 5.00000000000000000000e-01) (11, 5, 5.00000000000000000000e-01) (11, 5, 5.00000000000000000000e-01) (11, 5, 5.00000000000000000000e-01) (11, 5, 5.00000000000000000000e-01) (11, 5, 5.00000000000000000000e-01) (11, 5, 5.00000000000000000000e-01) (11, 5, 5.00000000000000000000e-01) (11, 5, 5.00000000000000000000e-01) (11, 5, 5.00000000000000000000e-01) (11, 5, 5.00000000000000000000e-01) (11, 5, 5.00000000000000000000e-01) (11, 5, 5.00000000000000000000e-01) (11, 5, 5.00000000000000000000e-01) (11, 5, 5.00000000000000000000e-01) (11, 5, 5.00000000000000000000e-01) (11, 5, 5.00000000000000000000e-01) (11, 5, 5.00000000000000000000e-01) (11, 5, 5.00000000000000000000e-01) (11, 5, 5.00000000000000000000e-01) (11, 5, 5.00000000000000000000e-01) (11, 5, 5.00000000000000000000e-01) (0, 5, 0.00000000000000000000e+00) (31, 5, 5.00000000000000000000e-01) (31, 5, 5.00000000000000000000e-01) (31, 5, 5.00000000000000000000e-01) (31, 5, 5.00000000000000000000e-01) (31, 5, 5.00000000000000000000e-01) (31, 5, 5.00000000000000000000e-01) (31, 5, 5.00000000000000000000e-01) (31, 5, 5.00000000000000000000e-01) (31, 5, 5.00000000000000000000e-01) (31, 5, 5.00000000000000000000e-01) (31, 5, 5.00000000000000000000e-01) (31, 5, 5.00000000000000000000e-01) (31, 5, 5.00000000000000000000e-01) (31, 5, 5.00000000000000000000e-01) (31, 5, 5.00000000000000000000e-01) (31, 5, 5.00000000000000000000e-01) (31, 5, 5.00000000000000000000e-01) (31, 5, 5.00000000000000000000e-01) (31, 5, 5.00000000000000000000e-01) (31, 5, 5.00000000000000000000e-01) (31, 5, 5.00000000000000000000e-01) (31, 5, 5.00000000000000000000e-01) (31, 5, 5.00000000000000000000e-01) (31, 5, 5.00000000000000000000e-01) (31, 5, 5.00000000000000000000e-01) (31, 5, 5.00000000000000000000e-01) (31, 5, 5.00000000000000000000e-01) (31, 5, 5.00000000000000000000e-01) (31, 5, 5.00000000000000000000e-01) (31, 5, 5.00000000000000000000e-01) (0, 5, 0.00000000000000000000e+00) (31, 0, 5.00000000000000000000e-01) (31, 0, 5.00000000000000000000e-01) (31, 0, 5.00000000000000000000e-01) (31, 0, 5.00000000000000000000e-01) (0, 0, 0.00000000000000000000e+00)
connections (connected_to_neuron, weight)=(0, 8.00482153892517089844e-01) (1, -1.39556181430816650391e+00) (2, 2.84326821565628051758e-01) (3, -1.49444803595542907715e-01) (4, 2.23888158798217773438e+00) (5, -4.39346432685852050781e-01) (6, 4.55353379249572753906e-01) (7, -2.32154774665832519531e+00) (8, 8.97652864456176757812e-01) (9, -2.95246958732604980469e-01) (10, 3.22236001491546630859e-01) (0, -4.78610903024673461914e-01) (1, -8.84949743747711181641e-01) (2, 1.43911391496658325195e-01) (3, 5.83171069622039794922e-01) (4, 9.73624944686889648438e-01) (5, 1.19940388202667236328e+00) (6, -4.11354184150695800781e-01) (7, -2.95731518417596817017e-03) (8, -2.64345556497573852539e-02) (9, 8.91003131866455078125e-01) (10, 9.12888884544372558594e-01) (0, -7.93801769614219665527e-02) (1, -7.75994658470153808594e-01) (2, 1.58863234519958496094e+00) (3, 1.54206895828247070312e+00) (4, 8.51836085319519042969e-01) (5, -1.33372306823730468750e+00) (6, 7.43980884552001953125e-01) (7, 6.97819423675537109375e+00) (8, 1.26517438888549804688e+00) (9, -1.38633802533149719238e-01) (10, 5.54661560058593750000e+00) (0, -3.91670078039169311523e-01) (1, 1.43279895186424255371e-01) (2, -1.22740173339843750000e+00) (3, -2.78875768184661865234e-01) (4, 1.02355086803436279297e+00) (5, -4.38691049814224243164e-01) (6, 3.20065543055534362793e-02) (7, 7.68580511212348937988e-02) (8, 1.49193286895751953125e-01) (9, -9.55799892544746398926e-02) (10, 1.91151306033134460449e-01) (0, 2.60837584733963012695e-01) (1, 4.30783897638320922852e-01) (2, -8.66035282611846923828e-01) (3, -4.14095431566238403320e-01) (4, -5.43332099914550781250e-01) (5, 1.22270397841930389404e-01) (6, 9.40420553088188171387e-02) (7, 1.54304921627044677734e+00) (8, -8.43461334705352783203e-01) (9, 1.95012286305427551270e-01) (10, 9.66014385223388671875e-01) (0, 6.26494050025939941406e-01) (1, 2.35924616456031799316e-01) (2, 1.94106716662645339966e-03) (3, 1.32425713539123535156e+00) (4, -3.08274954557418823242e-01) (5, -1.37554511427879333496e-01) (6, 1.21221765875816345215e-01) (7, 1.99583649635314941406e+00) (8, 6.56752288341522216797e-01) (9, 3.98800164461135864258e-01) (10, 7.04592168331146240234e-01) (0, -4.41203802824020385742e-01) (1, 9.48568403720855712891e-01) (2, -2.97428607940673828125e-01) (3, 6.71381652355194091797e-01) (4, 4.65466797351837158203e-01) (5, -9.47636961936950683594e-02) (6, 1.91842406988143920898e-01) (7, -4.40745234489440917969e-01) (8, 2.89479363709688186646e-03) (9, 2.84544797614216804504e-03) (10, -3.37906241416931152344e-01) (0, -2.44102954864501953125e+00) (1, 1.12297542393207550049e-01) (2, 2.19921186566352844238e-01) (3, 1.58895969390869140625e+00) (4, 1.53805136680603027344e-01) (5, -1.66270434856414794922e-02) (6, -2.23245158791542053223e-01) (7, -3.54698747396469116211e-02) (8, -8.18158164620399475098e-02) (9, -1.63531810045242309570e-01) (10, 1.83437383174896240234e+00) (0, -4.99439001083374023438e-01) (1, 1.01461661979556083679e-02) (2, 1.29309752956032752991e-02) (3, 6.17351472377777099609e-01) (4, 2.50832867622375488281e+00) (5, 7.81545281410217285156e-01) (6, 1.79647028446197509766e-01) (7, -1.43190956115722656250e+00) (8, 3.27947378158569335938e-01) (9, -7.66381204128265380859e-01) (10, 5.33555448055267333984e-01) (0, 1.76852822303771972656e+00) (1, 1.43660962581634521484e-01) (2, -1.26340001821517944336e-01) (3, 1.67414200305938720703e+00) (4, -8.87475550174713134766e-01) (5, 1.53940677642822265625e+00) (6, -3.56341421604156494141e-01) (7, -3.94754886627197265625e-01) (8, 1.12010991573333740234e+00) (9, -1.82870905846357345581e-02) (10, -8.91920551657676696777e-02) (0, -6.27480208873748779297e-01) (1, -6.51209175586700439453e-01) (2, -1.48115682601928710938e+00) (3, -1.30741918087005615234e+00) (4, 9.19340550899505615234e-01) (5, -6.17307007312774658203e-01) (6, 7.17441588640213012695e-02) (7, -1.79889929294586181641e+00) (8, -6.09789133071899414062e-01) (9, 9.07850623130798339844e-01) (10, 2.84260916709899902344e+00) (0, 8.93264830112457275391e-01) (1, 5.88496029376983642578e-01) (2, 3.32888197898864746094e+00) (3, -1.17579877376556396484e+00) (4, -2.04147791862487792969e+00) (5, 1.34056413173675537109e+00) (6, 3.01693622022867202759e-02) (7, -5.21558105945587158203e-01) (8, 2.33394697308540344238e-01) (9, -5.02698123455047607422e-01) (10, 4.20928895473480224609e-01) (0, 8.71360003948211669922e-01) (1, -6.37429133057594299316e-02) (2, 6.37531578540802001953e-01) (3, 9.34608459472656250000e-01) (4, -4.73629903793334960938e+00) (5, 6.58251792192459106445e-02) (6, -8.19371864199638366699e-02) (7, 9.35200572013854980469e-01) (8, 5.83778083324432373047e-01) (9, 5.98730683326721191406e-01) (10, -4.38789129257202148438e+00) (0, -7.19830840826034545898e-02) (1, -5.52376508712768554688e-02) (2, -9.30736660957336425781e-01) (3, -1.53801292181015014648e-01) (4, -3.79400879144668579102e-01) (5, -4.63941320776939392090e-02) (6, 6.37671053409576416016e-02) (7, 1.79795801639556884766e+00) (8, 4.52242791652679443359e-01) (9, 4.75097358226776123047e-01) (10, -5.57654261589050292969e-01) (0, -6.81053042411804199219e-01) (1, -7.08392202854156494141e-01) (2, 4.39579457044601440430e-01) (3, 8.87533605098724365234e-01) (4, 5.57462394237518310547e-01) (5, -2.41241860389709472656e+00) (6, 2.93618977069854736328e-01) (7, 2.99494028091430664062e+00) (8, 1.67860031127929687500e+00) (9, 1.45475828647613525391e+00) (10, 8.53797554969787597656e-01) (0, -1.39892503619194030762e-01) (1, -6.50292158126831054688e-01) (2, 3.16786670684814453125e+00) (3, -4.16501425206661224365e-02) (4, -9.68205869197845458984e-01) (5, -9.60217475891113281250e-01) (6, 2.65904247760772705078e-01) (7, 1.29053938388824462891e+00) (8, -2.97257363796234130859e-01) (9, 7.49182879924774169922e-01) (10, -4.78001058101654052734e-01) (0, 8.46288919448852539062e-01) (1, 1.13033831119537353516e+00) (2, 4.58293497562408447266e-01) (3, -2.15388655662536621094e-01) (4, 4.75090831518173217773e-01) (5, 1.07065796852111816406e+00) (6, -1.42850235104560852051e-01) (7, 3.13079297542572021484e-01) (8, -2.28105854988098144531e+00) (9, -1.35161802172660827637e-01) (10, 2.83854067325592041016e-01) (0, -1.12283802032470703125e+00) (1, 4.20906156301498413086e-01) (2, -4.79650765657424926758e-01) (3, 4.38832938671112060547e-01) (4, -2.03501299023628234863e-01) (5, -4.39568221569061279297e-01) (6, 1.31079629063606262207e-01) (7, 1.72342285513877868652e-01) (8, 7.20266699790954589844e-01) (9, -1.21632254123687744141e+00) (10, -9.02284383773803710938e-01) (0, -2.65125427395105361938e-02) (1, -3.05837929248809814453e-01) (2, -9.80305433273315429688e-01) (3, 1.59964883327484130859e+00) (4, -1.36785805225372314453e+00) (5, -3.44718545675277709961e-01) (6, -2.00436552404426038265e-04) (7, 2.92906737327575683594e+00) (8, 3.61294746398925781250e-01) (9, 5.71314752101898193359e-01) (10, -6.88116312026977539062e-01) (0, 4.58426356315612792969e-01) (1, 1.68837234377861022949e-01) (2, -4.46395874023437500000e-01) (3, -7.09409296512603759766e-01) (4, 9.73627567291259765625e-01) (5, -1.26223361492156982422e+00) (6, 1.84348598122596740723e-01) (7, 1.51333081722259521484e+00) (8, 6.13292217254638671875e-01) (9, -6.41377806663513183594e-01) (10, 1.08324599266052246094e+00) (0, 1.88147008419036865234e+00) (1, 8.84818792343139648438e-01) (2, -1.39138305187225341797e+00) (3, -3.34277629852294921875e-01) (4, 1.69068396091461181641e+00) (5, 2.68779635429382324219e+00) (6, 3.83728206157684326172e-01) (7, -6.85245335102081298828e-01) (8, 1.85700905323028564453e+00) (9, -9.59392905235290527344e-01) (10, 9.21442091464996337891e-01) (0, -1.63877856731414794922e+00) (1, -3.09119611978530883789e-01) (2, 2.66662764549255371094e+00) (3, 4.36329990625381469727e-01) (4, -8.24517831206321716309e-02) (5, -5.66668987274169921875e-01) (6, -2.91909854859113693237e-02) (7, -2.06260013580322265625e+00) (8, -5.73982954025268554688e-01) (9, -3.76822918653488159180e-01) (10, -8.01153182983398437500e-01) (0, 2.74740487337112426758e-01) (1, -3.72091412544250488281e-01) (2, 1.11964356899261474609e+00) (3, -3.68471765518188476562e+00) (4, 4.35043716430664062500e+00) (5, 3.56499582529067993164e-01) (6, -1.14964740350842475891e-02) (7, 2.27127647399902343750e+00) (8, 1.69448494911193847656e+00) (9, 1.76636636257171630859e+00) (10, 1.65426397323608398438e+00) (0, -3.04417192935943603516e-01) (1, -1.90732508897781372070e-01) (2, -2.00323820114135742188e-01) (3, -1.89614698290824890137e-01) (4, -1.47096097469329833984e-01) (5, 1.19209229946136474609e-01) (6, 7.28024005889892578125e-01) (7, -1.51865661144256591797e+00) (8, 2.70169019699096679688e-01) (9, 1.87299787998199462891e-01) (10, -9.78157520294189453125e-02) (0, -2.34952801838517189026e-03) (1, 7.30429589748382568359e-01) (2, -7.11162328720092773438e-01) (3, 4.74774360656738281250e-01) (4, 2.59156048297882080078e-01) (5, 9.93583500385284423828e-01) (6, -3.13250988721847534180e-01) (7, 2.83008551597595214844e+00) (8, -1.20041273534297943115e-01) (9, 2.92100429534912109375e-01) (10, 9.90114808082580566406e-02) (0, -7.57586508989334106445e-02) (1, -4.59985211491584777832e-02) (2, -1.21764671802520751953e+00) (3, 3.52093502879142761230e-02) (4, 7.02390611171722412109e-01) (5, 5.32357752323150634766e-01) (6, -4.90263283252716064453e-01) (7, -9.45735454559326171875e-01) (8, -6.43435716629028320312e-01) (9, -4.17027115821838378906e-01) (10, 1.27632485236972570419e-03) (0, -6.77160620689392089844e-01) (1, 3.55413794517517089844e-01) (2, -6.66908860206604003906e-01) (3, 1.14543437957763671875e+00) (4, 1.17738783359527587891e+00) (5, -8.26804488897323608398e-02) (6, 1.70955732464790344238e-01) (7, 8.58901262283325195312e-01) (8, -3.97214651107788085938e-01) (9, -1.38133749365806579590e-01) (10, -3.65716904401779174805e-01) (0, 4.35550630092620849609e-01) (1, -7.63945102691650390625e-01) (2, 1.77470636367797851562e+00) (3, -6.37578666210174560547e-01) (4, 2.39295244216918945312e+00) (5, 1.87736228108406066895e-01) (6, 2.54628937691450119019e-02) (7, -2.52787303924560546875e+00) (8, -1.94233328104019165039e-01) (9, -5.19713640213012695312e-01) (10, 2.79333901405334472656e+00) (0, 3.12682247161865234375e+00) (1, 2.83701252937316894531e+00) (2, 1.07077789306640625000e+00) (3, 4.01659774780273437500e+00) (4, 3.89227777719497680664e-01) (5, -2.66840845346450805664e-01) (6, -1.99251279234886169434e-01) (7, 5.05954921245574951172e-01) (8, 6.01500940322875976562e+00) (9, 5.56351721286773681641e-01) (10, 5.65940570831298828125e+00) (0, 1.23347115516662597656e+00) (1, 9.80624139308929443359e-01) (2, 3.15510487556457519531e+00) (3, -6.16685867309570312500e-01) (4, -2.82448244094848632812e+00) (5, 1.42613673210144042969e+00) (6, -2.94490233063697814941e-02) (7, -1.28102028369903564453e+00) (8, 2.78003513813018798828e-01) (9, -5.81567108631134033203e-01) (10, 3.30839723348617553711e-01) (11, -8.26675295829772949219e-01) (12, -1.27952444553375244141e+00) (13, -1.97019681334495544434e-01) (14, -1.05685174465179443359e+00) (15, 3.91067767143249511719e+00) (16, 4.38651084899902343750e-01) (17, -9.39256250858306884766e-01) (18, 1.03808212280273437500e+00) (19, -1.55087321996688842773e-01) (20, -5.74376165866851806641e-01) (21, 1.94914650917053222656e+00) (22, 5.45159995555877685547e-01) (23, 4.51738166809082031250e+00) (24, 2.46234536170959472656e+00) (25, 8.28918695449829101562e-01) (26, 9.57946956157684326172e-01) (27, -1.36445200443267822266e+00) (28, 4.32399392127990722656e-01) (29, -1.51643490791320800781e+00) (30, -2.49363139271736145020e-01) (31, 1.86716541647911071777e-01) (32, -5.96496880054473876953e-01) (33, -1.25368759036064147949e-01) (34, 5.49540758132934570312e-01) (35, 9.35935854911804199219e-01) (36, 4.99459326267242431641e-01) (37, 8.86563181877136230469e-01) (38, -5.03808379173278808594e-01) (39, -2.53747433423995971680e-01) (40, 2.99650102853775024414e-01) (41, 7.78916537761688232422e-01) (11, 3.97917687892913818359e-01) (12, -6.34075975418090820312e+00) (13, -4.65030765533447265625e+00) (14, -3.75189042091369628906e+00) (15, -2.91459888219833374023e-01) (16, -8.72894287109375000000e-01) (17, -4.69972896575927734375e+00) (18, 3.13137078285217285156e+00) (19, 1.12728786468505859375e+00) (20, -2.48412489891052246094e+00) (21, -1.54580986499786376953e+00) (22, 3.32328915596008300781e-01) (23, 6.37310552597045898438e+00) (24, -1.06328020095825195312e+01) (25, 8.47580671310424804688e-01) (26, 8.37127971649169921875e+00) (27, 1.13593645095825195312e+01) (28, -4.52388525009155273438e+00) (29, 7.25646972656250000000e+00) (30, -1.23613190650939941406e+00) (31, -2.16571116447448730469e+00) (32, 3.68937468528747558594e+00) (33, -1.43884134292602539062e+00) (34, 2.44950747489929199219e+00) (35, -4.95317125320434570312e+00) (36, 1.16183643341064453125e+01) (37, 7.03748559951782226562e+00) (38, -3.88409048318862915039e-01) (39, -2.44875979423522949219e+00) (40, 6.76820516586303710938e-01) (41, 6.50508344173431396484e-01) (11, 1.10677480697631835938e+00) (12, -7.15104222297668457031e-01) (13, 5.14085114002227783203e-01) (14, -2.95072674751281738281e+00) (15, 1.48350283503532409668e-01) (16, 2.73416906595230102539e-01) (17, -3.97859752178192138672e-01) (18, -1.69917690753936767578e+00) (19, 4.90998238325119018555e-01) (20, 1.30004942417144775391e+00) (21, 1.22416782379150390625e+00) (22, 4.72822815179824829102e-01) (23, 6.48636221885681152344e-01) (24, 6.52988076210021972656e-01) (25, 7.89510488510131835938e-01) (26, 2.16075479984283447266e-01) (27, 2.31689405441284179688e+00) (28, -3.28211262822151184082e-02) (29, 2.49466848373413085938e+00) (30, 5.06134510040283203125e-01) (31, -9.67608988285064697266e-01) (32, -8.59724640846252441406e-01) (33, 9.64947402477264404297e-01) (34, -9.79098975658416748047e-01) (35, -5.46169042587280273438e-01) (36, 3.76661449670791625977e-01) (37, 6.64245843887329101562e-01) (38, -1.79533135890960693359e+00) (39, 1.52638265863060951233e-02) (40, -5.66483512520790100098e-02) (41, -6.18932127952575683594e-01) (11, -4.41592502593994140625e+00) (12, -2.42268896102905273438e+00) (13, -6.09168887138366699219e-01) (14, 6.72483146190643310547e-01) (15, 4.69489860534667968750e+00) (16, 9.03378307819366455078e-01) (17, -2.67166614532470703125e+00) (18, -4.19302225112915039062e+00) (19, -1.38367509841918945312e+00) (20, 2.84586119651794433594e+00) (21, -2.85052633285522460938e+00) (22, 3.49971652030944824219e+00) (23, 4.55345296859741210938e+00) (24, -4.04107427597045898438e+00) (25, -9.96917343139648437500e+00) (26, 3.24843382835388183594e+00) (27, -2.61157464981079101562e+00) (28, -3.20830345153808593750e+00) (29, 1.84036195278167724609e+00) (30, 1.77581921219825744629e-01) (31, 2.71354854106903076172e-01) (32, 1.93390321731567382812e+00) (33, 9.65643599629402160645e-02) (34, 1.61883926391601562500e+00) (35, -3.03893208503723144531e+00) (36, 1.26958847045898437500e+00) (37, 5.74166584014892578125e+00) (38, -3.06242275238037109375e+00) (39, -6.49758100509643554688e+00) (40, 6.72773420810699462891e-01) (41, 1.15907800197601318359e+00) (11, -9.48818624019622802734e-01) (12, 1.03035962581634521484e+00) (13, -4.99517500400543212891e-01) (14, -9.81346428394317626953e-01) (15, -7.79463171958923339844e-01) (16, 9.90049600601196289062e-01) (17, 3.08813500404357910156e+00) (18, -2.36637139320373535156e+00) (19, 6.77056968212127685547e-01) (20, 1.44040393829345703125e+00) (21, -1.09991252422332763672e+00) (22, 6.16546690464019775391e-01) (23, 3.10465526580810546875e+00) (24, -1.98972865939140319824e-01) (25, 1.59311592578887939453e+00) (26, 8.76110672950744628906e-01) (27, -3.55004477500915527344e+00) (28, 8.15224468708038330078e-01) (29, -7.06321895122528076172e-02) (30, 8.08888316154479980469e-01) (31, 2.54802018404006958008e-01) (32, 5.34416675567626953125e-01) (33, -5.11201977729797363281e-01) (34, -1.19719660282135009766e+00) (35, 6.58808425068855285645e-02) (36, 2.08103418350219726562e-01) (37, -1.48457512259483337402e-01) (38, -5.25434255599975585938e-01) (39, -8.16696584224700927734e-02) (40, 1.51382088661193847656e+00) (41, -9.59526598453521728516e-01) (11, 6.55954837799072265625e-01) (12, -1.53413820266723632812e+00) (13, -2.46950984001159667969e+00) (14, 8.31764316558837890625e+00) (15, -7.79726684093475341797e-01) (16, -1.07378208637237548828e+00) (17, 4.31432485580444335938e-01) (18, -6.37786388397216796875e-01) (19, 3.07601094245910644531e-01) (20, 1.82956182956695556641e+00) (21, 1.65099680423736572266e+00) (22, 4.62063223123550415039e-01) (23, 9.32444989681243896484e-01) (24, 2.00699210166931152344e+00) (25, 4.88828063011169433594e-01) (26, 9.95147585868835449219e-01) (27, -2.67349600791931152344e+00) (28, 3.31494063138961791992e-02) (29, 5.05077600479125976562e-01) (30, 3.62005144357681274414e-01) (31, -8.84611845016479492188e-01) (32, 1.17504335939884185791e-01) (33, 2.01444029808044433594e-01) (34, 7.30958580970764160156e-01) (35, -6.84926509857177734375e-02) (36, 1.66686129570007324219e+00) (37, 9.84072446823120117188e-01) (38, 9.90359187126159667969e-01) (39, 2.20653831958770751953e-01) (40, 1.05425667762756347656e+00) (41, -2.56301373243331909180e-01) (11, -2.41207212209701538086e-01) (12, 8.31878110766410827637e-02) (13, 3.72045636177062988281e-01) (14, -1.81653380393981933594e+00) (15, -1.46827542781829833984e+00) (16, -5.34309148788452148438e-01) (17, 1.50736892223358154297e+00) (18, -1.03592705726623535156e+00) (19, 4.46305364370346069336e-01) (20, -3.11779022216796875000e-01) (21, -1.12036168575286865234e+00) (22, 7.32126295566558837891e-01) (23, -8.43677818775177001953e-01) (24, 5.58954536914825439453e-01) (25, 4.49794173240661621094e-01) (26, 1.16839781403541564941e-02) (27, 8.59907984733581542969e-01) (28, 3.89854520559310913086e-01) (29, 1.55497401952743530273e-01) (30, -3.31177979707717895508e-01) (31, 1.84805214405059814453e-01) (32, 3.46658140420913696289e-01) (33, 2.99187630414962768555e-01) (34, -1.26755464076995849609e+00) (35, 7.60759830474853515625e-01) (36, -1.20688952505588531494e-01) (37, -7.82397150993347167969e-01) (38, -3.06295379996299743652e-02) (39, 9.32788312435150146484e-01) (40, 2.26084971427917480469e+00) (41, -7.79332339763641357422e-01) (11, -8.17389190196990966797e-02) (12, -6.33044958114624023438e-01) (13, -2.39342227578163146973e-01) (14, 3.08397412300109863281e+00) (15, 6.50765821337699890137e-02) (16, -7.48216688632965087891e-01) (17, -5.08218050003051757812e-01) (18, 1.35504484176635742188e+00) (19, -9.05564129352569580078e-02) (20, -3.43608230352401733398e-01) (21, 6.00529313087463378906e-01) (22, 7.34504699707031250000e-01) (23, 1.02322971820831298828e+00) (24, 2.00493407249450683594e+00) (25, 5.50327062606811523438e-01) (26, 5.26825308799743652344e-01) (27, 1.34108018875122070312e+00) (28, 6.88580274581909179688e-02) (29, 1.00665330886840820312e+00) (30, 2.94493496417999267578e-01) (31, -7.33062624931335449219e-01) (32, 1.37396430969238281250e+00) (33, 8.83934676647186279297e-01) (34, 3.87592315673828125000e-01) (35, 3.48859339952468872070e-01) (36, -4.86204862594604492188e-01) (37, -1.28218269348144531250e+00) (38, -2.46888175606727600098e-01) (39, 2.84119606018066406250e-01) (40, 1.22442185878753662109e+00) (41, 4.47896420955657958984e-01) (11, 1.76351889967918395996e-01) (12, 7.56406784057617187500e-01) (13, 8.30828249454498291016e-01) (14, 1.07889497280120849609e+00) (15, 3.39240990579128265381e-02) (16, -1.37393087148666381836e-01) (17, 1.63329088687896728516e+00) (18, -9.42566514015197753906e-01) (19, -6.64430141448974609375e-01) (20, -4.68826234340667724609e-01) (21, 1.16605007648468017578e+00) (22, -5.02689361572265625000e-01) (23, 7.47225880622863769531e-01) (24, 4.52624678611755371094e-01) (25, -1.14260363578796386719e+00) (26, -1.71460926532745361328e-01) (27, -1.39415025711059570312e-01) (28, -3.53687256574630737305e-01) (29, 1.27087211608886718750e+00) (30, 1.25553262233734130859e+00) (31, -2.72090528160333633423e-02) (32, 1.14303380250930786133e-02) (33, -1.45962819457054138184e-01) (34, -4.05873358249664306641e-01) (35, 2.51955121755599975586e-01) (36, -6.30502343177795410156e-01) (37, 1.19703376293182373047e+00) (38, -5.40845513343811035156e-01) (39, -5.67564308643341064453e-01) (40, -1.52573347091674804688e+00) (41, 7.95746147632598876953e-01) (11, 9.17742848396301269531e-02) (12, -1.34545040130615234375e+00) (13, -9.73164141178131103516e-01) (14, 4.33024406433105468750e-01) (15, -2.61647343635559082031e-01) (16, 1.46967864036560058594e+00) (17, 3.73395413160324096680e-01) (18, -1.70910680294036865234e+00) (19, -5.28207480907440185547e-01) (20, 5.05859494209289550781e-01) (21, 5.91500103473663330078e-01) (22, -9.54202190041542053223e-02) (23, 7.62605071067810058594e-01) (24, 1.27565813064575195312e+00) (25, -1.33440822362899780273e-01) (26, 1.15388965606689453125e+00) (27, 9.20108556747436523438e-02) (28, -2.60081201791763305664e-01) (29, -2.58240640163421630859e-01) (30, 5.14732241630554199219e-01) (31, 2.77002990245819091797e-01) (32, -7.36000895500183105469e-01) (33, -4.79556649923324584961e-01) (34, 9.52991098165512084961e-02) (35, 8.11415433883666992188e-01) (36, 9.52620029449462890625e-01) (37, 5.84046304225921630859e-01) (38, -2.00578659772872924805e-01) (39, 3.80469322204589843750e-01) (40, 2.24087744951248168945e-01) (41, 6.10777854919433593750e-01) (11, 2.24584758281707763672e-01) (12, 3.55027508735656738281e+00) (13, -1.59944427013397216797e+00) (14, -1.11337196826934814453e+00) (15, 2.17247581481933593750e+00) (16, 3.22417569160461425781e+00) (17, -1.88978350162506103516e+00) (18, -1.57280588150024414062e+00) (19, -8.58943641185760498047e-01) (20, 8.53493154048919677734e-01) (21, 8.70754480361938476562e-01) (22, 1.39553153514862060547e+00) (23, 6.26133978366851806641e-01) (24, 1.34099090099334716797e+00) (25, 1.63556921482086181641e+00) (26, -7.09630072116851806641e-01) (27, -5.85183780640363693237e-03) (28, 3.70326328277587890625e+00) (29, 3.40199619531631469727e-02) (30, -7.26951301097869873047e-01) (31, 1.51873600482940673828e+00) (32, -8.99412810802459716797e-01) (33, 4.95298355817794799805e-01) (34, 4.41188067197799682617e-01) (35, 1.25893080234527587891e+00) (36, -4.13756638765335083008e-01) (37, 1.23054826259613037109e+00) (38, -4.91109639406204223633e-01) (39, 9.00071188807487487793e-02) (40, 6.69846117496490478516e-01) (41, -3.37519675493240356445e-01) (11, -4.54287230968475341797e-01) (12, 3.94859194755554199219e+00) (13, -6.84409081935882568359e-01) (14, -2.45118570327758789062e+00) (15, 1.06634926795959472656e+00) (16, 6.03905558586120605469e-01) (17, 1.84318304061889648438e+00) (18, 1.87469732761383056641e+00) (19, 2.33242058753967285156e+00) (20, 3.14547032117843627930e-01) (21, 1.47000074386596679688e-01) (22, 5.94505891203880310059e-02) (23, 1.13515377044677734375e-01) (24, 5.12875556945800781250e-01) (25, 4.94661539793014526367e-01) (26, 2.57254362106323242188e-01) (27, -2.73468422889709472656e+00) (28, 2.23809599876403808594e+00) (29, -1.30816316232085227966e-02) (30, 1.41509294509887695312e-01) (31, 3.80852460861206054688e-01) (32, 9.41690266132354736328e-01) (33, 3.17256569862365722656e-01) (34, 1.16900734603404998779e-01) (35, -5.73586821556091308594e-01) (36, 1.76272183656692504883e-01) (37, 5.15747487545013427734e-01) (38, -9.47710722684860229492e-02) (39, 7.67141103744506835938e-01) (40, -4.20797407627105712891e-01) (41, 2.24849581718444824219e+00) (11, -2.06210255622863769531e+00) (12, 4.36206549406051635742e-01) (13, -2.22996488213539123535e-01) (14, 2.84824967384338378906e-01) (15, 9.39526915550231933594e-01) (16, 2.30810612440109252930e-01) (17, 1.76320627331733703613e-01) (18, 8.89597475528717041016e-01) (19, 9.36174035072326660156e-01) (20, -7.42548778653144836426e-02) (21, -6.24462544918060302734e-01) (22, 3.51078093051910400391e-01) (23, -1.04201698303222656250e+00) (24, -5.66172599792480468750e-01) (25, -7.57682502269744873047e-01) (26, -3.63546937704086303711e-01) (27, 9.65083658695220947266e-01) (28, 4.78278070688247680664e-01) (29, 5.54132759571075439453e-01) (30, -6.51304483413696289062e-01) (31, 9.67916131019592285156e-01) (32, 1.13326966762542724609e+00) (33, 8.68091464042663574219e-01) (34, 6.02746427059173583984e-01) (35, -5.99592447280883789062e-01) (36, -5.97101030871272087097e-03) (37, -1.78956282138824462891e+00) (38, 5.09665846824645996094e-01) (39, -6.41013801097869873047e-01) (40, -7.16783329844474792480e-02) (41, 8.97027909755706787109e-01) (11, 6.66201293468475341797e-01) (12, -9.53944385051727294922e-01) (13, 9.53036665916442871094e-01) (14, 3.51077365875244140625e+00) (15, 5.87086343765258789062e+00) (16, 3.65884244441986083984e-01) (17, 1.61570250988006591797e+00) (18, -3.34555435180664062500e+00) (19, -5.67445611953735351562e+00) (20, -1.93595173186622560024e-04) (21, 2.18413376808166503906e+00) (22, -7.47809708118438720703e-01) (23, -3.07832050323486328125e+00) (24, 9.01826024055480957031e-01) (25, -2.31360888481140136719e+00) (26, -8.67456674575805664062e-01) (27, 1.93452149629592895508e-01) (28, -2.11795496940612792969e+00) (29, 4.97655153274536132812e+00) (30, 2.97303915023803710938e-01) (31, 1.20693647861480712891e+00) (32, 1.13917808532714843750e+01) (33, -7.13903069496154785156e-01) (34, -1.25230574607849121094e+00) (35, 3.01815891265869140625e+00) (36, 1.97816801071166992188e+00) (37, 1.06167721748352050781e+00) (38, -1.48187249898910522461e-01) (39, -5.73906540870666503906e-01) (40, -8.36963176727294921875e+00) (41, 1.33070275187492370605e-01) (11, 1.13369035720825195312e+00) (12, 8.92343640327453613281e-01) (13, -5.18525540828704833984e-01) (14, 8.70856463909149169922e-01) (15, -1.34635403752326965332e-01) (16, 1.99944090843200683594e+00) (17, -1.35787439346313476562e+00) (18, 4.03268218040466308594e-01) (19, 6.60159230232238769531e-01) (20, 2.41147339344024658203e-01) (21, 1.14694468677043914795e-01) (22, 3.34262520074844360352e-01) (23, 9.68454778194427490234e-01) (24, 6.25240385532379150391e-01) (25, -7.56008982658386230469e-01) (26, 1.19584238529205322266e+00) (27, 6.60588324069976806641e-01) (28, 1.13410627841949462891e+00) (29, 1.22961401939392089844e+00) (30, -4.44713175296783447266e-01) (31, -6.16261065006256103516e-01) (32, 1.62541484832763671875e+00) (33, 3.35479736328125000000e-01) (34, 8.67131769657135009766e-01) (35, 6.13310933113098144531e-01) (36, -4.00408834218978881836e-01) (37, -1.08635008335113525391e+00) (38, 8.28956723213195800781e-01) (39, -8.97484004497528076172e-01) (40, 2.37391471862792968750e+00) (41, 1.04894471168518066406e+00) (11, -3.63245993852615356445e-01) (12, -5.61884529888629913330e-02) (13, 5.73010385036468505859e-01) (14, -4.51391845941543579102e-01) (15, 6.50272309780120849609e-01) (16, 6.46674692630767822266e-01) (17, -1.99972021579742431641e+00) (18, 3.24118971824645996094e-01) (19, -3.19137483835220336914e-01) (20, 5.07448017597198486328e-01) (21, -9.21652138233184814453e-01) (22, -1.43328577280044555664e-01) (23, 8.72158229351043701172e-01) (24, 6.66931793093681335449e-02) (25, 8.69065761566162109375e-01) (26, 4.98692169785499572754e-02) (27, -8.04082632064819335938e-01) (28, 5.64979314804077148438e-01) (29, 5.95957003533840179443e-02) (30, 8.57775509357452392578e-02) (31, 7.85566210746765136719e-01) (32, -1.15880954265594482422e+00) (33, 6.24839067459106445312e-01) (34, -1.82667911052703857422e-01) (35, 6.81211650371551513672e-01) (36, -2.45994463562965393066e-01) (37, 1.81349337100982666016e+00) (38, -4.84604865312576293945e-01) (39, 8.10983404517173767090e-02) (40, -9.80838015675544738770e-02) (41, 4.45824116468429565430e-01) (11, -1.44458246231079101562e+00) (12, 4.53035402297973632812e+00) (13, -5.74627733230590820312e+00) (14, 6.85486268997192382812e+00) (15, -7.47190654277801513672e-01) (16, -2.81360387802124023438e+00) (17, 4.42633539438247680664e-01) (18, 1.48596215248107910156e+00) (19, 3.49837660789489746094e+00) (20, 7.26395487785339355469e-01) (21, 1.15302205085754394531e+00) (22, -3.26670765876770019531e+00) (23, -4.05059099197387695312e+00) (24, -2.28289055824279785156e+00) (25, 1.98270571231842041016e+00) (26, 1.55877303332090377808e-02) (27, -8.87386739253997802734e-01) (28, 2.17913627624511718750e+00) (29, -2.30986580252647399902e-01) (30, 2.25027298927307128906e+00) (31, -3.35320711135864257812e+00) (32, -1.05039429664611816406e+00) (33, 2.57221221923828125000e+00) (34, -9.08674225211143493652e-02) (35, 1.74659597873687744141e+00) (36, -1.42848575115203857422e+00) (37, 5.88305187225341796875e+00) (38, 4.98927906155586242676e-02) (39, 9.89873409271240234375e-01) (40, 1.10704011917114257812e+01) (41, 9.90241909027099609375e+00) (11, -2.99585722386837005615e-02) (12, -2.19981241226196289062e+00) (13, 8.47609221935272216797e-01) (14, 1.32050371170043945312e+00) (15, -5.61028671264648437500e+00) (16, 4.86395508050918579102e-01) (17, 6.70724451541900634766e-01) (18, 3.64291167259216308594e+00) (19, 1.74710825085639953613e-01) (20, 1.47767782211303710938e+00) (21, 3.43832397460937500000e+00) (22, -1.97777569293975830078e+00) (23, -5.82860946655273437500e-01) (24, 8.61785292625427246094e-01) (25, 1.24175882339477539062e+00) (26, 5.35455942153930664062e+00) (27, -1.87765300273895263672e-01) (28, 2.16678524017333984375e+00) (29, -3.59754055738449096680e-01) (30, -3.68165516853332519531e+00) (31, 3.10943782329559326172e-01) (32, -5.67991065979003906250e+00) (33, 1.74372279644012451172e+00) (34, -9.77755725383758544922e-01) (35, 6.55246302485466003418e-02) (36, -8.43269288539886474609e-01) (37, 3.24294781684875488281e+00) (38, -3.57995659112930297852e-01) (39, 1.05844521522521972656e+00) (40, 3.09866094589233398438e+00) (41, 4.24244642257690429688e+00) (11, -3.72742861509323120117e-01) (12, -1.23365306854248046875e+00) (13, -1.00481295585632324219e+00) (14, 2.36807537078857421875e+00) (15, 3.39163318276405334473e-02) (16, 5.37563681602478027344e-01) (17, -1.95824038982391357422e+00) (18, 4.87968586385250091553e-02) (19, -6.96236044168472290039e-02) (20, 2.24473762512207031250e+00) (21, 1.51317989826202392578e+00) (22, -5.29009103775024414062e-01) (23, 3.95907473564147949219e+00) (24, -4.59047365188598632812e+00) (25, -2.00141620635986328125e+00) (26, 2.72893738746643066406e+00) (27, 6.44045782089233398438e+00) (28, -2.34382700920104980469e+00) (29, 9.08495306968688964844e-01) (30, -1.72534930706024169922e+00) (31, -2.15252566337585449219e+00) (32, 4.03252506256103515625e+00) (33, -6.55924677848815917969e-01) (34, -4.60305547714233398438e+00) (35, -4.20088624954223632812e+00) (36, 1.78112041950225830078e+00) (37, 1.17898356914520263672e+00) (38, 5.06226301193237304688e-01) (39, -4.13606882095336914062e+00) (40, 2.19217538833618164062e-01) (41, -4.82664585113525390625e+00) (11, 7.42954850196838378906e-01) (12, -4.69471693038940429688e-01) (13, 1.20519888401031494141e+00) (14, 4.03794467449188232422e-01) (15, 9.48706030845642089844e-01) (16, -1.53749692440032958984e+00) (17, -5.03681838512420654297e-01) (18, -1.02668631076812744141e+00) (19, -4.13016259670257568359e-01) (20, 9.33439195156097412109e-01) (21, 3.43054682016372680664e-01) (22, 1.04280483722686767578e+00) (23, 3.57349753379821777344e-01) (24, -1.61979627609252929688e+00) (25, 3.24703842401504516602e-01) (26, -9.49897468090057373047e-02) (27, -1.55842554569244384766e+00) (28, -3.43042820692062377930e-01) (29, -1.27777564525604248047e+00) (30, -3.42581272125244140625e-01) (31, 7.68280208110809326172e-01) (32, -6.77097916603088378906e-01) (33, -8.43183577060699462891e-01) (34, 3.42231512069702148438e-01) (35, 8.75047683715820312500e-01) (36, 1.89840912818908691406e+00) (37, 1.08694382011890411377e-01) (38, -6.80539190769195556641e-01) (39, 8.65444064140319824219e-01) (40, -9.36741948127746582031e-01) (41, -1.80747419595718383789e-01) (11, -6.30239307880401611328e-01) (12, 2.52922475337982177734e-01) (13, 1.57478988170623779297e+00) (14, -3.34859108924865722656e+00) (15, -1.31136274337768554688e+00) (16, 9.36113297939300537109e-01) (17, 2.64934635162353515625e+00) (18, 2.04915702342987060547e-01) (19, 2.65140682458877563477e-01) (20, 1.02667713165283203125e+00) (21, -2.82333135604858398438e-01) (22, 1.83971130847930908203e+00) (23, 7.85389780998229980469e-01) (24, -2.84299910068511962891e-01) (25, 3.71315360069274902344e-01) (26, 1.54215013980865478516e+00) (27, -2.23827099800109863281e+00) (28, 7.47304975986480712891e-01) (29, -5.14383494853973388672e-01) (30, -3.57231050729751586914e-01) (31, 3.06357264518737792969e-01) (32, 7.26229310035705566406e-01) (33, -2.67079889774322509766e-01) (34, -8.02703738212585449219e-01) (35, 1.95989720523357391357e-02) (36, 3.29990535974502563477e-01) (37, -4.39805209636688232422e-01) (38, -7.16383218765258789062e-01) (39, 9.81052398681640625000e-01) (40, 1.25456607341766357422e+00) (41, -3.68823617696762084961e-01) (11, -1.29337087273597717285e-01) (12, -1.40201842784881591797e+00) (13, 5.77676951885223388672e-01) (14, -7.48412489891052246094e-01) (15, -9.23488102853298187256e-03) (16, 4.78056609630584716797e-01) (17, 6.57143175601959228516e-01) (18, 1.09692275524139404297e+00) (19, -3.46412509679794311523e-02) (20, 7.95048654079437255859e-01) (21, 3.10924363136291503906e+00) (22, -4.47336941957473754883e-01) (23, -5.96268102526664733887e-02) (24, 2.06178331375122070312e+00) (25, 3.33812296390533447266e-01) (26, 1.41085898876190185547e+00) (27, -1.57028901576995849609e+00) (28, 8.16094815731048583984e-01) (29, 3.12633633613586425781e-01) (30, -5.97537517547607421875e-01) (31, 2.44927018880844116211e-01) (32, -5.91248869895935058594e-01) (33, 6.43304944038391113281e-01) (34, -9.90543663501739501953e-01) (35, 9.87173080444335937500e-01) (36, -2.35165283083915710449e-01) (37, -1.22529065608978271484e+00) (38, -7.09310650825500488281e-01) (39, 1.31145775318145751953e+00) (40, 1.40195071697235107422e+00) (41, 9.01417493820190429688e-01) (11, -1.61426156759262084961e-01) (12, 9.34049546718597412109e-01) (13, 1.27836391329765319824e-01) (14, 1.93849474191665649414e-01) (15, -1.24332892894744873047e+00) (16, 4.30441528558731079102e-01) (17, -1.10151433944702148438e+00) (18, -4.20490577816963195801e-02) (19, -3.96815985441207885742e-02) (20, 1.74614712595939636230e-01) (21, 8.48342999815940856934e-02) (22, -8.38725984096527099609e-01) (23, -3.31055223941802978516e-01) (24, 1.29939544200897216797e+00) (25, 8.28648746013641357422e-01) (26, -5.19917249679565429688e-01) (27, -5.93727946281433105469e-01) (28, 7.18145072460174560547e-01) (29, -1.05555117130279541016e+00) (30, -2.46907740831375122070e-01) (31, -3.77625375986099243164e-02) (32, -9.34989631175994873047e-01) (33, -1.10822498798370361328e+00) (34, 7.85788595676422119141e-01) (35, 2.08718359470367431641e-01) (36, 4.18174982070922851562e-01) (37, -5.14556407928466796875e-01) (38, 5.53199231624603271484e-01) (39, -7.82841563224792480469e-01) (40, 8.83198022842407226562e-01) (41, 4.95776832103729248047e-02) (11, -5.22992610931396484375e-01) (12, 5.12870490550994873047e-01) (13, -2.23200604319572448730e-01) (14, -1.14307928085327148438e+00) (15, 8.15236687660217285156e-01) (16, -5.14067649841308593750e-01) (17, 6.04708135128021240234e-01) (18, 5.41000738739967346191e-02) (19, 9.18967843055725097656e-01) (20, 2.38339066505432128906e-01) (21, -8.75503420829772949219e-01) (22, 1.88279509544372558594e-01) (23, 2.33595758676528930664e-01) (24, -1.53188839554786682129e-01) (25, -1.79455533623695373535e-01) (26, 6.81411802768707275391e-01) (27, 1.43012607097625732422e+00) (28, 8.10535013675689697266e-01) (29, -4.66925531625747680664e-01) (30, -5.35535216331481933594e-01) (31, 3.78359645605087280273e-01) (32, 9.54607307910919189453e-01) (33, -4.50215935707092285156e-01) (34, -3.56711000204086303711e-02) (35, -5.71827113628387451172e-01) (36, -4.37307894229888916016e-01) (37, -1.06502115726470947266e+00) (38, 1.21914541721343994141e+00) (39, 7.15321749448776245117e-02) (40, 8.54690551757812500000e-01) (41, -3.39763790369033813477e-01) (11, -7.72516727447509765625e-01) (12, 1.77830547094345092773e-01) (13, -6.46149277687072753906e-01) (14, 1.84757840633392333984e+00) (15, -1.43745505809783935547e+00) (16, -1.20873320102691650391e+00) (17, 2.76978164911270141602e-01) (18, -6.64347350597381591797e-01) (19, -4.29613858461380004883e-01) (20, -5.88863790035247802734e-01) (21, 1.67455637454986572266e+00) (22, 1.99368619918823242188e+00) (23, -1.02555394172668457031e+00) (24, 1.40813589096069335938e+00) (25, 9.59114789962768554688e-01) (26, -2.07724764943122863770e-01) (27, 9.06063020229339599609e-01) (28, 6.95687711238861083984e-01) (29, 1.87054324150085449219e+00) (30, -5.38138002157211303711e-02) (31, -7.18282818794250488281e-01) (32, 2.04785871505737304688e+00) (33, -2.90720403194427490234e-01) (34, -3.58730763196945190430e-01) (35, 5.59420943260192871094e-01) (36, 6.99170470237731933594e-01) (37, 3.72742652893066406250e-01) (38, 6.48549973964691162109e-01) (39, -1.07725822925567626953e+00) (40, -4.80713510513305664062e+00) (41, -2.42636576294898986816e-02) (11, -3.34906607866287231445e-01) (12, -2.13059234619140625000e+00) (13, 7.03402101993560791016e-01) (14, 2.53817486763000488281e+00) (15, -8.72366189956665039062e-01) (16, -1.49202787876129150391e+00) (17, -2.57375478744506835938e+00) (18, 3.12460899353027343750e+00) (19, 3.56827616691589355469e-01) (20, 1.87203907966613769531e+00) (21, -2.51027536392211914062e+00) (22, 2.67666864395141601562e+00) (23, 8.94403159618377685547e-01) (24, 2.14388895034790039062e+00) (25, 1.23143196105957031250e+00) (26, 5.85670709609985351562e-01) (27, -6.40212059020996093750e-01) (28, 3.37548553943634033203e-01) (29, 4.18025732040405273438e-01) (30, 9.83463108539581298828e-01) (31, -5.35655282437801361084e-02) (32, -2.34961390495300292969e+00) (33, 2.16384196281433105469e+00) (34, 2.36689805984497070312e+00) (35, 1.42255687713623046875e+00) (36, 3.97751927375793457031e-01) (37, 2.16470718383789062500e+00) (38, -1.10259211063385009766e+00) (39, 3.34937810897827148438e-01) (40, -2.21378254890441894531e+00) (41, 9.10005092620849609375e-01) (11, 1.06935381889343261719e+00) (12, 7.07447946071624755859e-01) (13, 7.26131722331047058105e-02) (14, 1.48768496513366699219e+00) (15, -7.28577554225921630859e-01) (16, -7.32316896319389343262e-02) (17, -2.22152024507522583008e-01) (18, -3.63207101821899414062e-01) (19, -4.76768791675567626953e-01) (20, 5.09066760540008544922e-01) (21, 7.33810812234878540039e-02) (22, -4.29998219013214111328e-01) (23, -3.73647451400756835938e-01) (24, 7.70645797252655029297e-01) (25, 6.13189220428466796875e-01) (26, -3.97218286991119384766e-01) (27, 1.83729362487792968750e+00) (28, 1.09761590138077735901e-02) (29, -3.84078741073608398438e-01) (30, -6.98428928852081298828e-01) (31, 4.53189909458160400391e-01) (32, -8.61961603164672851562e-01) (33, -1.90139397978782653809e-01) (34, 3.41886848211288452148e-01) (35, 3.85790884494781494141e-01) (36, 4.30190294981002807617e-01) (37, 1.09372293949127197266e+00) (38, 3.21096479892730712891e-01) (39, -6.74276649951934814453e-01) (40, 2.83898890018463134766e-01) (41, 8.98432195186614990234e-01) (11, -6.70533037185668945312e+00) (12, -4.58292913436889648438e+00) (13, -4.14841443300247192383e-01) (14, -4.14829540252685546875e+00) (15, -6.55366039276123046875e+00) (16, -6.18758797645568847656e-01) (17, -3.13938212394714355469e+00) (18, 7.23471975326538085938e+00) (19, 5.33226871490478515625e+00) (20, 6.37812852859497070312e+00) (21, -5.45326508581638336182e-02) (22, 3.55857062339782714844e+00) (23, 8.18182086944580078125e+00) (24, -4.40709114074707031250e+00) (25, 2.34157347679138183594e+00) (26, 6.73505830764770507812e+00) (27, -1.66059947013854980469e+00) (28, -2.23676848411560058594e+00) (29, 2.21048045158386230469e+00) (30, 3.72935509681701660156e+00) (31, 4.08252286911010742188e+00) (32, -8.37707614898681640625e+00) (33, 1.57588565349578857422e+00) (34, 2.97955918312072753906e+00) (35, -5.99131059646606445312e+00) (36, 7.44713097810745239258e-02) (37, -2.49285340309143066406e+00) (38, 9.33375263214111328125e+00) (39, 9.25744712352752685547e-01) (40, 6.80910444259643554688e+00) (41, 3.78516793251037597656e+00) (11, 1.01206350326538085938e+00) (12, 8.35744976997375488281e-01) (13, -2.83284634351730346680e-01) (14, 3.95634126663208007812e+00) (15, -5.80237865447998046875e-01) (16, 6.74891650676727294922e-01) (17, 5.97092032432556152344e-01) (18, -5.62267839908599853516e-01) (19, 5.49300253391265869141e-01) (20, 8.17479193210601806641e-01) (21, 4.16231423616409301758e-01) (22, -8.92562747001647949219e-01) (23, -1.47939920425415039062e-01) (24, 1.47712278366088867188e+00) (25, -7.90210425853729248047e-01) (26, 9.79456827044486999512e-02) (27, -6.57182514667510986328e-01) (28, 4.74548429250717163086e-01) (29, -5.07367014884948730469e-01) (30, 9.70982074737548828125e-01) (31, -7.25436449050903320312e-01) (32, -9.91781353950500488281e-01) (33, -1.83020800352096557617e-01) (34, 1.47601568698883056641e+00) (35, 1.03020346164703369141e+00) (36, 1.03983354568481445312e+00) (37, 5.26295661926269531250e-01) (38, 5.63964962959289550781e-01) (39, -5.55537283420562744141e-01) (40, 7.84320712089538574219e-01) (41, -1.32486474514007568359e+00) (11, 5.26663303375244140625e-01) (12, 1.10887813568115234375e+00) (13, -6.12978875637054443359e-01) (14, 2.02605891227722167969e+00) (15, 1.45045101642608642578e-01) (16, -2.90062636137008666992e-01) (17, -2.02630415558815002441e-01) (18, -5.85214281454682350159e-03) (19, 1.36121082305908203125e+00) (20, -8.08077096939086914062e-01) (21, 2.28005743026733398438e+00) (22, 8.31857025623321533203e-01) (23, 2.21657469868659973145e-01) (24, 3.96453738212585449219e+00) (25, 1.68019521236419677734e+00) (26, 4.25973504781723022461e-01) (27, -1.43300628662109375000e+00) (28, 1.85783433914184570312e+00) (29, 1.00337290763854980469e+00) (30, 7.92750865221023559570e-02) (31, -1.03936433792114257812e+00) (32, 5.53855419158935546875e-01) (33, 2.00285121798515319824e-01) (34, 1.12643480300903320312e+00) (35, -5.33865332603454589844e-01) (36, 9.28353071212768554688e-01) (37, 3.58278900384902954102e-01) (38, -1.18630683422088623047e+00) (39, -2.08825707435607910156e-01) (40, -8.48128139972686767578e-01) (41, 8.85028913617134094238e-02) (42, -6.37180030345916748047e-01) (43, 2.42227733135223388672e-01) (44, -7.58034050464630126953e-01) (45, 1.28008997440338134766e+00) (46, 1.66594207286834716797e+00) (47, 7.30725169181823730469e-01) (48, 8.52468848228454589844e-01) (49, 8.74149620532989501953e-01) (50, 9.53055322170257568359e-01) (51, 1.07054758071899414062e+00) (52, -4.51105833053588867188e-01) (53, -6.68722808361053466797e-01) (54, 1.43627524375915527344e+00) (55, -2.76759743690490722656e+00) (56, 1.37375283241271972656e+00) (57, 8.25966417789459228516e-01) (58, 1.65720033645629882812e+00) (59, 9.66434180736541748047e-01) (60, 1.31126511096954345703e+00) (61, -9.90312993526458740234e-01) (62, 9.22701120376586914062e-01) (63, 2.76349365711212158203e-01) (64, 1.27511620521545410156e+00) (65, -2.24426579475402832031e+00) (66, 7.79496550559997558594e-01) (67, -5.06695806980133056641e-01) (68, 1.55277252197265625000e+00) (69, 1.42264276742935180664e-01) (70, 8.99702489376068115234e-01) (71, 6.51127099990844726562e-01) (72, -4.44716177880764007568e-02) (42, -7.63070881366729736328e-01) (43, 1.93529140949249267578e+00) (44, -5.39163172245025634766e-01) (45, 1.90606808662414550781e+00) (46, 1.28466689586639404297e+00) (47, 3.79583626985549926758e-01) (48, 4.40281897783279418945e-01) (49, 1.12766098976135253906e+00) (50, 6.85205042362213134766e-01) (51, 1.06947445869445800781e+00) (52, -1.71573609113693237305e-01) (53, -4.67608898878097534180e-01) (54, 1.49590647220611572266e+00) (55, 3.24142217636108398438e-01) (56, 7.62136638164520263672e-01) (57, -1.68798744678497314453e-01) (58, -4.57272768020629882812e-01) (59, 1.38567471504211425781e+00) (60, -2.08306401968002319336e-01) (61, -3.16907912492752075195e-01) (62, 9.93206202983856201172e-01) (63, -5.66256791353225708008e-02) (64, 5.28795480728149414062e-01) (65, -1.57777309417724609375e+00) (66, 2.04568028450012207031e-01) (67, 1.80635660886764526367e-01) (68, 1.54017519950866699219e+00) (69, 2.98344135284423828125e+00) (70, 8.63886535167694091797e-01) (71, 6.75773799419403076172e-01) (72, 1.03841173648834228516e+00) (42, -5.99859535694122314453e-01) (43, 4.65240031480789184570e-02) (44, -7.49868512153625488281e-01) (45, 1.19295096397399902344e+00) (46, 1.64489626884460449219e+00) (47, 7.31514632701873779297e-01) (48, 9.02854144573211669922e-01) (49, 8.76244843006134033203e-01) (50, 8.48700761795043945312e-01) (51, 1.01848042011260986328e+00) (52, -4.79457914829254150391e-01) (53, -6.41603589057922363281e-01) (54, 1.50923418998718261719e+00) (55, -2.82974553108215332031e+00) (56, 1.35759150981903076172e+00) (57, 8.44082236289978027344e-01) (58, 1.54477715492248535156e+00) (59, 6.86701118946075439453e-01) (60, 1.61815059185028076172e+00) (61, -9.99390006065368652344e-01) (62, 9.30879056453704833984e-01) (63, 5.62412321567535400391e-01) (64, 1.20868074893951416016e+00) (65, -2.26051473617553710938e+00) (66, 8.23541224002838134766e-01) (67, -5.00534355640411376953e-01) (68, 1.61184811592102050781e+00) (69, 2.11017459630966186523e-01) (70, 1.01374769210815429688e+00) (71, 7.49595701694488525391e-01) (72, 2.39461008459329605103e-02) (42, -7.39136099815368652344e-01) (43, 1.75481581687927246094e+00) (44, -5.59908151626586914062e-01) (45, 1.63946628570556640625e+00) (46, 1.26212012767791748047e+00) (47, 3.65961790084838867188e-01) (48, 5.26891648769378662109e-01) (49, 1.14822506904602050781e+00) (50, 6.61498188972473144531e-01) (51, 1.02189874649047851562e+00) (52, -2.04453691840171813965e-01) (53, -4.66860860586166381836e-01) (54, 1.60891747474670410156e+00) (55, 2.73339331150054931641e-01) (56, 7.83717393875122070312e-01) (57, -1.79081112146377563477e-01) (58, -7.23725259304046630859e-01) (59, 1.29833781719207763672e+00) (60, 4.13892179727554321289e-01) (61, -3.68713945150375366211e-01) (62, 1.00494575500488281250e+00) (63, 1.21557116508483886719e-01) (64, 5.68559765815734863281e-01) (65, -1.61923003196716308594e+00) (66, 2.75670796632766723633e-01) (67, 2.28576987981796264648e-01) (68, 1.55784463882446289062e+00) (69, 3.16199779510498046875e+00) (70, 1.00977313518524169922e+00) (71, 7.49017655849456787109e-01) (72, 1.29384541511535644531e+00)
input_names='a' 'betan' 'bt' 'delta' 'ip' 'kappa' 'm' 'neped' 'r' 'zeffped'
output_names='OUT_p_E1_0' 'OUT_p_E1_2' 'OUT_wid_E1_0' 'OUT_wid_E1_2'
norm_output=-0.0612009513967089 0.08463866669351344 1.3229183028636258 0.6384261703759534 0.4617626301652434 0.6330016185947801 -0.0663645263723127 0.17848062390483094 -0.4873485415774629 0.13199789420026525 -0.3234536018618778 0.01776433839025863 1.236412391725945 0.7131596622358183 0.42101041225383207 -0.02424551070912206 -0.0666324653875944 0.2657558103649005 -0.1134693909918785 0.18988212735076931 0.9645000013847992 0.04216305287323733 0.6614822236221719 0.3293018137810492 -0.7691605015850322 1.0091786589210343 -0.033100882321216 0.08925126672911614 -0.23933015355442852 0.06593788558362579 0.8334580898876508 0.008706138813282641 0.6182356088022248 0.36671304286321704 -0.7895685108359518 0.6807940990092245 -0.03319028982438394 0.13287725773642697 -0.05241199060256324 0.0948785256663244
MSE= 0.323707520962