FANN_FLO_2.1
num_layers=4
learning_rate=0.700000
connection_rate=1.000000
network_type=0
learning_momentum=0.000000
training_algorithm=2
train_error_function=0
train_stop_function=0
cascade_output_change_fraction=0.010000
quickprop_decay=0.036352
quickprop_mu=1.750000
rprop_increase_factor=1.200000
rprop_decrease_factor=0.500000
rprop_delta_min=0.000000
rprop_delta_max=50.000000
rprop_delta_zero=0.100000
cascade_output_stagnation_epochs=12
cascade_candidate_change_fraction=0.010000
cascade_candidate_stagnation_epochs=12
cascade_max_out_epochs=150
cascade_min_out_epochs=50
cascade_max_cand_epochs=150
cascade_min_cand_epochs=50
cascade_num_candidate_groups=2
bit_fail_limit=3.49999994039535522461e-01
cascade_candidate_limit=1.00000000000000000000e+03
cascade_weight_multiplier=4.00000005960464477539e-01
cascade_activation_functions_count=10
cascade_activation_functions=3 5 7 8 10 11 14 15 16 17
cascade_activation_steepnesses_count=4
cascade_activation_steepnesses=2.50000000000000000000e-01 5.00000000000000000000e-01 7.50000000000000000000e-01 1.00000000000000000000e+00
layer_sizes=11 31 31 5
scale_included=1
scale_mean_in=1.687400 1.938604 3.999407 0.476214 9.078313 1.811375 2.087834 6.829363 5.223328 1.894653
scale_deviation_in=0.591254 0.578284 1.480562 0.057234 5.097051 0.080780 0.438018 3.594788 1.846431 0.593833
scale_new_min_in=-1.000000 -1.000000 -1.000000 -1.000000 -1.000000 -1.000000 -1.000000 -1.000000 -1.000000 -1.000000
scale_factor_in=1.000000 1.000000 1.000000 1.000000 1.000000 1.000000 1.000000 1.000000 1.000000 1.000000
scale_mean_out=0.004471 0.004795 0.038556 0.039926
scale_deviation_out=0.000723 0.000778 0.003051 0.003201
scale_new_min_out=-1.000000 -1.000000 -1.000000 -1.000000
scale_factor_out=1.000000 1.000000 1.000000 1.000000
neurons (num_inputs, activation_function, activation_steepness)=(0, 0, 0.00000000000000000000e+00) (0, 0, 0.00000000000000000000e+00) (0, 0, 0.00000000000000000000e+00) (0, 0, 0.00000000000000000000e+00) (0, 0, 0.00000000000000000000e+00) (0, 0, 0.00000000000000000000e+00) (0, 0, 0.00000000000000000000e+00) (0, 0, 0.00000000000000000000e+00) (0, 0, 0.00000000000000000000e+00) (0, 0, 0.00000000000000000000e+00) (0, 0, 0.00000000000000000000e+00) (11, 5, 5.00000000000000000000e-01) (11, 5, 5.00000000000000000000e-01) (11, 5, 5.00000000000000000000e-01) (11, 5, 5.00000000000000000000e-01) (11, 5, 5.00000000000000000000e-01) (11, 5, 5.00000000000000000000e-01) (11, 5, 5.00000000000000000000e-01) (11, 5, 5.00000000000000000000e-01) (11, 5, 5.00000000000000000000e-01) (11, 5, 5.00000000000000000000e-01) (11, 5, 5.00000000000000000000e-01) (11, 5, 5.00000000000000000000e-01) (11, 5, 5.00000000000000000000e-01) (11, 5, 5.00000000000000000000e-01) (11, 5, 5.00000000000000000000e-01) (11, 5, 5.00000000000000000000e-01) (11, 5, 5.00000000000000000000e-01) (11, 5, 5.00000000000000000000e-01) (11, 5, 5.00000000000000000000e-01) (11, 5, 5.00000000000000000000e-01) (11, 5, 5.00000000000000000000e-01) (11, 5, 5.00000000000000000000e-01) (11, 5, 5.00000000000000000000e-01) (11, 5, 5.00000000000000000000e-01) (11, 5, 5.00000000000000000000e-01) (11, 5, 5.00000000000000000000e-01) (11, 5, 5.00000000000000000000e-01) (11, 5, 5.00000000000000000000e-01) (11, 5, 5.00000000000000000000e-01) (11, 5, 5.00000000000000000000e-01) (0, 5, 0.00000000000000000000e+00) (31, 5, 5.00000000000000000000e-01) (31, 5, 5.00000000000000000000e-01) (31, 5, 5.00000000000000000000e-01) (31, 5, 5.00000000000000000000e-01) (31, 5, 5.00000000000000000000e-01) (31, 5, 5.00000000000000000000e-01) (31, 5, 5.00000000000000000000e-01) (31, 5, 5.00000000000000000000e-01) (31, 5, 5.00000000000000000000e-01) (31, 5, 5.00000000000000000000e-01) (31, 5, 5.00000000000000000000e-01) (31, 5, 5.00000000000000000000e-01) (31, 5, 5.00000000000000000000e-01) (31, 5, 5.00000000000000000000e-01) (31, 5, 5.00000000000000000000e-01) (31, 5, 5.00000000000000000000e-01) (31, 5, 5.00000000000000000000e-01) (31, 5, 5.00000000000000000000e-01) (31, 5, 5.00000000000000000000e-01) (31, 5, 5.00000000000000000000e-01) (31, 5, 5.00000000000000000000e-01) (31, 5, 5.00000000000000000000e-01) (31, 5, 5.00000000000000000000e-01) (31, 5, 5.00000000000000000000e-01) (31, 5, 5.00000000000000000000e-01) (31, 5, 5.00000000000000000000e-01) (31, 5, 5.00000000000000000000e-01) (31, 5, 5.00000000000000000000e-01) (31, 5, 5.00000000000000000000e-01) (31, 5, 5.00000000000000000000e-01) (0, 5, 0.00000000000000000000e+00) (31, 0, 5.00000000000000000000e-01) (31, 0, 5.00000000000000000000e-01) (31, 0, 5.00000000000000000000e-01) (31, 0, 5.00000000000000000000e-01) (0, 0, 0.00000000000000000000e+00)
connections (connected_to_neuron, weight)=(0, -4.09690052270889282227e-01) (1, 2.79154896736145019531e-01) (2, 4.09869998693466186523e-01) (3, -2.61264592409133911133e-01) (4, 4.00161653757095336914e-01) (5, 8.97605597972869873047e-01) (6, 4.61137332022190093994e-02) (7, -2.20191049575805664062e+00) (8, -7.27794110774993896484e-01) (9, -2.04988986253738403320e-01) (10, 2.05016478896141052246e-01) (0, 4.09869998693466186523e-01) (1, 7.20063805580139160156e-01) (2, -1.43527734279632568359e+00) (3, -2.05100476741790771484e-01) (4, -3.25474888086318969727e-01) (5, -6.11192166805267333984e-01) (6, 7.81320780515670776367e-02) (7, 1.33352923393249511719e+00) (8, -2.06758499145507812500e-01) (9, 6.69897615909576416016e-01) (10, -1.06842958927154541016e+00) (0, 8.15446257591247558594e-01) (1, -4.01210248470306396484e-01) (2, -7.80284285545349121094e-01) (3, -1.06138658523559570312e+00) (4, 9.20434653759002685547e-01) (5, -3.24933052062988281250e-01) (6, 2.22258642315864562988e-01) (7, 1.20957441627979278564e-01) (8, -3.90806227922439575195e-01) (9, 3.14493536949157714844e-01) (10, 1.01650297641754150391e-01) (0, 1.06945908069610595703e+00) (1, -6.11461661756038665771e-02) (2, -7.24516212940216064453e-01) (3, -8.01812827587127685547e-01) (4, 4.09869998693466186523e-01) (5, 1.16957938671112060547e+00) (6, 5.01575274392962455750e-03) (7, 4.09999340772628784180e-01) (8, 1.25415730476379394531e+00) (9, 3.69736671447753906250e-01) (10, 8.08366358280181884766e-01) (0, 1.20865690708160400391e+00) (1, 8.10039937496185302734e-01) (2, 2.02236801385879516602e-01) (3, -1.58780884742736816406e+00) (4, 8.19379985332489013672e-01) (5, -4.46414202451705932617e-01) (6, -4.41608637571334838867e-01) (7, 6.99008762836456298828e-01) (8, -1.92429080605506896973e-01) (9, 1.09261989593505859375e+00) (10, 2.93092036247253417969e+00) (0, -2.04784974455833435059e-01) (1, -2.19634816050529479980e-01) (2, 1.81250393390655517578e-01) (3, 4.22313272953033447266e-01) (4, 1.07362496852874755859e+00) (5, 1.09047961235046386719e+00) (6, -4.77531505748629570007e-03) (7, -8.18950295448303222656e-01) (8, 8.23497995734214782715e-02) (9, -7.54100680351257324219e-01) (10, 5.38155473768711090088e-02) (0, -3.90467122197151184082e-02) (1, 6.21573984622955322266e-01) (2, -8.19185853004455566406e-01) (3, -1.20173358917236328125e+00) (4, 5.00480127334594726562e+00) (5, 2.41377837955951690674e-02) (6, 3.16854007542133331299e-02) (7, -1.98892986774444580078e+00) (8, -3.95448833703994750977e-01) (9, -7.61572837829589843750e-01) (10, 1.66855275630950927734e+00) (0, 1.62149894237518310547e+00) (1, 1.23649299144744873047e+00) (2, 7.72209763526916503906e-01) (3, -1.43598926067352294922e+00) (4, 2.79325693845748901367e-01) (5, 6.42275452613830566406e-01) (6, -6.07442200183868408203e-01) (7, -5.28038263320922851562e-01) (8, 8.19320023059844970703e-01) (9, -4.32271599769592285156e-01) (10, 8.19320023059844970703e-01) (0, -2.97975361347198486328e-01) (1, 1.96367645263671875000e+00) (2, 3.62740069627761840820e-01) (3, -2.20364570617675781250e-01) (4, 1.62752628326416015625e+00) (5, 2.20380258560180664062e+00) (6, 6.98741674423217773438e-01) (7, 7.74725317955017089844e-01) (8, 8.27919423580169677734e-01) (9, -1.85766653157770633698e-03) (10, 1.16779696941375732422e+00) (0, -7.25499033927917480469e-01) (1, -2.54128837585449218750e+00) (2, 1.44071555137634277344e+00) (3, 1.62364840507507324219e-01) (4, 4.71214264631271362305e-01) (5, -6.57481700181961059570e-02) (6, 1.30000755190849304199e-01) (7, 7.64110505580902099609e-01) (8, 3.77924531698226928711e-01) (9, -1.24184660613536834717e-01) (10, -8.89540195465087890625e-01) (0, -3.42718303203582763672e-01) (1, 8.48324656486511230469e-01) (2, -1.08845615386962890625e+00) (3, 1.21653532981872558594e+00) (4, 8.06564509868621826172e-01) (5, -9.85241867601871490479e-03) (6, 1.02668337523937225342e-01) (7, 2.05016478896141052246e-01) (8, 7.00824260711669921875e-01) (9, 1.80867761373519897461e-01) (10, 8.19483220577239990234e-01) (0, -2.13996720314025878906e+00) (1, 1.21110685169696807861e-01) (2, 2.40787768363952636719e+00) (3, 6.56485319137573242188e-01) (4, -6.07638359069824218750e+00) (5, 9.82558250427246093750e-01) (6, 2.72682812064886093140e-02) (7, 1.36821880936622619629e-01) (8, -2.05208158493041992188e+00) (9, 6.24169051647186279297e-01) (10, -3.24357897043228149414e-01) (0, 7.11155056953430175781e-01) (1, -5.61269879341125488281e-01) (2, 7.55838692188262939453e-01) (3, 1.01022195816040039062e+00) (4, -4.09750342369079589844e-01) (5, -6.75734162330627441406e-01) (6, -3.06814163923263549805e-01) (7, -3.83542329072952270508e-01) (8, 8.19379985332489013672e-01) (9, 9.51212868094444274902e-02) (10, 1.10309839248657226562e+00) (0, -7.71262824535369873047e-01) (1, -5.86167633533477783203e-01) (2, 1.26247727870941162109e+00) (3, 9.13046538829803466797e-01) (4, -3.57107847929000854492e-01) (5, 2.70385086536407470703e-01) (6, -2.27033689618110656738e-01) (7, 1.63821995258331298828e+00) (8, -8.47557604312896728516e-01) (9, 8.24196279048919677734e-01) (10, -1.79577267169952392578e+00) (0, -1.79841828346252441406e+00) (1, 1.68386304378509521484e+00) (2, -7.19110250473022460938e-01) (3, 5.41832089424133300781e-01) (4, 8.26028883457183837891e-01) (5, -1.43089139461517333984e+00) (6, -7.51245200634002685547e-01) (7, 2.74082446098327636719e+00) (8, 2.29892683029174804688e+00) (9, 7.89315581321716308594e-01) (10, -1.38527080416679382324e-01) (0, -3.61455371603369712830e-03) (1, 2.01605468988418579102e-01) (2, -2.04952359199523925781e-01) (3, 1.63656640052795410156e+00) (4, 7.91139245033264160156e-01) (5, -1.75465077161788940430e-01) (6, -3.97275060415267944336e-01) (7, 1.63821995258331298828e+00) (8, 5.99841237068176269531e-01) (9, 1.09194003045558929443e-01) (10, 4.10134881734848022461e-01) (0, -2.04784974455833435059e-01) (1, -2.14083313941955566406e-01) (2, 2.24418330192565917969e+00) (3, 1.47525802254676818848e-01) (4, -1.60948288440704345703e+00) (5, -1.05851578712463378906e+00) (6, 4.10120308399200439453e-01) (7, 6.88135564327239990234e-01) (8, 4.09930020570755004883e-01) (9, 4.09869998693466186523e-01) (10, 1.94115459918975830078e+00) (0, -1.32036185264587402344e+00) (1, -5.90888112783432006836e-02) (2, 8.17408204078674316406e-01) (3, 5.32685756683349609375e-01) (4, 1.04870736598968505859e+00) (5, -5.70471465587615966797e-01) (6, 8.42365473508834838867e-02) (7, 6.80303156375885009766e-01) (8, -5.19654043018817901611e-02) (9, 4.88894619047641754150e-02) (10, 1.19525504112243652344e+00) (0, 6.89942061901092529297e-01) (1, 1.07381093502044677734e+00) (2, 3.11527943611145019531e+00) (3, -1.42837154865264892578e+00) (4, -2.50003981590270996094e+00) (5, 1.43486571311950683594e+00) (6, 1.58443808555603027344e-01) (7, -1.23122215270996093750e+00) (8, 1.85749337077140808105e-01) (9, -7.60404586791992187500e-01) (10, 1.41885280609130859375e-01) (0, -5.69098949432373046875e-01) (1, 3.91775757074356079102e-01) (2, 5.85828065872192382812e-01) (3, 4.26683962345123291016e-01) (4, -1.59050726890563964844e+00) (5, -2.15228766202926635742e-01) (6, -9.53384935855865478516e-02) (7, 1.45031362771987915039e-01) (8, 4.09930020570755004883e-01) (9, 3.36479336023330688477e-01) (10, 3.99134874343872070312e-01) (0, -1.71018794178962707520e-01) (1, -7.96826243400573730469e-01) (2, -8.19139897823333740234e-01) (3, -4.09510046243667602539e-01) (4, -4.09690052270889282227e-01) (5, -1.70718446373939514160e-01) (6, 8.13304930925369262695e-02) (7, 1.09334997832775115967e-01) (8, 7.18772590160369873047e-01) (9, -5.80194234848022460938e-01) (10, 4.99957203865051269531e-02) (0, 7.99288868904113769531e-01) (1, 3.12317490577697753906e-01) (2, 1.31339144706726074219e+00) (3, 4.75009769201278686523e-01) (4, 7.30918526649475097656e-01) (5, 9.12471234798431396484e-01) (6, 1.37439951300621032715e-01) (7, -3.13845467567443847656e+00) (8, -7.86727145314216613770e-02) (9, 3.60751539468765258789e-01) (10, 1.38718903064727783203e-01) (0, 2.05016478896141052246e-01) (1, -4.07083153724670410156e-01) (2, -1.53488945960998535156e+00) (3, 4.19183552265167236328e-01) (4, -2.11947690695524215698e-03) (5, 7.09621489048004150391e-01) (6, 5.46974480152130126953e-01) (7, -5.07695786654949188232e-03) (8, 1.29724121093750000000e+00) (9, -2.33887523412704467773e-01) (10, 1.13428974151611328125e+00) (0, 8.11996340751647949219e-01) (1, -5.21295964717864990234e-01) (2, -4.09687638282775878906e-01) (3, 4.22265045344829559326e-02) (4, 5.98386108875274658203e-01) (5, -2.31507897377014160156e-01) (6, -4.09714013338088989258e-01) (7, 1.07004356384277343750e+00) (8, 8.19379985332489013672e-01) (9, 1.97011634707450866699e-01) (10, 3.12803149223327636719e+00) (0, 7.39060282707214355469e-01) (1, -5.29789142310619354248e-02) (2, -8.19139897823333740234e-01) (3, 2.70282942801713943481e-03) (4, -8.19139897823333740234e-01) (5, -7.56076753139495849609e-01) (6, -1.66498154401779174805e-01) (7, 2.59177613258361816406e+00) (8, 3.03885489702224731445e-01) (9, 4.09930020570755004883e-01) (10, 4.09869998693466186523e-01) (0, -4.21825551986694335938e+00) (1, 5.11579453945159912109e-01) (2, -7.87847566604614257812e+00) (3, -7.60848999023437500000e-01) (4, 5.22636318206787109375e+00) (5, -1.18041062355041503906e+00) (6, 1.11291930079460144043e-01) (7, 1.80839359760284423828e+00) (8, -2.57161521911621093750e+00) (9, 1.07744336128234863281e+00) (10, -2.18988966941833496094e+00) (0, -3.84639233350753784180e-01) (1, -4.03109677135944366455e-02) (2, -2.71084103733301162720e-02) (3, 1.72707423567771911621e-01) (4, 1.02847307920455932617e-01) (5, -3.92641033977270126343e-03) (6, -1.02919355034828186035e-01) (7, 3.43925356864929199219e+00) (8, -1.26799035072326660156e+00) (9, 2.32095876708626747131e-03) (10, 2.13804459571838378906e+00) (0, -2.67846342176198959351e-02) (1, -2.08663642406463623047e-01) (2, 2.05076470971107482910e-01) (3, -1.72863173484802246094e+00) (4, 1.36851763725280761719e+00) (5, 5.56872069835662841797e-01) (6, -1.49924363940954208374e-02) (7, -1.59438014030456542969e+00) (8, -3.07705223560333251953e-01) (9, -3.60400348901748657227e-01) (10, -7.08651065826416015625e-01) (0, -1.52977907657623291016e+00) (1, -2.73096442222595214844e-01) (2, 4.09869998693466186523e-01) (3, -1.71150997281074523926e-01) (4, -9.32383164763450622559e-03) (5, -5.99626719951629638672e-01) (6, 3.24312180280685424805e-01) (7, -3.84864360094070434570e-01) (8, -5.36218136548995971680e-02) (9, 1.97516262531280517578e-01) (10, 2.82988071441650390625e-01) (0, -3.56710880994796752930e-01) (1, -1.16069495677947998047e+00) (2, -1.80134725570678710938e+00) (3, -6.64097547531127929688e-01) (4, -1.34193885326385498047e+00) (5, -2.03648343682289123535e-01) (6, -2.96218812465667724609e-01) (7, -1.86998927593231201172e+00) (8, -7.39686250686645507812e-01) (9, -8.64535450935363769531e-01) (10, 2.70083808898925781250e+00) (11, 1.63821995258331298828e+00) (12, -8.89285504817962646484e-01) (13, 1.63828003406524658203e+00) (14, -1.56460332870483398438e+00) (15, 4.09930020570755004883e-01) (16, -2.25446075201034545898e-01) (17, 1.82295724749565124512e-01) (18, -1.07010459899902343750e+00) (19, 3.57390642166137695312e-01) (20, 2.30549514293670654297e-01) (21, 5.12378633022308349609e-01) (22, -1.34659934043884277344e+00) (23, -4.05388116836547851562e-01) (24, 2.70294219255447387695e-01) (25, 8.19379985332489013672e-01) (26, 1.88532873988151550293e-01) (27, -7.52281725406646728516e-01) (28, 2.67577743530273437500e+00) (29, 4.10009205341339111328e-01) (30, -2.61139959096908569336e-01) (31, -5.33327877521514892578e-01) (32, -1.52910813689231872559e-01) (33, -3.96020799875259399414e-01) (34, -7.05482959747314453125e-01) (35, -1.16240358352661132812e+00) (36, -8.19139897823333740234e-01) (37, -2.15026497840881347656e+00) (38, -1.65031597018241882324e-01) (39, -1.01128876209259033203e+00) (40, 8.19512307643890380859e-01) (41, 2.20379805564880371094e+00) (11, 1.23586463928222656250e+00) (12, -6.37630641460418701172e-01) (13, 1.63821995258331298828e+00) (14, 2.96595096588134765625e-01) (15, 4.09869998693466186523e-01) (16, -2.83664405345916748047e-01) (17, 8.19320023059844970703e-01) (18, -1.10778147354722023010e-02) (19, 4.09869998693466186523e-01) (20, 1.29060721397399902344e+00) (21, 8.19346427917480468750e-01) (22, 8.19379985332489013672e-01) (23, -1.92322313785552978516e-01) (24, -7.10889279842376708984e-01) (25, 1.32773280143737792969e+00) (26, 1.12844660878181457520e-01) (27, -8.10129523277282714844e-01) (28, 3.87214869260787963867e-01) (29, 1.60951161384582519531e+00) (30, 1.92969530820846557617e-01) (31, 1.27859306335449218750e+00) (32, 1.61398363113403320312e+00) (33, -8.19139897823333740234e-01) (34, -3.40759247541427612305e-01) (35, 1.03895165026187896729e-01) (36, 8.19379985332489013672e-01) (37, -2.12329697608947753906e+00) (38, -2.00128674507141113281e+00) (39, -4.09510046243667602539e-01) (40, 1.78775107860565185547e+00) (41, -7.70302057266235351562e-01) (11, 1.63828003406524658203e+00) (12, 8.14727604389190673828e-01) (13, -4.74338483810424804688e+00) (14, 7.57937133312225341797e-01) (15, -4.09919083118438720703e-01) (16, 2.06980133056640625000e+00) (17, 1.63872969150543212891e+00) (18, 1.34548795223236083984e+00) (19, -1.50333917140960693359e+00) (20, 8.20196807384490966797e-01) (21, 2.41688513755798339844e+00) (22, 3.16326165199279785156e+00) (23, 5.29664373397827148438e+00) (24, 8.19543182849884033203e-01) (25, -1.08995997905731201172e+00) (26, 1.31560355424880981445e-01) (27, 2.36879777908325195312e+00) (28, 2.65849328041076660156e+00) (29, 6.54645967483520507812e+00) (30, -2.04644441604614257812e+00) (31, 1.85263705253601074219e+00) (32, 2.20405912399291992188e+00) (33, 1.11459195613861083984e+00) (34, 8.19829642772674560547e-01) (35, 3.27931261062622070312e+00) (36, -8.31708669662475585938e-01) (37, -3.34921526908874511719e+00) (38, 2.48834562301635742188e+00) (39, -3.33509773015975952148e-01) (40, -1.45144283771514892578e+00) (41, -5.61498761177062988281e-01) (11, 6.48447096347808837891e-01) (12, -3.77207899093627929688e+00) (13, -5.02714395523071289062e+00) (14, 2.64893198013305664062e+00) (15, 3.27421307563781738281e+00) (16, 1.88151702284812927246e-01) (17, 7.18849849700927734375e+00) (18, -1.63804018497467041016e+00) (19, -1.69599676132202148438e+00) (20, 5.20944118499755859375e-01) (21, 3.75245356559753417969e+00) (22, 1.33189926147460937500e+01) (23, 3.27612829208374023438e+00) (24, 3.45091909170150756836e-01) (25, -1.81719374656677246094e+00) (26, 2.19568705558776855469e+00) (27, 1.67785537242889404297e+00) (28, 2.86556029319763183594e+00) (29, 5.51005077362060546875e+00) (30, -4.74490118026733398438e+00) (31, 1.11532278358936309814e-01) (32, 3.77660369873046875000e+00) (33, 2.30847954750061035156e+00) (34, 1.22846150398254394531e+00) (35, 7.85395193099975585938e+00) (36, -5.81343030929565429688e+00) (37, -7.18355178833007812500e+00) (38, -1.65537822246551513672e+00) (39, -3.87367677688598632812e+00) (40, -7.12952375411987304688e-01) (41, 2.56634473800659179688e+00) (11, -4.09491568803787231445e-01) (12, 1.14069454371929168701e-01) (13, 1.15438592433929443359e+00) (14, -4.09690052270889282227e-01) (15, -1.86935288365930318832e-03) (16, 1.56341210007667541504e-01) (17, 1.80365387350320816040e-02) (18, 8.19320023059844970703e-01) (19, 2.67265200614929199219e-01) (20, 2.08121538162231445312e-01) (21, 2.05016478896141052246e-01) (22, 7.38004028797149658203e-01) (23, 4.09987598657608032227e-01) (24, -3.19571763277053833008e-01) (25, 8.19604158401489257812e-01) (26, 1.88221007585525512695e-01) (27, -1.50777593255043029785e-01) (28, 1.99248403310775756836e-01) (29, -4.09690052270889282227e-01) (30, -6.98040843009948730469e-01) (31, 1.82164698839187622070e-01) (32, 4.09896403551101684570e-01) (33, 1.56918883323669433594e+00) (34, 4.09869998693466186523e-01) (35, 1.66736638545989990234e+00) (36, 6.13823533058166503906e-01) (37, 1.45555710792541503906e+00) (38, -1.16378903388977050781e+00) (39, 1.25164997577667236328e+00) (40, 1.29976487159729003906e+00) (41, -1.76709249615669250488e-01) (11, -6.89162671566009521484e-01) (12, 5.93035602569580078125e+00) (13, 1.63410294055938720703e+00) (14, -6.62243813276290893555e-02) (15, -2.80209922790527343750e+00) (16, 8.18292379379272460938e-01) (17, 7.38877281546592712402e-02) (18, -1.39324916526675224304e-02) (19, -1.69278073310852050781e+00) (20, -1.04987490177154541016e+00) (21, -3.42711782455444335938e+00) (22, 7.16543555259704589844e-01) (23, -1.18652462959289550781e+00) (24, 2.47707653045654296875e+00) (25, -1.24360430240631103516e+00) (26, 8.19379985332489013672e-01) (27, -4.09510046243667602539e-01) (28, -2.79710793495178222656e+00) (29, -5.21357107162475585938e+00) (30, 2.07037901878356933594e+00) (31, 1.98190307617187500000e+00) (32, 1.65219569206237792969e+00) (33, 2.06726431846618652344e-01) (34, 4.43171471357345581055e-01) (35, -1.51490354537963867188e+00) (36, -1.63804018497467041016e+00) (37, 2.70838713645935058594e+00) (38, 3.83184514939785003662e-02) (39, -5.58704584836959838867e-02) (40, 4.41217482089996337891e-01) (41, -2.90008807182312011719e+00) (11, 2.75158023834228515625e+00) (12, 3.41622461564838886261e-03) (13, 8.37191486358642578125e+00) (14, 3.65510463714599609375e-01) (15, 7.71484851837158203125e-01) (16, 3.75173598527908325195e-01) (17, 8.19320023059844970703e-01) (18, -1.59603571891784667969e+00) (19, 7.92246997356414794922e-01) (20, 2.85141587257385253906e-01) (21, -2.45694279670715332031e-01) (22, -6.38194620609283447266e-01) (23, -4.09919083118438720703e-01) (24, -6.88557147979736328125e-01) (25, 3.27438426017761230469e+00) (26, 3.78820204734802246094e+00) (27, 1.93926319479942321777e-01) (28, 1.42205023765563964844e+00) (29, 2.69501519203186035156e+00) (30, 7.50742077827453613281e-01) (31, -8.18674623966217041016e-01) (32, -1.68358802795410156250e+00) (33, 2.86192607879638671875e+00) (34, -9.98383853584527969360e-03) (35, -7.34286963939666748047e-01) (36, 2.05076470971107482910e-01) (37, 8.13707113265991210938e-01) (38, -2.76143527030944824219e+00) (39, 1.63828003406524658203e+00) (40, -1.74962544441223144531e+00) (41, 2.21758556365966796875e+00) (11, -3.35397175513207912445e-03) (12, -3.03965300321578979492e-01) (13, 3.34493458271026611328e-01) (14, 5.42315423488616943359e-01) (15, 4.09869998693466186523e-01) (16, 4.57129597663879394531e-01) (17, 1.55303463339805603027e-01) (18, 1.95475608110427856445e-01) (19, 4.07925605773925781250e-01) (20, 2.05016478896141052246e-01) (21, 5.73718845844268798828e-01) (22, -4.26350474357604980469e-01) (23, -2.62224841862916946411e-02) (24, 1.02362699806690216064e-01) (25, 4.18100327253341674805e-01) (26, -4.09690052270889282227e-01) (27, -2.96063303947448730469e-01) (28, 1.73477518558502197266e+00) (29, 8.19320023059844970703e-01) (30, 1.06740033626556396484e+00) (31, -4.31014364585280418396e-03) (32, 1.07705771923065185547e-01) (33, 3.74502927064895629883e-01) (34, 7.81435668468475341797e-02) (35, -2.04952359199523925781e-01) (36, 7.52984210848808288574e-02) (37, -4.09714043140411376953e-01) (38, 9.24737870693206787109e-01) (39, 2.57454425096511840820e-01) (40, 2.94733971357345581055e-01) (41, 1.53028285503387451172e+00) (11, -8.85293036699295043945e-02) (12, -2.34136247634887695312e+00) (13, 2.40530753135681152344e+00) (14, 1.48581552505493164062e+00) (15, 4.86403465270996093750e+00) (16, 3.08638215065002441406e+00) (17, 1.10679388046264648438e+00) (18, -1.42754566669464111328e+00) (19, 3.72097253799438476562e-01) (20, 8.19595992565155029297e-01) (21, -1.45524275302886962891e+00) (22, -2.45844054222106933594e+00) (23, 3.35060507059097290039e-01) (24, -8.70292782783508300781e-02) (25, 1.56776595115661621094e+00) (26, -1.83495849370956420898e-01) (27, 2.07987278699874877930e-01) (28, 7.00073719024658203125e-01) (29, -3.69831770658493041992e-01) (30, -8.87867808341979980469e-02) (31, -3.26183104515075683594e+00) (32, 1.67136013507843017578e+00) (33, 1.27214050292968750000e+00) (34, -4.09510046243667602539e-01) (35, -1.13577520847320556641e+00) (36, 3.24288606643676757812e+00) (37, 2.97131586074829101562e+00) (38, 1.50213062763214111328e-01) (39, 6.67243421077728271484e-01) (40, 4.63466383516788482666e-02) (41, 4.09694343805313110352e-01) (11, -3.27813529968261718750e+00) (12, 8.19320023059844970703e-01) (13, 1.63148903846740722656e+00) (14, 1.27140831947326660156e+00) (15, -7.21256434917449951172e-02) (16, -2.83887773752212524414e-01) (17, -1.02459348738193511963e-01) (18, 8.10534954071044921875e-01) (19, 3.88228029012680053711e-01) (20, 1.27001798152923583984e+00) (21, 2.68725186586380004883e-01) (22, 8.45246136188507080078e-01) (23, 5.83002924919128417969e-01) (24, -9.68600139021873474121e-02) (25, 1.63803875446319580078e+00) (26, 1.63835799694061279297e+00) (27, 8.03631365299224853516e-01) (28, 4.10564064979553222656e-01) (29, 8.14251184463500976562e-01) (30, 8.10534417629241943359e-01) (31, 2.48647236824035644531e+00) (32, -2.04784974455833435059e-01) (33, 2.86350917816162109375e+00) (34, 1.19163632392883300781e-01) (35, 7.70405352115631103516e-01) (36, 8.19704532623291015625e-01) (37, -1.13148123025894165039e-01) (38, 6.28625273704528808594e-01) (39, 3.21532249450683593750e-01) (40, 2.89307266473770141602e-01) (41, 1.86842456459999084473e-01) (11, 2.32778787612915039062e+00) (12, -4.09510046243667602539e-01) (13, -6.74949213862419128418e-03) (14, -5.13492301106452941895e-02) (15, 4.09869998693466186523e-01) (16, 8.19346427917480468750e-01) (17, -2.04952359199523925781e-01) (18, 5.98754286766052246094e-01) (19, 3.94240051507949829102e-01) (20, -1.02543532848358154297e+00) (21, 7.19554781913757324219e-01) (22, -5.87705433368682861328e-01) (23, -2.04952359199523925781e-01) (24, -3.98189216852188110352e-01) (25, -8.27814042568206787109e-01) (26, -2.69850268959999084473e-02) (27, -3.75212162733078002930e-01) (28, 1.00885152816772460938e+00) (29, -6.31077766418457031250e-01) (30, -3.61267328262329101562e-01) (31, 8.19379985332489013672e-01) (32, -8.68381874170154333115e-04) (33, -4.14928700774908065796e-03) (34, -1.60402345657348632812e+00) (35, 1.63923203945159912109e+00) (36, 8.19379985332489013672e-01) (37, -6.68278336524963378906e-01) (38, -4.09716427326202392578e-01) (39, 1.50677490234375000000e+00) (40, -7.31765866279602050781e-01) (41, -5.39227128028869628906e-01) (11, 2.14211559295654296875e+00) (12, -2.06395602226257324219e+00) (13, 3.54938244819641113281e+00) (14, 1.10114002227783203125e+00) (15, -1.94829910993576049805e-01) (16, 4.34253358840942382812e+00) (17, -5.61589527130126953125e+00) (18, -3.70008915662765502930e-01) (19, -2.14354589581489562988e-01) (20, -1.74581611156463623047e+00) (21, -1.09433197975158691406e+00) (22, -3.32482576370239257812e+00) (23, 1.14148187637329101562e+00) (24, -3.27534627914428710938e+00) (25, -3.82549375295639038086e-01) (26, -3.24736285209655761719e+00) (27, -3.39858078956604003906e+00) (28, 2.37403488159179687500e+00) (29, -5.08561944961547851562e+00) (30, 5.02816629409790039062e+00) (31, 2.33260107040405273438e+00) (32, 2.42401933670043945312e+00) (33, -1.78175938129425048828e+00) (34, -3.17602682113647460938e+00) (35, -7.56540358066558837891e-01) (36, 2.40215134620666503906e+00) (37, 2.06988692283630371094e-01) (38, -4.08653211593627929688e+00) (39, -3.48752331733703613281e+00) (40, -1.24777531623840332031e+00) (41, 1.34628391265869140625e+00) (11, 8.19379985332489013672e-01) (12, -3.06006707251071929932e-02) (13, 3.26988863945007324219e+00) (14, -3.52782666683197021484e-01) (15, 7.69016027450561523438e-01) (16, 8.19320023059844970703e-01) (17, -2.91302725672721862793e-02) (18, -4.09690052270889282227e-01) (19, -1.07538968324661254883e-01) (20, -1.72828927636146545410e-01) (21, 8.03282499313354492188e-01) (22, -5.16350567340850830078e-01) (23, -1.87541317939758300781e+00) (24, -6.93980336189270019531e-01) (25, 2.05016478896141052246e-01) (26, 5.18991887569427490234e-01) (27, 2.05016478896141052246e-01) (28, 1.64018583297729492188e+00) (29, -3.96898955106735229492e-01) (30, -1.02622233331203460693e-01) (31, 4.10092115402221679688e-01) (32, -7.08120942115783691406e-01) (33, 2.05057889223098754883e-01) (34, 8.11150372028350830078e-01) (35, -8.02057981491088867188e-01) (36, -5.11191189289093017578e-02) (37, 1.22540831565856933594e+00) (38, 1.99788108468055725098e-01) (39, 7.53878593444824218750e-01) (40, -4.29465584456920623779e-02) (41, -4.08309996128082275391e-01) (11, 3.27527165412902832031e+00) (12, 8.19379985332489013672e-01) (13, -4.09690052270889282227e-01) (14, -6.45055651664733886719e-01) (15, -7.96587169170379638672e-01) (16, 4.09896403551101684570e-01) (17, 6.58752858638763427734e-01) (18, 2.05016478896141052246e-01) (19, -5.13492301106452941895e-02) (20, 1.33482432365417480469e+00) (21, -1.31293427944183349609e+00) (22, 3.93457710742950439453e-01) (23, -7.07958698272705078125e-01) (24, -1.60894584655761718750e+00) (25, 6.35103523731231689453e-01) (26, 3.77371311187744140625e-01) (27, 4.09869998693466186523e-01) (28, 2.19724010676145553589e-02) (29, -1.35722529888153076172e+00) (30, -7.16671168804168701172e-01) (31, -9.07793715596199035645e-02) (32, -3.32618176937103271484e-01) (33, -1.45003414154052734375e+00) (34, 8.00592422485351562500e-01) (35, 9.12806391716003417969e-01) (36, 2.99445033073425292969e-01) (37, -8.51651281118392944336e-02) (38, 1.22867071628570556641e+00) (39, 2.45972681045532226562e+00) (40, 4.97566491365432739258e-01) (41, 6.67322039604187011719e-01) (11, -4.50760275125503540039e-01) (12, 6.51211500167846679688e-01) (13, 7.80794799327850341797e-01) (14, 3.77915859222412109375e-01) (15, -4.09690052270889282227e-01) (16, -8.86027753353118896484e-01) (17, -8.19139897823333740234e-01) (18, -6.11745953559875488281e-01) (19, 7.79006481170654296875e-01) (20, 4.03814613819122314453e-01) (21, -2.14189291000366210938e-02) (22, -2.66221817582845687866e-02) (23, -2.81423091888427734375e-01) (24, -4.43253517150878906250e-01) (25, 2.10974097251892089844e-01) (26, 5.95741689205169677734e-01) (27, -4.67574924230575561523e-01) (28, -1.63967216014862060547e+00) (29, -2.23699164390563964844e+00) (30, -4.93420148268342018127e-03) (31, 4.43112701177597045898e-01) (32, -2.67601921223104000092e-03) (33, 5.64277879893779754639e-02) (34, -7.36453890800476074219e-01) (35, 1.63091170787811279297e+00) (36, 1.03498029708862304688e+00) (37, 5.81829309463500976562e-01) (38, -4.09763634204864501953e-01) (39, -1.02418236434459686279e-01) (40, -1.85834169387817382812e-01) (41, 7.59737074375152587891e-01) (11, 8.19359838962554931641e-01) (12, 3.53457003831863403320e-01) (13, -4.07746702432632446289e-01) (14, -8.31863284111022949219e-02) (15, -5.23024499416351318359e-02) (16, 7.65996456146240234375e-01) (17, -1.02418236434459686279e-01) (18, 9.13411751389503479004e-02) (19, 8.19379985332489013672e-01) (20, 1.63835930824279785156e+00) (21, 1.35491693019866943359e+00) (22, 1.63821995258331298828e+00) (23, 5.50305247306823730469e-01) (24, 5.25516033172607421875e-01) (25, 8.18767607212066650391e-01) (26, -8.15265119075775146484e-01) (27, -1.19384813308715820312e+00) (28, -8.70711579918861389160e-02) (29, 1.26606357097625732422e+00) (30, 3.25164389610290527344e+00) (31, 1.99273422360420227051e-01) (32, 5.72194635868072509766e-01) (33, 7.88191676139831542969e-01) (34, 1.11423440277576446533e-01) (35, -1.35710704326629638672e+00) (36, 4.09869998693466186523e-01) (37, 1.51288652420043945312e+00) (38, -5.28102889657020568848e-02) (39, 2.30976477265357971191e-01) (40, -3.37628424167633056641e-01) (41, 1.20643198490142822266e+00) (11, -4.09510046243667602539e-01) (12, 2.05076470971107482910e-01) (13, -3.67248691618442535400e-02) (14, 8.19320023059844970703e-01) (15, -1.65045902132987976074e-01) (16, -7.31788635253906250000e-01) (17, 3.39317888021469116211e-01) (18, 8.66135209798812866211e-03) (19, -7.22796797752380371094e-01) (20, -4.91886138916015625000e-01) (21, -8.19139897823333740234e-01) (22, 8.19379985332489013672e-01) (23, 1.21121339499950408936e-01) (24, 8.19379985332489013672e-01) (25, -8.19200098514556884766e-01) (26, 7.69156754016876220703e-01) (27, 1.06576025485992431641e-01) (28, -5.51399528980255126953e-01) (29, 8.06564509868621826172e-01) (30, 6.95948660373687744141e-01) (31, -2.84219142049551010132e-02) (32, -4.04776692390441894531e-01) (33, 4.44301590323448181152e-02) (34, -4.09690052270889282227e-01) (35, -7.73042798042297363281e-01) (36, -3.31648498773574829102e-01) (37, 7.37418234348297119141e-01) (38, 1.63870894908905029297e+00) (39, -7.70602107048034667969e-01) (40, -6.75137162208557128906e-01) (41, -8.19139897823333740234e-01) (11, 3.94432067871093750000e-01) (12, 1.82484030723571777344e+00) (13, 8.19320023059844970703e-01) (14, -2.80572295188903808594e-01) (15, -1.08593153953552246094e+00) (16, 4.09869998693466186523e-01) (17, -9.49323922395706176758e-02) (18, 6.77494466304779052734e-01) (19, -8.12985360622406005859e-01) (20, 8.19320023059844970703e-01) (21, 1.36822974681854248047e+00) (22, 8.06756496429443359375e-01) (23, -1.37904596328735351562e+00) (24, 1.07522845268249511719e+00) (25, -6.41328155994415283203e-01) (26, 3.03119033575057983398e-01) (27, -1.76593613624572753906e+00) (28, 1.75868201255798339844e+00) (29, 1.48668992519378662109e+00) (30, -4.09510046243667602539e-01) (31, 1.57501125335693359375e+00) (32, -1.57763823866844177246e-01) (33, -1.57421863079071044922e+00) (34, 3.57531338930130004883e-01) (35, 5.61693077906966209412e-03) (36, -1.02418236434459686279e-01) (37, -2.05041065812110900879e-01) (38, 2.05100476741790771484e-01) (39, 1.63133406639099121094e+00) (40, -1.65877699851989746094e-01) (41, 9.17017310857772827148e-02) (11, 8.15367460250854492188e-01) (12, 1.09065920114517211914e-01) (13, -1.22213470935821533203e+00) (14, 1.01723933219909667969e+00) (15, 3.94240051507949829102e-01) (16, -5.02997338771820068359e-01) (17, 4.09869998693466186523e-01) (18, 1.11870989203453063965e-01) (19, 7.14259862899780273438e-01) (20, 5.26904106140136718750e-01) (21, 6.68040990829467773438e-01) (22, 1.24619269371032714844e+00) (23, -1.97013437747955322266e-01) (24, 4.09930020570755004883e-01) (25, 8.19320023059844970703e-01) (26, 6.99936032295227050781e-01) (27, 2.42409147322177886963e-02) (28, -6.07596099376678466797e-01) (29, 7.82429754734039306641e-01) (30, 2.61427462100982666016e-02) (31, 1.62557080388069152832e-01) (32, 4.09869998693466186523e-01) (33, 2.84164249897003173828e-02) (34, -7.01415181159973144531e-01) (35, 6.30994915962219238281e-01) (36, -4.09510046243667602539e-01) (37, -4.09690052270889282227e-01) (38, 4.32952582836151123047e-01) (39, 1.61302673816680908203e+00) (40, -1.75501242280006408691e-01) (41, -1.69854596257209777832e-01) (11, 4.09869998693466186523e-01) (12, 7.02862918376922607422e-01) (13, -1.58836603164672851562e+00) (14, 2.34888768196105957031e+00) (15, -1.34203885681927204132e-03) (16, 7.05502927303314208984e-01) (17, -4.09510046243667602539e-01) (18, 8.20183634757995605469e-01) (19, 1.90409377217292785645e-01) (20, 1.62776517868041992188e+00) (21, 2.63350033760070800781e+00) (22, -1.23560197651386260986e-01) (23, 1.67292916774749755859e+00) (24, 1.28195071220397949219e+00) (25, -1.63772058486938476562e+00) (26, -4.99300612136721611023e-03) (27, 6.77383422851562500000e-01) (28, 1.50158512592315673828e+00) (29, 2.59522151947021484375e+00) (30, 2.70241546630859375000e+00) (31, 4.10127937793731689453e-01) (32, 7.84091651439666748047e-01) (33, -6.38311803340911865234e-01) (34, 8.19543182849884033203e-01) (35, -1.78917324542999267578e+00) (36, -4.09690052270889282227e-01) (37, -2.49132847785949707031e+00) (38, -8.46843183040618896484e-01) (39, 2.76275783777236938477e-01) (40, 8.03111717104911804199e-02) (41, 2.76109290122985839844e+00) (11, -4.15900993347167968750e+00) (12, 3.39239287376403808594e+00) (13, 5.83461856842041015625e+00) (14, 1.63844335079193115234e+00) (15, -4.09714013338088989258e-01) (16, -1.39264798164367675781e+00) (17, -3.92454236745834350586e-01) (18, 8.19379985332489013672e-01) (19, 1.33604168891906738281e+00) (20, -7.83363878726959228516e-01) (21, -6.49825870990753173828e-01) (22, 6.06541812419891357422e-01) (23, -6.49448692798614501953e-01) (24, -9.32752490043640136719e-01) (25, 1.46834790706634521484e+00) (26, 5.05484962463378906250e+00) (27, 8.17091047763824462891e-01) (28, 3.83967351913452148438e+00) (29, 1.09433269500732421875e+00) (30, 2.26825881004333496094e+00) (31, 3.24074244499206542969e+00) (32, -4.09763813018798828125e-01) (33, 2.86712694168090820312e+00) (34, 8.18064630031585693359e-01) (35, -3.86820983886718750000e+00) (36, -4.07530009746551513672e-01) (37, -3.90730619430541992188e-01) (38, 2.46038436889648437500e+00) (39, -1.50350248813629150391e+00) (40, -8.15969467163085937500e-01) (41, -1.81272998452186584473e-01) (11, 1.76749897003173828125e+00) (12, 2.04142951965332031250e+00) (13, -2.14245152473449707031e+00) (14, -8.19477021694183349609e-01) (15, -1.83541250228881835938e+00) (16, 5.36603391170501708984e-01) (17, -2.50243163108825683594e+00) (18, -8.19139897823333740234e-01) (19, 4.09869998693466186523e-01) (20, -2.79930496215820312500e+00) (21, -6.80388689041137695312e-01) (22, 3.40021133422851562500e+00) (23, -1.27918064594268798828e+00) (24, 2.94152641296386718750e+00) (25, -9.48179423809051513672e-01) (26, 8.76734733581542968750e-01) (27, 1.75352966785430908203e+00) (28, -1.61106681823730468750e+00) (29, -3.27348852157592773438e+00) (30, -2.44108867645263671875e+00) (31, 1.72091972827911376953e+00) (32, -3.89329719543457031250e+00) (33, -2.25555419921875000000e-01) (34, -2.54459190368652343750e+00) (35, 4.07697260379791259766e-01) (36, -3.27586412429809570312e+00) (37, -8.19808125495910644531e-01) (38, 8.19379985332489013672e-01) (39, 4.10098701715469360352e-01) (40, -2.93444782495498657227e-01) (41, -3.17421102523803710938e+00) (11, 7.98473417758941650391e-01) (12, 1.15736341476440429688e+00) (13, 2.93666100502014160156e+00) (14, 2.97946661710739135742e-01) (15, -2.04952359199523925781e-01) (16, -5.50333499908447265625e-01) (17, -2.04952359199523925781e-01) (18, 3.57005000114440917969e-01) (19, -3.50422471761703491211e-01) (20, 1.31552374362945556641e+00) (21, 2.82910346984863281250e+00) (22, -1.45625865459442138672e+00) (23, 2.05016478896141052246e-01) (24, -8.89360010623931884766e-01) (25, -1.09506249427795410156e-02) (26, 4.90772947669029235840e-02) (27, -8.19370329380035400391e-01) (28, 1.63966083526611328125e+00) (29, -1.58903077244758605957e-01) (30, 5.99402606487274169922e-01) (31, 1.49952459335327148438e+00) (32, 8.19346427917480468750e-01) (33, -1.63800621032714843750e+00) (34, 3.70425045490264892578e-01) (35, -1.34695172309875488281e-02) (36, 4.09930020570755004883e-01) (37, -8.49165320396423339844e-01) (38, -8.15065562725067138672e-01) (39, 7.08036795258522033691e-02) (40, 8.19379985332489013672e-01) (41, 7.19848453998565673828e-01) (11, 1.34604287147521972656e+00) (12, 2.05076470971107482910e-01) (13, -1.02531366050243377686e-01) (14, 8.19320023059844970703e-01) (15, -1.82915553450584411621e-01) (16, -8.91580656170845031738e-02) (17, 7.13962793350219726562e-01) (18, 3.93609881401062011719e-01) (19, -5.89311063289642333984e-01) (20, 6.44437968730926513672e-01) (21, 6.57341778278350830078e-01) (22, -2.04784974455833435059e-01) (23, 4.09869998693466186523e-01) (24, -2.57929600775241851807e-02) (25, 8.09235155582427978516e-01) (26, 8.19320023059844970703e-01) (27, -1.31711673736572265625e+00) (28, -2.16432762145996093750e+00) (29, 1.03549194335937500000e+00) (30, -6.90862163901329040527e-02) (31, 1.93704590201377868652e-01) (32, 8.19320023059844970703e-01) (33, 8.05907487869262695312e-01) (34, -3.44594269990921020508e-01) (35, 7.97727882862091064453e-01) (36, -1.02418236434459686279e-01) (37, 3.23440504074096679688e+00) (38, -6.65836215019226074219e-01) (39, -4.07245546579360961914e-01) (40, -4.09510046243667602539e-01) (41, -6.85340464115142822266e-01) (11, 8.19379985332489013672e-01) (12, -9.61029157042503356934e-02) (13, -4.09973204135894775391e-01) (14, -1.02531366050243377686e-01) (15, -1.28161478042602539062e+00) (16, 6.84600830078125000000e-01) (17, 4.07346814870834350586e-01) (18, -5.84277033805847167969e-01) (19, 2.69000142812728881836e-01) (20, -8.19788873195648193359e-01) (21, -4.09690052270889282227e-01) (22, 8.19379985332489013672e-01) (23, 2.05016478896141052246e-01) (24, 3.27624297142028808594e+00) (25, -3.76209229230880737305e-01) (26, -6.96681499481201171875e-01) (27, 2.03001782298088073730e-01) (28, -2.62637376785278320312e+00) (29, 8.19320023059844970703e-01) (30, 6.57040238380432128906e-01) (31, 1.63841688632965087891e+00) (32, -1.36431425809860229492e-01) (33, 7.44031608104705810547e-01) (34, -4.09690052270889282227e-01) (35, 1.62397933006286621094e+00) (36, -3.76375973224639892578e-01) (37, -2.09900349378585815430e-01) (38, 1.54559874534606933594e+00) (39, 1.26463815569877624512e-01) (40, -1.63778626918792724609e+00) (41, 2.29176616668701171875e+00) (11, -2.76588058471679687500e+00) (12, 2.09865361452102661133e-01) (13, 1.48905050754547119141e+00) (14, -5.25851733982563018799e-02) (15, -4.09919083118438720703e-01) (16, 6.05843737721443176270e-02) (17, -4.09690052270889282227e-01) (18, 2.55072832107543945312e-01) (19, -1.13372206687927246094e+00) (20, 1.53408154845237731934e-01) (21, 8.38891506195068359375e-01) (22, 2.05076470971107482910e-01) (23, -8.19792985916137695312e-01) (24, 3.92153561115264892578e-01) (25, 3.99028182029724121094e-01) (26, 8.09086710214614868164e-02) (27, 5.00974237918853759766e-01) (28, 6.22552394866943359375e-01) (29, -6.69035091996192932129e-02) (30, -1.63404166698455810547e+00) (31, -8.10374438762664794922e-01) (32, 3.51366549730300903320e-01) (33, 1.63824641704559326172e+00) (34, -6.02995336055755615234e-01) (35, -8.18503439426422119141e-01) (36, 1.15464115142822265625e+00) (37, 3.24989676475524902344e+00) (38, -6.30961358547210693359e-01) (39, 1.16121239960193634033e-01) (40, 1.94536462426185607910e-01) (41, 3.34063351154327392578e-01) (11, 2.05016478896141052246e-01) (12, 1.39793956279754638672e+00) (13, -3.48311853408813476562e+00) (14, -4.09483641386032104492e-01) (15, -8.98143768310546875000e-01) (16, 1.62543141841888427734e+00) (17, 1.09396922588348388672e+00) (18, -1.02459348738193511963e-01) (19, 1.37699007987976074219e+00) (20, 1.25140213966369628906e+00) (21, -8.19516301155090332031e-01) (22, 3.27602005004882812500e+00) (23, -2.04834729433059692383e-01) (24, 2.05016478896141052246e-01) (25, 3.52090597152709960938e-01) (26, -1.25008463859558105469e+00) (27, 1.63844335079193115234e+00) (28, 9.15642917156219482422e-01) (29, 2.11953687667846679688e+00) (30, 2.05016478896141052246e-01) (31, 1.11795671284198760986e-01) (32, 7.90722072124481201172e-01) (33, -5.90567708015441894531e-01) (34, -8.13443899154663085938e-01) (35, 1.15702593326568603516e+00) (36, 2.05016478896141052246e-01) (37, -1.25152361392974853516e+00) (38, 1.34595811367034912109e+00) (39, 7.30596259236335754395e-02) (40, 4.10067737102508544922e-01) (41, 1.20495811104774475098e-01) (11, -2.86595135927200317383e-01) (12, -8.14218759536743164062e-01) (13, 1.63849616050720214844e+00) (14, 4.09930020570755004883e-01) (15, -4.09510046243667602539e-01) (16, 4.08700376749038696289e-01) (17, 4.09930020570755004883e-01) (18, 7.74548411369323730469e-01) (19, -6.99455797672271728516e-01) (20, -3.57769310474395751953e-01) (21, 1.95867836475372314453e+00) (22, 1.39833733439445495605e-01) (23, 6.04428112506866455078e-01) (24, 3.64941284060478210449e-02) (25, 1.57447829842567443848e-01) (26, -6.75358057022094726562e-01) (27, 1.23969532549381256104e-01) (28, 1.64064216613769531250e+00) (29, 9.18402522802352905273e-03) (30, 2.47799634933471679688e+00) (31, 2.33373427391052246094e+00) (32, 6.56752884387969970703e-02) (33, -6.82748317718505859375e-01) (34, 8.13042581081390380859e-01) (35, -1.63786017894744873047e+00) (36, -3.85888546705245971680e-01) (37, -6.22752606868743896484e-01) (38, 2.49214458465576171875e+00) (39, 2.05016478896141052246e-01) (40, 1.95043399930000305176e-01) (41, 1.42867803573608398438e+00) (11, -3.64515751600265502930e-01) (12, 8.19320023059844970703e-01) (13, -5.00814914703369140625e-02) (14, 8.67485702037811279297e-02) (15, -4.09510046243667602539e-01) (16, 4.46805328130722045898e-01) (17, -1.10897707939147949219e+00) (18, -1.02418236434459686279e-01) (19, 1.34438526630401611328e+00) (20, 1.39463663101196289062e+00) (21, -1.09053540229797363281e+00) (22, 4.09869998693466186523e-01) (23, 3.96663434803485870361e-02) (24, -1.91468626260757446289e-01) (25, 1.63844335079193115234e+00) (26, 4.09930020570755004883e-01) (27, -1.03694185614585876465e-01) (28, 2.05076470971107482910e-01) (29, -1.56212866306304931641e+00) (30, 5.34894168376922607422e-02) (31, -8.68617221713066101074e-02) (32, -2.95232623815536499023e-01) (33, 8.64382758736610412598e-02) (34, 7.84839272499084472656e-01) (35, 6.73219859600067138672e-01) (36, 8.19320023059844970703e-01) (37, 3.12594383955001831055e-01) (38, 2.24971771240234375000e+00) (39, 1.20656919479370117188e+00) (40, -7.27444812655448913574e-02) (41, -1.21242129802703857422e+00) (11, -5.13021536171436309814e-02) (12, 1.60700249671936035156e+00) (13, 7.24912822246551513672e-01) (14, 1.21445789933204650879e-01) (15, -8.17451894283294677734e-01) (16, 8.19320023059844970703e-01) (17, 8.09888076037168502808e-03) (18, -1.40544082969427108765e-02) (19, -5.47291636466979980469e-01) (20, 1.34307372570037841797e+00) (21, -4.10032957792282104492e-01) (22, -8.18959891796112060547e-01) (23, -6.01965665817260742188e-01) (24, 1.71371459960937500000e+00) (25, 2.73111820220947265625e-01) (26, 8.11484694480895996094e-01) (27, 1.61582663655281066895e-01) (28, 1.45627057552337646484e+00) (29, 6.81199908256530761719e-01) (30, 1.22118508815765380859e+00) (31, -4.11384344100952148438e-01) (32, -8.19139897823333740234e-01) (33, 1.63838326930999755859e+00) (34, 8.19320023059844970703e-01) (35, 1.24708342552185058594e+00) (36, -5.69515347480773925781e-01) (37, 6.76356971263885498047e-01) (38, -1.89650282263755798340e-01) (39, 3.63876879215240478516e-01) (40, -1.53623783588409423828e+00) (41, -2.03678429126739501953e-01) (42, -3.19322571158409118652e-02) (43, 3.55540037155151367188e-01) (44, 3.72578978538513183594e+00) (45, 1.04802802205085754395e-01) (46, 2.20095610618591308594e+00) (47, -1.31089580059051513672e+00) (48, 4.09869998693466186523e-01) (49, 7.97986686229705810547e-01) (50, -4.33844864368438720703e-01) (51, -1.20074725151062011719e+00) (52, 6.98556303977966308594e-01) (53, 3.41850310564041137695e-01) (54, 1.39999866485595703125e-01) (55, 8.19379985332489013672e-01) (56, 2.60382962226867675781e+00) (57, -7.98215627670288085938e-01) (58, 8.19379985332489013672e-01) (59, 1.59964489936828613281e+00) (60, 1.63447487354278564453e+00) (61, -5.88623881340026855469e-01) (62, 2.05016478896141052246e-01) (63, 8.19379985332489013672e-01) (64, 8.19320023059844970703e-01) (65, 3.45156490802764892578e-01) (66, 8.19379985332489013672e-01) (67, -1.01779647171497344971e-01) (68, -4.09510046243667602539e-01) (69, -4.05347794294357299805e-01) (70, -1.29768633842468261719e+00) (71, 8.19320023059844970703e-01) (72, -2.82491654157638549805e-01) (42, -9.87851083278656005859e-01) (43, 1.05365693569183349609e+00) (44, -5.20663298666477203369e-02) (45, 3.27602005004882812500e+00) (46, 8.00988674163818359375e-01) (47, -3.44087243080139160156e-01) (48, 8.26552271842956542969e-01) (49, 9.81130972504615783691e-02) (50, -7.53092706203460693359e-01) (51, -2.74386435747146606445e-01) (52, 1.41165745258331298828e+00) (53, -3.63595962524414062500e-01) (54, 8.56003224849700927734e-01) (55, 3.97831887006759643555e-01) (56, 8.19459199905395507812e-01) (57, -7.93945252895355224609e-01) (58, 7.08958446979522705078e-01) (59, 8.02253365516662597656e-01) (60, 1.41530930995941162109e+00) (61, 5.52794262766838073730e-02) (62, -8.52928459644317626953e-01) (63, 1.54014122486114501953e+00) (64, 7.68155097961425781250e-01) (65, 7.15969562530517578125e-01) (66, 4.09930020570755004883e-01) (67, 6.62385761737823486328e-01) (68, -4.37050342559814453125e-01) (69, -8.94065082073211669922e-01) (70, -5.47096252441406250000e-01) (71, -1.80949382483959197998e-02) (72, 6.80436134338378906250e-01) (42, -1.53883164748549461365e-02) (43, 4.04776722192764282227e-01) (44, 3.75937294960021972656e+00) (45, 1.06052964925765991211e-01) (46, 2.26609182357788085938e+00) (47, -1.44658923149108886719e+00) (48, 4.12810564041137695312e-01) (49, 2.06069782376289367676e-01) (50, -4.09690052270889282227e-01) (51, -1.20229589939117431641e+00) (52, 7.72882342338562011719e-01) (53, 3.06554138660430908203e-01) (54, 1.63830444216728210449e-01) (55, 8.19516777992248535156e-01) (56, 2.46943283081054687500e+00) (57, -8.19163918495178222656e-01) (58, 8.19543182849884033203e-01) (59, 1.57219159603118896484e+00) (60, 1.64911878108978271484e+00) (61, -6.22005641460418701172e-01) (62, 2.05016478896141052246e-01) (63, 8.19379985332489013672e-01) (64, 8.19483220577239990234e-01) (65, 3.93026202917098999023e-01) (66, 8.19379985332489013672e-01) (67, -9.29487645626068115234e-02) (68, -4.09802675247192382812e-01) (69, -4.09681856632232666016e-01) (70, -1.29058980941772460938e+00) (71, 8.25692296028137207031e-01) (72, -1.92138133570551872253e-03) (42, -9.23570036888122558594e-01) (43, 9.97862219810485839844e-01) (44, -1.94267760962247848511e-02) (45, 3.36393237113952636719e+00) (46, 8.21432590484619140625e-01) (47, -4.09714013338088989258e-01) (48, 8.56791079044342041016e-01) (49, -1.98188737034797668457e-01) (50, -6.85356199741363525391e-01) (51, -2.37553089857101440430e-01) (52, 1.48473584651947021484e+00) (53, -4.09510046243667602539e-01) (54, 8.19346427917480468750e-01) (55, 4.48403745889663696289e-01) (56, 8.19379985332489013672e-01) (57, -8.12077760696411132812e-01) (58, 6.34137928485870361328e-01) (59, 8.19379985332489013672e-01) (60, 1.44563448429107666016e+00) (61, -9.71435476094484329224e-03) (62, -8.65440666675567626953e-01) (63, 1.54697966575622558594e+00) (64, 7.88518130779266357422e-01) (65, 7.51364111900329589844e-01) (66, 4.85505461692810058594e-01) (67, 6.60324931144714355469e-01) (68, -4.19818609952926635742e-01) (69, -8.79281342029571533203e-01) (70, -6.45011603832244873047e-01) (71, -2.33961082994937896729e-02) (72, 7.05398619174957275391e-01)
input_names='a' 'betan' 'bt' 'delta' 'ip' 'kappa' 'm' 'neped' 'r' 'zeffped'
output_names='OUT_p_E1_0' 'OUT_p_E1_2' 'OUT_wid_E1_0' 'OUT_wid_E1_2'
norm_output=-0.0612009513967089 0.08463866669351344 1.3229183028636258 0.6384261703759534 0.4617626301652434 0.6330016185947801 -0.0663645263723127 0.17848062390483094 -0.4873485415774629 0.13199789420026525 -0.3234536018618778 0.01776433839025863 1.236412391725945 0.7131596622358183 0.42101041225383207 -0.02424551070912206 -0.0666324653875944 0.2657558103649005 -0.1134693909918785 0.18988212735076931 0.9645000013847992 0.04216305287323733 0.6614822236221719 0.3293018137810492 -0.7691605015850322 1.0091786589210343 -0.033100882321216 0.08925126672911614 -0.23933015355442852 0.06593788558362579 0.8334580898876508 0.008706138813282641 0.6182356088022248 0.36671304286321704 -0.7895685108359518 0.6807940990092245 -0.03319028982438394 0.13287725773642697 -0.05241199060256324 0.0948785256663244
MSE= 0.325044393539