FANN_FLO_2.1
num_layers=5
learning_rate=0.700000
connection_rate=1.000000
network_type=0
learning_momentum=0.000000
training_algorithm=2
train_error_function=0
train_stop_function=0
cascade_output_change_fraction=0.010000
quickprop_decay=884.198547
quickprop_mu=1.750000
rprop_increase_factor=1.200000
rprop_decrease_factor=0.500000
rprop_delta_min=0.000000
rprop_delta_max=50.000000
rprop_delta_zero=0.100000
cascade_output_stagnation_epochs=12
cascade_candidate_change_fraction=0.010000
cascade_candidate_stagnation_epochs=12
cascade_max_out_epochs=150
cascade_min_out_epochs=50
cascade_max_cand_epochs=150
cascade_min_cand_epochs=50
cascade_num_candidate_groups=2
bit_fail_limit=3.49999994039535522461e-01
cascade_candidate_limit=1.00000000000000000000e+03
cascade_weight_multiplier=4.00000005960464477539e-01
cascade_activation_functions_count=10
cascade_activation_functions=3 5 7 8 10 11 14 15 16 17
cascade_activation_steepnesses_count=4
cascade_activation_steepnesses=2.50000000000000000000e-01 5.00000000000000000000e-01 7.50000000000000000000e-01 1.00000000000000000000e+00
layer_sizes=7 31 31 31 7
scale_included=1
scale_mean_in=0.200000 5.500000 -0.446233 0.798540 2.000000 0.586316
scale_deviation_in=0.096271 2.796810 1.048893 0.131916 0.670323 0.139613
scale_new_min_in=-1.000000 -1.000000 -1.000000 -1.000000 -1.000000 -1.000000
scale_factor_in=1.000000 1.000000 1.000000 1.000000 1.000000 1.000000
scale_mean_out=0.361187 0.694808 0.126587 0.400913 0.469681 0.086611
scale_deviation_out=0.231777 0.493533 0.149526 0.195050 0.307003 0.084489
scale_new_min_out=-1.000000 -1.000000 -1.000000 -1.000000 -1.000000 -1.000000
scale_factor_out=1.000000 1.000000 1.000000 1.000000 1.000000 1.000000
neurons (num_inputs, activation_function, activation_steepness)=(0, 0, 0.00000000000000000000e+00) (0, 0, 0.00000000000000000000e+00) (0, 0, 0.00000000000000000000e+00) (0, 0, 0.00000000000000000000e+00) (0, 0, 0.00000000000000000000e+00) (0, 0, 0.00000000000000000000e+00) (0, 0, 0.00000000000000000000e+00) (7, 5, 5.00000000000000000000e-01) (7, 5, 5.00000000000000000000e-01) (7, 5, 5.00000000000000000000e-01) (7, 5, 5.00000000000000000000e-01) (7, 5, 5.00000000000000000000e-01) (7, 5, 5.00000000000000000000e-01) (7, 5, 5.00000000000000000000e-01) (7, 5, 5.00000000000000000000e-01) (7, 5, 5.00000000000000000000e-01) (7, 5, 5.00000000000000000000e-01) (7, 5, 5.00000000000000000000e-01) (7, 5, 5.00000000000000000000e-01) (7, 5, 5.00000000000000000000e-01) (7, 5, 5.00000000000000000000e-01) (7, 5, 5.00000000000000000000e-01) (7, 5, 5.00000000000000000000e-01) (7, 5, 5.00000000000000000000e-01) (7, 5, 5.00000000000000000000e-01) (7, 5, 5.00000000000000000000e-01) (7, 5, 5.00000000000000000000e-01) (7, 5, 5.00000000000000000000e-01) (7, 5, 5.00000000000000000000e-01) (7, 5, 5.00000000000000000000e-01) (7, 5, 5.00000000000000000000e-01) (7, 5, 5.00000000000000000000e-01) (7, 5, 5.00000000000000000000e-01) (7, 5, 5.00000000000000000000e-01) (7, 5, 5.00000000000000000000e-01) (7, 5, 5.00000000000000000000e-01) (7, 5, 5.00000000000000000000e-01) (0, 5, 0.00000000000000000000e+00) (31, 5, 5.00000000000000000000e-01) (31, 5, 5.00000000000000000000e-01) (31, 5, 5.00000000000000000000e-01) (31, 5, 5.00000000000000000000e-01) (31, 5, 5.00000000000000000000e-01) (31, 5, 5.00000000000000000000e-01) (31, 5, 5.00000000000000000000e-01) (31, 5, 5.00000000000000000000e-01) (31, 5, 5.00000000000000000000e-01) (31, 5, 5.00000000000000000000e-01) (31, 5, 5.00000000000000000000e-01) (31, 5, 5.00000000000000000000e-01) (31, 5, 5.00000000000000000000e-01) (31, 5, 5.00000000000000000000e-01) (31, 5, 5.00000000000000000000e-01) (31, 5, 5.00000000000000000000e-01) (31, 5, 5.00000000000000000000e-01) (31, 5, 5.00000000000000000000e-01) (31, 5, 5.00000000000000000000e-01) (31, 5, 5.00000000000000000000e-01) (31, 5, 5.00000000000000000000e-01) (31, 5, 5.00000000000000000000e-01) (31, 5, 5.00000000000000000000e-01) (31, 5, 5.00000000000000000000e-01) (31, 5, 5.00000000000000000000e-01) (31, 5, 5.00000000000000000000e-01) (31, 5, 5.00000000000000000000e-01) (31, 5, 5.00000000000000000000e-01) (31, 5, 5.00000000000000000000e-01) (31, 5, 5.00000000000000000000e-01) (0, 5, 0.00000000000000000000e+00) (31, 5, 5.00000000000000000000e-01) (31, 5, 5.00000000000000000000e-01) (31, 5, 5.00000000000000000000e-01) (31, 5, 5.00000000000000000000e-01) (31, 5, 5.00000000000000000000e-01) (31, 5, 5.00000000000000000000e-01) (31, 5, 5.00000000000000000000e-01) (31, 5, 5.00000000000000000000e-01) (31, 5, 5.00000000000000000000e-01) (31, 5, 5.00000000000000000000e-01) (31, 5, 5.00000000000000000000e-01) (31, 5, 5.00000000000000000000e-01) (31, 5, 5.00000000000000000000e-01) (31, 5, 5.00000000000000000000e-01) (31, 5, 5.00000000000000000000e-01) (31, 5, 5.00000000000000000000e-01) (31, 5, 5.00000000000000000000e-01) (31, 5, 5.00000000000000000000e-01) (31, 5, 5.00000000000000000000e-01) (31, 5, 5.00000000000000000000e-01) (31, 5, 5.00000000000000000000e-01) (31, 5, 5.00000000000000000000e-01) (31, 5, 5.00000000000000000000e-01) (31, 5, 5.00000000000000000000e-01) (31, 5, 5.00000000000000000000e-01) (31, 5, 5.00000000000000000000e-01) (31, 5, 5.00000000000000000000e-01) (31, 5, 5.00000000000000000000e-01) (31, 5, 5.00000000000000000000e-01) (31, 5, 5.00000000000000000000e-01) (0, 5, 0.00000000000000000000e+00) (31, 0, 5.00000000000000000000e-01) (31, 0, 5.00000000000000000000e-01) (31, 0, 5.00000000000000000000e-01) (31, 0, 5.00000000000000000000e-01) (31, 0, 5.00000000000000000000e-01) (31, 0, 5.00000000000000000000e-01) (0, 0, 0.00000000000000000000e+00)
connections (connected_to_neuron, weight)=(0, 2.50896573066711425781e-01) (1, 4.22945201396942138672e-01) (2, 1.26410889625549316406e+00) (3, 3.96784663200378417969e-01) (4, 2.04587832093238830566e-01) (5, 6.32701277732849121094e-01) (6, 4.18105237185955047607e-02) (0, -2.41934075951576232910e-01) (1, 1.34732007980346679688e-01) (2, 6.40918135643005371094e-01) (3, 2.59164035320281982422e-01) (4, -1.67057171463966369629e-01) (5, -6.28729701042175292969e-01) (6, -8.30022275447845458984e-01) (0, 9.80585455894470214844e-01) (1, 3.64917397499084472656e-01) (2, 5.05736887454986572266e-01) (3, 2.61845946311950683594e-01) (4, -5.39523437619209289551e-02) (5, -3.74050676822662353516e-01) (6, 9.81649041175842285156e-01) (0, 6.76400125026702880859e-01) (1, 5.58687031269073486328e-01) (2, 2.30644178390502929688e+00) (3, 3.25356751680374145508e-01) (4, -1.14520169794559478760e-01) (5, -9.35279309749603271484e-01) (6, 4.96458530426025390625e-01) (0, -5.53925216197967529297e-01) (1, 1.15602605044841766357e-01) (2, 1.16114521026611328125e+00) (3, 2.77249366044998168945e-01) (4, 7.86720681935548782349e-03) (5, -6.77236169576644897461e-02) (6, 7.65705287456512451172e-01) (0, -3.16665649414062500000e-01) (1, 4.85334396362304687500e-02) (2, 2.64782845973968505859e-01) (3, 5.45760802924633026123e-02) (4, -1.33431637287139892578e+00) (5, 1.51541054248809814453e-01) (6, 9.44332122802734375000e-01) (0, -1.81316778063774108887e-01) (1, -2.96500265598297119141e-01) (2, -1.06529831886291503906e+00) (3, 2.05524250864982604980e-01) (4, -1.33058115839958190918e-01) (5, 9.73631381988525390625e-01) (6, 2.78350293636322021484e-01) (0, -4.07193720340728759766e-01) (1, 1.66533708572387695312e-01) (2, -2.75543835014104843140e-02) (3, 2.43321865797042846680e-01) (4, -2.70563662052154541016e-01) (5, -3.19806069135665893555e-01) (6, 2.22817969322204589844e+00) (0, 5.30515432357788085938e-01) (1, -3.31318676471710205078e-01) (2, 5.17706871032714843750e-01) (3, 4.85467523336410522461e-01) (4, 4.36322033405303955078e-01) (5, 3.98687213659286499023e-01) (6, -1.86186671257019042969e-01) (0, 3.44094663858413696289e-01) (1, 1.77410244941711425781e-01) (2, 7.65591740608215332031e-01) (3, 2.25833162665367126465e-01) (4, -3.40517431497573852539e-01) (5, 7.11976945400238037109e-01) (6, -1.82670724391937255859e+00) (0, 3.09261053800582885742e-01) (1, -4.65924471616744995117e-01) (2, -6.06471955776214599609e-01) (3, 2.13038161396980285645e-01) (4, -1.76389321684837341309e-01) (5, 4.56989407539367675781e-02) (6, -9.02647897601127624512e-02) (0, -3.68688888847827911377e-02) (1, 4.61714297533035278320e-01) (2, -9.79574143886566162109e-01) (3, -1.99937261641025543213e-02) (4, 2.19481736421585083008e-01) (5, 4.45169687271118164062e-01) (6, -5.30518054962158203125e-01) (0, -9.96709987521171569824e-02) (1, 1.11756220459938049316e-01) (2, -1.77907198667526245117e-01) (3, 7.78562664985656738281e-01) (4, 3.00316244363784790039e-01) (5, 5.09535253047943115234e-01) (6, 9.23742949962615966797e-02) (0, -1.47576317191123962402e-01) (1, -6.51088580489158630371e-02) (2, -2.34790503978729248047e-01) (3, -8.89142572879791259766e-01) (4, -2.68059879541397094727e-01) (5, -2.08159953355789184570e-01) (6, 1.51662611961364746094e+00) (0, 2.68275171518325805664e-01) (1, 2.11888492107391357422e-01) (2, 1.75479114055633544922e-01) (3, 2.40401595830917358398e-01) (4, 6.69953465461730957031e-01) (5, -5.95973670482635498047e-01) (6, -3.98089528083801269531e-01) (0, -1.53193529695272445679e-02) (1, 8.19923132658004760742e-02) (2, 2.79430091381072998047e-01) (3, -1.38058006763458251953e-01) (4, 4.05482918024063110352e-01) (5, 6.21636331081390380859e-01) (6, -1.57201790809631347656e+00) (0, 2.54457980394363403320e-01) (1, -2.15836912393569946289e-01) (2, -1.94736897945404052734e-01) (3, -3.52889597415924072266e-01) (4, 6.80261909961700439453e-01) (5, 9.73593443632125854492e-02) (6, -9.62450206279754638672e-01) (0, -2.72367328405380249023e-01) (1, 1.86687707901000976562e-01) (2, 1.19023537635803222656e+00) (3, 7.49422311782836914062e-01) (4, -4.74355323240160942078e-03) (5, 6.87854707241058349609e-01) (6, 8.57266843318939208984e-01) (0, 1.35619893670082092285e-01) (1, 1.16521626710891723633e-01) (2, -4.96747121214866638184e-02) (3, 8.45151469111442565918e-02) (4, 7.58488237857818603516e-01) (5, 1.74997881054878234863e-01) (6, 1.73341527581214904785e-01) (0, 6.49354815483093261719e-01) (1, 1.62399515509605407715e-01) (2, 4.72958832979202270508e-01) (3, -2.95914500951766967773e-01) (4, -7.42412388324737548828e-01) (5, -3.94762933254241943359e-01) (6, 6.26898288726806640625e-01) (0, -1.48164808750152587891e-01) (1, 5.83028256893157958984e-01) (2, 1.00195562839508056641e+00) (3, 8.31631049513816833496e-02) (4, -3.22793126106262207031e-01) (5, -5.08355319499969482422e-01) (6, 1.01784288883209228516e+00) (0, 4.88379389047622680664e-01) (1, 2.77824074029922485352e-01) (2, 1.06306862831115722656e+00) (3, 1.81827485561370849609e-01) (4, -4.18348610401153564453e-01) (5, 4.93110507726669311523e-01) (6, -2.66251325607299804688e-01) (0, 4.48697805404663085938e-01) (1, -3.06345462799072265625e-01) (2, -3.15332621335983276367e-01) (3, 6.19206607341766357422e-01) (4, 5.14967262744903564453e-01) (5, 8.43503832817077636719e-01) (6, 2.82661207020282745361e-02) (0, 2.69914209842681884766e-01) (1, 6.71899139881134033203e-01) (2, -7.70316831767559051514e-03) (3, 1.32871523499488830566e-01) (4, -2.10947301238775253296e-02) (5, -1.82957768440246582031e-01) (6, 1.03770399093627929688e+00) (0, -1.96129158139228820801e-01) (1, 1.34839519858360290527e-01) (2, -4.98500078916549682617e-01) (3, 7.65638649463653564453e-01) (4, -3.64188402891159057617e-02) (5, 5.75106739997863769531e-01) (6, -7.73433983325958251953e-01) (0, 1.33920889347791671753e-02) (1, 1.29446482658386230469e+00) (2, -3.21448683738708496094e-01) (3, 5.05891814827919006348e-02) (4, -2.31041070073843002319e-02) (5, 2.17187218368053436279e-02) (6, 2.52272725105285644531e+00) (0, 7.64092087745666503906e-01) (1, -3.16164284944534301758e-01) (2, -9.66210305690765380859e-01) (3, 1.22422456741333007812e-01) (4, 7.98204660415649414062e-01) (5, -4.55860495567321777344e-01) (6, -2.30112239718437194824e-01) (0, 6.71969279646873474121e-02) (1, 1.61962702870368957520e-01) (2, 6.25846028327941894531e-01) (3, -4.77546095848083496094e-01) (4, 3.53621006011962890625e-01) (5, 3.43201123178005218506e-02) (6, -7.56680667400360107422e-02) (0, 2.38200008869171142578e-01) (1, -2.46097132563591003418e-01) (2, 1.61068010330200195312e+00) (3, -5.39844967424869537354e-02) (4, 1.44854456186294555664e-01) (5, 4.81496274471282958984e-01) (6, -4.10414755344390869141e-01) (0, 2.97641009092330932617e-01) (1, -3.58784645795822143555e-01) (2, -6.48484349250793457031e-01) (3, 1.36369138956069946289e-01) (4, 3.77629399299621582031e-01) (5, 1.01946961879730224609e+00) (6, 2.20983552932739257812e+00) (7, -1.57477483153343200684e-01) (8, 1.43203496932983398438e-01) (9, -1.49142891168594360352e-02) (10, 2.36431255936622619629e-01) (11, 4.31287139654159545898e-01) (12, 1.10585081577301025391e+00) (13, -5.37721753120422363281e-01) (14, 1.84342670440673828125e+00) (15, 9.23116326332092285156e-01) (16, -4.43626850843429565430e-01) (17, -1.28663718700408935547e-01) (18, 1.20960199832916259766e+00) (19, 7.33273625373840332031e-01) (20, -2.50626027584075927734e-01) (21, -7.20212638378143310547e-01) (22, -4.08409714698791503906e-01) (23, 1.07345342636108398438e+00) (24, 7.43059098720550537109e-01) (25, -3.89877706766128540039e-02) (26, 7.02343642711639404297e-01) (27, -3.14957834780216217041e-02) (28, 3.13648670911788940430e-01) (29, 1.44157305359840393066e-01) (30, 5.80589473247528076172e-01) (31, 1.56704843044281005859e-01) (32, -6.03899732232093811035e-03) (33, 6.13508224487304687500e-01) (34, 7.03946709632873535156e-01) (35, -4.74570393562316894531e-01) (36, 6.72810494899749755859e-01) (37, 3.12126845121383666992e-01) (7, -6.58157289028167724609e-01) (8, -1.17169663310050964355e-01) (9, -2.21716482192277908325e-02) (10, -1.59926742315292358398e-01) (11, -3.37413877248764038086e-01) (12, 1.04088091850280761719e+00) (13, 5.82694709300994873047e-01) (14, -7.22177207469940185547e-01) (15, 5.08201420307159423828e-01) (16, -8.37580978870391845703e-01) (17, 2.38159909844398498535e-01) (18, 3.89623731374740600586e-01) (19, 2.72516041994094848633e-01) (20, 8.81618082523345947266e-01) (21, -7.08672463893890380859e-01) (22, -4.32171553373336791992e-01) (23, 4.52958136796951293945e-01) (24, -8.92009511590003967285e-02) (25, 5.50273478031158447266e-01) (26, 8.54258298873901367188e-01) (27, 8.51510643959045410156e-01) (28, 8.08803558349609375000e-01) (29, -6.21885299682617187500e-01) (30, -1.53448089957237243652e-01) (31, -4.32447120547294616699e-02) (32, -1.94975301623344421387e-01) (33, 7.96641886234283447266e-01) (34, -9.01990473270416259766e-01) (35, -6.33736789226531982422e-01) (36, 2.06680417060852050781e-01) (37, 1.21236693859100341797e+00) (7, 1.06293940544128417969e+00) (8, 1.20545494556427001953e+00) (9, -6.08676493167877197266e-01) (10, -5.63109040260314941406e-01) (11, -9.20698702335357666016e-01) (12, 4.39394950866699218750e-01) (13, 3.70962113142013549805e-01) (14, -6.98530077934265136719e-01) (15, 1.91890224814414978027e-01) (16, -4.70992416143417358398e-01) (17, 4.37719076871871948242e-02) (18, 5.36187112331390380859e-01) (19, 5.57200193405151367188e-01) (20, -2.32769444584846496582e-01) (21, 2.57211744785308837891e-01) (22, 1.49607431888580322266e+00) (23, -1.66711568832397460938e-01) (24, 5.10015904903411865234e-01) (25, 1.06247007846832275391e+00) (26, 2.53244549036026000977e-01) (27, -1.19490623474121093750e+00) (28, 4.31503057479858398438e-01) (29, 7.61729955673217773438e-01) (30, 5.79987049102783203125e-01) (31, -1.17181569337844848633e-01) (32, -5.52180707454681396484e-01) (33, -9.10473883152008056641e-01) (34, -3.08331549167633056641e-01) (35, 1.67862042784690856934e-01) (36, -6.51747405529022216797e-01) (37, -1.53550803661346435547e+00) (7, -1.30296781659126281738e-01) (8, -3.10031265020370483398e-01) (9, 1.14924505352973937988e-01) (10, 1.61171138286590576172e+00) (11, -3.53517234325408935547e-02) (12, 4.82929557561874389648e-01) (13, -6.10252201557159423828e-01) (14, 6.65336847305297851562e-02) (15, 1.75295996665954589844e+00) (16, -1.82255342602729797363e-01) (17, 3.30870263278484344482e-02) (18, 8.34063351154327392578e-01) (19, -1.28747892379760742188e+00) (20, 7.45820999145507812500e-01) (21, -2.66733020544052124023e-01) (22, 2.13173925876617431641e-01) (23, 4.18923497200012207031e-01) (24, 3.46967101097106933594e-01) (25, -6.48182570934295654297e-01) (26, 3.46941471099853515625e-01) (27, 1.71014234423637390137e-01) (28, -1.12925894558429718018e-01) (29, 5.97311973571777343750e-01) (30, 7.75305151939392089844e-01) (31, -6.69580698013305664062e-01) (32, -5.88900625705718994141e-01) (33, -4.33839887380599975586e-01) (34, 6.32363557815551757812e-01) (35, -6.52562916278839111328e-01) (36, -2.28724464774131774902e-01) (37, 1.23271465301513671875e+00) (7, 5.77966809272766113281e-01) (8, -9.11732092499732971191e-02) (9, -1.60228490829467773438e+00) (10, -1.18291459977626800537e-01) (11, 7.09428012371063232422e-01) (12, 8.23457658290863037109e-01) (13, 2.28053331375122070312e-01) (14, -5.41596472263336181641e-01) (15, 8.55839610099792480469e-01) (16, -1.18423354625701904297e+00) (17, 9.12760868668556213379e-02) (18, 1.26662528514862060547e+00) (19, 1.70297563076019287109e-01) (20, 5.02728819847106933594e-01) (21, -2.39009544253349304199e-01) (22, -1.80359095335006713867e-01) (23, 7.02687352895736694336e-02) (24, -7.02551722526550292969e-01) (25, 9.56251502037048339844e-01) (26, 2.64651358127593994141e-01) (27, -6.65025115013122558594e-01) (28, 8.82879316806793212891e-01) (29, 2.02358663082122802734e-01) (30, -7.39630877971649169922e-01) (31, -4.77529287338256835938e-01) (32, 7.12521016597747802734e-01) (33, 6.47555172443389892578e-01) (34, 1.44874662160873413086e-01) (35, -4.16682153940200805664e-01) (36, 7.44328260421752929688e-01) (37, -5.13633564114570617676e-02) (7, 7.67772972583770751953e-01) (8, -1.33031547069549560547e-01) (9, 9.73960161209106445312e-01) (10, 1.63525545597076416016e+00) (11, 1.01031374931335449219e+00) (12, 6.79347932338714599609e-01) (13, -9.67155992984771728516e-01) (14, 4.05891448259353637695e-01) (15, 3.54654073715209960938e-01) (16, -1.00431275367736816406e+00) (17, -8.70502814650535583496e-02) (18, -5.74729442596435546875e-01) (19, 9.41009894013404846191e-02) (20, 5.75289309024810791016e-01) (21, -4.07834164798259735107e-03) (22, -5.01314282417297363281e-01) (23, 1.27133667469024658203e+00) (24, 2.59664654731750488281e-01) (25, 5.11154651641845703125e-01) (26, 3.43717187643051147461e-01) (27, -7.36998856067657470703e-01) (28, 6.59849584102630615234e-01) (29, -5.02335429191589355469e-01) (30, -3.66206407546997070312e-01) (31, 5.87068021297454833984e-01) (32, 1.19955027103424072266e+00) (33, -6.89755797386169433594e-01) (34, 1.03086483478546142578e+00) (35, 4.17273007333278656006e-02) (36, -6.11563384532928466797e-01) (37, 1.45970737934112548828e+00) (7, -2.70724534988403320312e-01) (8, -7.14593291282653808594e-01) (9, 2.99066513776779174805e-01) (10, -3.34447562694549560547e-01) (11, -3.86104285717010498047e-01) (12, -1.40001969411969184875e-02) (13, 2.95566022396087646484e-01) (14, 1.21451457962393760681e-02) (15, 3.17844390869140625000e-01) (16, -5.06713939830660820007e-03) (17, 7.52691328525543212891e-02) (18, 1.80176198482513427734e-01) (19, -2.76488751173019409180e-01) (20, 1.70667976140975952148e-01) (21, 7.31466352939605712891e-01) (22, -3.52171361446380615234e-01) (23, 1.34366869926452636719e-01) (24, 3.33528101444244384766e-01) (25, -4.85692650079727172852e-01) (26, -5.77985465526580810547e-01) (27, -1.12319141626358032227e-01) (28, 6.61763489246368408203e-01) (29, -7.28683918714523315430e-02) (30, -1.32274836301803588867e-01) (31, 8.14015507698059082031e-01) (32, -5.56367993354797363281e-01) (33, 8.55367124080657958984e-01) (34, -4.92138087749481201172e-01) (35, -3.19173038005828857422e-01) (36, 8.09575319290161132812e-01) (37, -4.48907673358917236328e-01) (7, 8.65186691284179687500e-01) (8, 3.82939055562019348145e-02) (9, 1.70467162132263183594e+00) (10, 2.05386042594909667969e+00) (11, -1.61647349596023559570e-01) (12, -1.01583033800125122070e-01) (13, -3.62544655799865722656e-02) (14, -2.29431778192520141602e-01) (15, -4.16789382696151733398e-01) (16, -2.19693467020988464355e-01) (17, -4.33160662651062011719e-01) (18, -6.61655664443969726562e-01) (19, 5.97948431968688964844e-01) (20, 3.05259656906127929688e+00) (21, -3.25835204124450683594e+00) (22, 3.98469001054763793945e-01) (23, 2.51166415214538574219e+00) (24, -4.86204139888286590576e-02) (25, 8.61444413661956787109e-01) (26, 9.70967650413513183594e-01) (27, -6.91014289855957031250e-01) (28, -5.59006750583648681641e-01) (29, -9.87439334392547607422e-01) (30, 4.80823040008544921875e-01) (31, -1.62698364257812500000e+00) (32, 1.08470332622528076172e+00) (33, 4.13333714008331298828e-01) (34, 6.41147911548614501953e-01) (35, -1.14113497734069824219e+00) (36, 3.26461046934127807617e-01) (37, 2.14830589294433593750e+00) (7, 2.74128675460815429688e-01) (8, -5.07649779319763183594e-01) (9, -6.33651670068502426147e-03) (10, -3.84902358055114746094e-01) (11, 6.80761456489562988281e-01) (12, 1.50330591201782226562e+00) (13, 1.36046469211578369141e-01) (14, -8.49211275577545166016e-01) (15, -9.53890025615692138672e-01) (16, -1.12619066238403320312e+00) (17, 4.90808561444282531738e-02) (18, 1.28605806827545166016e+00) (19, 9.12559568881988525391e-01) (20, 1.49394348263740539551e-01) (21, -4.14020806550979614258e-01) (22, 4.96644973754882812500e-01) (23, 1.06550538539886474609e+00) (24, 4.72099244594573974609e-01) (25, 3.83353978395462036133e-01) (26, -5.15771985054016113281e-01) (27, 3.30597400665283203125e-01) (28, -8.94509255886077880859e-01) (29, 2.67978250980377197266e-01) (30, -1.24885439872741699219e+00) (31, 5.78144848346710205078e-01) (32, -1.48642972111701965332e-01) (33, 1.38267588615417480469e+00) (34, 3.17730426788330078125e-01) (35, 4.00681734085083007812e-01) (36, 3.72092872858047485352e-01) (37, -3.85772734880447387695e-02) (7, -1.19540584087371826172e+00) (8, 2.68644131720066070557e-02) (9, -7.37226009368896484375e-01) (10, 1.70205980539321899414e-01) (11, -1.19065034389495849609e+00) (12, 4.36864435672760009766e-01) (13, 4.65104818344116210938e-01) (14, 4.50592726469039916992e-01) (15, -5.67793190479278564453e-01) (16, 7.45769962668418884277e-02) (17, 1.00362944602966308594e+00) (18, 1.85305213928222656250e+00) (19, 2.91488081216812133789e-01) (20, -4.18799847364425659180e-01) (21, 1.58268690109252929688e-01) (22, 6.21646165847778320312e-01) (23, 5.92064499855041503906e-01) (24, 8.70343387126922607422e-01) (25, -1.55652835965156555176e-01) (26, -6.34031116962432861328e-01) (27, -1.33161291480064392090e-01) (28, -1.75238713622093200684e-01) (29, 1.02076840400695800781e+00) (30, 4.41608041524887084961e-01) (31, 3.42870742082595825195e-01) (32, -5.46027898788452148438e-01) (33, 7.71138072013854980469e-01) (34, -2.25429207086563110352e-01) (35, 1.27096247673034667969e+00) (36, 1.31827890872955322266e-01) (37, -8.59874129295349121094e-01) (7, -7.09832310676574707031e-01) (8, 9.84809100627899169922e-01) (9, -1.49318307638168334961e-01) (10, -7.94045209884643554688e-01) (11, 4.15646284818649291992e-01) (12, 1.05194024741649627686e-01) (13, 8.56188356876373291016e-01) (14, 1.28026449680328369141e+00) (15, -1.29112869501113891602e-01) (16, 5.51981516182422637939e-02) (17, 1.21096837520599365234e+00) (18, -9.46119204163551330566e-02) (19, -3.20788651704788208008e-01) (20, -1.36306146159768104553e-02) (21, 1.06186807155609130859e+00) (22, -3.79507303237915039062e-01) (23, -1.43455296754837036133e-01) (24, 4.09227758646011352539e-01) (25, -4.40615713596343994141e-02) (26, -3.50924253463745117188e-01) (27, 4.01979744434356689453e-01) (28, 1.05628347396850585938e+00) (29, -2.44658157229423522949e-01) (30, 1.35090678930282592773e-01) (31, -7.11909458041191101074e-02) (32, 2.58017957210540771484e-01) (33, -8.61505150794982910156e-01) (34, 4.65650260448455810547e-01) (35, 1.54114916920661926270e-01) (36, -5.75627028942108154297e-01) (37, 7.93188989162445068359e-01) (7, -6.14094078540802001953e-01) (8, -4.74866479635238647461e-01) (9, 6.54677987098693847656e-01) (10, 1.27688646316528320312e+00) (11, 2.70632177591323852539e-01) (12, 8.20990979671478271484e-01) (13, 4.85403746366500854492e-01) (14, 5.29483139514923095703e-01) (15, 2.89832085371017456055e-01) (16, -1.21068608760833740234e+00) (17, 1.63877174258232116699e-01) (18, 1.03888082504272460938e+00) (19, 1.00917918607592582703e-02) (20, 1.24102377891540527344e+00) (21, -2.63090163469314575195e-01) (22, -1.99972018599510192871e-01) (23, 3.12679797410964965820e-01) (24, -8.27374234795570373535e-02) (25, -1.22759044170379638672e+00) (26, -3.58389317989349365234e-01) (27, 5.01130163669586181641e-01) (28, 5.72699785232543945312e-01) (29, 5.01965820789337158203e-01) (30, -9.57502484321594238281e-01) (31, 1.13591170310974121094e+00) (32, 4.99404519796371459961e-01) (33, 3.73962104320526123047e-01) (34, -1.65292054414749145508e-01) (35, 5.97311973571777343750e-01) (36, -7.36886799335479736328e-01) (37, -4.78376746177673339844e-02) (7, 1.44266235828399658203e+00) (8, 1.25158286094665527344e+00) (9, -7.81042873859405517578e-01) (10, -1.46834027767181396484e+00) (11, 9.71100687980651855469e-01) (12, -9.26538109779357910156e-01) (13, -1.26035857200622558594e+00) (14, -7.04962909221649169922e-02) (15, -3.75533550977706909180e-02) (16, 9.14979577064514160156e-01) (17, 3.52091014385223388672e-01) (18, -7.38198697566986083984e-01) (19, 3.37159723043441772461e-01) (20, 8.93856436014175415039e-02) (21, 4.45592641830444335938e-01) (22, 5.29619395732879638672e-01) (23, 7.60231494903564453125e-01) (24, 6.92202270030975341797e-01) (25, -8.23897302150726318359e-01) (26, 1.14134836196899414062e+00) (27, 2.51824760437011718750e+00) (28, 6.56357169151306152344e-01) (29, -4.44194316864013671875e-01) (30, -6.72030568122863769531e-01) (31, -5.38115024566650390625e-01) (32, 2.16781497001647949219e+00) (33, -5.44774591922760009766e-01) (34, 5.20403459668159484863e-02) (35, 1.55404520034790039062e+00) (36, -1.50704646110534667969e+00) (37, 6.03123486042022705078e-01) (7, -2.22457982599735260010e-02) (8, 1.76270532608032226562e+00) (9, -3.68749588727951049805e-01) (10, -1.34711563587188720703e-01) (11, 6.18474721908569335938e-01) (12, 2.14698567986488342285e-01) (13, 4.66724932193756103516e-01) (14, 9.94534865021705627441e-02) (15, 6.96146726608276367188e-01) (16, -4.67266172170639038086e-01) (17, -5.90455114841461181641e-01) (18, -4.00304585695266723633e-01) (19, 1.40208184719085693359e-01) (20, 4.12423104047775268555e-01) (21, -6.62540793418884277344e-01) (22, 1.12305295467376708984e+00) (23, 1.41064703464508056641e+00) (24, 1.10342180728912353516e+00) (25, -4.47225034236907958984e-01) (26, 7.97092020511627197266e-01) (27, 1.03656125068664550781e+00) (28, -2.20387801527976989746e-01) (29, -3.75303655862808227539e-01) (30, 9.83046531677246093750e-01) (31, -3.40570539236068725586e-01) (32, -3.06680828332901000977e-01) (33, -3.71038526296615600586e-01) (34, 3.27200472354888916016e-01) (35, -8.07033851742744445801e-02) (36, -1.03515648841857910156e+00) (37, 6.59322515130043029785e-02) (7, -9.01635944843292236328e-01) (8, 7.86363244056701660156e-01) (9, 7.03342676162719726562e-01) (10, 7.91146457195281982422e-01) (11, -1.70681595802307128906e-01) (12, 3.73159617185592651367e-01) (13, -1.66504144668579101562e-01) (14, 4.79827880859375000000e-01) (15, -5.67390799522399902344e-01) (16, 4.95532512664794921875e-01) (17, 1.16759383678436279297e+00) (18, 4.63936597108840942383e-01) (19, 3.70830506086349487305e-01) (20, -3.14963132143020629883e-01) (21, 1.22079372406005859375e+00) (22, 3.86685609817504882812e-01) (23, 1.56999722123146057129e-01) (24, 1.08608710765838623047e+00) (25, -1.45973667502403259277e-01) (26, -4.03749525547027587891e-01) (27, -1.56204238533973693848e-01) (28, 3.81669759750366210938e-01) (29, -2.30166628956794738770e-01) (30, -6.04604661464691162109e-01) (31, 8.85601043701171875000e-01) (32, 1.81257680058479309082e-01) (33, 6.36839121580123901367e-02) (34, -2.22502082586288452148e-01) (35, 1.02322459220886230469e+00) (36, 5.74085414409637451172e-01) (37, -5.22834658622741699219e-01) (7, -5.29045343399047851562e-01) (8, 4.34430092573165893555e-01) (9, -5.94768226146697998047e-01) (10, 3.19676548242568969727e-02) (11, -5.79357743263244628906e-01) (12, -8.38900148868560791016e-01) (13, -3.85866522789001464844e-01) (14, 1.17928373813629150391e+00) (15, -7.65128195285797119141e-01) (16, -8.74317288398742675781e-01) (17, 6.14968717098236083984e-01) (18, -1.01937770843505859375e+00) (19, -1.99807256460189819336e-01) (20, 3.16008418798446655273e-01) (21, -1.56767714023590087891e+00) (22, 6.09642565250396728516e-01) (23, 4.16593044996261596680e-01) (24, 5.62007486820220947266e-01) (25, -1.44966974854469299316e-01) (26, 7.85590708255767822266e-01) (27, 4.85996216535568237305e-01) (28, 4.62024599313735961914e-01) (29, -6.45109057426452636719e-01) (30, 1.16175019741058349609e+00) (31, -2.39035099744796752930e-01) (32, 7.65942990779876708984e-01) (33, -7.17323839664459228516e-01) (34, 4.25464212894439697266e-01) (35, 6.85512304306030273438e-01) (36, 5.61039805412292480469e-01) (37, 7.73584127426147460938e-01) (7, 5.99133491516113281250e-01) (8, -7.83713936805725097656e-01) (9, -9.18364107608795166016e-01) (10, 1.11257946491241455078e+00) (11, -6.14455461502075195312e-01) (12, 7.86573514342308044434e-02) (13, -5.16989752650260925293e-02) (14, -4.11128133535385131836e-01) (15, -3.75464856624603271484e-01) (16, -2.55594030022621154785e-02) (17, 7.36234486103057861328e-01) (18, 1.23585557937622070312e+00) (19, -4.53185170888900756836e-01) (20, 7.80990570783615112305e-02) (21, 4.07901555299758911133e-01) (22, 1.16861307621002197266e+00) (23, -1.52462154626846313477e-01) (24, 5.75912147760391235352e-02) (25, -2.78850704431533813477e-01) (26, -1.17606937885284423828e+00) (27, -5.72506010532379150391e-01) (28, -7.76311516761779785156e-01) (29, -1.68690010905265808105e-02) (30, 6.40605390071868896484e-01) (31, 8.57097208499908447266e-01) (32, -1.07525718212127685547e+00) (33, -4.01813536882400512695e-01) (34, 6.01463556289672851562e-01) (35, 5.49850225448608398438e-01) (36, 1.33890628814697265625e+00) (37, -6.22851312160491943359e-01) (7, 4.19363707304000854492e-01) (8, -4.73074883222579956055e-01) (9, 7.40100070834159851074e-02) (10, 4.32415187358856201172e-01) (11, -1.46464794874191284180e-01) (12, -2.94147580862045288086e-01) (13, 1.05154800415039062500e+00) (14, 2.46230304241180419922e-01) (15, 5.52583634853363037109e-02) (16, 2.43502318859100341797e-01) (17, 2.40290358662605285645e-01) (18, -4.40487712621688842773e-01) (19, 7.35767185688018798828e-01) (20, 4.47747677564620971680e-01) (21, -1.34662234783172607422e+00) (22, -7.11252987384796142578e-01) (23, 7.84376561641693115234e-01) (24, 1.51036918163299560547e-01) (25, 5.88800013065338134766e-01) (26, 1.26917767524719238281e+00) (27, 1.00319862365722656250e+00) (28, 9.36739563941955566406e-01) (29, -7.60799467563629150391e-01) (30, 7.10065424442291259766e-01) (31, 1.97473734617233276367e-01) (32, 1.81108623743057250977e-01) (33, 1.00977146625518798828e+00) (34, 3.99641782045364379883e-01) (35, 1.27566635608673095703e+00) (36, 9.84848737716674804688e-01) (37, 7.74303615093231201172e-01) (7, 8.57861340045928955078e-01) (8, 2.04421877861022949219e+00) (9, -4.93923127651214599609e-01) (10, -8.48415374755859375000e-01) (11, 3.29490393400192260742e-01) (12, 5.74008107185363769531e-01) (13, -1.32087314128875732422e+00) (14, 3.02811086177825927734e-01) (15, 1.88044950366020202637e-01) (16, 1.03123271465301513672e+00) (17, -1.18332527577877044678e-01) (18, -5.65884053707122802734e-01) (19, -1.43869280815124511719e+00) (20, -6.21788978576660156250e-01) (21, 4.34776917099952697754e-02) (22, 9.20920848846435546875e-01) (23, 9.19262707233428955078e-01) (24, 2.12241366505622863770e-01) (25, -2.29194447398185729980e-01) (26, 5.22641718387603759766e-01) (27, 4.24035519361495971680e-01) (28, 4.98514808714389801025e-02) (29, 4.48311299085617065430e-01) (30, 2.95566290616989135742e-01) (31, 3.39908331632614135742e-01) (32, 1.09593760967254638672e+00) (33, -5.76542496681213378906e-01) (34, -2.03743815422058105469e-01) (35, 9.73272860050201416016e-01) (36, -5.78472316265106201172e-01) (37, -7.44237124919891357422e-01) (7, -8.29057097434997558594e-02) (8, -4.70762073993682861328e-01) (9, 4.21454638242721557617e-01) (10, 8.39738965034484863281e-01) (11, 2.34628155827522277832e-01) (12, -7.50759169459342956543e-02) (13, 6.84198856353759765625e-01) (14, -7.39007115364074707031e-01) (15, 1.16894221305847167969e+00) (16, -1.51910901069641113281e-01) (17, 2.23390728235244750977e-01) (18, -5.81965982913970947266e-01) (19, 3.76419186592102050781e-01) (20, 1.27377182245254516602e-01) (21, 7.37168729305267333984e-01) (22, -1.91107839345932006836e-02) (23, -5.83774209022521972656e-01) (24, -7.61868834495544433594e-01) (25, 3.53895068168640136719e-01) (26, 7.18873202800750732422e-01) (27, 6.85719013214111328125e-01) (28, 6.31997227668762207031e-01) (29, -1.01189881563186645508e-01) (30, -2.89008051156997680664e-01) (31, -2.39502772688865661621e-01) (32, 7.11457952857017517090e-02) (33, -3.55688810348510742188e-01) (34, 1.06248581409454345703e+00) (35, -5.09065926074981689453e-01) (36, -6.22019730508327484131e-02) (37, 1.26992619037628173828e+00) (7, 5.92426300048828125000e-01) (8, 5.81747293472290039062e-01) (9, -2.03585803508758544922e-01) (10, 4.64296847581863403320e-01) (11, 5.18417239189147949219e-01) (12, 4.89354550838470458984e-01) (13, -1.30739617347717285156e+00) (14, -9.54444229602813720703e-01) (15, 3.18781346082687377930e-01) (16, 2.91545271873474121094e-01) (17, 6.53702735900878906250e-01) (18, 4.60748314857482910156e-01) (19, -8.72183814644813537598e-02) (20, -1.02143132686614990234e+00) (21, -2.15119242668151855469e-01) (22, 8.27256083488464355469e-01) (23, 6.63026094436645507812e-01) (24, 1.93666905164718627930e-01) (25, -1.87693858146667480469e+00) (26, -9.41544532775878906250e-01) (27, -1.86294049024581909180e-01) (28, 1.16234838962554931641e+00) (29, 3.56304764747619628906e-01) (30, -7.81758308410644531250e+00) (31, 1.45146772265434265137e-01) (32, -1.15335583686828613281e+00) (33, 1.09815943241119384766e+00) (34, 5.30003190040588378906e-01) (35, 1.52505282312631607056e-02) (36, 4.89004552364349365234e-02) (37, -7.54790842533111572266e-01) (7, 1.23710215091705322266e+00) (8, 1.25446200370788574219e+00) (9, -5.81463396549224853516e-01) (10, 6.57700777053833007812e-01) (11, 1.19731593132019042969e+00) (12, 2.49703943729400634766e-01) (13, 2.33444586396217346191e-01) (14, -5.33683896064758300781e-01) (15, 4.06799241900444030762e-02) (16, -5.89233219623565673828e-01) (17, -1.61034524440765380859e-01) (18, 4.34451013803482055664e-01) (19, -4.08489912748336791992e-01) (20, 2.12467119097709655762e-01) (21, -3.28532785177230834961e-01) (22, 8.51526498794555664062e-01) (23, -3.96571338176727294922e-01) (24, 1.48056447505950927734e+00) (25, 6.58481299877166748047e-01) (26, -4.63063716888427734375e-01) (27, 6.27400100231170654297e-01) (28, -2.28610530495643615723e-01) (29, -9.13187205791473388672e-01) (30, 1.12522415816783905029e-01) (31, -6.96895301342010498047e-01) (32, -2.98025846481323242188e-01) (33, 3.06336104869842529297e-01) (34, 6.61644220352172851562e-01) (35, -8.25380682945251464844e-01) (36, -3.28420251607894897461e-01) (37, -1.23909689486026763916e-01) (7, -5.01863583922386169434e-02) (8, -1.42978385090827941895e-01) (9, 8.98510664701461791992e-02) (10, 6.55156552791595458984e-01) (11, 6.59606009721755981445e-02) (12, -2.16718077659606933594e-01) (13, -3.11808735132217407227e-01) (14, 2.37572968006134033203e-01) (15, 2.72364169359207153320e-01) (16, -4.08799171447753906250e-01) (17, -3.74045699834823608398e-01) (18, -3.49711775779724121094e-01) (19, 8.01533758640289306641e-02) (20, 1.23429095745086669922e+00) (21, -1.18663477897644042969e+00) (22, 7.23072528839111328125e-01) (23, -5.78989624977111816406e-01) (24, 4.68190342187881469727e-01) (25, 4.27740752696990966797e-01) (26, -8.06382894515991210938e-02) (27, 5.69640696048736572266e-01) (28, -9.25014138221740722656e-01) (29, 2.38701283931732177734e-01) (30, 6.11309647560119628906e-01) (31, -1.66843974590301513672e+00) (32, 5.42791247367858886719e-01) (33, -2.91834808886051177979e-02) (34, -5.17833232879638671875e-02) (35, 6.20666444301605224609e-01) (36, 8.36029052734375000000e-01) (37, -2.95991629362106323242e-01) (7, -8.17617177963256835938e-01) (8, -8.21077451109886169434e-02) (9, 2.64093339443206787109e-01) (10, 1.18994843959808349609e+00) (11, 3.80801916122436523438e-01) (12, 5.54693162441253662109e-01) (13, 1.14486265182495117188e+00) (14, 9.47940051555633544922e-01) (15, -3.77791151404380798340e-02) (16, -6.34834349155426025391e-01) (17, 5.67291021347045898438e-01) (18, -4.17433470487594604492e-01) (19, -1.15767344832420349121e-01) (20, 5.67619681358337402344e-01) (21, 7.16443479061126708984e-01) (22, 3.09659838676452636719e-01) (23, 8.50261569023132324219e-01) (24, 5.75845599174499511719e-01) (25, 1.18928349018096923828e+00) (26, 3.14276963472366333008e-02) (27, 7.05516099929809570312e-01) (28, -9.38844084739685058594e-01) (29, -1.64382189512252807617e-01) (30, 1.22669053077697753906e+00) (31, -3.88208806514739990234e-01) (32, -4.01367545127868652344e-01) (33, 4.58651520311832427979e-02) (34, -2.35965296626091003418e-01) (35, 7.00722515583038330078e-01) (36, -8.34390223026275634766e-02) (37, -8.68415713310241699219e-01) (7, 5.04706203937530517578e-01) (8, 3.47336500883102416992e-01) (9, 3.94973047077655792236e-02) (10, 2.77777552604675292969e-01) (11, 1.12772214412689208984e+00) (12, 7.87572205066680908203e-01) (13, 1.33017927408218383789e-01) (14, 7.95073390007019042969e-01) (15, -7.24933892488479614258e-02) (16, 2.37082108855247497559e-01) (17, 3.63464921712875366211e-01) (18, -6.72812163829803466797e-02) (19, -6.01645708084106445312e-01) (20, -7.29793787002563476562e-01) (21, -1.20021114125847816467e-02) (22, 4.00286078453063964844e-01) (23, -4.47040423750877380371e-02) (24, 6.48945152759552001953e-01) (25, 4.33496594429016113281e-01) (26, -5.28078258037567138672e-01) (27, -3.91388088464736938477e-01) (28, -8.27822506427764892578e-01) (29, 5.58913409709930419922e-01) (30, 3.02037030458450317383e-01) (31, 1.95496630668640136719e+00) (32, -1.21472001075744628906e+00) (33, 7.93376803398132324219e-01) (34, -7.48299837112426757812e-01) (35, -5.87039709091186523438e-01) (36, -3.26885879039764404297e-01) (37, -1.10753297805786132812e+00) (7, 6.49511575698852539062e-01) (8, 1.34176683425903320312e+00) (9, 6.58115506172180175781e-01) (10, 4.80283498764038085938e-01) (11, 8.13919126987457275391e-01) (12, -3.77839952707290649414e-01) (13, -1.52168428897857666016e+00) (14, -6.61217272281646728516e-01) (15, 1.18697571754455566406e+00) (16, 4.06042724847793579102e-01) (17, 1.12501062452793121338e-01) (18, -1.96498647332191467285e-01) (19, 3.30737326294183731079e-04) (20, -9.46679115295410156250e-02) (21, -1.01130867004394531250e+00) (22, 2.62045240402221679688e+00) (23, 4.00338888168334960938e-01) (24, -7.85748139023780822754e-02) (25, 6.81478977203369140625e-01) (26, -4.01107788085937500000e-01) (27, 9.78524923324584960938e-01) (28, 7.87659585475921630859e-02) (29, -6.81012928485870361328e-01) (30, -9.57189500331878662109e-01) (31, 1.80828914046287536621e-01) (32, 7.83682107925415039062e-01) (33, 1.50751516222953796387e-01) (34, 6.24674260616302490234e-01) (35, -4.00991708040237426758e-01) (36, -2.06579470634460449219e+00) (37, 1.15441150963306427002e-01) (7, -7.27848887443542480469e-01) (8, 7.86603868007659912109e-01) (9, 3.48945140838623046875e-01) (10, 8.43239068984985351562e-01) (11, -4.34648185968399047852e-01) (12, -2.16571837663650512695e-01) (13, 1.14050972461700439453e+00) (14, -9.31516349315643310547e-01) (15, -6.87269270420074462891e-01) (16, 3.72340023517608642578e-01) (17, 6.49145066738128662109e-01) (18, 1.03473937511444091797e+00) (19, -1.93208023905754089355e-01) (20, -1.14600002765655517578e+00) (21, -4.18059706687927246094e-01) (22, 1.12497317790985107422e+00) (23, 5.50338685512542724609e-01) (24, -6.69219791889190673828e-02) (25, 1.09446629881858825684e-01) (26, -3.59908729791641235352e-01) (27, -5.02273380756378173828e-01) (28, -5.74206233024597167969e-01) (29, 4.50639218091964721680e-01) (30, -7.44894325733184814453e-01) (31, 2.20524096488952636719e+00) (32, 5.24002671241760253906e-01) (33, -4.46146994829177856445e-01) (34, -2.88709163665771484375e-01) (35, 2.13034212589263916016e-01) (36, -8.90350520610809326172e-01) (37, -9.84824776649475097656e-01) (7, -6.96486473083496093750e-01) (8, -3.09841394424438476562e-01) (9, -5.65081536769866943359e-01) (10, -1.22800636291503906250e+00) (11, 3.94552618265151977539e-01) (12, -1.51354804635047912598e-01) (13, 1.96427714824676513672e+00) (14, -1.76806524395942687988e-02) (15, -4.07691746950149536133e-02) (16, 4.71127599477767944336e-01) (17, 1.11764490604400634766e+00) (18, -9.86987128853797912598e-02) (19, -1.89089253544807434082e-01) (20, 1.58996522426605224609e+00) (21, 2.72056847810745239258e-01) (22, -9.66421246528625488281e-01) (23, 3.97534072399139404297e-01) (24, 9.30531680583953857422e-01) (25, 1.23511779308319091797e+00) (26, 3.64879429340362548828e-01) (27, 1.15627062320709228516e+00) (28, -1.12779426574707031250e+00) (29, -3.19473534822463989258e-01) (30, -7.76308253407478332520e-02) (31, 4.55150127410888671875e-01) (32, 8.58267247676849365234e-01) (33, -1.39490097761154174805e-01) (34, 5.11486113071441650391e-01) (35, -1.08257818222045898438e+00) (36, 1.34751355648040771484e+00) (37, -1.19089663028717041016e-01) (7, 5.96741139888763427734e-02) (8, -7.39377319812774658203e-01) (9, -2.16976091265678405762e-01) (10, 5.05155511200428009033e-02) (11, 9.42338228225708007812e-01) (12, 6.03045761585235595703e-01) (13, 2.31941610574722290039e-01) (14, -1.22040092945098876953e+00) (15, -3.29636782407760620117e-01) (16, 2.28101089596748352051e-01) (17, 9.04630184173583984375e-01) (18, 1.20358121395111083984e+00) (19, 3.05811613798141479492e-01) (20, 7.41380155086517333984e-01) (21, 1.01760268211364746094e-01) (22, 6.34878993034362792969e-01) (23, -1.35136365890502929688e+00) (24, -7.56694138050079345703e-01) (25, 5.42749106884002685547e-01) (26, 6.11703753471374511719e-01) (27, -9.17793631553649902344e-01) (28, 2.08956658840179443359e-01) (29, -6.27312600612640380859e-01) (30, -2.86952674388885498047e-01) (31, 2.63637840747833251953e-01) (32, -1.04924809932708740234e+00) (33, 1.51841866970062255859e+00) (34, 8.01057755947113037109e-01) (35, -2.94520765542984008789e-01) (36, 1.25385510921478271484e+00) (37, -2.40532979369163513184e-01) (7, 6.27164483070373535156e-01) (8, 1.16876971721649169922e+00) (9, 1.76577940583229064941e-01) (10, -4.03534144163131713867e-01) (11, 1.02420412003993988037e-01) (12, 9.85880136489868164062e-01) (13, 4.43264216184616088867e-01) (14, 1.23476779460906982422e+00) (15, -1.24289119243621826172e+00) (16, -1.42084449529647827148e-01) (17, 8.65551054477691650391e-01) (18, 1.47023069858551025391e+00) (19, -5.29521107673645019531e-01) (20, 3.56410145759582519531e-01) (21, -5.54212570190429687500e-01) (22, -9.32030975818634033203e-01) (23, 8.33276152610778808594e-01) (24, -4.22660440206527709961e-01) (25, 9.65508103370666503906e-01) (26, 9.78635549545288085938e-01) (27, -5.89007198810577392578e-01) (28, 2.17431575059890747070e-01) (29, 9.77807223796844482422e-01) (30, 3.02044868469238281250e-01) (31, 1.38582168146967887878e-02) (32, -1.17171740531921386719e+00) (33, 1.41802942752838134766e+00) (34, -1.06981658935546875000e+00) (35, -4.93205279111862182617e-01) (36, 1.01129841804504394531e+00) (37, 3.74812096357345581055e-01) (38, 3.84155750274658203125e-01) (39, 3.06827396154403686523e-01) (40, -5.58872580528259277344e-01) (41, -6.63975775241851806641e-01) (42, 5.15657186508178710938e-01) (43, 3.72083604335784912109e-01) (44, 2.34950453042984008789e-01) (45, 1.99813172221183776855e-01) (46, 5.20914554595947265625e-01) (47, 4.62930023670196533203e-01) (48, -5.51219992339611053467e-02) (49, 2.75806427001953125000e-01) (50, 6.89206659793853759766e-01) (51, 5.79088985919952392578e-01) (52, 2.92758613824844360352e-01) (53, 5.43304145336151123047e-01) (54, 1.08875095844268798828e+00) (55, 3.00910204648971557617e-01) (56, -4.39989520236849784851e-03) (57, 6.39771342277526855469e-01) (58, 1.30963337421417236328e+00) (59, -5.10479152202606201172e-01) (60, 8.39300274848937988281e-01) (61, -3.21399986743927001953e-01) (62, -7.43224024772644042969e-01) (63, 5.08147358894348144531e-01) (64, -5.62455892562866210938e-01) (65, -4.70410406589508056641e-01) (66, 9.44691061973571777344e-01) (67, -7.25845754146575927734e-01) (68, -3.14877718687057495117e-01) (38, 5.66721141338348388672e-01) (39, -8.41132283210754394531e-01) (40, -8.26628357172012329102e-02) (41, 7.77672886848449707031e-01) (42, -4.27948802709579467773e-01) (43, -1.00978946685791015625e+00) (44, -1.04980111122131347656e-01) (45, 8.07905852794647216797e-01) (46, 9.71789538860321044922e-01) (47, 1.01290559768676757812e+00) (48, -2.14473143219947814941e-01) (49, -2.02295899391174316406e-01) (50, -2.53839224576950073242e-01) (51, -5.56989669799804687500e-01) (52, -4.57809954881668090820e-01) (53, 1.13364362716674804688e+00) (54, -5.62864065170288085938e-01) (55, 2.31578648090362548828e-01) (56, 3.71585935354232788086e-02) (57, 8.06626141071319580078e-01) (58, 8.28637421131134033203e-01) (59, -6.00315153598785400391e-01) (60, 3.29423755407333374023e-01) (61, -4.62593078613281250000e-01) (62, -2.52122104167938232422e-01) (63, -1.26699149608612060547e-01) (64, 5.55627904832363128662e-02) (65, -3.80581140518188476562e-01) (66, -4.45625394582748413086e-01) (67, 6.74311220645904541016e-01) (68, 4.45068240165710449219e-01) (38, 1.04991304874420166016e+00) (39, -2.41970106959342956543e-01) (40, 1.09218263626098632812e+00) (41, 5.77446639537811279297e-01) (42, 9.74264666438102722168e-02) (43, -4.20906931161880493164e-01) (44, -1.64497971534729003906e-01) (45, -1.12006559967994689941e-01) (46, 8.46097707748413085938e-01) (47, 9.69616591930389404297e-01) (48, -3.37367236614227294922e-01) (49, -4.40465569496154785156e-01) (50, -4.47789698839187622070e-01) (51, 7.39965975284576416016e-01) (52, -4.25626844167709350586e-01) (53, 1.62034258246421813965e-01) (54, 1.08420860767364501953e+00) (55, -3.05994063615798950195e-01) (56, 3.62498670816421508789e-01) (57, 1.61995506286621093750e+00) (58, 7.57431745529174804688e-01) (59, 3.90995681285858154297e-01) (60, 1.00501582026481628418e-01) (61, -2.02360287308692932129e-01) (62, 7.83900678157806396484e-01) (63, -7.32159018516540527344e-02) (64, 6.02431118488311767578e-01) (65, -2.44939491152763366699e-01) (66, 8.94487202167510986328e-01) (67, -6.54231235384941101074e-02) (68, 7.41151690483093261719e-01) (38, 1.37045592069625854492e-01) (39, -6.18553102016448974609e-01) (40, 7.66800761222839355469e-01) (41, -4.04891997575759887695e-01) (42, 4.30082976818084716797e-01) (43, 6.73086762428283691406e-01) (44, -1.33985146880149841309e-01) (45, -8.07507455348968505859e-01) (46, 2.62431859970092773438e-01) (47, 4.51220214366912841797e-01) (48, 1.79007387161254882812e+00) (49, 6.04868769645690917969e-01) (50, -9.52074229717254638672e-02) (51, 2.34375149011611938477e-01) (52, -4.16281282901763916016e-01) (53, 1.07511472702026367188e+00) (54, 3.57035726308822631836e-01) (55, -6.37549757957458496094e-01) (56, 1.20041465759277343750e+00) (57, -9.70630422234535217285e-02) (58, 1.19232881069183349609e+00) (59, 8.17585825920104980469e-01) (60, 6.39458417892456054688e-01) (61, -4.58378553390502929688e-01) (62, 2.29840204119682312012e-01) (63, -2.28216424584388732910e-01) (64, 7.68638491630554199219e-01) (65, -1.56666427850723266602e-01) (66, -7.05496013164520263672e-01) (67, 1.26933455467224121094e-01) (68, -5.71613430976867675781e-01) (38, 3.32158923149108886719e-01) (39, 6.99074625968933105469e-01) (40, -4.89205986261367797852e-01) (41, -8.27716350555419921875e-01) (42, 1.71848881244659423828e+00) (43, 2.73756861686706542969e+00) (44, -4.09920126199722290039e-01) (45, 8.07392835617065429688e-01) (46, 4.87449049949645996094e-01) (47, 2.29681700468063354492e-01) (48, 5.08713543415069580078e-01) (49, -1.43843710422515869141e+00) (50, -2.82335996627807617188e-01) (51, -1.54656708240509033203e-01) (52, -2.39508584141731262207e-01) (53, 1.96376830339431762695e-01) (54, 3.57453823089599609375e-01) (55, -2.33137750625610351562e+00) (56, 1.32017284631729125977e-01) (57, 1.02210497856140136719e+00) (58, -1.00833392143249511719e+00) (59, 1.17608082294464111328e+00) (60, 8.38698565959930419922e-01) (61, 1.95898854732513427734e+00) (62, 3.46184432506561279297e-01) (63, 3.71153324842453002930e-01) (64, 6.11602008342742919922e-01) (65, -5.33658266067504882812e-01) (66, -1.29434332251548767090e-01) (67, 6.01731002330780029297e-01) (68, 1.44007647037506103516e+00) (38, 8.71336281299591064453e-01) (39, 6.26516282558441162109e-01) (40, 9.81736958026885986328e-01) (41, 1.29915070533752441406e+00) (42, 1.19492039084434509277e-01) (43, 9.19336616992950439453e-01) (44, 3.91863763332366943359e-01) (45, 1.36237159371376037598e-01) (46, -1.82756915688514709473e-01) (47, 7.58995860815048217773e-02) (48, -6.69754326343536376953e-01) (49, 3.22638481855392456055e-01) (50, -1.51325985789299011230e-01) (51, -2.98819273710250854492e-01) (52, 3.09296399354934692383e-01) (53, -1.29632830619812011719e-01) (54, 7.52321660518646240234e-01) (55, 1.76030188798904418945e-01) (56, -5.81417977809906005859e-01) (57, 5.24097084999084472656e-01) (58, 6.35074496269226074219e-01) (59, -8.00841152667999267578e-01) (60, 2.30628281831741333008e-01) (61, 1.01428449153900146484e+00) (62, 3.97110670804977416992e-01) (63, -5.20420372486114501953e-02) (64, 3.09437930583953857422e-01) (65, 9.02226686477661132812e-01) (66, 2.75992602109909057617e-01) (67, 4.40755784511566162109e-01) (68, 1.35084271430969238281e-01) (38, -2.90688633918762207031e-01) (39, 1.39637780189514160156e+00) (40, -2.22382128238677978516e-01) (41, -1.05343222618103027344e+00) (42, 2.31823191046714782715e-01) (43, -6.03653609752655029297e-01) (44, 1.24905228614807128906e+00) (45, 1.40779674053192138672e+00) (46, 1.50300607085227966309e-01) (47, -9.02761518955230712891e-01) (48, -1.12497128546237945557e-01) (49, 1.18257975578308105469e+00) (50, 5.27950644493103027344e-01) (51, -2.30234235525131225586e-01) (52, 6.81617796421051025391e-01) (53, 5.95318019390106201172e-01) (54, -5.28515160083770751953e-01) (55, -2.23121643066406250000e-01) (56, -1.75644946098327636719e+00) (57, 1.35702097415924072266e+00) (58, 1.02166545391082763672e+00) (59, -2.98864334821701049805e-01) (60, 3.16872656345367431641e-01) (61, -1.13282594829797744751e-02) (62, 4.10050600767135620117e-01) (63, 8.22982370853424072266e-01) (64, -1.88200831413269042969e-01) (65, 3.56485694646835327148e-01) (66, 4.87367600202560424805e-01) (67, 3.18267166614532470703e-01) (68, -2.46768623590469360352e-01) (38, 1.37490379810333251953e+00) (39, 7.47064650058746337891e-01) (40, -2.75028824806213378906e-01) (41, 1.36163902282714843750e+00) (42, 7.05928206443786621094e-01) (43, 1.12057363986968994141e+00) (44, 1.87329918146133422852e-01) (45, 1.33681416511535644531e+00) (46, 2.66858458518981933594e-01) (47, 7.19934046268463134766e-01) (48, 3.53655397891998291016e-01) (49, 2.06525373458862304688e+00) (50, -1.24804809689521789551e-01) (51, -1.87482342123985290527e-01) (52, 2.03101730346679687500e+00) (53, -1.49122908711433410645e-01) (54, 1.43310263752937316895e-01) (55, 1.17664813995361328125e+00) (56, -7.03606247901916503906e-01) (57, -5.95093429088592529297e-01) (58, 8.17223370075225830078e-01) (59, -7.42092669010162353516e-01) (60, 7.20209658145904541016e-01) (61, 2.29241341352462768555e-01) (62, -2.46338248252868652344e-01) (63, 4.85762923955917358398e-01) (64, -7.70837143063545227051e-02) (65, 1.39146733283996582031e+00) (66, -5.40232181549072265625e-01) (67, 8.17852377891540527344e-01) (68, 1.29868733882904052734e+00) (38, -1.06160067021846771240e-01) (39, 5.49945116043090820312e-01) (40, -4.48920994997024536133e-01) (41, -2.48579651117324829102e-01) (42, 3.54753613471984863281e-01) (43, 1.04686129093170166016e+00) (44, -1.92204236984252929688e+00) (45, 6.15717589855194091797e-01) (46, -6.15869343280792236328e-01) (47, 1.18444788455963134766e+00) (48, 2.72012472152709960938e-01) (49, 1.43900826573371887207e-01) (50, -1.34167146682739257812e+00) (51, 5.23156702518463134766e-01) (52, 7.30724930763244628906e-01) (53, 3.51279795169830322266e-01) (54, -5.40040135383605957031e-01) (55, -7.44162380695343017578e-01) (56, 6.79064035415649414062e-01) (57, 8.99392887949943542480e-02) (58, -4.00644570589065551758e-01) (59, -1.39222502708435058594e+00) (60, 7.47288018465042114258e-02) (61, 1.12835431098937988281e+00) (62, -4.35029774904251098633e-01) (63, -7.44808018207550048828e-01) (64, 5.06987869739532470703e-01) (65, -6.91404417157173156738e-02) (66, 1.86624489724636077881e-02) (67, 5.19634187221527099609e-01) (68, 8.02076220512390136719e-01) (38, 5.63804507255554199219e-01) (39, -3.59212560579180717468e-03) (40, 8.39672982692718505859e-01) (41, 1.50048345327377319336e-01) (42, 5.22684037685394287109e-01) (43, 5.31848549842834472656e-01) (44, 1.22322654724121093750e+00) (45, 5.30666887760162353516e-01) (46, -7.06864535808563232422e-01) (47, 8.08101296424865722656e-01) (48, 7.42019787430763244629e-02) (49, 3.93095314502716064453e-02) (50, -3.74694503843784332275e-02) (51, -7.15665221214294433594e-01) (52, 3.58610481023788452148e-01) (53, 6.45710051059722900391e-01) (54, -2.07031995058059692383e-01) (55, 1.11368215084075927734e+00) (56, -2.32536941766738891602e-01) (57, 4.97138202190399169922e-01) (58, -8.18893492221832275391e-01) (59, 4.22160089015960693359e-01) (60, -6.91546916961669921875e-01) (61, -9.08817470073699951172e-01) (62, 4.68284696340560913086e-01) (63, -2.74256557226181030273e-01) (64, 5.71056067943572998047e-01) (65, 7.71143972873687744141e-01) (66, 1.96169495582580566406e-01) (67, 7.99637794494628906250e-01) (68, 2.15982779860496520996e-01) (38, -1.64564594626426696777e-01) (39, 1.21553623676300048828e+00) (40, -3.05436141788959503174e-02) (41, -8.32156419754028320312e-01) (42, -8.71749341487884521484e-01) (43, -2.69595324993133544922e-01) (44, -5.23669064044952392578e-01) (45, -3.25401335954666137695e-01) (46, 1.13026916980743408203e-01) (47, -5.37719488143920898438e-01) (48, -5.94503521919250488281e-01) (49, 9.30132493376731872559e-02) (50, 6.30087912082672119141e-01) (51, 6.27532839775085449219e-01) (52, 8.14735233783721923828e-01) (53, 5.10736227035522460938e-01) (54, -6.01156353950500488281e-01) (55, 1.33190822601318359375e+00) (56, 2.16265276074409484863e-01) (57, 1.13487577438354492188e+00) (58, -1.13514459133148193359e+00) (59, 4.80615952983498573303e-03) (60, 1.36887037754058837891e+00) (61, -8.90582084655761718750e-01) (62, -9.54368829727172851562e-01) (63, 1.10723364353179931641e+00) (64, 1.26000213623046875000e+00) (65, 2.97303110361099243164e-01) (66, 3.36176455020904541016e-01) (67, -2.34375908970832824707e-01) (68, -1.59409299492835998535e-01) (38, 3.78470271825790405273e-02) (39, 9.67181384563446044922e-01) (40, 2.48217687010765075684e-01) (41, 1.30016714334487915039e-01) (42, 6.41763985157012939453e-01) (43, -6.83522880077362060547e-01) (44, -2.58738815784454345703e-01) (45, 1.04560995101928710938e+00) (46, 1.32716977968811988831e-02) (47, 2.00627222657203674316e-01) (48, 5.14121577143669128418e-02) (49, 7.21220150589942932129e-02) (50, 8.97185742855072021484e-01) (51, -5.21556913852691650391e-01) (52, -1.34255874156951904297e+00) (53, 8.04065823554992675781e-01) (54, 7.98190385103225708008e-02) (55, -2.49169945716857910156e-01) (56, 5.89748136699199676514e-02) (57, 1.58836555480957031250e+00) (58, -9.74831581115722656250e-02) (59, 3.91647309064865112305e-01) (60, 4.76887971162796020508e-01) (61, -4.42274481058120727539e-01) (62, -1.34682989120483398438e+00) (63, 1.74119997024536132812e+00) (64, -7.01675236225128173828e-01) (65, -2.89193600416183471680e-01) (66, -3.99077951908111572266e-01) (67, -2.67118457704782485962e-02) (68, 4.63428229093551635742e-01) (38, -7.69418716430664062500e-01) (39, -6.20950222015380859375e-01) (40, -5.30525684356689453125e-01) (41, -7.50812232494354248047e-01) (42, 7.47813701629638671875e-01) (43, -4.72831577062606811523e-01) (44, -4.81075197458267211914e-01) (45, 4.33125883340835571289e-01) (46, 9.63479042053222656250e-01) (47, 7.37949907779693603516e-01) (48, -4.56872433423995971680e-01) (49, -8.18720459938049316406e-01) (50, 8.97839725017547607422e-01) (51, 9.90513741970062255859e-01) (52, 2.21620604395866394043e-01) (53, 7.47929990291595458984e-01) (54, 1.34019240736961364746e-01) (55, 7.17875003814697265625e-01) (56, -5.01692056655883789062e-01) (57, -5.63209593296051025391e-01) (58, -8.32670748233795166016e-01) (59, 9.79696929454803466797e-01) (60, 1.62767732143402099609e+00) (61, 7.69577682018280029297e-01) (62, 5.08711561560630798340e-02) (63, 8.84770825505256652832e-02) (64, 8.78016948699951171875e-01) (65, -8.89758467674255371094e-01) (66, -8.26609432697296142578e-01) (67, 4.05729472637176513672e-01) (68, 6.41292691230773925781e-01) (38, -4.25898641347885131836e-01) (39, 3.72255653142929077148e-01) (40, 3.01499694585800170898e-01) (41, -1.04905188083648681641e+00) (42, 1.35115730762481689453e+00) (43, 1.16519761085510253906e+00) (44, -9.09639894962310791016e-01) (45, 8.37006449699401855469e-01) (46, -1.92189455032348632812e-01) (47, -6.24545812606811523438e-01) (48, 4.01248127222061157227e-01) (49, 7.42689371109008789062e-01) (50, 1.28251445293426513672e+00) (51, -6.77782073616981506348e-02) (52, 7.54860103130340576172e-01) (53, 1.45767211914062500000e-01) (54, 2.30318412184715270996e-01) (55, 6.82131707668304443359e-01) (56, 3.96703392267227172852e-01) (57, -6.53124868869781494141e-01) (58, 3.10826092958450317383e-01) (59, 3.20809304714202880859e-01) (60, -1.34943366050720214844e-01) (61, 1.08564579859375953674e-02) (62, -9.21222627162933349609e-01) (63, -2.11424961686134338379e-01) (64, -4.56525385379791259766e-01) (65, -6.48872077465057373047e-01) (66, -6.83587133884429931641e-01) (67, 1.04248039424419403076e-01) (68, 5.82253158092498779297e-01) (38, 4.30186450481414794922e-01) (39, -2.18100592494010925293e-01) (40, 2.65364050865173339844e-01) (41, 1.78118973970413208008e-01) (42, -5.49833834171295166016e-01) (43, 5.08882224559783935547e-01) (44, 1.20921111106872558594e+00) (45, -4.52398419380187988281e-01) (46, 1.29901123046875000000e+00) (47, 1.29948377609252929688e-01) (48, 1.03105247020721435547e+00) (49, -5.50014078617095947266e-01) (50, 1.47836399078369140625e+00) (51, -1.48533880710601806641e-01) (52, -1.81409895420074462891e-01) (53, -7.46083855628967285156e-01) (54, 4.44941073656082153320e-01) (55, 2.18883410096168518066e-01) (56, 9.30286288261413574219e-01) (57, -2.73470520973205566406e-01) (58, 1.16626071929931640625e+00) (59, -1.75441831350326538086e-01) (60, 9.42093431949615478516e-02) (61, 1.24922402203083038330e-01) (62, 5.02908322960138320923e-03) (63, 6.10987961292266845703e-01) (64, -4.51495021581649780273e-01) (65, 4.23772595822811126709e-02) (66, 8.54214608669281005859e-01) (67, 3.65408480167388916016e-01) (68, 1.44016182422637939453e+00) (38, -2.13729009032249450684e-01) (39, 9.74608421325683593750e-01) (40, 5.50951004028320312500e-01) (41, 7.57810890674591064453e-01) (42, -3.34029681980609893799e-02) (43, 7.67622649669647216797e-01) (44, -1.14924654364585876465e-01) (45, 6.52686953544616699219e-02) (46, 8.05861949920654296875e-01) (47, 7.00126647949218750000e-01) (48, -2.47467830777168273926e-01) (49, -6.02947533130645751953e-01) (50, 3.49289625883102416992e-01) (51, -3.05194675922393798828e-01) (52, -1.69323891401290893555e-01) (53, 1.40305411815643310547e+00) (54, 8.49334061145782470703e-01) (55, 5.31103909015655517578e-01) (56, 1.41286909580230712891e-01) (57, -7.67222821712493896484e-01) (58, 1.01069116592407226562e+00) (59, -5.89460909366607666016e-01) (60, 5.69645941257476806641e-01) (61, -4.32522684335708618164e-01) (62, -4.89695578813552856445e-01) (63, 1.57790839672088623047e-01) (64, -1.88242003321647644043e-01) (65, 1.10376405715942382812e+00) (66, 1.46977782249450683594e-01) (67, 1.34714937210083007812e+00) (68, 1.95132866501808166504e-01) (38, -1.70520231127738952637e-01) (39, 6.39619648456573486328e-01) (40, -5.47698497772216796875e-01) (41, -4.64273244142532348633e-01) (42, -3.20867359638214111328e-01) (43, 7.51051664352416992188e-01) (44, 2.04436480998992919922e-01) (45, 1.14587567746639251709e-01) (46, 6.10627830028533935547e-01) (47, 1.27339541912078857422e-01) (48, 1.29656898975372314453e+00) (49, 6.61394536495208740234e-01) (50, -4.79644209146499633789e-01) (51, -2.66243927180767059326e-02) (52, -2.12722137570381164551e-01) (53, 9.71551954746246337891e-01) (54, 2.66542792320251464844e-01) (55, -2.98717170953750610352e-01) (56, 4.78877604007720947266e-01) (57, -6.61521017551422119141e-01) (58, -7.01444327831268310547e-01) (59, 8.26087832450866699219e-01) (60, 7.41302013397216796875e-01) (61, -3.38445395231246948242e-01) (62, 1.18982724845409393311e-01) (63, 7.86978304386138916016e-02) (64, 1.10749030113220214844e+00) (65, 6.05578243732452392578e-01) (66, 1.10309267044067382812e+00) (67, -1.01882532238960266113e-01) (68, 6.22754618525505065918e-02) (38, 2.64020115137100219727e-01) (39, -3.39681178331375122070e-01) (40, 9.32630989700555801392e-03) (41, 4.15965944528579711914e-01) (42, -5.23856058716773986816e-02) (43, 1.67658016085624694824e-01) (44, -3.43536913394927978516e-01) (45, -5.77411592006683349609e-01) (46, 2.00347989797592163086e-01) (47, 3.10182660818099975586e-01) (48, -3.85860830545425415039e-01) (49, -2.58390426635742187500e-01) (50, 3.97530019283294677734e-01) (51, -2.93643325567245483398e-01) (52, -2.37293064594268798828e-01) (53, 8.06976929306983947754e-02) (54, 3.04249733686447143555e-01) (55, 3.82118314504623413086e-01) (56, -4.05079990625381469727e-01) (57, 6.44039452075958251953e-01) (58, 3.71742725372314453125e-01) (59, -4.16758269071578979492e-01) (60, 3.28453928232192993164e-01) (61, 1.62275478243827819824e-01) (62, -1.31830871105194091797e-01) (63, -7.65986144542694091797e-01) (64, 1.10271024703979492188e+00) (65, -4.00950878858566284180e-01) (66, 6.79312467575073242188e-01) (67, -2.78013139963150024414e-01) (68, -3.59375029802322387695e-02) (38, -7.81697392463684082031e-01) (39, 2.68267750740051269531e-01) (40, 7.06238389015197753906e-01) (41, 6.44496023654937744141e-01) (42, 4.19320642948150634766e-01) (43, -5.98487794399261474609e-01) (44, 4.80150477960705757141e-03) (45, 1.23878943920135498047e+00) (46, 1.18375420570373535156e+00) (47, 3.03466439247131347656e-01) (48, 7.79843866825103759766e-01) (49, 2.16419845819473266602e-01) (50, -1.03213042020797729492e-01) (51, -3.14436972141265869141e-01) (52, 1.91486865282058715820e-01) (53, 6.05661571025848388672e-01) (54, 6.48510575294494628906e-01) (55, -4.70944792032241821289e-01) (56, -3.17952185869216918945e-01) (57, 3.16370218992233276367e-01) (58, 7.72882640361785888672e-01) (59, -3.60674679279327392578e-01) (60, -8.59557449817657470703e-01) (61, 4.43100184202194213867e-01) (62, 4.93876248598098754883e-01) (63, -1.15676617622375488281e+00) (64, 5.96295744180679321289e-02) (65, 3.28883171081542968750e-01) (66, 7.55112588405609130859e-01) (67, 4.27807956933975219727e-01) (68, 9.92025136947631835938e-01) (38, 9.55496370792388916016e-01) (39, 1.49781942367553710938e+00) (40, 6.37677013874053955078e-01) (41, 4.39752964302897453308e-03) (42, 8.29711318016052246094e-01) (43, 6.37200891971588134766e-01) (44, 3.55786010622978210449e-02) (45, 4.77154970169067382812e-01) (46, 2.40909129381179809570e-01) (47, 1.09754812717437744141e+00) (48, 2.25647658109664916992e-01) (49, -5.94565153121948242188e-01) (50, -4.36950892210006713867e-01) (51, 2.22557878494262695312e+00) (52, -6.30999147891998291016e-01) (53, 5.01258552074432373047e-01) (54, 5.23733139038085937500e-01) (55, 2.76570767164230346680e-01) (56, 1.27470850944519042969e+00) (57, 8.56228291988372802734e-01) (58, -7.61150181293487548828e-01) (59, 6.11358061432838439941e-02) (60, 8.30108523368835449219e-01) (61, 4.84974123537540435791e-02) (62, 4.93977159261703491211e-01) (63, 1.19983565807342529297e+00) (64, 8.11112225055694580078e-01) (65, -3.27973484992980957031e-01) (66, 8.78885149955749511719e-01) (67, -4.00248259305953979492e-01) (68, -5.95197677612304687500e-01) (38, 2.73241668939590454102e-01) (39, -7.78397321701049804688e-01) (40, 9.50406193733215332031e-01) (41, -1.59502029418945312500e-01) (42, 1.02444493770599365234e+00) (43, 7.51043021678924560547e-01) (44, 7.51170396804809570312e-01) (45, 3.89317959547042846680e-01) (46, -1.03011143207550048828e+00) (47, 4.15295511484146118164e-01) (48, -3.11778247356414794922e-01) (49, 3.47552746534347534180e-01) (50, 9.79688525199890136719e-01) (51, -1.01079559326171875000e+00) (52, 1.02844625711441040039e-01) (53, 7.37608313560485839844e-01) (54, 9.07769083976745605469e-01) (55, 1.04125463962554931641e+00) (56, 5.34920036792755126953e-01) (57, 5.14320254325866699219e-01) (58, 7.45276749134063720703e-01) (59, 4.38138663768768310547e-01) (60, -6.99419528245925903320e-02) (61, -2.16617181897163391113e-01) (62, -3.45606217160820960999e-03) (63, -7.13488996028900146484e-01) (64, 1.14231240749359130859e+00) (65, 1.15224815905094146729e-01) (66, 1.04818248748779296875e+00) (67, 1.60341763496398925781e+00) (68, 1.29190936684608459473e-01) (38, 3.65815460681915283203e-02) (39, -8.38098168373107910156e-01) (40, -3.30504536628723144531e-01) (41, 7.87378072738647460938e-01) (42, -5.37675082683563232422e-01) (43, 5.85777223110198974609e-01) (44, 1.71656942367553710938e+00) (45, 3.62266242504119873047e-01) (46, -7.49857962131500244141e-01) (47, 7.16703057289123535156e-01) (48, 1.59751129150390625000e+00) (49, 2.01149925589561462402e-01) (50, -5.04393160343170166016e-01) (51, 1.22730123996734619141e+00) (52, -1.43612310290336608887e-01) (53, 1.13225328922271728516e+00) (54, -9.87313538789749145508e-02) (55, 9.64720785617828369141e-01) (56, 1.35978603363037109375e+00) (57, -5.38930654525756835938e-01) (58, 8.93054783344268798828e-01) (59, -4.01690810918807983398e-01) (60, -2.51122474670410156250e-01) (61, 1.07686780393123626709e-01) (62, 3.54444891214370727539e-01) (63, 6.64100646972656250000e-01) (64, 2.51541554927825927734e-01) (65, 9.78176653385162353516e-01) (66, 1.11246061325073242188e+00) (67, 7.15313255786895751953e-02) (68, -2.73327738046646118164e-01) (38, -2.74980723857879638672e-01) (39, 2.46090948581695556641e-01) (40, 6.77824020385742187500e-01) (41, -7.48856008052825927734e-01) (42, 9.44855690002441406250e-01) (43, 5.61196982860565185547e-01) (44, 5.28693377971649169922e-01) (45, -1.18899807333946228027e-01) (46, 9.73077178001403808594e-01) (47, -4.60700094699859619141e-01) (48, -4.19242411851882934570e-01) (49, 6.62250220775604248047e-01) (50, 2.39670678973197937012e-01) (51, -5.49820542335510253906e-01) (52, 4.33770388364791870117e-01) (53, 3.18067699670791625977e-01) (54, 9.66715395450592041016e-01) (55, -5.51841706037521362305e-02) (56, 1.14045381546020507812e+00) (57, 8.25402557849884033203e-01) (58, 5.65099596977233886719e-01) (59, -1.44255125522613525391e+00) (60, -1.13604836165904998779e-01) (61, 1.10753774642944335938e+00) (62, 1.30234941840171813965e-01) (63, 5.69822728633880615234e-01) (64, 1.19210577011108398438e+00) (65, -3.74232113361358642578e-01) (66, 4.10020537674427032471e-02) (67, 7.81511843204498291016e-01) (68, 3.01536858081817626953e-01) (38, 1.89006730914115905762e-01) (39, -8.74442100524902343750e-01) (40, 6.12984001636505126953e-01) (41, 6.58123016357421875000e-01) (42, 1.02287733554840087891e+00) (43, 7.47083306312561035156e-01) (44, 6.13517224788665771484e-01) (45, -5.73207497596740722656e-01) (46, 5.16579806804656982422e-01) (47, -7.99805596470832824707e-02) (48, -3.18465232849121093750e-01) (49, -7.61662781238555908203e-01) (50, 1.32217034697532653809e-01) (51, 8.02483677864074707031e-01) (52, 1.89408719539642333984e-01) (53, -7.09047317504882812500e-01) (54, 1.37468647956848144531e+00) (55, 2.41971999406814575195e-01) (56, 2.36028805375099182129e-01) (57, 5.59100657701492309570e-02) (58, -4.34381365776062011719e-01) (59, -4.66738820075988769531e-01) (60, 9.27499353885650634766e-01) (61, 1.39110362529754638672e+00) (62, 6.42418563365936279297e-01) (63, -1.39352142810821533203e-01) (64, 3.22819590568542480469e-01) (65, 9.07139122486114501953e-01) (66, 6.84260606765747070312e-01) (67, 2.39810705184936523438e+00) (68, -1.13090753555297851562e+00) (38, 6.39567017555236816406e-01) (39, -9.64628756046295166016e-01) (40, 1.01327610015869140625e+00) (41, 9.39689874649047851562e-02) (42, 3.53445589542388916016e-01) (43, 4.88339900970458984375e-01) (44, -1.36590264737606048584e-02) (45, -1.53086051344871520996e-01) (46, -1.33504778146743774414e-01) (47, -4.10032987594604492188e-01) (48, 9.18917715549468994141e-01) (49, 1.04582093656063079834e-01) (50, 1.12098705768585205078e+00) (51, 1.78312078118324279785e-01) (52, -6.10509157180786132812e-01) (53, 8.20989310741424560547e-01) (54, 4.42708551883697509766e-01) (55, -1.22110299766063690186e-01) (56, -4.32728469371795654297e-01) (57, -6.27886950969696044922e-01) (58, 1.85746978968381881714e-02) (59, -1.84921577572822570801e-01) (60, 4.41910952329635620117e-01) (61, 4.92741048336029052734e-01) (62, 5.81532835960388183594e-01) (63, 1.81267368793487548828e+00) (64, 1.34958848357200622559e-01) (65, -1.56596507877111434937e-02) (66, 3.91929447650909423828e-02) (67, -1.41500735282897949219e+00) (68, -1.11658468842506408691e-01) (38, -1.45599520206451416016e+00) (39, -2.90753453969955444336e-01) (40, -3.87940168380737304688e-01) (41, 1.54049170017242431641e+00) (42, -1.34324204921722412109e+00) (43, 5.58157682418823242188e-01) (44, 1.15404546260833740234e+00) (45, 1.39460551738739013672e+00) (46, -9.44427311420440673828e-01) (47, 6.64320737123489379883e-02) (48, -6.25779554247856140137e-02) (49, -2.64392793178558349609e-01) (50, 1.61335146427154541016e+00) (51, -1.71498715877532958984e+00) (52, -8.54283213615417480469e-01) (53, 1.82958805561065673828e+00) (54, 2.63038843870162963867e-01) (55, -2.04858213663101196289e-01) (56, 5.55880784988403320312e-01) (57, 9.52532529830932617188e-01) (58, -1.81213319301605224609e-01) (59, -6.97127878665924072266e-01) (60, -2.11655879020690917969e+00) (61, -7.62526154518127441406e-01) (62, 4.12173122167587280273e-02) (63, 4.20062184333801269531e-01) (64, -1.42827779054641723633e-01) (65, 1.69306099414825439453e+00) (66, 4.72237646579742431641e-01) (67, -6.70774221420288085938e-01) (68, 1.40417420864105224609e+00) (38, -1.21905297040939331055e-01) (39, -1.94530099630355834961e-01) (40, 1.22446298599243164062e+00) (41, 2.19125971198081970215e-02) (42, -1.89513123035430908203e+00) (43, 4.52077299356460571289e-01) (44, 8.49575638771057128906e-01) (45, 6.86613321304321289062e-01) (46, -8.47632169723510742188e-01) (47, -3.18151056766510009766e-01) (48, 4.95166867971420288086e-01) (49, -3.07888567447662353516e-01) (50, 9.89015221595764160156e-01) (51, -7.93770134449005126953e-01) (52, -6.28033459186553955078e-01) (53, 5.07845580577850341797e-01) (54, 4.31034058332443237305e-01) (55, 1.04999840259552001953e+00) (56, 5.47894656658172607422e-01) (57, -1.13524794578552246094e-01) (58, -4.00401115417480468750e-01) (59, 7.50170826911926269531e-01) (60, -6.73628270626068115234e-01) (61, -7.48072624206542968750e-01) (62, -6.83319032192230224609e-01) (63, 1.40223515033721923828e+00) (64, 2.48167105019092559814e-02) (65, 4.22746777534484863281e-01) (66, -2.68953919410705566406e-01) (67, -2.37165316939353942871e-01) (68, -4.12329167127609252930e-01) (38, 1.84637099504470825195e-01) (39, -3.50871264934539794922e-01) (40, -8.68198394775390625000e-01) (41, -9.97767820954322814941e-02) (42, -1.33097136020660400391e+00) (43, -4.16160315275192260742e-01) (44, 2.35707029700279235840e-01) (45, -1.95468917489051818848e-01) (46, -8.28291714191436767578e-01) (47, 8.98706376552581787109e-01) (48, 2.94741272926330566406e-01) (49, 5.45874953269958496094e-01) (50, -1.10110175609588623047e+00) (51, 4.44257825613021850586e-01) (52, -1.06215655803680419922e+00) (53, 1.15052603185176849365e-01) (54, -3.04386556148529052734e-01) (55, 6.27039611339569091797e-01) (56, -4.95495080947875976562e-01) (57, -2.53156393766403198242e-01) (58, -1.16058349609375000000e-01) (59, 5.23104429244995117188e-01) (60, 8.23152661323547363281e-02) (61, 1.08504343032836914062e+00) (62, 2.46734336018562316895e-01) (63, 1.02686375379562377930e-01) (64, 8.82702320814132690430e-02) (65, 4.35919106006622314453e-01) (66, -8.22223499417304992676e-02) (67, 4.58550512790679931641e-01) (68, 8.93122971057891845703e-01) (38, -1.13233983516693115234e+00) (39, 7.57090747356414794922e-02) (40, -5.24182558059692382812e-01) (41, 1.78587749600410461426e-01) (42, 9.34624791145324707031e-01) (43, -6.60834550857543945312e-01) (44, 1.10446071624755859375e+00) (45, -1.05225014686584472656e+00) (46, 1.86558291316032409668e-02) (47, 5.94878017902374267578e-01) (48, 1.33289527893066406250e+00) (49, -2.77530312538146972656e-01) (50, 9.54306840896606445312e-01) (51, 1.00040185451507568359e+00) (52, 4.42123770713806152344e-01) (53, 9.21048521995544433594e-01) (54, 9.40594732761383056641e-01) (55, -7.84013643860816955566e-02) (56, 1.29366719722747802734e+00) (57, 6.04105114936828613281e-01) (58, -1.75680100917816162109e-01) (59, 5.98707258701324462891e-01) (60, 5.87211549282073974609e-01) (61, 3.17149877548217773438e-01) (62, -5.08613824844360351562e-01) (63, -8.24005454778671264648e-02) (64, -4.31608557701110839844e-02) (65, 4.27433669567108154297e-01) (66, 3.15904885530471801758e-01) (67, 6.58847153186798095703e-01) (68, 5.11224269866943359375e-01) (38, 1.92468985915184020996e-01) (39, -6.89421832561492919922e-01) (40, 3.78451168537139892578e-01) (41, -9.25593137741088867188e-01) (42, 2.05129623413085937500e-01) (43, 9.21555459499359130859e-02) (44, -3.46439987421035766602e-01) (45, 1.40006676316261291504e-01) (46, -5.59807121753692626953e-01) (47, 6.37638807296752929688e-01) (48, 4.82604563236236572266e-01) (49, 4.21171486377716064453e-01) (50, -4.91166353225708007812e-01) (51, -4.75934386253356933594e-01) (52, 1.22488355636596679688e+00) (53, -9.64441299438476562500e-01) (54, -5.66109538078308105469e-01) (55, 1.07985377311706542969e-01) (56, -5.16110539436340332031e-01) (57, 7.39666759967803955078e-01) (58, 8.47442269325256347656e-01) (59, 6.42630040645599365234e-01) (60, -7.84472599625587463379e-02) (61, 5.61169803142547607422e-01) (62, 1.32682764530181884766e+00) (63, 4.50098127126693725586e-01) (64, 6.43501818180084228516e-01) (65, 1.44259035587310791016e-02) (66, -5.38170278072357177734e-01) (67, 9.48282599449157714844e-01) (68, -6.41125202178955078125e-01) (69, 2.44008705019950866699e-01) (70, 4.05908137559890747070e-01) (71, 6.93220794200897216797e-01) (72, 9.06119823455810546875e-01) (73, -2.22404643893241882324e-01) (74, 4.33523267507553100586e-01) (75, 6.69723153114318847656e-01) (76, -7.91414141654968261719e-01) (77, 1.65763974189758300781e-01) (78, 3.92193943262100219727e-01) (79, 8.02028596401214599609e-01) (80, 2.35725164413452148438e-01) (81, -6.14813007414340972900e-02) (82, -7.63226389884948730469e-01) (83, -2.11452588438987731934e-01) (84, 4.91768538951873779297e-01) (85, -7.31816351413726806641e-01) (86, -5.65653026103973388672e-01) (87, 9.61573183536529541016e-01) (88, -4.38898772001266479492e-01) (89, 8.12563002109527587891e-01) (90, 8.20812642574310302734e-01) (91, 2.78230249881744384766e-01) (92, 3.19979608058929443359e-01) (93, 1.30621880292892456055e-01) (94, -1.54226288199424743652e-01) (95, 3.77459168434143066406e-01) (96, 9.61250543594360351562e-01) (97, -4.54057902097702026367e-01) (98, 3.89908134937286376953e-01) (99, 8.92255604267120361328e-01) (69, -6.93395286798477172852e-02) (70, 2.28997498750686645508e-01) (71, 7.61093199253082275391e-01) (72, 1.01089715957641601562e+00) (73, 4.64355200529098510742e-01) (74, 2.94008672237396240234e-01) (75, 4.96390521526336669922e-01) (76, 5.84776759147644042969e-01) (77, 3.90205472707748413086e-01) (78, 6.09309256076812744141e-01) (79, 2.16408781707286834717e-02) (80, 1.32269039750099182129e-01) (81, 4.52133655548095703125e-01) (82, -7.11183696985244750977e-02) (83, 7.38700568675994873047e-01) (84, 5.45002758502960205078e-01) (85, 9.23677831888198852539e-02) (86, 1.00846278667449951172e+00) (87, 4.05330330133438110352e-01) (88, 3.81663858890533447266e-01) (89, 5.26065826416015625000e-01) (90, -7.34917402267456054688e-01) (91, 5.50690650939941406250e-01) (92, 8.25834631919860839844e-01) (93, 7.15827524662017822266e-01) (94, -1.55990151688456535339e-02) (95, -2.02084884047508239746e-01) (96, 4.00780513882637023926e-02) (97, -2.30916753411293029785e-01) (98, 4.49098944664001464844e-01) (99, 6.87948107719421386719e-01) (69, -1.73958241939544677734e-01) (70, 4.20532941818237304688e-01) (71, 4.68571454286575317383e-01) (72, -2.94135481119155883789e-01) (73, 4.09946292638778686523e-01) (74, 6.09939992427825927734e-01) (75, -3.56541514396667480469e-01) (76, 1.22256135940551757812e+00) (77, 6.66590929031372070312e-01) (78, -1.90675303339958190918e-01) (79, -2.78427600860595703125e-02) (80, -1.57528924942016601562e+00) (81, -6.99258074164390563965e-02) (82, -6.45973920822143554688e-01) (83, 6.19914829730987548828e-01) (84, -2.98397570848464965820e-01) (85, 5.15877008438110351562e-01) (86, -4.15752828121185302734e-01) (87, 8.46448779106140136719e-01) (88, 6.72720432281494140625e-01) (89, 5.21645396947860717773e-02) (90, -3.93794417381286621094e-01) (91, 1.18739056587219238281e+00) (92, 4.43192631006240844727e-01) (93, -1.63243934512138366699e-01) (94, -4.62050139904022216797e-01) (95, 1.80251136422157287598e-01) (96, 8.71382296085357666016e-01) (97, 1.95617631077766418457e-01) (98, 6.33934557437896728516e-01) (99, 5.33085942268371582031e-01) (69, -1.37510865926742553711e-01) (70, 1.09125971794128417969e+00) (71, 9.33108702301979064941e-02) (72, 2.21791893243789672852e-01) (73, -3.06098908185958862305e-01) (74, 8.74388098716735839844e-01) (75, 8.81272375583648681641e-01) (76, -4.87655371427536010742e-01) (77, 7.48139858245849609375e-01) (78, 6.88474714756011962891e-01) (79, 4.30153429508209228516e-01) (80, 6.73652887344360351562e-01) (81, -4.03176456689834594727e-01) (82, 3.39405238628387451172e-01) (83, 6.89869344234466552734e-01) (84, 1.20426572859287261963e-01) (85, 4.10975843667984008789e-01) (86, 1.38366544246673583984e+00) (87, -9.47676420211791992188e-01) (88, -4.55294921994209289551e-02) (89, 1.16878080368041992188e+00) (90, 9.79907214641571044922e-02) (91, -3.49226087331771850586e-01) (92, 1.47171631455421447754e-01) (93, -4.63864833116531372070e-01) (94, -2.94823467731475830078e-01) (95, 1.20547249913215637207e-01) (96, -9.10342633724212646484e-01) (97, 2.67230570316314697266e-01) (98, 8.00011813640594482422e-01) (99, -1.60538256168365478516e-01) (69, 1.35016918182373046875e+00) (70, 1.07813052833080291748e-01) (71, 9.53764736652374267578e-01) (72, 1.93106308579444885254e-02) (73, 3.98604840040206909180e-01) (74, 5.23896336555480957031e-01) (75, 5.23299396038055419922e-01) (76, 9.13474202156066894531e-01) (77, 3.50459292531013488770e-02) (78, 3.04841756820678710938e-01) (79, 3.44329565763473510742e-01) (80, -3.75123888254165649414e-01) (81, 1.78247496485710144043e-01) (82, -3.63397628068923950195e-01) (83, -9.40644025802612304688e-01) (84, 1.06265151500701904297e+00) (85, -8.28552961349487304688e-01) (86, 1.97140470147132873535e-01) (87, 3.57287675142288208008e-01) (88, 1.34055387973785400391e+00) (89, 8.27570259571075439453e-01) (90, -1.45443201065063476562e+00) (91, 4.71493691205978393555e-01) (92, 4.06987607479095458984e-01) (93, 3.07409018278121948242e-01) (94, 4.84130799770355224609e-01) (95, 5.91305732727050781250e-01) (96, -3.93584787845611572266e-01) (97, -4.64368700981140136719e-01) (98, -3.05423270910978317261e-02) (99, -3.90035629272460937500e-01) (69, -2.54172176122665405273e-01) (70, -2.08892539143562316895e-01) (71, 1.28467798233032226562e+00) (72, 3.81553798913955688477e-01) (73, -2.59226977825164794922e-01) (74, 3.52036654949188232422e-01) (75, -5.88764309883117675781e-01) (76, 9.47052299976348876953e-01) (77, 1.11348080635070800781e+00) (78, -9.75462049245834350586e-02) (79, 5.93272075057029724121e-02) (80, -2.59067654609680175781e-01) (81, 4.31614279747009277344e-01) (82, 1.12748992443084716797e+00) (83, -8.91906499862670898438e-01) (84, 1.19734600186347961426e-01) (85, -1.60154383629560470581e-02) (86, 5.41766583919525146484e-02) (87, 1.01200056076049804688e+00) (88, 8.52971017360687255859e-01) (89, 5.59362888336181640625e-01) (90, 5.41701436042785644531e-01) (91, 1.32130634784698486328e+00) (92, 8.54715228080749511719e-01) (93, -1.03987716138362884521e-01) (94, -1.06968410313129425049e-01) (95, -7.04974651336669921875e-01) (96, 4.68810051679611206055e-01) (97, -6.43220901489257812500e-01) (98, 1.22640562057495117188e+00) (99, 7.05019772052764892578e-01)
input_names='in1_eps' 'in2_q' 'in3_nu' 'in4_n2' 'in5_t2' 'in6_geo'
output_names='OUT_cne' 'OUT_cni1' 'OUT_cni2' 'OUT_cte' 'OUT_cti1' 'OUT_cti2'
norm_output=0.0 0.0 0.0 0.0 0.0 0.0 0.0 0.0 0.0 0.0 0.0 0.0 0.0 0.0 0.0 0.0 0.0 0.0 0.0 0.0 0.0 0.0 0.0 0.0 0.0 0.0 0.0 0.0 0.0 0.0 0.0 0.0 0.0 0.0 0.0 0.0
MSE= 0.00149144686293