FANN_FLO_2.1
num_layers=5
learning_rate=0.700000
connection_rate=1.000000
network_type=0
learning_momentum=0.000000
training_algorithm=2
train_error_function=0
train_stop_function=0
cascade_output_change_fraction=0.010000
quickprop_decay=770.139587
quickprop_mu=1.750000
rprop_increase_factor=1.200000
rprop_decrease_factor=0.500000
rprop_delta_min=0.000000
rprop_delta_max=50.000000
rprop_delta_zero=0.100000
cascade_output_stagnation_epochs=12
cascade_candidate_change_fraction=0.010000
cascade_candidate_stagnation_epochs=12
cascade_max_out_epochs=150
cascade_min_out_epochs=50
cascade_max_cand_epochs=150
cascade_min_cand_epochs=50
cascade_num_candidate_groups=2
bit_fail_limit=3.49999994039535522461e-01
cascade_candidate_limit=1.00000000000000000000e+03
cascade_weight_multiplier=4.00000005960464477539e-01
cascade_activation_functions_count=10
cascade_activation_functions=3 5 7 8 10 11 14 15 16 17
cascade_activation_steepnesses_count=4
cascade_activation_steepnesses=2.50000000000000000000e-01 5.00000000000000000000e-01 7.50000000000000000000e-01 1.00000000000000000000e+00
layer_sizes=7 31 31 31 7
scale_included=1
scale_mean_in=0.200000 5.500000 -0.446233 0.798540 2.000000 0.586316
scale_deviation_in=0.096271 2.796810 1.048893 0.131916 0.670323 0.139613
scale_new_min_in=-1.000000 -1.000000 -1.000000 -1.000000 -1.000000 -1.000000
scale_factor_in=1.000000 1.000000 1.000000 1.000000 1.000000 1.000000
scale_mean_out=0.361187 0.694808 0.126587 0.400913 0.469681 0.086611
scale_deviation_out=0.231777 0.493533 0.149526 0.195050 0.307003 0.084489
scale_new_min_out=-1.000000 -1.000000 -1.000000 -1.000000 -1.000000 -1.000000
scale_factor_out=1.000000 1.000000 1.000000 1.000000 1.000000 1.000000
neurons (num_inputs, activation_function, activation_steepness)=(0, 0, 0.00000000000000000000e+00) (0, 0, 0.00000000000000000000e+00) (0, 0, 0.00000000000000000000e+00) (0, 0, 0.00000000000000000000e+00) (0, 0, 0.00000000000000000000e+00) (0, 0, 0.00000000000000000000e+00) (0, 0, 0.00000000000000000000e+00) (7, 5, 5.00000000000000000000e-01) (7, 5, 5.00000000000000000000e-01) (7, 5, 5.00000000000000000000e-01) (7, 5, 5.00000000000000000000e-01) (7, 5, 5.00000000000000000000e-01) (7, 5, 5.00000000000000000000e-01) (7, 5, 5.00000000000000000000e-01) (7, 5, 5.00000000000000000000e-01) (7, 5, 5.00000000000000000000e-01) (7, 5, 5.00000000000000000000e-01) (7, 5, 5.00000000000000000000e-01) (7, 5, 5.00000000000000000000e-01) (7, 5, 5.00000000000000000000e-01) (7, 5, 5.00000000000000000000e-01) (7, 5, 5.00000000000000000000e-01) (7, 5, 5.00000000000000000000e-01) (7, 5, 5.00000000000000000000e-01) (7, 5, 5.00000000000000000000e-01) (7, 5, 5.00000000000000000000e-01) (7, 5, 5.00000000000000000000e-01) (7, 5, 5.00000000000000000000e-01) (7, 5, 5.00000000000000000000e-01) (7, 5, 5.00000000000000000000e-01) (7, 5, 5.00000000000000000000e-01) (7, 5, 5.00000000000000000000e-01) (7, 5, 5.00000000000000000000e-01) (7, 5, 5.00000000000000000000e-01) (7, 5, 5.00000000000000000000e-01) (7, 5, 5.00000000000000000000e-01) (7, 5, 5.00000000000000000000e-01) (0, 5, 0.00000000000000000000e+00) (31, 5, 5.00000000000000000000e-01) (31, 5, 5.00000000000000000000e-01) (31, 5, 5.00000000000000000000e-01) (31, 5, 5.00000000000000000000e-01) (31, 5, 5.00000000000000000000e-01) (31, 5, 5.00000000000000000000e-01) (31, 5, 5.00000000000000000000e-01) (31, 5, 5.00000000000000000000e-01) (31, 5, 5.00000000000000000000e-01) (31, 5, 5.00000000000000000000e-01) (31, 5, 5.00000000000000000000e-01) (31, 5, 5.00000000000000000000e-01) (31, 5, 5.00000000000000000000e-01) (31, 5, 5.00000000000000000000e-01) (31, 5, 5.00000000000000000000e-01) (31, 5, 5.00000000000000000000e-01) (31, 5, 5.00000000000000000000e-01) (31, 5, 5.00000000000000000000e-01) (31, 5, 5.00000000000000000000e-01) (31, 5, 5.00000000000000000000e-01) (31, 5, 5.00000000000000000000e-01) (31, 5, 5.00000000000000000000e-01) (31, 5, 5.00000000000000000000e-01) (31, 5, 5.00000000000000000000e-01) (31, 5, 5.00000000000000000000e-01) (31, 5, 5.00000000000000000000e-01) (31, 5, 5.00000000000000000000e-01) (31, 5, 5.00000000000000000000e-01) (31, 5, 5.00000000000000000000e-01) (31, 5, 5.00000000000000000000e-01) (0, 5, 0.00000000000000000000e+00) (31, 5, 5.00000000000000000000e-01) (31, 5, 5.00000000000000000000e-01) (31, 5, 5.00000000000000000000e-01) (31, 5, 5.00000000000000000000e-01) (31, 5, 5.00000000000000000000e-01) (31, 5, 5.00000000000000000000e-01) (31, 5, 5.00000000000000000000e-01) (31, 5, 5.00000000000000000000e-01) (31, 5, 5.00000000000000000000e-01) (31, 5, 5.00000000000000000000e-01) (31, 5, 5.00000000000000000000e-01) (31, 5, 5.00000000000000000000e-01) (31, 5, 5.00000000000000000000e-01) (31, 5, 5.00000000000000000000e-01) (31, 5, 5.00000000000000000000e-01) (31, 5, 5.00000000000000000000e-01) (31, 5, 5.00000000000000000000e-01) (31, 5, 5.00000000000000000000e-01) (31, 5, 5.00000000000000000000e-01) (31, 5, 5.00000000000000000000e-01) (31, 5, 5.00000000000000000000e-01) (31, 5, 5.00000000000000000000e-01) (31, 5, 5.00000000000000000000e-01) (31, 5, 5.00000000000000000000e-01) (31, 5, 5.00000000000000000000e-01) (31, 5, 5.00000000000000000000e-01) (31, 5, 5.00000000000000000000e-01) (31, 5, 5.00000000000000000000e-01) (31, 5, 5.00000000000000000000e-01) (31, 5, 5.00000000000000000000e-01) (0, 5, 0.00000000000000000000e+00) (31, 0, 5.00000000000000000000e-01) (31, 0, 5.00000000000000000000e-01) (31, 0, 5.00000000000000000000e-01) (31, 0, 5.00000000000000000000e-01) (31, 0, 5.00000000000000000000e-01) (31, 0, 5.00000000000000000000e-01) (0, 0, 0.00000000000000000000e+00)
connections (connected_to_neuron, weight)=(0, 2.24885679781436920166e-02) (1, -2.40395337343215942383e-01) (2, 3.05168360471725463867e-01) (3, 3.55704247951507568359e-01) (4, 4.49291355907917022705e-02) (5, 2.26239770650863647461e-01) (6, 3.50002914667129516602e-01) (0, 4.58571799099445343018e-02) (1, -2.96402890235185623169e-02) (2, -8.04699435830116271973e-02) (3, 3.04628252983093261719e-01) (4, -2.85997480154037475586e-01) (5, -5.27573049068450927734e-01) (6, -9.51653420925140380859e-01) (0, -2.60007202625274658203e-01) (1, 1.99599087238311767578e-01) (2, 9.77980375289916992188e-01) (3, 2.66629964113235473633e-01) (4, -6.31479034200310707092e-03) (5, -3.78943622112274169922e-01) (6, 7.02780306339263916016e-01) (0, -1.54731467366218566895e-01) (1, 1.14119365811347961426e-01) (2, 6.62409603595733642578e-01) (3, 9.45985794067382812500e-01) (4, 1.18077084422111511230e-01) (5, -3.02727594971656799316e-02) (6, -4.15149807929992675781e-01) (0, -2.64081060886383056641e-01) (1, 1.90733388066291809082e-01) (2, -1.60551041364669799805e-01) (3, -5.34155443310737609863e-02) (4, -2.84340649843215942383e-01) (5, 7.36791670322418212891e-01) (6, 1.09654736518859863281e+00) (0, -2.36298039555549621582e-01) (1, 1.81141689419746398926e-01) (2, 4.68764692544937133789e-01) (3, 5.85490226745605468750e-01) (4, -3.75560462474822998047e-01) (5, 1.51472270488739013672e-01) (6, -2.96414971351623535156e-01) (0, -9.40861880779266357422e-01) (1, 3.23306709527969360352e-01) (2, -4.19443726539611816406e-01) (3, -1.97721898555755615234e-01) (4, 1.91376821021549403667e-04) (5, 6.28096997737884521484e-01) (6, -7.43204891681671142578e-01) (0, 7.42122352123260498047e-01) (1, 9.08443555235862731934e-02) (2, 4.06967729330062866211e-01) (3, -1.14683374762535095215e-01) (4, -1.24484010040760040283e-01) (5, 3.04750591516494750977e-01) (6, 5.24179816246032714844e-01) (0, -4.21181041747331619263e-03) (1, -1.35554179549217224121e-01) (2, -5.40122389793395996094e-01) (3, 7.16173946857452392578e-02) (4, 9.44844305515289306641e-01) (5, -1.00508585572242736816e-01) (6, 1.62959277629852294922e-01) (0, 2.21731573343276977539e-01) (1, -3.17980617284774780273e-01) (2, -6.05862855911254882812e-01) (3, -3.47599349915981292725e-02) (4, 5.54645478725433349609e-01) (5, -7.79502093791961669922e-01) (6, -1.22103905677795410156e+00) (0, -4.69940304756164550781e-01) (1, 5.19203357398509979248e-02) (2, -8.45893174409866333008e-02) (3, -1.26354292035102844238e-01) (4, -5.63982248306274414062e-01) (5, -4.52470123767852783203e-01) (6, 4.36846673488616943359e-01) (0, 3.08571577072143554688e-01) (1, -1.78794816136360168457e-01) (2, -8.84303808212280273438e-01) (3, 2.80125916004180908203e-01) (4, -7.40347951650619506836e-02) (5, 7.63247311115264892578e-01) (6, 8.03067982196807861328e-01) (0, 6.21636062860488891602e-02) (1, 1.75461173057556152344e-01) (2, 5.94123840332031250000e-01) (3, -2.04266011714935302734e-01) (4, 3.49483639001846313477e-02) (5, -6.44667923450469970703e-01) (6, 1.23766191303730010986e-01) (0, -6.78190767765045166016e-01) (1, 5.88706791400909423828e-01) (2, 1.10362172126770019531e+00) (3, 1.00639916956424713135e-01) (4, -2.45853140950202941895e-01) (5, 7.61822313070297241211e-02) (6, 1.28825569152832031250e+00) (0, -6.94831609725952148438e-01) (1, -2.83326774835586547852e-01) (2, 3.21819484233856201172e-01) (3, -7.14732035994529724121e-02) (4, -1.62137418985366821289e-01) (5, 5.26958286762237548828e-01) (6, -9.55839678645133972168e-02) (0, 3.99207264184951782227e-01) (1, 8.54915797710418701172e-01) (2, -4.18451517820358276367e-01) (3, 6.45988285541534423828e-02) (4, -6.71634525060653686523e-02) (5, -2.50192493200302124023e-01) (6, -4.97720479965209960938e-01) (0, -2.85607427358627319336e-01) (1, -4.39933568239212036133e-01) (2, -7.27240562438964843750e-01) (3, -3.27384054660797119141e-01) (4, 7.39246159791946411133e-02) (5, 4.66396331787109375000e-01) (6, 1.06100961565971374512e-01) (0, 2.22602844238281250000e-01) (1, 2.61705964803695678711e-01) (2, 1.43640443682670593262e-01) (3, -3.16517651081085205078e-01) (4, 2.94559806585311889648e-01) (5, 5.15936851501464843750e-01) (6, 2.04648479819297790527e-01) (0, 9.71990525722503662109e-01) (1, -1.65867671370506286621e-01) (2, 5.49466311931610107422e-01) (3, 9.33325529098510742188e-01) (4, 3.32063943147659301758e-01) (5, -1.72647297382354736328e-01) (6, -7.31197297573089599609e-01) (0, 2.14228034019470214844e-01) (1, 2.48298142105340957642e-02) (2, 1.04824638366699218750e+00) (3, 1.33590295910835266113e-01) (4, 6.37029707431793212891e-01) (5, 8.04643034934997558594e-01) (6, 1.11937975883483886719e+00) (0, -4.10470277070999145508e-01) (1, -2.93823271989822387695e-01) (2, -9.52148616313934326172e-01) (3, 6.62081390619277954102e-02) (4, -2.09648817777633666992e-01) (5, 1.01228885352611541748e-01) (6, 1.75938963890075683594e+00) (0, -5.12056797742843627930e-02) (1, -4.99061226844787597656e-01) (2, -8.08089375495910644531e-01) (3, 1.67433947324752807617e-01) (4, 3.82745623588562011719e-01) (5, 6.54206275939941406250e-01) (6, -4.72348183393478393555e-01) (0, 2.55029331892728805542e-02) (1, -8.48297655582427978516e-01) (2, 8.43902230262756347656e-01) (3, 6.49686977267265319824e-02) (4, 1.12612470984458923340e-01) (5, -1.28221571445465087891e-01) (6, 5.16639530658721923828e-01) (0, 2.36679986119270324707e-01) (1, 2.17034578323364257812e-01) (2, 3.81660997867584228516e-01) (3, -5.68717300891876220703e-01) (4, 4.64330762624740600586e-01) (5, -5.95807790756225585938e-01) (6, 3.38320881128311157227e-01) (0, -2.68967390060424804688e-01) (1, 5.16194164752960205078e-01) (2, 4.16518718004226684570e-01) (3, -1.87857791781425476074e-01) (4, -1.45960599184036254883e-01) (5, -3.61106306314468383789e-01) (6, 1.58645033836364746094e-01) (0, 4.24370706081390380859e-01) (1, 9.05240237712860107422e-01) (2, 1.02433145046234130859e+00) (3, -7.01900152489542961121e-03) (4, -2.13802289217710494995e-02) (5, -4.83593910932540893555e-01) (6, 4.26186412572860717773e-01) (0, -1.74965053796768188477e-01) (1, 4.22021031379699707031e-01) (2, 7.10067331790924072266e-01) (3, 8.41053426265716552734e-02) (4, 1.22497200965881347656e-01) (5, -6.53639554977416992188e-01) (6, 4.42726284265518188477e-01) (0, 7.13504195213317871094e-01) (1, 2.25982159376144409180e-01) (2, 9.03243303298950195312e-01) (3, 1.93306952714920043945e-01) (4, 5.99844813346862792969e-01) (5, -3.55272084474563598633e-01) (6, -5.46238183975219726562e-01) (0, 1.63149666041135787964e-02) (1, 2.23800893872976303101e-02) (2, -6.64897680282592773438e-01) (3, -3.38097035884857177734e-01) (4, -1.94863379001617431641e-02) (5, -1.93177815526723861694e-02) (6, 3.57181549072265625000e-01) (0, 2.01109588146209716797e-01) (1, -1.22584253549575805664e-01) (2, 3.06415826082229614258e-01) (3, -3.01403909921646118164e-01) (4, 3.77456039190292358398e-01) (5, 6.30539298057556152344e-01) (6, -1.46715760231018066406e+00) (7, 3.46201658248901367188e-01) (8, 8.38510334491729736328e-01) (9, 8.52900385856628417969e-01) (10, -2.58709639310836791992e-02) (11, 2.51132130622863769531e-01) (12, 3.59019219875335693359e-01) (13, 5.50864577293395996094e-01) (14, -7.07176104187965393066e-02) (15, 6.79288208484649658203e-01) (16, 1.05094268918037414551e-01) (17, -7.07813858985900878906e-01) (18, -1.18818986415863037109e+00) (19, 3.99701930582523345947e-02) (20, 9.74312067031860351562e-01) (21, 1.15503358840942382812e+00) (22, 8.88480722904205322266e-01) (23, 1.00845563411712646484e+00) (24, -2.85986512899398803711e-01) (25, -6.60568416118621826172e-01) (26, 1.04720830917358398438e-01) (27, 8.86142015457153320312e-01) (28, 6.63593769073486328125e-01) (29, -3.64674538373947143555e-01) (30, -6.40355587005615234375e-01) (31, -4.66626673936843872070e-01) (32, -6.84104204177856445312e-01) (33, -4.72675949335098266602e-01) (34, 2.26422801613807678223e-01) (35, 1.44174766540527343750e+00) (36, 1.29367363452911376953e+00) (37, 7.27035880088806152344e-01) (7, 2.58471345901489257812e+00) (8, 9.17944073677062988281e-01) (9, -1.61392644047737121582e-01) (10, -1.65714240074157714844e+00) (11, 4.53906714916229248047e-01) (12, 9.34004426002502441406e-01) (13, -2.90870279073715209961e-01) (14, -1.07911872863769531250e+00) (15, 6.78946137428283691406e-01) (16, 5.60037076473236083984e-01) (17, 8.53054761886596679688e-01) (18, 7.41120636463165283203e-01) (19, 9.93286192417144775391e-01) (20, -1.47543683648109436035e-01) (21, 1.19597303867340087891e+00) (22, 1.30643308162689208984e+00) (23, 1.25942361354827880859e+00) (24, -3.76432627439498901367e-01) (25, 5.38133978843688964844e-01) (26, 6.22840464115142822266e-01) (27, -3.01403045654296875000e-01) (28, 7.21119046211242675781e-01) (29, 3.12989383935928344727e-01) (30, 1.61358869075775146484e+00) (31, 6.28711283206939697266e-02) (32, 1.33497804403305053711e-01) (33, 9.66393887996673583984e-01) (34, -3.95401298999786376953e-01) (35, -5.06184577941894531250e-01) (36, -2.00657892227172851562e+00) (37, 9.53312635421752929688e-01) (7, -7.08071827888488769531e-01) (8, -7.06343948841094970703e-01) (9, -8.43781530857086181641e-02) (10, 4.05719995498657226562e-01) (11, 1.09667420387268066406e+00) (12, 1.57602608203887939453e-01) (13, 1.07137575745582580566e-01) (14, 7.11791992187500000000e-01) (15, -5.23517251014709472656e-01) (16, -1.11302769184112548828e+00) (17, -1.93502485752105712891e-01) (18, -1.34610939025878906250e+00) (19, 4.87953990697860717773e-01) (20, 9.72762167453765869141e-01) (21, 1.10647767782211303711e-01) (22, 2.28339344263076782227e-01) (23, 5.31426012516021728516e-01) (24, -3.21507781744003295898e-01) (25, -4.66655164957046508789e-01) (26, -6.53217434883117675781e-01) (27, 2.59247511625289916992e-01) (28, 2.81679689884185791016e-01) (29, 1.13968968391418457031e+00) (30, -1.90955579280853271484e-01) (31, 2.15737670660018920898e-02) (32, -5.84731042385101318359e-01) (33, -2.48305857181549072266e-01) (34, 5.00081330537796020508e-02) (35, 1.28718852996826171875e+00) (36, 1.66799098253250122070e-01) (37, -3.72330918908119201660e-02) (7, -6.26238167285919189453e-01) (8, 9.38700139522552490234e-02) (9, -2.30746809393167495728e-02) (10, 1.81636071205139160156e+00) (11, -7.21882820129394531250e-01) (12, 1.25091266632080078125e+00) (13, 1.18697118759155273438e+00) (14, 5.48671603202819824219e-01) (15, 5.48313438892364501953e-01) (16, 5.95464944839477539062e-01) (17, -1.10314264893531799316e-01) (18, 6.19584083557128906250e-01) (19, -4.91606980562210083008e-01) (20, -1.12478184700012207031e+00) (21, 3.25076997280120849609e-01) (22, 1.34631729125976562500e+00) (23, 8.99588346481323242188e-01) (24, -1.36608839035034179688e+00) (25, 1.71051824092864990234e+00) (26, -3.96486073732376098633e-02) (27, 5.92560291290283203125e-01) (28, -7.83261880278587341309e-02) (29, 3.53402644395828247070e-01) (30, -9.50075268745422363281e-01) (31, -4.54672574996948242188e-02) (32, 2.07142204046249389648e-01) (33, 3.40309709310531616211e-01) (34, 1.25313028693199157715e-01) (35, -9.87113893032073974609e-01) (36, -4.73835468292236328125e-01) (37, -8.79008531570434570312e-01) (7, 2.91029423475265502930e-01) (8, 1.51638194918632507324e-01) (9, -7.94242978096008300781e-01) (10, 3.14598709344863891602e-01) (11, 6.36002898216247558594e-01) (12, 6.40746951103210449219e-01) (13, 5.76113641262054443359e-01) (14, 4.23971056938171386719e-01) (15, -2.13828340172767639160e-01) (16, -2.42443680763244628906e-01) (17, 6.47750258445739746094e-01) (18, -8.79409015178680419922e-01) (19, 2.64455616474151611328e-01) (20, 6.46833837032318115234e-01) (21, 3.38891834020614624023e-01) (22, -3.79539817571640014648e-01) (23, -1.65310218930244445801e-01) (24, -4.84121501445770263672e-01) (25, 1.11752390861511230469e+00) (26, 3.69393527507781982422e-02) (27, 9.05364632606506347656e-01) (28, -5.85631251335144042969e-01) (29, -1.77496269345283508301e-01) (30, 2.99927532672882080078e-01) (31, -1.62315934896469116211e-01) (32, -4.84843105077743530273e-01) (33, 5.93793749809265136719e-01) (34, 1.02331268787384033203e+00) (35, 3.36019277572631835938e-01) (36, 1.59739351272583007812e+00) (37, -3.27447801828384399414e-01) (7, 3.39939117431640625000e-01) (8, -5.08170068264007568359e-01) (9, 1.14898812770843505859e+00) (10, 8.29497635364532470703e-01) (11, 8.75261187553405761719e-01) (12, -4.95267026126384735107e-02) (13, 1.00980401039123535156e+00) (14, -7.94629812240600585938e-01) (15, -1.52217382565140724182e-02) (16, 1.26832354068756103516e+00) (17, 7.82315611839294433594e-01) (18, 1.04844474792480468750e+00) (19, -4.61195439100265502930e-01) (20, 8.26913714408874511719e-01) (21, 8.47883403301239013672e-01) (22, 2.73024458438158035278e-02) (23, -2.49890834093093872070e-01) (24, 1.09216976165771484375e+00) (25, -3.57535421848297119141e-01) (26, 4.86057996749877929688e-02) (27, -2.64872103929519653320e-01) (28, -2.32930421829223632812e-01) (29, 1.28987103700637817383e-01) (30, 1.53030142188072204590e-01) (31, -4.41811140626668930054e-03) (32, -1.90789863467216491699e-01) (33, 2.34420135617256164551e-01) (34, 5.03897011280059814453e-01) (35, 1.25826203823089599609e+00) (36, 8.04803490638732910156e-01) (37, -6.99796199798583984375e-01) (7, -1.37541258335113525391e+00) (8, -7.66115665435791015625e-01) (9, 7.72280991077423095703e-01) (10, 1.03192478418350219727e-01) (11, 1.35181319713592529297e+00) (12, -7.08117544651031494141e-01) (13, -5.01243829727172851562e-01) (14, 7.13915288448333740234e-01) (15, 6.66258037090301513672e-01) (16, 7.09462344646453857422e-01) (17, -2.60663956403732299805e-01) (18, 9.56910371780395507812e-01) (19, -3.54459226131439208984e-01) (20, 5.68150103092193603516e-01) (21, 1.18231916427612304688e+00) (22, -2.72676080465316772461e-01) (23, -4.59501266479492187500e-01) (24, -8.11453759670257568359e-01) (25, 3.44170570373535156250e-01) (26, -6.24709203839302062988e-02) (27, 1.46095263957977294922e+00) (28, 2.12011590600013732910e-01) (29, 1.00826179981231689453e+00) (30, 9.20661151409149169922e-01) (31, 3.83278638124465942383e-01) (32, 6.37303948402404785156e-01) (33, 1.13733589649200439453e+00) (34, -8.18385332822799682617e-02) (35, -4.36181157827377319336e-01) (36, 9.87936928868293762207e-02) (37, 6.05671107769012451172e-01) (7, 1.77171289920806884766e-01) (8, 7.81020894646644592285e-02) (9, -5.46211361885070800781e-01) (10, -6.46782457828521728516e-01) (11, -6.10392913222312927246e-02) (12, 9.53101634979248046875e-01) (13, 4.13978368043899536133e-01) (14, 3.69163364171981811523e-01) (15, -4.10592585802078247070e-01) (16, -7.66290664672851562500e-01) (17, 9.58160638809204101562e-01) (18, -8.56347739696502685547e-01) (19, -1.21326453983783721924e-01) (20, 6.47559106349945068359e-01) (21, 4.90300744771957397461e-01) (22, 9.13818776607513427734e-01) (23, 3.89358758926391601562e-01) (24, -8.02827000617980957031e-01) (25, 1.42589306831359863281e+00) (26, -4.33597058057785034180e-01) (27, 8.97250652313232421875e-01) (28, 4.05429452657699584961e-01) (29, 7.41040587425231933594e-01) (30, 1.16736161708831787109e+00) (31, 3.96661102771759033203e-01) (32, -2.35927581787109375000e-01) (33, 2.56429195404052734375e-01) (34, 8.92193429172039031982e-03) (35, -5.18127381801605224609e-02) (36, 9.52159464359283447266e-01) (37, -3.00697028636932373047e-01) (7, 3.13137501478195190430e-01) (8, 2.28939168155193328857e-02) (9, 8.65261971950531005859e-01) (10, -6.99914470314979553223e-02) (11, -9.34978015720844268799e-03) (12, 9.18879270553588867188e-01) (13, -6.37805283069610595703e-01) (14, 7.40027546882629394531e-01) (15, -3.89640063047409057617e-01) (16, 1.00077509880065917969e+00) (17, 1.02404189109802246094e+00) (18, -7.52242505550384521484e-02) (19, 1.18263101577758789062e+00) (20, 2.41535052657127380371e-01) (21, -3.87944519519805908203e-01) (22, -5.48326849937438964844e-01) (23, 2.13251209259033203125e+00) (24, -8.94202828407287597656e-01) (25, -3.66827905178070068359e-01) (26, -1.19431547820568084717e-01) (27, -1.19111502170562744141e+00) (28, 1.11127746105194091797e+00) (29, 5.23774445056915283203e-01) (30, 1.64013609290122985840e-01) (31, 9.39589321613311767578e-01) (32, 1.34650409221649169922e+00) (33, -8.36939811706542968750e-01) (34, 1.04107403755187988281e+00) (35, 8.30566763877868652344e-01) (36, 2.71577537059783935547e-01) (37, 2.83813565969467163086e-01) (7, -2.07190185785293579102e-01) (8, -6.00173771381378173828e-01) (9, -4.25095409154891967773e-01) (10, 2.86961764097213745117e-01) (11, 7.01192140579223632812e-01) (12, 1.39651045203208923340e-01) (13, -7.93000280857086181641e-01) (14, 5.29682040214538574219e-01) (15, 1.80059373378753662109e-01) (16, -5.34562349319458007812e-01) (17, -8.08844327926635742188e-01) (18, 9.54204320907592773438e-01) (19, 1.12152433395385742188e+00) (20, 4.61683571338653564453e-01) (21, -2.16906562447547912598e-01) (22, -4.70007300376892089844e-01) (23, 1.16510176658630371094e+00) (24, -6.05389475822448730469e-01) (25, -1.13322019577026367188e+00) (26, -1.00989528000354766846e-01) (27, -1.54736354947090148926e-01) (28, 1.11581397056579589844e+00) (29, -5.32795667648315429688e-01) (30, -1.07139930129051208496e-01) (31, 1.02297437191009521484e+00) (32, 1.95183962583541870117e-01) (33, 3.63613635301589965820e-01) (34, 8.13570559024810791016e-01) (35, 5.96483588218688964844e-01) (36, 5.86718261241912841797e-01) (37, -4.27011027932167053223e-02) (7, -7.60421603918075561523e-02) (8, 3.61461400985717773438e-01) (9, 1.00281882286071777344e+00) (10, 9.72270220518112182617e-02) (11, -6.03658556938171386719e-01) (12, -8.61973166465759277344e-02) (13, 6.81770980358123779297e-01) (14, 1.37080955505371093750e+00) (15, 1.79383471608161926270e-01) (16, 2.34145522117614746094e+00) (17, -1.06116153299808502197e-01) (18, 9.38365817070007324219e-01) (19, 4.93466764688491821289e-01) (20, 9.43555355072021484375e-01) (21, 1.82703673839569091797e+00) (22, 1.20127177238464355469e+00) (23, 1.20733034610748291016e+00) (24, -2.53447949886322021484e-01) (25, 4.14175331592559814453e-01) (26, -4.05744045972824096680e-01) (27, 1.15141142159700393677e-02) (28, 5.29618039727210998535e-02) (29, -4.18772131204605102539e-01) (30, -3.38881760835647583008e-01) (31, -3.51780131459236145020e-02) (32, 5.79894065856933593750e-01) (33, -1.11389267444610595703e+00) (34, 6.91072821617126464844e-01) (35, 3.69077235460281372070e-01) (36, 3.16380953788757324219e+00) (37, -1.06658267974853515625e+00) (7, 4.00735378265380859375e-01) (8, -6.37331128120422363281e-01) (9, 4.21767830848693847656e-02) (10, -2.25431341677904129028e-02) (11, -1.41095668077468872070e-01) (12, 3.70208472013473510742e-01) (13, -3.44606608152389526367e-01) (14, 1.42881345748901367188e+00) (15, 9.02258455753326416016e-02) (16, 2.35276430845260620117e-01) (17, -4.60816979408264160156e-01) (18, -1.00270129740238189697e-01) (19, -5.84385573863983154297e-01) (20, -7.30797499418258666992e-02) (21, -2.30001151561737060547e-01) (22, -2.49848335981369018555e-01) (23, -9.74770367145538330078e-01) (24, 3.89763087034225463867e-01) (25, -3.00658810883760452271e-02) (26, 9.15007174015045166016e-01) (27, 8.02976489067077636719e-01) (28, -1.67583119869232177734e+00) (29, 1.30532145500183105469e+00) (30, -4.28682625293731689453e-01) (31, 1.18938934803009033203e+00) (32, -4.38632309436798095703e-01) (33, 8.22718918323516845703e-01) (34, 7.65330612659454345703e-01) (35, 5.30850827693939208984e-01) (36, -6.01188063621520996094e-01) (37, 9.05233025550842285156e-01) (7, 2.97004044055938720703e-01) (8, 1.06701612472534179688e+00) (9, -7.31063961982727050781e-01) (10, -7.46876895427703857422e-01) (11, 1.55120778083801269531e+00) (12, 1.17498564720153808594e+00) (13, 6.87723159790039062500e-02) (14, 7.28168904781341552734e-01) (15, 8.07964727282524108887e-02) (16, 2.30222269892692565918e-01) (17, 2.19092637300491333008e-01) (18, 7.90499985218048095703e-01) (19, 8.65416765213012695312e-01) (20, -5.60074329376220703125e-01) (21, 2.88697957992553710938e-01) (22, 1.06338369846343994141e+00) (23, 3.71510535478591918945e-01) (24, 6.92042410373687744141e-01) (25, 9.89611566066741943359e-01) (26, -1.28556460142135620117e-01) (27, -1.37967720627784729004e-01) (28, -3.81730824708938598633e-01) (29, 6.16898179054260253906e-01) (30, 7.72975385189056396484e-01) (31, 1.06462895870208740234e+00) (32, -9.81540918350219726562e-01) (33, -2.27477028965950012207e-02) (34, -7.67690688371658325195e-03) (35, -1.38021260499954223633e-01) (36, -7.84173756837844848633e-02) (37, 2.77234435081481933594e-01) (7, 5.18297672271728515625e-01) (8, 4.78707969188690185547e-01) (9, -8.29907134175300598145e-02) (10, 6.49303674697875976562e-01) (11, -3.29118557274341583252e-02) (12, 1.12659242004156112671e-02) (13, -4.00389105081558227539e-01) (14, -7.73680865764617919922e-01) (15, -7.64244675636291503906e-01) (16, -7.30432629585266113281e-01) (17, 1.15481913089752197266e+00) (18, -3.20654600858688354492e-01) (19, 1.24673902988433837891e+00) (20, 9.82284963130950927734e-01) (21, 2.61218190193176269531e-01) (22, 9.54898178577423095703e-01) (23, 1.84977516531944274902e-01) (24, -1.92973792552947998047e-01) (25, 1.16937607526779174805e-01) (26, 1.22870910167694091797e+00) (27, 5.73763668537139892578e-01) (28, 1.25553941726684570312e+00) (29, 8.37817549705505371094e-01) (30, 8.48285928368568420410e-02) (31, 7.41633474826812744141e-01) (32, -3.33730369806289672852e-01) (33, 1.78020805120468139648e-01) (34, -1.53240129351615905762e-01) (35, 1.08952987194061279297e+00) (36, -2.44110196828842163086e-01) (37, 4.41516727209091186523e-01) (7, -7.96561986207962036133e-02) (8, -3.97868692874908447266e-01) (9, -7.34750479459762573242e-02) (10, 2.66005992889404296875e-01) (11, 3.06796818971633911133e-01) (12, -1.54068022966384887695e-01) (13, 4.98438358306884765625e-01) (14, -6.77836716175079345703e-01) (15, 1.06701470911502838135e-01) (16, -1.54721781611442565918e-01) (17, 3.70991766452789306641e-01) (18, 6.39148890972137451172e-01) (19, -7.70094692707061767578e-01) (20, -5.03734946250915527344e-01) (21, 9.05952155590057373047e-01) (22, 1.27592039108276367188e+00) (23, 8.89032244682312011719e-01) (24, -1.01316571235656738281e+00) (25, 4.89416867494583129883e-02) (26, 1.00267864763736724854e-01) (27, 7.59856164455413818359e-01) (28, 5.04305601119995117188e-01) (29, 4.33465577661991119385e-02) (30, -4.04633313417434692383e-01) (31, -6.44324421882629394531e-01) (32, 5.01130707561969757080e-02) (33, -9.08976793289184570312e-01) (34, -2.70630642771720886230e-02) (35, 1.13627541065216064453e+00) (36, 1.80441051721572875977e-01) (37, 2.58319377899169921875e+00) (7, 4.71564292907714843750e-01) (8, -2.73516714572906494141e-01) (9, 4.57969009876251220703e-01) (10, 5.53000450134277343750e-01) (11, -1.76989090442657470703e+00) (12, 5.99819600582122802734e-01) (13, -2.29965504258871078491e-02) (14, -2.43239745497703552246e-01) (15, 8.19953501224517822266e-01) (16, -7.70930051803588867188e-01) (17, 1.64783525466918945312e+00) (18, 2.63421572744846343994e-02) (19, -4.35643374919891357422e-01) (20, -2.78556972742080688477e-01) (21, -1.82247355580329895020e-01) (22, -4.78617131710052490234e-01) (23, 1.46728682518005371094e+00) (24, 7.99292266368865966797e-01) (25, -3.13973248004913330078e-01) (26, 4.10829007625579833984e-01) (27, 2.74585396051406860352e-01) (28, 8.88070404529571533203e-01) (29, -6.67479097843170166016e-01) (30, 8.73830497264862060547e-01) (31, -1.50249734520912170410e-01) (32, 1.83539673686027526855e-01) (33, 1.42220938205718994141e+00) (34, 1.62224364280700683594e+00) (35, -1.52545109391212463379e-01) (36, -9.99120250344276428223e-03) (37, 1.83368062973022460938e+00) (7, -1.10288298130035400391e+00) (8, 8.65391135215759277344e-01) (9, 3.40145558118820190430e-01) (10, 4.36105996370315551758e-01) (11, 5.84526240825653076172e-01) (12, -5.38860559463500976562e-02) (13, 9.22069728374481201172e-01) (14, 1.10271915793418884277e-01) (15, 5.23806273937225341797e-01) (16, -4.88372743129730224609e-01) (17, -4.56071011722087860107e-02) (18, 6.27719938755035400391e-01) (19, -6.27140343189239501953e-01) (20, 9.02149498462677001953e-01) (21, -3.07020759582519531250e+00) (22, 3.16922776401042938232e-02) (23, -5.81658124923706054688e-01) (24, 1.21927344799041748047e+00) (25, 5.42164385318756103516e-01) (26, 6.06161355972290039062e-01) (27, 2.07888737320899963379e-01) (28, -1.09695363044738769531e+00) (29, 1.19441878795623779297e+00) (30, 1.45575895905494689941e-01) (31, 1.34736871719360351562e+00) (32, 8.20801854133605957031e-01) (33, -3.76616686582565307617e-01) (34, 2.25198701024055480957e-01) (35, 3.62954354286193847656e+00) (36, -2.31123375892639160156e+00) (37, 2.08295732736587524414e-01) (7, -1.42466530203819274902e-01) (8, 5.24413347244262695312e-01) (9, -6.38380467891693115234e-01) (10, 3.08476984500885009766e-01) (11, -1.38461244106292724609e+00) (12, 5.59628844261169433594e-01) (13, 7.57780969142913818359e-01) (14, 8.45772922039031982422e-02) (15, -2.58690029382705688477e-01) (16, 6.55430436134338378906e-01) (17, -5.68023622035980224609e-01) (18, -1.06264702975749969482e-01) (19, -1.13004398345947265625e+00) (20, 3.09878438711166381836e-01) (21, -2.15503603219985961914e-01) (22, 7.23795890808105468750e-01) (23, 8.14703464508056640625e-01) (24, 1.08938539028167724609e+00) (25, -5.75369819998741149902e-02) (26, 4.16955873370170593262e-02) (27, -4.36801940202713012695e-01) (28, 1.84435576200485229492e-01) (29, 1.57800570130348205566e-01) (30, -9.60962116718292236328e-01) (31, -1.59870222210884094238e-01) (32, -1.43538266420364379883e-01) (33, -8.66863787174224853516e-01) (34, 7.17313349246978759766e-01) (35, 3.53918135166168212891e-01) (36, 2.49299064278602600098e-01) (37, -3.36927115917205810547e-01) (7, 6.95281088352203369141e-01) (8, -5.04738390445709228516e-01) (9, -8.39003920555114746094e-02) (10, 1.42416521906852722168e-01) (11, -2.59289026260375976562e-01) (12, 8.36399316787719726562e-01) (13, 1.61630129814147949219e+00) (14, -7.19870507717132568359e-01) (15, 3.81389051675796508789e-01) (16, 7.55598306655883789062e-01) (17, -4.25686061382293701172e-01) (18, 8.56826901435852050781e-01) (19, -3.37230950593948364258e-01) (20, 5.99262416362762451172e-01) (21, -1.48437634110450744629e-01) (22, 5.41398882865905761719e-01) (23, 6.25437274575233459473e-02) (24, -7.22755908966064453125e-01) (25, 5.79295039176940917969e-01) (26, -3.60817879438400268555e-01) (27, -2.85681813955307006836e-01) (28, 9.45850968360900878906e-01) (29, 5.35017013549804687500e-01) (30, -3.03637206554412841797e-01) (31, -6.80282533168792724609e-01) (32, 3.96044328808784484863e-02) (33, 1.12123858928680419922e+00) (34, -3.65530937910079956055e-01) (35, -4.75433096289634704590e-02) (36, 1.63878035545349121094e+00) (37, -4.77112233638763427734e-01) (7, 7.42440044879913330078e-01) (8, -3.40434908866882324219e-01) (9, 2.70498365163803100586e-01) (10, -8.51650834083557128906e-01) (11, 4.96133089065551757812e-01) (12, 7.72938251495361328125e-01) (13, 6.13602399826049804688e-01) (14, -7.63274580240249633789e-02) (15, -7.07802712917327880859e-01) (16, 8.49318027496337890625e-01) (17, 7.10614562034606933594e-01) (18, 1.45807123184204101562e+00) (19, -5.57700634002685546875e-01) (20, -7.71597385406494140625e-01) (21, 1.30296027660369873047e+00) (22, 4.89331841468811035156e-01) (23, 7.63158500194549560547e-01) (24, 4.08503115177154541016e-01) (25, 3.22782754898071289062e-01) (26, 5.32613754272460937500e-01) (27, 3.59152369201183319092e-02) (28, 1.41808420419692993164e-01) (29, -2.28763684630393981934e-01) (30, -1.29860654473304748535e-01) (31, 7.83520936965942382812e-02) (32, 3.36380213499069213867e-01) (33, 1.05326533317565917969e+00) (34, 1.32356059551239013672e+00) (35, 7.85282671451568603516e-01) (36, 9.82360422611236572266e-01) (37, -1.18763196468353271484e+00) (7, 5.02784490585327148438e-01) (8, -5.88131546974182128906e-01) (9, 1.36729657649993896484e+00) (10, -5.48054873943328857422e-01) (11, 5.83018958568572998047e-01) (12, 1.30590766668319702148e-01) (13, -1.27635908126831054688e+00) (14, 5.45105099678039550781e-01) (15, -6.45540058612823486328e-01) (16, 3.74486744403839111328e-01) (17, 7.29474872350692749023e-02) (18, 5.93186378479003906250e-01) (19, 1.30659675598144531250e+00) (20, 4.64874831959605216980e-03) (21, 5.11283993721008300781e-01) (22, -1.53554946184158325195e-01) (23, -2.02026322484016418457e-01) (24, 1.64606329053640365601e-02) (25, -5.05275845527648925781e-01) (26, 4.71415519714355468750e-01) (27, 2.09663510322570800781e-01) (28, -7.27170407772064208984e-01) (29, 9.83014479279518127441e-02) (30, 7.86145448684692382812e-01) (31, -2.96048223972320556641e-01) (32, 9.72126200795173645020e-02) (33, 3.11716310679912567139e-02) (34, -1.79464563727378845215e-01) (35, 3.23941677808761596680e-01) (36, 7.80108690261840820312e-01) (37, 6.13434731960296630859e-01) (7, -1.75915300846099853516e-01) (8, 5.35392940044403076172e-01) (9, -6.84634566307067871094e-01) (10, 5.42579114437103271484e-01) (11, 1.34061574935913085938e+00) (12, 9.77532744407653808594e-01) (13, -1.70715764164924621582e-01) (14, 3.27427238225936889648e-01) (15, 3.08156222105026245117e-01) (16, 9.92886066436767578125e-01) (17, -6.09562456607818603516e-01) (18, 1.39911532402038574219e+00) (19, 7.00801610946655273438e-01) (20, -3.19501161575317382812e-01) (21, -4.23752844333648681641e-01) (22, -2.68349617719650268555e-01) (23, 5.22619426250457763672e-01) (24, 6.27057731151580810547e-01) (25, -5.84076046943664550781e-01) (26, 3.84804718196392059326e-02) (27, -5.63941180706024169922e-01) (28, 2.53285735845565795898e-01) (29, 7.11906194686889648438e-01) (30, 1.26532539725303649902e-01) (31, 1.51640963554382324219e+00) (32, 9.17179048061370849609e-01) (33, 7.13345587253570556641e-01) (34, 4.64137405157089233398e-01) (35, 9.79574382305145263672e-01) (36, -5.13293683528900146484e-01) (37, 5.21790564060211181641e-01) (7, -8.74318182468414306641e-01) (8, 5.78140377998352050781e-01) (9, 8.22008192539215087891e-01) (10, 2.15473875403404235840e-01) (11, 7.60027587413787841797e-01) (12, -1.99540585279464721680e-01) (13, 1.79140299558639526367e-01) (14, -8.31719487905502319336e-02) (15, -2.13607251644134521484e-01) (16, 1.15405082702636718750e+00) (17, 7.60372355580329895020e-02) (18, -4.67104047536849975586e-01) (19, 7.57064223289489746094e-01) (20, 5.35286128520965576172e-01) (21, 2.24807977676391601562e-01) (22, -9.50613524764776229858e-03) (23, 3.33404153585433959961e-01) (24, -5.12609481811523437500e-01) (25, 5.03156423568725585938e-01) (26, 3.33091676235198974609e-01) (27, -4.94430005550384521484e-01) (28, 1.42630887031555175781e+00) (29, 2.54045158624649047852e-01) (30, -3.64190906286239624023e-01) (31, 1.26472735404968261719e+00) (32, 4.61760997772216796875e-01) (33, -1.74162924289703369141e-01) (34, 2.53782540559768676758e-01) (35, 1.03948879241943359375e+00) (36, 5.82052528858184814453e-01) (37, 1.49410009384155273438e+00) (7, 4.23569142818450927734e-01) (8, 3.92287641763687133789e-01) (9, 3.76714803278446197510e-02) (10, -3.16854655742645263672e-01) (11, 7.51261591911315917969e-01) (12, 4.23470348119735717773e-01) (13, 2.23357856273651123047e-01) (14, 5.07160604000091552734e-01) (15, 1.41032457351684570312e+00) (16, -5.10529220104217529297e-01) (17, 3.06189000606536865234e-01) (18, 1.17629349231719970703e+00) (19, 1.49162793159484863281e+00) (20, 3.06924372911453247070e-01) (21, -1.92393764853477478027e-01) (22, -5.58819115161895751953e-01) (23, 8.35434317588806152344e-01) (24, 4.44392412900924682617e-02) (25, 7.55320310592651367188e-01) (26, 1.02141730487346649170e-01) (27, 2.95906215906143188477e-01) (28, 1.61894172430038452148e-01) (29, 2.39237785339355468750e-01) (30, 1.33060231804847717285e-01) (31, 1.18744112551212310791e-01) (32, 7.77401208877563476562e-01) (33, 5.86860403418540954590e-02) (34, 6.63379013538360595703e-01) (35, -7.58011043071746826172e-02) (36, -4.34220395982265472412e-03) (37, 3.55214774608612060547e-01) (7, -4.25392150878906250000e-01) (8, 5.71896076202392578125e-01) (9, -2.40575894713401794434e-01) (10, 1.00909483432769775391e+00) (11, 5.40875136852264404297e-01) (12, 1.10928505659103393555e-01) (13, 9.89732444286346435547e-01) (14, 5.96439003944396972656e-01) (15, -1.28016507625579833984e+00) (16, 1.12335234880447387695e-01) (17, -1.84473514556884765625e+00) (18, -3.39483052492141723633e-01) (19, 1.88381147384643554688e+00) (20, 1.78612077236175537109e+00) (21, 3.31539452075958251953e-01) (22, -1.34414923191070556641e+00) (23, 2.98332005739212036133e-01) (24, 1.02913868427276611328e+00) (25, -2.52040863037109375000e-01) (26, 2.57037132978439331055e-01) (27, -2.23571491241455078125e+00) (28, -3.05839031934738159180e-01) (29, 8.44134688377380371094e-01) (30, -7.90979743003845214844e-01) (31, 2.18520417809486389160e-01) (32, 5.07560491561889648438e-01) (33, 9.73569989204406738281e-01) (34, -1.86185628175735473633e-01) (35, 2.85170495510101318359e-01) (36, 9.79436457157135009766e-01) (37, 9.45323765277862548828e-01) (7, -4.45122063159942626953e-01) (8, -3.97943884134292602539e-01) (9, 5.60339868068695068359e-01) (10, 6.18683993816375732422e-01) (11, 2.83488392829895019531e-01) (12, 7.66733944416046142578e-01) (13, 1.05110180377960205078e+00) (14, -3.10984373092651367188e-01) (15, -2.81928747892379760742e-01) (16, 1.29271626472473144531e+00) (17, 8.05879175662994384766e-01) (18, 8.00830781459808349609e-01) (19, 9.41432952880859375000e-01) (20, 1.54877364635467529297e-01) (21, 9.61265116930007934570e-02) (22, 6.23791038990020751953e-01) (23, -7.48439311981201171875e-01) (24, -1.42254185676574707031e+00) (25, 7.76441216468811035156e-01) (26, 7.99089789390563964844e-01) (27, -7.53927007317543029785e-02) (28, 3.77341479063034057617e-01) (29, 5.62318205833435058594e-01) (30, 3.28063294291496276855e-02) (31, -3.96245807409286499023e-01) (32, 8.26302766799926757812e-01) (33, -4.03784811496734619141e-01) (34, 4.30250644683837890625e-01) (35, -1.02388763427734375000e+00) (36, 1.40850052237510681152e-01) (37, -2.11026167869567871094e+00) (7, 6.94727778434753417969e-01) (8, 3.50229233503341674805e-01) (9, 3.46040695905685424805e-01) (10, 1.42523801326751708984e+00) (11, -4.01152402162551879883e-01) (12, 1.13193362951278686523e-01) (13, -6.72118186950683593750e-01) (14, 3.48750829696655273438e-01) (15, -9.49317574501037597656e-01) (16, 1.66045105457305908203e+00) (17, -1.60252466797828674316e-01) (18, -2.90878623723983764648e-01) (19, 1.03230667114257812500e+00) (20, 1.28340172767639160156e+00) (21, 8.37076231837272644043e-02) (22, -7.59079575538635253906e-01) (23, -4.53346461057662963867e-01) (24, 1.01344716548919677734e+00) (25, 5.60738593339920043945e-02) (26, -9.99055862426757812500e-01) (27, -1.76722311973571777344e+00) (28, -1.40381366014480590820e-01) (29, 7.21823751926422119141e-01) (30, 9.43374693393707275391e-01) (31, 1.18017756938934326172e+00) (32, 1.20894825458526611328e+00) (33, -8.19944217801094055176e-02) (34, -6.49211287498474121094e-01) (35, 1.06947064399719238281e+00) (36, 1.05532431602478027344e+00) (37, -4.87647980451583862305e-01) (7, 1.10949301719665527344e+00) (8, -4.12786304950714111328e-01) (9, -7.01991200912743806839e-04) (10, 5.73693335056304931641e-01) (11, -4.47471082210540771484e-01) (12, -7.38306939601898193359e-01) (13, 3.65792363882064819336e-01) (14, 1.02024948596954345703e+00) (15, 1.75974115729331970215e-01) (16, -7.83916115760803222656e-01) (17, -9.35354471206665039062e-01) (18, 5.49675881862640380859e-01) (19, -1.77345573902130126953e-02) (20, -2.50997972488403320312e+00) (21, -1.24376535415649414062e+00) (22, 1.28082418441772460938e+00) (23, 8.82903575897216796875e-01) (24, -2.30296865105628967285e-01) (25, 4.02611970901489257812e-01) (26, 3.96974682807922363281e-01) (27, 6.17091608047485351562e+00) (28, 2.70139336585998535156e-01) (29, -5.01631200313568115234e-01) (30, 5.82455277442932128906e-01) (31, -4.29027527570724487305e-01) (32, -7.53930926322937011719e-01) (33, 4.93569850921630859375e-01) (34, 9.06364694237709045410e-02) (35, 3.64721447229385375977e-01) (36, 3.93962591886520385742e-01) (37, 1.43879318237304687500e+00) (7, 1.33795106410980224609e+00) (8, 2.59191918373107910156e+00) (9, -4.09258842468261718750e-01) (10, -8.11708569526672363281e-01) (11, 2.69031715393066406250e+00) (12, 3.91115427017211914062e-01) (13, 5.81489503383636474609e-01) (14, 5.30712008476257324219e-01) (15, 1.00441575050354003906e+00) (16, 4.36641573905944824219e-01) (17, 5.15339553356170654297e-01) (18, -4.93399173021316528320e-01) (19, 1.40940618515014648438e+00) (20, -2.15099006891250610352e-01) (21, -2.97435474395751953125e+00) (22, -1.25695824623107910156e+00) (23, 1.76508724689483642578e+00) (24, -3.71463596820831298828e-01) (25, 1.95077490806579589844e+00) (26, -5.74000000953674316406e-01) (27, 1.36898148059844970703e+00) (28, -2.77114570140838623047e-01) (29, -1.15280723571777343750e+00) (30, 1.34917771816253662109e+00) (31, 8.66034269332885742188e-01) (32, -3.02484542131423950195e-01) (33, -5.87491929531097412109e-01) (34, -4.08789545297622680664e-01) (35, -3.05921524763107299805e-01) (36, 1.32725203037261962891e+00) (37, 1.10542023181915283203e+00) (7, 3.86540919542312622070e-01) (8, 6.27925336360931396484e-01) (9, -9.05154883861541748047e-01) (10, 7.16429650783538818359e-01) (11, 1.52726978063583374023e-01) (12, 5.29292702674865722656e-01) (13, 6.16920709609985351562e-01) (14, -3.59432637691497802734e-01) (15, 4.24296230077743530273e-01) (16, 4.88156527280807495117e-01) (17, -2.78449237346649169922e-01) (18, 1.00159299373626708984e+00) (19, 6.90380930900573730469e-01) (20, 1.83965831995010375977e-01) (21, 4.22791481018066406250e-01) (22, 1.04199004173278808594e+00) (23, 6.94897711277008056641e-01) (24, 9.09462690353393554688e-01) (25, -5.98478138446807861328e-01) (26, 8.89528691768646240234e-01) (27, -1.78575560450553894043e-01) (28, 1.06151390075683593750e+00) (29, 2.17275977134704589844e-01) (30, -3.27927976846694946289e-01) (31, 3.24523091316223144531e-01) (32, -1.12978644669055938721e-01) (33, -9.52384397387504577637e-02) (34, -1.19600251317024230957e-01) (35, 1.32981634140014648438e+00) (36, -1.47411018610000610352e-01) (37, -2.34795197844505310059e-01) (38, 8.44871401786804199219e-01) (39, 7.61360228061676025391e-01) (40, 8.85764360427856445312e-01) (41, -6.20653629302978515625e-01) (42, -6.10744774341583251953e-01) (43, 2.41060286760330200195e-01) (44, -6.00134313106536865234e-01) (45, 1.42240703105926513672e-01) (46, 8.23919713497161865234e-01) (47, 2.01357737183570861816e-01) (48, 7.83785760402679443359e-01) (49, 5.75990259647369384766e-01) (50, 9.95886027812957763672e-01) (51, 1.05201399326324462891e+00) (52, -9.50056195259094238281e-01) (53, -4.28989619016647338867e-01) (54, 8.81572782993316650391e-01) (55, 6.89003467559814453125e-02) (56, 7.66954898834228515625e-01) (57, 4.33666110038757324219e-01) (58, -5.84711074829101562500e-01) (59, 1.24735377728939056396e-01) (60, -6.32481992244720458984e-01) (61, -8.25791716575622558594e-01) (62, 5.68302392959594726562e-01) (63, 8.92193078994750976562e-01) (64, 1.17356038093566894531e+00) (65, 2.03768268227577209473e-01) (66, 9.65454399585723876953e-01) (67, -4.95926320552825927734e-01) (68, 4.71839576959609985352e-01) (38, 2.92814850807189941406e-01) (39, 8.06890249252319335938e-01) (40, -3.92196208238601684570e-01) (41, 7.12653219699859619141e-01) (42, -2.69667923450469970703e-01) (43, 4.75348502397537231445e-01) (44, 1.36974000930786132812e+00) (45, 4.55861836671829223633e-02) (46, 2.89230406284332275391e-01) (47, -6.13753274083137512207e-02) (48, 4.07952964305877685547e-01) (49, 1.67284503579139709473e-01) (50, -4.43335771560668945312e-01) (51, -8.72566252946853637695e-02) (52, -1.90263003110885620117e-01) (53, 6.31531417369842529297e-01) (54, 3.72594632208347320557e-02) (55, 1.34335196018218994141e+00) (56, 6.24418437480926513672e-01) (57, 3.02496962249279022217e-02) (58, -9.62845146656036376953e-01) (59, -9.15989279747009277344e-01) (60, 3.45091134309768676758e-01) (61, 2.45756566524505615234e-01) (62, -8.02817046642303466797e-01) (63, 1.51353329420089721680e-01) (64, -6.53623759746551513672e-01) (65, 4.83063548803329467773e-01) (66, -7.17446088790893554688e-01) (67, 4.55867469310760498047e-01) (68, -4.37721252441406250000e-01) (38, -8.81055414676666259766e-01) (39, -3.64546269178390502930e-01) (40, 1.93135333061218261719e+00) (41, -5.55822372436523437500e-01) (42, -5.23428261280059814453e-01) (43, 1.60536527633666992188e-01) (44, 9.88731384277343750000e-01) (45, 1.26768171787261962891e+00) (46, -2.77644162997603416443e-03) (47, -3.37472766637802124023e-01) (48, 1.28854811191558837891e+00) (49, 4.99428927898406982422e-01) (50, 4.33192759752273559570e-01) (51, 9.53534483909606933594e-01) (52, 3.89625459909439086914e-01) (53, 4.11387562751770019531e-01) (54, 9.10220384597778320312e-01) (55, 1.28295016288757324219e+00) (56, -6.88438653945922851562e-01) (57, 1.08181321620941162109e+00) (58, -5.39240002632141113281e-01) (59, 5.67565083503723144531e-01) (60, 7.13063061237335205078e-01) (61, -2.31346622109413146973e-01) (62, 4.56622242927551269531e-01) (63, 1.28459405899047851562e+00) (64, 1.51142096519470214844e+00) (65, -6.99717819690704345703e-01) (66, -8.11244606971740722656e-01) (67, -3.39314520359039306641e-01) (68, -4.51859533786773681641e-01) (38, -6.10277391970157623291e-02) (39, 7.25735127925872802734e-01) (40, 1.03052699565887451172e+00) (41, -2.32987865805625915527e-01) (42, -6.54373317956924438477e-02) (43, 1.04524403810501098633e-01) (44, 1.06836833059787750244e-01) (45, 1.30656933784484863281e+00) (46, -6.45407065749168395996e-02) (47, -9.62882220745086669922e-01) (48, 9.19111549854278564453e-01) (49, 8.99498224258422851562e-01) (50, 4.80945497751235961914e-01) (51, 4.67652529478073120117e-01) (52, 8.94649147987365722656e-01) (53, 3.68200540542602539062e-01) (54, 7.73690998554229736328e-01) (55, 1.05732047557830810547e+00) (56, -7.28718051686882972717e-03) (57, -9.25124064087867736816e-02) (58, 5.84802329540252685547e-01) (59, 6.21072530746459960938e-01) (60, 2.22819913178682327271e-02) (61, -3.22726339101791381836e-01) (62, -5.29565513134002685547e-01) (63, -1.75548702478408813477e-01) (64, -1.32646346092224121094e+00) (65, -3.59114170074462890625e-01) (66, 1.09204024076461791992e-01) (67, -6.45519733428955078125e-01) (68, 6.72993123531341552734e-01) (38, 9.06731605529785156250e-01) (39, -2.49131023883819580078e-01) (40, -1.50995813310146331787e-02) (41, -8.25585722923278808594e-01) (42, -4.08622682094573974609e-01) (43, -1.47876352071762084961e-01) (44, -9.48956608772277832031e-01) (45, -7.53423571586608886719e-01) (46, -8.68643164634704589844e-01) (47, -5.34461677074432373047e-01) (48, 1.40238177776336669922e+00) (49, 8.47670555114746093750e-01) (50, 1.01862251758575439453e+00) (51, 2.34758347272872924805e-01) (52, -3.64035576581954956055e-01) (53, 2.68103063106536865234e-01) (54, 1.19007587432861328125e+00) (55, 2.21392974257469177246e-01) (56, 6.39643371105194091797e-01) (57, 2.49970760196447372437e-02) (58, -3.69513392448425292969e-01) (59, -3.15281391143798828125e-01) (60, 1.20238447189331054688e+00) (61, 2.65541166067123413086e-01) (62, 1.52723002433776855469e+00) (63, -8.96460488438606262207e-02) (64, 9.04145121574401855469e-01) (65, -1.22185015678405761719e+00) (66, 1.01004540920257568359e+00) (67, -1.87475264072418212891e+00) (68, 8.88378247618675231934e-02) (38, -2.26737231016159057617e-01) (39, -1.52461156249046325684e-01) (40, 1.11529171466827392578e+00) (41, -5.37941634654998779297e-01) (42, 2.18050062656402587891e-01) (43, 3.17889630794525146484e-01) (44, -2.01797306537628173828e-01) (45, 1.07882344722747802734e+00) (46, -2.31681745499372482300e-02) (47, 4.69887584447860717773e-01) (48, -6.82764291763305664062e-01) (49, 5.57917714118957519531e-01) (50, 2.48525634407997131348e-01) (51, 4.91939187049865722656e-01) (52, 5.78646473586559295654e-02) (53, -5.70650219917297363281e-01) (54, 7.35519587993621826172e-01) (55, -8.75598788261413574219e-02) (56, 9.60754305124282836914e-02) (57, -1.22811675071716308594e+00) (58, -3.72812569141387939453e-01) (59, -1.62404283881187438965e-01) (60, 1.45787717774510383606e-02) (61, -1.32932233810424804688e+00) (62, 1.60721898078918457031e-01) (63, -5.60891926288604736328e-01) (64, 8.78868997097015380859e-01) (65, 1.44413197040557861328e+00) (66, -2.88582980632781982422e-01) (67, -4.95888173580169677734e-01) (68, 4.98110592365264892578e-01) (38, 1.17536008358001708984e+00) (39, 2.70505845546722412109e-01) (40, 5.21767795085906982422e-01) (41, -5.20082712173461914062e-01) (42, 5.60135960578918457031e-01) (43, -8.27860414981842041016e-01) (44, 1.21776378154754638672e+00) (45, 1.18363666534423828125e+00) (46, -4.67425704002380371094e-01) (47, 1.36733606457710266113e-01) (48, 8.44350576400756835938e-01) (49, -3.72905045747756958008e-01) (50, -1.78899109363555908203e-01) (51, 2.65432000160217285156e-01) (52, -3.03927481174468994141e-01) (53, 9.29059684276580810547e-01) (54, 4.09874051809310913086e-01) (55, 7.17277050018310546875e-01) (56, 4.96960997581481933594e-01) (57, 5.26983678340911865234e-01) (58, 3.87876778841018676758e-01) (59, 1.85859620571136474609e-01) (60, 5.44896900653839111328e-01) (61, -6.84815943241119384766e-01) (62, 8.96178603172302246094e-01) (63, 5.22772490978240966797e-01) (64, -7.66579434275627136230e-02) (65, 1.09653636813163757324e-01) (66, 4.87030625343322753906e-01) (67, 1.65990006923675537109e+00) (68, 7.54203021526336669922e-01) (38, 6.75532281398773193359e-01) (39, 1.06743729114532470703e+00) (40, 6.95446252822875976562e-01) (41, 8.13892707228660583496e-02) (42, 2.30751976370811462402e-01) (43, -1.31676092743873596191e-01) (44, 1.07062053680419921875e+00) (45, 2.66085118055343627930e-01) (46, 9.01556491851806640625e-01) (47, 1.46452665328979492188e+00) (48, 1.74361371994018554688e+00) (49, 6.65816187858581542969e-01) (50, 1.63814485073089599609e-01) (51, 1.68645158410072326660e-01) (52, -5.95132827758789062500e-01) (53, 7.44166016578674316406e-01) (54, -8.69558870792388916016e-01) (55, 1.38051521778106689453e+00) (56, -5.52351593971252441406e-01) (57, 6.33990168571472167969e-01) (58, 5.95735430717468261719e-01) (59, -3.91702890396118164062e-01) (60, 2.90352821350097656250e-01) (61, -2.40286942571401596069e-02) (62, -2.85674959421157836914e-01) (63, 1.58464893698692321777e-01) (64, 7.78862535953521728516e-01) (65, 1.07995688915252685547e+00) (66, 1.00888289511203765869e-01) (67, 1.73444247245788574219e+00) (68, 2.57801055908203125000e-01) (38, 1.28848183155059814453e+00) (39, 4.97585892677307128906e-01) (40, 1.16169571876525878906e+00) (41, 2.11953017860651016235e-02) (42, 4.65728849172592163086e-01) (43, -3.71642932295799255371e-02) (44, -5.23523986339569091797e-01) (45, 8.95570933818817138672e-01) (46, -8.47176134586334228516e-01) (47, 8.73891174793243408203e-01) (48, 5.17652213573455810547e-01) (49, 9.59529280662536621094e-01) (50, 4.08078819513320922852e-01) (51, -1.11967408657073974609e+00) (52, 3.27629178762435913086e-01) (53, 5.80470800399780273438e-01) (54, -7.20757186412811279297e-01) (55, -3.27282905578613281250e-01) (56, 5.96387326717376708984e-01) (57, 9.98570024967193603516e-01) (58, 3.75013768672943115234e-01) (59, 1.24918252229690551758e-01) (60, -7.40719199180603027344e-01) (61, 5.13686090707778930664e-02) (62, -7.94109284877777099609e-01) (63, 2.35781237483024597168e-01) (64, -6.17603719234466552734e-01) (65, 9.86681222915649414062e-01) (66, -5.64778327941894531250e-01) (67, 5.33013284206390380859e-01) (68, -9.77700203657150268555e-02) (38, 9.58455324172973632812e-01) (39, -5.34094750881195068359e-01) (40, -2.90970742702484130859e-01) (41, 1.25050842761993408203e-01) (42, 1.29223561286926269531e+00) (43, -3.74841868877410888672e-01) (44, 2.77095735073089599609e-01) (45, 2.95118063688278198242e-01) (46, 8.57374489307403564453e-01) (47, 8.52942347526550292969e-01) (48, -7.40816831588745117188e-01) (49, 6.89941108226776123047e-01) (50, 3.12584668397903442383e-01) (51, -7.90550172328948974609e-01) (52, 1.22176229953765869141e+00) (53, -2.65793114900588989258e-01) (54, 3.61351758241653442383e-01) (55, 1.18499064445495605469e+00) (56, 1.55289387702941894531e+00) (57, 1.41858890652656555176e-01) (58, -5.66104769706726074219e-01) (59, -1.26240566372871398926e-01) (60, -2.88258075714111328125e-01) (61, 9.73662614822387695312e-01) (62, 4.70156461000442504883e-01) (63, -6.69304013252258300781e-01) (64, 1.06058573722839355469e+00) (65, 7.54051148891448974609e-01) (66, -3.70934545993804931641e-01) (67, 1.09917187690734863281e+00) (68, 6.81532323360443115234e-01) (38, 7.51618206501007080078e-01) (39, 1.40541315078735351562e-01) (40, -1.25038519501686096191e-01) (41, 1.52065455913543701172e-01) (42, -7.86074817180633544922e-01) (43, 5.08369028568267822266e-01) (44, 8.47690328955650329590e-02) (45, 8.21433737874031066895e-02) (46, 2.98916488885879516602e-01) (47, -3.85062664747238159180e-01) (48, 2.24890518188476562500e+00) (49, -3.72538149356842041016e-01) (50, 1.66169345378875732422e-01) (51, -3.59325736761093139648e-01) (52, -3.98555696010589599609e-01) (53, 3.58315646648406982422e-01) (54, 2.97131180763244628906e-01) (55, -3.82857918739318847656e-01) (56, 1.60933136940002441406e-01) (57, 9.58454787731170654297e-01) (58, 4.16140258312225341797e-01) (59, 7.32203662395477294922e-01) (60, -3.15441399812698364258e-01) (61, 1.12041212618350982666e-01) (62, 1.09983168542385101318e-01) (63, -7.66229748725891113281e-01) (64, 4.09388951957225799561e-02) (65, 9.54727649688720703125e-01) (66, 7.36252486705780029297e-01) (67, -4.47687655687332153320e-02) (68, -1.61306276917457580566e-01) (38, 1.21083170175552368164e-01) (39, 9.02067422866821289062e-01) (40, -3.69862578809261322021e-02) (41, -3.52080494165420532227e-01) (42, 9.42192196846008300781e-01) (43, -1.05136239528656005859e+00) (44, 1.49750828742980957031e+00) (45, -9.94760617613792419434e-02) (46, 1.18080484867095947266e+00) (47, 9.43049550056457519531e-01) (48, 4.21392589807510375977e-01) (49, -1.78461730480194091797e-01) (50, -4.10407423973083496094e-01) (51, 8.70984643697738647461e-02) (52, 1.16064167022705078125e+00) (53, 1.43092131614685058594e+00) (54, 1.54949307441711425781e+00) (55, 1.40318858623504638672e+00) (56, 3.33978742361068725586e-01) (57, 8.72697532176971435547e-01) (58, -3.01234692335128784180e-01) (59, -7.30371713638305664062e-01) (60, 1.49849271774291992188e+00) (61, 4.83468353748321533203e-01) (62, -3.24225425720214843750e-01) (63, -3.98382723331451416016e-01) (64, 5.63900232315063476562e-01) (65, -8.53530108928680419922e-01) (66, 7.74348601698875427246e-02) (67, 6.01471006870269775391e-01) (68, 4.88789916038513183594e-01) (38, -5.62294423580169677734e-02) (39, -1.02213430404663085938e+00) (40, -1.78621441125869750977e-01) (41, -5.04852980375289916992e-02) (42, 1.96615546941757202148e-01) (43, -3.16455453634262084961e-01) (44, -2.26133808493614196777e-01) (45, 1.16923320293426513672e+00) (46, 2.25683405995368957520e-01) (47, -4.37949895858764648438e-01) (48, 7.62974083423614501953e-01) (49, -1.08577930927276611328e+00) (50, -5.40991984307765960693e-02) (51, 3.73077839612960815430e-01) (52, 1.15134060382843017578e+00) (53, 1.53956353664398193359e+00) (54, 6.45852386951446533203e-01) (55, 6.82457268238067626953e-01) (56, 1.22818720340728759766e+00) (57, 6.21938943862915039062e-01) (58, 7.14882969856262207031e-01) (59, 1.68896228075027465820e-01) (60, -3.69986921548843383789e-01) (61, 9.94018733501434326172e-01) (62, 3.06855231523513793945e-01) (63, 6.24080657958984375000e-01) (64, 6.57965004444122314453e-01) (65, 8.36246550083160400391e-01) (66, 3.87168884277343750000e-01) (67, 1.46539044380187988281e+00) (68, -1.16288626194000244141e+00) (38, -4.31851476430892944336e-01) (39, -1.60872295498847961426e-01) (40, 2.91949987411499023438e-01) (41, -4.58708554506301879883e-02) (42, -1.72344058752059936523e-01) (43, -1.41272112727165222168e-01) (44, 4.37187910079956054688e-01) (45, -3.97743910551071166992e-01) (46, 9.03169929981231689453e-01) (47, 2.97352690249681472778e-02) (48, -1.38414412736892700195e-01) (49, 9.45266366004943847656e-01) (50, 9.21312034130096435547e-01) (51, -8.38222503662109375000e-02) (52, 9.59122106432914733887e-02) (53, 1.58470422029495239258e-01) (54, 1.22552025318145751953e+00) (55, -8.53204905986785888672e-01) (56, 8.88836979866027832031e-01) (57, -3.52830052375793457031e-01) (58, 3.32229107618331909180e-01) (59, 3.76750141382217407227e-01) (60, 5.85189044475555419922e-01) (61, 5.59950530529022216797e-01) (62, 1.80103123188018798828e+00) (63, 3.31607609987258911133e-01) (64, 1.50131189823150634766e+00) (65, -3.86744648218154907227e-01) (66, 8.30546677112579345703e-01) (67, -5.88974133133888244629e-02) (68, 8.30846503376960754395e-02) (38, 2.78027176856994628906e-01) (39, 8.05083394050598144531e-01) (40, 9.12552595138549804688e-01) (41, 3.88756245374679565430e-01) (42, -1.39778387546539306641e+00) (43, -1.03212684392929077148e-01) (44, 1.89383983612060546875e-01) (45, 6.47772669792175292969e-01) (46, -1.02210462093353271484e+00) (47, -1.99831239879131317139e-02) (48, 4.62545186281204223633e-01) (49, 1.12998616695404052734e+00) (50, -4.56990808248519897461e-01) (51, -5.31378984451293945312e-01) (52, 1.57186710834503173828e+00) (53, 1.60263490676879882812e+00) (54, -1.67293235659599304199e-01) (55, 4.55034196376800537109e-01) (56, 9.57793951034545898438e-01) (57, -5.01166060566902160645e-02) (58, -5.02384483814239501953e-01) (59, -1.35615181922912597656e+00) (60, -1.08439970016479492188e+00) (61, -4.71327602863311767578e-01) (62, 1.92208498716354370117e-01) (63, -1.19182430207729339600e-01) (64, -8.04674863815307617188e-01) (65, 2.17443779110908508301e-01) (66, -3.13861817121505737305e-01) (67, 1.65847182273864746094e+00) (68, 1.27933359146118164062e+00) (38, 1.10898268222808837891e+00) (39, -1.03811547160148620605e-01) (40, 8.62649559974670410156e-01) (41, -1.71534180641174316406e-01) (42, 3.93738955259323120117e-01) (43, 7.34963342547416687012e-02) (44, -4.99973565340042114258e-01) (45, -7.16931700706481933594e-01) (46, -8.34914073348045349121e-02) (47, 1.78677886724472045898e-02) (48, 1.33403360843658447266e+00) (49, -8.00081670284271240234e-01) (50, 9.30685162544250488281e-01) (51, 1.08730459213256835938e+00) (52, 4.98327910900115966797e-01) (53, 8.72038424015045166016e-01) (54, -8.05583417415618896484e-01) (55, -3.17775309085845947266e-02) (56, 7.51572728157043457031e-01) (57, 6.65860533714294433594e-01) (58, -4.01774123311042785645e-02) (59, 7.80452907085418701172e-01) (60, 1.42625808715820312500e+00) (61, 4.92350339889526367188e-01) (62, -5.10184049606323242188e-01) (63, -9.01274979114532470703e-01) (64, -1.01535570621490478516e+00) (65, 5.00493109226226806641e-01) (66, 2.45135322213172912598e-01) (67, 1.10607314109802246094e+00) (68, 2.56141453981399536133e-01) (38, -8.30518126487731933594e-01) (39, 4.54817861318588256836e-01) (40, 2.73722290992736816406e-01) (41, 4.32523973286151885986e-02) (42, -4.30658549070358276367e-01) (43, -1.25968798995018005371e-01) (44, -2.39177107810974121094e-01) (45, 1.09477698802947998047e-01) (46, 2.47902110219001770020e-01) (47, 8.61519038677215576172e-01) (48, -5.69502890110015869141e-01) (49, 1.52645170688629150391e-01) (50, 2.92410582304000854492e-01) (51, -1.54526069760322570801e-01) (52, 1.57404929399490356445e-01) (53, -1.63174390792846679688e-01) (54, 1.92304402589797973633e-01) (55, -8.49233716726303100586e-02) (56, -7.13045716285705566406e-01) (57, 1.41036677360534667969e+00) (58, 4.41074609756469726562e-01) (59, -9.23743367195129394531e-01) (60, 2.49460935592651367188e-01) (61, 4.00053352117538452148e-01) (62, 2.33040511608123779297e-01) (63, 7.50150501728057861328e-01) (64, 1.14975476264953613281e+00) (65, 8.64223659038543701172e-01) (66, 8.53777602314949035645e-02) (67, 1.03820487856864929199e-01) (68, -3.57904225587844848633e-01) (38, 8.66272687911987304688e-01) (39, -6.78593635559082031250e-01) (40, 1.18732821941375732422e+00) (41, -3.75463068485260009766e-01) (42, 6.66731595993041992188e-01) (43, -6.40158355236053466797e-01) (44, 5.42472600936889648438e-01) (45, 6.64502263069152832031e-01) (46, -1.01904936134815216064e-01) (47, -8.61847341060638427734e-01) (48, 1.52923524379730224609e+00) (49, -2.13936343789100646973e-01) (50, 6.47459805011749267578e-01) (51, 4.04647350311279296875e-01) (52, 8.19881856441497802734e-01) (53, -2.07405582070350646973e-01) (54, 3.23277801275253295898e-01) (55, 5.00032305717468261719e-01) (56, -1.24249541759490966797e+00) (57, -4.90033328533172607422e-01) (58, 6.39914453029632568359e-01) (59, -3.41345161199569702148e-01) (60, 1.24297094345092773438e+00) (61, 4.57419268786907196045e-02) (62, 2.31730952858924865723e-01) (63, -8.85497033596038818359e-02) (64, 1.17156112194061279297e+00) (65, 6.26478552818298339844e-01) (66, 1.79806303977966308594e+00) (67, 3.53217452764511108398e-01) (68, 8.50936353206634521484e-01) (38, 4.91514354944229125977e-01) (39, -8.23716998100280761719e-01) (40, -2.46120736002922058105e-01) (41, 6.18938624858856201172e-01) (42, 9.64924752712249755859e-01) (43, -3.59958223998546600342e-03) (44, 8.03352370858192443848e-02) (45, 2.37327650189399719238e-01) (46, -4.01326715946197509766e-02) (47, 3.31773787736892700195e-01) (48, -6.03544414043426513672e-01) (49, -1.61279493477195501328e-03) (50, 1.44048714637756347656e+00) (51, 6.92340135574340820312e-01) (52, 1.35107040405273437500e+00) (53, 4.44080233573913574219e-01) (54, -8.63604784011840820312e-01) (55, 5.21585524082183837891e-01) (56, -9.00130867958068847656e-02) (57, 6.09539031982421875000e-01) (58, -8.47742676734924316406e-01) (59, -4.55829203128814697266e-02) (60, -1.73997151851654052734e+00) (61, 3.32927048206329345703e-01) (62, -4.51260417699813842773e-01) (63, 4.00872737169265747070e-01) (64, 6.29500821232795715332e-02) (65, 3.42819422483444213867e-01) (66, 4.52241748571395874023e-01) (67, 2.77231246232986450195e-01) (68, -7.49145001173019409180e-02) (38, -3.28938215970993041992e-01) (39, 1.62048310041427612305e-01) (40, 1.45167601108551025391e+00) (41, -4.55412328243255615234e-01) (42, 3.04485988616943359375e+00) (43, -6.00412748754024505615e-02) (44, 1.06145393848419189453e+00) (45, -5.37355482578277587891e-01) (46, -6.91691577434539794922e-01) (47, 8.60242486000061035156e-01) (48, 1.88776206970214843750e+00) (49, 2.30451673269271850586e-01) (50, -8.73037576675415039062e-02) (51, 7.45120644569396972656e-01) (52, -4.28030610084533691406e-01) (53, -1.36172389984130859375e+00) (54, 2.03665423393249511719e+00) (55, 6.87447309494018554688e-01) (56, -2.22702711820602416992e-01) (57, 2.92104363441467285156e-01) (58, 8.90545845031738281250e-01) (59, 1.33572503924369812012e-01) (60, 9.81698513031005859375e-01) (61, -7.02241510152816772461e-02) (62, -3.05542528629302978516e-01) (63, 2.47848555445671081543e-01) (64, 1.12588417530059814453e+00) (65, -4.36976522207260131836e-01) (66, -9.08717453479766845703e-01) (67, -1.01295804977416992188e+00) (68, -5.51354944705963134766e-01) (38, 3.37235331535339355469e-01) (39, -4.00501340627670288086e-02) (40, 6.33173525333404541016e-01) (41, 2.73205518722534179688e+00) (42, 1.49367129802703857422e+00) (43, 6.23799502849578857422e-01) (44, 9.05322134494781494141e-01) (45, 3.05648267269134521484e-01) (46, 4.00018304586410522461e-01) (47, 6.10518038272857666016e-01) (48, 1.42550790309906005859e+00) (49, -7.30050727725028991699e-02) (50, -3.20802303031086921692e-03) (51, -2.30460733175277709961e-01) (52, 8.25710237026214599609e-01) (53, 9.19877529144287109375e-01) (54, -3.11177909374237060547e-01) (55, 1.42289102077484130859e+00) (56, 7.91638255119323730469e-01) (57, 1.37885466217994689941e-01) (58, -1.24852490425109863281e+00) (59, -8.55036675930023193359e-01) (60, -4.60394620895385742188e-01) (61, 9.56539958715438842773e-02) (62, 5.84812402725219726562e-01) (63, 5.78758656978607177734e-01) (64, -8.02617073059082031250e-01) (65, 7.93288946151733398438e-01) (66, 5.91874346137046813965e-02) (67, 8.34629356861114501953e-01) (68, -6.37676477432250976562e-01) (38, 8.46126258373260498047e-01) (39, 1.74361079931259155273e-01) (40, -6.76447331905364990234e-01) (41, 1.00349044799804687500e+00) (42, 4.36832249164581298828e-01) (43, -4.08858060836791992188e-02) (44, 4.16145920753479003906e-01) (45, 1.14997768402099609375e+00) (46, 9.70911741256713867188e-01) (47, 5.79840242862701416016e-01) (48, -4.87938188016414642334e-02) (49, -6.51424407958984375000e-01) (50, 1.33162532001733779907e-02) (51, -1.27764093875885009766e+00) (52, 1.02065932750701904297e+00) (53, -2.01989984512329101562e+00) (54, -2.56696194410324096680e-01) (55, 1.33054864406585693359e+00) (56, 7.60676085948944091797e-01) (57, 8.32822382450103759766e-01) (58, 6.81100666522979736328e-01) (59, 7.23425745964050292969e-01) (60, -4.27412390708923339844e-01) (61, 3.27975809574127197266e-01) (62, 6.40182554721832275391e-01) (63, 8.60623776912689208984e-01) (64, -3.51093053817749023438e-01) (65, 5.73837235569953918457e-02) (66, -8.52267667651176452637e-02) (67, 9.50290918350219726562e-01) (68, 6.85464143753051757812e-01) (38, 4.14312124252319335938e-01) (39, 9.15321409702301025391e-01) (40, -1.77909255027770996094e-01) (41, -1.65391612052917480469e+00) (42, 7.59245038032531738281e-01) (43, -1.15946114063262939453e+00) (44, -2.18834936618804931641e-01) (45, 4.04083311557769775391e-01) (46, 3.57123613357543945312e-02) (47, 2.31149643659591674805e-01) (48, -6.21230721473693847656e-01) (49, -4.83207106590270996094e-01) (50, -1.00925683975219726562e+00) (51, -5.88558554649353027344e-01) (52, -3.54891151189804077148e-01) (53, -1.27362203598022460938e+00) (54, 5.20986676216125488281e-01) (55, 4.26912099123001098633e-01) (56, -1.71652758121490478516e+00) (57, -2.48922765254974365234e-01) (58, 1.47990846633911132812e+00) (59, 1.13845765590667724609e+00) (60, 1.71590432524681091309e-01) (61, 2.51847922801971435547e-01) (62, 9.83522057533264160156e-01) (63, -7.74859935045242309570e-02) (64, -3.03021520376205444336e-01) (65, -5.66695868968963623047e-01) (66, 3.27957212924957275391e-01) (67, -4.06825900077819824219e-01) (68, 7.35969960689544677734e-01) (38, 4.73993182182312011719e-01) (39, 5.55471718311309814453e-01) (40, 8.69271576404571533203e-01) (41, -6.37672618031501770020e-02) (42, -1.00770898163318634033e-01) (43, -1.03585027158260345459e-01) (44, 1.42231035232543945312e+00) (45, 9.76785957813262939453e-01) (46, -6.78700923919677734375e-01) (47, 5.81380009651184082031e-01) (48, 7.61811375617980957031e-01) (49, 5.63150346279144287109e-01) (50, 2.24737569689750671387e-01) (51, 6.31365001201629638672e-01) (52, 6.70077264308929443359e-01) (53, 4.20888841152191162109e-01) (54, -1.04825043678283691406e+00) (55, 1.58885133266448974609e+00) (56, -4.44293878972530364990e-02) (57, 3.80386412143707275391e-01) (58, 3.02710860967636108398e-01) (59, 8.82974565029144287109e-02) (60, -7.92459428310394287109e-01) (61, -3.20167541503906250000e-01) (62, -1.11161339282989501953e+00) (63, 8.50946009159088134766e-01) (64, 1.94392979145050048828e-01) (65, 3.27766388654708862305e-01) (66, 1.70885384082794189453e-01) (67, 1.83268678188323974609e+00) (68, -2.83905351534485816956e-03) (38, -4.65170219540596008301e-02) (39, -5.36727726459503173828e-01) (40, -7.44639635086059570312e-01) (41, 9.29684117436408996582e-02) (42, -3.12293618917465209961e-01) (43, 8.00664544105529785156e-01) (44, 1.86538726091384887695e-01) (45, 5.92164039611816406250e-01) (46, 9.80029940605163574219e-01) (47, 4.33852732181549072266e-01) (48, 7.34108239412307739258e-02) (49, 1.56045705080032348633e-01) (50, 6.38669908046722412109e-01) (51, 4.68008518218994140625e-02) (52, 1.92685902118682861328e+00) (53, -1.13310754299163818359e+00) (54, -1.47873712703585624695e-02) (55, 5.39317250251770019531e-01) (56, 1.04415702819824218750e+00) (57, -4.24469649791717529297e-01) (58, -1.51060476899147033691e-01) (59, -7.82635882496833801270e-02) (60, -4.01309728622436523438e-01) (61, 3.74185383319854736328e-01) (62, 8.21752905845642089844e-01) (63, 7.81688988208770751953e-01) (64, 1.74625217914581298828e+00) (65, 1.04375374317169189453e+00) (66, -8.10376763343811035156e-01) (67, -1.59106671810150146484e-01) (68, -9.00724232196807861328e-01) (38, -4.09146606922149658203e-01) (39, 1.26750454306602478027e-01) (40, 3.81846845149993896484e-01) (41, 1.67778134346008300781e-01) (42, 1.13571071624755859375e+00) (43, -1.21123842895030975342e-01) (44, 1.98098234832286834717e-02) (45, 9.84798595309257507324e-02) (46, 9.79812383651733398438e-01) (47, 5.29430769383907318115e-02) (48, 8.56523871421813964844e-01) (49, 9.12891924381256103516e-02) (50, 2.19388343393802642822e-02) (51, 7.15134441852569580078e-01) (52, -3.60440701246261596680e-01) (53, -2.49605566263198852539e-01) (54, 1.01118052005767822266e+00) (55, -8.69536995887756347656e-01) (56, -2.60584086179733276367e-01) (57, 5.33173799514770507812e-01) (58, 5.09474039077758789062e-01) (59, 1.50361672043800354004e-01) (60, 2.59172052145004272461e-01) (61, 5.54676473140716552734e-01) (62, -3.88837158679962158203e-01) (63, 3.80523830652236938477e-01) (64, 5.31298637390136718750e-01) (65, -9.37062084674835205078e-01) (66, 5.72479486465454101562e-01) (67, 6.81773245334625244141e-01) (68, -2.73762732744216918945e-01) (38, -3.92869502305984497070e-01) (39, 7.51968681812286376953e-01) (40, 1.39783382415771484375e+00) (41, 7.06330835819244384766e-01) (42, -8.96959781646728515625e-01) (43, 1.83941766619682312012e-01) (44, 3.75988513231277465820e-01) (45, -8.54966714978218078613e-02) (46, 9.97957289218902587891e-01) (47, 9.53914672136306762695e-02) (48, -3.86698871850967407227e-01) (49, 2.21630454063415527344e-01) (50, 9.17431414127349853516e-01) (51, -2.20062002539634704590e-01) (52, 5.35586595535278320312e-01) (53, 4.08526271581649780273e-01) (54, -4.23096656799316406250e-01) (55, 8.68728816509246826172e-01) (56, 7.66005337238311767578e-01) (57, -5.68931140005588531494e-02) (58, 1.65671765804290771484e-01) (59, -9.53527316451072692871e-02) (60, 1.67873525619506835938e+00) (61, 9.07870173454284667969e-01) (62, -1.87107130885124206543e-01) (63, 1.00611269474029541016e+00) (64, 1.19759440422058105469e+00) (65, -4.73872572183609008789e-01) (66, 1.30412563681602478027e-01) (67, 1.19817149639129638672e+00) (68, 4.50622767210006713867e-01) (38, 3.69769573211669921875e-01) (39, 1.42091199755668640137e-01) (40, 1.75837308168411254883e-01) (41, 8.35396945476531982422e-01) (42, 7.27627933025360107422e-01) (43, -3.31157535314559936523e-01) (44, 8.97016763687133789062e-01) (45, 1.47909238934516906738e-01) (46, -4.50773715972900390625e-01) (47, 4.98003482818603515625e-01) (48, 5.96205949783325195312e-01) (49, 9.67183411121368408203e-01) (50, 1.16289466619491577148e-01) (51, -7.53600060939788818359e-01) (52, -4.37363505363464355469e-01) (53, 5.49254238605499267578e-01) (54, 3.09922635555267333984e-01) (55, 1.71993568539619445801e-01) (56, 1.34182885289192199707e-01) (57, 6.40228629112243652344e-01) (58, 3.71170490980148315430e-01) (59, -2.36011236906051635742e-01) (60, 2.63620615005493164062e-01) (61, 7.05595612525939941406e-01) (62, 8.33717882633209228516e-01) (63, -1.45044311881065368652e-01) (64, 8.49851310253143310547e-01) (65, -2.33446121215820312500e-01) (66, -2.23410442471504211426e-01) (67, 2.60348677635192871094e-01) (68, 7.92090594768524169922e-01) (38, 4.00789439678192138672e-01) (39, -8.55753660202026367188e-01) (40, 7.01424658298492431641e-01) (41, 3.98918300867080688477e-01) (42, 8.98387253284454345703e-01) (43, 4.28792536258697509766e-02) (44, -8.10818135738372802734e-01) (45, 1.35816323757171630859e+00) (46, 9.03904199600219726562e-01) (47, -3.75397838652133941650e-02) (48, -1.33767321705818176270e-01) (49, -5.93013286590576171875e-01) (50, 1.87430843710899353027e-01) (51, 5.64191877841949462891e-01) (52, -7.60778039693832397461e-02) (53, 1.59958815574645996094e+00) (54, 1.12043571472167968750e+00) (55, 6.01990938186645507812e-01) (56, -1.88514083623886108398e-01) (57, 1.01995956897735595703e+00) (58, -9.15776550769805908203e-01) (59, 7.07255244255065917969e-01) (60, 9.59596335887908935547e-01) (61, -6.13614439964294433594e-01) (62, 1.64960920810699462891e-01) (63, -4.33481603860855102539e-01) (64, 4.26446408033370971680e-01) (65, -1.08355081081390380859e+00) (66, -6.07315421104431152344e-01) (67, -2.63709068298339843750e-01) (68, 1.44011771678924560547e+00) (38, 2.73307353258132934570e-01) (39, -6.40358924865722656250e-01) (40, 5.44197201728820800781e-01) (41, 1.09139168635010719299e-02) (42, -7.71551728248596191406e-02) (43, 1.29813859239220619202e-02) (44, 4.43701088428497314453e-01) (45, 1.21940635144710540771e-01) (46, 2.56347209215164184570e-01) (47, 3.31971980631351470947e-02) (48, 9.75257396697998046875e-01) (49, 1.34911918640136718750e+00) (50, 4.38588976860046386719e-01) (51, -9.02847647666931152344e-01) (52, 1.12450170516967773438e+00) (53, 9.14184600114822387695e-02) (54, 8.67656588554382324219e-01) (55, -2.67717074602842330933e-02) (56, 4.23633098602294921875e-01) (57, -1.89584568142890930176e-01) (58, -2.08820551633834838867e-01) (59, -1.33598780632019042969e+00) (60, -4.86027687788009643555e-01) (61, 3.96461695432662963867e-01) (62, -8.20856571197509765625e-01) (63, 7.31109201908111572266e-01) (64, -1.09035861492156982422e+00) (65, 6.90684318542480468750e-02) (66, -8.26651975512504577637e-02) (67, 3.83085906505584716797e-01) (68, -2.78027147054672241211e-01) (69, -2.35978990793228149414e-01) (70, -5.72840347886085510254e-02) (71, 3.86701077222824096680e-02) (72, 2.31109708547592163086e-01) (73, 3.04274976253509521484e-01) (74, 6.90886676311492919922e-01) (75, -1.64749041199684143066e-01) (76, -1.29090145230293273926e-01) (77, 1.75554335117340087891e-01) (78, 4.94478970766067504883e-01) (79, -1.71971693634986877441e-01) (80, -3.06476205587387084961e-01) (81, 6.75101697444915771484e-01) (82, -1.51351332664489746094e-01) (83, 3.43613892793655395508e-01) (84, -1.02890163660049438477e-01) (85, 1.69906407594680786133e-01) (86, -9.20320302248001098633e-02) (87, 8.04902136325836181641e-01) (88, 3.94135326147079467773e-01) (89, 2.17084631323814392090e-01) (90, 4.09777909517288208008e-01) (91, 3.54208171367645263672e-01) (92, 7.60952532291412353516e-01) (93, -1.69719249010086059570e-01) (94, -4.90767806768417358398e-01) (95, 5.19408583641052246094e-02) (96, 2.64975517988204956055e-01) (97, -8.01054894924163818359e-01) (98, 5.02453088760375976562e-01) (99, 2.81802535057067871094e-01) (69, -6.73649430274963378906e-01) (70, 7.95712769031524658203e-02) (71, -2.39519208669662475586e-01) (72, 9.92118895053863525391e-01) (73, 1.05482268333435058594e+00) (74, -8.10508847236633300781e-01) (75, 6.85556352138519287109e-01) (76, 3.55302393436431884766e-01) (77, 9.28948760032653808594e-01) (78, 8.31312358379364013672e-01) (79, 1.93520095199346542358e-02) (80, 7.95919001102447509766e-01) (81, 9.00684058666229248047e-01) (82, 2.71504402160644531250e-01) (83, 2.58817791938781738281e-01) (84, 3.72766673564910888672e-01) (85, 2.84719113260507583618e-02) (86, -7.76229575276374816895e-02) (87, 1.38375416398048400879e-01) (88, 5.05075231194496154785e-02) (89, 2.49426946043968200684e-01) (90, 6.69028103351593017578e-01) (91, 2.86760181188583374023e-01) (92, -1.89832970499992370605e-01) (93, 4.44803714752197265625e-01) (94, -2.85301685333251953125e-01) (95, 7.44586944580078125000e-01) (96, 9.76494029164314270020e-02) (97, -6.91221714019775390625e-01) (98, 1.71760529279708862305e-01) (99, 4.95864376425743103027e-02) (69, -1.11193738877773284912e-01) (70, 7.35277175903320312500e-01) (71, 6.75267815589904785156e-01) (72, 7.78995513916015625000e-01) (73, 3.02350431680679321289e-01) (74, -8.39274764060974121094e-01) (75, -8.83877575397491455078e-02) (76, -1.83373644948005676270e-01) (77, 2.20986053347587585449e-01) (78, 7.23428368568420410156e-01) (79, -3.41005802154541015625e-01) (80, 1.12732017040252685547e+00) (81, 1.26944005489349365234e-01) (82, 2.49735787510871887207e-02) (83, -9.35587063431739807129e-02) (84, 7.72917419672012329102e-02) (85, -4.04382586479187011719e-01) (86, -7.50145614147186279297e-02) (87, 4.15457814931869506836e-01) (88, -3.28491300344467163086e-01) (89, 8.31827282905578613281e-01) (90, 6.94048479199409484863e-02) (91, -1.47132432460784912109e+00) (92, 7.67184019088745117188e-01) (93, -9.40607249736785888672e-01) (94, -6.19107127189636230469e-01) (95, 6.17491126060485839844e-01) (96, 1.08544781804084777832e-01) (97, 6.08142502605915069580e-02) (98, 4.60785329341888427734e-01) (99, 1.30769872665405273438e+00) (69, -7.47719168663024902344e-01) (70, -1.95627257227897644043e-01) (71, 4.88950133323669433594e-01) (72, 5.91912329196929931641e-01) (73, 2.22767129540443420410e-01) (74, 3.36114287376403808594e-01) (75, -1.38228476047515869141e-01) (76, 7.64619791880249977112e-03) (77, 8.00340354442596435547e-01) (78, 8.65866065025329589844e-01) (79, 2.12201207876205444336e-01) (80, -2.94629186391830444336e-02) (81, 2.72636055946350097656e-01) (82, 3.19022715091705322266e-01) (83, 9.71937060356140136719e-01) (84, 3.75382930040359497070e-01) (85, 1.20489740371704101562e+00) (86, -1.31806701421737670898e-01) (87, 3.73355001211166381836e-01) (88, 4.04936343431472778320e-01) (89, 4.14568454027175903320e-01) (90, 7.42425382137298583984e-01) (91, 1.25014558434486389160e-01) (92, 2.41936922073364257812e-01) (93, 1.50671875476837158203e+00) (94, 5.34105122089385986328e-01) (95, -6.96715593338012695312e-01) (96, -9.88500714302062988281e-02) (97, -8.73721420764923095703e-01) (98, -1.98387596756219863892e-02) (99, 9.65965747833251953125e-01) (69, -4.39828395843505859375e-01) (70, -3.98991674184799194336e-01) (71, 2.55373507738113403320e-01) (72, 2.34074201434850692749e-02) (73, 4.30376261472702026367e-01) (74, -9.61174488067626953125e-01) (75, 2.49175280332565307617e-01) (76, 9.99664068222045898438e-01) (77, 6.48377120494842529297e-01) (78, 1.11463594436645507812e+00) (79, 1.23419773578643798828e+00) (80, 7.30643749237060546875e-01) (81, 4.46243770420551300049e-02) (82, 5.73473721742630004883e-02) (83, 2.93186958879232406616e-02) (84, 9.21739399433135986328e-01) (85, 6.98213338851928710938e-01) (86, 1.44914102554321289062e+00) (87, 4.27351817488670349121e-02) (88, 8.01153123378753662109e-01) (89, 2.24649399518966674805e-01) (90, 8.89676928520202636719e-01) (91, 4.44775462150573730469e-01) (92, -4.91536617279052734375e-01) (93, 3.44717293977737426758e-01) (94, -7.36225247383117675781e-01) (95, -9.58714708685874938965e-02) (96, 6.08784735202789306641e-01) (97, -2.84502133727073669434e-02) (98, 6.22905611991882324219e-01) (99, -6.80675327777862548828e-01) (69, 1.69736430048942565918e-01) (70, 7.67423868179321289062e-01) (71, 5.17253756523132324219e-01) (72, 4.68455553054809570312e-01) (73, -2.92239654809236526489e-02) (74, 2.17580139636993408203e-01) (75, -3.64777892827987670898e-01) (76, -3.11067432165145874023e-01) (77, 7.57849693298339843750e-01) (78, 3.16194325685501098633e-01) (79, -6.10924005508422851562e-01) (80, 1.20525956153869628906e+00) (81, 6.77096128463745117188e-01) (82, 1.09896039962768554688e+00) (83, 2.70161330699920654297e-01) (84, 8.17554295063018798828e-01) (85, -3.67776155471801757812e-01) (86, 1.50642544031143188477e-01) (87, 5.35976707935333251953e-01) (88, -1.56637501716613769531e+00) (89, 1.39459812641143798828e+00) (90, 9.17668104171752929688e-01) (91, 6.72833263874053955078e-01) (92, 1.17034173011779785156e+00) (93, -8.31558525562286376953e-01) (94, 7.19469547271728515625e-01) (95, -6.99367463588714599609e-01) (96, 1.32176995277404785156e+00) (97, 1.36030101776123046875e+00) (98, 9.59091603755950927734e-01) (99, -2.59836286306381225586e-01)
input_names='in1_eps' 'in2_q' 'in3_nu' 'in4_n2' 'in5_t2' 'in6_geo'
output_names='OUT_cne' 'OUT_cni1' 'OUT_cni2' 'OUT_cte' 'OUT_cti1' 'OUT_cti2'
norm_output=0.0 0.0 0.0 0.0 0.0 0.0 0.0 0.0 0.0 0.0 0.0 0.0 0.0 0.0 0.0 0.0 0.0 0.0 0.0 0.0 0.0 0.0 0.0 0.0 0.0 0.0 0.0 0.0 0.0 0.0 0.0 0.0 0.0 0.0 0.0 0.0
MSE= 0.00145850691479