FANN_FLO_2.1
num_layers=5
learning_rate=0.700000
connection_rate=1.000000
network_type=0
learning_momentum=0.000000
training_algorithm=2
train_error_function=0
train_stop_function=0
cascade_output_change_fraction=0.010000
quickprop_decay=957.739380
quickprop_mu=1.750000
rprop_increase_factor=1.200000
rprop_decrease_factor=0.500000
rprop_delta_min=0.000000
rprop_delta_max=50.000000
rprop_delta_zero=0.100000
cascade_output_stagnation_epochs=12
cascade_candidate_change_fraction=0.010000
cascade_candidate_stagnation_epochs=12
cascade_max_out_epochs=150
cascade_min_out_epochs=50
cascade_max_cand_epochs=150
cascade_min_cand_epochs=50
cascade_num_candidate_groups=2
bit_fail_limit=3.49999994039535522461e-01
cascade_candidate_limit=1.00000000000000000000e+03
cascade_weight_multiplier=4.00000005960464477539e-01
cascade_activation_functions_count=10
cascade_activation_functions=3 5 7 8 10 11 14 15 16 17
cascade_activation_steepnesses_count=4
cascade_activation_steepnesses=2.50000000000000000000e-01 5.00000000000000000000e-01 7.50000000000000000000e-01 1.00000000000000000000e+00
layer_sizes=7 31 31 31 7
scale_included=1
scale_mean_in=0.200000 5.500000 -0.446233 0.798540 2.000000 0.586316
scale_deviation_in=0.096271 2.796810 1.048893 0.131916 0.670323 0.139613
scale_new_min_in=-1.000000 -1.000000 -1.000000 -1.000000 -1.000000 -1.000000
scale_factor_in=1.000000 1.000000 1.000000 1.000000 1.000000 1.000000
scale_mean_out=0.361187 0.694808 0.126587 0.400913 0.469681 0.086611
scale_deviation_out=0.231777 0.493533 0.149526 0.195050 0.307003 0.084489
scale_new_min_out=-1.000000 -1.000000 -1.000000 -1.000000 -1.000000 -1.000000
scale_factor_out=1.000000 1.000000 1.000000 1.000000 1.000000 1.000000
neurons (num_inputs, activation_function, activation_steepness)=(0, 0, 0.00000000000000000000e+00) (0, 0, 0.00000000000000000000e+00) (0, 0, 0.00000000000000000000e+00) (0, 0, 0.00000000000000000000e+00) (0, 0, 0.00000000000000000000e+00) (0, 0, 0.00000000000000000000e+00) (0, 0, 0.00000000000000000000e+00) (7, 5, 5.00000000000000000000e-01) (7, 5, 5.00000000000000000000e-01) (7, 5, 5.00000000000000000000e-01) (7, 5, 5.00000000000000000000e-01) (7, 5, 5.00000000000000000000e-01) (7, 5, 5.00000000000000000000e-01) (7, 5, 5.00000000000000000000e-01) (7, 5, 5.00000000000000000000e-01) (7, 5, 5.00000000000000000000e-01) (7, 5, 5.00000000000000000000e-01) (7, 5, 5.00000000000000000000e-01) (7, 5, 5.00000000000000000000e-01) (7, 5, 5.00000000000000000000e-01) (7, 5, 5.00000000000000000000e-01) (7, 5, 5.00000000000000000000e-01) (7, 5, 5.00000000000000000000e-01) (7, 5, 5.00000000000000000000e-01) (7, 5, 5.00000000000000000000e-01) (7, 5, 5.00000000000000000000e-01) (7, 5, 5.00000000000000000000e-01) (7, 5, 5.00000000000000000000e-01) (7, 5, 5.00000000000000000000e-01) (7, 5, 5.00000000000000000000e-01) (7, 5, 5.00000000000000000000e-01) (7, 5, 5.00000000000000000000e-01) (7, 5, 5.00000000000000000000e-01) (7, 5, 5.00000000000000000000e-01) (7, 5, 5.00000000000000000000e-01) (7, 5, 5.00000000000000000000e-01) (7, 5, 5.00000000000000000000e-01) (0, 5, 0.00000000000000000000e+00) (31, 5, 5.00000000000000000000e-01) (31, 5, 5.00000000000000000000e-01) (31, 5, 5.00000000000000000000e-01) (31, 5, 5.00000000000000000000e-01) (31, 5, 5.00000000000000000000e-01) (31, 5, 5.00000000000000000000e-01) (31, 5, 5.00000000000000000000e-01) (31, 5, 5.00000000000000000000e-01) (31, 5, 5.00000000000000000000e-01) (31, 5, 5.00000000000000000000e-01) (31, 5, 5.00000000000000000000e-01) (31, 5, 5.00000000000000000000e-01) (31, 5, 5.00000000000000000000e-01) (31, 5, 5.00000000000000000000e-01) (31, 5, 5.00000000000000000000e-01) (31, 5, 5.00000000000000000000e-01) (31, 5, 5.00000000000000000000e-01) (31, 5, 5.00000000000000000000e-01) (31, 5, 5.00000000000000000000e-01) (31, 5, 5.00000000000000000000e-01) (31, 5, 5.00000000000000000000e-01) (31, 5, 5.00000000000000000000e-01) (31, 5, 5.00000000000000000000e-01) (31, 5, 5.00000000000000000000e-01) (31, 5, 5.00000000000000000000e-01) (31, 5, 5.00000000000000000000e-01) (31, 5, 5.00000000000000000000e-01) (31, 5, 5.00000000000000000000e-01) (31, 5, 5.00000000000000000000e-01) (31, 5, 5.00000000000000000000e-01) (0, 5, 0.00000000000000000000e+00) (31, 5, 5.00000000000000000000e-01) (31, 5, 5.00000000000000000000e-01) (31, 5, 5.00000000000000000000e-01) (31, 5, 5.00000000000000000000e-01) (31, 5, 5.00000000000000000000e-01) (31, 5, 5.00000000000000000000e-01) (31, 5, 5.00000000000000000000e-01) (31, 5, 5.00000000000000000000e-01) (31, 5, 5.00000000000000000000e-01) (31, 5, 5.00000000000000000000e-01) (31, 5, 5.00000000000000000000e-01) (31, 5, 5.00000000000000000000e-01) (31, 5, 5.00000000000000000000e-01) (31, 5, 5.00000000000000000000e-01) (31, 5, 5.00000000000000000000e-01) (31, 5, 5.00000000000000000000e-01) (31, 5, 5.00000000000000000000e-01) (31, 5, 5.00000000000000000000e-01) (31, 5, 5.00000000000000000000e-01) (31, 5, 5.00000000000000000000e-01) (31, 5, 5.00000000000000000000e-01) (31, 5, 5.00000000000000000000e-01) (31, 5, 5.00000000000000000000e-01) (31, 5, 5.00000000000000000000e-01) (31, 5, 5.00000000000000000000e-01) (31, 5, 5.00000000000000000000e-01) (31, 5, 5.00000000000000000000e-01) (31, 5, 5.00000000000000000000e-01) (31, 5, 5.00000000000000000000e-01) (31, 5, 5.00000000000000000000e-01) (0, 5, 0.00000000000000000000e+00) (31, 0, 5.00000000000000000000e-01) (31, 0, 5.00000000000000000000e-01) (31, 0, 5.00000000000000000000e-01) (31, 0, 5.00000000000000000000e-01) (31, 0, 5.00000000000000000000e-01) (31, 0, 5.00000000000000000000e-01) (0, 0, 0.00000000000000000000e+00)
connections (connected_to_neuron, weight)=(0, 8.42190742492675781250e-01) (1, 1.92304790019989013672e-01) (2, 6.63666069507598876953e-01) (3, 7.84926056861877441406e-01) (4, -1.99349790811538696289e-01) (5, -8.59588980674743652344e-01) (6, 1.19388721883296966553e-01) (0, 6.93352669477462768555e-02) (1, 4.78929013013839721680e-01) (2, 1.42651236057281494141e+00) (3, -3.99566739797592163086e-01) (4, 5.42373716831207275391e-01) (5, -2.51359105110168457031e-01) (6, -8.40093791484832763672e-01) (0, -9.58227336406707763672e-01) (1, -1.66557058691978454590e-02) (2, -2.21329361200332641602e-01) (3, -3.86609174311161041260e-02) (4, 5.24477362632751464844e-01) (5, 6.99621975421905517578e-01) (6, 7.41885960102081298828e-01) (0, 1.48860037326812744141e-01) (1, -1.37035012245178222656e-01) (2, -5.07606506347656250000e-01) (3, -9.77548778057098388672e-01) (4, -5.32297611236572265625e-01) (5, 4.42595958709716796875e-01) (6, 1.28236567974090576172e+00) (0, 2.90860712528228759766e-01) (1, 2.63806372880935668945e-01) (2, 1.01554775238037109375e+00) (3, 6.39779074117541313171e-03) (4, -3.99901002645492553711e-01) (5, 5.20726978778839111328e-01) (6, -4.96405363082885742188e-01) (0, 2.81291864812374114990e-02) (1, 1.01061868667602539062e+00) (2, 1.09097754955291748047e+00) (3, 1.19918607175350189209e-01) (4, 1.12845199182629585266e-02) (5, -4.57233726978302001953e-01) (6, 5.30300259590148925781e-01) (0, 1.47768586874008178711e-01) (1, 3.31689834594726562500e-01) (2, 6.88289880752563476562e-01) (3, -2.28786632418632507324e-01) (4, 2.38660782575607299805e-01) (5, -6.60731613636016845703e-01) (6, -1.41244328022003173828e+00) (0, 3.18038493394851684570e-01) (1, -2.49099612236022949219e-01) (2, -7.67664909362792968750e-01) (3, -3.46717417240142822266e-01) (4, 1.66844323277473449707e-01) (5, -4.28791999816894531250e-01) (6, -3.91303271055221557617e-01) (0, 3.34127694368362426758e-01) (1, 7.93256521224975585938e-01) (2, -8.11741054058074951172e-01) (3, 2.47421534731984138489e-03) (4, 2.76273488998413085938e-01) (5, -2.04025074839591979980e-01) (6, -4.86020952463150024414e-01) (0, 3.69947850704193115234e-01) (1, -6.01992011070251464844e-01) (2, 5.23420274257659912109e-01) (3, 4.02998477220535278320e-02) (4, -2.53878593444824218750e-01) (5, 2.93135315179824829102e-01) (6, -2.09951326251029968262e-01) (0, 4.73084032535552978516e-01) (1, -2.28903815150260925293e-02) (2, -6.78650811314582824707e-02) (3, -1.89187437295913696289e-01) (4, -7.41749480366706848145e-02) (5, -6.65152490139007568359e-01) (6, -7.53405332565307617188e-01) (0, -1.33683294057846069336e-01) (1, 5.71266651153564453125e-01) (2, -2.98399150371551513672e-01) (3, 4.63350526988506317139e-02) (4, -7.98825249075889587402e-02) (5, -1.77926510572433471680e-01) (6, 1.42139053344726562500e+00) (0, 8.62315714359283447266e-01) (1, 1.98681473731994628906e-01) (2, 9.32203233242034912109e-01) (3, 6.30962729454040527344e-01) (4, -1.47586151957511901855e-01) (5, -9.27985310554504394531e-01) (6, -3.14467221498489379883e-01) (0, 5.00006735324859619141e-01) (1, 2.15822070837020874023e-01) (2, 4.18123245239257812500e-01) (3, -1.61851663142442703247e-02) (4, -7.65648841857910156250e-01) (5, -8.92314970493316650391e-01) (6, -1.35906326770782470703e+00) (0, -5.67455232143402099609e-01) (1, 4.53468173742294311523e-01) (2, -2.18818023800849914551e-01) (3, -4.34947341680526733398e-01) (4, 2.13326632976531982422e-01) (5, 1.59307196736335754395e-01) (6, 1.14292943477630615234e+00) (0, 3.64151708781719207764e-02) (1, -6.24504148960113525391e-01) (2, 8.14739167690277099609e-01) (3, -8.64828824996948242188e-02) (4, 9.93629768490791320801e-02) (5, -5.06989121437072753906e-01) (6, 3.41133803129196166992e-01) (0, 1.05705642700195312500e+00) (1, -3.06590706110000610352e-01) (2, -8.86678993701934814453e-01) (3, 4.09917891025543212891e-01) (4, 3.40734809637069702148e-01) (5, -2.06914886832237243652e-01) (6, 7.96156704425811767578e-01) (0, -2.71728426218032836914e-01) (1, 1.15445300936698913574e-01) (2, 9.57246243953704833984e-01) (3, -5.42301774024963378906e-01) (4, -3.19792211055755615234e-01) (5, 2.43542015552520751953e-01) (6, 8.00427734851837158203e-01) (0, 1.20901398360729217529e-01) (1, -9.34162020683288574219e-01) (2, 8.36580216884613037109e-01) (3, -5.60285747051239013672e-02) (4, -2.84776138141751289368e-03) (5, -5.78352689743041992188e-01) (6, 1.60717713832855224609e+00) (0, 3.41259270906448364258e-01) (1, 4.72359955310821533203e-01) (2, 2.67048448324203491211e-01) (3, -4.10578131675720214844e-01) (4, -1.74826800823211669922e-01) (5, -2.51403898000717163086e-01) (6, 7.34529554843902587891e-01) (0, 1.61293134093284606934e-01) (1, 1.08815003186464309692e-02) (2, -2.52143964171409606934e-02) (3, 1.22132152318954467773e-01) (4, 7.00414419174194335938e-01) (5, 2.77744054794311523438e-01) (6, -1.07235133647918701172e+00) (0, 2.57710129022598266602e-01) (1, 4.72052358090877532959e-02) (2, 2.62679904699325561523e-01) (3, 2.99383044242858886719e-01) (4, -4.71719264984130859375e-01) (5, 6.22011899948120117188e-01) (6, 1.36053228378295898438e+00) (0, 1.01255014538764953613e-01) (1, -2.82878518104553222656e-01) (2, -9.41201150417327880859e-01) (3, 9.52337533235549926758e-02) (4, 2.64664262533187866211e-01) (5, 8.78348648548126220703e-01) (6, 6.62039041519165039062e-01) (0, 2.67116367816925048828e-01) (1, 3.29160481691360473633e-01) (2, 8.90811324119567871094e-01) (3, 4.01803702116012573242e-01) (4, 5.00500500202178955078e-01) (5, -1.71924859285354614258e-01) (6, 4.28501844406127929688e-01) (0, 7.58313417434692382812e-01) (1, -2.73353099822998046875e-01) (2, -5.80458760261535644531e-01) (3, 3.81938457489013671875e-01) (4, -1.88148364424705505371e-01) (5, 6.55738174915313720703e-01) (6, -5.64189434051513671875e-01) (0, 8.55893731117248535156e-01) (1, -7.88254290819168090820e-02) (2, 5.30370891094207763672e-01) (3, -2.38361582159996032715e-02) (4, 8.22567224502563476562e-01) (5, -3.80869656801223754883e-02) (6, 1.52571991086006164551e-01) (0, -5.26333689689636230469e-01) (1, 3.24038267135620117188e-01) (2, -1.70288220047950744629e-01) (3, -1.76002550870180130005e-02) (4, 1.89337626099586486816e-01) (5, -5.79487979412078857422e-01) (6, 2.21093356609344482422e-01) (0, -2.17916235327720642090e-01) (1, 2.85345673561096191406e-01) (2, 5.71887969970703125000e-01) (3, -3.39552789926528930664e-01) (4, 5.11578500270843505859e-01) (5, -3.78661125898361206055e-01) (6, 2.92802363634109497070e-01) (0, -4.83170241117477416992e-01) (1, 5.52132204174995422363e-02) (2, -5.76204717159271240234e-01) (3, 2.64113068580627441406e-01) (4, 3.22617441415786743164e-01) (5, 1.21736311912536621094e+00) (6, -1.47257208824157714844e-01) (0, 2.82097369432449340820e-01) (1, 2.35621482133865356445e-02) (2, -8.63746479153633117676e-02) (3, 4.38974231481552124023e-01) (4, -2.65664607286453247070e-01) (5, -1.10684490203857421875e+00) (6, -2.63527423143386840820e-01) (7, -1.18343457579612731934e-01) (8, 1.68856367468833923340e-01) (9, 1.50778681039810180664e-01) (10, 1.29039978981018066406e+00) (11, -5.88529072701930999756e-02) (12, -3.35790216922760009766e-01) (13, -3.36736470460891723633e-01) (14, -7.06155240535736083984e-01) (15, 5.12328565120697021484e-01) (16, 5.07118664681911468506e-02) (17, 7.14792847633361816406e-01) (18, 4.62644666433334350586e-01) (19, 1.04800686240196228027e-01) (20, 1.62076485157012939453e+00) (21, 3.83888155221939086914e-01) (22, -3.48413050174713134766e-01) (23, 6.25300049781799316406e-01) (24, 4.00669097900390625000e-01) (25, 7.22911506891250610352e-02) (26, -3.20190727710723876953e-01) (27, -7.71373867988586425781e-01) (28, 4.58742409944534301758e-01) (29, 6.61958754062652587891e-01) (30, -7.01885759830474853516e-01) (31, -9.86740216612815856934e-02) (32, 1.38462638854980468750e+00) (33, 5.00012099742889404297e-01) (34, 7.67212569713592529297e-01) (35, -2.28686809539794921875e-01) (36, 1.02386724948883056641e+00) (37, -5.05747079849243164062e-01) (7, 7.31317102909088134766e-01) (8, -7.14841127395629882812e-01) (9, 2.15193450450897216797e-01) (10, 7.29507133364677429199e-02) (11, 7.34559416770935058594e-01) (12, 6.18593506515026092529e-02) (13, 1.53689396381378173828e+00) (14, 1.31783258914947509766e+00) (15, -5.28624355792999267578e-01) (16, -4.89775806665420532227e-01) (17, 6.06666088104248046875e-01) (18, 9.87450301647186279297e-01) (19, 7.55540281534194946289e-02) (20, 1.01355862617492675781e+00) (21, -8.23625683784484863281e-01) (22, 2.18619350343942642212e-02) (23, -4.44962024688720703125e-01) (24, 1.01326680183410644531e+00) (25, 2.82018631696701049805e-01) (26, 9.28938612341880798340e-02) (27, 1.10402858257293701172e+00) (28, 8.09288620948791503906e-01) (29, -3.98188561201095581055e-01) (30, 1.03005193173885345459e-01) (31, -7.31734335422515869141e-01) (32, -1.57283797860145568848e-01) (33, -3.84195715188980102539e-01) (34, 9.54944729804992675781e-01) (35, 4.89755831658840179443e-02) (36, 3.13709348440170288086e-01) (37, 1.40294969081878662109e+00) (7, -4.12336647510528564453e-01) (8, -8.82366418838500976562e-01) (9, 2.00820956379175186157e-02) (10, 5.87615966796875000000e-01) (11, 3.52641344070434570312e-01) (12, 1.06720089912414550781e+00) (13, 8.94097685813903808594e-01) (14, -1.54883325099945068359e-01) (15, -6.85919761657714843750e-01) (16, 5.35419523715972900391e-01) (17, 4.16664570569992065430e-01) (18, 1.53048956394195556641e+00) (19, -8.57382059097290039062e-01) (20, 6.45307302474975585938e-02) (21, -9.89244580268859863281e-02) (22, 2.19229415059089660645e-01) (23, 1.08357250690460205078e+00) (24, -1.27092778682708740234e+00) (25, 3.66940885782241821289e-01) (26, -2.55495887249708175659e-02) (27, 8.24623942375183105469e-01) (28, -4.10198092460632324219e-01) (29, 8.25527831912040710449e-02) (30, 4.21234399080276489258e-01) (31, 2.29994151741266250610e-02) (32, 8.63528549671173095703e-01) (33, 1.02271986007690429688e+00) (34, 2.97708064317703247070e-01) (35, 6.52981698513031005859e-02) (36, 3.20755481719970703125e-01) (37, -3.11464190483093261719e-01) (7, 3.59899610280990600586e-01) (8, 3.73714268207550048828e-01) (9, 6.68128073215484619141e-01) (10, -3.34687352180480957031e-01) (11, 3.17902445793151855469e-01) (12, -2.57078148424625396729e-02) (13, -8.04051280021667480469e-01) (14, 1.37638792395591735840e-01) (15, 6.18071377277374267578e-01) (16, 1.42573940753936767578e+00) (17, -1.32338714599609375000e+00) (18, 5.16327559947967529297e-01) (19, 1.25084900856018066406e+00) (20, 3.48066180944442749023e-01) (21, 7.58893907070159912109e-01) (22, -2.42791816592216491699e-01) (23, -8.25270116329193115234e-01) (24, 2.35474896430969238281e+00) (25, 1.15860688686370849609e+00) (26, 6.47123217582702636719e-01) (27, 2.36529767513275146484e-01) (28, 3.27397212386131286621e-02) (29, -3.12019526958465576172e-01) (30, -4.15743917226791381836e-01) (31, 2.94315546751022338867e-01) (32, 2.83069878816604614258e-01) (33, 1.03443658351898193359e+00) (34, 1.25253486633300781250e+00) (35, 4.14876431226730346680e-01) (36, -3.29303473234176635742e-01) (37, -4.46796000003814697266e-01) (7, -9.55612063407897949219e-01) (8, 8.08646716177463531494e-03) (9, 1.00739419460296630859e+00) (10, 2.14123819023370742798e-02) (11, 1.53964269161224365234e+00) (12, 1.43096101284027099609e+00) (13, 6.37398064136505126953e-01) (14, 5.64174830913543701172e-01) (15, -3.56906443834304809570e-01) (16, -6.28381893038749694824e-02) (17, -1.09017476439476013184e-01) (18, -4.96326893568038940430e-01) (19, 1.09393167495727539062e+00) (20, 9.35875475406646728516e-01) (21, 1.42146384716033935547e+00) (22, 7.97386467456817626953e-01) (23, 1.67798176407814025879e-02) (24, 6.31910085678100585938e-01) (25, 8.61589252948760986328e-01) (26, 8.20919275283813476562e-01) (27, -2.62460052967071533203e-01) (28, 3.77364635467529296875e-01) (29, -2.78928633779287338257e-02) (30, 3.68984580039978027344e-01) (31, -3.52363318204879760742e-01) (32, 3.40859264135360717773e-01) (33, 6.08102560043334960938e-01) (34, 6.39500841498374938965e-02) (35, -3.61461669206619262695e-01) (36, 6.96956634521484375000e-01) (37, -5.60846254229545593262e-02) (7, 7.67593607306480407715e-02) (8, -5.06108224391937255859e-01) (9, -5.53636193275451660156e-01) (10, -4.18606817722320556641e-01) (11, -3.88780921697616577148e-01) (12, 1.12313473224639892578e+00) (13, 2.55097746849060058594e-01) (14, -5.90980410575866699219e-01) (15, 2.61222958564758300781e-01) (16, 2.22935631871223449707e-01) (17, 1.67613565921783447266e+00) (18, -2.99137234687805175781e-01) (19, 2.69159555435180664062e-01) (20, 5.58104515075683593750e-01) (21, -9.66181516647338867188e-01) (22, -4.01374816894531250000e-01) (23, -5.59273183345794677734e-01) (24, -4.68412518501281738281e-01) (25, 7.54269301891326904297e-01) (26, -6.73865795135498046875e-01) (27, 1.99463918805122375488e-01) (28, 2.34651908278465270996e-01) (29, 1.23095917701721191406e+00) (30, -1.98182910680770874023e-01) (31, 1.07127940654754638672e+00) (32, 7.52513527870178222656e-01) (33, 6.73702061176300048828e-01) (34, 4.32270824909210205078e-01) (35, 1.13772833347320556641e+00) (36, -9.82111692428588867188e-02) (37, -1.95188373327255249023e-01) (7, -3.54281216859817504883e-01) (8, 5.56255102157592773438e-01) (9, 1.46377667784690856934e-01) (10, -3.60902637243270874023e-01) (11, 2.35917612910270690918e-01) (12, -2.86170452833175659180e-01) (13, 1.98135629296302795410e-01) (14, 8.42500329017639160156e-01) (15, 1.24224746227264404297e+00) (16, -8.23197439312934875488e-02) (17, 1.71789002418518066406e+00) (18, -8.52129459381103515625e-01) (19, 8.27854037284851074219e-01) (20, -2.44634330272674560547e-01) (21, 2.74136126041412353516e-01) (22, 8.09501469135284423828e-01) (23, 8.99157345294952392578e-01) (24, -8.68384167551994323730e-02) (25, 2.67673194408416748047e-01) (26, -9.35760915279388427734e-01) (27, 4.91263687610626220703e-01) (28, -4.94744628667831420898e-01) (29, 1.12645626068115234375e+00) (30, -1.74794018268585205078e-01) (31, 8.04434120655059814453e-01) (32, 3.35093408823013305664e-01) (33, 1.19902002811431884766e+00) (34, 6.71424090862274169922e-01) (35, 3.79581898450851440430e-01) (36, -3.44677060842514038086e-01) (37, 2.08172917366027832031e-01) (7, 5.84832191467285156250e-01) (8, 7.30383336544036865234e-01) (9, 7.78253301978111267090e-02) (10, 4.70437854528427124023e-01) (11, 1.91064953804016113281e-01) (12, 6.05642497539520263672e-01) (13, 3.02623629570007324219e-01) (14, -1.49049818515777587891e-01) (15, 3.46305035054683685303e-02) (16, 2.64329582452774047852e-01) (17, 9.55879330635070800781e-01) (18, -6.84611737728118896484e-01) (19, 1.06910681724548339844e+00) (20, -8.69578242301940917969e-01) (21, 1.10265362262725830078e+00) (22, 8.57985854148864746094e-01) (23, 5.74481427669525146484e-01) (24, -6.71369135379791259766e-01) (25, -3.73845785856246948242e-01) (26, 6.76704466342926025391e-01) (27, -1.20892696082592010498e-01) (28, 3.87324720621109008789e-01) (29, 2.27163270115852355957e-01) (30, -1.07422626018524169922e+00) (31, -1.58049046993255615234e-01) (32, 1.81878209114074707031e-01) (33, -1.02733123302459716797e+00) (34, -3.78914564847946166992e-01) (35, 1.17768681049346923828e+00) (36, -7.05391705036163330078e-01) (37, -2.75067269802093505859e-01) (7, 1.92496979236602783203e+00) (8, 2.62102913856506347656e+00) (9, -2.31559062004089355469e+00) (10, -7.88632035255432128906e-02) (11, 1.01103365421295166016e+00) (12, 2.78132891654968261719e+00) (13, 3.12326812744140625000e+00) (14, -1.33745342493057250977e-01) (15, 1.24325193464756011963e-01) (16, 1.29770708084106445312e+00) (17, 1.40169739723205566406e+00) (18, -4.67630743980407714844e-01) (19, 5.22286951541900634766e-01) (20, 2.30980587005615234375e+00) (21, -1.01594233512878417969e+00) (22, 9.14230942726135253906e-01) (23, -1.11888074874877929688e+00) (24, -7.97935854643583297729e-03) (25, 1.35721969604492187500e+00) (26, 1.12837064266204833984e+00) (27, 1.55030596256256103516e+00) (28, 1.95013523101806640625e-01) (29, 3.64815583452582359314e-03) (30, 3.12226831912994384766e-01) (31, -5.11325001716613769531e-01) (32, 1.14570534229278564453e+00) (33, 1.14797627925872802734e+00) (34, -2.68620073795318603516e-01) (35, -1.06936424970626831055e-01) (36, -7.03936934471130371094e-01) (37, -9.90639984607696533203e-01) (7, 2.05596596002578735352e-01) (8, 8.04080724716186523438e-01) (9, -1.20900917053222656250e+00) (10, -1.66981041431427001953e-01) (11, 1.04564785957336425781e+00) (12, 1.04524600505828857422e+00) (13, 1.61985790729522705078e+00) (14, 8.93320322036743164062e-01) (15, 5.51965236663818359375e-01) (16, -1.51967592537403106689e-02) (17, 6.97585582733154296875e-01) (18, 7.07517117261886596680e-02) (19, -4.23254579305648803711e-01) (20, 1.19397020339965820312e+00) (21, 5.40979802608489990234e-01) (22, 9.14883613586425781250e-01) (23, 2.30238676071166992188e-01) (24, 4.22406375408172607422e-01) (25, 7.18973875045776367188e-01) (26, -3.72736871242523193359e-01) (27, -3.78133714199066162109e-01) (28, -1.44014343619346618652e-01) (29, 1.09845590591430664062e+00) (30, -6.71142816543579101562e-01) (31, -2.05904468894004821777e-01) (32, 6.84418201446533203125e-01) (33, 1.78942847251892089844e+00) (34, -2.24217679351568222046e-02) (35, -8.11790943145751953125e-01) (36, 8.51876795291900634766e-01) (37, 5.90349197387695312500e-01) (7, 4.48572546243667602539e-01) (8, 9.32740926742553710938e-01) (9, 1.68974804878234863281e+00) (10, 1.34120389819145202637e-01) (11, -3.22446525096893310547e-02) (12, 4.17964532971382141113e-02) (13, 9.74811792373657226562e-01) (14, -6.20009362697601318359e-01) (15, 1.22500371932983398438e+00) (16, -6.42830848693847656250e-01) (17, 7.71676242351531982422e-01) (18, 1.23350954055786132812e+00) (19, -2.22441162914037704468e-02) (20, -8.62327992916107177734e-01) (21, -1.13857552409172058105e-01) (22, 2.12417292594909667969e+00) (23, 6.56005501747131347656e-01) (24, -3.25424373149871826172e-01) (25, 5.38761436939239501953e-01) (26, -4.48259681463241577148e-01) (27, -4.88827347755432128906e-01) (28, 1.30086231231689453125e+00) (29, -5.91445028781890869141e-01) (30, 2.23417341709136962891e-01) (31, 1.68204698711633682251e-02) (32, 1.34216204285621643066e-01) (33, -1.72122225165367126465e-01) (34, 9.94149923324584960938e-01) (35, 5.62072992324829101562e-01) (36, -9.90717887878417968750e-01) (37, 1.10479569435119628906e+00) (7, 2.37684041261672973633e-01) (8, -5.01178264617919921875e-01) (9, -2.05509830266237258911e-03) (10, -2.56203413009643554688e+00) (11, 4.99975889921188354492e-01) (12, 1.27415180206298828125e-01) (13, 6.22607350349426269531e-01) (14, -4.82975691556930541992e-01) (15, 4.21781152486801147461e-01) (16, -3.72995249927043914795e-03) (17, -6.88566863536834716797e-01) (18, 3.85170221328735351562e-01) (19, 2.21322134137153625488e-01) (20, 5.18200695514678955078e-01) (21, -7.69777536392211914062e-01) (22, 5.89056164026260375977e-02) (23, -4.20003384351730346680e-01) (24, -6.10664248466491699219e-01) (25, -7.03347206115722656250e-01) (26, -2.29550600051879882812e+00) (27, 5.76616287231445312500e-01) (28, -3.25364053249359130859e-01) (29, -2.37000182271003723145e-01) (30, -7.74006903171539306641e-01) (31, 9.62774097919464111328e-01) (32, -1.86765059828758239746e-01) (33, 3.50234210491180419922e-01) (34, -1.35965847969055175781e+00) (35, 1.44122600555419921875e+00) (36, 7.07003712654113769531e-01) (37, -8.04446458816528320312e-01) (7, -8.99614319205284118652e-02) (8, -7.33377933502197265625e-02) (9, -4.75509941577911376953e-01) (10, 7.67831085249781608582e-03) (11, 4.12238836288452148438e-01) (12, 1.11106789112091064453e+00) (13, 8.62944364547729492188e-01) (14, 4.24513518810272216797e-01) (15, 2.42927163839340209961e-01) (16, 7.31690645217895507812e-01) (17, 7.66757428646087646484e-01) (18, -1.38285189867019653320e-01) (19, 1.94628238677978515625e-01) (20, -2.58756786584854125977e-01) (21, 1.15332150459289550781e+00) (22, 1.44197118282318115234e+00) (23, -7.82039389014244079590e-02) (24, 6.48069858551025390625e-01) (25, -2.53303885459899902344e-01) (26, 8.83265495300292968750e-01) (27, 5.36811411380767822266e-01) (28, -2.81559675931930541992e-01) (29, -1.65720626711845397949e-01) (30, 6.99802458286285400391e-01) (31, 7.55041480064392089844e-01) (32, -1.11425600945949554443e-01) (33, 4.24882292747497558594e-01) (34, -4.87628817558288574219e-01) (35, -5.42890667915344238281e-01) (36, -2.67943233251571655273e-01) (37, -1.34294223785400390625e+00) (7, 8.27886879444122314453e-01) (8, -8.87164831161499023438e-01) (9, 3.66623997688293457031e-01) (10, -3.48755598068237304688e-01) (11, 1.20306289196014404297e+00) (12, 7.69503653049468994141e-01) (13, 9.93982791900634765625e-01) (14, 7.13155388832092285156e-01) (15, 1.49257689714431762695e-01) (16, -4.32837545871734619141e-01) (17, 3.89599293470382690430e-01) (18, 4.96662914752960205078e-01) (19, 6.98651313781738281250e-01) (20, 1.39952623844146728516e+00) (21, 4.86713320016860961914e-01) (22, 1.05283868312835693359e+00) (23, -1.11029231548309326172e+00) (24, 1.33390653133392333984e+00) (25, 1.29627919197082519531e+00) (26, 3.67771834135055541992e-01) (27, 1.95996358990669250488e-01) (28, -3.28705340623855590820e-01) (29, 7.76164352893829345703e-01) (30, 2.09761768579483032227e-01) (31, 5.96960306167602539062e-01) (32, -6.77596405148506164551e-02) (33, -1.26369774341583251953e-01) (34, 1.50537514686584472656e+00) (35, 4.07447665929794311523e-01) (36, 8.88322651386260986328e-01) (37, -1.10336875915527343750e+00) (7, -3.35351020097732543945e-01) (8, -4.05145347118377685547e-01) (9, 5.93638896942138671875e-01) (10, 7.03373670578002929688e-01) (11, -8.40044319629669189453e-01) (12, -9.36018943786621093750e-01) (13, -8.71354758739471435547e-01) (14, 1.37569308280944824219e+00) (15, 1.31122982501983642578e+00) (16, 1.80386900901794433594e+00) (17, 9.67283964157104492188e-01) (18, 2.15472638607025146484e-01) (19, 4.48081307113170623779e-02) (20, 6.30364000797271728516e-01) (21, 5.95794141292572021484e-01) (22, -3.49300920963287353516e-01) (23, 1.13897013664245605469e+00) (24, -7.48077630996704101562e-01) (25, -3.76902341842651367188e-01) (26, -2.84940779209136962891e-01) (27, -3.25251132249832153320e-01) (28, 6.56732991337776184082e-02) (29, 1.23159658908843994141e+00) (30, 1.97234764695167541504e-01) (31, -7.69729688763618469238e-02) (32, 1.12599384784698486328e+00) (33, 6.36307835578918457031e-01) (34, -4.46182698011398315430e-01) (35, 6.55508458614349365234e-01) (36, 8.05383145809173583984e-01) (37, -6.48810863494873046875e-01) (7, -7.54314780235290527344e-01) (8, -1.81514084339141845703e+00) (9, -8.51216852664947509766e-01) (10, -9.37049835920333862305e-02) (11, -3.67645233869552612305e-01) (12, -4.30652499198913574219e-01) (13, 1.23788309097290039062e+00) (14, -1.06581127643585205078e+00) (15, 4.72831815481185913086e-01) (16, 7.23545610904693603516e-01) (17, 1.04295694828033447266e+00) (18, -4.05586063861846923828e-01) (19, 1.03421576321125030518e-01) (20, 1.37406647205352783203e-01) (21, 1.12643711268901824951e-01) (22, -6.33699059486389160156e-01) (23, 4.96552884578704833984e-01) (24, 7.19893455505371093750e-01) (25, -3.93726706504821777344e-01) (26, -7.29779064655303955078e-01) (27, 1.27759426832199096680e-01) (28, 1.66864562034606933594e+00) (29, 1.17380273342132568359e+00) (30, 3.75943392515182495117e-01) (31, -9.29229974746704101562e-01) (32, 1.02373266220092773438e+00) (33, 6.46903514862060546875e-01) (34, -5.09425163269042968750e-01) (35, 9.12766456604003906250e-02) (36, -4.69752401113510131836e-03) (37, 2.12855264544486999512e-01) (7, 6.77846848964691162109e-01) (8, -2.68452703952789306641e-01) (9, 1.11764049530029296875e+00) (10, -1.15748517215251922607e-01) (11, 4.55810166895389556885e-02) (12, 5.78148543834686279297e-01) (13, -1.16805195808410644531e+00) (14, 9.88711535930633544922e-01) (15, -8.14464271068572998047e-01) (16, -4.09325093030929565430e-01) (17, 3.90703111886978149414e-01) (18, 6.91062986850738525391e-01) (19, 2.28664100170135498047e-01) (20, -5.99432826042175292969e-01) (21, -1.25844985246658325195e-01) (22, 2.46639683842658996582e-01) (23, 4.56632673740386962891e-01) (24, 2.98344343900680541992e-01) (25, -4.50647026300430297852e-01) (26, -1.33824303746223449707e-01) (27, 1.35951709747314453125e+00) (28, -6.20048165321350097656e-01) (29, -4.95814025402069091797e-01) (30, 4.92429360747337341309e-02) (31, 1.09577380120754241943e-01) (32, -6.24934136867523193359e-01) (33, 1.18244910240173339844e+00) (34, -3.77124577760696411133e-01) (35, 7.24101185798645019531e-01) (36, -5.64421117305755615234e-01) (37, -4.30054128170013427734e-01) (7, -4.31727796792984008789e-01) (8, 3.61720412969589233398e-01) (9, 1.67745754122734069824e-01) (10, 2.02232018113136291504e-01) (11, -3.63055616617202758789e-01) (12, -1.38205230236053466797e-01) (13, 9.33495104312896728516e-01) (14, 7.27172374725341796875e-01) (15, 9.53805506229400634766e-01) (16, 9.55165863037109375000e-01) (17, 5.56615948677062988281e-01) (18, -6.94440662860870361328e-01) (19, 6.26777291297912597656e-01) (20, 8.14120292663574218750e-01) (21, -2.68336266279220581055e-01) (22, 7.97987729310989379883e-03) (23, 3.57654124498367309570e-01) (24, -7.35887467861175537109e-01) (25, -4.42138254642486572266e-01) (26, -3.12387257814407348633e-01) (27, 5.41877925395965576172e-01) (28, 5.95149695873260498047e-01) (29, 4.12252694368362426758e-01) (30, 7.84641623497009277344e-01) (31, 4.56791907548904418945e-01) (32, 4.91423785686492919922e-01) (33, 6.51381015777587890625e-02) (34, -2.12901502847671508789e-01) (35, -2.75258988142013549805e-01) (36, 7.28484869003295898438e-01) (37, -9.98999550938606262207e-02) (7, -2.83641964197158813477e-01) (8, -4.81089800596237182617e-01) (9, -5.46999573707580566406e-01) (10, 2.85543259233236312866e-02) (11, -1.20986557006835937500e+00) (12, 5.44061779975891113281e-01) (13, -2.29184716939926147461e-01) (14, 1.38069760799407958984e+00) (15, -1.92373335361480712891e-01) (16, 1.01235091686248779297e+00) (17, 1.56398490071296691895e-01) (18, 8.79541814327239990234e-01) (19, -5.89090771973133087158e-03) (20, 1.03893995285034179688e+00) (21, -5.92217803001403808594e-01) (22, 4.99512910842895507812e-01) (23, 8.43192078173160552979e-03) (24, 2.65938397496938705444e-02) (25, -8.19321155548095703125e-01) (26, -5.07501125335693359375e-01) (27, 1.40654444694519042969e+00) (28, -1.57256633043289184570e-01) (29, 1.10901623964309692383e-01) (30, 8.89062702655792236328e-01) (31, 2.93793499469757080078e-01) (32, -2.01195791363716125488e-01) (33, 1.18771724402904510498e-01) (34, 7.64138162136077880859e-01) (35, 6.87048554420471191406e-01) (36, -8.63619089126586914062e-01) (37, -3.80223155021667480469e-01) (7, -3.07644903659820556641e-01) (8, 3.65909934043884277344e-01) (9, 5.27884483337402343750e-01) (10, 5.95638513565063476562e-01) (11, 4.28461760282516479492e-01) (12, -8.31873536109924316406e-01) (13, 7.98153936862945556641e-01) (14, -3.02287459373474121094e-01) (15, 1.69296696782112121582e-01) (16, -2.24762991070747375488e-01) (17, 2.66508013010025024414e-01) (18, -8.92314016819000244141e-01) (19, -3.28932642936706542969e-01) (20, 4.51644271612167358398e-01) (21, 3.92408728599548339844e-01) (22, -7.77065530419349670410e-02) (23, -7.70054101943969726562e-01) (24, 2.35929921269416809082e-01) (25, -6.86539486050605773926e-02) (26, 3.70201140642166137695e-01) (27, 8.17098841071128845215e-02) (28, -6.34140551090240478516e-01) (29, -2.79254037886857986450e-02) (30, -1.42626138404011726379e-02) (31, 6.49726808071136474609e-01) (32, 1.07362604141235351562e+00) (33, 2.64374285936355590820e-01) (34, 3.71580511331558227539e-01) (35, -1.08148664236068725586e-01) (36, -6.79322898387908935547e-01) (37, -1.11328744888305664062e+00) (7, 1.24339342117309570312e+00) (8, 2.37068231217563152313e-03) (9, 3.87411296367645263672e-01) (10, -1.02464365959167480469e+00) (11, -2.91378915309906005859e-01) (12, 2.06825539469718933105e-01) (13, 7.53777027130126953125e-01) (14, 6.22772634029388427734e-01) (15, -3.43614608049392700195e-01) (16, -1.40175521373748779297e-02) (17, -9.15754556655883789062e-01) (18, 9.95912790298461914062e-01) (19, -1.32136607170104980469e+00) (20, 5.74823141098022460938e-01) (21, 3.32212239503860473633e-01) (22, 7.95992165803909301758e-02) (23, 1.61657705903053283691e-01) (24, -1.48581461980938911438e-02) (25, 7.85349190235137939453e-01) (26, 1.19460113346576690674e-01) (27, -5.37111580371856689453e-01) (28, 1.18490576744079589844e+00) (29, -2.34519928693771362305e-01) (30, -1.42965659499168395996e-01) (31, 7.07881987094879150391e-01) (32, -7.49714612960815429688e-01) (33, 6.55905067920684814453e-01) (34, 9.41100642085075378418e-02) (35, -5.48785030841827392578e-01) (36, 6.88078105449676513672e-01) (37, 7.17823863029479980469e-01) (7, 9.52429831027984619141e-01) (8, -4.22906756401062011719e-01) (9, -3.94899934530258178711e-01) (10, 7.86104679107666015625e-01) (11, -2.60831773281097412109e-01) (12, 8.62171769142150878906e-01) (13, 7.53180146217346191406e-01) (14, -9.41240489482879638672e-01) (15, -7.13246941566467285156e-01) (16, 1.00549489259719848633e-01) (17, -3.98914813995361328125e-01) (18, 5.42167723178863525391e-01) (19, 5.45909643173217773438e-01) (20, 9.40638601779937744141e-01) (21, -6.19493246078491210938e-01) (22, 6.03605926036834716797e-01) (23, -4.05778199434280395508e-01) (24, -9.06085819005966186523e-02) (25, 2.60494798421859741211e-01) (26, -6.02231323719024658203e-01) (27, 1.41513645648956298828e+00) (28, 5.34179329872131347656e-01) (29, -3.53437125682830810547e-01) (30, 4.88279551267623901367e-01) (31, -5.38615882396697998047e-02) (32, -5.35571753978729248047e-01) (33, 3.12205404043197631836e-01) (34, 9.79306995868682861328e-01) (35, 3.17471742630004882812e-01) (36, 2.78664752840995788574e-02) (37, 3.40100824832916259766e-01) (7, -5.44644474983215332031e-01) (8, 1.44590407609939575195e-01) (9, 4.01820570230484008789e-01) (10, -1.33747801184654235840e-01) (11, 8.67364883422851562500e-01) (12, 2.00152456760406494141e-01) (13, 1.33481478691101074219e+00) (14, 1.63728940486907958984e+00) (15, 9.50753867626190185547e-01) (16, 6.16507232189178466797e-01) (17, -4.28181849420070648193e-02) (18, -1.89109718799591064453e+00) (19, -1.57874763011932373047e-01) (20, 5.11312842369079589844e-01) (21, 9.26596045494079589844e-01) (22, 1.03975944221019744873e-01) (23, -5.11309988796710968018e-02) (24, 1.30367234349250793457e-01) (25, -1.25711071491241455078e+00) (26, -1.02989006042480468750e+00) (27, 1.40941107273101806641e+00) (28, -8.62696230411529541016e-01) (29, -4.61089551448822021484e-01) (30, 5.04031300544738769531e-01) (31, 1.27877676486968994141e+00) (32, 2.70383787155151367188e+00) (33, -8.28302323818206787109e-01) (34, 2.09793031215667724609e-01) (35, 3.95087510347366333008e-01) (36, 3.70690047740936279297e-01) (37, -2.00853395462036132812e+00) (7, -9.71176862716674804688e-01) (8, -1.14581239223480224609e+00) (9, -2.72016599774360656738e-02) (10, 3.65272164344787597656e-01) (11, 4.62690263986587524414e-01) (12, -1.63952338695526123047e+00) (13, 3.33308637142181396484e-01) (14, 5.72372555732727050781e-01) (15, 1.26614773273468017578e+00) (16, 1.00269122049212455750e-02) (17, 1.20717906951904296875e+00) (18, -5.28572380542755126953e-01) (19, 7.79830634593963623047e-01) (20, -5.85888624191284179688e-01) (21, 1.02822554111480712891e+00) (22, 9.41759794950485229492e-02) (23, 2.01727724075317382812e+00) (24, 3.38971942663192749023e-01) (25, -4.69826668500900268555e-01) (26, -1.63452553749084472656e+00) (27, 1.86459720134735107422e-01) (28, -3.53553414344787597656e-01) (29, 3.94157260656356811523e-01) (30, 1.86622107028961181641e+00) (31, -6.97881877422332763672e-01) (32, 3.31906735897064208984e-01) (33, 1.12128758430480957031e+00) (34, -6.71950101852416992188e-01) (35, 3.02251964807510375977e-01) (36, 3.04305970668792724609e-01) (37, -5.17425715923309326172e-01) (7, -4.97676044702529907227e-01) (8, -3.57082247734069824219e-01) (9, -1.57711412757635116577e-02) (10, 1.01763749122619628906e+00) (11, -2.59022295475006103516e-01) (12, -1.40138089656829833984e-01) (13, 2.86901853978633880615e-02) (14, 2.57404390722513198853e-02) (15, -7.40489875897765159607e-03) (16, 5.85979342460632324219e-01) (17, -5.39415299892425537109e-01) (18, 5.21265640854835510254e-02) (19, 4.94483083486557006836e-01) (20, 9.29505228996276855469e-01) (21, -1.07175623998045921326e-02) (22, -4.81159269809722900391e-01) (23, 1.04886040091514587402e-01) (24, -3.00912588834762573242e-01) (25, 7.51083672046661376953e-01) (26, 2.69820779561996459961e-01) (27, -7.17443764209747314453e-01) (28, 9.40150558948516845703e-01) (29, -2.79846549034118652344e-01) (30, 9.62689578533172607422e-01) (31, -8.95518720149993896484e-01) (32, 3.63133519887924194336e-01) (33, 5.38457930088043212891e-01) (34, 8.45328450202941894531e-01) (35, -3.41731719672679901123e-02) (36, -2.50267654657363891602e-01) (37, -6.52681410312652587891e-01) (7, 4.89580214023590087891e-01) (8, -4.20051723718643188477e-01) (9, 2.88757830858230590820e-01) (10, -7.30392873287200927734e-01) (11, 4.48517709970474243164e-01) (12, -5.46429976820945739746e-02) (13, 1.49164986610412597656e+00) (14, -1.43810653686523437500e+00) (15, -8.24029028415679931641e-01) (16, 3.67310792207717895508e-02) (17, -2.86414295434951782227e-01) (18, 7.98578262329101562500e-01) (19, -2.69065290689468383789e-01) (20, 8.55099201202392578125e-01) (21, -7.32427656650543212891e-01) (22, 5.42015790939331054688e-01) (23, -3.26773822307586669922e-01) (24, -2.36799538135528564453e-01) (25, -6.44338726997375488281e-01) (26, 6.78359329700469970703e-01) (27, -1.81902676820755004883e-01) (28, 1.01782763376832008362e-02) (29, -1.68328613042831420898e-01) (30, -8.75064730644226074219e-02) (31, -4.01701211929321289062e-01) (32, 1.03167521953582763672e+00) (33, 3.92091125249862670898e-02) (34, -5.07383227348327636719e-01) (35, -7.25200027227401733398e-02) (36, 2.48056203126907348633e-01) (37, -1.98316380381584167480e-01) (7, -2.90051531791687011719e+00) (8, 6.22576892375946044922e-01) (9, 7.05602988600730895996e-02) (10, 1.28515228629112243652e-01) (11, 1.12984418869018554688e+00) (12, 5.14234840869903564453e-01) (13, -1.28014016151428222656e+00) (14, -8.94628822803497314453e-01) (15, 5.84008514881134033203e-01) (16, 7.82519698143005371094e-01) (17, -1.05116978287696838379e-01) (18, 5.63725233078002929688e-02) (19, 1.66633307933807373047e+00) (20, 6.43820345401763916016e-01) (21, 7.28159010410308837891e-01) (22, -3.83528411388397216797e-01) (23, 5.89792616665363311768e-02) (24, -2.03916758298873901367e-01) (25, 1.26764512062072753906e+00) (26, 3.49758654832839965820e-01) (27, -1.00565767288208007812e+00) (28, 6.94010317325592041016e-01) (29, 6.58491551876068115234e-01) (30, 5.11399030685424804688e-01) (31, -4.80868786573410034180e-01) (32, 3.76096487045288085938e-01) (33, -6.61782205104827880859e-01) (34, -3.90762776136398315430e-01) (35, 7.52712130546569824219e-01) (36, 4.16940972208976745605e-02) (37, 3.98789107799530029297e-01) (7, 5.32152414321899414062e-01) (8, -9.50211659073829650879e-02) (9, -7.85723686218261718750e-01) (10, 1.02537602186203002930e-01) (11, 1.19304761290550231934e-01) (12, 1.07081961631774902344e+00) (13, 1.01411342620849609375e+00) (14, -3.57196152210235595703e-01) (15, 5.56931376457214355469e-01) (16, 1.21146070957183837891e+00) (17, 7.80929625034332275391e-01) (18, -6.07194244861602783203e-01) (19, 4.40942853689193725586e-01) (20, 1.30884504318237304688e+00) (21, 6.53793036937713623047e-01) (22, 1.42582023143768310547e+00) (23, 4.09525066614151000977e-01) (24, 4.12028670310974121094e-01) (25, -1.76763907074928283691e-02) (26, 8.04453670978546142578e-01) (27, 8.23274075984954833984e-01) (28, -2.49172344803810119629e-01) (29, 4.81299638748168945312e-01) (30, -8.51632416248321533203e-01) (31, -9.05836462974548339844e-01) (32, -2.85227715969085693359e-01) (33, -5.94247639179229736328e-01) (34, -3.94090503454208374023e-01) (35, -7.72206336259841918945e-02) (36, 4.09252345561981201172e-01) (37, 9.78743731975555419922e-01) (7, 7.34849572181701660156e-01) (8, 3.60756456851959228516e-01) (9, 6.69952750205993652344e-01) (10, 1.77000418305397033691e-01) (11, 7.80186593532562255859e-01) (12, -4.98834073543548583984e-01) (13, 3.04506242275238037109e-01) (14, -3.31209152936935424805e-01) (15, 6.37482941150665283203e-01) (16, 1.06043505668640136719e+00) (17, 1.15833818912506103516e+00) (18, 8.84645462036132812500e-01) (19, -3.54747325181961059570e-01) (20, -6.65790811181068420410e-02) (21, 1.16777271032333374023e-01) (22, -5.03613531589508056641e-01) (23, 1.02751600742340087891e+00) (24, 9.80231523513793945312e-01) (25, 1.74905091524124145508e-01) (26, 3.73210072517395019531e-01) (27, 8.09711292386054992676e-02) (28, 6.55131876468658447266e-01) (29, -3.80689859390258789062e-01) (30, 3.31018358469009399414e-01) (31, 1.19062221050262451172e+00) (32, 1.15961497649550437927e-02) (33, 8.19579899311065673828e-01) (34, -4.56009209156036376953e-01) (35, 7.59759306907653808594e-01) (36, -3.60812455415725708008e-01) (37, -7.40831017494201660156e-01) (7, 4.66218084096908569336e-01) (8, 1.09187042713165283203e+00) (9, 1.92835748195648193359e-01) (10, -4.98489767313003540039e-01) (11, 7.68655180931091308594e-01) (12, 2.84043729305267333984e-01) (13, 1.04752051830291748047e+00) (14, -4.67814862728118896484e-01) (15, -4.43229556083679199219e-01) (16, 3.70167344808578491211e-01) (17, 1.19696438312530517578e+00) (18, -5.58799624443054199219e-01) (19, 5.05494177341461181641e-01) (20, 2.60916918516159057617e-01) (21, 7.09865629673004150391e-01) (22, 7.54238069057464599609e-01) (23, -8.62486660480499267578e-01) (24, 7.36658811569213867188e-01) (25, 1.47669967263936996460e-02) (26, 9.69877302646636962891e-01) (27, -1.13667547702789306641e-02) (28, -7.73173570632934570312e-01) (29, -4.78243142366409301758e-01) (30, 2.96414136886596679688e-01) (31, -2.44700536131858825684e-01) (32, 9.16860997676849365234e-01) (33, 3.38961958885192871094e-01) (34, -5.49904346466064453125e-01) (35, 1.72310912609100341797e+00) (36, 9.74522709846496582031e-01) (37, -6.12202167510986328125e-01) (38, 2.50362902879714965820e-02) (39, 3.39676856994628906250e-01) (40, 5.71391701698303222656e-01) (41, -1.77697300910949707031e-01) (42, 5.45392325147986412048e-03) (43, 4.50524300336837768555e-01) (44, -1.06367838382720947266e+00) (45, -9.44620445370674133301e-02) (46, 2.80941724777221679688e-01) (47, 4.31725621223449707031e-01) (48, 4.01539295911788940430e-01) (49, 1.15122354030609130859e+00) (50, -3.43479007482528686523e-01) (51, 5.73699474334716796875e-01) (52, 5.25542616844177246094e-01) (53, -1.28808066248893737793e-01) (54, -7.31104254722595214844e-01) (55, 2.69051268696784973145e-02) (56, 6.53609782457351684570e-02) (57, 7.46430456638336181641e-01) (58, 4.41146135330200195312e-01) (59, -2.13378608226776123047e-01) (60, -1.73767435550689697266e+00) (61, 2.82461702823638916016e-01) (62, -1.09929442405700683594e-02) (63, 6.21397078037261962891e-01) (64, -2.44263350963592529297e-01) (65, 2.50430077314376831055e-01) (66, 1.46478876471519470215e-01) (67, -6.25141203403472900391e-01) (68, 6.12118840217590332031e-01) (38, 2.43648633360862731934e-01) (39, 1.45528519153594970703e+00) (40, 9.99003499746322631836e-02) (41, -5.13379812240600585938e-01) (42, -2.52138912677764892578e-01) (43, -2.85266339778900146484e-01) (44, -5.96120255067944526672e-03) (45, -5.08480429649353027344e-01) (46, 3.13778698444366455078e-01) (47, 2.11045041680335998535e-01) (48, 6.56664013862609863281e-01) (49, 6.43031954765319824219e-01) (50, 7.31359958648681640625e-01) (51, 1.35046750307083129883e-01) (52, -4.22838926315307617188e-01) (53, -7.30026304721832275391e-01) (54, 5.36669194698333740234e-01) (55, -5.75790464878082275391e-01) (56, 8.45640778541564941406e-01) (57, -2.95505374670028686523e-01) (58, 6.92051276564598083496e-02) (59, -3.94529759883880615234e-01) (60, -3.74325871467590332031e-01) (61, 3.08219194412231445312e-01) (62, 1.53128516674041748047e+00) (63, -6.20219111442565917969e-01) (64, -8.34939420223236083984e-01) (65, -4.98214274644851684570e-01) (66, 4.92827355861663818359e-01) (67, -4.83178973197937011719e-01) (68, 1.34292316436767578125e+00) (38, 1.61715999245643615723e-01) (39, 9.44216623902320861816e-02) (40, 2.24635109305381774902e-01) (41, 1.00872665643692016602e-01) (42, 1.15904986858367919922e+00) (43, 4.02028679847717285156e-01) (44, 7.48469680547714233398e-02) (45, -4.11121919751167297363e-02) (46, -7.41479620337486267090e-02) (47, -6.85415148735046386719e-01) (48, -3.15191030502319335938e-01) (49, -5.03109753131866455078e-01) (50, -6.45881474018096923828e-01) (51, 1.07338912785053253174e-01) (52, 5.61711907386779785156e-01) (53, -7.72808611392974853516e-01) (54, 4.49136823415756225586e-01) (55, 1.24356794357299804688e+00) (56, 1.08236980438232421875e+00) (57, 3.67625385522842407227e-01) (58, 1.58566129207611083984e+00) (59, 1.35296940803527832031e-01) (60, -4.43302810192108154297e-01) (61, 1.51553833484649658203e+00) (62, 2.18605622649192810059e-01) (63, 1.38074547052383422852e-01) (64, 2.22075045108795166016e-01) (65, 3.79802793264389038086e-01) (66, 2.15544596314430236816e-01) (67, -8.66610050201416015625e-01) (68, -7.01536312699317932129e-02) (38, 1.11281287670135498047e+00) (39, -5.41554212570190429688e-01) (40, 9.48938608169555664062e-01) (41, 9.79146480560302734375e-01) (42, 9.07754600048065185547e-01) (43, 1.25474229454994201660e-01) (44, 1.58433899283409118652e-01) (45, -7.28773117065429687500e-01) (46, 9.01264488697052001953e-01) (47, 1.05326855182647705078e+00) (48, 9.72913682460784912109e-01) (49, -4.33685958385467529297e-01) (50, 3.55982512235641479492e-01) (51, -3.68331700563430786133e-01) (52, 2.80391961336135864258e-01) (53, 1.39742493629455566406e+00) (54, 9.15734231472015380859e-01) (55, 3.28667581081390380859e-01) (56, 9.39666569232940673828e-01) (57, -6.94469511508941650391e-01) (58, 4.97296422719955444336e-01) (59, -6.94199621677398681641e-01) (60, 1.54774814844131469727e-01) (61, 2.01832696795463562012e-01) (62, -1.20258665084838867188e+00) (63, 2.78608977794647216797e-01) (64, -8.28957557678222656250e-01) (65, 6.14486634731292724609e-01) (66, -7.78818666934967041016e-01) (67, -2.42261514067649841309e-01) (68, -5.57284653186798095703e-01) (38, 1.76917582750320434570e-01) (39, -4.71432954072952270508e-01) (40, 1.05314385890960693359e+00) (41, 3.58931899070739746094e-01) (42, -9.64498966932296752930e-02) (43, 2.59535938501358032227e-01) (44, 2.12562307715415954590e-01) (45, -5.75855791568756103516e-01) (46, -3.28839868307113647461e-01) (47, 1.30154028534889221191e-01) (48, 5.82822449505329132080e-02) (49, -9.35379713773727416992e-02) (50, -6.51879251003265380859e-01) (51, -7.15808197855949401855e-02) (52, -7.26393163204193115234e-01) (53, -2.06633478403091430664e-01) (54, -9.35508847236633300781e-01) (55, 5.46473801136016845703e-01) (56, 7.99055457115173339844e-01) (57, 2.30082757771015167236e-02) (58, -8.56737494468688964844e-01) (59, -3.64630334079265594482e-02) (60, 8.41277778148651123047e-01) (61, 1.83327510952949523926e-01) (62, 2.87146955728530883789e-01) (63, 3.78322720527648925781e-01) (64, 1.37574744224548339844e+00) (65, -1.06676340103149414062e+00) (66, 7.50496625900268554688e-01) (67, -1.19894123077392578125e+00) (68, -3.76905262470245361328e-01) (38, -1.03174030780792236328e-01) (39, 8.08150172233581542969e-01) (40, 2.24679636955261230469e+00) (41, 7.02682912349700927734e-01) (42, 2.19729495048522949219e+00) (43, 1.38350045680999755859e+00) (44, -1.08563733100891113281e+00) (45, 2.95744013786315917969e+00) (46, 1.45026659965515136719e+00) (47, -2.25871711969375610352e-01) (48, -3.98108482360839843750e-01) (49, -8.03443267941474914551e-02) (50, -2.50081896781921386719e-01) (51, -6.04271769523620605469e-01) (52, -1.56880319118499755859e+00) (53, 9.81919988989830017090e-02) (54, 2.49397587031126022339e-02) (55, -6.36508941650390625000e-01) (56, 2.06618774682283401489e-02) (57, 3.05615246295928955078e-01) (58, 1.72242909669876098633e-01) (59, 1.20233643054962158203e+00) (60, 8.21671605110168457031e-01) (61, 9.27659988403320312500e-01) (62, -1.15601764991879463196e-02) (63, 2.51154989004135131836e-01) (64, 8.89834761619567871094e-01) (65, 2.10974931716918945312e+00) (66, -2.39728569984436035156e-01) (67, 1.45330095291137695312e+00) (68, 4.13500815629959106445e-01) (38, -1.87821805477142333984e-01) (39, -2.87485837936401367188e-01) (40, 6.02322876453399658203e-01) (41, 7.55227088928222656250e-01) (42, -5.45232668519020080566e-02) (43, 3.97195398807525634766e-01) (44, 1.12573020160198211670e-01) (45, 9.00982260704040527344e-01) (46, -2.36288547515869140625e-01) (47, -2.26774886250495910645e-01) (48, -5.09962618350982666016e-01) (49, 3.11074733734130859375e-01) (50, 5.79124093055725097656e-01) (51, 1.78612127900123596191e-01) (52, 1.09949004650115966797e+00) (53, -2.18343555927276611328e-01) (54, 1.04724013805389404297e+00) (55, 2.09776353836059570312e+00) (56, 1.30463659763336181641e-01) (57, 1.02267026901245117188e+00) (58, -1.06455004215240478516e+00) (59, -4.35357093811035156250e-01) (60, 8.99994313716888427734e-01) (61, -3.38053852319717407227e-01) (62, -1.73150345683097839355e-01) (63, -6.20260000228881835938e-01) (64, -1.36817514896392822266e-01) (65, 3.76143962144851684570e-01) (66, 1.26122504472732543945e-01) (67, -9.09275591373443603516e-01) (68, -1.03624664247035980225e-01) (38, 4.03562128543853759766e-01) (39, 3.24560791254043579102e-01) (40, -3.85567873716354370117e-01) (41, -2.72219739854335784912e-02) (42, 7.87293553352355957031e-01) (43, -3.79288792610168457031e-01) (44, 2.73920595645904541016e-01) (45, 5.60410320758819580078e-01) (46, -2.23042294383049011230e-01) (47, 8.50520372390747070312e-01) (48, -1.08953462913632392883e-02) (49, 1.30794942378997802734e+00) (50, 2.26718974113464355469e+00) (51, 1.04638493061065673828e+00) (52, 1.29160833358764648438e+00) (53, 5.68308651447296142578e-01) (54, 1.08102917671203613281e+00) (55, 7.34207808971405029297e-01) (56, -9.27005350589752197266e-01) (57, 5.89471876621246337891e-01) (58, -3.20742011070251464844e-01) (59, 1.39251160621643066406e+00) (60, 3.37710559368133544922e-01) (61, -7.43435844779014587402e-02) (62, -4.87822890281677246094e-01) (63, 4.84315037727355957031e-01) (64, 3.97890329360961914062e-01) (65, 1.29324924945831298828e+00) (66, -5.63004612922668457031e-01) (67, 1.30756306648254394531e+00) (68, -1.01460002362728118896e-01) (38, -9.22286212444305419922e-01) (39, -7.73091539740562438965e-02) (40, -1.32610976696014404297e+00) (41, -9.62353348731994628906e-02) (42, 8.60935449600219726562e-01) (43, 9.53903496265411376953e-02) (44, -2.26572185754776000977e-01) (45, -1.00551925599575042725e-01) (46, 9.75305199623107910156e-01) (47, -1.36913076043128967285e-01) (48, 9.04422283172607421875e-01) (49, 9.42768812179565429688e-01) (50, 1.91150680184364318848e-01) (51, 4.10611599683761596680e-01) (52, 1.07928252220153808594e+00) (53, -2.62646853923797607422e-01) (54, 5.93110561370849609375e-01) (55, 5.71943342685699462891e-01) (56, 6.54606044292449951172e-01) (57, -1.91913723945617675781e-01) (58, 1.38110756874084472656e+00) (59, 1.18615344166755676270e-01) (60, -5.99242508411407470703e-01) (61, -3.40064108371734619141e-01) (62, 3.30253809690475463867e-01) (63, 3.40030103921890258789e-01) (64, -1.08128952980041503906e+00) (65, 2.16289207339286804199e-01) (66, -3.64647895097732543945e-01) (67, -1.30744963884353637695e-01) (68, 1.48688578605651855469e+00) (38, 1.47953286767005920410e-01) (39, 6.67098104953765869141e-01) (40, 4.33361113071441650391e-01) (41, 6.54946684837341308594e-01) (42, 5.65181136131286621094e-01) (43, -8.20358470082283020020e-02) (44, -1.70980826020240783691e-01) (45, 6.58615291118621826172e-01) (46, 5.68709194660186767578e-01) (47, -5.91327130794525146484e-01) (48, -1.78995490074157714844e-01) (49, -1.28598690032958984375e+00) (50, 8.75908851623535156250e-01) (51, -3.08644771575927734375e-01) (52, -9.92545366287231445312e-01) (53, -1.04360528290271759033e-01) (54, 1.20179474353790283203e+00) (55, 7.58528172969818115234e-01) (56, -9.79374289512634277344e-01) (57, -6.09127521514892578125e-01) (58, 6.21297359466552734375e-01) (59, 8.42684805393218994141e-01) (60, 5.04829764366149902344e-01) (61, 9.42399725317955017090e-02) (62, 1.03177905082702636719e+00) (63, 2.37182542681694030762e-01) (64, 2.63901889324188232422e-01) (65, 2.36821725964546203613e-01) (66, 8.97679507732391357422e-01) (67, -4.07474786043167114258e-01) (68, 1.30726730823516845703e+00) (38, -2.50631570816040039062e-01) (39, 7.98998177051544189453e-01) (40, 2.47590512037277221680e-01) (41, -8.52702140808105468750e-01) (42, -1.77841305732727050781e-01) (43, -9.05402541160583496094e-01) (44, -3.53768497705459594727e-01) (45, 2.34481900930404663086e-01) (46, -9.27164733409881591797e-01) (47, -5.43315172195434570312e-01) (48, 6.28307938575744628906e-01) (49, 5.86149752140045166016e-01) (50, 4.42664623260498046875e-01) (51, -1.87348611652851104736e-02) (52, 1.15037322044372558594e+00) (53, -5.93609571456909179688e-01) (54, -2.56123244762420654297e-01) (55, 5.65564036369323730469e-01) (56, 1.21533848345279693604e-01) (57, -1.48810315877199172974e-02) (58, 1.07646369934082031250e+00) (59, 9.11557137966156005859e-01) (60, -5.43992459774017333984e-01) (61, -9.92679670453071594238e-02) (62, 7.68723607063293457031e-01) (63, 2.58748345077037811279e-02) (64, -1.54052883386611938477e-01) (65, -3.78986328840255737305e-01) (66, -5.26861310005187988281e-01) (67, 6.21905326843261718750e-01) (68, -7.23339524120092391968e-03) (38, -6.63137137889862060547e-01) (39, 4.56769943237304687500e-01) (40, 9.34882879257202148438e-01) (41, -1.99217095971107482910e-01) (42, -2.93422460556030273438e-01) (43, 8.04721266031265258789e-02) (44, 4.56102579832077026367e-01) (45, -2.83504515886306762695e-01) (46, 1.37816295027732849121e-02) (47, 4.18103009462356567383e-01) (48, 1.04585254192352294922e+00) (49, -5.72699308395385742188e-01) (50, 5.09265363216400146484e-02) (51, -7.15691447257995605469e-01) (52, 1.14855217933654785156e+00) (53, 1.22749462723731994629e-01) (54, -3.27802121639251708984e-01) (55, 6.37417674064636230469e-01) (56, -2.50822324305772781372e-02) (57, 8.87868225574493408203e-01) (58, 2.06380039453506469727e-01) (59, 1.01972246170043945312e+00) (60, -6.41840994358062744141e-01) (61, -3.86880375444889068604e-02) (62, 5.62708973884582519531e-01) (63, 4.90846008062362670898e-01) (64, -5.68820118904113769531e-01) (65, 4.97930377721786499023e-01) (66, -3.96882683038711547852e-01) (67, 1.02197992801666259766e+00) (68, 1.67793440818786621094e+00) (38, 6.30744516849517822266e-01) (39, 5.90743303298950195312e-01) (40, -9.28229689598083496094e-01) (41, 2.88225382566452026367e-01) (42, 8.63908231258392333984e-01) (43, -2.41779595613479614258e-01) (44, -1.39060592651367187500e+00) (45, 1.16694295406341552734e+00) (46, -1.01169097423553466797e+00) (47, 6.50017499923706054688e-01) (48, 8.58756005764007568359e-01) (49, -4.88716423511505126953e-01) (50, 4.31740105152130126953e-01) (51, 5.20197451114654541016e-01) (52, 8.30891311168670654297e-01) (53, 1.92672148346900939941e-01) (54, 2.31901202350854873657e-02) (55, 9.72642064094543457031e-01) (56, 3.32052290439605712891e-01) (57, -4.82369601726531982422e-01) (58, -9.44122612476348876953e-01) (59, -6.60249531269073486328e-01) (60, 7.82030299305915832520e-02) (61, 6.55185043811798095703e-01) (62, 8.90144944190979003906e-01) (63, -2.89075195789337158203e-01) (64, 3.53580236434936523438e-01) (65, 8.73172640800476074219e-01) (66, 4.10477578639984130859e-01) (67, 4.89770501852035522461e-01) (68, -4.92047756910324096680e-01) (38, 1.61149218678474426270e-01) (39, -8.88516008853912353516e-01) (40, -4.27629023790359497070e-01) (41, 1.10193222761154174805e-01) (42, 3.01370412111282348633e-01) (43, -1.06895744800567626953e+00) (44, 1.10113120079040527344e+00) (45, 1.33922714740037918091e-02) (46, -2.07067549228668212891e-01) (47, 7.22776830196380615234e-01) (48, 6.30836129188537597656e-01) (49, -2.99512624740600585938e-01) (50, -6.28975570201873779297e-01) (51, -3.24685394763946533203e-01) (52, -1.54320999979972839355e-01) (53, -6.30622804164886474609e-01) (54, 2.51078814268112182617e-01) (55, 1.26842409372329711914e-02) (56, 6.01796329021453857422e-01) (57, 1.62738844752311706543e-01) (58, 7.00608909130096435547e-01) (59, 2.99248665571212768555e-01) (60, -9.20222282409667968750e-01) (61, 2.83919572830200195312e-01) (62, 8.39002490043640136719e-01) (63, -5.02828992903232574463e-02) (64, -6.50722801685333251953e-01) (65, -5.62695741653442382812e-01) (66, 1.74222737550735473633e-01) (67, 5.42132914066314697266e-01) (68, 1.31149637699127197266e+00) (38, 4.35268044471740722656e-01) (39, 9.02612432837486267090e-02) (40, -5.47111988067626953125e-01) (41, -7.86096692085266113281e-01) (42, -1.29614666104316711426e-01) (43, -5.59014141559600830078e-01) (44, 3.21341812610626220703e-01) (45, -2.66579389572143554688e-01) (46, -7.84289658069610595703e-01) (47, -5.47872483730316162109e-01) (48, 7.12729811668395996094e-01) (49, 1.18539147078990936279e-01) (50, 7.35462754964828491211e-02) (51, -1.32524847984313964844e+00) (52, 4.54767137765884399414e-01) (53, 4.66039180755615234375e-01) (54, -9.29708033800125122070e-03) (55, -5.42479872703552246094e-01) (56, -5.90696811676025390625e-01) (57, -2.78309851884841918945e-01) (58, 1.02384042739868164062e+00) (59, 1.67710199952125549316e-01) (60, -3.91477465629577636719e-01) (61, -3.44933092594146728516e-01) (62, -9.19620022177696228027e-02) (63, 2.37898647785186767578e-01) (64, 8.80113616585731506348e-02) (65, -2.99812197685241699219e-01) (66, 2.68642395734786987305e-01) (67, 1.32975131273269653320e-01) (68, -5.65433502197265625000e-01) (38, 7.38735795021057128906e-01) (39, -3.39229226112365722656e-01) (40, -5.87397962808609008789e-02) (41, -8.83234739303588867188e-02) (42, 2.98106998205184936523e-01) (43, 9.34978127479553222656e-01) (44, 7.56725013256072998047e-01) (45, 1.21256875991821289062e+00) (46, -7.00266718864440917969e-01) (47, -4.83580261468887329102e-01) (48, 3.72046589851379394531e-01) (49, -2.06975564360618591309e-01) (50, 4.96506810188293457031e-01) (51, 3.03747087717056274414e-01) (52, 5.37127912044525146484e-01) (53, -1.21171446517109870911e-02) (54, 4.88594800233840942383e-01) (55, 8.31116020679473876953e-01) (56, -4.22927201725542545319e-04) (57, 1.56222915649414062500e+00) (58, 4.11772847175598144531e-01) (59, -1.16306865215301513672e+00) (60, -6.15382015705108642578e-01) (61, -7.47226059436798095703e-01) (62, -2.24894627928733825684e-01) (63, 3.63298356533050537109e-01) (64, 2.30023875832557678223e-01) (65, 9.95068728923797607422e-01) (66, 1.56249910593032836914e-01) (67, -4.66398358345031738281e-01) (68, -3.20251554250717163086e-01) (38, -3.72322767972946166992e-01) (39, -3.16060960292816162109e-01) (40, 2.66024824231863021851e-02) (41, -7.43119537830352783203e-01) (42, -1.01006460189819335938e+00) (43, 7.93791413307189941406e-02) (44, 2.35313281416893005371e-01) (45, 1.18162441253662109375e+00) (46, 5.31938206404447555542e-03) (47, -4.32088464498519897461e-01) (48, 5.57641685009002685547e-01) (49, 9.66813147068023681641e-01) (50, 1.18458151817321777344e+00) (51, -1.41705572605133056641e-01) (52, 4.01452809572219848633e-01) (53, 3.22332710027694702148e-01) (54, -1.31662013009190559387e-02) (55, -7.29859054088592529297e-01) (56, 6.45950376987457275391e-01) (57, 7.74107515811920166016e-01) (58, 2.84207999706268310547e-01) (59, 5.88048815727233886719e-01) (60, 1.24944853782653808594e+00) (61, 4.25402611494064331055e-01) (62, 6.03983819484710693359e-01) (63, 3.25210355222225189209e-02) (64, -4.32627052068710327148e-01) (65, -5.64574301242828369141e-01) (66, -1.96945145726203918457e-02) (67, 4.82998117804527282715e-02) (68, -2.39839583635330200195e-01) (38, 7.68957376480102539062e-01) (39, 1.36812716722488403320e-01) (40, -2.19986701011657714844e+00) (41, 1.36014890670776367188e+00) (42, 1.07503795623779296875e+00) (43, 9.38283026218414306641e-01) (44, 1.39196515083312988281e+00) (45, 5.05815327167510986328e-01) (46, -2.71748185157775878906e-01) (47, 9.99816834926605224609e-01) (48, 8.21012109518051147461e-02) (49, 1.16853284835815429688e+00) (50, 8.12643051147460937500e-01) (51, 1.51245403289794921875e+00) (52, 4.15499687194824218750e-01) (53, 7.34857797622680664062e-01) (54, -6.17636263370513916016e-01) (55, -3.05641419254243373871e-03) (56, 9.16020572185516357422e-01) (57, 2.41481280326843261719e+00) (58, 7.87959933280944824219e-01) (59, 5.66682577133178710938e-01) (60, 1.24672424793243408203e+00) (61, 4.98953133821487426758e-01) (62, -7.28020966053009033203e-01) (63, 2.27082657814025878906e+00) (64, 4.38382536172866821289e-01) (65, -8.86012017726898193359e-01) (66, 4.17276978492736816406e-01) (67, 1.51353895664215087891e+00) (68, 5.06997764110565185547e-01) (38, -6.07181489467620849609e-01) (39, 3.70926186442375183105e-02) (40, 4.29925203323364257812e-01) (41, -3.26982975006103515625e-01) (42, -7.94147372245788574219e-01) (43, -6.75458490848541259766e-01) (44, 9.16827440261840820312e-01) (45, 7.48016357421875000000e-01) (46, -3.79212230443954467773e-01) (47, 6.56989872455596923828e-01) (48, 1.00034736096858978271e-02) (49, -5.25348126888275146484e-01) (50, 1.73165440559387207031e-01) (51, 6.03514790534973144531e-01) (52, 1.16153550148010253906e+00) (53, 4.66602504253387451172e-01) (54, 1.17803514003753662109e+00) (55, -3.82039189338684082031e-01) (56, 7.64646768569946289062e-01) (57, 9.56221044063568115234e-01) (58, -1.01947844028472900391e+00) (59, 1.48677301406860351562e+00) (60, 7.88864791393280029297e-01) (61, -2.45430469512939453125e-01) (62, 9.83721494674682617188e-01) (63, -8.75713527202606201172e-01) (64, 4.77782189846038818359e-01) (65, 6.63635060191154479980e-02) (66, 2.79296636581420898438e-01) (67, -5.91117262840270996094e-01) (68, 1.12582278251647949219e+00) (38, -2.20700249075889587402e-01) (39, 5.56549131870269775391e-01) (40, 9.50524508953094482422e-01) (41, 8.57823938131332397461e-02) (42, 7.04384446144104003906e-01) (43, -9.91726458072662353516e-01) (44, -1.17319941520690917969e+00) (45, 8.15461039543151855469e-01) (46, 2.47963875532150268555e-01) (47, 4.94500920176506042480e-02) (48, 4.43695843219757080078e-01) (49, 1.04535031318664550781e+00) (50, 2.31787815690040588379e-01) (51, 2.10495710372924804688e-01) (52, 5.94711527228355407715e-02) (53, -7.91115581989288330078e-01) (54, -5.17152965068817138672e-01) (55, 7.83527851104736328125e-01) (56, 7.37890422344207763672e-01) (57, 4.98429894447326660156e-01) (58, 6.40335083007812500000e-01) (59, -2.74758726358413696289e-01) (60, -1.48285225033760070801e-01) (61, 2.17033643275499343872e-02) (62, 1.07387614250183105469e+00) (63, -2.14043363928794860840e-01) (64, 2.00001209974288940430e-01) (65, 4.30824548006057739258e-01) (66, -1.52229711413383483887e-01) (67, 4.41987603902816772461e-01) (68, -7.32402980327606201172e-01) (38, 2.86959201097488403320e-01) (39, 2.13154926896095275879e-01) (40, -8.86364221572875976562e-01) (41, -1.80279478430747985840e-01) (42, 1.24005272984504699707e-01) (43, -1.73903852701187133789e-01) (44, -6.42879128456115722656e-01) (45, 1.53357014060020446777e-01) (46, -5.12232244014739990234e-01) (47, -1.95087671279907226562e-01) (48, 4.57629710435867309570e-02) (49, 2.17574425041675567627e-02) (50, 3.16480219364166259766e-01) (51, 1.20351576805114746094e+00) (52, 1.15485739707946777344e+00) (53, 7.36772596836090087891e-01) (54, 5.65444052219390869141e-01) (55, 9.78731274604797363281e-01) (56, -4.55334573984146118164e-01) (57, 1.09155011177062988281e+00) (58, 6.36011242866516113281e-01) (59, 6.40143692493438720703e-01) (60, -7.00288534164428710938e-01) (61, -7.08593606948852539062e-01) (62, -6.67097210884094238281e-01) (63, 1.27750563621520996094e+00) (64, 2.40081861615180969238e-01) (65, 1.33308753371238708496e-01) (66, -3.36215257644653320312e-01) (67, -5.28011202812194824219e-01) (68, 3.25829297304153442383e-01) (38, -1.14791125059127807617e-01) (39, 1.15453135967254638672e+00) (40, 9.87050116062164306641e-01) (41, -1.24770812690258026123e-01) (42, -5.57450711727142333984e-01) (43, 9.06413257122039794922e-01) (44, 4.00186985731124877930e-01) (45, -4.15348172187805175781e-01) (46, -7.06360816955566406250e-01) (47, -5.70417225360870361328e-01) (48, -1.10819302499294281006e-01) (49, 5.36143243312835693359e-01) (50, 7.73363649845123291016e-01) (51, -4.07376855611801147461e-01) (52, 5.10635793209075927734e-01) (53, -7.27033376693725585938e-01) (54, 1.00682806968688964844e+00) (55, -2.68104016780853271484e-01) (56, 7.49610438942909240723e-02) (57, 8.00306200981140136719e-01) (58, 1.40553450584411621094e+00) (59, -2.23950222134590148926e-02) (60, 7.75261819362640380859e-01) (61, 7.43242919445037841797e-01) (62, 2.40240301936864852905e-02) (63, 2.68549203872680664062e-01) (64, 3.59908938407897949219e-02) (65, 7.53683507442474365234e-01) (66, -4.95650153607130050659e-03) (67, 9.69497203826904296875e-01) (68, 3.56432408094406127930e-01) (38, -1.00963234901428222656e+00) (39, 3.19174557924270629883e-01) (40, -6.94062590599060058594e-01) (41, -3.43657463788986206055e-01) (42, -5.83438992500305175781e-01) (43, -1.62154883146286010742e-01) (44, 1.05193841457366943359e+00) (45, -4.36065346002578735352e-01) (46, -1.86442390084266662598e-01) (47, -1.19635653495788574219e+00) (48, 7.12571501731872558594e-01) (49, -4.74893897771835327148e-01) (50, 5.78356862068176269531e-01) (51, -5.12699365615844726562e-01) (52, 4.58619952201843261719e-01) (53, 1.41472411155700683594e+00) (54, -3.93867701292037963867e-01) (55, 9.40540790557861328125e-01) (56, 1.10705651342868804932e-01) (57, 4.69688445329666137695e-01) (58, 3.28851878643035888672e-01) (59, -6.28817558288574218750e-01) (60, 2.54752486944198608398e-01) (61, -1.40293583273887634277e-01) (62, 4.27536696195602416992e-01) (63, 5.44049024581909179688e-01) (64, -8.29480409622192382812e-01) (65, 5.91492116451263427734e-01) (66, -7.39482566714286804199e-02) (67, 7.34430670738220214844e-01) (68, -1.56930033117532730103e-02) (38, 5.14146447181701660156e-01) (39, 6.20275020599365234375e-01) (40, 7.57941126823425292969e-01) (41, 5.06188511848449707031e-01) (42, 1.91406607627868652344e-02) (43, 9.02757585048675537109e-01) (44, 1.01603293418884277344e+00) (45, -1.00373171269893646240e-01) (46, 3.48233938217163085938e-01) (47, 9.64109718799591064453e-01) (48, -1.25504896044731140137e-01) (49, 4.01353389024734497070e-01) (50, 2.91050463914871215820e-01) (51, 7.08072185516357421875e-01) (52, -9.79477018117904663086e-02) (53, 3.15551817417144775391e-01) (54, 8.27114999294281005859e-01) (55, -8.71766149997711181641e-01) (56, 5.34983910620212554932e-02) (57, 2.50606656074523925781e-01) (58, 8.94003689289093017578e-01) (59, -7.74181783199310302734e-02) (60, -9.56125140190124511719e-01) (61, -1.17580391466617584229e-01) (62, -6.02365553379058837891e-01) (63, 9.59750562906265258789e-02) (64, -1.89438015222549438477e-02) (65, 1.30945527553558349609e+00) (66, -8.85049030184745788574e-02) (67, 6.29828810691833496094e-01) (68, 4.42953437566757202148e-01) (38, 2.56763637065887451172e-01) (39, 3.85890215635299682617e-01) (40, -2.11774542927742004395e-01) (41, 9.61233973503112792969e-01) (42, -2.61868774890899658203e-01) (43, -3.75837564468383789062e-01) (44, -1.67663380503654479980e-01) (45, -1.28371143341064453125e+00) (46, 6.47704660892486572266e-01) (47, 1.17315304279327392578e+00) (48, 1.31029486656188964844e+00) (49, -1.38807728886604309082e-01) (50, 2.94587910175323486328e-01) (51, 8.26693117618560791016e-01) (52, 7.54630744457244873047e-01) (53, 1.06606769561767578125e+00) (54, -1.84040442109107971191e-01) (55, 4.53994631767272949219e-01) (56, -1.11357736587524414062e+00) (57, -2.11944907903671264648e-01) (58, 2.11608752608299255371e-01) (59, -2.63487976044416427612e-02) (60, -3.19677561521530151367e-01) (61, 5.18916428089141845703e-01) (62, 1.00323259830474853516e+00) (63, 3.91425669193267822266e-01) (64, -1.66659787297248840332e-01) (65, 5.00987589359283447266e-01) (66, 4.51501518487930297852e-01) (67, 9.39754188060760498047e-01) (68, -6.69227242469787597656e-01) (38, -9.71367657184600830078e-01) (39, -8.08203935623168945312e-01) (40, -1.21288001537322998047e+00) (41, -7.01566636562347412109e-01) (42, 7.20800578594207763672e-01) (43, 6.36386275291442871094e-01) (44, -3.93425792455673217773e-01) (45, -5.77718615531921386719e-01) (46, -1.07013031840324401855e-01) (47, 1.61058619618415832520e-01) (48, 1.00549161434173583984e+00) (49, 1.52168393135070800781e+00) (50, -4.92155432701110839844e-01) (51, -3.40172380208969116211e-01) (52, 3.11566174030303955078e-01) (53, 1.19097411632537841797e+00) (54, 6.66136145591735839844e-01) (55, -2.54819840192794799805e-01) (56, -7.04157650470733642578e-01) (57, 1.02060699462890625000e+00) (58, 1.53056398034095764160e-01) (59, 1.26281654834747314453e+00) (60, 1.56337821483612060547e+00) (61, 8.72762858867645263672e-01) (62, -6.12437650561332702637e-02) (63, 3.77380639314651489258e-01) (64, -6.10856533050537109375e-01) (65, -4.53331530094146728516e-01) (66, 3.70494782924652099609e-01) (67, -4.38129544258117675781e-01) (68, -2.57612347602844238281e-01) (38, -7.81961083412170410156e-02) (39, -5.55878698825836181641e-01) (40, -8.50121751427650451660e-02) (41, 1.19238495826721191406e+00) (42, 9.96764227747917175293e-02) (43, 1.12904064357280731201e-01) (44, 2.00271323323249816895e-01) (45, 8.30661416053771972656e-01) (46, 5.51496326923370361328e-01) (47, -1.05074596405029296875e+00) (48, 2.84682154655456542969e-01) (49, 2.05625832080841064453e-01) (50, -9.21482324600219726562e-01) (51, -9.54883247613906860352e-02) (52, 1.70008555054664611816e-01) (53, 2.01490242034196853638e-02) (54, -3.05588662624359130859e-01) (55, -4.88149970769882202148e-01) (56, -5.01498579978942871094e-01) (57, 4.40714180469512939453e-01) (58, 3.08117836713790893555e-01) (59, 2.94643819332122802734e-01) (60, -2.11928397417068481445e-01) (61, -1.30751714110374450684e-01) (62, -6.16564810276031494141e-01) (63, -6.39144062995910644531e-01) (64, 2.65252351760864257812e-01) (65, 1.61657258868217468262e-01) (66, 5.15177905559539794922e-01) (67, 4.11864191293716430664e-01) (68, 1.34515094757080078125e+00) (38, 5.84555804729461669922e-01) (39, 1.24678373336791992188e+00) (40, 8.75952005386352539062e-01) (41, 3.54824721813201904297e-01) (42, -1.80944994091987609863e-01) (43, -4.16513066738843917847e-03) (44, -7.91229084134101867676e-02) (45, 4.22067523002624511719e-01) (46, 7.27460443973541259766e-01) (47, 8.80396723747253417969e-01) (48, -4.31749731302261352539e-01) (49, -5.72101593017578125000e-01) (50, 7.40310072898864746094e-01) (51, -6.58672153949737548828e-01) (52, -5.26255190372467041016e-01) (53, -6.63007378578186035156e-01) (54, 8.79672408103942871094e-01) (55, 3.83743405342102050781e-01) (56, -2.39489167928695678711e-01) (57, -6.61057591438293457031e-01) (58, 8.04109692573547363281e-01) (59, 1.35256037116050720215e-01) (60, 3.27123254537582397461e-01) (61, 1.79603189229965209961e-01) (62, -1.97111845016479492188e-01) (63, 5.49083411693572998047e-01) (64, 8.53849172592163085938e-01) (65, 2.18349075317382812500e+00) (66, 5.55725872516632080078e-01) (67, 9.66706633567810058594e-01) (68, -3.97554606199264526367e-01) (38, 4.65469241142272949219e-01) (39, -8.20160627365112304688e-01) (40, 8.24818462133407592773e-02) (41, 2.53536283969879150391e-01) (42, 9.24861505627632141113e-02) (43, 5.19921064376831054688e-01) (44, -3.23193997144699096680e-01) (45, -5.48397183418273925781e-01) (46, -7.17782437801361083984e-01) (47, 4.33196961879730224609e-01) (48, 5.29024004936218261719e-01) (49, -1.34258046746253967285e-01) (50, 6.21959686279296875000e-01) (51, -7.47673273086547851562e-01) (52, 2.68852919340133666992e-01) (53, 5.41865825653076171875e-01) (54, 5.80038547515869140625e-01) (55, 9.94784116744995117188e-01) (56, 8.56655538082122802734e-02) (57, 9.85281050205230712891e-01) (58, -1.38030543923377990723e-01) (59, 7.46431589126586914062e-01) (60, 4.98667269945144653320e-01) (61, 1.21839368343353271484e+00) (62, 9.39866662025451660156e-01) (63, -4.19488221406936645508e-01) (64, 5.06501376628875732422e-01) (65, -2.67392665147781372070e-01) (66, 5.13300895690917968750e-01) (67, 7.58964240550994873047e-01) (68, 8.37721973657608032227e-02) (38, -5.91893568634986877441e-02) (39, -1.00781297683715820312e+00) (40, 2.61759430170059204102e-01) (41, 3.56185227632522583008e-01) (42, -4.46788042783737182617e-01) (43, -2.04431172460317611694e-02) (44, 5.66818892955780029297e-01) (45, 5.26371777057647705078e-01) (46, 1.00079327821731567383e-01) (47, 4.16162967681884765625e-01) (48, 5.95451354980468750000e-01) (49, 9.52118337154388427734e-01) (50, -2.70250618457794189453e-01) (51, 4.67809796333312988281e-01) (52, 7.79301524162292480469e-01) (53, 5.30179977416992187500e-01) (54, 8.68656575679779052734e-01) (55, 1.20834618806838989258e-01) (56, 3.95890623331069946289e-02) (57, -2.34458312392234802246e-01) (58, 6.10080420970916748047e-01) (59, 2.10993841290473937988e-01) (60, 1.52665090560913085938e+00) (61, 8.86823475360870361328e-01) (62, 3.70094835758209228516e-01) (63, 1.09030127525329589844e+00) (64, -4.75773394107818603516e-01) (65, 7.95242846012115478516e-01) (66, -3.17835718393325805664e-01) (67, -2.74001151323318481445e-01) (68, -2.51740157604217529297e-01) (69, 3.85138928890228271484e-01) (70, -5.53659856319427490234e-01) (71, -8.24031680822372436523e-02) (72, 3.20919066667556762695e-01) (73, 3.57934266328811645508e-01) (74, -1.68783560395240783691e-01) (75, 2.97714769840240478516e-01) (76, 3.68473008275032043457e-02) (77, -1.59620746970176696777e-01) (78, 1.90985292196273803711e-01) (79, 3.97497981786727905273e-01) (80, -6.49887859821319580078e-01) (81, -2.77160815894603729248e-02) (82, -3.00302505493164062500e-01) (83, 5.84470331668853759766e-01) (84, 3.25278431177139282227e-01) (85, 8.44994187355041503906e-01) (86, -1.98923408985137939453e-01) (87, 2.44231268763542175293e-01) (88, -8.20233464241027832031e-01) (89, 1.46390870213508605957e-01) (90, 4.20257747173309326172e-02) (91, 4.96363997459411621094e-01) (92, -2.71532565355300903320e-01) (93, -1.50269776582717895508e-01) (94, 3.79631251096725463867e-01) (95, 7.48831152915954589844e-01) (96, 1.94252207875251770020e-01) (97, -1.30069226026535034180e-01) (98, -1.07924449443817138672e+00) (99, 1.51388570666313171387e-01) (69, -5.41275680065155029297e-01) (70, -8.67601931095123291016e-02) (71, -2.29261204600334167480e-01) (72, 2.93279647827148437500e-01) (73, 1.14014720916748046875e+00) (74, 1.84565678238868713379e-01) (75, 3.69294285774230957031e-01) (76, -7.02697336673736572266e-01) (77, 6.16777360439300537109e-01) (78, 4.09749746322631835938e-01) (79, 1.22937485575675964355e-01) (80, 5.77825605869293212891e-01) (81, 2.11560964584350585938e-01) (82, 1.11211466789245605469e+00) (83, 2.53090649843215942383e-01) (84, 1.04894518852233886719e+00) (85, 2.25100070238113403320e-01) (86, 1.27506358548998832703e-02) (87, -3.08318346738815307617e-01) (88, 1.38628864660859107971e-02) (89, -5.29726684093475341797e-01) (90, -5.88384747505187988281e-01) (91, 5.15268385410308837891e-01) (92, -1.39761427417397499084e-02) (93, -9.86143946647644042969e-02) (94, 7.50363051891326904297e-01) (95, 3.82541537284851074219e-01) (96, -2.21773877739906311035e-01) (97, 6.20845794677734375000e-01) (98, 5.23917973041534423828e-01) (99, 2.39706132560968399048e-02) (69, 1.22916257381439208984e+00) (70, 8.46518993377685546875e-01) (71, 1.06766991317272186279e-01) (72, 4.28193122148513793945e-01) (73, 6.83799922466278076172e-01) (74, -6.50914609432220458984e-01) (75, 2.25118160247802734375e-01) (76, 4.77857023477554321289e-01) (77, 3.03506195545196533203e-01) (78, -4.21688407659530639648e-01) (79, 4.92563880980014801025e-02) (80, 4.98125582933425903320e-01) (81, 5.89406013488769531250e-01) (82, -1.61662653088569641113e-01) (83, 7.53586888313293457031e-01) (84, 1.94911941885948181152e-01) (85, 9.42268669605255126953e-01) (86, -3.15193146467208862305e-01) (87, 1.57031252980232238770e-01) (88, 9.77409854531288146973e-02) (89, 2.62132704257965087891e-01) (90, 7.14962720870971679688e-01) (91, 9.83168900012969970703e-01) (92, -4.86553549766540527344e-01) (93, -4.25324857234954833984e-01) (94, 1.52840030193328857422e+00) (95, 1.06472694873809814453e+00) (96, 4.52707082033157348633e-01) (97, -1.04935683310031890869e-01) (98, 1.97725996375083923340e-01) (99, 1.06139862537384033203e+00) (69, -5.26323504745960235596e-02) (70, -5.06479620933532714844e-01) (71, 1.81765198707580566406e-01) (72, -1.14782847464084625244e-01) (73, 1.10031628608703613281e+00) (74, 2.01756492257118225098e-01) (75, 1.60456106066703796387e-01) (76, -4.03581053018569946289e-01) (77, 6.29748523235321044922e-01) (78, 5.28849184513092041016e-01) (79, -6.98201119899749755859e-01) (80, -8.86907279491424560547e-01) (81, 1.27059280872344970703e-01) (82, -4.20943975448608398438e-01) (83, 8.03127408027648925781e-01) (84, 6.99521660804748535156e-01) (85, -2.71795034408569335938e-01) (86, -4.71865803003311157227e-01) (87, 1.51411086320877075195e-01) (88, -1.89054116606712341309e-01) (89, -9.24053043127059936523e-02) (90, 2.24127933382987976074e-01) (91, 4.82211023569107055664e-01) (92, -6.11341297626495361328e-01) (93, 3.30946117639541625977e-01) (94, 4.78972047567367553711e-02) (95, 6.66712880134582519531e-01) (96, 3.35747212171554565430e-01) (97, 8.85816514492034912109e-02) (98, -2.50021249055862426758e-01) (99, -5.28515428304672241211e-02) (69, -1.22207593917846679688e+00) (70, 1.04512043297290802002e-01) (71, -7.34959304332733154297e-01) (72, -2.57477968931198120117e-01) (73, 9.12668287754058837891e-01) (74, 4.74636077880859375000e-01) (75, 7.30895042419433593750e-01) (76, -5.81134557723999023438e-01) (77, 4.30527269840240478516e-01) (78, 2.72723019123077392578e-01) (79, -2.17763796448707580566e-01) (80, 2.48116075992584228516e-01) (81, 2.70176917314529418945e-01) (82, 2.33457013964653015137e-01) (83, 9.34529453516006469727e-02) (84, 1.10658049583435058594e+00) (85, 8.77855598926544189453e-01) (86, -5.39654970169067382812e-01) (87, 5.73450207710266113281e-01) (88, 2.87775188684463500977e-01) (89, -1.20141017436981201172e+00) (90, -1.14306819438934326172e+00) (91, -5.29355928301811218262e-02) (92, -4.64168041944503784180e-01) (93, 6.93582177162170410156e-01) (94, 3.57839614152908325195e-01) (95, -2.03888565301895141602e-01) (96, 7.87086132913827896118e-03) (97, 4.37037855386734008789e-01) (98, 1.36541267856955528259e-02) (99, 9.92218136787414550781e-01) (69, 9.63302791118621826172e-01) (70, -2.56037890911102294922e-01) (71, -8.66798684000968933105e-02) (72, -1.28518626093864440918e-01) (73, 1.45814216136932373047e+00) (74, -7.99971818923950195312e-01) (75, 1.04770350456237792969e+00) (76, 7.25496828556060791016e-01) (77, 6.93309724330902099609e-01) (78, 1.02981233596801757812e+00) (79, 5.08311614394187927246e-02) (80, 4.14911508560180664062e-02) (81, -2.63828579336404800415e-02) (82, 3.40265184640884399414e-01) (83, 5.38114786148071289062e-01) (84, 4.44325000047683715820e-01) (85, -2.97629106789827346802e-02) (86, -4.41983103752136230469e-01) (87, -3.23834200389683246613e-03) (88, 6.63681924343109130859e-01) (89, 8.02448332309722900391e-01) (90, -1.43265156075358390808e-02) (91, 3.41531276702880859375e-01) (92, -6.01158559322357177734e-01) (93, 4.46190088987350463867e-01) (94, 6.68871700763702392578e-01) (95, -2.35819950699806213379e-01) (96, -9.12961781024932861328e-01) (97, 1.14434337615966796875e+00) (98, 6.86207771301269531250e-01) (99, 1.14462697505950927734e+00)
input_names='in1_eps' 'in2_q' 'in3_nu' 'in4_n2' 'in5_t2' 'in6_geo'
output_names='OUT_cne' 'OUT_cni1' 'OUT_cni2' 'OUT_cte' 'OUT_cti1' 'OUT_cti2'
norm_output=0.0 0.0 0.0 0.0 0.0 0.0 0.0 0.0 0.0 0.0 0.0 0.0 0.0 0.0 0.0 0.0 0.0 0.0 0.0 0.0 0.0 0.0 0.0 0.0 0.0 0.0 0.0 0.0 0.0 0.0 0.0 0.0 0.0 0.0 0.0 0.0
MSE= 0.00220631598495