FANN_FLO_2.1
num_layers=5
learning_rate=0.700000
connection_rate=1.000000
network_type=0
learning_momentum=0.000000
training_algorithm=2
train_error_function=0
train_stop_function=0
cascade_output_change_fraction=0.010000
quickprop_decay=563.737366
quickprop_mu=1.750000
rprop_increase_factor=1.200000
rprop_decrease_factor=0.500000
rprop_delta_min=0.000000
rprop_delta_max=50.000000
rprop_delta_zero=0.100000
cascade_output_stagnation_epochs=12
cascade_candidate_change_fraction=0.010000
cascade_candidate_stagnation_epochs=12
cascade_max_out_epochs=150
cascade_min_out_epochs=50
cascade_max_cand_epochs=150
cascade_min_cand_epochs=50
cascade_num_candidate_groups=2
bit_fail_limit=3.49999994039535522461e-01
cascade_candidate_limit=1.00000000000000000000e+03
cascade_weight_multiplier=4.00000005960464477539e-01
cascade_activation_functions_count=10
cascade_activation_functions=3 5 7 8 10 11 14 15 16 17
cascade_activation_steepnesses_count=4
cascade_activation_steepnesses=2.50000000000000000000e-01 5.00000000000000000000e-01 7.50000000000000000000e-01 1.00000000000000000000e+00
layer_sizes=7 31 31 31 7
scale_included=1
scale_mean_in=0.200000 5.500000 -0.446233 0.798540 2.000000 0.586316
scale_deviation_in=0.096271 2.796810 1.048893 0.131916 0.670323 0.139613
scale_new_min_in=-1.000000 -1.000000 -1.000000 -1.000000 -1.000000 -1.000000
scale_factor_in=1.000000 1.000000 1.000000 1.000000 1.000000 1.000000
scale_mean_out=0.361187 0.694808 0.126587 0.400913 0.469681 0.086611
scale_deviation_out=0.231777 0.493533 0.149526 0.195050 0.307003 0.084489
scale_new_min_out=-1.000000 -1.000000 -1.000000 -1.000000 -1.000000 -1.000000
scale_factor_out=1.000000 1.000000 1.000000 1.000000 1.000000 1.000000
neurons (num_inputs, activation_function, activation_steepness)=(0, 0, 0.00000000000000000000e+00) (0, 0, 0.00000000000000000000e+00) (0, 0, 0.00000000000000000000e+00) (0, 0, 0.00000000000000000000e+00) (0, 0, 0.00000000000000000000e+00) (0, 0, 0.00000000000000000000e+00) (0, 0, 0.00000000000000000000e+00) (7, 5, 5.00000000000000000000e-01) (7, 5, 5.00000000000000000000e-01) (7, 5, 5.00000000000000000000e-01) (7, 5, 5.00000000000000000000e-01) (7, 5, 5.00000000000000000000e-01) (7, 5, 5.00000000000000000000e-01) (7, 5, 5.00000000000000000000e-01) (7, 5, 5.00000000000000000000e-01) (7, 5, 5.00000000000000000000e-01) (7, 5, 5.00000000000000000000e-01) (7, 5, 5.00000000000000000000e-01) (7, 5, 5.00000000000000000000e-01) (7, 5, 5.00000000000000000000e-01) (7, 5, 5.00000000000000000000e-01) (7, 5, 5.00000000000000000000e-01) (7, 5, 5.00000000000000000000e-01) (7, 5, 5.00000000000000000000e-01) (7, 5, 5.00000000000000000000e-01) (7, 5, 5.00000000000000000000e-01) (7, 5, 5.00000000000000000000e-01) (7, 5, 5.00000000000000000000e-01) (7, 5, 5.00000000000000000000e-01) (7, 5, 5.00000000000000000000e-01) (7, 5, 5.00000000000000000000e-01) (7, 5, 5.00000000000000000000e-01) (7, 5, 5.00000000000000000000e-01) (7, 5, 5.00000000000000000000e-01) (7, 5, 5.00000000000000000000e-01) (7, 5, 5.00000000000000000000e-01) (7, 5, 5.00000000000000000000e-01) (0, 5, 0.00000000000000000000e+00) (31, 5, 5.00000000000000000000e-01) (31, 5, 5.00000000000000000000e-01) (31, 5, 5.00000000000000000000e-01) (31, 5, 5.00000000000000000000e-01) (31, 5, 5.00000000000000000000e-01) (31, 5, 5.00000000000000000000e-01) (31, 5, 5.00000000000000000000e-01) (31, 5, 5.00000000000000000000e-01) (31, 5, 5.00000000000000000000e-01) (31, 5, 5.00000000000000000000e-01) (31, 5, 5.00000000000000000000e-01) (31, 5, 5.00000000000000000000e-01) (31, 5, 5.00000000000000000000e-01) (31, 5, 5.00000000000000000000e-01) (31, 5, 5.00000000000000000000e-01) (31, 5, 5.00000000000000000000e-01) (31, 5, 5.00000000000000000000e-01) (31, 5, 5.00000000000000000000e-01) (31, 5, 5.00000000000000000000e-01) (31, 5, 5.00000000000000000000e-01) (31, 5, 5.00000000000000000000e-01) (31, 5, 5.00000000000000000000e-01) (31, 5, 5.00000000000000000000e-01) (31, 5, 5.00000000000000000000e-01) (31, 5, 5.00000000000000000000e-01) (31, 5, 5.00000000000000000000e-01) (31, 5, 5.00000000000000000000e-01) (31, 5, 5.00000000000000000000e-01) (31, 5, 5.00000000000000000000e-01) (31, 5, 5.00000000000000000000e-01) (0, 5, 0.00000000000000000000e+00) (31, 5, 5.00000000000000000000e-01) (31, 5, 5.00000000000000000000e-01) (31, 5, 5.00000000000000000000e-01) (31, 5, 5.00000000000000000000e-01) (31, 5, 5.00000000000000000000e-01) (31, 5, 5.00000000000000000000e-01) (31, 5, 5.00000000000000000000e-01) (31, 5, 5.00000000000000000000e-01) (31, 5, 5.00000000000000000000e-01) (31, 5, 5.00000000000000000000e-01) (31, 5, 5.00000000000000000000e-01) (31, 5, 5.00000000000000000000e-01) (31, 5, 5.00000000000000000000e-01) (31, 5, 5.00000000000000000000e-01) (31, 5, 5.00000000000000000000e-01) (31, 5, 5.00000000000000000000e-01) (31, 5, 5.00000000000000000000e-01) (31, 5, 5.00000000000000000000e-01) (31, 5, 5.00000000000000000000e-01) (31, 5, 5.00000000000000000000e-01) (31, 5, 5.00000000000000000000e-01) (31, 5, 5.00000000000000000000e-01) (31, 5, 5.00000000000000000000e-01) (31, 5, 5.00000000000000000000e-01) (31, 5, 5.00000000000000000000e-01) (31, 5, 5.00000000000000000000e-01) (31, 5, 5.00000000000000000000e-01) (31, 5, 5.00000000000000000000e-01) (31, 5, 5.00000000000000000000e-01) (31, 5, 5.00000000000000000000e-01) (0, 5, 0.00000000000000000000e+00) (31, 0, 5.00000000000000000000e-01) (31, 0, 5.00000000000000000000e-01) (31, 0, 5.00000000000000000000e-01) (31, 0, 5.00000000000000000000e-01) (31, 0, 5.00000000000000000000e-01) (31, 0, 5.00000000000000000000e-01) (0, 0, 0.00000000000000000000e+00)
connections (connected_to_neuron, weight)=(0, 1.58590540289878845215e-01) (1, -4.77686338126659393311e-02) (2, -1.16242849826812744141e+00) (3, 2.13834226131439208984e-01) (4, 2.63968437910079956055e-01) (5, -1.35334357619285583496e-01) (6, 1.43808484077453613281e+00) (0, 1.02534024044871330261e-02) (1, 1.40127047896385192871e-01) (2, 8.03973793983459472656e-01) (3, -2.03192010521888732910e-01) (4, -4.36504840850830078125e-01) (5, 3.01509767770767211914e-01) (6, 7.53865361213684082031e-01) (0, 8.68145585060119628906e-01) (1, -8.45584943890571594238e-02) (2, -2.03436315059661865234e-01) (3, -4.90810543298721313477e-01) (4, 1.94069162011146545410e-01) (5, 1.73675656318664550781e-01) (6, -9.32729005813598632812e-01) (0, -2.48797178268432617188e-01) (1, -5.39302110671997070312e-01) (2, -1.73218703269958496094e+00) (3, -2.66574442386627197266e-01) (4, 1.16093762218952178955e-01) (5, 1.02090919017791748047e+00) (6, 4.43063765764236450195e-01) (0, -7.41798758506774902344e-01) (1, 2.47099846601486206055e-01) (2, 6.76831752061843872070e-02) (3, 6.35268926620483398438e-01) (4, -1.57641425728797912598e-01) (5, -8.73216316103935241699e-02) (6, -3.95253598690032958984e-01) (0, 1.22809194028377532959e-01) (1, 5.34387156367301940918e-02) (2, -3.08212846517562866211e-01) (3, -6.46898806095123291016e-01) (4, 2.49152779579162597656e-01) (5, -2.88200527429580688477e-02) (6, 8.07953298091888427734e-01) (0, 8.04795801639556884766e-01) (1, -3.91184240579605102539e-01) (2, -1.30364799499511718750e+00) (3, 2.67365038394927978516e-01) (4, -6.55220299959182739258e-02) (5, 1.40029788017272949219e-01) (6, 8.43656301498413085938e-01) (0, -7.41009041666984558105e-02) (1, -2.21236109733581542969e-01) (2, -1.31837531924247741699e-01) (3, -1.92660048604011535645e-01) (4, -1.35931134223937988281e-01) (5, 9.15143072605133056641e-01) (6, 8.89699578285217285156e-01) (0, -1.54435217380523681641e-01) (1, 2.43109121918678283691e-01) (2, 1.08411347866058349609e+00) (3, 1.73908114433288574219e-01) (4, 8.43020498752593994141e-01) (5, -2.21314877271652221680e-01) (6, 8.51583540439605712891e-01) (0, -5.19593179225921630859e-01) (1, -1.62008199840784072876e-02) (2, 2.22206056118011474609e-01) (3, 1.21154725551605224609e+00) (4, -2.80460685491561889648e-01) (5, 1.29381179809570312500e-01) (6, -1.20999312400817871094e+00) (0, 5.98915159702301025391e-01) (1, -6.46270930767059326172e-01) (2, 1.05512309074401855469e+00) (3, -7.43814557790756225586e-02) (4, 6.84183761477470397949e-02) (5, -6.18456006050109863281e-01) (6, 2.68591642379760742188e-01) (0, 1.40239551663398742676e-01) (1, -1.19526714086532592773e-01) (2, 5.66164910793304443359e-01) (3, 1.74560576677322387695e-01) (4, 3.95270228385925292969e-01) (5, 7.01020121574401855469e-01) (6, -1.05566389858722686768e-01) (0, 1.75104662775993347168e-01) (1, -5.27914986014366149902e-02) (2, -4.84298944473266601562e-01) (3, 3.82380425930023193359e-01) (4, 6.37152433395385742188e-01) (5, 9.10443544387817382812e-01) (6, -9.85385477542877197266e-01) (0, -2.52204507589340209961e-01) (1, 4.16573733091354370117e-01) (2, 5.87676942348480224609e-01) (3, -2.00119420886039733887e-01) (4, 1.25809147953987121582e-01) (5, 8.81240189075469970703e-01) (6, 6.46506965160369873047e-01) (0, 4.14536625146865844727e-01) (1, -2.36123755574226379395e-01) (2, 6.99073553085327148438e-01) (3, -1.95768289268016815186e-03) (4, 1.48800760507583618164e-01) (5, -5.06729722023010253906e-01) (6, -4.34557914733886718750e-01) (0, 1.30549132823944091797e-01) (1, 2.67090022563934326172e-01) (2, 1.64369606971740722656e+00) (3, 3.90208691358566284180e-01) (4, -5.25593012571334838867e-02) (5, 9.96459871530532836914e-02) (6, 1.18955063819885253906e+00) (0, -2.70307600498199462891e-01) (1, -1.96586817502975463867e-01) (2, -2.94787973165512084961e-01) (3, 3.30879658460617065430e-01) (4, 3.51285636425018310547e-01) (5, 6.68961415067315101624e-03) (6, 1.29216933250427246094e+00) (0, -1.73666417598724365234e-01) (1, -3.03149372339248657227e-01) (2, -1.07871603965759277344e+00) (3, -5.87182462215423583984e-01) (4, 1.74024552106857299805e-01) (5, 1.21877312660217285156e+00) (6, 8.92832100391387939453e-01) (0, 4.59195256233215332031e-01) (1, 4.71148580312728881836e-01) (2, 7.49482929706573486328e-01) (3, -1.62587687373161315918e-01) (4, -1.93857684731483459473e-01) (5, -6.96946084499359130859e-01) (6, -1.00621592998504638672e+00) (0, 3.97365957498550415039e-01) (1, -9.96510013937950134277e-02) (2, -2.38138288259506225586e-01) (3, 4.47917103767395019531e-01) (4, -4.58373695611953735352e-01) (5, -9.07639324665069580078e-01) (6, 1.54414963722229003906e+00) (0, -3.72960776090621948242e-01) (1, -4.87838387489318847656e-02) (2, 7.70245850086212158203e-01) (3, 1.19572229683399200439e-01) (4, 3.64272236824035644531e-01) (5, -2.46377959847450256348e-01) (6, 1.32386732101440429688e+00) (0, -2.72081762552261352539e-01) (1, 1.73450306057929992676e-01) (2, 8.86927366256713867188e-01) (3, -9.45105999708175659180e-02) (4, -5.31977713108062744141e-01) (5, 1.01746737957000732422e+00) (6, -2.10669100284576416016e-01) (0, 2.76585608720779418945e-01) (1, 1.83653473854064941406e+00) (2, 1.58399403095245361328e-01) (3, 5.15549443662166595459e-02) (4, 1.13001326099038124084e-02) (5, -2.37962573766708374023e-01) (6, 3.04928207397460937500e+00) (0, -4.45450097322463989258e-01) (1, 1.93861037492752075195e-01) (2, 8.28417956829071044922e-01) (3, 7.61224627494812011719e-01) (4, -4.15426492691040039062e-01) (5, -3.24144393205642700195e-01) (6, 6.34650766849517822266e-01) (0, -5.52220582962036132812e-01) (1, 3.44771981239318847656e-01) (2, 5.31720459461212158203e-01) (3, -3.54268491268157958984e-01) (4, 1.49516940116882324219e-01) (5, 9.65194329619407653809e-02) (6, 8.91476273536682128906e-01) (0, 2.23196595907211303711e-02) (1, 3.74130785465240478516e-01) (2, 6.09937608242034912109e-01) (3, 1.34816970676183700562e-02) (4, 2.24448010325431823730e-01) (5, 1.83877110481262207031e-01) (6, -3.32503706216812133789e-01) (0, 5.53314089775085449219e-01) (1, 1.94005474448204040527e-01) (2, 4.79944288730621337891e-01) (3, 1.08966581523418426514e-01) (4, 2.91563197970390319824e-02) (5, 6.11487746238708496094e-01) (6, 1.83211648464202880859e+00) (0, -5.04966795444488525391e-01) (1, -2.57344096899032592773e-01) (2, 5.26568114757537841797e-01) (3, -5.77664971351623535156e-01) (4, 2.72406544536352157593e-02) (5, 1.13801491260528564453e+00) (6, 8.71199786663055419922e-01) (0, 5.86145102977752685547e-01) (1, 2.00443919748067855835e-02) (2, 5.80052495002746582031e-01) (3, -5.57019412517547607422e-02) (4, -1.44760072231292724609e-01) (5, 1.09187252819538116455e-01) (6, 1.00073099136352539062e+00) (0, -5.61541795730590820312e-01) (1, 2.55011916160583496094e-01) (2, 2.26156398653984069824e-01) (3, 1.58137619495391845703e-01) (4, 1.59275662153959274292e-02) (5, -1.30403012037277221680e-01) (6, -7.35890150070190429688e-01) (7, -5.17221391201019287109e-01) (8, -9.89202797412872314453e-01) (9, 2.68803566694259643555e-01) (10, -1.03519225120544433594e+00) (11, 6.83500245213508605957e-02) (12, 3.61958414316177368164e-01) (13, -2.60176092386245727539e-01) (14, 6.75050258636474609375e-01) (15, -3.02539944648742675781e-01) (16, 2.86412596702575683594e-01) (17, 6.19424581527709960938e-01) (18, 6.56502902507781982422e-01) (19, 7.58856767788529396057e-03) (20, 3.64932775497436523438e-01) (21, -3.75276148319244384766e-01) (22, 1.10878653824329376221e-01) (23, 6.61650538444519042969e-01) (24, -7.01730847358703613281e-01) (25, 3.41870188713073730469e-01) (26, 3.23420554399490356445e-01) (27, -4.99932557344436645508e-01) (28, -1.03363442420959472656e+00) (29, 4.92819905281066894531e-01) (30, 6.34364426136016845703e-01) (31, -1.59511908888816833496e-01) (32, 1.30967748165130615234e+00) (33, 1.17305539548397064209e-01) (34, 1.15203678607940673828e+00) (35, 8.95122945308685302734e-01) (36, 3.35122525691986083984e-01) (37, 1.22186434268951416016e+00) (7, 1.01720714569091796875e+00) (8, 7.74552226066589355469e-01) (9, 2.07092743366956710815e-02) (10, 1.24032604694366455078e+00) (11, -1.28364935517311096191e-01) (12, -8.10046076774597167969e-01) (13, 1.19795642793178558350e-01) (14, 2.31814477592706680298e-02) (15, 5.62450408935546875000e-01) (16, -2.47104361653327941895e-01) (17, -9.98001873493194580078e-01) (18, -2.16119959950447082520e-01) (19, -1.58459357917308807373e-02) (20, -4.59044635295867919922e-01) (21, 1.05667650699615478516e+00) (22, -1.03457248210906982422e+00) (23, 5.77305734157562255859e-01) (24, 3.94331842660903930664e-01) (25, 6.89682960510253906250e-01) (26, -1.35939510073512792587e-04) (27, 7.26942047476768493652e-02) (28, 8.60128551721572875977e-03) (29, -5.59098899364471435547e-01) (30, 1.69763937592506408691e-01) (31, -1.81737333536148071289e-01) (32, -7.81691014766693115234e-01) (33, 7.35272049903869628906e-01) (34, -1.84224262833595275879e-01) (35, 9.62707102298736572266e-01) (36, -2.67800372093915939331e-02) (37, -8.17463994026184082031e-02) (7, -1.61326825618743896484e-01) (8, 3.90864163637161254883e-01) (9, 9.58127140998840332031e-01) (10, 7.34621286392211914062e-01) (11, 3.84936481714248657227e-01) (12, 8.78120899200439453125e-01) (13, -3.85514527559280395508e-01) (14, -6.31957888603210449219e-01) (15, 2.01357066631317138672e-01) (16, 1.61454498767852783203e-01) (17, -6.33580207824707031250e-01) (18, 1.60674309730529785156e+00) (19, 1.06405651569366455078e+00) (20, 9.06092524528503417969e-01) (21, 1.23851704597473144531e+00) (22, 4.56021726131439208984e-01) (23, 3.95213842391967773438e-01) (24, 3.89209926128387451172e-01) (25, 4.55855220556259155273e-01) (26, -1.27560317516326904297e+00) (27, -1.65153002738952636719e+00) (28, 5.91227076947689056396e-02) (29, -6.85410976409912109375e-01) (30, 3.24340045452117919922e-01) (31, 1.86397910118103027344e-01) (32, -8.52718174457550048828e-01) (33, -7.21702516078948974609e-01) (34, -3.12497317790985107422e-01) (35, 2.61449903249740600586e-01) (36, 1.35737121105194091797e+00) (37, -5.56348189711570739746e-02) (7, -2.15994730591773986816e-01) (8, 4.51951444149017333984e-01) (9, 6.20861768722534179688e-01) (10, 8.79048585891723632812e-01) (11, -7.28089928627014160156e-01) (12, 4.30053204298019409180e-01) (13, 1.11341595649719238281e+00) (14, -9.37951505184173583984e-02) (15, -1.32046744227409362793e-01) (16, 8.41285169124603271484e-01) (17, -4.49876457452774047852e-01) (18, -7.28259205818176269531e-01) (19, 5.24660348892211914062e-01) (20, 1.37011635303497314453e+00) (21, 1.14096856117248535156e+00) (22, -2.70820319652557373047e-01) (23, 5.05973458290100097656e-01) (24, -1.73834860324859619141e-01) (25, 1.68797075748443603516e+00) (26, 3.38226437568664550781e-01) (27, 5.97447037696838378906e-01) (28, -4.31328490376472473145e-02) (29, 5.66208362579345703125e-01) (30, -8.24370324611663818359e-01) (31, -4.43216413259506225586e-01) (32, 7.62039795517921447754e-02) (33, 2.99418836832046508789e-01) (34, 2.23865970969200134277e-01) (35, -6.78243160247802734375e-01) (36, -2.47403860092163085938e-01) (37, -5.77391088008880615234e-01) (7, 1.93108811974525451660e-01) (8, 1.96639239788055419922e-01) (9, 8.24054479598999023438e-01) (10, -3.14841538667678833008e-01) (11, 9.30270969867706298828e-01) (12, 1.14287398755550384521e-01) (13, -6.37096762657165527344e-01) (14, -2.59411722421646118164e-01) (15, 2.46771410107612609863e-01) (16, 3.35443407297134399414e-01) (17, 1.64087808132171630859e+00) (18, -1.74319297075271606445e-01) (19, 1.07761526107788085938e+00) (20, 6.19632065296173095703e-01) (21, -2.32515349984169006348e-01) (22, -9.84934389591217041016e-01) (23, -1.64648488163948059082e-01) (24, 7.01477587223052978516e-01) (25, 1.87069523334503173828e+00) (26, 1.26471117138862609863e-01) (27, 4.46382276713848114014e-02) (28, -7.23588228225708007812e-01) (29, 9.15584802627563476562e-01) (30, -4.40121054649353027344e-01) (31, 1.06303048133850097656e+00) (32, -1.31524994969367980957e-01) (33, 1.51668218895792961121e-02) (34, 4.02910500764846801758e-01) (35, 3.86175602674484252930e-01) (36, -1.01159647107124328613e-01) (37, -1.39319092035293579102e-01) (7, -6.41341447830200195312e-01) (8, 3.18290032446384429932e-02) (9, 3.78303881734609603882e-03) (10, -2.79593437910079956055e-01) (11, 4.43112254142761230469e-01) (12, 6.95164144039154052734e-01) (13, -2.28258162736892700195e-01) (14, 1.58215343952178955078e-01) (15, -4.23242971301078796387e-02) (16, 2.72929072380065917969e-01) (17, 2.63865679502487182617e-01) (18, 2.79674172401428222656e-01) (19, 6.56689167022705078125e-01) (20, -6.02108359336853027344e-01) (21, -6.63441598415374755859e-01) (22, 5.22063851356506347656e-01) (23, 6.60779535770416259766e-01) (24, 3.62201362848281860352e-01) (25, 3.14345419406890869141e-01) (26, -3.28947365283966064453e-01) (27, 5.47059535980224609375e-01) (28, -4.20617043972015380859e-01) (29, 1.19046956300735473633e-01) (30, -4.06255185604095458984e-01) (31, 5.59502422809600830078e-01) (32, 6.50016069412231445312e-01) (33, 4.62401002645492553711e-01) (34, 3.15514296293258666992e-01) (35, 1.46465408802032470703e+00) (36, 6.91393494606018066406e-01) (37, -2.26626858115196228027e-01) (7, 5.71435689926147460938e-01) (8, 2.12658420205116271973e-01) (9, 5.62863409519195556641e-01) (10, -7.79417514801025390625e-01) (11, 2.52189636230468750000e-01) (12, -6.08780654147267341614e-03) (13, 2.21351847052574157715e-01) (14, 8.87214481830596923828e-01) (15, 2.04938232898712158203e-01) (16, 1.07561266422271728516e+00) (17, 6.28912210464477539062e-01) (18, 5.64234018325805664062e-01) (19, 4.88320648670196533203e-01) (20, -1.57618895173072814941e-01) (21, 8.34639847278594970703e-01) (22, -8.72370421886444091797e-01) (23, 2.14147821068763732910e-01) (24, -8.44220519065856933594e-01) (25, -2.52037085592746734619e-02) (26, 1.16198110580444335938e+00) (27, -1.06541621685028076172e+00) (28, 2.95658051967620849609e-01) (29, 6.15580752491950988770e-02) (30, -4.81952339410781860352e-01) (31, 7.97481179237365722656e-01) (32, 4.38701331615447998047e-01) (33, 8.87430310249328613281e-01) (34, -7.24590063095092773438e-01) (35, 6.44662559032440185547e-01) (36, 6.22354805469512939453e-01) (37, 7.59631022810935974121e-02) (7, 1.06990170478820800781e+00) (8, -1.72705724835395812988e-01) (9, 1.16024506092071533203e+00) (10, 1.93033233284950256348e-01) (11, 6.66721582412719726562e-01) (12, 1.85937571525573730469e+00) (13, 1.81786394119262695312e+00) (14, 5.47729909420013427734e-01) (15, 2.14729368686676025391e-01) (16, 1.23258799314498901367e-01) (17, 5.45276582241058349609e-01) (18, 7.08903431892395019531e-01) (19, 7.66403794288635253906e-01) (20, 6.11748933792114257812e-01) (21, 2.58021235466003417969e-01) (22, 6.39247596263885498047e-01) (23, 5.13041555881500244141e-01) (24, 7.90613651275634765625e-01) (25, -5.25314569473266601562e-01) (26, 4.02013570070266723633e-01) (27, 5.67782700061798095703e-01) (28, 1.11531162261962890625e+00) (29, -2.92810965329408645630e-02) (30, 1.25207579135894775391e+00) (31, 3.00664514303207397461e-01) (32, -5.95789216458797454834e-02) (33, -2.18880653381347656250e-01) (34, 4.96617943048477172852e-01) (35, -2.13228553533554077148e-01) (36, 2.12029290199279785156e+00) (37, 6.54309391975402832031e-01) (7, 1.42910444736480712891e+00) (8, 6.11110746860504150391e-01) (9, 1.35767114162445068359e+00) (10, -6.49113282561302185059e-02) (11, -4.23295974731445312500e-01) (12, 2.57965147495269775391e-01) (13, 3.15423518419265747070e-01) (14, -1.85320720076560974121e-01) (15, 3.67512404918670654297e-01) (16, 7.83720076084136962891e-01) (17, 1.48125922679901123047e+00) (18, -2.13368439674377441406e+00) (19, -8.64795446395874023438e-01) (20, 5.38095176219940185547e-01) (21, 4.01158839464187622070e-01) (22, -2.16499641537666320801e-01) (23, 1.54005455970764160156e+00) (24, 1.18071579933166503906e+00) (25, 5.87751090526580810547e-01) (26, 4.73940789699554443359e-01) (27, 2.03955841064453125000e+00) (28, -2.27101421356201171875e+00) (29, 7.83155977725982666016e-01) (30, 1.32341372966766357422e+00) (31, 1.14221227169036865234e+00) (32, 3.72894108295440673828e-01) (33, 4.00608032941818237305e-01) (34, -2.31471031904220581055e-01) (35, -3.85861545801162719727e-01) (36, 7.82989084720611572266e-01) (37, 5.35831391811370849609e-01) (7, -2.76139974594116210938e-01) (8, -7.70127624273300170898e-02) (9, -3.09673488140106201172e-01) (10, 1.22387015819549560547e+00) (11, 6.00241780281066894531e-01) (12, 7.12688982486724853516e-01) (13, 1.21142528951168060303e-01) (14, 3.88065814971923828125e-01) (15, -3.80367696285247802734e-01) (16, -9.06656563282012939453e-01) (17, -1.57132521271705627441e-01) (18, 1.28605461120605468750e+00) (19, -1.91313758492469787598e-01) (20, 6.36617600917816162109e-01) (21, -7.31977880001068115234e-01) (22, 9.36956226825714111328e-01) (23, 4.88642096519470214844e-01) (24, -8.03543329238891601562e-01) (25, -1.85057763010263442993e-02) (26, -8.03800582885742187500e-01) (27, 1.22860896587371826172e+00) (28, -3.92658531665802001953e-01) (29, -2.44556382298469543457e-01) (30, 3.89456003904342651367e-02) (31, -1.25743353366851806641e+00) (32, 9.34318006038665771484e-01) (33, 9.71577703952789306641e-01) (34, 5.80362737178802490234e-01) (35, 2.17496499419212341309e-01) (36, 9.67243373394012451172e-01) (37, 1.80138003826141357422e+00) (7, -1.58692061901092529297e-01) (8, -4.94091272354125976562e-01) (9, -5.11230885982513427734e-01) (10, 4.85241711139678955078e-01) (11, -2.33195289969444274902e-01) (12, 9.31241989135742187500e-01) (13, 5.06032526493072509766e-01) (14, -4.72716331481933593750e-01) (15, -3.28661352396011352539e-01) (16, 7.67992734909057617188e-01) (17, 1.06306004524230957031e+00) (18, -5.73502600193023681641e-01) (19, -3.51905047893524169922e-01) (20, -7.41778314113616943359e-01) (21, -2.22033321857452392578e-01) (22, -7.60791301727294921875e-02) (23, -6.49599373340606689453e-01) (24, 3.01872962154448032379e-03) (25, 1.00627470016479492188e+00) (26, -8.18026065826416015625e-01) (27, 1.27592748031020164490e-02) (28, 4.02329474687576293945e-01) (29, 5.89399397373199462891e-01) (30, 1.23690140247344970703e+00) (31, 1.04759371280670166016e+00) (32, -3.24940890073776245117e-01) (33, 3.70072811841964721680e-01) (34, 2.10832491517066955566e-01) (35, -8.91938135027885437012e-02) (36, 6.91615402698516845703e-01) (37, -1.93567723035812377930e-01) (7, -2.85740662366151809692e-02) (8, 6.97961986064910888672e-01) (9, 1.15334939956665039062e+00) (10, 8.99426937103271484375e-01) (11, 1.00162172317504882812e+00) (12, 1.21420693397521972656e+00) (13, 1.50187849998474121094e-01) (14, -3.98752242326736450195e-01) (15, 1.25429201126098632812e+00) (16, -6.06416836380958557129e-02) (17, -2.72123534232378005981e-02) (18, -4.88156884908676147461e-01) (19, 5.68334162235260009766e-01) (20, -8.97264063358306884766e-01) (21, 1.05048608779907226562e+00) (22, 2.43056610226631164551e-01) (23, 4.78455364704132080078e-01) (24, 4.54055994749069213867e-01) (25, 4.38971251249313354492e-01) (26, 7.11076319217681884766e-01) (27, -3.60482543706893920898e-01) (28, -1.17819762229919433594e+00) (29, -2.13978067040443420410e-01) (30, -3.02346378564834594727e-01) (31, 4.21230584383010864258e-01) (32, 5.89904069900512695312e-01) (33, 1.40309855341911315918e-02) (34, 8.61567556858062744141e-01) (35, -8.87140929698944091797e-01) (36, 8.33737373352050781250e-01) (37, -1.22923597693443298340e-01) (7, -8.80211234092712402344e-01) (8, 3.37691307067871093750e-01) (9, 3.13905864953994750977e-01) (10, -1.29861444234848022461e-01) (11, -1.04738831520080566406e-01) (12, 5.44710338115692138672e-01) (13, -4.30956929922103881836e-01) (14, 5.82274317741394042969e-01) (15, 4.75763082504272460938e-01) (16, 3.24833750724792480469e-01) (17, 6.17964565753936767578e-01) (18, 6.16331458091735839844e-01) (19, -1.01576161384582519531e+00) (20, 6.62198424339294433594e-01) (21, -8.82312715053558349609e-01) (22, -7.20815777778625488281e-01) (23, -6.83856546878814697266e-01) (24, 9.73440051078796386719e-01) (25, 3.17270696163177490234e-01) (26, -1.11805331707000732422e+00) (27, -1.28602594137191772461e-01) (28, -3.46881479024887084961e-01) (29, 2.94402062892913818359e-01) (30, 1.85003697872161865234e+00) (31, 7.12610781192779541016e-01) (32, -1.09677255153656005859e-01) (33, -6.80308192968368530273e-02) (34, 5.68536400794982910156e-01) (35, -4.84845191240310668945e-01) (36, 2.77878880500793457031e-01) (37, -6.02708816528320312500e-01) (7, 1.07702291011810302734e+00) (8, 1.62100449204444885254e-01) (9, -3.26020598411560058594e-01) (10, -5.08179664611816406250e-01) (11, -8.98275151848793029785e-02) (12, 9.82443034648895263672e-01) (13, 7.09016263484954833984e-01) (14, 7.64142334461212158203e-01) (15, -4.87537741661071777344e-01) (16, 5.97505867481231689453e-01) (17, -3.39801162481307983398e-01) (18, -7.76358172297477722168e-02) (19, -8.53678226470947265625e-01) (20, -5.94342350959777832031e-01) (21, 1.09273183345794677734e+00) (22, -1.42137324810028076172e+00) (23, 1.45789563655853271484e-01) (24, 3.51309701800346374512e-02) (25, 1.03892970085144042969e+00) (26, 1.42670139670372009277e-01) (27, -1.28038868308067321777e-01) (28, 6.24714434146881103516e-01) (29, 6.38988435268402099609e-01) (30, -7.80929803848266601562e-01) (31, 5.49909830093383789062e-01) (32, 3.84953826665878295898e-01) (33, 5.86491823196411132812e-01) (34, 7.40256682038307189941e-02) (35, 9.38193678855895996094e-01) (36, -6.98928475379943847656e-01) (37, -1.47290647029876708984e-01) (7, -6.00193440914154052734e-01) (8, -6.30214214324951171875e-01) (9, 9.79580506682395935059e-02) (10, 5.80247901380062103271e-02) (11, 6.24041855335235595703e-01) (12, -8.11255753040313720703e-01) (13, 6.90850734710693359375e-01) (14, 1.07687616348266601562e+00) (15, 9.14942502975463867188e-01) (16, -1.34211480617523193359e-01) (17, 5.54303586483001708984e-01) (18, -4.14534181356430053711e-01) (19, 1.39612108469009399414e-01) (20, 4.08429801464080810547e-01) (21, -1.26456701755523681641e+00) (22, 6.63658618927001953125e-01) (23, -1.10489153861999511719e+00) (24, 9.00971889495849609375e-01) (25, -4.77988898754119873047e-01) (26, 7.07753837108612060547e-01) (27, -1.99059844017028808594e-01) (28, -6.05089515447616577148e-02) (29, 8.41015279293060302734e-02) (30, -2.07500196993350982666e-02) (31, 1.43938958644866943359e+00) (32, -2.27915310859680175781e+00) (33, 6.95982813835144042969e-01) (34, -1.15187875926494598389e-01) (35, -3.32495421171188354492e-01) (36, 5.61331994831562042236e-02) (37, 1.24019300937652587891e+00) (7, -1.04830972850322723389e-01) (8, -3.06106060743331909180e-02) (9, -9.04542207717895507812e-03) (10, 8.38779389858245849609e-01) (11, -2.41775408387184143066e-01) (12, -1.33703064918518066406e+00) (13, 4.38143461942672729492e-01) (14, -1.04889445006847381592e-01) (15, 5.37246942520141601562e-01) (16, -5.94121217727661132812e-01) (17, -7.08599567413330078125e-01) (18, 4.26547557115554809570e-01) (19, -1.17507003247737884521e-01) (20, 1.63729488849639892578e+00) (21, 1.03297755122184753418e-01) (22, -9.93283987045288085938e-01) (23, -1.99001833796501159668e-01) (24, 5.36009967327117919922e-01) (25, 1.39490589499473571777e-01) (26, 1.88386678695678710938e+00) (27, 8.31337630748748779297e-01) (28, 1.05577421188354492188e+00) (29, -9.08786132931709289551e-02) (30, -5.62342822551727294922e-01) (31, 6.81656360626220703125e-01) (32, -1.29881453514099121094e+00) (33, -1.17055326700210571289e-01) (34, -1.17350387573242187500e+00) (35, 9.20243561267852783203e-01) (36, -1.40487694740295410156e+00) (37, 1.42242801189422607422e+00) (7, -6.70951962471008300781e-01) (8, 2.72720485925674438477e-01) (9, 1.44039332866668701172e-01) (10, -5.56243121623992919922e-01) (11, 1.95523902773857116699e-01) (12, 5.95442056655883789062e-01) (13, 4.90864306688308715820e-01) (14, -3.77244055271148681641e-01) (15, -4.00054067373275756836e-01) (16, 7.14574277400970458984e-01) (17, 8.26161682605743408203e-01) (18, -4.53611403703689575195e-01) (19, 3.12626451253890991211e-01) (20, 1.33970648050308227539e-01) (21, 1.10526657104492187500e+00) (22, -7.43933677673339843750e-01) (23, -3.54274690151214599609e-01) (24, 4.93745833635330200195e-01) (25, 1.33256852626800537109e+00) (26, 1.03461496531963348389e-01) (27, 2.90783286094665527344e-01) (28, -3.80757711827754974365e-02) (29, 1.03610455989837646484e+00) (30, 7.10499107837677001953e-01) (31, -4.36244398355484008789e-01) (32, 9.24275755882263183594e-01) (33, 4.58865970373153686523e-01) (34, 2.00499333441257476807e-02) (35, 1.12996172904968261719e+00) (36, 1.23090362548828125000e+00) (37, -8.26528251171112060547e-01) (7, -8.11377942562103271484e-01) (8, -1.21112132072448730469e+00) (9, 9.37238037586212158203e-01) (10, -8.47003757953643798828e-02) (11, 3.97835850715637207031e-01) (12, -3.32118272781372070312e-01) (13, 1.05792605876922607422e+00) (14, 9.83324170112609863281e-01) (15, -4.40435945987701416016e-01) (16, 4.60123389959335327148e-01) (17, -7.57980704307556152344e-01) (18, -1.18345469236373901367e-01) (19, 2.91284918785095214844e-01) (20, 4.44064110517501831055e-01) (21, -9.84930992126464843750e-02) (22, 6.02634370326995849609e-01) (23, -6.60181278362870216370e-03) (24, 4.05927933752536773682e-02) (25, 1.65403291583061218262e-01) (26, 1.02036539465188980103e-02) (27, -4.08029794692993164062e-01) (28, -8.47372889518737792969e-01) (29, -3.46077471971511840820e-01) (30, 1.75941869616508483887e-01) (31, -3.67797732353210449219e-01) (32, -6.15835070610046386719e-01) (33, 6.88713192939758300781e-02) (34, 8.81472766399383544922e-01) (35, -6.90937697887420654297e-01) (36, 3.57713997364044189453e-01) (37, -8.22828114032745361328e-01) (7, -1.63515543937683105469e+00) (8, -7.29342922568321228027e-02) (9, 1.30780148506164550781e+00) (10, 2.42784470319747924805e-01) (11, -3.49470943212509155273e-01) (12, 7.07110166549682617188e-01) (13, -3.54628860950469970703e-01) (14, -7.66684532165527343750e-01) (15, -2.90378600358963012695e-01) (16, 8.83522853255271911621e-02) (17, -6.66001200675964355469e-01) (18, 7.70052134990692138672e-01) (19, 2.39787295460700988770e-01) (20, -2.84029275178909301758e-01) (21, -5.94523251056671142578e-01) (22, -4.63871926069259643555e-01) (23, 1.02790296077728271484e+00) (24, 1.06237232685089111328e+00) (25, 6.00217580795288085938e-01) (26, 5.15607632696628570557e-02) (27, 6.51096165180206298828e-01) (28, -3.75197790563106536865e-02) (29, 2.81277209520339965820e-01) (30, 8.85797068476676940918e-02) (31, 3.31646949052810668945e-01) (32, 6.38232752680778503418e-02) (33, 2.23706692457199096680e-01) (34, -3.49713146686553955078e-01) (35, 6.75432264804840087891e-01) (36, -7.28254718706011772156e-03) (37, 1.34625911712646484375e+00) (7, 7.63516426086425781250e-01) (8, -4.54246848821640014648e-01) (9, -2.76263281702995300293e-02) (10, -1.11058092117309570312e+00) (11, -9.85051617026329040527e-02) (12, -2.59515404701232910156e-01) (13, -4.64295595884323120117e-01) (14, 2.12957113981246948242e-01) (15, 9.49275046586990356445e-02) (16, -6.71462059020996093750e-01) (17, 5.99826931953430175781e-01) (18, -8.75692963600158691406e-01) (19, -5.28233110904693603516e-01) (20, -8.66619765758514404297e-01) (21, 1.10103644430637359619e-01) (22, 8.27285587787628173828e-01) (23, 8.62920641899108886719e-01) (24, 9.95759725570678710938e-01) (25, 6.52100861072540283203e-01) (26, -1.73605568706989288330e-02) (27, 4.34474200010299682617e-01) (28, 8.47088754177093505859e-01) (29, 3.98088574409484863281e-01) (30, 6.56325995922088623047e-01) (31, 1.08582481741905212402e-01) (32, 3.01878061145544052124e-02) (33, -8.11256527900695800781e-01) (34, 5.80545142292976379395e-02) (35, -3.31962525844573974609e-01) (36, 1.12567633390426635742e-01) (37, -3.60052913427352905273e-01) (7, -8.33738386631011962891e-01) (8, 8.46265196800231933594e-01) (9, 7.83291459083557128906e-01) (10, 1.10758110880851745605e-01) (11, -2.09338128566741943359e-01) (12, 3.92711013555526733398e-01) (13, -6.00412130355834960938e-01) (14, -6.08375705778598785400e-02) (15, -3.34777891635894775391e-01) (16, 2.30351984500885009766e-01) (17, -1.18756651878356933594e-01) (18, 4.95392769575119018555e-01) (19, 7.29996562004089355469e-01) (20, 1.46584391593933105469e-01) (21, 2.53202915191650390625e+00) (22, 7.45744407176971435547e-01) (23, -7.31180369853973388672e-01) (24, -8.17735970020294189453e-01) (25, 9.90677833557128906250e-01) (26, -5.26525199413299560547e-01) (27, 7.97800481319427490234e-01) (28, -6.69416427612304687500e-01) (29, 7.66097307205200195312e-01) (30, 8.48843991756439208984e-01) (31, 6.24751210212707519531e-01) (32, 1.02569627761840820312e+00) (33, -1.61514782905578613281e+00) (34, -3.16703855991363525391e-01) (35, 6.28815293312072753906e-01) (36, 1.19225835800170898438e+00) (37, -3.90660464763641357422e-01) (7, 1.23861777782440185547e+00) (8, 7.59473562240600585938e-01) (9, 2.50727832317352294922e-01) (10, 2.32126975059509277344e+00) (11, 6.02954506874084472656e-01) (12, 1.09984421730041503906e+00) (13, 4.42077636718750000000e-01) (14, -3.78291696310043334961e-01) (15, 1.52518057823181152344e+00) (16, 1.17465102672576904297e+00) (17, -2.03587114810943603516e-01) (18, -2.08464577794075012207e-01) (19, 1.05899192392826080322e-01) (20, -6.26659631729125976562e-01) (21, -1.25746762752532958984e+00) (22, -2.02932253479957580566e-01) (23, -6.64267223328351974487e-03) (24, 2.81995028257369995117e-01) (25, 3.00353378057479858398e-01) (26, -1.02413007989525794983e-02) (27, -1.16213463246822357178e-01) (28, -2.77301847934722900391e-01) (29, -1.45761203765869140625e+00) (30, -5.02962410449981689453e-01) (31, -8.99834871292114257812e-01) (32, -1.42674177885055541992e-01) (33, 1.27533404156565666199e-03) (34, -4.71838325262069702148e-01) (35, 4.82395514845848083496e-02) (36, -8.04143965244293212891e-01) (37, 4.29042249917984008789e-01) (7, 5.18141806125640869141e-01) (8, 9.16179835796356201172e-01) (9, 2.49939605593681335449e-01) (10, -1.02682597935199737549e-01) (11, -4.20007407665252685547e-02) (12, 1.80933833122253417969e+00) (13, 5.90722739696502685547e-01) (14, 5.15592455863952636719e-01) (15, 9.80290770530700683594e-01) (16, 1.25889039039611816406e+00) (17, 1.17012128233909606934e-01) (18, -8.26459348201751708984e-01) (19, 5.12295186519622802734e-01) (20, 2.65410572290420532227e-01) (21, -7.34345555305480957031e-01) (22, -3.97749274969100952148e-01) (23, 8.68071854114532470703e-01) (24, 1.48158445954322814941e-01) (25, 2.17993068695068359375e+00) (26, 2.57766872644424438477e-01) (27, -4.54166740179061889648e-01) (28, -1.38894712924957275391e+00) (29, -1.34359097480773925781e+00) (30, 2.60235369205474853516e-01) (31, -4.46051694452762603760e-02) (32, -1.79773032665252685547e+00) (33, -1.12524829804897308350e-01) (34, -6.98107779026031494141e-01) (35, 1.27459990978240966797e+00) (36, -4.70003515481948852539e-01) (37, 1.68184936046600341797e+00) (7, -1.32939338684082031250e-01) (8, -1.95812314748764038086e-01) (9, 6.17159843444824218750e-01) (10, 3.16715061664581298828e-01) (11, -3.31154257059097290039e-01) (12, -1.24209493398666381836e-01) (13, -7.57840752601623535156e-01) (14, 1.02322816848754882812e+00) (15, -4.21340130269527435303e-02) (16, 2.59011656045913696289e-01) (17, -1.01346194744110107422e-01) (18, -5.57732701301574707031e-01) (19, -8.94764423370361328125e-01) (20, -1.60186961293220520020e-01) (21, -6.31017163395881652832e-02) (22, 6.13885045051574707031e-01) (23, 1.12653166055679321289e-01) (24, 1.50120615959167480469e-01) (25, -1.29291653633117675781e-01) (26, 1.17294204235076904297e+00) (27, 2.27007061243057250977e-01) (28, 1.14118158817291259766e+00) (29, 5.37354350090026855469e-01) (30, 3.81800651550292968750e-01) (31, 1.77709594368934631348e-01) (32, -2.87546128034591674805e-01) (33, 3.09235990047454833984e-01) (34, 1.75463438034057617188e-01) (35, -1.00847631692886352539e-01) (36, 1.25966227054595947266e+00) (37, -3.54669958353042602539e-01) (7, 2.45677471160888671875e-01) (8, 7.79309153556823730469e-01) (9, 3.29974628984928131104e-02) (10, -1.10490143299102783203e+00) (11, -2.72895842790603637695e-01) (12, 3.62597972154617309570e-01) (13, -1.17057228088378906250e+00) (14, 1.01157879829406738281e+00) (15, -3.51425558328628540039e-02) (16, -3.34063857793807983398e-01) (17, 1.98212072253227233887e-01) (18, -9.93976593017578125000e-01) (19, -9.28101614117622375488e-02) (20, 4.36124056577682495117e-01) (21, 2.52195906639099121094e+00) (22, -3.53314906358718872070e-01) (23, -3.42734634876251220703e-01) (24, -9.13604199886322021484e-01) (25, 9.41464364528656005859e-01) (26, -2.30532079935073852539e-01) (27, -5.61048567295074462891e-01) (28, 7.17083215713500976562e-01) (29, 9.07607316970825195312e-01) (30, 2.26436287164688110352e-01) (31, -1.03619611263275146484e+00) (32, -4.72994118928909301758e-01) (33, -8.52772355079650878906e-01) (34, -3.32440048456192016602e-01) (35, -1.26925468444824218750e-01) (36, 2.68571287393569946289e-01) (37, -9.32310521602630615234e-03) (7, -4.63695585727691650391e-01) (8, -1.87900364398956298828e+00) (9, 1.07859873771667480469e+00) (10, 5.21986067295074462891e-01) (11, 1.54111027717590332031e-01) (12, -1.06253877282142639160e-01) (13, 1.07660913467407226562e+00) (14, -5.93235909938812255859e-01) (15, -8.26566293835639953613e-02) (16, 1.72493457794189453125e+00) (17, -2.76214897632598876953e-01) (18, 3.04983794689178466797e-01) (19, 5.81474959850311279297e-01) (20, -3.86671066284179687500e-01) (21, 4.03292030096054077148e-01) (22, -1.63892865180969238281e-01) (23, 6.88560962677001953125e-01) (24, -3.53893280029296875000e-01) (25, 1.58747744560241699219e+00) (26, -1.09902977943420410156e+00) (27, 5.35944521427154541016e-01) (28, -1.40718072652816772461e-01) (29, 6.54767453670501708984e-01) (30, -3.14928978681564331055e-01) (31, -7.53562808036804199219e-01) (32, -2.65837520360946655273e-01) (33, 8.27289447188377380371e-02) (34, 5.81172287464141845703e-01) (35, 4.31101471185684204102e-02) (36, 8.06249380111694335938e-01) (37, -6.30245149135589599609e-01) (7, 1.70199394226074218750e-01) (8, -5.82760684192180633545e-02) (9, 1.75142124295234680176e-01) (10, -5.57678699493408203125e-01) (11, -4.73895341157913208008e-01) (12, 1.66418954730033874512e-01) (13, 8.07593345642089843750e-01) (14, -1.34466558694839477539e-01) (15, 6.79548799991607666016e-01) (16, -1.19856789708137512207e-01) (17, 4.85374867916107177734e-01) (18, 4.50811833143234252930e-01) (19, 6.17285966873168945312e-01) (20, 2.54417240619659423828e-01) (21, 4.37230885028839111328e-01) (22, -1.81943744421005249023e-01) (23, 4.28484410047531127930e-01) (24, -1.07714943587779998779e-01) (25, 5.57749569416046142578e-01) (26, 4.97743561863899230957e-02) (27, 7.22905874252319335938e-01) (28, -1.45553970336914062500e+00) (29, 5.51891744136810302734e-01) (30, -2.35779374837875366211e-01) (31, 8.94971251487731933594e-01) (32, -1.68648600578308105469e-01) (33, 3.74572932720184326172e-01) (34, -4.17960524559020996094e-01) (35, -1.00394213199615478516e+00) (36, -1.10848791897296905518e-01) (37, 1.07619702816009521484e+00) (7, -3.94690483808517456055e-02) (8, -4.08360630273818969727e-01) (9, 5.05564391613006591797e-01) (10, -3.26853990554809570312e-01) (11, -1.81310787796974182129e-01) (12, 6.70634269714355468750e-01) (13, -3.84193450212478637695e-01) (14, -1.35395377874374389648e-01) (15, 3.64437729120254516602e-01) (16, 9.68014478683471679688e-01) (17, -1.65469706058502197266e-01) (18, -7.53823459148406982422e-01) (19, -7.75798618793487548828e-01) (20, -7.00325310230255126953e-01) (21, 2.04063653945922851562e-01) (22, 6.10697090625762939453e-01) (23, 5.51933825016021728516e-01) (24, 8.05698037147521972656e-01) (25, -1.57793387770652770996e-01) (26, -8.41067824512720108032e-03) (27, 8.11457261443138122559e-02) (28, 4.17886897921562194824e-02) (29, 5.33508896827697753906e-01) (30, 7.39223897457122802734e-01) (31, 6.64128303527832031250e-01) (32, -3.02165746688842773438e-01) (33, 2.19697728753089904785e-01) (34, -1.73952683806419372559e-01) (35, -4.34397578239440917969e-01) (36, -3.45563190057873725891e-03) (37, 2.48627424240112304688e-01) (7, 3.58162164688110351562e-01) (8, -5.57195067405700683594e-01) (9, -1.43559470772743225098e-01) (10, -1.02940702438354492188e+00) (11, 8.01964700222015380859e-01) (12, -1.71172225475311279297e+00) (13, -1.05357718467712402344e+00) (14, -7.50669121742248535156e-01) (15, 4.26023751497268676758e-02) (16, -6.06318652629852294922e-01) (17, 5.08711934089660644531e-01) (18, 4.18796718120574951172e-01) (19, 6.56656801700592041016e-01) (20, -4.84178304672241210938e-01) (21, 3.55461716651916503906e-01) (22, 1.82013869285583496094e-01) (23, 6.57034516334533691406e-01) (24, 1.93947643041610717773e-01) (25, 4.08892512321472167969e-01) (26, -2.17250490188598632812e+00) (27, 5.52038550376892089844e-01) (28, 2.51873421669006347656e+00) (29, 1.93997472524642944336e-01) (30, -1.15605004131793975830e-01) (31, 1.08220529556274414062e+00) (32, 9.90450978279113769531e-01) (33, 4.00752425193786621094e-01) (34, 3.50131899118423461914e-01) (35, -5.98987936973571777344e-01) (36, 3.44659425318241119385e-02) (37, 6.51708424091339111328e-01) (7, -5.06817042827606201172e-01) (8, -1.39412569999694824219e+00) (9, 1.13961803913116455078e+00) (10, -1.21031023561954498291e-01) (11, 1.18406569957733154297e+00) (12, 9.28812742233276367188e-01) (13, 4.73364591598510742188e-01) (14, 6.91795587539672851562e-01) (15, 5.40102779865264892578e-01) (16, 1.80945968627929687500e+00) (17, -1.01228483021259307861e-01) (18, 3.99782776832580566406e-01) (19, 1.48934811353683471680e-01) (20, 6.68277502059936523438e-01) (21, 5.19412122666835784912e-02) (22, 7.88263678550720214844e-01) (23, 1.80674135684967041016e-01) (24, 1.05560672283172607422e+00) (25, 6.14918529987335205078e-01) (26, 6.07746243476867675781e-01) (27, -4.40574169158935546875e-01) (28, -5.13101458549499511719e-01) (29, -4.71899747848510742188e-01) (30, 2.16012090444564819336e-01) (31, -8.33746850490570068359e-01) (32, 4.56371188163757324219e-01) (33, -1.51376187801361083984e-01) (34, 2.90441662073135375977e-01) (35, -8.55494856834411621094e-01) (36, 3.08133095502853393555e-01) (37, -1.07904827594757080078e+00) (38, 2.14414492249488830566e-01) (39, -9.77288261055946350098e-02) (40, -5.70288300514221191406e-01) (41, 8.73640179634094238281e-01) (42, -2.65178263187408447266e-01) (43, -8.54460671544075012207e-02) (44, 4.55680698156356811523e-01) (45, 4.11262810230255126953e-02) (46, 8.66679131984710693359e-01) (47, -6.72781348228454589844e-01) (48, 1.29693007469177246094e+00) (49, 2.56687611341476440430e-01) (50, 7.54096448421478271484e-01) (51, 1.55687820911407470703e+00) (52, -1.04405693709850311279e-01) (53, 7.71110653877258300781e-01) (54, -1.06527954339981079102e-01) (55, -3.28455679118633270264e-02) (56, -2.28850349783897399902e-01) (57, 1.14945697784423828125e+00) (58, 1.73843872547149658203e+00) (59, -7.44696974754333496094e-01) (60, -3.82506877183914184570e-01) (61, -1.52438426017761230469e+00) (62, 1.80453896522521972656e-01) (63, -2.79886782169342041016e-01) (64, 3.62345904111862182617e-01) (65, -3.64891469478607177734e-01) (66, -2.86585032939910888672e-01) (67, -7.96318948268890380859e-01) (68, -1.07284814119338989258e-01) (38, 5.23695647716522216797e-01) (39, 1.01464140415191650391e+00) (40, -2.33388617634773254395e-01) (41, 4.49896246194839477539e-01) (42, -1.40185499191284179688e+00) (43, -6.71755135059356689453e-01) (44, -1.35980546474456787109e+00) (45, -6.67394161224365234375e-01) (46, 4.91416215896606445312e-01) (47, 3.73970866203308105469e-01) (48, 5.71091473102569580078e-01) (49, -6.05165898799896240234e-01) (50, 5.77868878841400146484e-01) (51, -8.59499633312225341797e-01) (52, 7.34824478626251220703e-01) (53, -6.24704599380493164062e-01) (54, -2.11869418621063232422e-01) (55, -5.48650383949279785156e-01) (56, 7.04792082309722900391e-01) (57, -1.11932384967803955078e+00) (58, 6.03242516517639160156e-01) (59, 1.38002836704254150391e+00) (60, 4.79481309652328491211e-01) (61, -2.09607988595962524414e-01) (62, -4.67416137456893920898e-01) (63, 1.52513909339904785156e+00) (64, 1.39864456653594970703e+00) (65, -6.56834483146667480469e-01) (66, 1.44762888550758361816e-01) (67, 3.19239914417266845703e-01) (68, -5.46965241432189941406e-01) (38, -5.47590017318725585938e-01) (39, 1.40154552459716796875e+00) (40, 9.95743453502655029297e-01) (41, 7.59556889533996582031e-01) (42, -7.12512075901031494141e-01) (43, 1.83198547363281250000e+00) (44, 4.62805211544036865234e-01) (45, -2.41255655884742736816e-01) (46, 5.40985167026519775391e-01) (47, -2.19877302646636962891e-01) (48, 2.62238174676895141602e-01) (49, 3.99355173110961914062e-01) (50, 1.16081047058105468750e+00) (51, 1.61703117191791534424e-03) (52, 1.49822756648063659668e-01) (53, 7.53159999847412109375e-01) (54, -1.22718048095703125000e+00) (55, 1.10921871662139892578e+00) (56, 2.13227003812789916992e-01) (57, 1.18904314935207366943e-01) (58, -9.45016592741012573242e-02) (59, 4.33364957571029663086e-01) (60, -5.32194897532463073730e-02) (61, 7.23244726657867431641e-01) (62, 2.31387451291084289551e-01) (63, -1.62745505571365356445e-01) (64, 5.65498232841491699219e-01) (65, 4.32248860597610473633e-01) (66, 4.54785764217376708984e-01) (67, 8.65565061569213867188e-01) (68, -9.10455286502838134766e-01) (38, 3.17586153745651245117e-01) (39, 9.11187529563903808594e-01) (40, 8.44749987125396728516e-01) (41, -2.94953793287277221680e-01) (42, 1.04131448268890380859e+00) (43, 7.31041014194488525391e-01) (44, -7.51556873321533203125e-01) (45, -1.72481715679168701172e-01) (46, 6.25717997550964355469e-01) (47, -7.54558384418487548828e-01) (48, 1.86701081693172454834e-02) (49, -3.28934103250503540039e-01) (50, 4.81198191642761230469e-01) (51, -6.32039904594421386719e-01) (52, 1.24211716651916503906e+00) (53, -4.04585003852844238281e-02) (54, -2.44713231921195983887e-01) (55, 3.63540142774581909180e-01) (56, -5.18308579921722412109e-01) (57, -7.71385669708251953125e-01) (58, -6.84251546859741210938e-01) (59, 7.64927804470062255859e-01) (60, 5.74770234525203704834e-02) (61, 7.40864217281341552734e-01) (62, -3.16362202167510986328e-01) (63, -1.44195035099983215332e-01) (64, 3.22323679924011230469e-01) (65, 2.40403153002262115479e-02) (66, 2.46964350342750549316e-01) (67, -1.33617192506790161133e-01) (68, -1.50525616481900215149e-02) (38, 6.60404145717620849609e-01) (39, 6.75133541226387023926e-02) (40, -6.43026173114776611328e-01) (41, 6.54353797435760498047e-01) (42, -7.82956123352050781250e-01) (43, -2.72204220294952392578e-01) (44, 1.08049547672271728516e+00) (45, -2.33597353100776672363e-01) (46, 2.60003674775362014771e-02) (47, -2.75454729795455932617e-01) (48, 3.11188489198684692383e-01) (49, 1.49262741208076477051e-01) (50, -6.72164261341094970703e-01) (51, 1.86511576175689697266e-01) (52, -3.98289471864700317383e-01) (53, 2.79718220233917236328e-01) (54, -7.58027553558349609375e-01) (55, 3.31813573837280273438e-01) (56, -3.44204217195510864258e-01) (57, 6.85926005244255065918e-02) (58, 6.94533586502075195312e-01) (59, 1.45044612884521484375e+00) (60, 2.42906734347343444824e-01) (61, 1.02243638038635253906e+00) (62, -6.76686823368072509766e-01) (63, 1.10367858409881591797e+00) (64, -2.08986043930053710938e-01) (65, 1.84666946530342102051e-01) (66, 1.19863831996917724609e+00) (67, 3.20658397674560546875e+00) (68, -3.43811303377151489258e-01) (38, 2.91944116353988647461e-01) (39, 1.40139114856719970703e+00) (40, 4.83245581388473510742e-01) (41, -2.06736519932746887207e-01) (42, -5.68042576313018798828e-01) (43, 4.08373624086380004883e-01) (44, 2.29544922709465026855e-01) (45, -5.46531975269317626953e-02) (46, -3.98325413465499877930e-01) (47, 3.05844336748123168945e-01) (48, -5.90219438076019287109e-01) (49, 5.71123778820037841797e-01) (50, -4.20552670955657958984e-01) (51, 7.18101978302001953125e-01) (52, 5.60868024826049804688e-01) (53, -9.12303924560546875000e-01) (54, 5.10106146335601806641e-01) (55, 3.69761228561401367188e-01) (56, 3.21071803569793701172e-01) (57, -1.76731884479522705078e-01) (58, -7.23043501377105712891e-01) (59, 2.22186669707298278809e-01) (60, 4.31521326303482055664e-01) (61, 1.31469237804412841797e+00) (62, 8.39678943157196044922e-02) (63, -3.18622529506683349609e-01) (64, -3.08259159326553344727e-01) (65, -1.44333960488438606262e-02) (66, -3.17415446043014526367e-01) (67, 8.94934415817260742188e-01) (68, -5.41134476661682128906e-01) (38, -8.53151381015777587891e-02) (39, 2.82552927732467651367e-01) (40, -6.84422433376312255859e-01) (41, -1.08042991161346435547e+00) (42, 1.22329521179199218750e+00) (43, 9.27654266357421875000e-01) (44, -5.12344419956207275391e-01) (45, 6.00982606410980224609e-01) (46, 1.96122899651527404785e-01) (47, -3.75411659479141235352e-02) (48, 3.99227291345596313477e-01) (49, 9.44062411785125732422e-01) (50, -9.19384241104125976562e-01) (51, -8.62468555569648742676e-02) (52, 3.37240844964981079102e-01) (53, 6.94627091288566589355e-02) (54, -4.39264714717864990234e-01) (55, -7.27971613407135009766e-01) (56, 1.04388535022735595703e+00) (57, -8.79052057862281799316e-02) (58, 1.33140966296195983887e-01) (59, -7.50705778598785400391e-01) (60, 4.77094113826751708984e-01) (61, -7.20344901084899902344e-01) (62, 5.85210621356964111328e-01) (63, -3.91515254974365234375e-01) (64, 6.41287922859191894531e-01) (65, -6.22872710227966308594e-02) (66, 2.90289372205734252930e-01) (67, -5.42979538440704345703e-02) (68, 1.25004196166992187500e+00) (38, -5.20266965031623840332e-02) (39, -3.43299537897109985352e-01) (40, 8.23934853076934814453e-01) (41, 7.55366504192352294922e-01) (42, 8.00085887312889099121e-02) (43, 1.78602144122123718262e-01) (44, 3.58270883560180664062e-01) (45, 7.31042563915252685547e-01) (46, 3.39389055967330932617e-01) (47, 5.58154165744781494141e-01) (48, -9.02713060379028320312e-01) (49, 1.40151953697204589844e+00) (50, 7.77159273624420166016e-01) (51, 6.51507198810577392578e-01) (52, -2.30230525135993957520e-01) (53, 9.32047784328460693359e-01) (54, 9.41613912582397460938e-01) (55, -3.71101558208465576172e-01) (56, -3.23624052107334136963e-02) (57, 7.12797760963439941406e-01) (58, -3.17018210887908935547e-01) (59, 5.39635717868804931641e-01) (60, 4.54254508018493652344e-01) (61, 1.10756886005401611328e+00) (62, 9.12675354629755020142e-03) (63, 9.72924053668975830078e-01) (64, -4.85856324434280395508e-01) (65, -7.14033186435699462891e-01) (66, 1.22653031349182128906e+00) (67, -7.07206845283508300781e-01) (68, -2.55094945430755615234e-01) (38, -6.79274618625640869141e-01) (39, 1.00598299503326416016e+00) (40, -1.25691920518875122070e-01) (41, 2.33832150697708129883e-01) (42, 8.40911805629730224609e-01) (43, 7.96840965747833251953e-01) (44, 2.21092719584703445435e-02) (45, 1.37169837951660156250e-01) (46, -2.18339890241622924805e-01) (47, 9.80367124080657958984e-01) (48, 4.40946042537689208984e-01) (49, -4.85606163740158081055e-01) (50, 1.15279532968997955322e-01) (51, 7.68735945224761962891e-01) (52, 8.11066031455993652344e-02) (53, 5.84372758865356445312e-01) (54, 1.74539700150489807129e-01) (55, 4.40800160169601440430e-01) (56, -5.07077038288116455078e-01) (57, 1.54713481664657592773e-01) (58, -2.67879664897918701172e-01) (59, 1.21011543273925781250e+00) (60, -7.43897497653961181641e-01) (61, -8.93085420131683349609e-01) (62, -8.32294747233390808105e-02) (63, 1.19989776611328125000e+00) (64, -2.56915599107742309570e-01) (65, -8.53243887424468994141e-01) (66, 2.93995559215545654297e-01) (67, 5.03804683685302734375e-01) (68, -7.69924223423004150391e-01) (38, -7.61472210288047790527e-02) (39, -5.08314311504364013672e-01) (40, 1.67119219899177551270e-01) (41, 8.62524151802062988281e-01) (42, 9.69523370265960693359e-01) (43, 5.85848689079284667969e-01) (44, -1.29086285829544067383e-01) (45, -4.25799876451492309570e-01) (46, -5.76420605182647705078e-01) (47, -1.99129834771156311035e-01) (48, 9.04647648334503173828e-01) (49, 2.64074087142944335938e-01) (50, -4.14484888315200805664e-01) (51, 1.07453680038452148438e+00) (52, -5.02717077732086181641e-01) (53, -9.96273875236511230469e-01) (54, 5.83629190921783447266e-01) (55, 7.03648090362548828125e-01) (56, 4.94771331548690795898e-01) (57, -2.64394104480743408203e-01) (58, -1.27810955047607421875e+00) (59, -2.10570812225341796875e+00) (60, 7.27709531784057617188e-01) (61, -9.16837334632873535156e-01) (62, -7.18998014926910400391e-01) (63, 7.23667562007904052734e-01) (64, -4.63160961866378784180e-01) (65, 5.89776039123535156250e-01) (66, 4.22248125076293945312e-01) (67, 8.17019760608673095703e-01) (68, -1.17782390117645263672e+00) (38, 7.58416876196861267090e-02) (39, -4.74001258611679077148e-01) (40, 1.21470808982849121094e+00) (41, 2.24533259868621826172e-01) (42, -4.29673194885253906250e-01) (43, 3.58174979686737060547e-01) (44, 9.05961573123931884766e-01) (45, 2.96640396118164062500e-01) (46, 1.04867696762084960938e+00) (47, 8.95446836948394775391e-01) (48, 1.24831102788448333740e-01) (49, -3.18303883075714111328e-01) (50, -7.26730823516845703125e-01) (51, 1.08031821250915527344e+00) (52, -2.43660584092140197754e-01) (53, -1.40349173545837402344e+00) (54, -4.96096014976501464844e-01) (55, -6.71495497226715087891e-01) (56, 9.01930704712867736816e-02) (57, 9.69662129878997802734e-01) (58, -5.24530470371246337891e-01) (59, -8.71973454952239990234e-01) (60, 5.06579995155334472656e-01) (61, -6.28805518150329589844e-01) (62, 6.52066469192504882812e-01) (63, -2.76312351226806640625e-01) (64, -1.10747829079627990723e-01) (65, -5.29901981353759765625e-01) (66, 3.82565885782241821289e-01) (67, -1.93553102016448974609e+00) (68, 4.64012145996093750000e-01) (38, -1.07002151012420654297e+00) (39, -1.19715303182601928711e-01) (40, 3.27415555715560913086e-01) (41, 4.27003592252731323242e-01) (42, 3.36181730031967163086e-01) (43, -6.51112973690032958984e-01) (44, -4.12518858909606933594e-01) (45, -3.83337140083312988281e-01) (46, 5.21142899990081787109e-01) (47, 1.95322483777999877930e-01) (48, 1.24126635491847991943e-01) (49, 7.50989988446235656738e-02) (50, 7.13129937648773193359e-01) (51, 1.84044212102890014648e-01) (52, -6.83629745617508888245e-03) (53, 2.38887250423431396484e-01) (54, -5.83274722099304199219e-01) (55, 2.50234067440032958984e-01) (56, -8.67140769958496093750e-01) (57, -5.90943574905395507812e-01) (58, -1.89048564434051513672e+00) (59, -8.33141326904296875000e-01) (60, 1.01049804687500000000e+00) (61, 1.30570441484451293945e-01) (62, 7.24270403385162353516e-01) (63, -1.32499665021896362305e-01) (64, 6.19510054588317871094e-01) (65, -6.75945818424224853516e-01) (66, 8.12588274478912353516e-01) (67, -2.19523638486862182617e-01) (68, 4.80491995811462402344e-01) (38, 3.88984948396682739258e-01) (39, -8.99846076965332031250e-01) (40, -1.38291016221046447754e-01) (41, -2.27057933807373046875e-01) (42, 2.23821580410003662109e-01) (43, 9.75479722023010253906e-01) (44, 6.32913291454315185547e-01) (45, -2.51395016908645629883e-01) (46, 1.93986192345619201660e-01) (47, -1.16013145446777343750e+00) (48, 1.11923229694366455078e+00) (49, -3.29416245222091674805e-02) (50, -2.37913742661476135254e-01) (51, 1.43711435794830322266e+00) (52, 6.30823373794555664062e-01) (53, 1.41049194335937500000e+00) (54, -6.22792720794677734375e-01) (55, 1.06877911090850830078e+00) (56, -2.10855334997177124023e-01) (57, -2.17704400420188903809e-01) (58, -4.34799164533615112305e-01) (59, -9.68915760517120361328e-01) (60, -6.11876487731933593750e-01) (61, 3.67227345705032348633e-01) (62, 1.17044210433959960938e+00) (63, -4.33104038238525390625e-01) (64, -1.41245335340499877930e-01) (65, 6.49196803569793701172e-01) (66, 1.41035509109497070312e+00) (67, -1.46518301963806152344e+00) (68, 1.85340952873229980469e+00) (38, 5.89917004108428955078e-01) (39, 1.25156188011169433594e+00) (40, -1.15237958729267120361e-01) (41, -8.85940194129943847656e-01) (42, 4.69366997480392456055e-01) (43, 3.33041638135910034180e-01) (44, -2.08975172042846679688e+00) (45, 6.50764524936676025391e-01) (46, 8.06218862533569335938e-01) (47, 9.23424601554870605469e-01) (48, 3.07914280891418457031e+00) (49, -9.38157916069030761719e-01) (50, -2.04118108749389648438e+00) (51, -1.62610912322998046875e+00) (52, 8.84287297725677490234e-01) (53, 5.75576603412628173828e-01) (54, 7.23795950412750244141e-01) (55, -2.75561839342117309570e-01) (56, 6.62906348705291748047e-01) (57, -5.35913288593292236328e-01) (58, -7.44562819600105285645e-02) (59, 3.58435697853565216064e-02) (60, 3.04952549934387207031e+00) (61, 2.17684745788574218750e+00) (62, -4.19241160154342651367e-01) (63, 6.27185285091400146484e-01) (64, -3.53302299976348876953e-01) (65, -1.06042814254760742188e+00) (66, 7.91761398315429687500e-01) (67, 2.78428030014038085938e+00) (68, 3.52733254432678222656e-01) (38, 3.98248165845870971680e-01) (39, 4.81272399425506591797e-01) (40, 9.45782661437988281250e-01) (41, 1.06773626804351806641e+00) (42, -6.39508783817291259766e-01) (43, 1.00188684463500976562e+00) (44, -5.46213611960411071777e-02) (45, 3.14606666564941406250e-01) (46, 9.34007942676544189453e-01) (47, -4.59746152162551879883e-01) (48, -8.63135326653718948364e-03) (49, 1.21297383308410644531e+00) (50, 7.74162411689758300781e-01) (51, 6.80973947048187255859e-01) (52, 4.04921680688858032227e-01) (53, -3.25811088085174560547e-01) (54, 2.50496447086334228516e-01) (55, 4.12907540798187255859e-01) (56, 9.91894304752349853516e-02) (57, 9.78339135646820068359e-01) (58, 6.64671361446380615234e-01) (59, 7.12262749671936035156e-01) (60, -4.16689664125442504883e-01) (61, 1.10368168354034423828e+00) (62, 3.09750229120254516602e-01) (63, 6.40558421611785888672e-01) (64, 3.98096144199371337891e-01) (65, 1.94768354296684265137e-01) (66, -5.90987578034400939941e-02) (67, -1.91153228282928466797e-01) (68, 6.14907503128051757812e-01) (38, -1.13913148641586303711e-01) (39, 4.65114206075668334961e-01) (40, 3.75719398260116577148e-01) (41, -5.24826526641845703125e-01) (42, -2.35213145613670349121e-01) (43, 1.76277399063110351562e+00) (44, -8.84015738964080810547e-01) (45, 6.51995182037353515625e-01) (46, 2.00589343905448913574e-01) (47, 2.80355662107467651367e-01) (48, 4.66614305973052978516e-01) (49, -1.13366401195526123047e+00) (50, 3.96425694227218627930e-01) (51, -2.19173669815063476562e-01) (52, -2.28668764233589172363e-01) (53, -2.36018627882003784180e-01) (54, 7.76514947414398193359e-01) (55, -7.82004892826080322266e-01) (56, 6.83409988880157470703e-01) (57, 5.79396709799766540527e-02) (58, -4.71818864345550537109e-01) (59, 1.30900061130523681641e+00) (60, 9.99987483024597167969e-01) (61, 1.26893293857574462891e+00) (62, 1.42896485328674316406e+00) (63, 1.91103629767894744873e-02) (64, 8.55310559272766113281e-01) (65, 1.25360965728759765625e+00) (66, -1.25404942035675048828e+00) (67, 1.17162585258483886719e+00) (68, -3.18453788757324218750e-01) (38, 9.07159984111785888672e-01) (39, 1.05745649337768554688e+00) (40, 1.08811274170875549316e-01) (41, 2.12968587875366210938e-01) (42, -1.08882546424865722656e+00) (43, -4.71099108457565307617e-01) (44, -1.62466004490852355957e-01) (45, 1.37285828590393066406e+00) (46, -4.49738830327987670898e-01) (47, 9.53956782817840576172e-01) (48, -2.09378734230995178223e-01) (49, 1.91266500949859619141e+00) (50, -1.50219425559043884277e-01) (51, -1.85222432017326354980e-01) (52, 1.14085197448730468750e+00) (53, 5.13283848762512207031e-01) (54, 9.53218162059783935547e-01) (55, 1.00617969036102294922e+00) (56, 7.79433965682983398438e-01) (57, -3.12374472618103027344e-01) (58, 8.56964766979217529297e-01) (59, 1.25701367855072021484e-01) (60, -4.22624498605728149414e-01) (61, 7.77303948998451232910e-02) (62, -2.24486917257308959961e-01) (63, 4.04683321714401245117e-01) (64, -1.32140791416168212891e+00) (65, -9.20794844627380371094e-01) (66, 5.73360741138458251953e-01) (67, 6.12139165401458740234e-01) (68, 3.51599872112274169922e-01) (38, -2.95891851186752319336e-01) (39, 2.46551656723022460938e+00) (40, -2.73478150367736816406e-01) (41, 5.46119034290313720703e-01) (42, -6.06999576091766357422e-01) (43, -1.02209818363189697266e+00) (44, 4.33333814144134521484e-01) (45, 1.18764519691467285156e+00) (46, -8.29772889614105224609e-01) (47, -1.99415147304534912109e-01) (48, 1.35335683822631835938e+00) (49, 1.20530533790588378906e+00) (50, 1.95370256900787353516e+00) (51, 3.64450752735137939453e-01) (52, -3.62550258636474609375e-01) (53, -5.60304403305053710938e-01) (54, 1.30473598837852478027e-01) (55, -1.75983652472496032715e-01) (56, 7.52374768257141113281e-01) (57, -4.40492510795593261719e-01) (58, 1.09000742435455322266e+00) (59, 6.49123430252075195312e-01) (60, -2.21078678965568542480e-01) (61, 2.97585070133209228516e-01) (62, 1.75456964969635009766e+00) (63, 2.60674297809600830078e-01) (64, -1.20926909148693084717e-01) (65, 8.38979125022888183594e-01) (66, 1.32875695824623107910e-01) (67, 1.07611671090126037598e-01) (68, -4.95688676834106445312e-01) (38, -1.61955386400222778320e-01) (39, -5.51631867885589599609e-01) (40, -1.05656862258911132812e-01) (41, 1.10224649310111999512e-01) (42, -2.20841139554977416992e-01) (43, 6.61239266395568847656e-01) (44, 6.86786532402038574219e-01) (45, -9.63419795036315917969e-01) (46, 9.27318155765533447266e-01) (47, 1.16705977916717529297e+00) (48, 8.42413127422332763672e-01) (49, 1.25553321838378906250e+00) (50, 4.85961198806762695312e-01) (51, 6.45548760890960693359e-01) (52, 4.07253026962280273438e-01) (53, 4.74206805229187011719e-01) (54, 5.17597079277038574219e-01) (55, 9.69224810600280761719e-01) (56, 2.58152008056640625000e-01) (57, 1.15464937686920166016e+00) (58, 6.18935108184814453125e-01) (59, 1.47804772853851318359e+00) (60, -8.26253890991210937500e-01) (61, -1.16526055335998535156e+00) (62, 8.51087391376495361328e-01) (63, 7.18264162540435791016e-01) (64, 4.19075548648834228516e-01) (65, 5.94985306262969970703e-01) (66, -5.81991851329803466797e-01) (67, -6.70540094375610351562e-01) (68, -5.82942306995391845703e-01) (38, 1.06806182861328125000e+00) (39, -1.01342484354972839355e-01) (40, -3.92651045694947242737e-03) (41, 2.92331296950578689575e-02) (42, 1.03410836309194564819e-02) (43, 3.54394644498825073242e-01) (44, 8.95165741443634033203e-01) (45, 2.72665739059448242188e-01) (46, 2.63796806335449218750e-01) (47, -1.70530751347541809082e-01) (48, 6.90897583961486816406e-01) (49, 1.13362121582031250000e+00) (50, 3.12319427728652954102e-01) (51, 3.67337733507156372070e-01) (52, -9.17429208755493164062e-01) (53, -2.52482563257217407227e-01) (54, -4.93515253067016601562e-01) (55, 1.39438879489898681641e+00) (56, 1.22803914546966552734e+00) (57, 9.20897245407104492188e-01) (58, 1.22125041484832763672e+00) (59, -9.56309735774993896484e-02) (60, -1.04701387882232666016e+00) (61, 5.26727139949798583984e-01) (62, -6.42007961869239807129e-02) (63, -2.16551393270492553711e-01) (64, -5.89101910591125488281e-01) (65, -2.47065439820289611816e-01) (66, -1.60867035388946533203e-01) (67, -7.76302397251129150391e-01) (68, -5.79065084457397460938e-01) (38, -2.19761896133422851562e+00) (39, -3.26874077320098876953e-01) (40, -2.47128695249557495117e-01) (41, -4.38420802354812622070e-01) (42, 3.38286161422729492188e-01) (43, -9.23983633518218994141e-01) (44, -3.30644249916076660156e-01) (45, 5.08259952068328857422e-01) (46, 9.36451077461242675781e-01) (47, 1.66573077440261840820e-01) (48, 3.70059907436370849609e-01) (49, 4.04051765799522399902e-02) (50, -1.88943195343017578125e+00) (51, 3.33582252264022827148e-01) (52, 6.36989390477538108826e-03) (53, -6.74290657043457031250e-02) (54, 7.75029718875885009766e-01) (55, 1.68253466486930847168e-01) (56, -5.20440459251403808594e-01) (57, 3.43886584043502807617e-01) (58, 2.36521571874618530273e-01) (59, -1.07080018520355224609e+00) (60, 9.25458729267120361328e-01) (61, -5.78383743762969970703e-01) (62, 4.10608381032943725586e-01) (63, -1.52938425540924072266e+00) (64, -1.43669079989194869995e-02) (65, 1.07916772365570068359e+00) (66, -5.38866937160491943359e-01) (67, -5.48656344413757324219e-01) (68, 5.53537070751190185547e-01) (38, 7.24457979202270507812e-01) (39, 3.86165648698806762695e-01) (40, 7.49740242958068847656e-01) (41, 1.93362310528755187988e-01) (42, 6.72554552555084228516e-01) (43, 4.95447695255279541016e-01) (44, 7.89020657539367675781e-02) (45, 3.19905281066894531250e-01) (46, -1.50814011693000793457e-01) (47, 1.23390078544616699219e+00) (48, 5.94992339611053466797e-01) (49, 6.34677886962890625000e-01) (50, -5.38475155830383300781e-01) (51, -1.15395858883857727051e-01) (52, -5.65290272235870361328e-01) (53, 5.36991477012634277344e-01) (54, -2.77618199586868286133e-01) (55, 1.28309977054595947266e+00) (56, 8.83927464485168457031e-01) (57, 1.98176681995391845703e+00) (58, 5.59984385967254638672e-01) (59, -1.36896586418151855469e+00) (60, 6.77027463912963867188e-01) (61, -7.38006830215454101562e-02) (62, 4.60068494081497192383e-01) (63, 3.37189316749572753906e-01) (64, 7.07834601402282714844e-01) (65, 6.85780227184295654297e-01) (66, -4.75377142429351806641e-01) (67, 3.55186760425567626953e-02) (68, 1.10580778121948242188e+00) (38, -1.50917321443557739258e-01) (39, 6.30932867527008056641e-01) (40, 8.81399631500244140625e-01) (41, -7.87992119789123535156e-01) (42, -7.86843076348304748535e-02) (43, 1.37744331359863281250e+00) (44, 3.50425958633422851562e-01) (45, 2.60160952806472778320e-01) (46, -4.12277877330780029297e-01) (47, -3.53493690490722656250e-01) (48, 6.35490357875823974609e-01) (49, 4.78485226631164550781e-01) (50, 8.80955278873443603516e-01) (51, 4.29758369922637939453e-01) (52, -6.30793511867523193359e-01) (53, -1.51634722948074340820e-01) (54, 1.37588059902191162109e+00) (55, -3.31005007028579711914e-02) (56, -3.04824024438858032227e-01) (57, 1.58151820302009582520e-01) (58, 5.72624683380126953125e-01) (59, -3.80458325147628784180e-01) (60, -9.16844129562377929688e-01) (61, 1.02309143543243408203e+00) (62, 1.35856598615646362305e-01) (63, 9.73714768886566162109e-01) (64, 5.80888986587524414062e-02) (65, 1.40911325812339782715e-01) (66, 1.64455801248550415039e-01) (67, -3.97245228290557861328e-01) (68, -3.64911615848541259766e-01) (38, -5.62119334936141967773e-02) (39, 1.30070292949676513672e+00) (40, -3.25159877538681030273e-01) (41, -3.05137664079666137695e-01) (42, 4.93977367877960205078e-02) (43, -5.11153757572174072266e-01) (44, 2.82826095819473266602e-01) (45, 1.18694707751274108887e-01) (46, 7.42309868335723876953e-01) (47, 2.05831319093704223633e-01) (48, -5.83890497684478759766e-01) (49, 5.15342235565185546875e-01) (50, -8.36412489414215087891e-01) (51, 5.33058106899261474609e-01) (52, 3.17501813173294067383e-01) (53, 6.39284729957580566406e-01) (54, -6.00946485996246337891e-01) (55, 3.72051090002059936523e-01) (56, 3.39808493852615356445e-01) (57, 1.15367352962493896484e+00) (58, -8.14788639545440673828e-01) (59, 8.42978954315185546875e-01) (60, -4.44386720657348632812e-01) (61, -6.70462399721145629883e-02) (62, 1.32055103778839111328e-01) (63, -4.40563887357711791992e-01) (64, -2.10999086499214172363e-01) (65, 4.48417337611317634583e-03) (66, 2.65330255031585693359e-01) (67, -2.85176485776901245117e-01) (68, 1.20928871631622314453e+00) (38, -1.52189671993255615234e+00) (39, 4.03625428676605224609e-01) (40, 7.92310595512390136719e-01) (41, 6.34845733642578125000e-01) (42, 1.21171617507934570312e+00) (43, -1.45153081417083740234e+00) (44, 4.51015830039978027344e-01) (45, 5.78782975673675537109e-01) (46, -3.70671272277832031250e-01) (47, -5.40679357945919036865e-02) (48, 2.43981882929801940918e-01) (49, 1.26728439331054687500e+00) (50, -2.66205035150051116943e-02) (51, -5.83581805229187011719e-01) (52, 4.38196249306201934814e-02) (53, 3.40803027153015136719e-01) (54, 2.00434923171997070312e-01) (55, 1.05247950553894042969e+00) (56, -4.11709040403366088867e-01) (57, -2.45428293943405151367e-01) (58, 3.78806918859481811523e-01) (59, 5.96970796585083007812e-01) (60, 9.77167963981628417969e-01) (61, 2.47532224655151367188e+00) (62, -7.53027021884918212891e-01) (63, 1.08774864673614501953e+00) (64, 2.18847338110208511353e-02) (65, 5.90618014335632324219e-01) (66, -3.54213528335094451904e-02) (67, 1.76238226890563964844e+00) (68, -7.47754216194152832031e-01) (38, 8.95489454269409179688e-01) (39, -4.32556331157684326172e-01) (40, -1.70727342367172241211e-01) (41, 6.01590536534786224365e-02) (42, 7.70517647266387939453e-01) (43, 4.43353280425071716309e-02) (44, 3.30394387245178222656e-01) (45, 5.85917353630065917969e-01) (46, 2.18770474195480346680e-01) (47, -2.02660202980041503906e-01) (48, -8.35856795310974121094e-01) (49, -4.66734528541564941406e-01) (50, -4.44461375474929809570e-01) (51, -1.74430996179580688477e-01) (52, 6.91670835018157958984e-01) (53, 1.14208674430847167969e+00) (54, 3.31933289766311645508e-01) (55, -3.72418910264968872070e-02) (56, -2.43394762277603149414e-01) (57, 8.94099473953247070312e-02) (58, -1.00972354412078857422e+00) (59, 3.58486384153366088867e-01) (60, -9.77640002965927124023e-02) (61, 3.44447195529937744141e-02) (62, 1.68265104293823242188e+00) (63, -2.00987711548805236816e-01) (64, 4.43260073661804199219e-01) (65, -6.50745332241058349609e-01) (66, 8.82683455944061279297e-01) (67, 2.40280218422412872314e-02) (68, -4.53012317419052124023e-01) (38, 1.01822173595428466797e+00) (39, -2.01903745532035827637e-01) (40, -1.24610953032970428467e-01) (41, -3.59941571950912475586e-01) (42, 3.76573711633682250977e-01) (43, 2.24350288510322570801e-01) (44, 3.83065715432167053223e-02) (45, -3.77010434865951538086e-01) (46, 2.67758399248123168945e-01) (47, -4.94473397731781005859e-01) (48, -2.80016303062438964844e-01) (49, -5.93230545520782470703e-01) (50, -8.02258923649787902832e-02) (51, 6.73445045948028564453e-01) (52, 6.32660925388336181641e-01) (53, 1.84278652071952819824e-01) (54, 5.50221621990203857422e-01) (55, -1.65284782648086547852e-01) (56, 3.38850766420364379883e-01) (57, 5.30066490173339843750e-01) (58, 6.64429247379302978516e-01) (59, -5.91159343719482421875e-01) (60, -1.63889989256858825684e-01) (61, 4.74844396114349365234e-01) (62, 8.89856278896331787109e-01) (63, -1.40316891670227050781e+00) (64, 1.12485742568969726562e+00) (65, 1.30763757228851318359e+00) (66, 7.26917862892150878906e-01) (67, -7.91761219501495361328e-01) (68, 2.53700226545333862305e-01) (38, 7.65313133597373962402e-02) (39, 1.79483437538146972656e+00) (40, 1.20876960456371307373e-01) (41, 3.83350670337677001953e-01) (42, -2.28587444871664047241e-03) (43, -5.60118079185485839844e-01) (44, 1.53162252902984619141e+00) (45, 7.75361180305480957031e-01) (46, 4.73398864269256591797e-01) (47, 3.15916568040847778320e-01) (48, 1.91322416067123413086e-01) (49, -3.53860139846801757812e-01) (50, 1.28323745727539062500e+00) (51, -8.19070339202880859375e-01) (52, 9.13751840591430664062e-01) (53, -5.84319591522216796875e-01) (54, -1.68396636843681335449e-01) (55, 7.60457813739776611328e-02) (56, 7.64368653297424316406e-01) (57, -2.64719963073730468750e-01) (58, -6.51381254196166992188e-01) (59, -4.24915283918380737305e-01) (60, -1.08334398269653320312e+00) (61, 1.29919826984405517578e-01) (62, -9.70933079719543457031e-01) (63, -4.30281966924667358398e-01) (64, 2.95591354370117187500e-01) (65, -2.85606265068054199219e-01) (66, -3.86477917432785034180e-01) (67, 8.70870709419250488281e-01) (68, -7.96760022640228271484e-01) (38, 8.21309745311737060547e-01) (39, 1.06585133075714111328e+00) (40, 1.30950164794921875000e+00) (41, 7.96015799045562744141e-01) (42, -2.61970728635787963867e-01) (43, 1.30453705787658691406e+00) (44, 6.37982785701751708984e-01) (45, -7.01455116271972656250e-01) (46, 2.02000960707664489746e-02) (47, 1.16436839103698730469e+00) (48, 3.64316314458847045898e-01) (49, 2.57221490144729614258e-01) (50, 8.25661242008209228516e-01) (51, -7.41875767707824707031e-01) (52, -2.36674591898918151855e-01) (53, 6.14269338548183441162e-02) (54, -4.91076022386550903320e-01) (55, 1.04190146923065185547e+00) (56, -6.79219588637351989746e-02) (57, 1.14311449229717254639e-01) (58, -6.41974985599517822266e-01) (59, -5.35083353519439697266e-01) (60, -1.05118289589881896973e-01) (61, 7.31946766376495361328e-01) (62, -2.93628513813018798828e-01) (63, 1.22987604141235351562e+00) (64, -3.09451669454574584961e-01) (65, -8.28693270683288574219e-01) (66, -1.11487805843353271484e-01) (67, 8.32167565822601318359e-01) (68, 1.02110102772712707520e-01) (38, 4.44354414939880371094e-01) (39, 6.16251289844512939453e-01) (40, 5.94816267490386962891e-01) (41, 4.46291923522949218750e-01) (42, -1.02910625934600830078e+00) (43, -2.54199832677841186523e-01) (44, -1.00263476371765136719e+00) (45, -5.29252767562866210938e-01) (46, 6.08418226242065429688e-01) (47, 8.39458346366882324219e-01) (48, -6.13810658454895019531e-01) (49, -3.79973798990249633789e-01) (50, -3.95259499549865722656e-01) (51, -8.86991024017333984375e-01) (52, 1.30581307411193847656e+00) (53, -6.19290709495544433594e-01) (54, -2.61390089988708496094e-01) (55, 1.10671949386596679688e+00) (56, 4.92859691381454467773e-01) (57, -4.96081024408340454102e-01) (58, 1.53072163462638854980e-01) (59, -3.67737501859664916992e-01) (60, 2.65026390552520751953e-01) (61, -6.48599088191986083984e-01) (62, -5.89030325412750244141e-01) (63, 3.29455763101577758789e-01) (64, 3.26783597469329833984e-01) (65, -3.65306437015533447266e-02) (66, 9.56536591053009033203e-01) (67, -1.55955791473388671875e-01) (68, -9.84248757362365722656e-01) (69, 3.01898606121540069580e-02) (70, 1.13869220018386840820e-01) (71, -4.43013280630111694336e-01) (72, 4.11639034748077392578e-01) (73, 1.70719489455223083496e-01) (74, 1.52688169479370117188e+00) (75, -3.76497864723205566406e-01) (76, 9.95098873972892761230e-02) (77, 1.04220914840698242188e+00) (78, 3.07410925626754760742e-01) (79, 1.03953897953033447266e+00) (80, -1.06799639761447906494e-01) (81, -5.00895231962203979492e-02) (82, -1.42835592851042747498e-03) (83, -3.12589466571807861328e-01) (84, 1.90649837255477905273e-01) (85, 3.27085316181182861328e-01) (86, 2.68907129764556884766e-01) (87, -4.43484455347061157227e-01) (88, 1.11384026706218719482e-01) (89, 8.21815490722656250000e-01) (90, 2.15396881103515625000e-02) (91, -2.11346641182899475098e-01) (92, 2.02798321843147277832e-01) (93, 6.28609299659729003906e-01) (94, 2.26497530937194824219e-01) (95, 3.19849401712417602539e-01) (96, 3.44193130731582641602e-01) (97, 6.66898787021636962891e-01) (98, 6.15965008735656738281e-01) (99, 4.43022340536117553711e-01) (69, -3.71026284992694854736e-02) (70, -2.05530464649200439453e-01) (71, 4.59957301616668701172e-01) (72, 8.84672522544860839844e-01) (73, 3.09515178203582763672e-01) (74, -3.09337198734283447266e-01) (75, 1.09500980377197265625e+00) (76, 3.56186926364898681641e-01) (77, 1.44846570491790771484e+00) (78, 5.52214503288269042969e-01) (79, 7.10301280021667480469e-01) (80, -2.84573316574096679688e-01) (81, -3.41853201389312744141e-01) (82, 4.83206152915954589844e-01) (83, -5.61350584030151367188e-02) (84, -9.62765961885452270508e-02) (85, 1.69989570975303649902e-01) (86, -3.28530848026275634766e-01) (87, 8.33145499229431152344e-01) (88, -6.68204247951507568359e-01) (89, -4.64667916297912597656e-01) (90, 5.13719141483306884766e-01) (91, -6.42915248870849609375e-01) (92, -3.50605189800262451172e-01) (93, 2.51176536083221435547e-01) (94, 7.05653801560401916504e-02) (95, 4.92732554674148559570e-01) (96, 6.86703205108642578125e-01) (97, 4.09882843494415283203e-01) (98, 1.15619325637817382812e+00) (99, -4.91205185651779174805e-01) (69, -1.55811786651611328125e-01) (70, 5.17867326736450195312e-01) (71, 1.62794649600982666016e-01) (72, -7.25235864520072937012e-02) (73, 1.70499479770660400391e+00) (74, 5.38021564483642578125e-01) (75, 1.60561072826385498047e+00) (76, -5.47671556472778320312e-01) (77, 7.95898258686065673828e-01) (78, 6.95469379425048828125e-01) (79, -8.66278186440467834473e-02) (80, 6.08625411987304687500e-01) (81, -7.30979442596435546875e-01) (82, 1.62452220916748046875e-01) (83, -3.21810036897659301758e-01) (84, 1.15834379196166992188e+00) (85, 2.78833299875259399414e-01) (86, -7.21890181303024291992e-02) (87, 6.83873355388641357422e-01) (88, 1.84523105621337890625e-01) (89, 6.10621511936187744141e-01) (90, 9.79791045188903808594e-01) (91, 4.92195039987564086914e-01) (92, 1.09814003109931945801e-01) (93, 5.50626873970031738281e-01) (94, 6.74058735370635986328e-01) (95, -4.94499683380126953125e-01) (96, 4.04056906700134277344e-01) (97, 7.02718734741210937500e-01) (98, 5.70917963981628417969e-01) (99, 8.57062518596649169922e-01) (69, -1.37775659561157226562e-01) (70, -1.37117892503738403320e-01) (71, -4.50149208307266235352e-01) (72, -4.01920527219772338867e-01) (73, -1.72604590654373168945e-01) (74, 6.76186323165893554688e-01) (75, -5.97578525543212890625e-01) (76, 4.35385584831237792969e-01) (77, 8.38104665279388427734e-01) (78, 1.21242439746856689453e+00) (79, -6.36254191398620605469e-01) (80, 3.81026923656463623047e-01) (81, 2.08681285381317138672e-01) (82, 3.42307150363922119141e-01) (83, 8.01483154296875000000e-01) (84, -4.89286959171295166016e-01) (85, 7.52443134784698486328e-01) (86, -1.51570029556751251221e-02) (87, -9.94195818901062011719e-01) (88, -7.39122092723846435547e-01) (89, -1.04318998754024505615e-01) (90, 7.85417407751083374023e-02) (91, -4.47940796613693237305e-01) (92, 7.74118006229400634766e-01) (93, -5.79687535762786865234e-01) (94, 4.04393166303634643555e-01) (95, 6.94411218166351318359e-01) (96, 9.34939622879028320312e-01) (97, 5.21039664745330810547e-01) (98, -1.47571265697479248047e-01) (99, -1.42121091485023498535e-01) (69, 1.04950809478759765625e+00) (70, 2.38830938935279846191e-01) (71, 8.59810650348663330078e-01) (72, 1.26468646526336669922e+00) (73, -6.45533025264739990234e-01) (74, 2.62275040149688720703e-01) (75, -5.70774197578430175781e-01) (76, 1.66910812258720397949e-01) (77, 1.22621035575866699219e+00) (78, 1.08846306800842285156e+00) (79, 1.20123422145843505859e+00) (80, 6.17532193660736083984e-01) (81, -5.24853765964508056641e-01) (82, -4.73463654518127441406e-01) (83, 8.46510753035545349121e-02) (84, -4.19966489076614379883e-01) (85, 3.32938909530639648438e-01) (86, -8.43442022800445556641e-01) (87, -5.35100102424621582031e-02) (88, 9.16423976421356201172e-01) (89, -4.92144554853439331055e-01) (90, 3.17785978317260742188e-01) (91, -4.11503404378890991211e-01) (92, 1.17955482006072998047e+00) (93, 6.37812256813049316406e-01) (94, 7.97814786434173583984e-01) (95, 4.33663576841354370117e-01) (96, 1.81312873959541320801e-01) (97, 1.02613651752471923828e+00) (98, 5.49451947212219238281e-01) (99, 4.28672939538955688477e-01) (69, -1.28870141506195068359e+00) (70, 1.25746941566467285156e+00) (71, 3.90813231468200683594e-01) (72, -3.41240733861923217773e-01) (73, 1.15373182296752929688e+00) (74, 1.02746832370758056641e+00) (75, 2.31878701597452163696e-02) (76, -2.16309458017349243164e-01) (77, 1.07483434677124023438e+00) (78, -6.53813302516937255859e-01) (79, 5.97351133823394775391e-01) (80, 2.78266519308090209961e-01) (81, 1.45485714077949523926e-01) (82, 1.23800925910472869873e-01) (83, 7.28982925415039062500e-01) (84, 4.25925612449645996094e-01) (85, -7.98528313636779785156e-01) (86, 3.77494394779205322266e-01) (87, 6.05871140956878662109e-01) (88, -7.07813620567321777344e-01) (89, -7.62069225311279296875e-01) (90, 1.85105115175247192383e-01) (91, 2.49185487627983093262e-01) (92, -1.95471525192260742188e-01) (93, -7.67323672771453857422e-01) (94, 1.24616873264312744141e+00) (95, 4.41980332136154174805e-01) (96, 2.83734649419784545898e-01) (97, 5.79253017902374267578e-01) (98, -1.91974952816963195801e-01) (99, -3.35597485303878784180e-01)
input_names='in1_eps' 'in2_q' 'in3_nu' 'in4_n2' 'in5_t2' 'in6_geo'
output_names='OUT_cne' 'OUT_cni1' 'OUT_cni2' 'OUT_cte' 'OUT_cti1' 'OUT_cti2'
norm_output=0.0 0.0 0.0 0.0 0.0 0.0 0.0 0.0 0.0 0.0 0.0 0.0 0.0 0.0 0.0 0.0 0.0 0.0 0.0 0.0 0.0 0.0 0.0 0.0 0.0 0.0 0.0 0.0 0.0 0.0 0.0 0.0 0.0 0.0 0.0 0.0
MSE= 0.00138031737879