FANN_FLO_2.1
num_layers=4
learning_rate=0.700000
connection_rate=1.000000
network_type=0
learning_momentum=0.000000
training_algorithm=2
train_error_function=0
train_stop_function=0
cascade_output_change_fraction=0.010000
quickprop_decay=201.281372
quickprop_mu=1.750000
rprop_increase_factor=1.200000
rprop_decrease_factor=0.500000
rprop_delta_min=0.000000
rprop_delta_max=50.000000
rprop_delta_zero=0.100000
cascade_output_stagnation_epochs=12
cascade_candidate_change_fraction=0.010000
cascade_candidate_stagnation_epochs=12
cascade_max_out_epochs=150
cascade_min_out_epochs=50
cascade_max_cand_epochs=150
cascade_min_cand_epochs=50
cascade_num_candidate_groups=2
bit_fail_limit=3.49999994039535522461e-01
cascade_candidate_limit=1.00000000000000000000e+03
cascade_weight_multiplier=4.00000005960464477539e-01
cascade_activation_functions_count=10
cascade_activation_functions=3 5 7 8 10 11 14 15 16 17
cascade_activation_steepnesses_count=4
cascade_activation_steepnesses=2.50000000000000000000e-01 5.00000000000000000000e-01 7.50000000000000000000e-01 1.00000000000000000000e+00
layer_sizes=12 31 31 10
scale_included=1
scale_mean_in=0.595710 1.725386 1.856146 0.505992 3676.362793 1.428655 1.810080 3.038681 1.739604 -8.041503 1.898420
scale_deviation_in=0.002873 0.364799 0.150563 0.019752 1002.251953 0.206163 0.008729 1.216456 0.020967 7.740559 0.492744
scale_new_min_in=-1.000000 -1.000000 -1.000000 -1.000000 -1.000000 -1.000000 -1.000000 -1.000000 -1.000000 -1.000000 -1.000000
scale_factor_in=1.000000 1.000000 1.000000 1.000000 1.000000 1.000000 1.000000 1.000000 1.000000 1.000000 1.000000
scale_mean_out=0.006885 0.006940 0.006452 0.000000 1.617205 1.805368 0.028493 0.033410 0.029136
scale_deviation_out=0.001293 0.001990 0.002194 0.000001 0.176400 0.429144 0.002952 0.003744 0.008478
scale_new_min_out=-1.000000 -1.000000 -1.000000 -1.000000 -1.000000 -1.000000 -1.000000 -1.000000 -1.000000
scale_factor_out=1.000000 1.000000 1.000000 1.000000 1.000000 1.000000 1.000000 1.000000 1.000000
neurons (num_inputs, activation_function, activation_steepness)=(0, 0, 0.00000000000000000000e+00) (0, 0, 0.00000000000000000000e+00) (0, 0, 0.00000000000000000000e+00) (0, 0, 0.00000000000000000000e+00) (0, 0, 0.00000000000000000000e+00) (0, 0, 0.00000000000000000000e+00) (0, 0, 0.00000000000000000000e+00) (0, 0, 0.00000000000000000000e+00) (0, 0, 0.00000000000000000000e+00) (0, 0, 0.00000000000000000000e+00) (0, 0, 0.00000000000000000000e+00) (0, 0, 0.00000000000000000000e+00) (12, 5, 5.00000000000000000000e-01) (12, 5, 5.00000000000000000000e-01) (12, 5, 5.00000000000000000000e-01) (12, 5, 5.00000000000000000000e-01) (12, 5, 5.00000000000000000000e-01) (12, 5, 5.00000000000000000000e-01) (12, 5, 5.00000000000000000000e-01) (12, 5, 5.00000000000000000000e-01) (12, 5, 5.00000000000000000000e-01) (12, 5, 5.00000000000000000000e-01) (12, 5, 5.00000000000000000000e-01) (12, 5, 5.00000000000000000000e-01) (12, 5, 5.00000000000000000000e-01) (12, 5, 5.00000000000000000000e-01) (12, 5, 5.00000000000000000000e-01) (12, 5, 5.00000000000000000000e-01) (12, 5, 5.00000000000000000000e-01) (12, 5, 5.00000000000000000000e-01) (12, 5, 5.00000000000000000000e-01) (12, 5, 5.00000000000000000000e-01) (12, 5, 5.00000000000000000000e-01) (12, 5, 5.00000000000000000000e-01) (12, 5, 5.00000000000000000000e-01) (12, 5, 5.00000000000000000000e-01) (12, 5, 5.00000000000000000000e-01) (12, 5, 5.00000000000000000000e-01) (12, 5, 5.00000000000000000000e-01) (12, 5, 5.00000000000000000000e-01) (12, 5, 5.00000000000000000000e-01) (12, 5, 5.00000000000000000000e-01) (0, 5, 0.00000000000000000000e+00) (31, 5, 5.00000000000000000000e-01) (31, 5, 5.00000000000000000000e-01) (31, 5, 5.00000000000000000000e-01) (31, 5, 5.00000000000000000000e-01) (31, 5, 5.00000000000000000000e-01) (31, 5, 5.00000000000000000000e-01) (31, 5, 5.00000000000000000000e-01) (31, 5, 5.00000000000000000000e-01) (31, 5, 5.00000000000000000000e-01) (31, 5, 5.00000000000000000000e-01) (31, 5, 5.00000000000000000000e-01) (31, 5, 5.00000000000000000000e-01) (31, 5, 5.00000000000000000000e-01) (31, 5, 5.00000000000000000000e-01) (31, 5, 5.00000000000000000000e-01) (31, 5, 5.00000000000000000000e-01) (31, 5, 5.00000000000000000000e-01) (31, 5, 5.00000000000000000000e-01) (31, 5, 5.00000000000000000000e-01) (31, 5, 5.00000000000000000000e-01) (31, 5, 5.00000000000000000000e-01) (31, 5, 5.00000000000000000000e-01) (31, 5, 5.00000000000000000000e-01) (31, 5, 5.00000000000000000000e-01) (31, 5, 5.00000000000000000000e-01) (31, 5, 5.00000000000000000000e-01) (31, 5, 5.00000000000000000000e-01) (31, 5, 5.00000000000000000000e-01) (31, 5, 5.00000000000000000000e-01) (31, 5, 5.00000000000000000000e-01) (0, 5, 0.00000000000000000000e+00) (31, 0, 5.00000000000000000000e-01) (31, 0, 5.00000000000000000000e-01) (31, 0, 5.00000000000000000000e-01) (31, 0, 5.00000000000000000000e-01) (31, 0, 5.00000000000000000000e-01) (31, 0, 5.00000000000000000000e-01) (31, 0, 5.00000000000000000000e-01) (31, 0, 5.00000000000000000000e-01) (31, 0, 5.00000000000000000000e-01) (0, 0, 0.00000000000000000000e+00)
connections (connected_to_neuron, weight)=(0, 2.46386066079139709473e-01) (1, 6.42958939075469970703e-01) (2, 2.81522393226623535156e-01) (3, -1.97969982400536537170e-03) (4, 4.79162782430648803711e-01) (5, 8.71439456939697265625e-01) (6, 5.09377837181091308594e-01) (7, -1.12703874707221984863e-01) (8, -9.76027175784111022949e-02) (9, -4.38631862401962280273e-01) (10, 5.57770133018493652344e-01) (11, -1.90156817436218261719e-01) (0, -4.55098301172256469727e-01) (1, -1.34274411201477050781e+00) (2, 3.25831413269042968750e-01) (3, 4.48887348175048828125e-01) (4, -8.34864526987075805664e-02) (5, 1.59403192996978759766e+00) (6, -3.59775930643081665039e-01) (7, 3.56176406145095825195e-01) (8, 2.50842475891113281250e+00) (9, -3.19518707692623138428e-02) (10, 1.23395240306854248047e+00) (11, 3.50919294357299804688e+00) (0, 1.22036024928092956543e-01) (1, 3.68836134672164916992e-01) (2, 1.21951961517333984375e+00) (3, -6.86904251575469970703e-01) (4, 2.22743391990661621094e-01) (5, 8.65826606750488281250e-02) (6, 2.73931652307510375977e-01) (7, -7.49480128288269042969e-01) (8, 1.39323139190673828125e+00) (9, 1.43564835190773010254e-01) (10, 1.71782553195953369141e-01) (11, 2.47974276542663574219e+00) (0, -1.49493765830993652344e+00) (1, -6.67975991964340209961e-02) (2, -1.19088733196258544922e+00) (3, -1.57759785652160644531e-01) (4, -1.58101543784141540527e-01) (5, 1.57549321651458740234e+00) (6, -3.95508944988250732422e-01) (7, 1.87019622325897216797e+00) (8, 9.13032710552215576172e-01) (9, 4.43061172962188720703e-01) (10, -6.57066762447357177734e-01) (11, 2.67313289642333984375e+00) (0, -2.35208243131637573242e-01) (1, -8.84510517120361328125e-01) (2, -7.95900106430053710938e-01) (3, -8.15928757190704345703e-01) (4, -9.97128069400787353516e-01) (5, -1.89177226275205612183e-02) (6, 3.74196052551269531250e-01) (7, -1.91003859043121337891e-01) (8, 1.58509492874145507812e+00) (9, 1.71215140819549560547e+00) (10, 5.29487371444702148438e-01) (11, 1.03892314434051513672e+00) (0, -1.14700041711330413818e-01) (1, 8.25467824935913085938e-01) (2, -3.78144174814224243164e-01) (3, -6.53456687927246093750e-01) (4, -3.05436760187149047852e-01) (5, 1.42572438716888427734e+00) (6, 2.33626272529363632202e-02) (7, 4.24088627099990844727e-01) (8, 5.85530221462249755859e-01) (9, -2.39173859357833862305e-01) (10, 8.23224067687988281250e-01) (11, 1.93878412246704101562e-01) (0, -2.27129850536584854126e-02) (1, 1.26349003985524177551e-02) (2, 2.03732204437255859375e+00) (3, 8.30138087272644042969e-01) (4, -1.81859171390533447266e+00) (5, 1.31742134690284729004e-01) (6, 9.74967420101165771484e-01) (7, -4.07427102327346801758e-01) (8, 5.44770717620849609375e-01) (9, -1.15365302562713623047e+00) (10, 8.18626880645751953125e-01) (11, -4.78418201208114624023e-01) (0, 5.21383345127105712891e-01) (1, 1.15646648406982421875e+00) (2, 2.56574630737304687500e+00) (3, -3.03267925977706909180e-01) (4, 1.12816490232944488525e-01) (5, 3.49882125854492187500e-01) (6, 4.08421993255615234375e-01) (7, 1.59439533948898315430e-01) (8, -7.06946849822998046875e-01) (9, 2.37852204591035842896e-02) (10, -3.84939074516296386719e-01) (11, -4.06988859176635742188e-01) (0, 9.09125387668609619141e-01) (1, 5.05103111267089843750e-01) (2, -1.12591290473937988281e+00) (3, -6.59344017505645751953e-01) (4, 1.35788157582283020020e-01) (5, -8.11476409435272216797e-01) (6, 1.61392569541931152344e-01) (7, -1.84739542007446289062e+00) (8, -7.09143757820129394531e-01) (9, 2.14288324117660522461e-01) (10, 7.39765107631683349609e-01) (11, 7.93990135192871093750e-01) (0, 1.77262336015701293945e-01) (1, 1.32946622371673583984e+00) (2, -2.56519675254821777344e-01) (3, 2.43934728205204010010e-02) (4, -3.03742617368698120117e-01) (5, 8.72673332691192626953e-01) (6, -9.26825925707817077637e-02) (7, 9.02872860431671142578e-01) (8, -7.81917631626129150391e-01) (9, -3.33253651857376098633e-01) (10, 8.99094045162200927734e-02) (11, 4.34966772794723510742e-01) (0, 1.00039637088775634766e+00) (1, -2.31826829910278320312e+00) (2, 2.45181179046630859375e+00) (3, -1.19615674018859863281e+00) (4, 1.04947102069854736328e+00) (5, 2.24083399772644042969e+00) (6, -3.46349537372589111328e-01) (7, 1.43554234504699707031e+00) (8, -1.55262136459350585938e+00) (9, 1.47563382983207702637e-01) (10, -2.64888763427734375000e-01) (11, -3.45916843414306640625e+00) (0, 8.02877187728881835938e-01) (1, -1.59905803203582763672e+00) (2, -1.34673607349395751953e+00) (3, -4.44505214691162109375e-01) (4, 1.35586881637573242188e+00) (5, -2.56788563728332519531e+00) (6, -1.43444728851318359375e+00) (7, -2.83764195442199707031e+00) (8, -5.42947232723236083984e-01) (9, -3.48758190870285034180e-01) (10, 1.97456598281860351562e-01) (11, 3.19762974977493286133e-02) (0, 1.07187795639038085938e+00) (1, 6.55584692955017089844e-01) (2, -1.00201296806335449219e+00) (3, 7.24497020244598388672e-01) (4, 4.25944447517395019531e-01) (5, 1.55697858333587646484e+00) (6, -5.70169329643249511719e-01) (7, 2.43877434730529785156e+00) (8, 5.62786340713500976562e-01) (9, 3.79631567001342773438e+00) (10, 6.39178976416587829590e-02) (11, 1.65707930922508239746e-01) (0, 2.64798045158386230469e-01) (1, -2.26461857557296752930e-01) (2, -1.93933486938476562500e-01) (3, 1.75849646329879760742e-01) (4, -7.10834264755249023438e-02) (5, 4.34634953737258911133e-01) (6, -4.63262647390365600586e-02) (7, -2.05233407020568847656e+00) (8, 2.17819511890411376953e-01) (9, 6.48123100399971008301e-02) (10, 1.50393918156623840332e-01) (11, -5.94231963157653808594e-01) (0, 4.21668767929077148438e-01) (1, 3.73997718095779418945e-01) (2, 5.38990616798400878906e-01) (3, 5.73907375335693359375e-01) (4, 2.88502126932144165039e-01) (5, 1.40735566616058349609e+00) (6, -4.60497140884399414062e-01) (7, -4.16735112667083740234e-01) (8, 5.94457685947418212891e-01) (9, 3.80279064178466796875e-01) (10, 9.91867601871490478516e-01) (11, -6.10130786895751953125e-01) (0, -3.82067441940307617188e-01) (1, -1.96212038397789001465e-01) (2, 3.24826061725616455078e-01) (3, -5.76815128326416015625e-01) (4, -1.80471345782279968262e-01) (5, -4.38458830118179321289e-01) (6, 1.09637051820755004883e-01) (7, 8.06453824043273925781e-01) (8, -6.92594766616821289062e-01) (9, 1.03338152170181274414e-01) (10, 2.69618093967437744141e-01) (11, -9.64071273803710937500e-01) (0, 4.02648448944091796875e-02) (1, -7.17388540506362915039e-02) (2, 1.01130676269531250000e+00) (3, -8.06160345673561096191e-02) (4, 4.72377948462963104248e-02) (5, 8.03647458553314208984e-01) (6, 4.45089459419250488281e-01) (7, -9.61728692054748535156e-01) (8, 5.88332414627075195312e-01) (9, 4.37165915966033935547e-01) (10, -3.92424881458282470703e-01) (11, 2.66449868679046630859e-01) (0, 2.07437768578529357910e-01) (1, -1.15645088255405426025e-01) (2, 1.49905431270599365234e+00) (3, 3.20297151803970336914e-01) (4, 5.88002875447273254395e-02) (5, -5.23711860179901123047e-01) (6, -4.80468273162841796875e-02) (7, 1.01599228382110595703e+00) (8, 2.50029843300580978394e-02) (9, -1.28391847014427185059e-01) (10, 2.17256724834442138672e-01) (11, 9.78569686412811279297e-01) (0, -5.40564894676208496094e-01) (1, 7.30841577053070068359e-01) (2, -4.73599135875701904297e-01) (3, -2.06040129065513610840e-01) (4, -1.23433597385883331299e-01) (5, -6.32893264293670654297e-01) (6, -1.26785442233085632324e-01) (7, -1.51543653011322021484e+00) (8, -6.15068376064300537109e-01) (9, 9.64608788490295410156e-02) (10, -5.45151293277740478516e-01) (11, 1.12828266620635986328e+00) (0, 2.89161741733551025391e-01) (1, 2.86844998598098754883e-01) (2, 3.95405381917953491211e-01) (3, -7.56316259503364562988e-02) (4, 3.82283478975296020508e-02) (5, -1.56604325771331787109e+00) (6, 8.65485295653343200684e-02) (7, -1.17946505546569824219e-01) (8, -9.18038487434387207031e-02) (9, -8.58349651098251342773e-02) (10, 1.02104790508747100830e-01) (11, -1.04682099819183349609e+00) (0, 7.66945183277130126953e-01) (1, -1.91021096706390380859e+00) (2, -9.56093192100524902344e-01) (3, 6.70435786247253417969e-01) (4, -6.44245207309722900391e-01) (5, -8.19034039974212646484e-01) (6, 1.06317162513732910156e+00) (7, 1.52126371860504150391e-01) (8, 1.31828472018241882324e-01) (9, -4.50317502021789550781e-01) (10, 8.01350325345993041992e-02) (11, -4.04047846794128417969e-01) (0, -1.73718810081481933594e-01) (1, 1.70301520824432373047e+00) (2, 5.45849919319152832031e-01) (3, 7.73051559925079345703e-01) (4, -6.05020880699157714844e-01) (5, 1.20084488391876220703e+00) (6, 4.95627045631408691406e-01) (7, -1.64531216025352478027e-01) (8, -1.18708145618438720703e+00) (9, 5.83913028240203857422e-01) (10, 1.34860050678253173828e+00) (11, 2.53943347930908203125e+00) (0, 1.60797846317291259766e+00) (1, 1.21887779235839843750e+00) (2, 8.37335467338562011719e-01) (3, 7.79226839542388916016e-01) (4, -2.50367832183837890625e+00) (5, 2.60030418634414672852e-01) (6, 1.86769902706146240234e+00) (7, 7.15968132019042968750e+00) (8, -1.22453486546874046326e-02) (9, 6.99301421642303466797e-01) (10, -5.27352035045623779297e-01) (11, 2.99291706085205078125e+00) (0, -4.64717537164688110352e-01) (1, 6.71404004096984863281e-01) (2, 2.27844095230102539062e+00) (3, 2.08732509613037109375e+00) (4, 1.64148449897766113281e+00) (5, -2.64344167709350585938e+00) (6, -1.06048226356506347656e-01) (7, 1.61387848854064941406e+00) (8, -3.31792545318603515625e+00) (9, 5.99719464778900146484e-01) (10, -1.16539609432220458984e+00) (11, 1.20551252365112304688e+00) (0, -5.11044710874557495117e-02) (1, -8.72718393802642822266e-01) (2, -1.76502239704132080078e+00) (3, 1.55509543418884277344e+00) (4, 1.44178152084350585938e+00) (5, 1.23717260360717773438e+00) (6, 4.10925716161727905273e-01) (7, 1.23750531673431396484e+00) (8, 4.15323686599731445312e+00) (9, 8.94368112087249755859e-01) (10, 6.10849916934967041016e-01) (11, -1.24594569206237792969e-01) (0, 2.34635286033153533936e-02) (1, 9.61365878582000732422e-01) (2, 1.65779185295104980469e+00) (3, 5.83669722080230712891e-01) (4, 3.52019459009170532227e-01) (5, -1.09045952558517456055e-01) (6, -7.33385756611824035645e-02) (7, 5.02068459987640380859e-01) (8, -5.01884043216705322266e-01) (9, 3.36962491273880004883e-01) (10, 1.24258480966091156006e-01) (11, 3.44582140445709228516e-01) (0, 3.91754508018493652344e-01) (1, 1.09222662448883056641e+00) (2, -7.44107186794281005859e-01) (3, -1.10961690545082092285e-01) (4, 2.28192523121833801270e-01) (5, -6.37355864048004150391e-01) (6, 5.24663738906383514404e-02) (7, 5.35395503044128417969e-01) (8, 8.19663286209106445312e-01) (9, 7.46335208415985107422e-01) (10, -6.85326099395751953125e-01) (11, 8.05384367704391479492e-02) (0, 5.52966773509979248047e-01) (1, 1.64935517311096191406e+00) (2, 9.42600965499877929688e-01) (3, 5.52451789379119873047e-01) (4, -3.54050010442733764648e-01) (5, 1.24289298057556152344e+00) (6, 6.39089584350585937500e-01) (7, 1.67144978046417236328e+00) (8, 1.40183046460151672363e-01) (9, 6.16240859031677246094e-01) (10, -6.31922066211700439453e-01) (11, -2.26226925849914550781e+00) (0, 1.07981073856353759766e+00) (1, 3.56096744537353515625e-01) (2, 9.37163531780242919922e-01) (3, -5.06034493446350097656e-01) (4, 5.39182722568511962891e-01) (5, -5.76751828193664550781e-01) (6, 5.58671951293945312500e-01) (7, -2.43656373023986816406e+00) (8, -1.01214778423309326172e+00) (9, 9.78554308414459228516e-01) (10, -2.42878928780555725098e-01) (11, 1.47399306297302246094e+00) (0, -7.67068386077880859375e-01) (1, -1.20520806312561035156e+00) (2, 2.25730800628662109375e+00) (3, -6.50964319705963134766e-01) (4, 6.65089368820190429688e-01) (5, 3.42976355552673339844e+00) (6, 1.60659253597259521484e-01) (7, -9.05937910079956054688e-01) (8, 1.74600219726562500000e+00) (9, -7.85889625549316406250e-01) (10, 1.36882737278938293457e-02) (11, 3.36668181419372558594e+00) (12, -1.92896533012390136719e+00) (13, -5.65148055553436279297e-01) (14, 3.54367470741271972656e+00) (15, -1.33400797843933105469e+00) (16, 1.63003814220428466797e+00) (17, 1.30152344703674316406e-01) (18, 1.69137322902679443359e+00) (19, 1.56128323078155517578e+00) (20, -4.15403699874877929688e+00) (21, -1.41788029670715332031e+00) (22, 1.81192135810852050781e+00) (23, -2.38242959976196289062e+00) (24, 1.36060297489166259766e+00) (25, 1.62929224967956542969e+00) (26, 1.81759989261627197266e+00) (27, -2.30947446823120117188e+00) (28, -8.80213856697082519531e-01) (29, -2.16542315483093261719e+00) (30, 1.05285286903381347656e+00) (31, 5.41857600212097167969e-01) (32, -1.64770328998565673828e+00) (33, -3.89779257774353027344e+00) (34, 2.05335092544555664062e+00) (35, -1.05247724056243896484e+00) (36, -4.35725975036621093750e+00) (37, -5.31805694103240966797e-01) (38, -4.11743344739079475403e-03) (39, 7.40611374378204345703e-01) (40, -9.47776913642883300781e-01) (41, -7.43512392044067382812e-01) (42, 4.53067004680633544922e-01) (12, -6.60903632640838623047e-01) (13, 3.04935544729232788086e-01) (14, -5.18236279487609863281e-01) (15, -1.66992878913879394531e+00) (16, -1.68737679719924926758e-01) (17, -9.67387318611145019531e-01) (18, 3.13519120216369628906e-01) (19, 1.06213307380676269531e+00) (20, 1.74233829975128173828e+00) (21, 9.55300986766815185547e-01) (22, -1.40093818306922912598e-01) (23, 6.25867843627929687500e-02) (24, 3.73684346675872802734e-01) (25, 2.61700540781021118164e-01) (26, -8.35112273693084716797e-01) (27, -1.25866204500198364258e-01) (28, -8.38057816028594970703e-01) (29, -3.55255216360092163086e-01) (30, 1.09362030029296875000e+00) (31, -1.30348014831542968750e+00) (32, 5.75174272060394287109e-01) (33, -3.31671088933944702148e-01) (34, 9.15737152099609375000e-01) (35, 3.97485852241516113281e-01) (36, 1.44598796963691711426e-01) (37, 8.48781317472457885742e-02) (38, -7.17889904975891113281e-01) (39, 6.51082754135131835938e-01) (40, 1.13760435581207275391e+00) (41, 7.08833277225494384766e-01) (42, 9.82756733894348144531e-01) (12, 5.87819874286651611328e-01) (13, 1.64390981197357177734e+00) (14, 1.60775589942932128906e+00) (15, 4.27815705537796020508e-01) (16, 7.84483134746551513672e-01) (17, -4.46879237890243530273e-01) (18, -5.47531127929687500000e-01) (19, 4.12748336791992187500e-01) (20, 7.07210123538970947266e-01) (21, 1.66941511631011962891e+00) (22, -2.87321418523788452148e-01) (23, -3.87998223304748535156e-02) (24, 1.03088326752185821533e-01) (25, 6.27067387104034423828e-01) (26, 5.98476469516754150391e-01) (27, 2.90275573730468750000e-01) (28, 4.07572910189628601074e-02) (29, 8.35356116294860839844e-01) (30, 2.12697342038154602051e-01) (31, 6.32063388824462890625e-01) (32, 1.27651667594909667969e+00) (33, 2.41302683949470520020e-01) (34, 3.15619781613349914551e-02) (35, 4.12123575806617736816e-02) (36, 3.56127351522445678711e-01) (37, 1.45524764060974121094e+00) (38, -1.59203660488128662109e+00) (39, 1.14719346165657043457e-01) (40, 7.93001830577850341797e-01) (41, 8.44575107097625732422e-01) (42, 6.07726275920867919922e-01) (12, 1.10691487789154052734e-01) (13, 4.85632866621017456055e-01) (14, 8.43089222908020019531e-01) (15, 1.02224862575531005859e+00) (16, -8.16005527973175048828e-01) (17, 9.53685939311981201172e-02) (18, 2.04163063317537307739e-02) (19, -4.05344098806381225586e-01) (20, 6.95713877677917480469e-01) (21, -4.54708516597747802734e-01) (22, -6.35180249810218811035e-02) (23, 3.44429910182952880859e-01) (24, -1.46350309252738952637e-01) (25, 2.77173578739166259766e-01) (26, -1.01045286655426025391e+00) (27, -9.74999181926250457764e-03) (28, -2.67541348934173583984e-01) (29, 6.14562273025512695312e-01) (30, -1.43334075808525085449e-01) (31, 2.20640969276428222656e+00) (32, 9.36406433582305908203e-01) (33, -6.44807144999504089355e-02) (34, 1.30239158868789672852e-01) (35, -2.11361289024353027344e-01) (36, 9.21793997287750244141e-01) (37, -1.45207524299621582031e+00) (38, 1.04101061820983886719e+00) (39, -1.77801728248596191406e-01) (40, 8.07565867900848388672e-01) (41, 8.43182384967803955078e-01) (42, 1.86733877658843994141e+00) (12, -4.26198005676269531250e-01) (13, 4.01939392089843750000e-01) (14, -2.69445598125457763672e-01) (15, -9.02209639549255371094e-01) (16, -2.00351729989051818848e-01) (17, 1.00933998823165893555e-01) (18, 1.41438102722167968750e+00) (19, 5.83516359329223632812e-01) (20, 1.50663828849792480469e+00) (21, -6.19344972074031829834e-03) (22, -6.13013625144958496094e-01) (23, 8.65176975727081298828e-01) (24, 8.05964708328247070312e-01) (25, -1.45993494987487792969e+00) (26, -7.50997141003608703613e-02) (27, 7.59822249412536621094e-01) (28, 1.56996667385101318359e+00) (29, 6.75461411476135253906e-01) (30, -1.00203812122344970703e+00) (31, -7.44419217109680175781e-01) (32, -2.45773736387491226196e-02) (33, 3.90578746795654296875e-01) (34, 2.03131616115570068359e-01) (35, 1.22818633913993835449e-01) (36, -1.54454439878463745117e-01) (37, 8.64288508892059326172e-01) (38, -9.31341350078582763672e-01) (39, 5.46936631202697753906e-01) (40, 3.76581370830535888672e-01) (41, 3.84244066663086414337e-03) (42, 2.78487312607467174530e-03) (12, 9.15313046425580978394e-03) (13, -4.15449142456054687500e-01) (14, -8.55547189712524414062e-02) (15, -2.96117448806762695312e+00) (16, 3.48196737468242645264e-02) (17, 2.98994213342666625977e-01) (18, 5.91256737709045410156e-01) (19, -1.07287824153900146484e+00) (20, -2.65421956777572631836e-01) (21, -1.33215546607971191406e-01) (22, -4.12286430597305297852e-01) (23, 2.59899288415908813477e-01) (24, -4.80690240859985351562e-01) (25, -1.12669837474822998047e+00) (26, -5.51815517246723175049e-02) (27, 1.21785068511962890625e+00) (28, -8.42686474323272705078e-01) (29, 1.68303585052490234375e+00) (30, -3.25118303298950195312e-01) (31, 7.83758401870727539062e-01) (32, -1.71123909950256347656e+00) (33, 1.24567830935120582581e-02) (34, 7.58300006389617919922e-01) (35, -2.54676818847656250000e-01) (36, 8.98229897022247314453e-01) (37, 3.65465641021728515625e-01) (38, 2.68164664506912231445e-01) (39, 1.06832414865493774414e-01) (40, -8.30147266387939453125e-01) (41, 1.62014719098806381226e-02) (42, -6.11179709434509277344e-01) (12, 1.81285607814788818359e+00) (13, -1.11498308181762695312e+00) (14, 9.71653342247009277344e-01) (15, -9.73248064517974853516e-01) (16, -1.28275001049041748047e+00) (17, -1.09872615337371826172e+00) (18, 1.76003479957580566406e+00) (19, 1.03023163974285125732e-01) (20, -5.59034533798694610596e-02) (21, 1.31375777721405029297e+00) (22, 2.22455573081970214844e+00) (23, 1.12770831584930419922e+00) (24, -2.37141847610473632812e+00) (25, 2.32469663023948669434e-01) (26, 1.14394068717956542969e+00) (27, -1.25127160549163818359e+00) (28, -6.95451080799102783203e-01) (29, 1.27654194831848144531e+00) (30, 1.75916761159896850586e-01) (31, -1.02661526203155517578e+00) (32, 3.09778833389282226562e+00) (33, 9.03043091297149658203e-01) (34, -1.97353053092956542969e+00) (35, 1.26913025975227355957e-01) (36, -1.06869888305664062500e+00) (37, -1.64261031150817871094e+00) (38, 1.45347809791564941406e+00) (39, -3.83262515068054199219e-01) (40, -8.90888929367065429688e-01) (41, -4.14717435836791992188e-01) (42, -1.09221124649047851562e+00) (12, 5.89440941810607910156e-01) (13, 6.14353120326995849609e-01) (14, 4.66633476316928863525e-02) (15, -9.77894306182861328125e-01) (16, -2.47925996780395507812e-01) (17, -2.08412361145019531250e+00) (18, 8.37974369525909423828e-01) (19, 6.45099282264709472656e-02) (20, 1.05552327632904052734e+00) (21, 1.80166041851043701172e+00) (22, 1.91055536270141601562e+00) (23, 1.18711948394775390625e+00) (24, -2.77920436859130859375e+00) (25, 8.06345343589782714844e-01) (26, 1.12123775482177734375e+00) (27, 2.11355518549680709839e-02) (28, -3.57118099927902221680e-01) (29, 1.73226311802864074707e-01) (30, 7.41757333278656005859e-01) (31, 8.79016697406768798828e-01) (32, 9.14119780063629150391e-01) (33, 4.54315811395645141602e-01) (34, -1.15610063076019287109e+00) (35, 1.26469537615776062012e-01) (36, 5.43933749198913574219e-01) (37, 2.99680531024932861328e-01) (38, 1.29340982437133789062e+00) (39, -4.13867145776748657227e-01) (40, -1.76140213012695312500e+00) (41, -9.26624774932861328125e-01) (42, 1.04254436492919921875e+00) (12, -9.04327154159545898438e-01) (13, -9.52600598335266113281e-01) (14, 1.97383955121040344238e-01) (15, 1.53443717956542968750e+00) (16, -5.13208329677581787109e-01) (17, -1.88462689518928527832e-01) (18, -9.90755021572113037109e-01) (19, -8.02187025547027587891e-01) (20, 1.38911736011505126953e+00) (21, 2.02480718493461608887e-01) (22, 4.49885636568069458008e-01) (23, 1.24734270572662353516e+00) (24, -8.61572384834289550781e-01) (25, -7.42060899734497070312e-01) (26, -1.67129635810852050781e-01) (27, 8.87614667415618896484e-01) (28, -7.64400780200958251953e-01) (29, 5.86981773376464843750e-01) (30, 1.02928984165191650391e+00) (31, 6.64457440376281738281e-01) (32, 7.05074071884155273438e-01) (33, -4.12387996912002563477e-02) (34, 6.04633688926696777344e-01) (35, -5.11494576930999755859e-01) (36, -8.61629188060760498047e-01) (37, 1.77175629138946533203e+00) (38, -2.79278904199600219727e-01) (39, -5.80988109111785888672e-01) (40, -3.58969420194625854492e-01) (41, 2.60484099388122558594e-01) (42, -5.98592042922973632812e-01) (12, 9.98003304004669189453e-01) (13, -1.97161996364593505859e+00) (14, 1.46297502517700195312e+00) (15, 1.82772219181060791016e+00) (16, 7.78074204921722412109e-01) (17, 3.85903835296630859375e-01) (18, -2.97964103519916534424e-02) (19, -3.99242490530014038086e-01) (20, -2.01787209510803222656e+00) (21, -1.10875558853149414062e+00) (22, -2.71412134170532226562e-01) (23, -2.03602409362792968750e+00) (24, 4.35331314802169799805e-01) (25, -8.83839428424835205078e-01) (26, 4.98718202114105224609e-01) (27, -3.85123682022094726562e+00) (28, -1.83940857648849487305e-01) (29, -8.27978491783142089844e-01) (30, -5.96141934394836425781e-01) (31, 1.16320395469665527344e+00) (32, -6.74891293048858642578e-01) (33, -2.61386651545763015747e-02) (34, 2.87608653306961059570e-01) (35, 1.40599340200424194336e-01) (36, -5.96224963665008544922e-01) (37, 1.07434916496276855469e+00) (38, 8.19427311420440673828e-01) (39, -4.79178369045257568359e-01) (40, -1.22545015811920166016e+00) (41, -7.54658877849578857422e-01) (42, -4.58400279283523559570e-01) (12, 1.44692099094390869141e+00) (13, 3.90007823705673217773e-01) (14, -9.09631848335266113281e-01) (15, -1.66266322135925292969e-01) (16, 5.50772964954376220703e-01) (17, 6.05516791343688964844e-01) (18, -2.39513471722602844238e-01) (19, -3.87750357389450073242e-01) (20, 7.54464030265808105469e-01) (21, -1.76593935489654541016e+00) (22, -8.61683785915374755859e-01) (23, 1.24505734443664550781e+00) (24, 2.23363891243934631348e-01) (25, 3.06886974722146987915e-02) (26, 5.10759055614471435547e-01) (27, -7.52664804458618164062e-01) (28, -1.22851622104644775391e+00) (29, -2.00093626976013183594e+00) (30, 1.60277640819549560547e+00) (31, 2.31891608238220214844e+00) (32, -4.98920492827892303467e-03) (33, -4.20361727476119995117e-01) (34, -1.04683864116668701172e+00) (35, 6.24877035617828369141e-01) (36, 8.50944936275482177734e-01) (37, -1.38320416212081909180e-01) (38, 3.99810224771499633789e-01) (39, 1.00450098514556884766e+00) (40, -1.41798722743988037109e+00) (41, 2.14955747127532958984e-01) (42, 4.04878139495849609375e-01) (12, 2.19424080848693847656e+00) (13, -6.69860422611236572266e-01) (14, 4.39598178863525390625e+00) (15, 1.06431448459625244141e+00) (16, 4.78107023239135742188e+00) (17, -2.50380730628967285156e+00) (18, -6.70056581497192382812e-01) (19, 6.10403001308441162109e-01) (20, 3.86041581630706787109e-01) (21, -2.31249475479125976562e+00) (22, 3.82359838485717773438e+00) (23, 6.22645437717437744141e-01) (24, -1.36592769622802734375e+00) (25, 3.49355387687683105469e+00) (26, 1.56503903865814208984e+00) (27, 1.17154252529144287109e+00) (28, -2.42446160316467285156e+00) (29, -8.54474604129791259766e-01) (30, 1.23073875904083251953e+00) (31, -1.77236437797546386719e+00) (32, 3.53695511817932128906e+00) (33, 2.96294260025024414062e+00) (34, -8.33298301696777343750e+00) (35, 1.20562247931957244873e-01) (36, 7.49668002128601074219e-01) (37, -5.01893937587738037109e-01) (38, 5.60439300537109375000e+00) (39, 6.41906976699829101562e-01) (40, 1.31301951408386230469e+00) (41, 1.12412106990814208984e+00) (42, -6.67826458811759948730e-02) (12, 2.40250274538993835449e-01) (13, 2.06164896488189697266e-01) (14, 8.95425260066986083984e-01) (15, -1.88381120562553405762e-01) (16, -4.81507062911987304688e-01) (17, 2.91747421026229858398e-01) (18, 5.16182363033294677734e-01) (19, 5.33974647521972656250e-01) (20, -5.00828683376312255859e-01) (21, 9.81206819415092468262e-02) (22, 3.23005676269531250000e-01) (23, 2.31741368770599365234e-01) (24, -2.05755710601806640625e-01) (25, 3.99651676416397094727e-02) (26, -7.71539956331253051758e-02) (27, -9.79429602622985839844e-01) (28, -3.56819689273834228516e-01) (29, 1.81781911849975585938e+00) (30, -2.95168489217758178711e-01) (31, 1.61767339706420898438e+00) (32, -4.32467430830001831055e-01) (33, 4.25228625535964965820e-01) (34, -9.20575082302093505859e-01) (35, -9.11514535546302795410e-02) (36, 1.29032146930694580078e+00) (37, -1.58482110500335693359e+00) (38, 6.88347280025482177734e-01) (39, 9.64104413986206054688e-01) (40, -3.49627763032913208008e-01) (41, -9.01333987712860107422e-01) (42, 1.00142514705657958984e+00) (12, -1.59824585914611816406e+00) (13, 2.47303247451782226562e+00) (14, 2.86530113220214843750e+00) (15, -2.13670372962951660156e+00) (16, 2.35832452774047851562e+00) (17, -2.75097191333770751953e-01) (18, -1.32909893989562988281e-01) (19, 6.96291828155517578125e+00) (20, 3.07693386077880859375e+00) (21, 2.73242688179016113281e+00) (22, 3.89347124099731445312e+00) (23, 4.22709751129150390625e+00) (24, -5.23615837097167968750e+00) (25, 2.55537986755371093750e+00) (26, -9.71676111221313476562e-01) (27, 7.32618713378906250000e+00) (28, 1.89630341529846191406e+00) (29, -2.00849160552024841309e-01) (30, 1.04070627689361572266e+00) (31, -8.80018889904022216797e-01) (32, 1.29220354557037353516e+00) (33, 1.29035830497741699219e-01) (34, -1.59663951396942138672e+00) (35, 1.53989985585212707520e-01) (36, 4.67107534408569335938e+00) (37, 1.35446608066558837891e+00) (38, 9.09543514251708984375e-01) (39, 2.99711346626281738281e+00) (40, 5.32859611511230468750e+00) (41, -5.44084405899047851562e+00) (42, 7.86684691905975341797e-01) (12, 4.65522944927215576172e-01) (13, -1.84570159763097763062e-02) (14, -1.31636083126068115234e+00) (15, -9.51606452465057373047e-01) (16, 1.17897188663482666016e+00) (17, 5.88670432567596435547e-01) (18, 1.05440188199281692505e-02) (19, -2.43973955512046813965e-01) (20, -1.76908016204833984375e-01) (21, 1.36359286308288574219e+00) (22, -6.78227934986352920532e-03) (23, -3.86892408132553100586e-01) (24, 3.51372092962265014648e-01) (25, 1.06031572818756103516e+00) (26, 2.16372668743133544922e-01) (27, 3.10040801763534545898e-01) (28, -5.45498728752136230469e-01) (29, 5.45102417469024658203e-01) (30, 1.81673303246498107910e-01) (31, -3.96161377429962158203e-01) (32, -3.98823976516723632812e-01) (33, 2.55987972021102905273e-01) (34, -1.15362942218780517578e+00) (35, 2.39145785570144653320e-01) (36, -3.81445288658142089844e-01) (37, 4.39281165599822998047e-02) (38, 3.15653860569000244141e-01) (39, 8.99645507335662841797e-01) (40, -6.73993825912475585938e-01) (41, 8.04540276527404785156e-01) (42, 1.02849699556827545166e-01) (12, -4.50064480304718017578e-01) (13, -8.12503576278686523438e-01) (14, -3.88500876724720001221e-02) (15, -6.66323721408843994141e-01) (16, 4.08235549926757812500e-01) (17, 1.67205363512039184570e-01) (18, 1.27219355106353759766e+00) (19, -2.96111106872558593750e-01) (20, 1.51591408252716064453e+00) (21, 1.41314923763275146484e-01) (22, -1.64561152458190917969e-01) (23, -6.09669506549835205078e-01) (24, 8.82417112588882446289e-02) (25, -8.55797171592712402344e-01) (26, -2.76457339525222778320e-01) (27, 4.26946818828582763672e-01) (28, 7.16618061065673828125e-01) (29, -6.02803349494934082031e-01) (30, -5.21199464797973632812e-01) (31, -9.36842262744903564453e-01) (32, 2.21132755279541015625e-01) (33, -1.38301265239715576172e+00) (34, 3.97038608789443969727e-01) (35, -3.83766055107116699219e-01) (36, 3.73564422130584716797e-01) (37, 3.70082139968872070312e-01) (38, -1.88838854432106018066e-01) (39, -2.62231975793838500977e-01) (40, -1.41487419605255126953e+00) (41, 9.39462125301361083984e-01) (42, -1.59165465831756591797e+00) (12, 5.08447706699371337891e-01) (13, -3.26986350119113922119e-02) (14, 5.00060141086578369141e-01) (15, 8.35561335086822509766e-01) (16, 1.24652199447154998779e-01) (17, -6.51897072792053222656e-01) (18, 2.54172384738922119141e-01) (19, 1.84496343135833740234e+00) (20, 4.14077997207641601562e-01) (21, 1.15104532241821289062e+00) (22, 9.12737101316452026367e-02) (23, 1.56272854655981063843e-02) (24, -3.25961917638778686523e-01) (25, -3.44796180725097656250e-01) (26, -1.10226917266845703125e+00) (27, -6.16443336009979248047e-01) (28, -1.52248287200927734375e+00) (29, -2.87385553121566772461e-01) (30, 5.09564876556396484375e-01) (31, -7.72579669952392578125e-01) (32, -3.56243431568145751953e-01) (33, 4.59093213081359863281e-01) (34, 5.66166162490844726562e-01) (35, 1.54009461402893066406e-01) (36, 1.96304544806480407715e-01) (37, 8.90311241149902343750e-01) (38, 2.04723954200744628906e-01) (39, 5.49687623977661132812e-01) (40, 6.46438121795654296875e-01) (41, -2.50290185213088989258e-02) (42, 3.45901399850845336914e-01) (12, 1.49848967790603637695e-01) (13, -2.70137459039688110352e-01) (14, -4.57607835531234741211e-01) (15, 5.82678318023681640625e-01) (16, 3.77968996763229370117e-01) (17, 3.74947518110275268555e-01) (18, -4.93634819984436035156e-01) (19, 3.29234689474105834961e-01) (20, 4.00298237800598144531e-01) (21, -6.47491097450256347656e-01) (22, -1.29453015327453613281e+00) (23, -5.91923177242279052734e-01) (24, 8.12588632106781005859e-01) (25, -6.90989732742309570312e-01) (26, -2.71931797266006469727e-01) (27, -2.22982913255691528320e-01) (28, 6.92743837833404541016e-01) (29, 6.88472688198089599609e-01) (30, -3.90604078769683837891e-01) (31, 2.44791650772094726562e+00) (32, -2.42121621966361999512e-01) (33, -4.14673127233982086182e-02) (34, 6.26830101013183593750e-01) (35, 9.34631109237670898438e-01) (36, 2.78706606477499008179e-02) (37, -6.10695779323577880859e-01) (38, -1.10936427116394042969e+00) (39, -7.61932134628295898438e-01) (40, 8.76559317111968994141e-01) (41, 1.84104070067405700684e-01) (42, 3.53522688150405883789e-01) (12, 2.04761344939470291138e-02) (13, -1.16175217553973197937e-02) (14, 8.71094048023223876953e-01) (15, 1.15436112880706787109e+00) (16, -3.23780417442321777344e-01) (17, 2.77690470218658447266e-01) (18, -9.66333627700805664062e-01) (19, -1.30443215370178222656e-01) (20, -6.55873537063598632812e-01) (21, 5.24144411087036132812e-01) (22, -1.53536736965179443359e-01) (23, 4.47940766811370849609e-01) (24, -2.57354408502578735352e-01) (25, -7.29110121726989746094e-01) (26, 4.80163812637329101562e-01) (27, 1.19604408740997314453e-01) (28, -4.22456264495849609375e-02) (29, 7.38045930862426757812e-01) (30, 2.10629999637603759766e-01) (31, 5.76926410198211669922e-01) (32, 9.35492753982543945312e-01) (33, -5.32804094254970550537e-02) (34, 3.08478891849517822266e-01) (35, 5.21039962768554687500e-01) (36, 5.13514459133148193359e-01) (37, -7.67189741134643554688e-01) (38, 1.35651922225952148438e+00) (39, -1.99115648865699768066e-01) (40, 1.70786345005035400391e+00) (41, 5.48781335353851318359e-01) (42, -5.00294089317321777344e-01) (12, 4.32841777801513671875e-01) (13, -3.78619492053985595703e-01) (14, -9.05428051948547363281e-01) (15, 1.95220410823822021484e-01) (16, 3.84660959243774414062e-01) (17, -2.03184813261032104492e-01) (18, 1.92170187830924987793e-01) (19, 1.03682565689086914062e+00) (20, -4.18611079454421997070e-01) (21, 7.93462172150611877441e-02) (22, -6.84690177440643310547e-02) (23, 2.37255677580833435059e-01) (24, 2.80937224626541137695e-01) (25, -1.53055027127265930176e-01) (26, -1.15779675543308258057e-01) (27, -1.39142036437988281250e+00) (28, 4.46559190750122070312e-01) (29, -9.17288005352020263672e-01) (30, 4.52757120132446289062e-01) (31, 4.96594101190567016602e-01) (32, -3.96482318639755249023e-01) (33, 5.48663623631000518799e-02) (34, -4.00085240602493286133e-01) (35, 2.51880556344985961914e-01) (36, 2.00865548104047775269e-02) (37, -1.12557661533355712891e+00) (38, 2.36631259322166442871e-01) (39, -8.42020153999328613281e-01) (40, -1.12151272594928741455e-01) (41, 8.34269702434539794922e-01) (42, 3.74832391738891601562e-01) (12, -8.97287070751190185547e-01) (13, 8.00429999828338623047e-01) (14, -1.39460515975952148438e+00) (15, -3.88369411230087280273e-01) (16, -5.90261876583099365234e-01) (17, 6.35112822055816650391e-01) (18, -1.90923857688903808594e+00) (19, 9.64462697505950927734e-01) (20, 8.87816607952117919922e-01) (21, 1.17150318622589111328e+00) (22, -4.47460055351257324219e-01) (23, 1.14636421203613281250e+00) (24, -1.20624518394470214844e+00) (25, 8.40419232845306396484e-01) (26, -1.34704828262329101562e+00) (27, 1.38382887840270996094e+00) (28, 2.71762460470199584961e-01) (29, 1.68451333045959472656e+00) (30, 5.73974907398223876953e-01) (31, -1.05985057353973388672e+00) (32, -4.62127387523651123047e-01) (33, -7.95173197984695434570e-02) (34, -5.54326623678207397461e-02) (35, -6.68829828500747680664e-02) (36, 2.58439183235168457031e-01) (37, 2.70473456382751464844e+00) (38, -1.43428337574005126953e+00) (39, -1.38624215126037597656e+00) (40, 6.08226470649242401123e-02) (41, -1.84726309776306152344e+00) (42, -5.10979235172271728516e-01) (12, 2.18732059001922607422e-02) (13, -7.84744739532470703125e-01) (14, -7.41164267063140869141e-01) (15, 5.28887450695037841797e-01) (16, 6.20627224445343017578e-01) (17, 4.49604958295822143555e-01) (18, 4.45967882871627807617e-01) (19, -7.41782426834106445312e-01) (20, 1.09311592578887939453e+00) (21, 1.38431775569915771484e+00) (22, -1.91370069980621337891e-01) (23, 1.15189647674560546875e+00) (24, 5.94812870025634765625e-01) (25, 1.51638254523277282715e-01) (26, -7.76822507381439208984e-01) (27, 1.84713697433471679688e+00) (28, 1.35897409915924072266e+00) (29, 9.56625998020172119141e-01) (30, 1.91531226038932800293e-01) (31, 1.77099061012268066406e+00) (32, 6.69586181640625000000e-01) (33, 4.03905957937240600586e-01) (34, -3.37462306022644042969e-01) (35, -2.20212042331695556641e-01) (36, -3.47674898803234100342e-02) (37, 3.17614436149597167969e-01) (38, 3.13474297523498535156e-01) (39, -4.05346721410751342773e-01) (40, 2.19614058732986450195e-02) (41, 1.72399654984474182129e-01) (42, 8.87499511241912841797e-01) (12, 7.75970458984375000000e-01) (13, -1.36184781789779663086e-01) (14, -2.41012781858444213867e-01) (15, 6.87782585620880126953e-01) (16, 6.74668908119201660156e-01) (17, 7.68396675586700439453e-01) (18, 2.26673424243927001953e-01) (19, 8.55173051357269287109e-01) (20, 3.86867046356201171875e-01) (21, 1.39653787016868591309e-01) (22, -9.12242308259010314941e-02) (23, 9.09836351871490478516e-01) (24, 1.89325362443923950195e-01) (25, 4.07209783792495727539e-01) (26, -5.77403008937835693359e-01) (27, 9.06136214733123779297e-01) (28, -1.35243892669677734375e+00) (29, 3.60171943902969360352e-01) (30, 1.28457263112068176270e-01) (31, 1.78700760006904602051e-01) (32, 1.65778386592864990234e+00) (33, 2.59242683649063110352e-01) (34, -3.65610569715499877930e-01) (35, -1.81026041507720947266e-01) (36, 5.03638744354248046875e-01) (37, -5.30926227569580078125e-01) (38, 1.32255601882934570312e+00) (39, -7.40312278270721435547e-01) (40, 3.48808169364929199219e-01) (41, 7.76933610439300537109e-01) (42, -3.88986378908157348633e-01) (12, 1.80334186553955078125e+00) (13, 2.12580397725105285645e-01) (14, -9.46938216686248779297e-01) (15, 2.06771349906921386719e+00) (16, 7.84979224205017089844e-01) (17, 1.77230441570281982422e+00) (18, 1.84605693817138671875e+00) (19, 8.53567481040954589844e-01) (20, -7.70305931568145751953e-01) (21, -3.57945591211318969727e-01) (22, 1.47579836845397949219e+00) (23, 1.12639391422271728516e+00) (24, 9.03538107872009277344e-01) (25, -5.02095639705657958984e-01) (26, -5.04457592964172363281e-01) (27, -9.79574799537658691406e-01) (28, 7.78408467769622802734e-01) (29, 5.42470514774322509766e-01) (30, 1.71728587150573730469e+00) (31, -9.88788545131683349609e-01) (32, 6.51751160621643066406e-01) (33, 9.24521386623382568359e-01) (34, -1.16420173645019531250e+00) (35, 2.10622644424438476562e+00) (36, -1.33331429958343505859e+00) (37, -8.31735610961914062500e-01) (38, -1.18061196804046630859e+00) (39, -8.86771678924560546875e-01) (40, 2.76408982276916503906e+00) (41, -1.07374036312103271484e+00) (42, 1.14903807640075683594e+00) (12, 7.10396349430084228516e-01) (13, -8.24866890907287597656e-01) (14, -2.50679326057434082031e+00) (15, 3.11484050750732421875e+00) (16, 3.87247115373611450195e-01) (17, 2.47725963592529296875e+00) (18, 3.92172604799270629883e-01) (19, -7.95915067195892333984e-01) (20, -9.02262687683105468750e-01) (21, -7.14291393756866455078e-01) (22, 9.10160899162292480469e-01) (23, -5.63459336757659912109e-01) (24, 1.69963443279266357422e+00) (25, -2.10931611061096191406e+00) (26, 2.78982728719711303711e-01) (27, -6.73969030380249023438e-01) (28, 7.93721914291381835938e-01) (29, -2.46632412075996398926e-01) (30, 1.55764591693878173828e+00) (31, -1.83827424049377441406e+00) (32, 7.78990626335144042969e-01) (33, -2.20582103729248046875e+00) (34, 7.64526903629302978516e-01) (35, -2.39796563982963562012e-01) (36, 6.77143454551696777344e-01) (37, 9.03695106506347656250e-01) (38, -1.37824082374572753906e+00) (39, -4.39122095704078674316e-02) (40, 3.50401186943054199219e+00) (41, 7.16340959072113037109e-01) (42, 1.23403370380401611328e+00) (12, 2.30689838528633117676e-01) (13, 5.16943335533142089844e-01) (14, 3.29329222440719604492e-01) (15, 2.76608854532241821289e-01) (16, 3.12369942665100097656e-01) (17, 2.47480660676956176758e-01) (18, 4.10107254981994628906e-01) (19, 2.40773344039916992188e+00) (20, -1.09306655824184417725e-01) (21, 7.21815764904022216797e-01) (22, -4.89130854606628417969e-01) (23, 1.24954283237457275391e+00) (24, 4.52358514070510864258e-01) (25, 2.59291315078735351562e+00) (26, -1.96699750423431396484e+00) (27, -2.95729577541351318359e-01) (28, -2.47306674718856811523e-02) (29, 1.45608037710189819336e-01) (30, -1.42904245853424072266e+00) (31, -1.71364259719848632812e+00) (32, -3.61511498689651489258e-01) (33, 1.00493299961090087891e+00) (34, -2.90364474058151245117e-01) (35, -8.29893231391906738281e-01) (36, 6.79186522960662841797e-01) (37, 1.81174898147583007812e+00) (38, -1.75984203815460205078e+00) (39, -1.25761717557907104492e-01) (40, 5.45881509780883789062e-01) (41, -6.23829364776611328125e-01) (42, 1.29007375240325927734e+00) (12, 2.56571263074874877930e-01) (13, 3.73800575733184814453e-01) (14, 4.47050571441650390625e-01) (15, 6.59442722797393798828e-01) (16, 3.09328883886337280273e-01) (17, 1.15345299243927001953e+00) (18, 4.29753154516220092773e-01) (19, -6.68119013309478759766e-01) (20, -1.22684434056282043457e-01) (21, -6.45463228225708007812e-01) (22, 2.80641824007034301758e-01) (23, 6.88153505325317382812e-01) (24, 4.97229933738708496094e-01) (25, -1.65262842178344726562e+00) (26, -3.34417670965194702148e-01) (27, -3.34531426429748535156e-01) (28, -8.46561789512634277344e-01) (29, -7.95935630798339843750e-01) (30, 2.94055473059415817261e-02) (31, 4.71546620130538940430e-01) (32, 9.27289485931396484375e-01) (33, 6.36881828308105468750e-01) (34, 1.13645717501640319824e-01) (35, -1.83327466249465942383e-01) (36, -1.29840284585952758789e-01) (37, -9.09642994403839111328e-01) (38, 5.33450543880462646484e-01) (39, 5.45483767986297607422e-01) (40, 4.23263698816299438477e-01) (41, 1.98152303695678710938e-01) (42, 6.61042213439941406250e-01) (12, -1.18475759029388427734e+00) (13, 1.07331538200378417969e+00) (14, 1.12370264530181884766e+00) (15, 3.17288994789123535156e-01) (16, -9.85233113169670104980e-02) (17, -1.44512921571731567383e-01) (18, -8.44511747360229492188e-01) (19, 1.35899078845977783203e+00) (20, -4.00204151868820190430e-01) (21, 4.13239657878875732422e-01) (22, -3.47567617893218994141e-01) (23, 2.61815696954727172852e-01) (24, -2.77061283588409423828e-01) (25, 3.91101866960525512695e-01) (26, 1.86015531420707702637e-01) (27, 1.55730748176574707031e+00) (28, 1.03322386741638183594e-01) (29, -1.76444089412689208984e+00) (30, -1.19817829132080078125e+00) (31, 6.30501866340637207031e-01) (32, 9.42705869674682617188e-01) (33, -5.93867897987365722656e-01) (34, 8.02895307540893554688e-01) (35, 6.31493106484413146973e-02) (36, -9.10954654216766357422e-01) (37, 2.44419240951538085938e+00) (38, -7.11938560009002685547e-01) (39, -2.89782464504241943359e-01) (40, -4.41120984032750129700e-03) (41, -6.46394789218902587891e-01) (42, 4.73940521478652954102e-01) (12, -1.10169291496276855469e+00) (13, -2.01276496052742004395e-01) (14, -2.21637994050979614258e-01) (15, -4.52915094792842864990e-02) (16, -5.05924403667449951172e-01) (17, 2.62148343026638031006e-02) (18, -1.63851037621498107910e-01) (19, 6.30516782402992248535e-02) (20, 1.39427222311496734619e-02) (21, -7.00168371200561523438e-01) (22, 1.35731846094131469727e-01) (23, 3.49266499280929565430e-01) (24, 4.97357435524463653564e-02) (25, 5.46815633773803710938e-01) (26, -2.41589054465293884277e-01) (27, 8.80902707576751708984e-01) (28, -8.50979506969451904297e-01) (29, -2.31721949577331542969e+00) (30, -8.72747242450714111328e-01) (31, 1.23123526573181152344e+00) (32, 9.79391276836395263672e-01) (33, 4.72569882869720458984e-01) (34, -7.07639992237091064453e-01) (35, -6.17691397666931152344e-01) (36, 1.08235740661621093750e+00) (37, 1.28263521194458007812e+00) (38, 3.08807849884033203125e-01) (39, 1.09885238111019134521e-01) (40, -1.80068588256835937500e+00) (41, -4.24866259098052978516e-01) (42, 2.82470807433128356934e-02) (12, -1.01306867599487304688e+00) (13, 4.61470693349838256836e-01) (14, 8.23221802711486816406e-02) (15, 3.63723605871200561523e-01) (16, 9.09405350685119628906e-01) (17, -3.19717764854431152344e-01) (18, 1.49481284618377685547e+00) (19, -2.30204522609710693359e-01) (20, 8.06993186473846435547e-01) (21, 1.14802710711956024170e-01) (22, 7.88512408733367919922e-01) (23, 2.83078968524932861328e-01) (24, 1.50832915306091308594e+00) (25, -7.81935825943946838379e-02) (26, 9.61959302425384521484e-01) (27, 4.62531149387359619141e-01) (28, 1.34173238277435302734e+00) (29, 2.27805316448211669922e-01) (30, 8.54088366031646728516e-01) (31, 1.63515806198120117188e-01) (32, 6.57308042049407958984e-01) (33, -8.74476253986358642578e-01) (34, 8.98631334304809570312e-01) (35, 2.27888131141662597656e+00) (36, -1.32924139499664306641e+00) (37, 5.96809148788452148438e-01) (38, -5.89271962642669677734e-01) (39, 1.17627513408660888672e+00) (40, 6.11615836620330810547e-01) (41, 1.53565418720245361328e+00) (42, 2.88162752985954284668e-02) (43, -2.63032883405685424805e-01) (44, -6.19660973548889160156e-01) (45, 5.35575091838836669922e-01) (46, -8.22322368621826171875e-01) (47, 7.86126911640167236328e-01) (48, 7.83873856067657470703e-01) (49, 1.03428892791271209717e-01) (50, -1.08412884175777435303e-01) (51, -3.86945233913138508797e-04) (52, -2.48666107654571533203e-01) (53, -3.32427948713302612305e-01) (54, -3.23326024226844310760e-03) (55, 2.46275961399078369141e-01) (56, -1.87999933958053588867e-01) (57, 6.94875836372375488281e-01) (58, 4.37299966812133789062e-01) (59, 1.53211429715156555176e-01) (60, 4.33842271566390991211e-01) (61, 3.83163213729858398438e-01) (62, -1.75700449943542480469e+00) (63, 5.43599784374237060547e-01) (64, -1.40855205059051513672e+00) (65, 1.03641045093536376953e+00) (66, 2.67990946769714355469e-01) (67, 4.58548665046691894531e-01) (68, -6.81553259491920471191e-02) (69, 2.82798945903778076172e-01) (70, -2.05960661172866821289e-01) (71, 2.39192649722099304199e-01) (72, 2.38339602947235107422e-01) (73, 3.92861276865005493164e-01) (43, -2.66501456499099731445e-01) (44, -5.45770585536956787109e-01) (45, 3.61662477254867553711e-01) (46, -2.81889270991086959839e-02) (47, 3.45577150583267211914e-01) (48, 2.21664994955062866211e-01) (49, -6.31193444132804870605e-02) (50, -7.13041052222251892090e-02) (51, -8.73267427086830139160e-02) (52, 9.74534824490547180176e-02) (53, -1.22592486441135406494e-01) (54, -7.69965946674346923828e-02) (55, 1.81525319814682006836e-01) (56, 9.16480794548988342285e-02) (57, 6.20827019214630126953e-01) (58, 1.26627087593078613281e+00) (59, 1.02759039402008056641e+00) (60, -1.32713913917541503906e-01) (61, 1.20692992210388183594e+00) (62, -2.82927662134170532227e-01) (63, 2.45585396885871887207e-01) (64, 2.64868587255477905273e-01) (65, -1.33223712444305419922e+00) (66, 4.90960711613297462463e-03) (67, -6.08977228403091430664e-02) (68, -2.67853230237960815430e-01) (69, 1.32000565528869628906e+00) (70, -6.45564543083310127258e-03) (71, 2.08806060254573822021e-02) (72, -1.77523136138916015625e-01) (73, -4.41086590290069580078e-01) (43, 3.61939936876296997070e-01) (44, -1.40437588095664978027e-01) (45, 4.60023045539855957031e-01) (46, -1.51537907123565673828e+00) (47, 1.25285243988037109375e+00) (48, -2.87705749273300170898e-01) (49, 7.08786725997924804688e-01) (50, -4.87058997154235839844e-01) (51, 9.19203639030456542969e-01) (52, 8.21512877941131591797e-01) (53, 4.03214022517204284668e-02) (54, 8.75213742256164550781e-02) (55, 3.46919357776641845703e-01) (56, 5.86115904152393341064e-02) (57, 9.08097267150878906250e-01) (58, 2.02346611022949218750e+00) (59, 9.27108049392700195312e-01) (60, 7.31992959976196289062e-01) (61, 1.53903162479400634766e+00) (62, 1.18781194090843200684e-01) (63, 3.55933010578155517578e-01) (64, -7.90455400943756103516e-01) (65, 2.22170174121856689453e-01) (66, -3.78554314374923706055e-01) (67, 7.81128183007240295410e-02) (68, -7.38855972886085510254e-02) (69, 6.49762392044067382812e-01) (70, -9.41020846366882324219e-01) (71, 4.97492402791976928711e-01) (72, -9.42821726202964782715e-02) (73, 1.53977179527282714844e+00) (43, 1.67363569140434265137e-01) (44, 8.78523290157318115234e-02) (45, 1.79896485060453414917e-02) (46, 7.96278834342956542969e-01) (47, 9.02637243270874023438e-01) (48, 1.31942080333828926086e-02) (49, -1.72975629568099975586e-01) (50, 4.17595177888870239258e-01) (51, 2.46883139014244079590e-01) (52, 6.21002197265625000000e-01) (53, 3.18402737379074096680e-01) (54, -4.25325810909271240234e-01) (55, -6.63555741310119628906e-01) (56, 4.15841132402420043945e-01) (57, 8.54946732521057128906e-01) (58, 6.36875391006469726562e-01) (59, -4.94751632213592529297e-01) (60, 1.65542483329772949219e-01) (61, 8.81067931652069091797e-01) (62, -3.13460305333137512207e-02) (63, 5.71929067373275756836e-02) (64, -4.27172213792800903320e-01) (65, 3.97015154361724853516e-01) (66, 4.93344753980636596680e-01) (67, 2.43728816509246826172e-01) (68, 3.31859290599822998047e-01) (69, -8.35783839225769042969e-01) (70, -1.54652446508407592773e-01) (71, 9.00883436203002929688e-01) (72, -3.67953717708587646484e-01) (73, 3.52447688579559326172e-01) (43, -7.72412046790122985840e-02) (44, -8.02715793251991271973e-02) (45, 8.37882041931152343750e-01) (46, 2.25914940237998962402e-01) (47, 2.74557560682296752930e-01) (48, 1.82437151670455932617e-01) (49, 1.17554694414138793945e-01) (50, -1.18606418371200561523e-01) (51, -2.23249401897192001343e-02) (52, 4.62884813547134399414e-01) (53, -6.28410995006561279297e-01) (54, -6.58635348081588745117e-02) (55, 1.60596096515655517578e+00) (56, 4.04320925474166870117e-01) (57, 6.02808073163032531738e-02) (58, -8.17034900188446044922e-01) (59, 1.98113217949867248535e-01) (60, 3.77842992544174194336e-01) (61, -1.43886709213256835938e+00) (62, 2.53771495819091796875e+00) (63, -4.03036236763000488281e-01) (64, -1.64514029026031494141e+00) (65, 1.43683433532714843750e+00) (66, -7.34640955924987792969e-01) (67, 4.28616583347320556641e-01) (68, 1.18722414970397949219e+00) (69, 8.79594162106513977051e-02) (70, 2.96979641914367675781e+00) (71, 1.74335455894470214844e+00) (72, -4.12840098142623901367e-01) (73, -2.13997066020965576172e-01) (43, 2.08335089683532714844e+00) (44, 8.00545513629913330078e-01) (45, -1.04463374614715576172e+00) (46, -1.47332191467285156250e+00) (47, 1.55339086055755615234e+00) (48, 2.38326835632324218750e+00) (49, 7.62690365314483642578e-01) (50, 2.22527050971984863281e+00) (51, -2.04096198081970214844e+00) (52, 1.94170904159545898438e+00) (53, 2.99129629135131835938e+00) (54, 3.33385109901428222656e+00) (55, 1.51771688461303710938e+00) (56, -3.01572918891906738281e+00) (57, -2.78727078437805175781e+00) (58, 1.41608071327209472656e+00) (59, 1.03183579444885253906e+00) (60, -8.22338700294494628906e-01) (61, 1.20159780979156494141e+00) (62, 1.73328900337219238281e+00) (63, 2.31219267845153808594e+00) (64, 1.77340239286422729492e-01) (65, 2.89751887321472167969e+00) (66, -1.41600096225738525391e+00) (67, 2.51977252960205078125e+00) (68, 2.52232861518859863281e+00) (69, 7.45951831340789794922e-01) (70, 1.49125441908836364746e-01) (71, 5.57850599288940429688e-01) (72, 3.60579228401184082031e+00) (73, 8.49987491965293884277e-02) (43, -1.00693516433238983154e-02) (44, -6.59188032150268554688e-01) (45, 1.07086265087127685547e+00) (46, 9.00573968887329101562e-01) (47, 2.54533082246780395508e-01) (48, 2.13834142684936523438e+00) (49, -2.27041676640510559082e-01) (50, 6.07404410839080810547e-01) (51, 9.59303379058837890625e-01) (52, 4.15458321571350097656e-01) (53, 1.12337604165077209473e-01) (54, 2.09288284182548522949e-01) (55, 7.81225085258483886719e-01) (56, -3.47944349050521850586e-01) (57, 7.00852751731872558594e-01) (58, -9.32422101497650146484e-01) (59, 4.32748943567276000977e-01) (60, 1.69059407711029052734e+00) (61, -1.00594723224639892578e+00) (62, -1.98357152938842773438e+00) (63, 2.02637419104576110840e-01) (64, 3.12639832496643066406e-01) (65, -2.61576861143112182617e-01) (66, 7.68461287021636962891e-01) (67, -3.22933774441480636597e-03) (68, -1.02507364749908447266e+00) (69, -4.98975999653339385986e-02) (70, 1.86819776892662048340e-01) (71, 1.80022990703582763672e+00) (72, 3.39958071708679199219e-01) (73, 1.79292643070220947266e+00) (43, -3.60574245452880859375e-01) (44, -1.79337084293365478516e+00) (45, 2.52803158760070800781e+00) (46, -4.13724571466445922852e-01) (47, -5.53486347198486328125e-01) (48, -1.93724602460861206055e-01) (49, -2.83871859312057495117e-01) (50, 7.01357424259185791016e-01) (51, -4.68310087919235229492e-01) (52, -2.52357631921768188477e-01) (53, 1.19943904876708984375e+00) (54, 3.76929163932800292969e-01) (55, -3.39245259761810302734e-01) (56, -6.31488114595413208008e-02) (57, -1.61531537771224975586e-01) (58, 1.25014185905456542969e+00) (59, 5.68534255027770996094e-01) (60, 1.12790417671203613281e+00) (61, 2.75741189718246459961e-01) (62, -1.00391101837158203125e+00) (63, 2.22369521856307983398e-01) (64, -3.42018276453018188477e-01) (65, -1.09515404701232910156e+00) (66, -1.16861474514007568359e+00) (67, -3.40778499841690063477e-01) (68, 8.82628083229064941406e-01) (69, 3.02693915367126464844e+00) (70, 6.44107721745967864990e-03) (71, -8.37394073605537414551e-02) (72, -3.48794788122177124023e-01) (73, -9.62618529796600341797e-01) (43, 3.10256242752075195312e-01) (44, -1.94784736633300781250e+00) (45, 1.75822401046752929688e+00) (46, 2.55846947431564331055e-01) (47, 1.79510474205017089844e+00) (48, -4.32072997093200683594e-01) (49, -1.12055897712707519531e+00) (50, 1.00618219375610351562e+00) (51, 3.01587510108947753906e+00) (52, 7.10927784442901611328e-01) (53, 6.28995001316070556641e-01) (54, -1.42675638198852539062e-01) (55, 6.49497061967849731445e-02) (56, 2.42626462131738662720e-02) (57, 7.75090992450714111328e-01) (58, 2.45496928691864013672e-01) (59, 1.15392720699310302734e+00) (60, 1.14604949951171875000e+00) (61, -1.15144336223602294922e+00) (62, 1.77679404616355895996e-01) (63, -1.70050692558288574219e+00) (64, -2.87835049629211425781e+00) (65, 3.40207481384277343750e+00) (66, -1.63958978652954101562e+00) (67, -6.24547481536865234375e-01) (68, 2.18974053859710693359e-01) (69, -9.57879662513732910156e-01) (70, -2.50872111320495605469e+00) (71, -6.61142230033874511719e-01) (72, 5.94308078289031982422e-01) (73, 1.09421157836914062500e+00)
input_names='a' 'betan' 'bt' 'delta' 'i_coil' 'ip' 'kappa' 'neped' 'r' 'rotation' 'zeffped'
output_names='OUT_P2e_EPED' 'OUT_P2e_rmpsoff' 'OUT_P2e_rmpson' 'OUT_elm_frequency_EPED' 'OUT_elm_frequency_rmpsoff' 'OUT_elm_frequency_rmpson' 'OUT_wte_EPED' 'OUT_wte_rmpsoff' 'OUT_wte_rmpson'
norm_output=0.0 0.0 0.0 0.0 0.0 0.0 0.0 0.0 0.0 0.0 0.0 0.0 0.0 0.0 0.0 0.0 0.0 0.0 0.0 0.0 0.0 0.0 0.0 0.0 0.0 0.0 0.0 0.0 0.0 0.0 0.0 0.0 0.0 0.0 0.0 0.0 0.0 0.0 0.0 0.0 0.0 0.0 0.0 0.0 0.0 0.0 0.0 0.0 0.0 0.0 0.0 0.0 0.0 0.0 0.0 0.0 0.0 0.0 0.0 0.0 0.0 0.0 0.0 0.0 0.0 0.0 0.0 0.0 0.0 0.0 0.0 0.0 0.0 0.0 0.0 0.0 0.0 0.0 0.0 0.0 0.0 0.0 0.0 0.0 0.0 0.0 0.0 0.0 0.0 0.0 0.0 0.0 0.0 0.0 0.0 0.0 0.0 0.0 0.0
MSE= 0.217246413231