FANN_FLO_2.1
num_layers=4
learning_rate=0.700000
connection_rate=1.000000
network_type=0
learning_momentum=0.000000
training_algorithm=2
train_error_function=0
train_stop_function=0
cascade_output_change_fraction=0.010000
quickprop_decay=246.841553
quickprop_mu=1.750000
rprop_increase_factor=1.200000
rprop_decrease_factor=0.500000
rprop_delta_min=0.000000
rprop_delta_max=50.000000
rprop_delta_zero=0.100000
cascade_output_stagnation_epochs=12
cascade_candidate_change_fraction=0.010000
cascade_candidate_stagnation_epochs=12
cascade_max_out_epochs=150
cascade_min_out_epochs=50
cascade_max_cand_epochs=150
cascade_min_cand_epochs=50
cascade_num_candidate_groups=2
bit_fail_limit=3.49999994039535522461e-01
cascade_candidate_limit=1.00000000000000000000e+03
cascade_weight_multiplier=4.00000005960464477539e-01
cascade_activation_functions_count=10
cascade_activation_functions=3 5 7 8 10 11 14 15 16 17
cascade_activation_steepnesses_count=4
cascade_activation_steepnesses=2.50000000000000000000e-01 5.00000000000000000000e-01 7.50000000000000000000e-01 1.00000000000000000000e+00
layer_sizes=12 31 31 10
scale_included=1
scale_mean_in=0.595710 1.725386 1.856146 0.505992 3676.362793 1.428655 1.810080 3.038681 1.739604 -8.041503 1.898420
scale_deviation_in=0.002873 0.364799 0.150563 0.019752 1002.251953 0.206163 0.008729 1.216456 0.020967 7.740559 0.492744
scale_new_min_in=-1.000000 -1.000000 -1.000000 -1.000000 -1.000000 -1.000000 -1.000000 -1.000000 -1.000000 -1.000000 -1.000000
scale_factor_in=1.000000 1.000000 1.000000 1.000000 1.000000 1.000000 1.000000 1.000000 1.000000 1.000000 1.000000
scale_mean_out=0.006885 0.006940 0.006452 0.000000 1.617205 1.805368 0.028493 0.033410 0.029136
scale_deviation_out=0.001293 0.001990 0.002194 0.000001 0.176400 0.429144 0.002952 0.003744 0.008478
scale_new_min_out=-1.000000 -1.000000 -1.000000 -1.000000 -1.000000 -1.000000 -1.000000 -1.000000 -1.000000
scale_factor_out=1.000000 1.000000 1.000000 1.000000 1.000000 1.000000 1.000000 1.000000 1.000000
neurons (num_inputs, activation_function, activation_steepness)=(0, 0, 0.00000000000000000000e+00) (0, 0, 0.00000000000000000000e+00) (0, 0, 0.00000000000000000000e+00) (0, 0, 0.00000000000000000000e+00) (0, 0, 0.00000000000000000000e+00) (0, 0, 0.00000000000000000000e+00) (0, 0, 0.00000000000000000000e+00) (0, 0, 0.00000000000000000000e+00) (0, 0, 0.00000000000000000000e+00) (0, 0, 0.00000000000000000000e+00) (0, 0, 0.00000000000000000000e+00) (0, 0, 0.00000000000000000000e+00) (12, 5, 5.00000000000000000000e-01) (12, 5, 5.00000000000000000000e-01) (12, 5, 5.00000000000000000000e-01) (12, 5, 5.00000000000000000000e-01) (12, 5, 5.00000000000000000000e-01) (12, 5, 5.00000000000000000000e-01) (12, 5, 5.00000000000000000000e-01) (12, 5, 5.00000000000000000000e-01) (12, 5, 5.00000000000000000000e-01) (12, 5, 5.00000000000000000000e-01) (12, 5, 5.00000000000000000000e-01) (12, 5, 5.00000000000000000000e-01) (12, 5, 5.00000000000000000000e-01) (12, 5, 5.00000000000000000000e-01) (12, 5, 5.00000000000000000000e-01) (12, 5, 5.00000000000000000000e-01) (12, 5, 5.00000000000000000000e-01) (12, 5, 5.00000000000000000000e-01) (12, 5, 5.00000000000000000000e-01) (12, 5, 5.00000000000000000000e-01) (12, 5, 5.00000000000000000000e-01) (12, 5, 5.00000000000000000000e-01) (12, 5, 5.00000000000000000000e-01) (12, 5, 5.00000000000000000000e-01) (12, 5, 5.00000000000000000000e-01) (12, 5, 5.00000000000000000000e-01) (12, 5, 5.00000000000000000000e-01) (12, 5, 5.00000000000000000000e-01) (12, 5, 5.00000000000000000000e-01) (12, 5, 5.00000000000000000000e-01) (0, 5, 0.00000000000000000000e+00) (31, 5, 5.00000000000000000000e-01) (31, 5, 5.00000000000000000000e-01) (31, 5, 5.00000000000000000000e-01) (31, 5, 5.00000000000000000000e-01) (31, 5, 5.00000000000000000000e-01) (31, 5, 5.00000000000000000000e-01) (31, 5, 5.00000000000000000000e-01) (31, 5, 5.00000000000000000000e-01) (31, 5, 5.00000000000000000000e-01) (31, 5, 5.00000000000000000000e-01) (31, 5, 5.00000000000000000000e-01) (31, 5, 5.00000000000000000000e-01) (31, 5, 5.00000000000000000000e-01) (31, 5, 5.00000000000000000000e-01) (31, 5, 5.00000000000000000000e-01) (31, 5, 5.00000000000000000000e-01) (31, 5, 5.00000000000000000000e-01) (31, 5, 5.00000000000000000000e-01) (31, 5, 5.00000000000000000000e-01) (31, 5, 5.00000000000000000000e-01) (31, 5, 5.00000000000000000000e-01) (31, 5, 5.00000000000000000000e-01) (31, 5, 5.00000000000000000000e-01) (31, 5, 5.00000000000000000000e-01) (31, 5, 5.00000000000000000000e-01) (31, 5, 5.00000000000000000000e-01) (31, 5, 5.00000000000000000000e-01) (31, 5, 5.00000000000000000000e-01) (31, 5, 5.00000000000000000000e-01) (31, 5, 5.00000000000000000000e-01) (0, 5, 0.00000000000000000000e+00) (31, 0, 5.00000000000000000000e-01) (31, 0, 5.00000000000000000000e-01) (31, 0, 5.00000000000000000000e-01) (31, 0, 5.00000000000000000000e-01) (31, 0, 5.00000000000000000000e-01) (31, 0, 5.00000000000000000000e-01) (31, 0, 5.00000000000000000000e-01) (31, 0, 5.00000000000000000000e-01) (31, 0, 5.00000000000000000000e-01) (0, 0, 0.00000000000000000000e+00)
connections (connected_to_neuron, weight)=(0, 1.48067474365234375000e+00) (1, 4.74057340621948242188e+00) (2, 4.88361549377441406250e+00) (3, 3.60930323600769042969e+00) (4, -4.09713834524154663086e-02) (5, 7.07053709030151367188e+00) (6, 1.31285750865936279297e+00) (7, 2.64529967308044433594e+00) (8, 3.57551717758178710938e+00) (9, 2.79133975505828857422e-01) (10, -9.87731218338012695312e-01) (11, -1.75263309478759765625e+00) (0, 5.52779972553253173828e-01) (1, 1.92719793319702148438e+00) (2, -8.54169249534606933594e-01) (3, -1.28952607512474060059e-01) (4, 6.04069888591766357422e-01) (5, -4.95083391666412353516e-01) (6, 5.63241183757781982422e-01) (7, 2.70826160907745361328e-01) (8, 1.82654052972793579102e-01) (9, -1.90107360482215881348e-01) (10, -1.81866735219955444336e-01) (11, 8.61794590950012207031e-01) (0, 1.12754678726196289062e+00) (1, 3.25505971908569335938e-01) (2, 2.89183688163757324219e+00) (3, 2.37033993005752563477e-01) (4, 1.76969215273857116699e-01) (5, 7.17774987220764160156e-01) (6, 3.84539067745208740234e-01) (7, 5.88118791580200195312e-01) (8, -5.32649874687194824219e-01) (9, -2.16911539435386657715e-01) (10, -7.91195109486579895020e-02) (11, -2.90077179670333862305e-01) (0, -7.54207968711853027344e-02) (1, -1.53264179825782775879e-01) (2, 1.40555247664451599121e-01) (3, 2.81596839427947998047e-01) (4, 2.19469480216503143311e-02) (5, 1.31404960155487060547e+00) (6, -1.04779206216335296631e-01) (7, -8.81144683808088302612e-03) (8, 6.72976523637771606445e-02) (9, -3.53864431381225585938e-01) (10, 3.70744585990905761719e-01) (11, -2.12526351213455200195e-01) (0, 6.07444524765014648438e-01) (1, 2.02693939208984375000e-01) (2, -6.61853432655334472656e-01) (3, -3.85060608386993408203e-01) (4, -3.85366439819335937500e-01) (5, -1.81910610198974609375e+00) (6, -5.69944381713867187500e-01) (7, -1.46109819412231445312e+00) (8, 1.25525563955307006836e-01) (9, -3.40582430362701416016e-01) (10, -1.84040382504463195801e-01) (11, -1.94967961311340332031e+00) (0, -3.05699437856674194336e-01) (1, 2.94227778911590576172e-01) (2, 8.22404265403747558594e-01) (3, -1.95291206240653991699e-01) (4, 3.99175472557544708252e-02) (5, -6.63841545581817626953e-01) (6, -5.45981675386428833008e-02) (7, 1.30955958366394042969e+00) (8, 4.79176044464111328125e-01) (9, -2.34186962246894836426e-01) (10, 4.81351494789123535156e-01) (11, -1.26761066913604736328e+00) (0, 1.30376279354095458984e-01) (1, 1.19579148292541503906e+00) (2, -1.36655032634735107422e+00) (3, 9.62464094161987304688e-01) (4, 3.42612266540527343750e-01) (5, 1.56047523021697998047e+00) (6, 3.97253990173339843750e-01) (7, -2.02274417877197265625e+00) (8, -3.97972315549850463867e-01) (9, -5.48647344112396240234e-02) (10, 6.12757086753845214844e-01) (11, 1.43523991107940673828e-01) (0, -6.83124959468841552734e-01) (1, -1.53500139713287353516e+00) (2, 3.39533686637878417969e-02) (3, -4.93272505700588226318e-02) (4, -1.50005191564559936523e-01) (5, 8.42882156372070312500e-01) (6, 6.71192780137062072754e-02) (7, 8.19298148155212402344e-01) (8, 8.95006120204925537109e-01) (9, -4.77023184299468994141e-01) (10, 8.25291872024536132812e-01) (11, 2.26586520671844482422e-01) (0, -4.15457785129547119141e-01) (1, 1.05601084232330322266e+00) (2, 4.81469601392745971680e-01) (3, 6.01593554019927978516e-01) (4, -8.09584856033325195312e-01) (5, 2.32977986335754394531e+00) (6, 4.71024632453918457031e-01) (7, 3.52671146392822265625e-01) (8, 6.42900824546813964844e-01) (9, 6.10553562641143798828e-01) (10, 5.55141828954219818115e-02) (11, -1.57207727432250976562e+00) (0, -2.61048883199691772461e-01) (1, -1.26101720333099365234e+00) (2, -1.36283779144287109375e+00) (3, 7.57113337516784667969e-01) (4, -2.20768198370933532715e-01) (5, -1.28862583637237548828e+00) (6, 1.53497949242591857910e-01) (7, 1.18092620372772216797e+00) (8, 1.01882004737854003906e+00) (9, 1.27732589840888977051e-01) (10, -3.03474783897399902344e-01) (11, 3.04914069175720214844e+00) (0, -9.51678529381752014160e-02) (1, 5.56920170783996582031e-01) (2, -6.33799061179161071777e-02) (3, 3.95026877522468566895e-02) (4, 1.12287580966949462891e-01) (5, 6.12003684043884277344e-01) (6, -1.18523702025413513184e-01) (7, 1.29305899143218994141e+00) (8, -3.58496576547622680664e-01) (9, 1.85222908854484558105e-01) (10, -8.61785829067230224609e-01) (11, 2.63785451650619506836e-01) (0, 1.90276563167572021484e-01) (1, 1.35992217063903808594e+00) (2, -1.19820022583007812500e+00) (3, -9.82320964336395263672e-01) (4, 1.60034871101379394531e+00) (5, 4.54031527042388916016e-01) (6, 4.54917013645172119141e-01) (7, 6.37756764888763427734e-01) (8, 2.17529714107513427734e-01) (9, 1.16306769847869873047e+00) (10, -5.65350711345672607422e-01) (11, -9.20124471187591552734e-01) (0, -4.65459793806076049805e-01) (1, 7.11068689823150634766e-01) (2, -1.62857007980346679688e+00) (3, 6.84931516647338867188e-01) (4, 1.36443758010864257812e+00) (5, 2.72643655538558959961e-01) (6, 2.65133827924728393555e-01) (7, -1.25234079360961914062e+00) (8, -8.30621302127838134766e-01) (9, -1.35505825281143188477e-01) (10, 6.11940264701843261719e-01) (11, 9.64685559272766113281e-01) (0, 1.74164488911628723145e-01) (1, -1.21471631526947021484e+00) (2, 3.39362716674804687500e+00) (3, -4.37827318906784057617e-01) (4, 2.10985429584980010986e-02) (5, -1.32016885280609130859e+00) (6, 4.64766938239336013794e-03) (7, 3.05735260248184204102e-01) (8, 5.54091691970825195312e-01) (9, -1.09726712107658386230e-01) (10, 1.41519599128514528275e-03) (11, -2.56061267852783203125e+00) (0, -2.39583000540733337402e-01) (1, 6.27474069595336914062e-01) (2, 4.29224193096160888672e-01) (3, -1.06127500534057617188e-01) (4, -5.57929277420043945312e-01) (5, 1.56745791435241699219e+00) (6, 5.36859512329101562500e-01) (7, 1.15756392478942871094e+00) (8, 3.03966581821441650391e-01) (9, 3.93090367317199707031e-01) (10, 1.67081784456968307495e-02) (11, -1.62332922220230102539e-01) (0, -2.27770820260047912598e-01) (1, -5.21059989929199218750e-01) (2, -6.74036026000976562500e-01) (3, -1.39210879802703857422e-01) (4, 1.85044944286346435547e-01) (5, -8.30644369125366210938e-01) (6, -2.63862401247024536133e-01) (7, 3.61293107271194458008e-01) (8, -3.95775020122528076172e-01) (9, -3.83244961500167846680e-01) (10, 1.93376213312149047852e-01) (11, -1.18694961071014404297e-01) (0, 1.00864744186401367188e+00) (1, -4.42112445831298828125e-01) (2, 2.00518393516540527344e+00) (3, 9.08246040344238281250e-01) (4, 1.87751114368438720703e-01) (5, -8.84739220142364501953e-01) (6, -3.57144713401794433594e-01) (7, 6.71987414360046386719e-01) (8, -6.10904514789581298828e-01) (9, 8.86013567447662353516e-01) (10, 8.67708921432495117188e-02) (11, -1.39163970947265625000e+00) (0, 3.86726632714271545410e-02) (1, -9.05089318752288818359e-01) (2, -5.55901169776916503906e-01) (3, -4.09781962633132934570e-01) (4, -2.58073389530181884766e-01) (5, 1.79374739527702331543e-01) (6, -4.74266499280929565430e-01) (7, -1.40368950366973876953e+00) (8, -6.69461429119110107422e-01) (9, 8.17440077662467956543e-03) (10, 2.13950589299201965332e-01) (11, -6.57161176204681396484e-01) (0, 2.93976485729217529297e-01) (1, 7.79010295867919921875e-01) (2, 1.21399037539958953857e-01) (3, 8.94043087959289550781e-01) (4, 3.22261452674865722656e-02) (5, -1.62791836261749267578e+00) (6, -2.78982818126678466797e-02) (7, 1.03915727138519287109e+00) (8, -1.00940322875976562500e+00) (9, 8.49732756614685058594e-01) (10, 1.19446504116058349609e+00) (11, -7.18254089355468750000e-01) (0, -4.80947718024253845215e-02) (1, -9.03244376182556152344e-01) (2, 1.28450083732604980469e+00) (3, 1.60104587674140930176e-01) (4, 1.15286576747894287109e+00) (5, 1.00670099258422851562e+00) (6, -1.65830582380294799805e-01) (7, 4.67370003461837768555e-01) (8, 1.05930685997009277344e+00) (9, -2.35168412327766418457e-01) (10, 3.62772166728973388672e-01) (11, -7.44077682495117187500e-01) (0, -1.29938542842864990234e+00) (1, -6.37366914749145507812e+00) (2, 3.77356767654418945312e+00) (3, -4.41876697540283203125e+00) (4, -2.78857421875000000000e+00) (5, -9.59567546844482421875e+00) (6, 2.10346266627311706543e-01) (7, -2.30238666534423828125e+01) (8, 8.22234725952148437500e+00) (9, -5.24954795837402343750e+00) (10, 1.48543572425842285156e+00) (11, 4.77501201629638671875e+00) (0, -1.35221123695373535156e-01) (1, -2.68483310937881469727e-01) (2, -1.17840329185128211975e-02) (3, 1.39200836420059204102e-01) (4, -1.53180165216326713562e-02) (5, 4.67656850814819335938e-01) (6, -1.03391654789447784424e-01) (7, -9.22855377197265625000e-01) (8, 4.36504274606704711914e-01) (9, -7.11449794471263885498e-03) (10, -7.76035249233245849609e-01) (11, -6.35944843292236328125e-01) (0, -2.52284318208694458008e-01) (1, 2.19681248068809509277e-01) (2, 1.67092800140380859375e-01) (3, 4.05005142092704772949e-02) (4, -1.35754182934761047363e-01) (5, -3.82831454277038574219e-01) (6, -7.23459720611572265625e-02) (7, 1.26861333847045898438e+00) (8, -2.90898889303207397461e-01) (9, -2.92421340942382812500e-01) (10, 1.50854920502752065659e-03) (11, 4.45029020309448242188e-01) (0, 1.15281391143798828125e+00) (1, 1.23522269725799560547e+00) (2, 5.71562623977661132812e+00) (3, -7.64294922351837158203e-01) (4, 5.11502981185913085938e-01) (5, 6.58105790615081787109e-01) (6, 6.95955991744995117188e-01) (7, 4.63042646646499633789e-01) (8, -2.53270208835601806641e-01) (9, -3.42387765645980834961e-01) (10, -5.88898122310638427734e-01) (11, -1.26387763023376464844e+00) (0, -7.79225602746009826660e-02) (1, -4.56520408391952514648e-01) (2, 2.24463880062103271484e-01) (3, 7.03740775585174560547e-01) (4, 7.17962682247161865234e-01) (5, 8.84055569767951965332e-02) (6, 4.51047778129577636719e-01) (7, -5.88408172130584716797e-01) (8, 2.73797810077667236328e-01) (9, -5.22197365760803222656e-01) (10, 3.59962224960327148438e-01) (11, -3.42150509357452392578e-01) (0, 7.03168749809265136719e-01) (1, 6.57485663890838623047e-01) (2, 1.54069811105728149414e-01) (3, -5.29655516147613525391e-01) (4, -7.76151334866881370544e-03) (5, 5.28031408786773681641e-01) (6, 3.63875746726989746094e-01) (7, -8.99186551570892333984e-01) (8, -1.86886489391326904297e+00) (9, -8.79809379577636718750e-01) (10, 3.88382256031036376953e-01) (11, 1.36251914501190185547e+00) (0, 9.82005178928375244141e-01) (1, 2.44220590591430664062e+00) (2, -5.74667453765869140625e-01) (3, 1.36859583854675292969e+00) (4, 2.01244640350341796875e+00) (5, 4.55496644973754882812e+00) (6, -1.50343215465545654297e+00) (7, -1.02185094356536865234e+00) (8, 1.09238243103027343750e+00) (9, -1.14891558885574340820e-01) (10, -1.23550251126289367676e-01) (11, -2.73086977005004882812e+00) (0, 9.04082298278808593750e-01) (1, 1.36716842651367187500e-01) (2, -1.10448777675628662109e+00) (3, 3.63053262233734130859e-01) (4, 8.33639204502105712891e-02) (5, -8.47080171108245849609e-01) (6, -5.90759366750717163086e-02) (7, -9.63568747043609619141e-01) (8, -4.81708496809005737305e-01) (9, 8.22059452533721923828e-01) (10, -5.80193940550088882446e-04) (11, -4.74167943000793457031e-01) (0, 8.61235857009887695312e-01) (1, 1.07475459575653076172e+00) (2, 2.34029889106750488281e+00) (3, 1.48299872875213623047e+00) (4, -1.73584210872650146484e+00) (5, 1.58951306343078613281e+00) (6, -5.82518815994262695312e-01) (7, -7.31867969036102294922e-01) (8, -1.28332182765007019043e-01) (9, 3.49468541145324707031e+00) (10, 7.69298732280731201172e-01) (11, -5.86106240749359130859e-01) (0, 1.64411485195159912109e-01) (1, 1.17982721328735351562e+00) (2, 1.42182064056396484375e+00) (3, 2.97356359660625457764e-02) (4, 5.32509274780750274658e-02) (5, 1.61747825145721435547e+00) (6, -2.53594487905502319336e-01) (7, 1.92544475197792053223e-01) (8, 1.13068509101867675781e+00) (9, 3.66996407508850097656e-01) (10, 9.26563560962677001953e-01) (11, 4.09820938110351562500e+00) (12, -1.63454592227935791016e-01) (13, 8.16843807697296142578e-01) (14, -7.52089679241180419922e-01) (15, 3.79839801788330078125e+00) (16, -1.55415439605712890625e+00) (17, 5.50005495548248291016e-01) (18, 3.29293847084045410156e-01) (19, -1.72023689746856689453e+00) (20, -4.34936672449111938477e-01) (21, -1.03647530078887939453e+00) (22, 6.96864724159240722656e-01) (23, -8.58416199684143066406e-01) (24, 1.87321448326110839844e+00) (25, 1.70461976528167724609e+00) (26, 8.49405154585838317871e-02) (27, 1.44153308868408203125e+00) (28, 1.88535439968109130859e+00) (29, 9.93031144142150878906e-01) (30, 8.49802732467651367188e-01) (31, 2.99974173307418823242e-01) (32, -2.06938147544860839844e+00) (33, 1.50172722339630126953e+00) (34, 7.72464275360107421875e-01) (35, -1.45401909947395324707e-01) (36, 8.99664461612701416016e-01) (37, 7.14481413364410400391e-01) (38, -7.71468877792358398438e-01) (39, 3.26031947135925292969e+00) (40, -1.65268361568450927734e+00) (41, 2.63971686363220214844e-01) (42, -5.49998700618743896484e-01) (12, 3.92934322357177734375e-01) (13, -2.08664193749427795410e-01) (14, 7.00599014759063720703e-01) (15, 9.33366775512695312500e-01) (16, -5.97159564495086669922e-02) (17, -4.62518751621246337891e-01) (18, 1.04547262191772460938e+00) (19, 8.45136821269989013672e-01) (20, -8.37700664997100830078e-02) (21, 5.16698122024536132812e-01) (22, 2.35944494605064392090e-01) (23, 5.89930951595306396484e-01) (24, 6.22341513633728027344e-01) (25, 5.78805267810821533203e-01) (26, 3.24950307607650756836e-01) (27, -8.76327633857727050781e-01) (28, -2.90033906698226928711e-01) (29, 1.54780149459838867188e+00) (30, 1.38256955146789550781e+00) (31, 1.18924963474273681641e+00) (32, 2.03341573476791381836e-01) (33, 4.91019546985626220703e-01) (34, 5.40018737316131591797e-01) (35, -1.72713845968246459961e-01) (36, 7.41966068744659423828e-01) (37, 9.81948912143707275391e-01) (38, 1.75311937928199768066e-02) (39, 1.19878542423248291016e+00) (40, -1.26701188087463378906e+00) (41, -8.41211438179016113281e-01) (42, 7.05315917730331420898e-02) (12, -1.59077703952789306641e-01) (13, 4.34377759695053100586e-01) (14, -2.10150405764579772949e-01) (15, -8.36425274610519409180e-02) (16, -3.85065600275993347168e-02) (17, 3.38388770818710327148e-01) (18, 3.52776974439620971680e-01) (19, 8.82320046424865722656e-01) (20, -1.93218275904655456543e-01) (21, 1.49954140186309814453e-01) (22, 7.28799998760223388672e-01) (23, 3.73927980661392211914e-01) (24, -4.97220486402511596680e-01) (25, -1.54508912563323974609e+00) (26, -6.17340505123138427734e-02) (27, -1.37451016902923583984e+00) (28, 1.57188221812248229980e-01) (29, -6.37775182723999023438e-01) (30, 6.84145927429199218750e-01) (31, 2.76708334684371948242e-01) (32, 8.67938876152038574219e-01) (33, -1.28984600305557250977e-01) (34, 7.62195825576782226562e-01) (35, 7.06132411956787109375e-01) (36, -2.09204331040382385254e-02) (37, 5.39592385292053222656e-01) (38, -5.17819970846176147461e-02) (39, -4.27012175321578979492e-01) (40, 4.11719232797622680664e-01) (41, -2.92539559304714202881e-02) (42, 2.01444745063781738281e-01) (12, -3.12587693333625793457e-02) (13, 1.18389844894409179688e+00) (14, 1.40155029296875000000e+00) (15, 4.37262803316116333008e-01) (16, -6.43718183040618896484e-01) (17, 1.24772679805755615234e+00) (18, 9.71577346324920654297e-01) (19, 3.66502404212951660156e-01) (20, -1.13126158714294433594e+00) (21, 6.10373318195343017578e-01) (22, 1.63437891006469726562e+00) (23, 1.67012274265289306641e-01) (24, 5.21215379238128662109e-01) (25, 5.38072168827056884766e-01) (26, 7.59012937545776367188e-01) (27, 1.92949295043945312500e+00) (28, 3.68735432624816894531e-01) (29, -1.81168064475059509277e-01) (30, 1.63760936260223388672e+00) (31, -1.14693796634674072266e+00) (32, 1.20347952842712402344e+00) (33, 7.92320787906646728516e-01) (34, 1.86546206474304199219e-01) (35, 1.02386629581451416016e+00) (36, 1.36312198638916015625e+00) (37, 1.12743175029754638672e+00) (38, 5.21319270133972167969e-01) (39, -7.06332206726074218750e-01) (40, 6.09927475452423095703e-01) (41, -1.85903832316398620605e-01) (42, -1.84640571475028991699e-01) (12, -1.69327426701784133911e-02) (13, 2.17455789446830749512e-01) (14, -1.28123295307159423828e+00) (15, 1.75300806760787963867e-01) (16, -1.21974742412567138672e+00) (17, -5.31904995441436767578e-01) (18, 2.52371668815612792969e-01) (19, -1.86631046235561370850e-02) (20, 3.52692343294620513916e-02) (21, -5.11817693710327148438e-01) (22, 1.54787659645080566406e+00) (23, -7.64712095260620117188e-01) (24, 3.36999595165252685547e-01) (25, 6.52338683605194091797e-01) (26, 1.19687259197235107422e+00) (27, -7.07972407341003417969e-01) (28, 2.76802424341440200806e-02) (29, 1.79099190235137939453e+00) (30, -3.15142691135406494141e-01) (31, 8.77739965915679931641e-01) (32, 4.60803866386413574219e-01) (33, 9.46935832500457763672e-01) (34, -9.31554317474365234375e-01) (35, 1.78508293628692626953e+00) (36, 3.05846214294433593750e-01) (37, 1.63535937666893005371e-01) (38, 8.17196011543273925781e-01) (39, 1.64984238147735595703e+00) (40, 8.93351554870605468750e-01) (41, -7.81936943531036376953e-02) (42, 5.02364277839660644531e-01) (12, 1.22465586662292480469e+00) (13, 9.30162549018859863281e-01) (14, 7.05780386924743652344e-01) (15, -3.81528921425342559814e-02) (16, 6.75557374954223632812e-01) (17, 2.49098277091979980469e+00) (18, -7.51405477523803710938e-01) (19, 1.41824245452880859375e-01) (20, -2.07430824637413024902e-01) (21, 9.01736795902252197266e-01) (22, -9.50305879116058349609e-01) (23, 4.13068830966949462891e-01) (24, 1.17400832474231719971e-01) (25, 4.00666713714599609375e-01) (26, -2.67928898334503173828e-01) (27, -5.33988416194915771484e-01) (28, 1.11138534545898437500e+00) (29, 5.92891573905944824219e-01) (30, 5.20012080669403076172e-01) (31, -1.68036147952079772949e-01) (32, 1.17644928395748138428e-01) (33, 1.81317433714866638184e-01) (34, 3.56678605079650878906e-01) (35, -9.61755335330963134766e-01) (36, 2.62643307447433471680e-01) (37, -3.33699852228164672852e-01) (38, -3.48612844944000244141e-01) (39, 9.56085026264190673828e-01) (40, -3.46265081316232681274e-03) (41, -8.44360291957855224609e-01) (42, -1.35200190544128417969e+00) (12, 5.30821502208709716797e-01) (13, 8.63486111164093017578e-01) (14, 3.86022597551345825195e-01) (15, -9.11536157131195068359e-01) (16, 1.75243115425109863281e+00) (17, -1.26586043834686279297e+00) (18, -6.49136900901794433594e-02) (19, 6.16174221038818359375e-01) (20, -4.02954488992691040039e-01) (21, -5.01164257526397705078e-01) (22, 2.82959699630737304688e-01) (23, 2.14687734842300415039e-01) (24, -4.05989855527877807617e-01) (25, -3.57289791107177734375e-01) (26, 1.61674463748931884766e+00) (27, 1.26630365848541259766e+00) (28, -2.94099837541580200195e-01) (29, 4.44502621889114379883e-01) (30, 3.61516326665878295898e-01) (31, 5.70510327816009521484e-01) (32, -1.59223884344100952148e-01) (33, 5.10509490966796875000e-01) (34, 2.35219255089759826660e-01) (35, 1.06151759624481201172e+00) (36, 1.36268031597137451172e+00) (37, -7.06921815872192382812e-01) (38, 3.79743903875350952148e-01) (39, 4.79744017124176025391e-01) (40, 6.20017647743225097656e-01) (41, -3.69913011789321899414e-01) (42, 1.16061471402645111084e-01) (12, 1.39082878828048706055e-01) (13, 9.70919609069824218750e-01) (14, 4.06265974044799804688e-01) (15, 1.54090952873229980469e+00) (16, -5.45751094818115234375e-01) (17, 7.96195089817047119141e-01) (18, 2.82612144947052001953e-01) (19, 2.19445538520812988281e+00) (20, -9.55906987190246582031e-01) (21, -2.25888562202453613281e+00) (22, 2.14197471737861633301e-01) (23, 2.55104517936706542969e+00) (24, 4.55588340759277343750e+00) (25, 4.09308624267578125000e+00) (26, 1.84835851192474365234e+00) (27, -8.75993311405181884766e-01) (28, 2.39610147476196289062e+00) (29, 5.27040719985961914062e-01) (30, 4.51899826526641845703e-01) (31, 3.43531298637390136719e+00) (32, -3.83323097229003906250e+00) (33, 1.78889417648315429688e+00) (34, 2.77515165507793426514e-02) (35, 1.79773950576782226562e+00) (36, -1.22220784425735473633e-01) (37, -2.56261140108108520508e-01) (38, 1.20638799667358398438e+00) (39, 1.46701955795288085938e+00) (40, -2.53638768196105957031e+00) (41, -8.97340357303619384766e-01) (42, 1.31313061714172363281e+00) (12, -1.13045156002044677734e+00) (13, 3.92701148986816406250e-01) (14, 1.36800777912139892578e+00) (15, 4.30608272552490234375e-01) (16, 3.33736538887023925781e-01) (17, 1.05919837951660156250e+00) (18, 1.82045623660087585449e-01) (19, -6.24999880790710449219e-01) (20, 8.53404879570007324219e-01) (21, -4.58687037229537963867e-01) (22, 2.16614580154418945312e+00) (23, 4.71951127052307128906e-01) (24, -1.07362464070320129395e-01) (25, 7.13115274906158447266e-01) (26, 1.26452720165252685547e+00) (27, 2.79107379913330078125e+00) (28, -3.92595306038856506348e-02) (29, 1.85493481159210205078e+00) (30, -8.19379687309265136719e-01) (31, 2.89746463298797607422e-01) (32, 3.51353585720062255859e-01) (33, 7.78588473796844482422e-01) (34, 1.46184480190277099609e+00) (35, 4.05974894762039184570e-01) (36, 2.83789634704589843750e-02) (37, -1.32330870628356933594e+00) (38, 2.16042101383209228516e-01) (39, 1.72566068172454833984e+00) (40, 5.62806069850921630859e-01) (41, -4.83097694814205169678e-02) (42, 2.93523639440536499023e-01) (12, -6.23787164688110351562e-01) (13, 8.73891860246658325195e-02) (14, -1.74689799547195434570e-01) (15, -1.34579807519912719727e-01) (16, 2.40058875083923339844e+00) (17, 5.46728074550628662109e-01) (18, 6.08844339847564697266e-01) (19, 8.99898767471313476562e-01) (20, -2.82264947891235351562e-01) (21, -1.68609774112701416016e+00) (22, -1.24162662029266357422e+00) (23, 1.09417366981506347656e+00) (24, 1.69642880558967590332e-01) (25, -5.16110539436340332031e-01) (26, 1.77562808990478515625e+00) (27, 7.08872735500335693359e-01) (28, 1.23636233806610107422e+00) (29, -6.13121449947357177734e-01) (30, -3.88281553983688354492e-01) (31, -3.78216981887817382812e-01) (32, 3.40806186199188232422e-01) (33, 2.48789262771606445312e+00) (34, 1.09753513336181640625e+00) (35, -3.26643973588943481445e-01) (36, 1.17037081718444824219e+00) (37, -4.99064296483993530273e-01) (38, 5.37665188312530517578e-01) (39, 5.34143567085266113281e-01) (40, -6.65543153882026672363e-02) (41, 1.15420138835906982422e+00) (42, -1.21085393428802490234e+00) (12, -1.82811200618743896484e+00) (13, 2.06337237358093261719e+00) (14, 7.50328004360198974609e-01) (15, 8.00544917583465576172e-01) (16, -1.60580396652221679688e+00) (17, -7.04941213130950927734e-01) (18, 2.30635070800781250000e+00) (19, 2.24990510940551757812e+00) (20, 1.13276350498199462891e+00) (21, -3.14331603050231933594e+00) (22, 2.96367025375366210938e+00) (23, -2.93656904250383377075e-02) (24, -1.19068980216979980469e+00) (25, -3.69583852589130401611e-02) (26, -7.47852921485900878906e-01) (27, 1.78940758109092712402e-01) (28, 1.00355994701385498047e+00) (29, 1.15114843845367431641e+00) (30, 1.93707096576690673828e+00) (31, -7.91233107447624206543e-02) (32, 2.01420140266418457031e+00) (33, 1.00205075740814208984e+00) (34, -1.12363910675048828125e+00) (35, 4.61208641529083251953e-01) (36, -1.02316868305206298828e+00) (37, -8.68952155113220214844e-01) (38, 3.19964140653610229492e-01) (39, 1.82965993881225585938e+00) (40, -1.24472761154174804688e+00) (41, 1.97392725944519042969e+00) (42, 8.91341090202331542969e-01) (12, -4.13042008876800537109e-01) (13, 3.49363237619400024414e-01) (14, -3.90784949064254760742e-01) (15, 9.37214851379394531250e-01) (16, -1.39271736145019531250e-01) (17, -6.02611184120178222656e-01) (18, 1.25498056411743164062e+00) (19, 1.51459240913391113281e+00) (20, -4.37977999448776245117e-01) (21, 1.77858960628509521484e+00) (22, -1.18760061264038085938e+00) (23, 6.30922973155975341797e-01) (24, -5.34692525863647460938e-01) (25, 1.45644202828407287598e-01) (26, 6.90058469772338867188e-01) (27, 2.96207755804061889648e-01) (28, 6.93239390850067138672e-01) (29, 7.19203114509582519531e-01) (30, -2.30075165629386901855e-01) (31, 2.02822402119636535645e-01) (32, 1.17722131311893463135e-01) (33, 8.52387547492980957031e-01) (34, 3.75005125999450683594e-01) (35, 9.58281159400939941406e-01) (36, -7.24354982376098632812e-01) (37, -1.96964949369430541992e-01) (38, 8.30820724368095397949e-02) (39, 1.01649230346083641052e-02) (40, -3.67685049772262573242e-01) (41, 1.14132416248321533203e+00) (42, -7.73051857948303222656e-01) (12, -4.65744405984878540039e-01) (13, -1.02821362018585205078e+00) (14, -3.43611091375350952148e-01) (15, -6.52604043483734130859e-01) (16, -1.81862503290176391602e-01) (17, 5.07118165493011474609e-01) (18, 3.52324396371841430664e-01) (19, -1.00191640853881835938e+00) (20, -4.46884810924530029297e-01) (21, 4.07993346452713012695e-01) (22, -5.22458553314208984375e-01) (23, -3.14883619546890258789e-01) (24, 3.59462559223175048828e-01) (25, 1.31722164154052734375e+00) (26, 4.67063903808593750000e-01) (27, 9.07918512821197509766e-01) (28, -3.66252183914184570312e-01) (29, 9.58633244037628173828e-01) (30, -1.71486437320709228516e-01) (31, -6.16182461380958557129e-02) (32, -1.77754089236259460449e-01) (33, -7.00980722904205322266e-01) (34, 2.60894823074340820312e+00) (35, -9.11876559257507324219e-02) (36, 4.62322473526000976562e-01) (37, -2.88691043853759765625e-01) (38, 6.26900255680084228516e-01) (39, 5.65769374370574951172e-01) (40, -3.30327481031417846680e-01) (41, 1.12881243228912353516e-01) (42, 1.41460195183753967285e-01) (12, 7.46004223823547363281e-01) (13, 3.07335376739501953125e-01) (14, 5.46446382999420166016e-01) (15, -2.31964778900146484375e+00) (16, 5.50451576709747314453e-01) (17, 1.38312208652496337891e+00) (18, 7.34819650650024414062e-01) (19, 5.69601833820343017578e-01) (20, -6.52910292148590087891e-01) (21, -1.04363012313842773438e+00) (22, 6.20980381965637207031e-01) (23, -1.78206756711006164551e-01) (24, 4.39004302024841308594e-01) (25, -6.54790103435516357422e-02) (26, -4.40997123718261718750e-01) (27, -2.20116829872131347656e+00) (28, -2.21739128232002258301e-01) (29, 9.59852099418640136719e-01) (30, 2.90144920349121093750e-01) (31, 9.40863966941833496094e-01) (32, 9.76656854152679443359e-01) (33, -1.42278999090194702148e-01) (34, -2.37965248525142669678e-02) (35, -7.52526402473449707031e-01) (36, 1.62979221343994140625e+00) (37, -5.92744350433349609375e-01) (38, 8.38265717029571533203e-01) (39, 1.02092111110687255859e+00) (40, 2.91462004184722900391e-01) (41, 5.33119857311248779297e-01) (42, -2.53597885370254516602e-01) (12, -5.34550428390502929688e-01) (13, -9.76164042949676513672e-01) (14, 1.26321792602539062500e+00) (15, -1.50571274757385253906e+00) (16, 1.48843598365783691406e+00) (17, -1.17293155193328857422e+00) (18, -2.50949233770370483398e-01) (19, -5.91775178909301757812e-01) (20, 7.29534983634948730469e-01) (21, -1.21818971633911132812e+00) (22, -5.07350683212280273438e-01) (23, 1.49648213386535644531e+00) (24, 8.97690415382385253906e-01) (25, -9.67162609100341796875e-01) (26, 2.41581335663795471191e-01) (27, 2.85929131507873535156e+00) (28, 4.37132179737091064453e-01) (29, -1.29340803623199462891e+00) (30, -1.44601714611053466797e+00) (31, -2.67958402633666992188e-01) (32, 6.79682612419128417969e-01) (33, 2.62092739343643188477e-01) (34, 6.44136488437652587891e-01) (35, -2.36673280596733093262e-01) (36, -2.08750262856483459473e-01) (37, 1.11970424652099609375e+00) (38, 7.86077044904232025146e-03) (39, -1.36972844600677490234e+00) (40, 4.61296588182449340820e-01) (41, -4.05741244554519653320e-01) (42, 2.11099028587341308594e+00) (12, -8.28423142433166503906e-01) (13, 1.68824836611747741699e-01) (14, -2.04279437661170959473e-01) (15, 2.08817958831787109375e+00) (16, -1.74401998519897460938e+00) (17, 2.21481704711914062500e+00) (18, -1.95948958396911621094e+00) (19, -2.42563533782958984375e+00) (20, -4.93162751197814941406e-01) (21, 1.83035719394683837891e+00) (22, -1.00402820110321044922e+00) (23, -1.46589696407318115234e+00) (24, 3.37199306488037109375e+00) (25, 9.08513903617858886719e-01) (26, 9.58960235118865966797e-01) (27, -1.96034517139196395874e-02) (28, 3.38575303554534912109e-01) (29, -1.98694989085197448730e-01) (30, 1.98707193136215209961e-01) (31, -2.43148398399353027344e+00) (32, 1.42543911933898925781e+00) (33, 6.06716156005859375000e-01) (34, -7.30231881141662597656e-01) (35, 3.65575820207595825195e-01) (36, -4.56466376781463623047e-01) (37, -6.10328316688537597656e-01) (38, 5.44884324073791503906e-01) (39, 5.86085975170135498047e-01) (40, 3.75411927700042724609e-01) (41, 1.23233473300933837891e+00) (42, 1.48007440567016601562e+00) (12, 3.14849279820919036865e-02) (13, -1.10022567212581634521e-01) (14, 3.97956758737564086914e-01) (15, 7.38997936248779296875e-01) (16, 3.03136222064495086670e-02) (17, -2.41197515279054641724e-02) (18, 3.88975515961647033691e-02) (19, 6.33291006088256835938e-02) (20, -1.52154996991157531738e-01) (21, -2.89293140172958374023e-01) (22, -2.10572695732116699219e+00) (23, 1.83170005679130554199e-01) (24, 2.34491284936666488647e-03) (25, 2.52702265977859497070e-01) (26, 6.58992886543273925781e-01) (27, -6.13953955471515655518e-02) (28, 5.80423593521118164062e-01) (29, -3.74893933534622192383e-01) (30, 7.13315784931182861328e-01) (31, -1.09066255390644073486e-01) (32, 3.39245945215225219727e-01) (33, 9.75631475448608398438e-01) (34, -1.19406901299953460693e-01) (35, 2.40847676992416381836e-01) (36, 4.40663546323776245117e-02) (37, -1.27714071422815322876e-02) (38, 1.83915898203849792480e-01) (39, 2.74263948202133178711e-01) (40, -1.68167967349290847778e-02) (41, 5.14708399772644042969e-01) (42, -1.61455619335174560547e+00) (12, 1.40700533986091613770e-01) (13, -5.32703101634979248047e-01) (14, 1.30808699131011962891e+00) (15, -9.22492742538452148438e-01) (16, -5.49894154071807861328e-01) (17, 3.92811000347137451172e-01) (18, 4.22452837228775024414e-01) (19, -4.68759611248970031738e-02) (20, 3.69996100664138793945e-01) (21, 2.13951051235198974609e-01) (22, 6.45020425319671630859e-01) (23, -5.16587868332862854004e-03) (24, -3.80390673875808715820e-01) (25, -7.86790132522583007812e-01) (26, -4.20612931251525878906e-01) (27, -7.58173614740371704102e-02) (28, -1.12920768558979034424e-01) (29, 7.28771805763244628906e-01) (30, -2.34711214900016784668e-01) (31, -6.01604357361793518066e-02) (32, -2.98795141279697418213e-02) (33, -8.48939895629882812500e-01) (34, 2.65239644050598144531e+00) (35, 6.72087788581848144531e-01) (36, 1.48536905646324157715e-01) (37, -1.66418299078941345215e-01) (38, 3.96994709968566894531e-01) (39, 5.34569442272186279297e-01) (40, -7.63076618313789367676e-02) (41, 1.37554681301116943359e+00) (42, -5.87475419044494628906e-01) (12, 6.55989289283752441406e-01) (13, -6.07453942298889160156e-01) (14, 1.08514523506164550781e+00) (15, 1.29820418357849121094e+00) (16, 7.15936839580535888672e-01) (17, 2.06469342112541198730e-01) (18, -4.97912347316741943359e-01) (19, -7.49772548675537109375e-01) (20, -8.15099298954010009766e-01) (21, 3.69868963956832885742e-01) (22, 9.30656611919403076172e-01) (23, 6.48472785949707031250e-01) (24, 1.50234448909759521484e+00) (25, -4.40291389822959899902e-02) (26, 2.48965454101562500000e+00) (27, 1.15965056419372558594e+00) (28, -1.37193948030471801758e-02) (29, 1.08352208137512207031e+00) (30, -7.43010640144348144531e-01) (31, -6.16473615169525146484e-01) (32, -6.01722121238708496094e-01) (33, -2.94741600751876831055e-01) (34, -5.62849879264831542969e-01) (35, -9.19812619686126708984e-01) (36, 5.07144153118133544922e-01) (37, 9.60846543312072753906e-02) (38, 1.08964216709136962891e+00) (39, -1.97468370199203491211e-01) (40, 1.38103753328323364258e-01) (41, -6.06511414051055908203e-01) (42, 4.19878542423248291016e-01) (12, -1.56732499599456787109e+00) (13, 1.62165164947509765625e+00) (14, 7.50746190547943115234e-01) (15, -4.08271521329879760742e-01) (16, -1.20147860050201416016e+00) (17, 1.10045206546783447266e+00) (18, 7.80823230743408203125e-01) (19, 1.69830679893493652344e-01) (20, 4.34414118528366088867e-01) (21, -3.81233878433704376221e-02) (22, 8.15871238708496093750e-01) (23, 5.57048916816711425781e-01) (24, -4.14211273193359375000e-01) (25, -5.40745437145233154297e-01) (26, -3.83568331599235534668e-02) (27, 2.32995605468750000000e+00) (28, -9.03199315071105957031e-02) (29, 1.41201242804527282715e-01) (30, 2.70496636629104614258e-01) (31, 1.51105774566531181335e-02) (32, 6.19471311569213867188e-01) (33, 2.41614842414855957031e+00) (34, -5.78466951847076416016e-01) (35, -7.27914929389953613281e-01) (36, -7.32275187969207763672e-01) (37, 1.49209547042846679688e+00) (38, 6.78735375404357910156e-02) (39, -1.69103756546974182129e-01) (40, -4.36264574527740478516e-01) (41, -5.18445074558258056641e-02) (42, -1.79500624537467956543e-01) (12, -4.96348381042480468750e-01) (13, 5.30575096607208251953e-01) (14, -1.72311067581176757812e-01) (15, 1.41146564483642578125e+00) (16, -3.70036184787750244141e-01) (17, 1.93939018249511718750e+00) (18, -1.44014513492584228516e+00) (19, -5.36288619041442871094e-01) (20, 2.07814872264862060547e-01) (21, -1.14593148231506347656e+00) (22, 4.39399331808090209961e-02) (23, 6.91618025302886962891e-01) (24, -1.71765506267547607422e-01) (25, -9.37841534614562988281e-01) (26, 3.43665853142738342285e-02) (27, -1.25254356861114501953e+00) (28, 1.72332274913787841797e+00) (29, -5.58300733566284179688e-01) (30, 1.78002491593360900879e-01) (31, 1.02825784683227539062e+00) (32, 1.66751161217689514160e-01) (33, -5.33738374710083007812e-01) (34, -3.34868669509887695312e-01) (35, -5.62582433223724365234e-01) (36, 5.22332310676574707031e-01) (37, 4.16677236557006835938e-01) (38, -6.62494599819183349609e-01) (39, -2.28381967544555664062e+00) (40, 4.70824599266052246094e-01) (41, -7.32020676136016845703e-01) (42, 2.46466144919395446777e-01) (12, 6.77904367446899414062e-01) (13, 3.15663814544677734375e+00) (14, 1.60558640956878662109e-01) (15, 1.17525207996368408203e+00) (16, -1.52491080760955810547e+00) (17, 1.10340929031372070312e+00) (18, -6.83265864849090576172e-01) (19, 1.37588477134704589844e+00) (20, -9.04293000698089599609e-01) (21, 7.38533079624176025391e-01) (22, -5.32351016998291015625e-01) (23, -1.12836790084838867188e+00) (24, -8.65832448005676269531e-01) (25, 8.58064353466033935547e-01) (26, 1.46559655666351318359e+00) (27, -2.40222707390785217285e-01) (28, -2.77673333883285522461e-01) (29, 3.09585165977478027344e+00) (30, 1.98246729373931884766e+00) (31, 8.63523185253143310547e-01) (32, -8.71374905109405517578e-02) (33, 2.94819569587707519531e+00) (34, -9.30740475654602050781e-01) (35, -2.41363555192947387695e-01) (36, 3.98657232522964477539e-01) (37, -2.28574991226196289062e+00) (38, 8.15775513648986816406e-01) (39, 2.58924889564514160156e+00) (40, -5.86777567863464355469e-01) (41, 1.53838706016540527344e+00) (42, -6.17007613182067871094e-01) (12, 5.33333569765090942383e-02) (13, 3.06338727474212646484e-01) (14, -1.96827232837677001953e-01) (15, 2.32929572463035583496e-01) (16, -5.02443648874759674072e-02) (17, 7.24215447902679443359e-01) (18, -1.33678659796714782715e-01) (19, -4.20885622501373291016e-01) (20, -1.82235613465309143066e-01) (21, 3.88135999441146850586e-01) (22, 1.55165135860443115234e-01) (23, -1.02094352245330810547e-01) (24, 4.20416474342346191406e-01) (25, 1.04061931371688842773e-01) (26, 9.25289034843444824219e-01) (27, -5.78548550605773925781e-01) (28, -5.08310496807098388672e-01) (29, 1.97819456458091735840e-01) (30, 3.44544708728790283203e-01) (31, -7.74552941322326660156e-01) (32, -1.64510175585746765137e-01) (33, -8.14796313643455505371e-02) (34, -2.54523962736129760742e-01) (35, 2.25271269679069519043e-01) (36, 1.07169717550277709961e-01) (37, -2.61941492557525634766e-01) (38, 5.69005787372589111328e-01) (39, 4.57552701234817504883e-01) (40, 2.38421455025672912598e-01) (41, 6.38694241642951965332e-02) (42, -4.82179403305053710938e-01) (12, 6.92773014307022094727e-02) (13, 1.41677692532539367676e-01) (14, -9.12205159664154052734e-01) (15, 1.15881288051605224609e+00) (16, 2.54543930292129516602e-01) (17, -1.70662268996238708496e-01) (18, 9.95900690555572509766e-01) (19, 1.00685775279998779297e+00) (20, 5.09777843952178955078e-01) (21, -2.08658292889595031738e-01) (22, 1.80611515045166015625e+00) (23, 2.11184501647949218750e+00) (24, 6.78703784942626953125e-01) (25, -2.43901416659355163574e-01) (26, 2.67223685979843139648e-01) (27, 2.23904418945312500000e+00) (28, 1.40520155429840087891e+00) (29, -1.91611666232347488403e-02) (30, 1.01079928874969482422e+00) (31, 1.13037323951721191406e+00) (32, -1.71167325973510742188e+00) (33, 1.89541530609130859375e+00) (34, 2.39067032933235168457e-01) (35, 6.45770728588104248047e-01) (36, 1.18108940124511718750e+00) (37, 6.47039175033569335938e-01) (38, 4.05764788389205932617e-01) (39, 1.33903002738952636719e+00) (40, 9.01803001761436462402e-02) (41, -9.25572589039802551270e-03) (42, -4.65970426797866821289e-01) (12, 1.67724537849426269531e+00) (13, 1.64046239852905273438e+00) (14, 1.49945437908172607422e+00) (15, -2.40248680114746093750e+00) (16, 1.02141427993774414062e+00) (17, 4.35834713280200958252e-02) (18, 4.77338790893554687500e-01) (19, 8.25192809104919433594e-01) (20, 1.02664852142333984375e+00) (21, 3.79592597484588623047e-01) (22, 7.04476892948150634766e-01) (23, -7.17087686061859130859e-01) (24, 1.04905557632446289062e+00) (25, 7.19878375530242919922e-01) (26, 3.96443486213684082031e-01) (27, 4.89455366134643554688e+00) (28, 1.99310052394866943359e+00) (29, 8.41309309005737304688e-01) (30, 1.06956851482391357422e+00) (31, 1.58388137817382812500e+00) (32, -3.12165647745132446289e-01) (33, 7.56237626075744628906e-01) (34, 6.81020379066467285156e-01) (35, -7.75230050086975097656e-01) (36, 9.11673188209533691406e-01) (37, 2.91345286369323730469e+00) (38, 1.21469473838806152344e+00) (39, -2.06982183456420898438e+00) (40, 8.08069527149200439453e-01) (41, 7.47530579566955566406e-01) (42, -1.30510732531547546387e-01) (12, -2.57721126079559326172e-01) (13, -4.27918702363967895508e-01) (14, -1.04861736297607421875e+00) (15, -9.90664422512054443359e-01) (16, 5.37724077701568603516e-01) (17, -1.58268287777900695801e-02) (18, -2.55881726741790771484e-01) (19, -3.60276028513908386230e-02) (20, 1.33150056004524230957e-01) (21, 8.26662480831146240234e-01) (22, -4.97051596641540527344e-01) (23, 1.55459856986999511719e+00) (24, 1.58382713794708251953e+00) (25, 3.74953061342239379883e-01) (26, 1.73095512390136718750e+00) (27, -1.94566428661346435547e-01) (28, -7.20266878604888916016e-01) (29, 9.96674895286560058594e-01) (30, -7.79083788394927978516e-01) (31, -5.35457491874694824219e-01) (32, 6.87602698802947998047e-01) (33, -3.85274797677993774414e-01) (34, 2.02552169561386108398e-01) (35, 5.33547580242156982422e-01) (36, -1.69907659292221069336e-01) (37, 1.02778410911560058594e+00) (38, 8.14436435699462890625e-01) (39, 1.12412738800048828125e+00) (40, 7.08515848964452743530e-03) (41, 8.55009019374847412109e-01) (42, 5.29456198215484619141e-01) (12, -2.06973627209663391113e-01) (13, 1.21032893657684326172e+00) (14, 4.75808888673782348633e-01) (15, 2.65463757514953613281e+00) (16, 1.13651835918426513672e+00) (17, 1.34388595819473266602e-01) (18, -9.97966825962066650391e-01) (19, 7.20560610294342041016e-01) (20, 5.45535802841186523438e-01) (21, 6.96342587471008300781e-01) (22, 4.37581419944763183594e-01) (23, -7.95045197010040283203e-01) (24, 3.60828638076782226562e-01) (25, 2.68494844436645507812e-01) (26, 1.38151693344116210938e+00) (27, 2.50902056694030761719e-01) (28, 5.79115226864814758301e-02) (29, 1.00721049308776855469e+00) (30, 7.41300061345100402832e-02) (31, 2.11250543594360351562e+00) (32, 8.68031680583953857422e-01) (33, -5.85975348949432373047e-01) (34, 2.20248126983642578125e+00) (35, 4.24173355102539062500e-01) (36, -2.95641124248504638672e-01) (37, 5.07176518440246582031e-02) (38, -5.51888287067413330078e-01) (39, 1.67474472522735595703e+00) (40, -1.01312436163425445557e-01) (41, -1.18169081211090087891e+00) (42, 8.67176651954650878906e-01) (12, 5.63027679920196533203e-01) (13, -4.49087947607040405273e-01) (14, 3.00856411457061767578e-01) (15, 8.19588899612426757812e-01) (16, 1.06410694122314453125e+00) (17, -8.84540751576423645020e-02) (18, -8.59298229217529296875e-01) (19, 1.67614072561264038086e-01) (20, 8.58715176582336425781e-01) (21, -3.26354354619979858398e-02) (22, 3.00114661455154418945e-01) (23, 5.73358535766601562500e-01) (24, -6.26941740512847900391e-01) (25, 1.54305112361907958984e+00) (26, 1.58864423632621765137e-01) (27, -6.26457095146179199219e-01) (28, 2.39233039319515228271e-02) (29, -3.76494675874710083008e-02) (30, 1.01637423038482666016e+00) (31, 5.04776358604431152344e-01) (32, -5.60047864913940429688e-01) (33, 2.67110198736190795898e-01) (34, 1.98490309715270996094e+00) (35, 7.56791353225708007812e-01) (36, 9.69185352325439453125e-01) (37, 3.04796516895294189453e-01) (38, 4.73020702600479125977e-01) (39, -5.94246923923492431641e-01) (40, 7.44358539581298828125e-01) (41, 1.15865373611450195312e+00) (42, -9.71170604228973388672e-01) (12, 2.08189263939857482910e-01) (13, -6.87945246696472167969e-01) (14, -9.22194659709930419922e-01) (15, -1.07498145103454589844e+00) (16, 2.95314401388168334961e-01) (17, -9.63598012924194335938e-01) (18, 6.94622576236724853516e-01) (19, -7.13616490364074707031e-01) (20, 5.69552481174468994141e-01) (21, -2.82242745161056518555e-01) (22, -8.85729640722274780273e-02) (23, -1.05129528045654296875e+00) (24, 8.00038695335388183594e-01) (25, 2.65407609939575195312e+00) (26, 1.10835838317871093750e+00) (27, 2.68141150474548339844e+00) (28, -8.88952732086181640625e-01) (29, 9.60803866386413574219e-01) (30, 4.06418710947036743164e-01) (31, -2.21661552786827087402e-01) (32, 7.18170642852783203125e-01) (33, -1.71266603469848632812e+00) (34, 1.17433488368988037109e-01) (35, 1.96040725708007812500e+00) (36, 3.10928940773010253906e-01) (37, 1.45376235246658325195e-01) (38, 1.16146206855773925781e+00) (39, 1.96018624305725097656e+00) (40, 6.85283541679382324219e-01) (41, 3.12934786081314086914e-01) (42, -6.68221056461334228516e-01) (12, -2.58915972709655761719e+00) (13, -1.00358700752258300781e+00) (14, -9.77890193462371826172e-01) (15, -5.34373342990875244141e-01) (16, 5.19388392567634582520e-02) (17, 1.96268230676651000977e-01) (18, 3.66151285171508789062e+00) (19, 8.19520235061645507812e-01) (20, -1.82478511333465576172e+00) (21, 3.36594843864440917969e+00) (22, 1.07191038131713867188e+00) (23, 3.13352704048156738281e+00) (24, -6.40566873550415039062e+00) (25, -7.49699020385742187500e+00) (26, 5.73637342453002929688e+00) (27, 4.76678037643432617188e+00) (28, 1.46123945713043212891e+00) (29, 5.02393960952758789062e-01) (30, -3.80158036947250366211e-01) (31, 2.57100537419319152832e-02) (32, -6.73010289669036865234e-01) (33, -7.25556194782257080078e-01) (34, 1.42168641090393066406e+00) (35, 1.29225730895996093750e+00) (36, 5.20669031143188476562e+00) (37, 1.45712482929229736328e+00) (38, -2.31941223144531250000e+00) (39, 3.39976239204406738281e+00) (40, 1.06409490108489990234e+00) (41, 5.62953948974609375000e-01) (42, -9.07817780971527099609e-02) (43, 2.95062392950057983398e-01) (44, -2.75186330080032348633e-01) (45, 8.15079271793365478516e-01) (46, 3.08694213628768920898e-01) (47, -4.78002041578292846680e-01) (48, 7.36410319805145263672e-01) (49, -1.05158662796020507812e+00) (50, -1.64378225803375244141e-01) (51, -2.20929026603698730469e-01) (52, -5.08158802986145019531e-01) (53, 3.40814322233200073242e-01) (54, 2.23379567265510559082e-01) (55, 2.59895622730255126953e-01) (56, -2.75308907032012939453e-01) (57, -8.31614613533020019531e-01) (58, -3.24818462133407592773e-01) (59, 5.59590637683868408203e-01) (60, 1.40581011772155761719e-01) (61, 8.75851750373840332031e-01) (62, -3.75540584325790405273e-01) (63, 9.44913923740386962891e-01) (64, 8.30121990293264389038e-03) (65, 1.62072747945785522461e-01) (66, 1.93255588412284851074e-01) (67, -2.21628099679946899414e-02) (68, 2.04801157116889953613e-01) (69, 7.79820561408996582031e-01) (70, 6.38767004013061523438e-01) (71, 3.55362534523010253906e-01) (72, 8.22206661105155944824e-02) (73, 7.57091283798217773438e-01) (43, 5.85897974669933319092e-02) (44, 1.72404915094375610352e-01) (45, 1.03678870201110839844e+00) (46, -3.41918319463729858398e-01) (47, -8.18694755434989929199e-02) (48, 2.08339780569076538086e-01) (49, -3.53947550058364868164e-01) (50, 7.19598978757858276367e-02) (51, -3.52968275547027587891e-01) (52, 6.83328926563262939453e-01) (53, 1.74592733383178710938e-01) (54, -5.40914833545684814453e-01) (55, 2.63785511255264282227e-01) (56, 7.65195935964584350586e-02) (57, -1.61089062690734863281e-01) (58, -1.39938279986381530762e-01) (59, -1.59973704814910888672e+00) (60, 8.68350863456726074219e-01) (61, 7.55901262164115905762e-02) (62, -1.81626349687576293945e-01) (63, 6.84131026268005371094e-01) (64, -7.18103274703025817871e-02) (65, 9.87175464630126953125e-01) (66, -2.89396699517965316772e-02) (67, -6.46548047661781311035e-02) (68, 1.39418154954910278320e-01) (69, 3.27851980924606323242e-01) (70, 2.90322542190551757812e-01) (71, 2.00818721204996109009e-02) (72, 1.48692191578447818756e-03) (73, -7.07746982574462890625e-01) (43, 2.46228411793708801270e-01) (44, 2.46217116713523864746e-01) (45, 1.13009822368621826172e+00) (46, -2.09030807018280029297e-01) (47, -4.15187686681747436523e-01) (48, 1.19077660143375396729e-01) (49, -1.16305840015411376953e+00) (50, 1.08154304325580596924e-01) (51, 1.53573185205459594727e-01) (52, -1.50872673839330673218e-02) (53, 2.93072551488876342773e-01) (54, -3.24546158313751220703e-01) (55, 5.02064049243927001953e-01) (56, -2.43588194251060485840e-01) (57, 1.48367989063262939453e+00) (58, 5.19274890422821044922e-01) (59, -3.82293283939361572266e-01) (60, 9.33879852294921875000e-01) (61, -3.14317941665649414062e-01) (62, -5.53797423839569091797e-01) (63, -2.49124482274055480957e-01) (64, -4.30740952491760253906e-01) (65, 2.15001583099365234375e+00) (66, 4.03991580009460449219e-01) (67, 5.52763901650905609131e-02) (68, 4.07124459743499755859e-01) (69, 7.50913202762603759766e-01) (70, 1.67753565311431884766e+00) (71, -2.75628298521041870117e-01) (72, -3.89023274183273315430e-02) (73, -1.38946056365966796875e+00) (43, -3.58845949172973632812e-01) (44, -1.03367175906896591187e-02) (45, -2.18529915809631347656e+00) (46, 8.69278252124786376953e-01) (47, -7.16118067502975463867e-02) (48, -4.08266857266426086426e-02) (49, -4.83768433332443237305e-01) (50, 2.01701715588569641113e-01) (51, -3.40091913938522338867e-01) (52, 2.02135182917118072510e-02) (53, 1.97948142886161804199e-01) (54, 6.06808327138423919678e-02) (55, -2.60939687490463256836e-01) (56, 4.90873873233795166016e-01) (57, 1.00085663795471191406e+00) (58, -1.75541102886199951172e-01) (59, -1.26694276928901672363e-01) (60, 4.80224967002868652344e-01) (61, -1.90259497612714767456e-02) (62, -1.06641232967376708984e+00) (63, 4.40509796142578125000e-01) (64, 1.69654354453086853027e-01) (65, 8.00716936588287353516e-01) (66, 1.94435790181159973145e-01) (67, -5.55294215679168701172e-01) (68, -2.92599260807037353516e-01) (69, 1.52472421526908874512e-01) (70, -7.06293761730194091797e-01) (71, -2.18656480312347412109e-01) (72, 3.95798891782760620117e-01) (73, -1.70866787433624267578e-01) (43, -3.10974508523941040039e-01) (44, 7.86997675895690917969e-01) (45, -9.99825298786163330078e-01) (46, -2.27220039814710617065e-02) (47, -4.17247146368026733398e-01) (48, 1.42082250118255615234e+00) (49, 1.53262996673583984375e+00) (50, 1.71032905578613281250e-01) (51, -6.28984630107879638672e-01) (52, 9.17890489101409912109e-01) (53, 7.72947371006011962891e-02) (54, 1.95784294605255126953e+00) (55, -2.42941451072692871094e+00) (56, -9.19387876987457275391e-01) (57, 1.73127961158752441406e+00) (58, 8.56263399124145507812e-01) (59, -1.51824283599853515625e+00) (60, 1.87035536766052246094e+00) (61, -5.62252998352050781250e-01) (62, 9.04804646968841552734e-01) (63, 2.86753922700881958008e-01) (64, 6.42505586147308349609e-01) (65, 1.03842115402221679688e+00) (66, 9.61445458233356475830e-03) (67, -2.04579472541809082031e-01) (68, -1.36147475242614746094e+00) (69, -6.67472898960113525391e-01) (70, 5.72469890117645263672e-01) (71, 1.39210891723632812500e+00) (72, 6.39500096440315246582e-02) (73, 2.95649349689483642578e-01) (43, -3.10747671127319335938e+00) (44, 3.26215314865112304688e+00) (45, -6.36556386947631835938e-01) (46, -1.26468809321522712708e-02) (47, 1.70841741561889648438e+00) (48, 7.80080914497375488281e-01) (49, -1.22645664215087890625e+00) (50, -2.93812298774719238281e+00) (51, 1.79510605335235595703e+00) (52, 1.83590173721313476562e+00) (53, -2.28672337532043457031e+00) (54, -1.00901472568511962891e+00) (55, -1.16964697837829589844e+00) (56, 6.34299576282501220703e-01) (57, 1.54265239834785461426e-01) (58, -6.16578400135040283203e-01) (59, 7.10888281464576721191e-02) (60, 1.46061468124389648438e+00) (61, -3.39897370338439941406e+00) (62, 1.40627944469451904297e+00) (63, -1.32360315322875976562e+00) (64, 4.41289782524108886719e-01) (65, 5.69218039512634277344e-01) (66, 4.13879203796386718750e+00) (67, 1.66263282299041748047e+00) (68, 2.11425352096557617188e+00) (69, 7.11668252944946289062e-01) (70, 2.34507918357849121094e+00) (71, -2.89398640394210815430e-01) (72, 2.43759584426879882812e+00) (73, 3.98189365863800048828e-01) (43, 2.66856908798217773438e-01) (44, -5.48003949224948883057e-02) (45, 7.88606166839599609375e-01) (46, -9.96319428086280822754e-02) (47, -5.53674995899200439453e-01) (48, 3.03061842918395996094e+00) (49, 4.32745248079299926758e-01) (50, -8.94935056567192077637e-02) (51, -9.61740240454673767090e-02) (52, -5.87905287742614746094e-01) (53, -1.95993185043334960938e-01) (54, -2.06322893500328063965e-01) (55, 1.76926052570343017578e+00) (56, 1.19543209671974182129e-01) (57, -9.63402330875396728516e-01) (58, 2.43139833211898803711e-01) (59, -2.89440721273422241211e-01) (60, 4.17998343706130981445e-01) (61, -6.57700836658477783203e-01) (62, -4.48655933141708374023e-01) (63, 4.23068791627883911133e-01) (64, -3.31041902303695678711e-01) (65, 1.27219521999359130859e+00) (66, 9.47630554437637329102e-02) (67, 2.65826642513275146484e-01) (68, 3.74977558851242065430e-01) (69, 5.54193317890167236328e-01) (70, -3.88903468847274780273e-01) (71, -2.08351597189903259277e-01) (72, 2.11117211729288101196e-02) (73, 2.95845317840576171875e+00) (43, 1.59500017762184143066e-01) (44, 4.94750231504440307617e-01) (45, 1.42126548290252685547e+00) (46, -8.90633702278137207031e-01) (47, -1.43555954098701477051e-01) (48, 1.13443183898925781250e+00) (49, -9.90376174449920654297e-01) (50, -1.05630040168762207031e-01) (51, -9.78472113609313964844e-01) (52, 1.87122702598571777344e+00) (53, -4.08770032227039337158e-02) (54, 1.70852816104888916016e+00) (55, 1.20805609226226806641e+00) (56, 7.03951656818389892578e-01) (57, -1.30830019712448120117e-01) (58, -1.44786387681961059570e-01) (59, -3.78987288475036621094e+00) (60, -8.23865532875061035156e-01) (61, -5.89227557182312011719e-01) (62, -7.12940871715545654297e-01) (63, 1.73384511470794677734e+00) (64, 5.13828098773956298828e-01) (65, 1.61820650100708007812e+00) (66, -1.01525865495204925537e-01) (67, 1.70864420942962169647e-03) (68, 6.83164954185485839844e-01) (69, 1.97471961379051208496e-01) (70, 7.68233478069305419922e-01) (71, 4.47699695825576782227e-01) (72, 8.20408314466476440430e-02) (73, -1.83160379528999328613e-01) (43, -8.25527966022491455078e-01) (44, -1.31124138832092285156e+00) (45, -1.15393686294555664062e+00) (46, -2.17784357070922851562e+00) (47, -8.97371053695678710938e-01) (48, 6.94350659847259521484e-01) (49, 1.15144062042236328125e+00) (50, 1.93980246782302856445e-01) (51, -1.42272675037384033203e+00) (52, -3.43595206737518310547e-01) (53, 8.64120483398437500000e-01) (54, 1.04086053371429443359e+00) (55, 6.03289365768432617188e-01) (56, 2.61695575714111328125e+00) (57, -2.23576045036315917969e+00) (58, 1.97827279567718505859e+00) (59, 1.90584599971771240234e+00) (60, 1.71320021152496337891e+00) (61, -9.95370209217071533203e-01) (62, 1.41280412673950195312e+00) (63, -1.09490823745727539062e+00) (64, -3.12141847610473632812e+00) (65, 1.34158897399902343750e+00) (66, 1.36188101768493652344e+00) (67, 1.28525114059448242188e+00) (68, 1.01090443134307861328e+00) (69, 1.91703569889068603516e+00) (70, 1.20840203762054443359e+00) (71, -2.28488540649414062500e+00) (72, 2.76944190263748168945e-02) (73, 3.29426303505897521973e-03)
input_names='a' 'betan' 'bt' 'delta' 'i_coil' 'ip' 'kappa' 'neped' 'r' 'rotation' 'zeffped'
output_names='OUT_P2e_EPED' 'OUT_P2e_rmpsoff' 'OUT_P2e_rmpson' 'OUT_elm_frequency_EPED' 'OUT_elm_frequency_rmpsoff' 'OUT_elm_frequency_rmpson' 'OUT_wte_EPED' 'OUT_wte_rmpsoff' 'OUT_wte_rmpson'
norm_output=0.0 0.0 0.0 0.0 0.0 0.0 0.0 0.0 0.0 0.0 0.0 0.0 0.0 0.0 0.0 0.0 0.0 0.0 0.0 0.0 0.0 0.0 0.0 0.0 0.0 0.0 0.0 0.0 0.0 0.0 0.0 0.0 0.0 0.0 0.0 0.0 0.0 0.0 0.0 0.0 0.0 0.0 0.0 0.0 0.0 0.0 0.0 0.0 0.0 0.0 0.0 0.0 0.0 0.0 0.0 0.0 0.0 0.0 0.0 0.0 0.0 0.0 0.0 0.0 0.0 0.0 0.0 0.0 0.0 0.0 0.0 0.0 0.0 0.0 0.0 0.0 0.0 0.0 0.0 0.0 0.0 0.0 0.0 0.0 0.0 0.0 0.0 0.0 0.0 0.0 0.0 0.0 0.0 0.0 0.0 0.0 0.0 0.0 0.0
MSE= 0.213150307536