FANN_FLO_2.1
num_layers=4
learning_rate=0.700000
connection_rate=1.000000
network_type=0
learning_momentum=0.000000
training_algorithm=2
train_error_function=0
train_stop_function=0
cascade_output_change_fraction=0.010000
quickprop_decay=146.234787
quickprop_mu=1.750000
rprop_increase_factor=1.200000
rprop_decrease_factor=0.500000
rprop_delta_min=0.000000
rprop_delta_max=50.000000
rprop_delta_zero=0.100000
cascade_output_stagnation_epochs=12
cascade_candidate_change_fraction=0.010000
cascade_candidate_stagnation_epochs=12
cascade_max_out_epochs=150
cascade_min_out_epochs=50
cascade_max_cand_epochs=150
cascade_min_cand_epochs=50
cascade_num_candidate_groups=2
bit_fail_limit=3.49999994039535522461e-01
cascade_candidate_limit=1.00000000000000000000e+03
cascade_weight_multiplier=4.00000005960464477539e-01
cascade_activation_functions_count=10
cascade_activation_functions=3 5 7 8 10 11 14 15 16 17
cascade_activation_steepnesses_count=4
cascade_activation_steepnesses=2.50000000000000000000e-01 5.00000000000000000000e-01 7.50000000000000000000e-01 1.00000000000000000000e+00
layer_sizes=12 31 31 10
scale_included=1
scale_mean_in=0.595710 1.725386 1.856146 0.505992 3676.362793 1.428655 1.810080 3.038681 1.739604 -8.041503 1.898420
scale_deviation_in=0.002873 0.364799 0.150563 0.019752 1002.251953 0.206163 0.008729 1.216456 0.020967 7.740559 0.492744
scale_new_min_in=-1.000000 -1.000000 -1.000000 -1.000000 -1.000000 -1.000000 -1.000000 -1.000000 -1.000000 -1.000000 -1.000000
scale_factor_in=1.000000 1.000000 1.000000 1.000000 1.000000 1.000000 1.000000 1.000000 1.000000 1.000000 1.000000
scale_mean_out=0.006885 0.006940 0.006452 0.000000 1.617205 1.805368 0.028493 0.033410 0.029136
scale_deviation_out=0.001293 0.001990 0.002194 0.000001 0.176400 0.429144 0.002952 0.003744 0.008478
scale_new_min_out=-1.000000 -1.000000 -1.000000 -1.000000 -1.000000 -1.000000 -1.000000 -1.000000 -1.000000
scale_factor_out=1.000000 1.000000 1.000000 1.000000 1.000000 1.000000 1.000000 1.000000 1.000000
neurons (num_inputs, activation_function, activation_steepness)=(0, 0, 0.00000000000000000000e+00) (0, 0, 0.00000000000000000000e+00) (0, 0, 0.00000000000000000000e+00) (0, 0, 0.00000000000000000000e+00) (0, 0, 0.00000000000000000000e+00) (0, 0, 0.00000000000000000000e+00) (0, 0, 0.00000000000000000000e+00) (0, 0, 0.00000000000000000000e+00) (0, 0, 0.00000000000000000000e+00) (0, 0, 0.00000000000000000000e+00) (0, 0, 0.00000000000000000000e+00) (0, 0, 0.00000000000000000000e+00) (12, 5, 5.00000000000000000000e-01) (12, 5, 5.00000000000000000000e-01) (12, 5, 5.00000000000000000000e-01) (12, 5, 5.00000000000000000000e-01) (12, 5, 5.00000000000000000000e-01) (12, 5, 5.00000000000000000000e-01) (12, 5, 5.00000000000000000000e-01) (12, 5, 5.00000000000000000000e-01) (12, 5, 5.00000000000000000000e-01) (12, 5, 5.00000000000000000000e-01) (12, 5, 5.00000000000000000000e-01) (12, 5, 5.00000000000000000000e-01) (12, 5, 5.00000000000000000000e-01) (12, 5, 5.00000000000000000000e-01) (12, 5, 5.00000000000000000000e-01) (12, 5, 5.00000000000000000000e-01) (12, 5, 5.00000000000000000000e-01) (12, 5, 5.00000000000000000000e-01) (12, 5, 5.00000000000000000000e-01) (12, 5, 5.00000000000000000000e-01) (12, 5, 5.00000000000000000000e-01) (12, 5, 5.00000000000000000000e-01) (12, 5, 5.00000000000000000000e-01) (12, 5, 5.00000000000000000000e-01) (12, 5, 5.00000000000000000000e-01) (12, 5, 5.00000000000000000000e-01) (12, 5, 5.00000000000000000000e-01) (12, 5, 5.00000000000000000000e-01) (12, 5, 5.00000000000000000000e-01) (12, 5, 5.00000000000000000000e-01) (0, 5, 0.00000000000000000000e+00) (31, 5, 5.00000000000000000000e-01) (31, 5, 5.00000000000000000000e-01) (31, 5, 5.00000000000000000000e-01) (31, 5, 5.00000000000000000000e-01) (31, 5, 5.00000000000000000000e-01) (31, 5, 5.00000000000000000000e-01) (31, 5, 5.00000000000000000000e-01) (31, 5, 5.00000000000000000000e-01) (31, 5, 5.00000000000000000000e-01) (31, 5, 5.00000000000000000000e-01) (31, 5, 5.00000000000000000000e-01) (31, 5, 5.00000000000000000000e-01) (31, 5, 5.00000000000000000000e-01) (31, 5, 5.00000000000000000000e-01) (31, 5, 5.00000000000000000000e-01) (31, 5, 5.00000000000000000000e-01) (31, 5, 5.00000000000000000000e-01) (31, 5, 5.00000000000000000000e-01) (31, 5, 5.00000000000000000000e-01) (31, 5, 5.00000000000000000000e-01) (31, 5, 5.00000000000000000000e-01) (31, 5, 5.00000000000000000000e-01) (31, 5, 5.00000000000000000000e-01) (31, 5, 5.00000000000000000000e-01) (31, 5, 5.00000000000000000000e-01) (31, 5, 5.00000000000000000000e-01) (31, 5, 5.00000000000000000000e-01) (31, 5, 5.00000000000000000000e-01) (31, 5, 5.00000000000000000000e-01) (31, 5, 5.00000000000000000000e-01) (0, 5, 0.00000000000000000000e+00) (31, 0, 5.00000000000000000000e-01) (31, 0, 5.00000000000000000000e-01) (31, 0, 5.00000000000000000000e-01) (31, 0, 5.00000000000000000000e-01) (31, 0, 5.00000000000000000000e-01) (31, 0, 5.00000000000000000000e-01) (31, 0, 5.00000000000000000000e-01) (31, 0, 5.00000000000000000000e-01) (31, 0, 5.00000000000000000000e-01) (0, 0, 0.00000000000000000000e+00)
connections (connected_to_neuron, weight)=(0, 4.27972301840782165527e-02) (1, 4.30975109338760375977e-01) (2, 7.25557565689086914062e-01) (3, 3.88880401849746704102e-01) (4, 1.16126544773578643799e-01) (5, -1.88753321766853332520e-01) (6, 1.29656374454498291016e-01) (7, 8.41985762119293212891e-01) (8, -2.28013560175895690918e-01) (9, -1.51942253112792968750e-01) (10, 2.83989042043685913086e-01) (11, -1.25203108787536621094e+00) (0, 3.74354362487792968750e-01) (1, -1.18667757511138916016e+00) (2, -9.72801670432090759277e-02) (3, -5.83596348762512207031e-01) (4, 2.07988262176513671875e+00) (5, 8.86307775974273681641e-01) (6, -2.57648974657058715820e-01) (7, 2.03966283798217773438e+00) (8, 2.33248758316040039062e+00) (9, -1.16878025233745574951e-01) (10, -6.60655796527862548828e-01) (11, 1.98945701122283935547e-01) (0, 9.82672095298767089844e-01) (1, 1.70396709442138671875e+00) (2, 3.92082858085632324219e+00) (3, -8.31009685993194580078e-01) (4, -8.05590689182281494141e-01) (5, -2.27663016319274902344e+00) (6, -1.00271379947662353516e+00) (7, 1.31127977371215820312e+00) (8, -9.45462048053741455078e-01) (9, 1.92959856986999511719e+00) (10, -5.58210313320159912109e-01) (11, 1.45058238506317138672e+00) (0, 7.48847663402557373047e-01) (1, 1.00220787525177001953e+00) (2, 2.98932194709777832031e-01) (3, -4.12672907114028930664e-02) (4, -2.81262338161468505859e-01) (5, 2.82374978065490722656e-01) (6, 7.66221657395362854004e-02) (7, 9.49556350708007812500e-01) (8, 4.72484618425369262695e-01) (9, 3.26729327440261840820e-01) (10, 4.69999909400939941406e-02) (11, 1.10946476459503173828e-01) (0, -1.59975528717041015625e-01) (1, -2.55880862474441528320e-01) (2, -1.42493471503257751465e-01) (3, -1.64569056034088134766e+00) (4, -1.06028616428375244141e+00) (5, -2.23656702041625976562e+00) (6, -8.93116354942321777344e-01) (7, 3.60158160328865051270e-02) (8, -2.47764647006988525391e-01) (9, -3.75187069177627563477e-01) (10, -8.00430104136466979980e-02) (11, 1.14217352867126464844e+00) (0, 5.73062956333160400391e-01) (1, -5.07983922958374023438e-01) (2, 6.93102002143859863281e-01) (3, -2.98493951559066772461e-01) (4, -5.38864314556121826172e-01) (5, 9.72408831119537353516e-01) (6, 4.65571582317352294922e-01) (7, -1.84657955169677734375e+00) (8, 1.38231182098388671875e+00) (9, 1.07072257995605468750e+00) (10, -2.67710953950881958008e-01) (11, -1.07964468002319335938e+00) (0, 3.74153971672058105469e-01) (1, -1.24404788017272949219e+00) (2, -2.92704558372497558594e+00) (3, -6.71905219554901123047e-01) (4, 1.26861572265625000000e+00) (5, 6.65220499038696289062e-01) (6, -6.44052848219871520996e-02) (7, -1.69061981141567230225e-02) (8, 5.26837944984436035156e-01) (9, 6.19332909584045410156e-01) (10, -1.26056993007659912109e+00) (11, 8.08844625949859619141e-01) (0, -8.39470684528350830078e-01) (1, -7.90714696049690246582e-02) (2, -6.59624934196472167969e-01) (3, 3.95885676145553588867e-01) (4, -1.13051927089691162109e+00) (5, 8.01930367946624755859e-01) (6, 1.89246818423271179199e-01) (7, -9.69900965690612792969e-01) (8, 2.29004597663879394531e+00) (9, 2.19368323683738708496e-01) (10, 1.22955417633056640625e+00) (11, 2.52567768096923828125e+00) (0, 4.67337429523468017578e-01) (1, 4.20130580663681030273e-01) (2, -1.12495243549346923828e+00) (3, 8.72099995613098144531e-01) (4, 3.55461150407791137695e-01) (5, 6.93969428539276123047e-02) (6, 1.83769747614860534668e-01) (7, -2.90386945009231567383e-01) (8, -1.29449907690286636353e-02) (9, -1.13570593297481536865e-01) (10, -1.45985800772905349731e-02) (11, 9.58070933818817138672e-01) (0, -1.24091528356075286865e-01) (1, 2.18642652034759521484e-01) (2, 5.82758665084838867188e-01) (3, 1.17411710321903228760e-01) (4, 2.83419080078601837158e-02) (5, -2.54105955362319946289e-01) (6, -2.02537819743156433105e-01) (7, 1.20641350746154785156e+00) (8, 1.93378515541553497314e-02) (9, -1.21519662439823150635e-01) (10, 7.24630653858184814453e-01) (11, 9.68990027904510498047e-01) (0, -3.14732402563095092773e-01) (1, 2.31364518404006958008e-01) (2, -9.09693166613578796387e-02) (3, 3.95724177360534667969e-01) (4, 5.61120688915252685547e-01) (5, 1.61644816398620605469e-01) (6, 3.40199396014213562012e-02) (7, 4.33693081140518188477e-01) (8, 8.60482692718505859375e-01) (9, 2.89444744586944580078e-01) (10, -3.92526686191558837891e-01) (11, -1.14407229423522949219e+00) (0, 5.27420043945312500000e-01) (1, 9.28708493709564208984e-01) (2, 1.13694214820861816406e+00) (3, -4.27637517452239990234e-01) (4, -3.08977276086807250977e-01) (5, -2.84635156393051147461e-01) (6, 9.61843490600585937500e-01) (7, 8.11948850750923156738e-02) (8, -3.18391501903533935547e-01) (9, 3.24500769376754760742e-01) (10, -1.06205987930297851562e+00) (11, 2.59745746850967407227e-01) (0, 5.08409440517425537109e-01) (1, 4.25915747880935668945e-01) (2, 1.74224472045898437500e+00) (3, 2.13773548603057861328e-01) (4, 5.30842132866382598877e-02) (5, 5.15342473983764648438e-01) (6, 2.35422238707542419434e-01) (7, -1.59938943386077880859e+00) (8, -1.04974567890167236328e+00) (9, -2.63040959835052490234e-02) (10, 3.82429510354995727539e-01) (11, -1.54284238815307617188e+00) (0, -7.69672021269798278809e-02) (1, 4.38751757144927978516e-01) (2, 1.49835574626922607422e+00) (3, -5.94219416379928588867e-02) (4, -2.74095803499221801758e-01) (5, -4.12021428346633911133e-01) (6, -3.40835481882095336914e-01) (7, 1.33085155487060546875e+00) (8, 1.13666987419128417969e+00) (9, -5.57121634483337402344e-01) (10, -6.14805579185485839844e-01) (11, 1.31640183925628662109e+00) (0, 4.80298757553100585938e-01) (1, -1.07312941551208496094e+00) (2, -3.41285169124603271484e-01) (3, -1.27298116683959960938e-01) (4, 1.87314236164093017578e+00) (5, 1.86307466030120849609e+00) (6, -4.84255820512771606445e-01) (7, -7.82163977622985839844e-01) (8, 3.70664298534393310547e-01) (9, 3.05284798145294189453e-01) (10, 3.44528526067733764648e-01) (11, 4.15573477745056152344e-01) (0, 2.56134808063507080078e-01) (1, -3.95809970796108245850e-02) (2, -6.47597238421440124512e-02) (3, 1.20474112033843994141e+00) (4, -2.49379333108663558960e-02) (5, -1.63693681359291076660e-01) (6, 2.36108079552650451660e-01) (7, 1.83601081371307373047e+00) (8, -5.41063308715820312500e-01) (9, -1.01801954209804534912e-01) (10, 3.80942940711975097656e-01) (11, 1.04152905941009521484e+00) (0, 9.91367757320404052734e-01) (1, 1.20510256290435791016e+00) (2, 4.10522413253784179688e+00) (3, 7.38868892192840576172e-01) (4, -1.38893067836761474609e+00) (5, 6.33233606815338134766e-01) (6, 2.05306529998779296875e+00) (7, -5.60878396034240722656e-01) (8, 2.30156779289245605469e+00) (9, 2.40649759769439697266e-01) (10, -4.99211430549621582031e-01) (11, 2.47560191154479980469e+00) (0, -2.74300009012222290039e-01) (1, 7.54554808139801025391e-01) (2, 1.17513462901115417480e-01) (3, -1.99338957667350769043e-01) (4, -4.00479763746261596680e-01) (5, 2.50029802322387695312e+00) (6, 2.42318332195281982422e-01) (7, -3.43639671802520751953e-01) (8, 1.15469551086425781250e+00) (9, 3.35453480482101440430e-01) (10, 4.55678343772888183594e-01) (11, 1.37379765510559082031e-01) (0, 6.17458522319793701172e-01) (1, 4.47387069463729858398e-01) (2, -1.06545352935791015625e+00) (3, 4.55345362424850463867e-01) (4, -4.13801699876785278320e-01) (5, -1.45530272275209426880e-02) (6, -6.39215111732482910156e-01) (7, 1.71889573335647583008e-01) (8, -1.13435494899749755859e+00) (9, -2.35571652650833129883e-01) (10, 1.81254222989082336426e-01) (11, -3.58431279659271240234e-01) (0, 1.01018881797790527344e+00) (1, 2.08573961257934570312e+00) (2, 1.23803067207336425781e+00) (3, 4.90174579620361328125e+00) (4, 1.25908267498016357422e+00) (5, 4.03559207916259765625e+00) (6, 4.38441336154937744141e-01) (7, 2.19149227142333984375e+01) (8, -2.25704073905944824219e+00) (9, 3.31009365618228912354e-02) (10, -2.05836653709411621094e+00) (11, 5.42193767614662647247e-04) (0, 3.30919772386550903320e-01) (1, -9.32584516704082489014e-03) (2, -1.50946825742721557617e-01) (3, -8.65360647439956665039e-02) (4, -6.31280615925788879395e-02) (5, -1.70374679565429687500e+00) (6, 7.16554448008537292480e-02) (7, 1.47692248225212097168e-01) (8, 6.29540860652923583984e-01) (9, 1.04326538741588592529e-01) (10, 4.57291722297668457031e-01) (11, -2.15786337852478027344e+00) (0, 3.60362738370895385742e-01) (1, 6.20226800441741943359e-01) (2, -2.86496371030807495117e-01) (3, 7.72121310234069824219e-01) (4, -5.95930874347686767578e-01) (5, 9.47083294391632080078e-01) (6, -5.15136361122131347656e-01) (7, 1.26826918125152587891e+00) (8, -2.04354614019393920898e-01) (9, 1.04583168029785156250e+00) (10, -1.04442194104194641113e-01) (11, -3.57627607882022857666e-02) (0, 1.10634577274322509766e+00) (1, 5.32742798328399658203e-01) (2, -3.64017754793167114258e-01) (3, -5.48556223511695861816e-02) (4, 7.06428810954093933105e-02) (5, -1.46063518524169921875e+00) (6, 1.03923156857490539551e-01) (7, -5.30370950698852539062e-01) (8, 7.29550898075103759766e-01) (9, 9.19026672840118408203e-01) (10, -2.14858025312423706055e-01) (11, 1.01871061325073242188e+00) (0, 8.43211077153682708740e-03) (1, 6.47848725318908691406e-01) (2, 3.03446722030639648438e+00) (3, -3.37834320962429046631e-02) (4, 9.03459191322326660156e-01) (5, 1.23466038703918457031e+00) (6, 3.04910093545913696289e-01) (7, 6.24887406826019287109e-01) (8, -5.87927222251892089844e-01) (9, -4.32288408279418945312e-01) (10, -5.79113721847534179688e-01) (11, -2.72283762693405151367e-01) (0, 5.23209273815155029297e-01) (1, -1.55294501781463623047e+00) (2, 9.18110758066177368164e-02) (3, 4.09433633089065551758e-01) (4, -2.31688603758811950684e-01) (5, -5.42466044425964355469e-01) (6, -2.80609726905822753906e-01) (7, -4.05096203088760375977e-01) (8, 1.24251854419708251953e+00) (9, -4.38443690538406372070e-01) (10, -6.96161761879920959473e-02) (11, -2.89146602153778076172e-01) (0, -1.20095096528530120850e-01) (1, 5.41329085826873779297e-02) (2, 2.80354738235473632812e+00) (3, -2.08031952381134033203e-01) (4, -4.99031186103820800781e-01) (5, 1.74219143390655517578e+00) (6, -6.67953491210937500000e-01) (7, 1.97279509156942367554e-02) (8, 1.10975670814514160156e+00) (9, 2.20907950401306152344e+00) (10, -4.86313879489898681641e-01) (11, -1.51752758026123046875e+00) (0, -2.79015809297561645508e-01) (1, 1.74082303047180175781e+00) (2, 2.07561686635017395020e-01) (3, -2.51568794250488281250e-01) (4, -1.71215042471885681152e-01) (5, 8.33773016929626464844e-01) (6, 1.90917044878005981445e-01) (7, -9.45553898811340332031e-01) (8, 1.02482533454895019531e+00) (9, -6.72025680541992187500e-01) (10, -5.39259612560272216797e-01) (11, -7.28892028331756591797e-01) (0, 5.23083806037902832031e-01) (1, -3.73546481132507324219e+00) (2, -1.80635109543800354004e-01) (3, -9.25278961658477783203e-01) (4, 1.92267072200775146484e+00) (5, -8.49572122097015380859e-01) (6, 3.66783082485198974609e-01) (7, -2.12783193588256835938e+00) (8, 3.48495197296142578125e+00) (9, -2.02474191784858703613e-01) (10, 1.02242541313171386719e+00) (11, 4.79015469551086425781e-01) (0, 2.94415980577468872070e-01) (1, -2.18255177140235900879e-01) (2, 2.20642983913421630859e-03) (3, 1.30627229809761047363e-01) (4, 1.26417338848114013672e-01) (5, 1.19309628009796142578e+00) (6, -1.79163187742233276367e-01) (7, -4.06399965286254882812e-02) (8, 8.18240225315093994141e-01) (9, -3.76184694468975067139e-02) (10, 8.04729580879211425781e-01) (11, 1.49273991584777832031e+00) (0, -5.24855852127075195312e-01) (1, -1.51671397686004638672e+00) (2, 1.17747926712036132812e+00) (3, -7.35016822814941406250e-01) (4, -3.54821443557739257812e-01) (5, 1.31437373161315917969e+00) (6, -3.18735480308532714844e-01) (7, -9.84170734882354736328e-01) (8, 1.77774047851562500000e+00) (9, 1.41040432453155517578e+00) (10, -1.58649280667304992676e-01) (11, 3.68086874485015869141e-01) (12, 1.19767761230468750000e+00) (13, 3.88909727334976196289e-01) (14, -5.18965542316436767578e-01) (15, 5.15654087066650390625e-01) (16, 7.22426772117614746094e-01) (17, -3.56362700462341308594e-01) (18, -2.56774514913558959961e-01) (19, 3.29654335975646972656e-01) (20, 7.95006155967712402344e-01) (21, 1.62837052345275878906e+00) (22, 1.01625657081604003906e+00) (23, 3.08082222938537597656e-01) (24, 1.07196331024169921875e+00) (25, 1.06591612100601196289e-01) (26, -1.39914542436599731445e-01) (27, -2.60475650429725646973e-02) (28, -1.90694808959960937500e-01) (29, -6.28292024135589599609e-01) (30, 3.55581969022750854492e-01) (31, -3.50694894790649414062e-01) (32, -3.52466881275177001953e-01) (33, 2.06664234399795532227e-01) (34, 8.07184875011444091797e-01) (35, 1.19388237595558166504e-01) (36, -4.26265209913253784180e-01) (37, 3.55231970548629760742e-01) (38, 4.34373438358306884766e-01) (39, 1.45214781165122985840e-01) (40, -8.65801572799682617188e-01) (41, 1.20439296588301658630e-02) (42, 2.60446459054946899414e-01) (12, 8.47894608974456787109e-01) (13, 5.96377968788146972656e-01) (14, -5.82626700401306152344e-01) (15, 9.07999753952026367188e-01) (16, 7.43239581584930419922e-01) (17, 9.66178953647613525391e-01) (18, 5.01580685377120971680e-02) (19, -6.63049817085266113281e-01) (20, -8.33606421947479248047e-01) (21, -8.77175867557525634766e-01) (22, 1.13685083389282226562e+00) (23, -1.09122477471828460693e-01) (24, -8.63803148269653320312e-01) (25, 2.82705962657928466797e-01) (26, 1.30942583084106445312e+00) (27, 9.99813854694366455078e-01) (28, 6.23091042041778564453e-01) (29, 2.22473993897438049316e-01) (30, 3.34409743547439575195e-01) (31, -6.75808370113372802734e-01) (32, -4.19673562049865722656e-01) (33, -3.28367250040173530579e-03) (34, -3.87095600366592407227e-01) (35, 1.05113458633422851562e+00) (36, -1.60625457763671875000e+00) (37, -6.74064010381698608398e-02) (38, 4.97772693634033203125e-01) (39, 9.84034359455108642578e-01) (40, -6.68543517589569091797e-01) (41, -1.77089184522628784180e-01) (42, 2.80779451131820678711e-01) (12, -2.05491709709167480469e+00) (13, 5.37195563316345214844e-01) (14, 2.86474138498306274414e-01) (15, 5.28220608830451965332e-02) (16, -1.29961204528808593750e+00) (17, -3.01565915346145629883e-01) (18, 7.90204107761383056641e-01) (19, -9.19961556792259216309e-03) (20, -2.63678026199340820312e+00) (21, 4.52669292688369750977e-01) (22, -5.88525831699371337891e-01) (23, -4.27482753992080688477e-01) (24, -7.38440454006195068359e-01) (25, 1.67998266220092773438e+00) (26, 5.10116338729858398438e-01) (27, -1.45172595977783203125e+00) (28, 2.14847758412361145020e-01) (29, 8.32564294338226318359e-01) (30, -5.47932922840118408203e-01) (31, -2.72192388772964477539e-01) (32, -5.93752920627593994141e-01) (33, -1.41796982288360595703e+00) (34, -2.05657213926315307617e-01) (35, 7.01840937137603759766e-01) (36, -1.32720625400543212891e+00) (37, 4.38813902437686920166e-02) (38, 2.72608995437622070312e-01) (39, 5.26326596736907958984e-01) (40, 5.03253078460693359375e+00) (41, 1.38068318367004394531e-01) (42, 1.73739743232727050781e+00) (12, 1.26555263996124267578e+00) (13, -2.32156828045845031738e-01) (14, -8.71655404567718505859e-01) (15, 6.16162896156311035156e-01) (16, 7.22703456878662109375e-01) (17, -7.67722845077514648438e-01) (18, -2.19484746456146240234e-01) (19, 6.59707665443420410156e-01) (20, -6.41611933708190917969e-01) (21, -8.14491331577301025391e-01) (22, -6.24939858913421630859e-01) (23, 8.84287953376770019531e-01) (24, -1.02768063545227050781e+00) (25, -3.85791450738906860352e-01) (26, 3.96613597869873046875e-01) (27, 5.70497691631317138672e-01) (28, -7.89159297943115234375e-01) (29, 7.60864019393920898438e-02) (30, 6.47711336612701416016e-01) (31, -3.27415943145751953125e-01) (32, -3.02144110202789306641e-01) (33, 3.16457837820053100586e-01) (34, -3.58859032392501831055e-01) (35, -3.57706040143966674805e-01) (36, -1.39288395643234252930e-01) (37, 5.17940402030944824219e-01) (38, 4.58928011357784271240e-02) (39, 6.41401886940002441406e-01) (40, 7.06929743289947509766e-01) (41, 6.35256528854370117188e-01) (42, -5.58322370052337646484e-01) (12, 1.44932768307626247406e-04) (13, -8.47526490688323974609e-02) (14, 4.10835206508636474609e-01) (15, 4.71423149108886718750e-01) (16, 1.14892709255218505859e+00) (17, 9.89288747310638427734e-01) (18, 1.11962163448333740234e+00) (19, 9.09702420234680175781e-01) (20, 4.22087997198104858398e-01) (21, -2.77301520109176635742e-01) (22, 1.17386019229888916016e+00) (23, 2.08783912658691406250e+00) (24, -1.01625812053680419922e+00) (25, -4.32767093181610107422e-01) (26, 1.12487971782684326172e+00) (27, 4.40705657005310058594e-01) (28, -4.43014502525329589844e-01) (29, -4.77265447378158569336e-01) (30, 4.87721115350723266602e-01) (31, -1.36702883243560791016e+00) (32, -6.60285592079162597656e-01) (33, 2.08041882514953613281e+00) (34, -2.83678531646728515625e+00) (35, 4.72528129816055297852e-01) (36, 9.72061216831207275391e-01) (37, -1.58223497867584228516e+00) (38, -5.30616641044616699219e-01) (39, -2.49746948480606079102e-01) (40, 5.84689617156982421875e-01) (41, 4.56833630800247192383e-01) (42, -2.42616355419158935547e-01) (12, -6.00516378879547119141e-01) (13, 7.51924872398376464844e-01) (14, -3.03126364946365356445e-01) (15, 8.88466060161590576172e-01) (16, 5.39675295352935791016e-01) (17, -3.38547348976135253906e-01) (18, 7.37413346767425537109e-01) (19, 1.19071042537689208984e+00) (20, 1.45271575450897216797e+00) (21, 5.65641880035400390625e-01) (22, -2.85405158996582031250e-01) (23, -1.28162920475006103516e+00) (24, 1.01591467857360839844e+00) (25, -4.06882494688034057617e-01) (26, -7.21941813826560974121e-02) (27, 8.30862462520599365234e-01) (28, 1.76631525158882141113e-01) (29, 1.34762072563171386719e+00) (30, 2.95461267232894897461e-01) (31, -6.86108767986297607422e-02) (32, -1.39895331859588623047e+00) (33, -1.28198587894439697266e+00) (34, 5.14842212200164794922e-01) (35, 2.01309895515441894531e+00) (36, 5.40431261062622070312e-01) (37, 5.58068454265594482422e-01) (38, 1.49009346961975097656e+00) (39, -1.02845370769500732422e+00) (40, 4.42141853272914886475e-02) (41, 1.83171167969703674316e-01) (42, 7.10356533527374267578e-01) (12, 9.91895675659179687500e-01) (13, -3.02357077598571777344e-01) (14, -6.85499012470245361328e-01) (15, 7.56577730178833007812e-01) (16, -1.00488388538360595703e+00) (17, 1.34392464160919189453e+00) (18, -2.87228375673294067383e-01) (19, 1.57701790332794189453e+00) (20, 1.39241743087768554688e+00) (21, -2.52979218959808349609e-01) (22, 8.08502554893493652344e-01) (23, 1.44090533256530761719e+00) (24, -8.38771998882293701172e-01) (25, 2.80663514137268066406e+00) (26, 6.50178194046020507812e-01) (27, -3.72001200914382934570e-01) (28, 1.76169979572296142578e+00) (29, 1.26247787475585937500e+00) (30, 8.72967302799224853516e-01) (31, -1.64725124835968017578e+00) (32, 1.06711244583129882812e+00) (33, 5.78398346900939941406e-01) (34, -1.13381719589233398438e+00) (35, -6.69958114624023437500e-01) (36, -1.28855514526367187500e+00) (37, 7.74034261703491210938e-01) (38, -3.15356683731079101562e+00) (39, 1.01831769943237304688e+00) (40, 2.91309893131256103516e-01) (41, -2.35183209180831909180e-01) (42, -5.22607445716857910156e-01) (12, 5.08925020694732666016e-01) (13, 1.32985723018646240234e+00) (14, -1.11062936484813690186e-01) (15, 3.65432351827621459961e-02) (16, 1.07778465747833251953e+00) (17, 1.48221492767333984375e+00) (18, -4.00803804397583007812e-01) (19, 2.11649522185325622559e-01) (20, -7.46358692646026611328e-01) (21, 1.28009870648384094238e-01) (22, 2.40052342414855957031e-02) (23, -1.02179706096649169922e+00) (24, -7.76704311370849609375e-01) (25, -5.28804421424865722656e-01) (26, 1.03214371204376220703e+00) (27, -2.63507187366485595703e-01) (28, 4.36678469181060791016e-01) (29, -2.11980175971984863281e+00) (30, 3.70448172092437744141e-01) (31, -3.18800717592239379883e-01) (32, 1.45209562778472900391e+00) (33, 2.92588144540786743164e-01) (34, -5.12287795543670654297e-01) (35, 1.99945712089538574219e+00) (36, -4.20135140419006347656e-01) (37, 5.87445378303527832031e-01) (38, 8.32404553890228271484e-01) (39, 3.39993655681610107422e-01) (40, 6.78550720214843750000e-01) (41, 1.38799831271171569824e-01) (42, 2.21991682052612304688e+00) (12, 1.64212715625762939453e+00) (13, 5.08225083351135253906e-01) (14, 2.48009860515594482422e-01) (15, 1.65689066052436828613e-01) (16, -1.12504410743713378906e+00) (17, -1.81511998176574707031e-01) (18, 2.70031064748764038086e-01) (19, 1.63418650627136230469e-01) (20, -9.91326451301574707031e-01) (21, 3.21955889463424682617e-01) (22, -4.84464019536972045898e-01) (23, -8.73303189873695373535e-02) (24, 4.00926917791366577148e-01) (25, 1.80554553866386413574e-01) (26, 6.42684757709503173828e-01) (27, -3.31631630659103393555e-01) (28, -4.54287201166152954102e-01) (29, 1.06392717361450195312e+00) (30, 1.53009200096130371094e+00) (31, -3.24351400136947631836e-01) (32, 1.01639080047607421875e+00) (33, 1.21964961290359497070e-01) (34, -5.06722867488861083984e-01) (35, 3.24887335300445556641e-01) (36, -3.07983070611953735352e-01) (37, -1.98453783988952636719e-01) (38, 4.60146784782409667969e-01) (39, -3.83294582366943359375e-01) (40, 4.38865512609481811523e-01) (41, 9.00016605854034423828e-01) (42, 6.93414747714996337891e-01) (12, 7.53558814525604248047e-01) (13, -1.07235521078109741211e-01) (14, 7.34543204307556152344e-01) (15, 9.65482890605926513672e-01) (16, -6.27353668212890625000e-01) (17, 1.85598924756050109863e-01) (18, 5.47123193740844726562e-01) (19, 4.64901596307754516602e-01) (20, 5.09932488203048706055e-02) (21, 5.94583868980407714844e-01) (22, 1.22096455097198486328e+00) (23, 4.84811812639236450195e-01) (24, 2.68044710159301757812e+00) (25, 3.05176162719726562500e+00) (26, -1.09087193012237548828e+00) (27, -3.01409423351287841797e-01) (28, 2.46664300560951232910e-01) (29, 3.67280304431915283203e-01) (30, -1.53040200471878051758e-01) (31, 2.86583334207534790039e-01) (32, 9.06404793262481689453e-01) (33, -1.19306981563568115234e+00) (34, -1.07550621032714843750e+00) (35, 1.58609437942504882812e+00) (36, -1.64610028266906738281e+00) (37, -1.75318926572799682617e-01) (38, -2.94651508331298828125e+00) (39, -9.35394108295440673828e-01) (40, 1.41903591156005859375e+00) (41, 3.82666826248168945312e-01) (42, 8.89683187007904052734e-01) (12, -5.17902255058288574219e-01) (13, -3.62803906202316284180e-01) (14, 4.78289902210235595703e-01) (15, -3.66731196641921997070e-01) (16, 2.98228800296783447266e-01) (17, -7.72365704178810119629e-02) (18, 7.81590521335601806641e-01) (19, 5.83605580031871795654e-02) (20, 2.05210611224174499512e-01) (21, 1.42292416095733642578e+00) (22, -8.73629510402679443359e-01) (23, -5.70919096469879150391e-01) (24, -8.56296360492706298828e-01) (25, 1.42685696482658386230e-01) (26, -9.07457530498504638672e-01) (27, -5.29622197151184082031e-01) (28, -1.39745071530342102051e-01) (29, 7.63073004782199859619e-03) (30, -5.97921311855316162109e-01) (31, 6.21048629283905029297e-01) (32, 7.48498380184173583984e-01) (33, 3.74216556549072265625e-01) (34, 3.61591696739196777344e-01) (35, 7.97092378139495849609e-01) (36, 8.93828034400939941406e-01) (37, -1.12093076109886169434e-01) (38, -4.56897795200347900391e-01) (39, 2.45355814695358276367e-01) (40, 8.31611275672912597656e-01) (41, 1.87099829316139221191e-01) (42, 7.53816306591033935547e-01) (12, 3.71947661042213439941e-02) (13, 1.65671825408935546875e+00) (14, -2.27649593353271484375e+00) (15, -3.53524088859558105469e-01) (16, -6.76883682608604431152e-02) (17, 1.05306875705718994141e+00) (18, -6.62602484226226806641e-01) (19, 2.46163344383239746094e+00) (20, -4.80248481035232543945e-01) (21, 7.06249549984931945801e-02) (22, 4.35967236757278442383e-01) (23, -1.19359672069549560547e+00) (24, -1.01615357398986816406e+00) (25, 2.24973392486572265625e+00) (26, -2.19240263104438781738e-01) (27, 1.32375080138444900513e-02) (28, 1.54266095161437988281e+00) (29, 8.06099891662597656250e-01) (30, 4.08758074045181274414e-01) (31, 2.58605122566223144531e+00) (32, 2.77874493598937988281e+00) (33, 2.54493951797485351562e+00) (34, 5.49377083778381347656e-01) (35, 2.94115990400314331055e-01) (36, -2.10881328582763671875e+00) (37, 2.05266594886779785156e+00) (38, 7.60587453842163085938e-01) (39, -1.38323593139648437500e+00) (40, -1.16133415699005126953e+00) (41, 4.59461174905300140381e-02) (42, 1.37676227092742919922e+00) (12, 3.99303615093231201172e-01) (13, -4.03245151042938232422e-01) (14, 2.79224604368209838867e-01) (15, -1.42070746421813964844e+00) (16, 3.09497892856597900391e-01) (17, 7.84058809280395507812e-01) (18, 1.23450589179992675781e+00) (19, 9.35330212116241455078e-01) (20, -5.11241316795349121094e-01) (21, 1.10384893417358398438e+00) (22, -4.08758699893951416016e-01) (23, 3.73525738716125488281e-01) (24, 2.91400521993637084961e-01) (25, -6.41144990921020507812e-01) (26, 3.50533664226531982422e-01) (27, 2.23558139801025390625e+00) (28, 3.94660860300064086914e-01) (29, 2.10320591926574707031e+00) (30, -4.09436017274856567383e-01) (31, 9.48636159300804138184e-02) (32, 8.29304993152618408203e-01) (33, 1.40755966305732727051e-01) (34, -1.32785990834236145020e-01) (35, 3.36474971845746040344e-03) (36, 4.72974032163619995117e-01) (37, -2.95717149972915649414e-01) (38, 1.27339446544647216797e+00) (39, -7.31302499771118164062e-02) (40, 1.16148316860198974609e+00) (41, 1.00354778766632080078e+00) (42, -1.52279928326606750488e-01) (12, 1.57895386219024658203e+00) (13, -1.32959902286529541016e-01) (14, 1.38359963893890380859e+00) (15, -1.35430052876472473145e-01) (16, -7.53783941268920898438e-01) (17, 6.33500933647155761719e-01) (18, -9.30687725543975830078e-01) (19, 5.30340313911437988281e-01) (20, -3.76333415508270263672e-01) (21, 6.20256781578063964844e-01) (22, 1.02054810523986816406e+00) (23, -1.15724831819534301758e-01) (24, -8.76331150531768798828e-01) (25, -7.60948479175567626953e-01) (26, 4.95446503162384033203e-01) (27, 4.08301472663879394531e-01) (28, 5.35646416246891021729e-02) (29, 4.06460225582122802734e-01) (30, 3.05766582489013671875e-01) (31, 1.40961676836013793945e-01) (32, 7.63498723506927490234e-01) (33, -8.77520918846130371094e-01) (34, -3.46700072288513183594e-01) (35, 7.11028754711151123047e-01) (36, 6.81643187999725341797e-01) (37, 8.50798666477203369141e-01) (38, -4.22935247421264648438e-01) (39, -3.56663674116134643555e-01) (40, -2.18235671520233154297e-01) (41, -5.54738283157348632812e-01) (42, -9.43666219711303710938e-01) (12, 6.93869054317474365234e-01) (13, 4.67655479907989501953e-01) (14, 1.02329075336456298828e+00) (15, 7.37522661685943603516e-01) (16, 3.55691909790039062500e-01) (17, -5.30024357140064239502e-02) (18, -6.91298246383666992188e-01) (19, 2.01363757252693176270e-01) (20, -5.84242105484008789062e-01) (21, 7.41514623165130615234e-01) (22, -8.33932012319564819336e-02) (23, 1.95799663662910461426e-01) (24, -9.50868904590606689453e-01) (25, -3.58605206012725830078e-01) (26, -1.82113945484161376953e-02) (27, 3.65796953439712524414e-01) (28, -5.01852966845035552979e-02) (29, -9.39261078834533691406e-01) (30, -6.57100021839141845703e-01) (31, 1.17704200744628906250e+00) (32, 7.51401484012603759766e-01) (33, 4.10006880760192871094e-01) (34, -1.24906197190284729004e-01) (35, 9.37056601047515869141e-01) (36, -4.64747130870819091797e-01) (37, 2.69170463085174560547e-01) (38, 5.66651761531829833984e-01) (39, -2.28062734007835388184e-01) (40, 2.72835999727249145508e-01) (41, 1.29548835754394531250e+00) (42, -1.32732599973678588867e-01) (12, 3.99419456720352172852e-01) (13, -7.27444812655448913574e-02) (14, -8.63623097538948059082e-02) (15, -2.49988365173339843750e+00) (16, 1.09551809728145599365e-01) (17, 2.51333653926849365234e-01) (18, 6.07953548431396484375e-01) (19, 1.38418364524841308594e+00) (20, 1.09580230712890625000e+00) (21, -7.17205762863159179688e-01) (22, 3.18239390850067138672e-01) (23, -1.94156539440155029297e+00) (24, -1.96447700262069702148e-01) (25, 2.71858716011047363281e+00) (26, -1.69714838266372680664e-01) (27, 1.80177822709083557129e-01) (28, -1.41209602355957031250e+00) (29, 1.26791989803314208984e+00) (30, -2.16737818717956542969e+00) (31, -5.71189880371093750000e-01) (32, 1.43897026777267456055e-01) (33, -8.95063281059265136719e-01) (34, 1.74976956844329833984e+00) (35, -1.15134263038635253906e+00) (36, -5.74676394462585449219e-01) (37, 3.55447381734848022461e-01) (38, -8.65251898765563964844e-01) (39, -8.28363180160522460938e-01) (40, -2.05494666099548339844e+00) (41, -1.10725629329681396484e+00) (42, 8.27627405524253845215e-02) (12, -2.37567529082298278809e-01) (13, 5.46464538574218750000e+00) (14, -3.38150590658187866211e-01) (15, 5.66560685634613037109e-01) (16, -5.01161384582519531250e+00) (17, 2.01753115653991699219e+00) (18, -4.97669100761413574219e-01) (19, -3.60694813728332519531e+00) (20, -4.62338590621948242188e+00) (21, 8.13038349151611328125e-02) (22, 6.34322643280029296875e-01) (23, -6.08132696151733398438e+00) (24, -2.54654735326766967773e-01) (25, -2.51042127609252929688e+00) (26, -7.82718896865844726562e-01) (27, 2.10660409927368164062e+00) (28, -1.03366792201995849609e+00) (29, 3.57886672019958496094e+00) (30, 5.30016124248504638672e-01) (31, 1.45001828670501708984e+00) (32, -6.85236513614654541016e-01) (33, 5.49667239189147949219e-01) (34, -7.43025660514831542969e-01) (35, 5.02715073525905609131e-02) (36, 8.70073020458221435547e-01) (37, 8.86395812034606933594e-01) (38, 1.01287579536437988281e+00) (39, -3.57640266418457031250e+00) (40, -8.81938397884368896484e-01) (41, 1.28333938121795654297e+00) (42, -1.13387298583984375000e+00) (12, 7.05115854740142822266e-01) (13, 7.59865760803222656250e-01) (14, 8.98196041584014892578e-01) (15, -9.95367318391799926758e-02) (16, -2.96083658933639526367e-01) (17, -1.16395902633666992188e+00) (18, 7.68307268619537353516e-01) (19, -4.92832720279693603516e-01) (20, 6.31258130073547363281e-01) (21, 9.50057625770568847656e-01) (22, -1.45470619201660156250e-01) (23, 1.16292692720890045166e-01) (24, 1.04929208755493164062e+00) (25, -6.59549534320831298828e-01) (26, -1.39511442184448242188e+00) (27, -2.43037119507789611816e-01) (28, -2.71910518407821655273e-01) (29, -4.73408460617065429688e-01) (30, -4.33659702539443969727e-01) (31, 3.19146573543548583984e-01) (32, -1.76982831954956054688e+00) (33, -4.95002239942550659180e-01) (34, 3.97667258977890014648e-01) (35, 1.57456767559051513672e+00) (36, 4.83741909265518188477e-01) (37, 1.36834666132926940918e-01) (38, -3.83607596158981323242e-01) (39, 6.43242835998535156250e-01) (40, 1.14138865470886230469e+00) (41, 1.55627083778381347656e+00) (42, 5.23666083812713623047e-01) (12, 7.21902012825012207031e-01) (13, 2.85829395055770874023e-01) (14, -1.79979577660560607910e-01) (15, -3.30064654350280761719e-01) (16, -3.67311984300613403320e-02) (17, -5.73194086551666259766e-01) (18, -2.87124693393707275391e-01) (19, 5.09012877941131591797e-01) (20, 1.24789035320281982422e+00) (21, -9.43516910076141357422e-01) (22, 1.00113368034362792969e+00) (23, -3.44606023281812667847e-03) (24, 2.32542634010314941406e-01) (25, -5.10329186916351318359e-01) (26, -1.11763067543506622314e-02) (27, 7.72170186042785644531e-01) (28, 2.60122150182723999023e-01) (29, -8.62701475620269775391e-01) (30, -4.86466646194458007812e-01) (31, -4.96343582868576049805e-01) (32, 8.38339567184448242188e-01) (33, -1.93531632423400878906e-01) (34, 1.52341812849044799805e-01) (35, -5.87810695171356201172e-01) (36, -1.77355095744132995605e-01) (37, 1.37338731437921524048e-02) (38, 7.77451813220977783203e-01) (39, 3.84181171655654907227e-01) (40, 6.20326757431030273438e-01) (41, 4.73750233650207519531e-01) (42, -7.63783156871795654297e-02) (12, -1.78858473896980285645e-01) (13, -1.05426228046417236328e+00) (14, 2.01634824275970458984e-01) (15, 4.64585483074188232422e-01) (16, 8.39826941490173339844e-01) (17, -4.46450662612915039062e+00) (18, -1.35239863395690917969e+00) (19, -9.17880594730377197266e-01) (20, 1.08809685707092285156e+00) (21, -3.27939152717590332031e+00) (22, -2.58412027359008789062e+00) (23, 3.90767288208007812500e+00) (24, 4.09561777114868164062e+00) (25, 1.24497008323669433594e+00) (26, -1.25150635838508605957e-01) (27, 2.63408827781677246094e+00) (28, -2.23274722695350646973e-01) (29, -7.67413735389709472656e-01) (30, 1.62591242790222167969e+00) (31, -2.66235208511352539062e+00) (32, 1.43552172183990478516e+00) (33, 2.93285846710205078125e-01) (34, 3.22784233093261718750e+00) (35, -1.03448724746704101562e+00) (36, -2.58753728866577148438e+00) (37, -1.68087765574455261230e-01) (38, -2.57517963647842407227e-01) (39, 4.29521989822387695312e+00) (40, -9.49926257133483886719e-01) (41, 3.87155008316040039062e+00) (42, -4.11979764699935913086e-01) (12, -3.77856445312500000000e+00) (13, 9.61055278778076171875e-01) (14, -2.38467290997505187988e-01) (15, -3.93793672323226928711e-01) (16, 6.85987591743469238281e-01) (17, -1.60492670536041259766e+00) (18, -5.27285814285278320312e-01) (19, 1.24473035335540771484e+00) (20, 3.54210758209228515625e+00) (21, 3.39959353208541870117e-01) (22, -2.62731015682220458984e-01) (23, 1.13667643070220947266e+00) (24, -3.53282779455184936523e-01) (25, -4.62340742349624633789e-01) (26, 2.16051030158996582031e+00) (27, -2.19229722023010253906e+00) (28, 1.44661712646484375000e+00) (29, 1.26566100120544433594e+00) (30, -3.93377065658569335938e-01) (31, 7.40331828594207763672e-01) (32, 2.67330706119537353516e-01) (33, -4.77153569459915161133e-01) (34, 2.62695121765136718750e+00) (35, 1.35247480869293212891e+00) (36, -5.17385840415954589844e-01) (37, 1.79376587271690368652e-01) (38, 8.99059772491455078125e-01) (39, 3.08406114578247070312e-01) (40, 9.86443161964416503906e-01) (41, 1.31402873992919921875e+00) (42, 1.58358061313629150391e+00) (12, 5.92235028743743896484e-02) (13, -2.86225043237209320068e-02) (14, 4.41231518983840942383e-01) (15, -2.26397246122360229492e-01) (16, -7.08070397377014160156e-01) (17, -2.58604615926742553711e-01) (18, -3.09684902429580688477e-01) (19, -1.57891821861267089844e+00) (20, 4.28352475166320800781e-01) (21, -8.19746628403663635254e-02) (22, -3.48310977220535278320e-01) (23, 8.96584451198577880859e-01) (24, 5.12213408946990966797e-01) (25, 9.09321010112762451172e-01) (26, 6.47552132606506347656e-01) (27, 1.77898836135864257812e+00) (28, 4.26727980375289916992e-01) (29, -1.64559698104858398438e+00) (30, 5.71104466915130615234e-01) (31, 4.59211021661758422852e-01) (32, -7.63950526714324951172e-01) (33, -1.27585709095001220703e+00) (34, -1.46443799138069152832e-01) (35, -1.64134144783020019531e+00) (36, -2.20940709114074707031e+00) (37, 9.87890139222145080566e-02) (38, 5.16081377863883972168e-02) (39, -2.14830979704856872559e-01) (40, -3.26117694377899169922e-01) (41, 8.17212700843811035156e-01) (42, 5.77479839324951171875e-01) (12, -1.79891240596771240234e+00) (13, 1.70071887969970703125e+00) (14, -2.53698277473449707031e+00) (15, 7.31174588203430175781e-01) (16, 9.26590859889984130859e-01) (17, 3.24242919683456420898e-01) (18, -2.65391230583190917969e-01) (19, 1.09157264232635498047e+00) (20, -2.37097120285034179688e+00) (21, 4.39994722604751586914e-01) (22, 1.02473044395446777344e+00) (23, -8.49968373775482177734e-01) (24, 4.66254837810993194580e-02) (25, 7.37660331651568412781e-03) (26, 1.65529417991638183594e+00) (27, -6.31092667579650878906e-01) (28, 1.11047112941741943359e+00) (29, 5.47105550765991210938e-01) (30, 5.32414150238037109375e+00) (31, -3.24713206291198730469e+00) (32, -2.54127383232116699219e+00) (33, 2.59716844558715820312e+00) (34, 3.07157218456268310547e-01) (35, 8.01039040088653564453e-01) (36, -4.24778318405151367188e+00) (37, -3.88786077499389648438e-01) (38, -1.63198244571685791016e+00) (39, 2.21227511763572692871e-01) (40, -3.17050218582153320312e-01) (41, 2.58818578720092773438e+00) (42, -5.70413708686828613281e-01) (12, -1.01440221071243286133e-01) (13, -1.50413304567337036133e-01) (14, -3.64134050905704498291e-02) (15, -4.24052983522415161133e-01) (16, 1.10819935798645019531e+00) (17, -5.59843063354492187500e-01) (18, -4.68356721103191375732e-02) (19, -2.42325633764266967773e-01) (20, 4.62812513113021850586e-01) (21, -9.18052196502685546875e-02) (22, 3.15934538841247558594e-01) (23, 6.06733262538909912109e-01) (24, 5.36859571933746337891e-01) (25, -1.69205263257026672363e-01) (26, 8.30900296568870544434e-02) (27, 4.93204504251480102539e-01) (28, 1.78836673498153686523e-01) (29, -4.56960499286651611328e-02) (30, 3.43516141176223754883e-01) (31, -8.08087050914764404297e-01) (32, 1.24885845184326171875e+00) (33, -3.51663261651992797852e-01) (34, 6.69424235820770263672e-01) (35, -7.43134766817092895508e-02) (36, -8.40518176555633544922e-02) (37, 6.18480071425437927246e-02) (38, -2.23615467548370361328e-02) (39, 1.11612498760223388672e+00) (40, -2.66747891902923583984e-01) (41, 7.72640258073806762695e-02) (42, 1.43971955776214599609e+00) (12, 1.58317315578460693359e+00) (13, 9.96163964271545410156e-01) (14, 5.46888709068298339844e-01) (15, 9.98639047145843505859e-01) (16, 6.79426074028015136719e-01) (17, 1.32374048233032226562e+00) (18, 5.12750089168548583984e-01) (19, 4.99606251716613769531e-01) (20, 3.31096261739730834961e-01) (21, 9.12982344627380371094e-01) (22, -5.76779246330261230469e-01) (23, -8.93756330013275146484e-01) (24, -5.38988828659057617188e-01) (25, -1.09511220455169677734e+00) (26, 4.19019192457199096680e-01) (27, -6.65565669536590576172e-01) (28, 1.06725132465362548828e+00) (29, -1.07260119915008544922e+00) (30, -1.42317020893096923828e+00) (31, -1.27789691090583801270e-01) (32, -1.42324531078338623047e+00) (33, 1.29392147064208984375e+00) (34, -8.97463321685791015625e-01) (35, 8.43916535377502441406e-01) (36, 1.01774191856384277344e+00) (37, -1.86982139945030212402e-01) (38, 3.31263244152069091797e-01) (39, 1.06362545490264892578e+00) (40, 1.31126308441162109375e+00) (41, -9.51350748538970947266e-01) (42, -4.49805967509746551514e-02) (12, 1.92838716506958007812e+00) (13, 7.76913940906524658203e-01) (14, 3.68013381958007812500e-01) (15, -6.31292045116424560547e-01) (16, 9.94123816490173339844e-01) (17, -3.65302890539169311523e-01) (18, -4.78168427944183349609e-01) (19, -3.82111907005310058594e-01) (20, -9.65266287326812744141e-01) (21, -1.49699473381042480469e+00) (22, 1.49127736687660217285e-01) (23, -1.48054373264312744141e+00) (24, 1.08379662036895751953e+00) (25, 3.95107388496398925781e-01) (26, 9.57875192165374755859e-01) (27, 1.60456299781799316406e+00) (28, 8.34644198417663574219e-01) (29, 1.29686486721038818359e+00) (30, -4.52196784317493438721e-02) (31, -1.47269859910011291504e-01) (32, -1.81948029994964599609e+00) (33, 1.28596454858779907227e-01) (34, 1.71375405788421630859e+00) (35, 6.17943286895751953125e-01) (36, 4.16866578161716461182e-02) (37, 5.67607820034027099609e-01) (38, 3.11284661293029785156e-01) (39, 3.44891518354415893555e-01) (40, -6.77902698516845703125e-01) (41, -1.01959377527236938477e-01) (42, 8.14832448959350585938e-01) (12, -1.54339635372161865234e+00) (13, -7.98341751098632812500e-01) (14, 2.73300498723983764648e-01) (15, -1.07943201065063476562e+00) (16, -1.06542512774467468262e-01) (17, -8.95081683993339538574e-02) (18, 3.09630572795867919922e-01) (19, 2.49693900346755981445e-01) (20, 1.30806934833526611328e+00) (21, -3.63084018230438232422e-01) (22, 7.92434811592102050781e-01) (23, 3.82873535156250000000e-01) (24, -3.08575302362442016602e-01) (25, 3.01668614149093627930e-01) (26, -2.91891366243362426758e-01) (27, -3.67834478616714477539e-01) (28, -3.95131528377532958984e-01) (29, 1.15107905864715576172e+00) (30, 1.30274474620819091797e+00) (31, -1.58280238509178161621e-01) (32, -1.02446913719177246094e+00) (33, -1.18927061557769775391e+00) (34, 4.47785466909408569336e-01) (35, 1.29071056842803955078e+00) (36, -4.35007840394973754883e-01) (37, 6.87886655330657958984e-01) (38, 2.72494137287139892578e-01) (39, -3.03754154592752456665e-02) (40, -2.48155876994132995605e-01) (41, 7.06858038902282714844e-01) (42, -1.06739890575408935547e+00) (12, 4.63131874799728393555e-01) (13, 2.78158569335937500000e+00) (14, -1.25853168964385986328e+00) (15, -4.38722938299179077148e-01) (16, -8.71758699417114257812e-01) (17, 3.49577355384826660156e+00) (18, 1.00922513008117675781e+00) (19, -1.97941064834594726562e+00) (20, -7.55521237850189208984e-01) (21, 1.50505661964416503906e-01) (22, 7.77472078800201416016e-01) (23, -2.81112790107727050781e-01) (24, 6.56560719013214111328e-01) (25, 6.53855502605438232422e-01) (26, 1.86429882049560546875e+00) (27, -2.82647514343261718750e+00) (28, -2.42083454132080078125e+00) (29, -6.17286682128906250000e-01) (30, -6.99087500572204589844e-01) (31, -1.51148188114166259766e+00) (32, 4.65760678052902221680e-01) (33, 3.17106306552886962891e-01) (34, -2.01999306678771972656e+00) (35, -5.33419907093048095703e-01) (36, 2.28262090682983398438e+00) (37, -2.21403408050537109375e+00) (38, -8.33807647228240966797e-01) (39, 1.31391584873199462891e+00) (40, 1.39246594905853271484e+00) (41, -9.99095261096954345703e-01) (42, 1.28424000740051269531e+00) (12, 6.43615365028381347656e-01) (13, -8.59409093856811523438e-01) (14, -3.24379652738571166992e-01) (15, 3.20641249418258666992e-02) (16, 8.83754253387451171875e-01) (17, -9.58795428276062011719e-01) (18, 5.11948287487030029297e-01) (19, 7.80096948146820068359e-01) (20, 9.61346089839935302734e-01) (21, -1.23819279670715332031e+00) (22, -2.73333370685577392578e-01) (23, -2.41420298814773559570e-01) (24, -1.01324188709259033203e+00) (25, -2.77233105152845382690e-02) (26, -3.60568851232528686523e-01) (27, 1.99654236435890197754e-01) (28, -5.28413429856300354004e-02) (29, -1.40300107002258300781e+00) (30, -1.32621836662292480469e+00) (31, -4.74649816751480102539e-01) (32, 7.31852710247039794922e-01) (33, -9.03248131275177001953e-01) (34, -4.00422394275665283203e-01) (35, -1.00720286369323730469e+00) (36, 6.96188092231750488281e-01) (37, 4.74571913480758666992e-01) (38, -4.22207444906234741211e-01) (39, -1.73322603106498718262e-01) (40, 3.13145011663436889648e-01) (41, 3.24148148298263549805e-01) (42, 6.16255283355712890625e-01) (12, 7.00829267501831054688e-01) (13, -1.11437305808067321777e-01) (14, 2.30132699012756347656e+00) (15, 1.39840388298034667969e+00) (16, -5.19174516201019287109e-01) (17, 2.83637195825576782227e-01) (18, -3.06219905614852905273e-01) (19, 2.23677873611450195312e+00) (20, -2.95280218124389648438e+00) (21, -3.32705879211425781250e+00) (22, 1.92681431770324707031e+00) (23, 2.03643131256103515625e+00) (24, 1.05226850509643554688e+00) (25, -8.19584906101226806641e-01) (26, 5.21156072616577148438e-01) (27, 1.57947373390197753906e+00) (28, 5.31296610832214355469e-01) (29, 2.23633217811584472656e+00) (30, 1.24263322353363037109e+00) (31, -1.96906292438507080078e+00) (32, 3.89181017875671386719e-01) (33, 1.19767177104949951172e+00) (34, -2.89480042457580566406e+00) (35, 1.98130297660827636719e+00) (36, 1.54331576824188232422e+00) (37, -6.90058290958404541016e-01) (38, -2.55674064159393310547e-01) (39, -1.11642313003540039062e+00) (40, 2.82766371965408325195e-02) (41, -2.25067019462585449219e-01) (42, -5.42806386947631835938e-01) (43, 7.68922030925750732422e-01) (44, 2.10134610533714294434e-02) (45, 3.87629121541976928711e-01) (46, 8.72771084308624267578e-01) (47, 1.32755851373076438904e-02) (48, 1.64545327425003051758e-01) (49, 9.11982208490371704102e-02) (50, -7.96956419944763183594e-01) (51, 8.30538868904113769531e-01) (52, 8.18944871425628662109e-01) (53, -9.08307433128356933594e-02) (54, -3.17993074655532836914e-01) (55, 5.19347786903381347656e-01) (56, 6.90159261226654052734e-01) (57, 4.65204268693923950195e-01) (58, -6.93564265966415405273e-02) (59, 3.78746651113033294678e-02) (60, 3.52739095687866210938e-01) (61, 2.73930102586746215820e-01) (62, 4.94033023715019226074e-02) (63, -8.50456237792968750000e-01) (64, 4.01378899812698364258e-01) (65, -6.41715293750166893005e-03) (66, -3.84194225072860717773e-01) (67, 6.06296300888061523438e-01) (68, 2.90144175291061401367e-01) (69, -1.17524087429046630859e+00) (70, 6.88755586743354797363e-02) (71, 1.77289754152297973633e-01) (72, -1.29222065210342407227e-01) (73, 2.11772128939628601074e-01) (43, 6.83361470699310302734e-01) (44, 8.22017550468444824219e-01) (45, 7.61851444840431213379e-02) (46, 5.74476420879364013672e-01) (47, 1.32711991667747497559e-01) (48, 5.92854082584381103516e-01) (49, 2.57684320211410522461e-01) (50, -5.26781797409057617188e-01) (51, 8.01916241645812988281e-01) (52, 3.22256684303283691406e-01) (53, 2.01584577560424804688e-01) (54, -4.78823073208332061768e-02) (55, -1.91018432378768920898e-01) (56, 6.77092373371124267578e-01) (57, 9.68908369541168212891e-01) (58, 3.28144013881683349609e-01) (59, -2.22911089658737182617e-01) (60, -9.54844295978546142578e-01) (61, -3.30439448356628417969e-01) (62, -2.30491191148757934570e-01) (63, 2.39552721381187438965e-01) (64, 5.50517678260803222656e-01) (65, 4.41522113978862762451e-02) (66, 9.34681296348571777344e-02) (67, 1.89147256314754486084e-02) (68, -7.87399411201477050781e-02) (69, -6.13940060138702392578e-02) (70, 6.98512187227606773376e-04) (71, 1.81290552020072937012e-01) (72, -1.93870648741722106934e-01) (73, 3.13451923429965972900e-02) (43, 1.53685855865478515625e+00) (44, 1.14529407024383544922e+00) (45, 1.24765105545520782471e-01) (46, 7.60034799575805664062e-01) (47, 2.01988816261291503906e-01) (48, 3.15809905529022216797e-01) (49, -3.28315719962120056152e-02) (50, -1.25091660022735595703e+00) (51, 4.02645707130432128906e-01) (52, 5.80168366432189941406e-01) (53, 1.35636925697326660156e+00) (54, 2.30927109718322753906e-01) (55, 1.43760353326797485352e-01) (56, 2.81001985073089599609e-01) (57, 9.72648501396179199219e-01) (58, -5.59397816658020019531e-01) (59, 2.23133042454719543457e-01) (60, -4.34040129184722900391e-01) (61, 6.20988368988037109375e-01) (62, 6.57377362251281738281e-01) (63, 3.50028276443481445312e-01) (64, 5.27763366699218750000e-01) (65, 4.20015364885330200195e-01) (66, -8.65637779235839843750e-01) (67, 1.46359190344810485840e-01) (68, 2.90272891521453857422e-01) (69, 2.27920174598693847656e-01) (70, 6.99874758720397949219e-02) (71, 1.17493534088134765625e+00) (72, 2.35681340098381042480e-01) (73, -6.69850707054138183594e-01) (43, 7.99834430217742919922e-02) (44, -2.31856763362884521484e-01) (45, 1.64628729224205017090e-01) (46, -5.28963804244995117188e-01) (47, 2.89727210998535156250e-01) (48, -9.39034044742584228516e-01) (49, -1.50353923439979553223e-01) (50, -6.87457919120788574219e-01) (51, 9.60690021514892578125e-01) (52, -9.23023447394371032715e-02) (53, 1.03103786706924438477e-01) (54, 2.11551442742347717285e-01) (55, 6.59157335758209228516e-02) (56, -9.91532325744628906250e-01) (57, 2.40930065512657165527e-01) (58, 2.48855546116828918457e-01) (59, 7.09880813956260681152e-02) (60, -5.84735333919525146484e-01) (61, 5.31349182128906250000e-01) (62, -3.54193121194839477539e-01) (63, 2.04784050583839416504e-01) (64, 2.69193470478057861328e-01) (65, -9.66219604015350341797e-02) (66, 5.12427687644958496094e-01) (67, 1.04883158206939697266e+00) (68, 2.70842611789703369141e-01) (69, 2.59636849164962768555e-01) (70, 1.50407001376152038574e-01) (71, 1.06147229671478271484e-01) (72, 3.69706392288208007812e-01) (73, -3.72050970792770385742e-01) (43, 9.21924054622650146484e-01) (44, 3.27773898839950561523e-01) (45, 1.02806913852691650391e+00) (46, -8.88191759586334228516e-01) (47, 3.86566519737243652344e-01) (48, 6.84429109096527099609e-01) (49, -9.83772724866867065430e-02) (50, 8.78430724143981933594e-01) (51, -1.57365548610687255859e+00) (52, -1.48734018206596374512e-01) (53, 1.48142766952514648438e+00) (54, 4.46207933127880096436e-02) (55, -5.24459630250930786133e-02) (56, 1.07852280139923095703e+00) (57, -3.52967381477355957031e-01) (58, -9.76784825325012207031e-01) (59, 1.80536001920700073242e-01) (60, -1.75409808754920959473e-01) (61, 3.51860910654067993164e-01) (62, 3.75602275133132934570e-01) (63, -4.10221844911575317383e-01) (64, -3.62567961215972900391e-01) (65, -2.05899491906166076660e-01) (66, -7.04416692256927490234e-01) (67, 4.67810273170471191406e-01) (68, -2.08032417297363281250e+00) (69, 1.10730397701263427734e+00) (70, -4.41062413156032562256e-02) (71, -1.07613956928253173828e+00) (72, 6.97818577289581298828e-01) (73, 6.51388093829154968262e-02) (43, 1.13750971853733062744e-01) (44, -2.60402858257293701172e-01) (45, 6.29940181970596313477e-02) (46, 2.94654703140258789062e+00) (47, -2.68050241470336914062e+00) (48, 9.07752454280853271484e-01) (49, 2.58099150657653808594e+00) (50, 1.58175215125083923340e-01) (51, -1.78068447113037109375e+00) (52, 1.23950548470020294189e-01) (53, 6.80739998817443847656e-01) (54, 2.77603745460510253906e+00) (55, -1.85619878768920898438e+00) (56, -8.66977334022521972656e-01) (57, -1.02331733703613281250e+00) (58, -2.89703637361526489258e-01) (59, 2.78282976150512695312e+00) (60, 1.11184263229370117188e+00) (61, 8.99260997772216796875e-01) (62, -6.92794859409332275391e-01) (63, 1.22595027089118957520e-01) (64, 2.12820291519165039062e+00) (65, -1.06459796428680419922e+00) (66, 3.25097441673278808594e+00) (67, 5.33996641635894775391e-01) (68, -5.36653339862823486328e-01) (69, 1.30325305461883544922e+00) (70, 2.17411899566650390625e+00) (71, 8.62218797206878662109e-01) (72, 2.95050787925720214844e+00) (73, -7.79547914862632751465e-02) (43, 7.53669083118438720703e-01) (44, -3.32734853029251098633e-01) (45, 1.73181876540184020996e-01) (46, -1.17753900587558746338e-01) (47, -8.04686099290847778320e-02) (48, 1.48035408928990364075e-02) (49, 2.34985515475273132324e-01) (50, 7.05375194549560546875e-01) (51, 6.69399738311767578125e-01) (52, 8.86423408985137939453e-01) (53, 6.19437873363494873047e-01) (54, 7.37756341695785522461e-02) (55, 4.43007409572601318359e-01) (56, 1.39678919315338134766e+00) (57, 1.14862155914306640625e+00) (58, 9.06258597970008850098e-02) (59, -6.46186023950576782227e-02) (60, -4.10729110240936279297e-01) (61, 1.23157429695129394531e+00) (62, -6.48248374462127685547e-01) (63, -8.28007042407989501953e-01) (64, 4.50830817222595214844e-01) (65, -1.27435386180877685547e-01) (66, 2.38216066360473632812e+00) (67, -9.33323204517364501953e-01) (68, -1.79590493440628051758e-01) (69, -1.72930490970611572266e+00) (70, -1.64576366543769836426e-01) (71, 4.07487511634826660156e-01) (72, 3.37016917765140533447e-02) (73, 1.99708676338195800781e+00) (43, -8.37496936321258544922e-01) (44, 9.94743525981903076172e-01) (45, 1.49619531631469726562e+00) (46, 1.12199676036834716797e+00) (47, -3.31755727529525756836e-01) (48, 1.35618388652801513672e+00) (49, 1.04045577347278594971e-01) (50, -1.82569101452827453613e-01) (51, 6.05544924736022949219e-01) (52, -1.08261384069919586182e-01) (53, 6.70943498611450195312e-01) (54, 2.87084817886352539062e-01) (55, 3.69058787822723388672e-01) (56, 2.46175074577331542969e+00) (57, 1.17816340923309326172e+00) (58, 4.41479355096817016602e-01) (59, -1.48329526185989379883e-01) (60, -1.28701353073120117188e+00) (61, 1.03780865669250488281e+00) (62, -4.51510846614837646484e-01) (63, 9.19266864657402038574e-02) (64, 2.29055389761924743652e-01) (65, 3.45143347978591918945e-01) (66, 1.15008246898651123047e+00) (67, 7.38484442234039306641e-01) (68, -1.50095033645629882812e+00) (69, -8.98607373237609863281e-01) (70, -1.14998981356620788574e-01) (71, 5.90973138809204101562e-01) (72, -1.90316662192344665527e-01) (73, -1.69092401862144470215e-01) (43, 9.38842296600341796875e-01) (44, 1.11983168125152587891e+00) (45, 7.58926630020141601562e-01) (46, -1.35609948635101318359e+00) (47, -7.82105565071105957031e-01) (48, -4.20096516609191894531e-01) (49, -3.09490889310836791992e-01) (50, -2.85951328277587890625e+00) (51, 9.43828821182250976562e-01) (52, 7.05132782459259033203e-01) (53, 1.26494896411895751953e+00) (54, -1.51337683200836181641e-01) (55, -6.93722128868103027344e-01) (56, 9.67310130596160888672e-01) (57, 1.29214572906494140625e+00) (58, -2.10025405883789062500e+00) (59, 1.11253701150417327881e-01) (60, -9.17869992554187774658e-03) (61, 1.85339331626892089844e+00) (62, -2.13555246591567993164e-01) (63, 1.67983758449554443359e+00) (64, -1.78438794612884521484e+00) (65, 1.41999638080596923828e+00) (66, 1.82032734155654907227e-01) (67, 3.11356514692306518555e-01) (68, 3.79589259624481201172e-01) (69, -4.61297065019607543945e-01) (70, 2.61105626821517944336e-01) (71, 3.34357786178588867188e+00) (72, 3.61724287271499633789e-01) (73, -2.63014703989028930664e-01)
input_names='a' 'betan' 'bt' 'delta' 'i_coil' 'ip' 'kappa' 'neped' 'r' 'rotation' 'zeffped'
output_names='OUT_P2e_EPED' 'OUT_P2e_rmpsoff' 'OUT_P2e_rmpson' 'OUT_elm_frequency_EPED' 'OUT_elm_frequency_rmpsoff' 'OUT_elm_frequency_rmpson' 'OUT_wte_EPED' 'OUT_wte_rmpsoff' 'OUT_wte_rmpson'
norm_output=0.0 0.0 0.0 0.0 0.0 0.0 0.0 0.0 0.0 0.0 0.0 0.0 0.0 0.0 0.0 0.0 0.0 0.0 0.0 0.0 0.0 0.0 0.0 0.0 0.0 0.0 0.0 0.0 0.0 0.0 0.0 0.0 0.0 0.0 0.0 0.0 0.0 0.0 0.0 0.0 0.0 0.0 0.0 0.0 0.0 0.0 0.0 0.0 0.0 0.0 0.0 0.0 0.0 0.0 0.0 0.0 0.0 0.0 0.0 0.0 0.0 0.0 0.0 0.0 0.0 0.0 0.0 0.0 0.0 0.0 0.0 0.0 0.0 0.0 0.0 0.0 0.0 0.0 0.0 0.0 0.0 0.0 0.0 0.0 0.0 0.0 0.0 0.0 0.0 0.0 0.0 0.0 0.0 0.0 0.0 0.0 0.0 0.0 0.0
MSE= 0.217529714108