FANN_FLO_2.1
num_layers=4
learning_rate=0.700000
connection_rate=1.000000
network_type=0
learning_momentum=0.000000
training_algorithm=2
train_error_function=0
train_stop_function=0
cascade_output_change_fraction=0.010000
quickprop_decay=184.542175
quickprop_mu=1.750000
rprop_increase_factor=1.200000
rprop_decrease_factor=0.500000
rprop_delta_min=0.000000
rprop_delta_max=50.000000
rprop_delta_zero=0.100000
cascade_output_stagnation_epochs=12
cascade_candidate_change_fraction=0.010000
cascade_candidate_stagnation_epochs=12
cascade_max_out_epochs=150
cascade_min_out_epochs=50
cascade_max_cand_epochs=150
cascade_min_cand_epochs=50
cascade_num_candidate_groups=2
bit_fail_limit=3.49999994039535522461e-01
cascade_candidate_limit=1.00000000000000000000e+03
cascade_weight_multiplier=4.00000005960464477539e-01
cascade_activation_functions_count=10
cascade_activation_functions=3 5 7 8 10 11 14 15 16 17
cascade_activation_steepnesses_count=4
cascade_activation_steepnesses=2.50000000000000000000e-01 5.00000000000000000000e-01 7.50000000000000000000e-01 1.00000000000000000000e+00
layer_sizes=12 31 31 10
scale_included=1
scale_mean_in=0.595710 1.725386 1.856146 0.505992 3676.362793 1.428655 1.810080 3.038681 1.739604 -8.041503 1.898420
scale_deviation_in=0.002873 0.364799 0.150563 0.019752 1002.251953 0.206163 0.008729 1.216456 0.020967 7.740559 0.492744
scale_new_min_in=-1.000000 -1.000000 -1.000000 -1.000000 -1.000000 -1.000000 -1.000000 -1.000000 -1.000000 -1.000000 -1.000000
scale_factor_in=1.000000 1.000000 1.000000 1.000000 1.000000 1.000000 1.000000 1.000000 1.000000 1.000000 1.000000
scale_mean_out=0.006885 0.006940 0.006452 0.000000 1.617205 1.805368 0.028493 0.033410 0.029136
scale_deviation_out=0.001293 0.001990 0.002194 0.000001 0.176400 0.429144 0.002952 0.003744 0.008478
scale_new_min_out=-1.000000 -1.000000 -1.000000 -1.000000 -1.000000 -1.000000 -1.000000 -1.000000 -1.000000
scale_factor_out=1.000000 1.000000 1.000000 1.000000 1.000000 1.000000 1.000000 1.000000 1.000000
neurons (num_inputs, activation_function, activation_steepness)=(0, 0, 0.00000000000000000000e+00) (0, 0, 0.00000000000000000000e+00) (0, 0, 0.00000000000000000000e+00) (0, 0, 0.00000000000000000000e+00) (0, 0, 0.00000000000000000000e+00) (0, 0, 0.00000000000000000000e+00) (0, 0, 0.00000000000000000000e+00) (0, 0, 0.00000000000000000000e+00) (0, 0, 0.00000000000000000000e+00) (0, 0, 0.00000000000000000000e+00) (0, 0, 0.00000000000000000000e+00) (0, 0, 0.00000000000000000000e+00) (12, 5, 5.00000000000000000000e-01) (12, 5, 5.00000000000000000000e-01) (12, 5, 5.00000000000000000000e-01) (12, 5, 5.00000000000000000000e-01) (12, 5, 5.00000000000000000000e-01) (12, 5, 5.00000000000000000000e-01) (12, 5, 5.00000000000000000000e-01) (12, 5, 5.00000000000000000000e-01) (12, 5, 5.00000000000000000000e-01) (12, 5, 5.00000000000000000000e-01) (12, 5, 5.00000000000000000000e-01) (12, 5, 5.00000000000000000000e-01) (12, 5, 5.00000000000000000000e-01) (12, 5, 5.00000000000000000000e-01) (12, 5, 5.00000000000000000000e-01) (12, 5, 5.00000000000000000000e-01) (12, 5, 5.00000000000000000000e-01) (12, 5, 5.00000000000000000000e-01) (12, 5, 5.00000000000000000000e-01) (12, 5, 5.00000000000000000000e-01) (12, 5, 5.00000000000000000000e-01) (12, 5, 5.00000000000000000000e-01) (12, 5, 5.00000000000000000000e-01) (12, 5, 5.00000000000000000000e-01) (12, 5, 5.00000000000000000000e-01) (12, 5, 5.00000000000000000000e-01) (12, 5, 5.00000000000000000000e-01) (12, 5, 5.00000000000000000000e-01) (12, 5, 5.00000000000000000000e-01) (12, 5, 5.00000000000000000000e-01) (0, 5, 0.00000000000000000000e+00) (31, 5, 5.00000000000000000000e-01) (31, 5, 5.00000000000000000000e-01) (31, 5, 5.00000000000000000000e-01) (31, 5, 5.00000000000000000000e-01) (31, 5, 5.00000000000000000000e-01) (31, 5, 5.00000000000000000000e-01) (31, 5, 5.00000000000000000000e-01) (31, 5, 5.00000000000000000000e-01) (31, 5, 5.00000000000000000000e-01) (31, 5, 5.00000000000000000000e-01) (31, 5, 5.00000000000000000000e-01) (31, 5, 5.00000000000000000000e-01) (31, 5, 5.00000000000000000000e-01) (31, 5, 5.00000000000000000000e-01) (31, 5, 5.00000000000000000000e-01) (31, 5, 5.00000000000000000000e-01) (31, 5, 5.00000000000000000000e-01) (31, 5, 5.00000000000000000000e-01) (31, 5, 5.00000000000000000000e-01) (31, 5, 5.00000000000000000000e-01) (31, 5, 5.00000000000000000000e-01) (31, 5, 5.00000000000000000000e-01) (31, 5, 5.00000000000000000000e-01) (31, 5, 5.00000000000000000000e-01) (31, 5, 5.00000000000000000000e-01) (31, 5, 5.00000000000000000000e-01) (31, 5, 5.00000000000000000000e-01) (31, 5, 5.00000000000000000000e-01) (31, 5, 5.00000000000000000000e-01) (31, 5, 5.00000000000000000000e-01) (0, 5, 0.00000000000000000000e+00) (31, 0, 5.00000000000000000000e-01) (31, 0, 5.00000000000000000000e-01) (31, 0, 5.00000000000000000000e-01) (31, 0, 5.00000000000000000000e-01) (31, 0, 5.00000000000000000000e-01) (31, 0, 5.00000000000000000000e-01) (31, 0, 5.00000000000000000000e-01) (31, 0, 5.00000000000000000000e-01) (31, 0, 5.00000000000000000000e-01) (0, 0, 0.00000000000000000000e+00)
connections (connected_to_neuron, weight)=(0, 1.16488468647003173828e+00) (1, 2.18748465180397033691e-01) (2, 2.42236638069152832031e+00) (3, -1.53383910655975341797e+00) (4, 2.17956042289733886719e+00) (5, -3.81606245040893554688e+00) (6, 8.95918428897857666016e-01) (7, -7.05275118350982666016e-01) (8, -3.69843578338623046875e+00) (9, 2.27498173713684082031e+00) (10, -5.83279170095920562744e-02) (11, -2.18596982955932617188e+00) (0, 2.98801124095916748047e-01) (1, 5.26815593242645263672e-01) (2, 1.03666007518768310547e+00) (3, -1.02003598213195800781e+00) (4, 1.66695165634155273438e+00) (5, -3.91250658035278320312e+00) (6, -2.87517637014389038086e-01) (7, 7.15784192085266113281e-01) (8, 4.19707834720611572266e-01) (9, 1.21330833435058593750e+00) (10, -1.01755702495574951172e+00) (11, 5.63341259956359863281e-01) (0, 3.16435880959033966064e-02) (1, -4.96674925088882446289e-02) (2, 3.14873754978179931641e-01) (3, 1.12949777394533157349e-02) (4, -8.08557420969009399414e-02) (5, -1.04321265220642089844e+00) (6, -3.45913842320442199707e-02) (7, 9.44820865988731384277e-02) (8, -1.29540443420410156250e-01) (9, -1.73135310411453247070e-01) (10, -8.19997861981391906738e-02) (11, -1.35636663436889648438e+00) (0, 5.11035561561584472656e-01) (1, 1.12462866306304931641e+00) (2, 1.75701069831848144531e+00) (3, 6.02680861949920654297e-01) (4, 3.78221511840820312500e-01) (5, 1.44168543815612792969e+00) (6, 1.16447925567626953125e+00) (7, 4.29312258958816528320e-01) (8, 8.83506000041961669922e-01) (9, 5.44265329837799072266e-01) (10, 6.49658441543579101562e-01) (11, -7.35214114189147949219e-01) (0, -2.47063071583397686481e-05) (1, 2.93838083744049072266e-01) (2, 1.27546519041061401367e-01) (3, -2.32264906167984008789e-01) (4, -3.89442685991525650024e-03) (5, -4.05006557703018188477e-01) (6, 5.95597960054874420166e-02) (7, 1.81254118680953979492e-01) (8, 2.48654916882514953613e-01) (9, 7.27625936269760131836e-02) (10, 5.72837650775909423828e-01) (11, -5.12161850929260253906e-02) (0, 1.09511113166809082031e+00) (1, 1.04170143604278564453e+00) (2, -6.28468990325927734375e-02) (3, -4.22796010971069335938e-01) (4, -8.34881961345672607422e-02) (5, 2.42154687643051147461e-01) (6, 4.31305795907974243164e-01) (7, -1.32867738604545593262e-01) (8, -3.44723939895629882812e-01) (9, 4.39601868391036987305e-01) (10, 3.19547094404697418213e-02) (11, -7.17731714248657226562e-01) (0, -8.36540400981903076172e-01) (1, 6.03329420089721679688e-01) (2, -4.36933964490890502930e-01) (3, 3.82111996412277221680e-01) (4, 3.32281142473220825195e-01) (5, 1.05665385723114013672e+00) (6, -4.69003051519393920898e-01) (7, 7.43368268013000488281e-01) (8, 4.68161731958389282227e-01) (9, -2.03940421342849731445e-01) (10, 9.04312133789062500000e-02) (11, -3.07801514863967895508e-01) (0, 2.90256470441818237305e-01) (1, 9.40935730934143066406e-01) (2, -8.89242470264434814453e-01) (3, 5.11074721813201904297e-01) (4, 1.79624721407890319824e-01) (5, 1.48513853549957275391e+00) (6, 1.59770116209983825684e-01) (7, 1.33649396896362304688e+00) (8, 3.47714662551879882812e-01) (9, 3.28967869281768798828e-01) (10, 6.12313784658908843994e-02) (11, -1.45351052284240722656e-01) (0, 2.25423619151115417480e-01) (1, 5.39189195632934570312e+00) (2, 1.47968721389770507812e+00) (3, 2.11045169830322265625e+00) (4, -3.13911128044128417969e+00) (5, 1.32416868209838867188e+00) (6, 4.17103439569473266602e-01) (7, 6.63049793243408203125e+00) (8, -2.95165205001831054688e+00) (9, 3.86161208152770996094e-02) (10, -9.27567854523658752441e-02) (11, 1.37870967388153076172e+00) (0, 2.27003812789916992188e+00) (1, -6.01040482521057128906e-01) (2, -3.19495296478271484375e+00) (3, 9.11996722221374511719e-01) (4, -3.68792462348937988281e+00) (5, -4.63821887969970703125e-01) (6, 7.36571967601776123047e-01) (7, 2.38662195205688476562e+00) (8, -4.29984301328659057617e-01) (9, 1.11730492115020751953e+00) (10, -3.99923622608184814453e-01) (11, 5.50348806381225585938e+00) (0, 3.07049658149480819702e-02) (1, 2.97016408294439315796e-02) (2, 1.44921624660491943359e+00) (3, -1.28397256135940551758e-01) (4, 9.23779606819152832031e-01) (5, -3.31748843193054199219e+00) (6, 1.42462536692619323730e-01) (7, 1.67097508907318115234e-01) (8, -2.53886580467224121094e-01) (9, 3.89108371734619140625e+00) (10, -2.49393686652183532715e-01) (11, 1.02282512187957763672e+00) (0, 3.35948877036571502686e-02) (1, 4.84692305326461791992e-02) (2, 2.20919951796531677246e-01) (3, -1.62243053317070007324e-01) (4, 7.19886943697929382324e-02) (5, -5.67433893680572509766e-01) (6, -2.40660354495048522949e-01) (7, 2.87481188774108886719e-01) (8, -8.69218409061431884766e-01) (9, 3.20561602711677551270e-02) (10, 1.67483881115913391113e-01) (11, -3.14331799745559692383e-01) (0, 1.80658996105194091797e+00) (1, 3.99493336677551269531e+00) (2, 3.02640080451965332031e+00) (3, -3.99618178606033325195e-01) (4, -4.21101063489913940430e-01) (5, 1.49657678604125976562e+00) (6, 5.69876283407211303711e-02) (7, 5.10225415229797363281e-01) (8, 5.84747157990932464600e-02) (9, 9.19395923614501953125e-01) (10, 2.31312885880470275879e-01) (11, 8.26151251792907714844e-01) (0, 2.02144354581832885742e-01) (1, -1.52585700154304504395e-01) (2, -1.49459862709045410156e+00) (3, 2.38236546516418457031e-01) (4, -1.49886965751647949219e-01) (5, -7.78197944164276123047e-01) (6, 3.06922733783721923828e-01) (7, 4.41754609346389770508e-01) (8, 2.28732848167419433594e+00) (9, 9.02720928192138671875e-01) (10, -4.64832723140716552734e-01) (11, 2.04473704099655151367e-01) (0, -4.81631904840469360352e-02) (1, 3.19318175315856933594e-01) (2, 6.14589691162109375000e-01) (3, 6.19921803474426269531e-01) (4, 2.34913870692253112793e-01) (5, 4.07135725021362304688e-01) (6, -2.27285727858543395996e-01) (7, -3.95942866802215576172e-01) (8, -1.98145583271980285645e-01) (9, 3.08928489685058593750e-01) (10, 8.95132601261138916016e-01) (11, 3.31980705261230468750e-01) (0, -4.03623819351196289062e-01) (1, -1.60760506987571716309e-01) (2, 8.04041102528572082520e-02) (3, -2.79550582170486450195e-01) (4, 1.13781087100505828857e-01) (5, 1.23262333869934082031e+00) (6, -9.71351042389869689941e-02) (7, -8.33543181419372558594e-01) (8, 8.31367254257202148438e-01) (9, -2.55350381135940551758e-01) (10, 7.84868448972702026367e-02) (11, -2.11428180336952209473e-01) (0, 3.85945960879325866699e-02) (1, 2.21542283892631530762e-01) (2, 3.62534105777740478516e-01) (3, 2.96610184013843536377e-02) (4, -2.36439257860183715820e-01) (5, -5.21716356277465820312e-01) (6, 2.52906799316406250000e-01) (7, -9.00315940380096435547e-01) (8, 5.60266911983489990234e-01) (9, 2.44236528873443603516e-01) (10, 3.46234440803527832031e-02) (11, -1.86451959609985351562e+00) (0, 2.47130498290061950684e-01) (1, 4.14170026779174804688e-01) (2, -1.30073416233062744141e+00) (3, 4.08060133457183837891e-01) (4, 3.86590868234634399414e-01) (5, -6.40797615051269531250e-01) (6, -3.79997417330741882324e-02) (7, -1.13426887989044189453e+00) (8, 4.08426880836486816406e-01) (9, 3.34836125373840332031e-01) (10, -7.56107449531555175781e-01) (11, 1.10944545269012451172e+00) (0, 4.03150260448455810547e-01) (1, 4.16083693504333496094e-01) (2, 1.39281260967254638672e+00) (3, -6.39916598796844482422e-01) (4, 3.53266410529613494873e-02) (5, -1.00194752216339111328e+00) (6, 2.85306304693222045898e-01) (7, 3.19984316825866699219e-01) (8, -6.70833468437194824219e-01) (9, -9.94991242885589599609e-01) (10, -3.49755614995956420898e-01) (11, 1.56389963626861572266e+00) (0, 3.74528467655181884766e-01) (1, 7.07642614841461181641e-01) (2, -9.56429779529571533203e-01) (3, -5.03370046615600585938e-01) (4, -3.46853673458099365234e-01) (5, -6.95726871490478515625e-01) (6, 1.06862515211105346680e-01) (7, 4.97668236494064331055e-01) (8, 2.18664810061454772949e-01) (9, -7.20487475395202636719e-01) (10, -3.50124359130859375000e-01) (11, 1.38021147251129150391e+00) (0, -3.13993692398071289062e-01) (1, 2.89709776639938354492e-01) (2, -1.08030498027801513672e+00) (3, -2.15359762310981750488e-01) (4, 1.90190762281417846680e-01) (5, -5.52322983741760253906e-01) (6, -1.15853473544120788574e-02) (7, -1.25421023368835449219e+00) (8, -3.64985495805740356445e-01) (9, -1.05409063398838043213e-01) (10, 2.14288443326950073242e-01) (11, -5.04271328449249267578e-01) (0, 7.04891234636306762695e-02) (1, -2.52391815185546875000e-01) (2, -3.19430327415466308594e+00) (3, 5.89218810200691223145e-02) (4, 2.91441857814788818359e-01) (5, -3.00524401664733886719e+00) (6, -1.72361537814140319824e-01) (7, -4.55648273229598999023e-01) (8, -2.52577245235443115234e-01) (9, 4.28800553083419799805e-01) (10, 3.80042672157287597656e-01) (11, -5.25888562202453613281e-01) (0, 4.72299993038177490234e-01) (1, -1.09745502471923828125e+00) (2, 3.98564487695693969727e-01) (3, -7.53141164779663085938e-01) (4, 3.83489459753036499023e-01) (5, 1.56882393360137939453e+00) (6, 8.17160904407501220703e-01) (7, 2.15516781806945800781e+00) (8, 3.18662881851196289062e-01) (9, 1.44213545322418212891e+00) (10, -3.68460804224014282227e-01) (11, 1.61335515975952148438e+00) (0, -1.11802875995635986328e+00) (1, 1.74648333340883255005e-02) (2, -4.13425350189208984375e+00) (3, -1.43419608473777770996e-01) (4, -2.36167120933532714844e+00) (5, 1.71765133738517761230e-01) (6, 2.39077377319335937500e+00) (7, -9.36317825317382812500e+00) (8, -2.77657117694616317749e-02) (9, 2.94080209732055664062e+00) (10, 7.88159191608428955078e-01) (11, 2.41040229797363281250e+00) (0, 8.74493002891540527344e-01) (1, 1.32159602642059326172e+00) (2, -5.86021184921264648438e+00) (3, 2.01137945055961608887e-01) (4, -4.35924023389816284180e-01) (5, 9.48652029037475585938e-01) (6, 1.82818502187728881836e-01) (7, -1.87109792232513427734e+00) (8, -9.10744965076446533203e-01) (9, -2.19415903091430664062e+00) (10, 2.66664057970046997070e-01) (11, 2.11124515533447265625e+00) (0, 4.57773298025131225586e-01) (1, -1.14910066127777099609e+00) (2, -7.40685045719146728516e-01) (3, -5.93657605350017547607e-02) (4, -2.88195729255676269531e-01) (5, 5.50305783748626708984e-01) (6, 1.52329266071319580078e-01) (7, 1.90243989229202270508e-01) (8, 9.07299757003784179688e-01) (9, 1.64194390177726745605e-01) (10, 1.49191051721572875977e-01) (11, 4.00434643030166625977e-01) (0, 1.16967380046844482422e-01) (1, 1.72531809657812118530e-02) (2, 1.79564625024795532227e-01) (3, 8.17415788769721984863e-02) (4, 1.51430398225784301758e-01) (5, 8.33338916301727294922e-01) (6, 3.27800144441425800323e-03) (7, -2.42717337608337402344e+00) (8, 3.84085804224014282227e-01) (9, -4.06604930758476257324e-02) (10, 3.22822153568267822266e-01) (11, -1.35247945785522460938e+00) (0, -1.37724804878234863281e+00) (1, 8.01462456583976745605e-02) (2, 1.27098903059959411621e-01) (3, 3.02968680858612060547e-01) (4, 1.87614426016807556152e-01) (5, 1.93628281354904174805e-01) (6, -4.27073985338211059570e-01) (7, 2.28219285607337951660e-01) (8, -9.63585138320922851562e-01) (9, -4.38975065946578979492e-01) (10, 7.08227396011352539062e-01) (11, 1.76637363433837890625e+00) (0, -2.68491469323635101318e-02) (1, 1.76231488585472106934e-01) (2, -3.19364881515502929688e+00) (3, 8.66082608699798583984e-01) (4, 2.83219128847122192383e-01) (5, 1.21703319251537322998e-01) (6, -5.03218412399291992188e-01) (7, -7.85320997238159179688e-01) (8, 3.26515555381774902344e-01) (9, 3.50343167781829833984e-01) (10, 2.69541919231414794922e-01) (11, 5.75380146503448486328e-01) (0, 1.47073715925216674805e-01) (1, -4.09423112869262695312e+00) (2, 3.20811104774475097656e+00) (3, 2.79949367046356201172e-01) (4, 1.62210917472839355469e+00) (5, -5.18906772136688232422e-01) (6, -7.17223107814788818359e-01) (7, 1.18708896636962890625e+00) (8, 2.61903285980224609375e+00) (9, -7.43207037448883056641e-01) (10, 5.60091853141784667969e-01) (11, -1.18555498123168945312e+00) (12, -2.97629922628402709961e-01) (13, 9.91917550563812255859e-01) (14, 1.45505893230438232422e+00) (15, -3.28363597393035888672e-01) (16, 1.09041869640350341797e+00) (17, 8.94956409931182861328e-01) (18, -1.06350943446159362793e-01) (19, 2.16615080833435058594e-01) (20, 1.18653047084808349609e+00) (21, -1.28721606731414794922e+00) (22, -3.11900824308395385742e-01) (23, -1.55683541297912597656e+00) (24, 1.35980629920959472656e+00) (25, -5.11306107044219970703e-01) (26, 4.44979816675186157227e-01) (27, 1.48695802688598632812e+00) (28, 6.59011304378509521484e-01) (29, 6.49417877197265625000e-01) (30, 1.99999201297760009766e+00) (31, -1.87391781806945800781e+00) (32, -1.26984405517578125000e+00) (33, 2.75474816560745239258e-01) (34, 7.42531344294548034668e-02) (35, -3.69259148836135864258e-01) (36, -3.06067728996276855469e+00) (37, 3.96197251975536346436e-02) (38, -1.05508375167846679688e+00) (39, -3.88551920652389526367e-01) (40, 6.23952507972717285156e-01) (41, -8.76738190650939941406e-01) (42, 8.21580350399017333984e-01) (12, 3.44638049602508544922e-01) (13, -2.76848644018173217773e-01) (14, 2.09293127059936523438e+00) (15, -2.79128104448318481445e-01) (16, 9.00083303451538085938e-01) (17, -1.29095464944839477539e-01) (18, 6.22696101665496826172e-01) (19, 1.22855675220489501953e+00) (20, -1.80842682719230651855e-01) (21, 1.47303745150566101074e-01) (22, 6.69300377368927001953e-01) (23, -6.82893455028533935547e-01) (24, 2.47231602668762207031e-01) (25, 6.59654080867767333984e-01) (26, 1.36000514030456542969e+00) (27, -1.16448259353637695312e+00) (28, 1.95318269729614257812e+00) (29, -1.57468569278717041016e+00) (30, 7.26026892662048339844e-01) (31, 1.23423142358660697937e-02) (32, -6.48791134357452392578e-01) (33, -1.87900468707084655762e-01) (34, 1.04761099815368652344e+00) (35, -1.34292766451835632324e-01) (36, 4.27043795585632324219e-01) (37, -2.00575321912765502930e-01) (38, -6.75575613975524902344e-01) (39, -5.03337144851684570312e-01) (40, -4.65653777122497558594e-01) (41, 6.19633495807647705078e-01) (42, -5.34826159477233886719e-01) (12, 2.20962733030319213867e-01) (13, -8.25127840042114257812e-01) (14, 6.51211440563201904297e-01) (15, -5.67742884159088134766e-01) (16, -1.75924286246299743652e-01) (17, -1.86627954244613647461e-01) (18, -8.84479582309722900391e-01) (19, 2.61246263980865478516e-01) (20, -7.17767477035522460938e-01) (21, 1.23210623860359191895e-01) (22, 6.14479959011077880859e-01) (23, 3.27938222885131835938e+00) (24, -6.52468085289001464844e-01) (25, 9.31802809238433837891e-01) (26, 5.59140086174011230469e-01) (27, 2.46487808227539062500e+00) (28, 2.64870941638946533203e-01) (29, 2.45075955986976623535e-01) (30, -1.34355950355529785156e+00) (31, 1.80311203002929687500e+00) (32, 1.27615201473236083984e+00) (33, 1.45567464828491210938e+00) (34, 7.50211298465728759766e-01) (35, -1.91347420215606689453e-01) (36, 1.67309090495109558105e-01) (37, -6.43113017082214355469e-01) (38, 6.25650942325592041016e-01) (39, 4.39992249011993408203e-02) (40, 4.56285685300827026367e-01) (41, 1.21054977178573608398e-01) (42, 4.32015657424926757812e+00) (12, 8.17521035671234130859e-01) (13, -7.10367619991302490234e-01) (14, -8.56169342994689941406e-01) (15, -1.46682167053222656250e+00) (16, 9.27872598171234130859e-01) (17, 5.60094952583312988281e-01) (18, -3.99701893329620361328e-01) (19, 2.02671334147453308105e-01) (20, -2.55982899665832519531e+00) (21, -9.02639567852020263672e-01) (22, 6.73024058341979980469e-01) (23, 8.08446824550628662109e-01) (24, -5.89845657348632812500e-01) (25, 1.72564017772674560547e+00) (26, -3.65010112524032592773e-01) (27, 1.13634216785430908203e+00) (28, -2.24566459655761718750e+00) (29, 6.94011330604553222656e-01) (30, -3.66639465093612670898e-01) (31, 1.02121853828430175781e+00) (32, -1.90895736217498779297e-01) (33, 3.09145778417587280273e-01) (34, -4.57048416137695312500e-01) (35, 1.80035030841827392578e+00) (36, 1.04993379116058349609e+00) (37, 2.62353897094726562500e+00) (38, 3.01149892807006835938e+00) (39, 5.06220996379852294922e-01) (40, 2.13116002082824707031e+00) (41, -3.50729316473007202148e-01) (42, 1.04746198654174804688e+00) (12, 6.75961554050445556641e-01) (13, -4.43209826946258544922e-01) (14, -4.92416232824325561523e-01) (15, -3.28607010841369628906e+00) (16, -1.06024742126464843750e+00) (17, 3.57950091361999511719e+00) (18, -4.68836985528469085693e-02) (19, -1.06419098377227783203e+00) (20, 1.38379704952239990234e+00) (21, -4.83798116445541381836e-01) (22, 3.00733447074890136719e-01) (23, -1.39798939228057861328e+00) (24, -1.97515666484832763672e+00) (25, -8.71934354305267333984e-01) (26, 1.30354368686676025391e+00) (27, -5.22035217285156250000e+00) (28, -1.85436272621154785156e+00) (29, 1.38801622390747070312e+00) (30, 1.99838519096374511719e-01) (31, -2.73570001125335693359e-01) (32, 1.59314703941345214844e+00) (33, 4.04161900281906127930e-01) (34, -4.78885084390640258789e-01) (35, -4.61739927530288696289e-01) (36, -1.67482495307922363281e+00) (37, -3.21057647466659545898e-01) (38, 8.48593354225158691406e-01) (39, 2.41136386990547180176e-01) (40, 3.65311443805694580078e-01) (41, -2.47859045863151550293e-01) (42, 1.36314988136291503906e+00) (12, -2.85751000046730041504e-02) (13, 1.31535604596138000488e-01) (14, 3.95684003829956054688e-01) (15, -3.40656250715255737305e-01) (16, -1.89168930053710937500e+00) (17, 9.21797692775726318359e-01) (18, -9.11651909351348876953e-01) (19, 1.68727958202362060547e+00) (20, 9.09087002277374267578e-01) (21, -1.21327066421508789062e+00) (22, 1.66285082697868347168e-01) (23, 1.35443925857543945312e+00) (24, 5.76365411281585693359e-01) (25, 1.62328529357910156250e+00) (26, 1.00757503509521484375e+00) (27, 1.40264713764190673828e+00) (28, -6.22332751750946044922e-01) (29, 1.13712251186370849609e-01) (30, 8.92136991024017333984e-01) (31, -5.48545658588409423828e-01) (32, -1.48062682151794433594e+00) (33, -5.18836975097656250000e-01) (34, -1.94404736161231994629e-01) (35, -1.03942051529884338379e-01) (36, -1.29719042778015136719e+00) (37, -8.03857862949371337891e-01) (38, 1.28528189659118652344e+00) (39, 1.40625643730163574219e+00) (40, 4.30259704589843750000e-01) (41, -2.13688567280769348145e-01) (42, 3.17985326051712036133e-01) (12, 1.72355584800243377686e-02) (13, 3.03716212511062622070e-01) (14, -2.26234301924705505371e-01) (15, -4.43011403083801269531e-01) (16, 5.05668592453002929688e+00) (17, 1.17278289794921875000e+00) (18, -2.17009854316711425781e+00) (19, -6.57991290092468261719e-01) (20, 9.01082694530487060547e-01) (21, -1.23280858993530273438e+00) (22, -2.65240955352783203125e+00) (23, -1.85901418328285217285e-01) (24, 7.41498708724975585938e-01) (25, -1.21812596917152404785e-01) (26, -1.80600941181182861328e+00) (27, 3.90470480918884277344e+00) (28, 1.41114819049835205078e+00) (29, 2.37028551101684570312e+00) (30, -2.33145523071289062500e+00) (31, -1.56819567084312438965e-01) (32, -4.09560585021972656250e+00) (33, 4.57486677169799804688e+00) (34, -2.03432726860046386719e+00) (35, 2.86100339889526367188e+00) (36, -9.87058043479919433594e-01) (37, -1.58765959739685058594e+00) (38, 6.09189629554748535156e-01) (39, 3.03723335266113281250e+00) (40, 1.43944847583770751953e+00) (41, 1.51123380661010742188e+00) (42, 7.76757478713989257812e-01) (12, 3.59427630901336669922e-01) (13, -1.14900201559066772461e-01) (14, 2.79809117317199707031e+00) (15, -6.06414258480072021484e-01) (16, 1.11560785770416259766e+00) (17, 1.48780792951583862305e-01) (18, -2.03405901789665222168e-01) (19, 1.26302421092987060547e+00) (20, 7.60008037090301513672e-01) (21, 7.73725509643554687500e-01) (22, -1.99366778135299682617e-01) (23, 1.02834738790988922119e-01) (24, 3.32284271717071533203e-01) (25, 4.19985651969909667969e-02) (26, 9.00893867015838623047e-01) (27, -1.32647871971130371094e+00) (28, -1.03344726562500000000e+00) (29, 9.82699513435363769531e-01) (30, 2.55841612815856933594e-02) (31, -6.34886145591735839844e-01) (32, 2.51620918512344360352e-01) (33, -1.06891477108001708984e+00) (34, 2.70173996686935424805e-01) (35, -2.85240650177001953125e-01) (36, -3.87475341558456420898e-01) (37, 1.71993160247802734375e+00) (38, -5.41812181472778320312e-01) (39, 8.87824058532714843750e-01) (40, -2.61617922782897949219e+00) (41, 3.57074022293090820312e-01) (42, 1.13712286949157714844e+00) (12, 2.14540943503379821777e-01) (13, 1.19433033466339111328e+00) (14, 1.66726738214492797852e-01) (15, -1.83197140693664550781e-01) (16, -1.88768133521080017090e-01) (17, 2.04558163881301879883e-01) (18, -6.17567241191864013672e-01) (19, 4.61991310119628906250e-01) (20, -1.82078629732131958008e-01) (21, -1.80249407887458801270e-01) (22, 2.19296708703041076660e-01) (23, -4.45391118526458740234e-01) (24, 3.61447572708129882812e-01) (25, 9.36095654964447021484e-01) (26, -3.51479291915893554688e-01) (27, 1.17498981952667236328e+00) (28, -3.11077386140823364258e-01) (29, -5.98560154438018798828e-01) (30, -7.99872636795043945312e-01) (31, 1.03465223312377929688e+00) (32, -1.62784683704376220703e+00) (33, -5.33235907554626464844e-01) (34, -1.41804054379463195801e-01) (35, 5.96262156963348388672e-01) (36, -1.06132328510284423828e-01) (37, -2.75521159172058105469e-01) (38, 1.20565116405487060547e+00) (39, 1.67125248908996582031e+00) (40, 6.96087062358856201172e-01) (41, 1.12503266334533691406e+00) (42, -1.76795458793640136719e+00) (12, 1.36454805731773376465e-01) (13, 5.22085070610046386719e-01) (14, -1.90279948711395263672e+00) (15, 3.46022248268127441406e-02) (16, 4.62683796882629394531e-01) (17, 2.96159744262695312500e-01) (18, -8.12848091125488281250e-01) (19, -7.40398406982421875000e-01) (20, 3.56600880622863769531e-02) (21, 1.25808668136596679688e+00) (22, -2.14113414287567138672e-01) (23, 5.06714820861816406250e-01) (24, 1.47845077514648437500e+00) (25, 8.28901529312133789062e-01) (26, 1.26483452320098876953e+00) (27, 2.50157284736633300781e+00) (28, 8.57555568218231201172e-02) (29, 2.93497711420059204102e-01) (30, -2.74850517511367797852e-01) (31, -6.08244776725769042969e-01) (32, -1.17609429359436035156e+00) (33, -4.41787153482437133789e-01) (34, -5.24002671241760253906e-01) (35, 1.76194623112678527832e-01) (36, 3.41531515121459960938e-01) (37, 7.99529433250427246094e-01) (38, 4.98003095388412475586e-01) (39, 1.77529418468475341797e+00) (40, -7.10185647010803222656e-01) (41, 6.11578226089477539062e-01) (42, 1.64868485927581787109e+00) (12, 4.83586639165878295898e-01) (13, -3.29154670238494873047e-01) (14, 5.19104182720184326172e-01) (15, -3.92014592885971069336e-01) (16, -5.56892335414886474609e-01) (17, -2.47088626027107238770e-01) (18, -1.19546675682067871094e+00) (19, 3.19222271442413330078e-01) (20, 1.31018173694610595703e+00) (21, 1.65005636215209960938e+00) (22, -8.01150798797607421875e-01) (23, 9.30076122283935546875e-01) (24, -1.38378338888287544250e-02) (25, 7.31694400310516357422e-01) (26, -2.52537429332733154297e-01) (27, 4.11293685436248779297e-01) (28, 7.75441825389862060547e-01) (29, -1.64520704746246337891e+00) (30, 6.25118613243103027344e-01) (31, 1.32207512855529785156e+00) (32, -1.81368672847747802734e+00) (33, 9.53249275684356689453e-01) (34, 4.35694992542266845703e-01) (35, -3.39852690696716308594e-01) (36, 9.05250012874603271484e-01) (37, -5.93018472194671630859e-01) (38, -5.98764002323150634766e-01) (39, 5.84885001182556152344e-01) (40, -4.07087653875350952148e-01) (41, 9.42448973655700683594e-02) (42, -4.16095614433288574219e-01) (12, 1.18164253234863281250e+00) (13, 1.49119758605957031250e+00) (14, 1.57070803642272949219e+00) (15, -3.70885759592056274414e-01) (16, -1.90163922309875488281e+00) (17, 1.07577629387378692627e-02) (18, -1.35112941265106201172e-01) (19, 2.18381881713867187500e+00) (20, 1.97070395946502685547e+00) (21, 1.17534840106964111328e+00) (22, 4.13719117641448974609e-02) (23, -1.89586713910102844238e-01) (24, -8.26570928096771240234e-01) (25, 1.98959636688232421875e+00) (26, 1.69212663173675537109e+00) (27, -1.75162434577941894531e+00) (28, 1.81986486911773681641e+00) (29, -2.35135340690612792969e+00) (30, 2.03280046582221984863e-01) (31, 2.02654099464416503906e+00) (32, 1.69739019870758056641e+00) (33, 2.68813419342041015625e+00) (34, -2.66346633434295654297e-01) (35, 1.24530231952667236328e+00) (36, -7.76260912418365478516e-01) (37, 6.79069757461547851562e-01) (38, 9.49290469288825988770e-02) (39, -1.37758684158325195312e+00) (40, 1.26891493797302246094e+00) (41, -6.62421166896820068359e-01) (42, 6.08862712979316711426e-02) (12, 8.13796043395996093750e-01) (13, 4.32662010192871093750e-01) (14, 7.46495485305786132812e-01) (15, 4.65155094861984252930e-01) (16, -1.23885774612426757812e+00) (17, -6.64831519126892089844e-01) (18, -6.26093566417694091797e-01) (19, 5.56028723716735839844e-01) (20, -2.68409788608551025391e-01) (21, 2.43694111704826354980e-01) (22, 3.47325354814529418945e-02) (23, 1.89311504364013671875e+00) (24, 1.00464284420013427734e-01) (25, 9.07357111573219299316e-02) (26, -2.43362337350845336914e-01) (27, 2.58444771170616149902e-02) (28, 5.68146586418151855469e-01) (29, -3.79304260015487670898e-01) (30, -4.12485778331756591797e-01) (31, -6.77468836307525634766e-01) (32, -3.20229589939117431641e-01) (33, -8.08875381946563720703e-01) (34, -9.19371187686920166016e-01) (35, 8.14213216304779052734e-01) (36, -6.70905828475952148438e-01) (37, -5.71487784385681152344e-01) (38, 3.01997631788253784180e-01) (39, 3.73316735029220581055e-01) (40, 7.16040790081024169922e-01) (41, 1.09201943874359130859e+00) (42, 1.21485483646392822266e+00) (12, 2.52048349380493164062e+00) (13, -5.81100344657897949219e-01) (14, 8.96438121795654296875e-01) (15, -1.22950637340545654297e+00) (16, -3.48016202449798583984e-01) (17, 2.00175261497497558594e+00) (18, 7.46266722679138183594e-01) (19, 3.12047954648733139038e-02) (20, -1.45587790012359619141e+00) (21, -5.99003434181213378906e-01) (22, -1.04334259033203125000e+00) (23, -8.00166428089141845703e-02) (24, -1.26755023002624511719e+00) (25, 6.38960182666778564453e-01) (26, 2.70610356330871582031e+00) (27, 1.58484923839569091797e+00) (28, 1.05528473854064941406e+00) (29, -3.72447341680526733398e-01) (30, 6.84143006801605224609e-01) (31, 2.51384794712066650391e-01) (32, 8.43339800834655761719e-01) (33, -9.11832690238952636719e-01) (34, 1.26501739025115966797e+00) (35, 6.57900154590606689453e-01) (36, 1.71951174736022949219e+00) (37, 4.87415850162506103516e-01) (38, 5.45268714427947998047e-01) (39, -9.30055558681488037109e-01) (40, -9.06817495822906494141e-01) (41, -4.96068835258483886719e-01) (42, 5.85850328207015991211e-02) (12, 2.93980669230222702026e-02) (13, 6.18132710456848144531e-01) (14, -1.88912034034729003906e+00) (15, -1.34216213226318359375e+00) (16, 3.77544808387756347656e+00) (17, 3.89690232276916503906e+00) (18, -1.38291966915130615234e+00) (19, -2.50511074066162109375e+00) (20, -1.02127599716186523438e+00) (21, -1.30079782009124755859e+00) (22, -4.33025687932968139648e-01) (23, 5.30455052852630615234e-01) (24, -2.99438655376434326172e-01) (25, 1.03289794921875000000e+00) (26, 1.63532066345214843750e+00) (27, 2.17892193794250488281e+00) (28, -1.08920224010944366455e-01) (29, 2.67750889062881469727e-01) (30, 3.55135679244995117188e-01) (31, 1.22262465953826904297e+00) (32, 2.69480943679809570312e+00) (33, -2.31571221351623535156e+00) (34, -9.36671674251556396484e-01) (35, 1.17554163932800292969e+00) (36, -6.01679086685180664062e-01) (37, 7.07955002784729003906e-01) (38, 2.26282811164855957031e+00) (39, 1.90805411338806152344e+00) (40, 2.01485657691955566406e+00) (41, 7.25540816783905029297e-01) (42, -2.50088006258010864258e-01) (12, 1.32064521312713623047e-01) (13, -8.24416816234588623047e-01) (14, 7.40645170211791992188e-01) (15, 3.74491602182388305664e-01) (16, 1.54346972703933715820e-01) (17, 1.93954026699066162109e+00) (18, 4.09044742584228515625e-01) (19, 1.61321997642517089844e+00) (20, 1.05064594745635986328e+00) (21, -7.95024335384368896484e-01) (22, 9.58409812301397323608e-03) (23, 1.00829756259918212891e+00) (24, -8.60784530639648437500e-01) (25, 8.28106760978698730469e-01) (26, 1.02292037010192871094e+00) (27, 4.12270486354827880859e-01) (28, -4.82258558273315429688e-01) (29, 5.70500850677490234375e-01) (30, 2.26499482989311218262e-01) (31, 6.77528325468301773071e-03) (32, -8.58957648277282714844e-01) (33, 1.05379402637481689453e+00) (34, -5.54615557193756103516e-01) (35, -5.08920848369598388672e-02) (36, -9.34589207172393798828e-01) (37, -2.31884405016899108887e-01) (38, 9.25753474235534667969e-01) (39, 4.80091303586959838867e-01) (40, -6.56629264354705810547e-01) (41, -2.88953125476837158203e-01) (42, -1.10882258415222167969e+00) (12, -2.27785825729370117188e-01) (13, 7.87132918834686279297e-01) (14, 1.50858604907989501953e+00) (15, -1.27773031592369079590e-01) (16, -1.23936140537261962891e+00) (17, 7.52058744430541992188e-01) (18, 5.47866225242614746094e-01) (19, -2.46128273010253906250e+00) (20, 8.87266814708709716797e-01) (21, -9.91153240203857421875e-01) (22, 6.38914287090301513672e-01) (23, 6.40329197049140930176e-02) (24, 5.16540646553039550781e-01) (25, 8.48275661468505859375e-01) (26, -9.88050457090139389038e-03) (27, -1.24293243885040283203e+00) (28, 5.14771461486816406250e-01) (29, 1.39422908425331115723e-01) (30, -3.63618552684783935547e-01) (31, 6.53109252452850341797e-01) (32, -1.03839576244354248047e+00) (33, -1.19145400822162628174e-01) (34, 5.67362308502197265625e-01) (35, 3.15145581960678100586e-01) (36, 1.49893987178802490234e+00) (37, 6.23657226562500000000e-01) (38, 2.37344169616699218750e+00) (39, 1.04838788509368896484e+00) (40, 8.61600693315267562866e-03) (41, -1.17488175630569458008e-01) (42, 1.40900170803070068359e+00) (12, 2.07192972302436828613e-01) (13, -4.74068403244018554688e-01) (14, 1.12397646903991699219e+00) (15, 3.14844846725463867188e-01) (16, -1.84067034721374511719e+00) (17, 6.98741912841796875000e-01) (18, 2.20403671264648437500e+00) (19, -9.64120686054229736328e-01) (20, -1.54418647289276123047e-01) (21, 1.05724170804023742676e-01) (22, 4.05026599764823913574e-02) (23, -8.80007803440093994141e-01) (24, -3.24313044548034667969e-01) (25, 7.09291875362396240234e-01) (26, 3.37272167205810546875e-01) (27, 1.04381155967712402344e+00) (28, -5.34656941890716552734e-01) (29, 1.00121533870697021484e+00) (30, 4.58711087703704833984e-01) (31, -6.30013644695281982422e-01) (32, 6.98473274707794189453e-01) (33, -6.65995776653289794922e-01) (34, -3.78141291439533233643e-02) (35, 6.11186474561691284180e-02) (36, -1.67780235409736633301e-01) (37, 8.22796940803527832031e-01) (38, -1.03494894504547119141e+00) (39, -5.22040903568267822266e-01) (40, -9.90150213241577148438e-01) (41, 8.54192897677421569824e-02) (42, -8.34023594856262207031e-01) (12, -6.12038314342498779297e-01) (13, 2.29613080620765686035e-01) (14, -4.18051213026046752930e-01) (15, 5.50088100135326385498e-02) (16, 3.52643162012100219727e-01) (17, 1.33642649650573730469e+00) (18, 5.44934570789337158203e-01) (19, 6.85236454010009765625e-01) (20, -3.14001560211181640625e-01) (21, -2.16607630252838134766e-01) (22, 2.49344646930694580078e-01) (23, 2.89551734924316406250e-01) (24, -1.75126984715461730957e-01) (25, -2.37632125616073608398e-01) (26, 4.71709251403808593750e-01) (27, 8.90829861164093017578e-02) (28, 3.20217162370681762695e-01) (29, 8.92211377620697021484e-01) (30, 7.79995977878570556641e-01) (31, 9.18239653110504150391e-01) (32, -1.18750429153442382812e+00) (33, 1.28410384058952331543e-01) (34, 7.15329468250274658203e-01) (35, 5.37435054779052734375e-01) (36, -3.20200651884078979492e-01) (37, -7.17257738113403320312e-01) (38, -4.85372096300125122070e-01) (39, 2.31255814433097839355e-01) (40, -5.41478157043457031250e-01) (41, -4.35444891452789306641e-01) (42, 8.99600028991699218750e-01) (12, -6.46151363849639892578e-01) (13, 8.53724420070648193359e-01) (14, 5.06722092628479003906e-01) (15, -2.50912278890609741211e-01) (16, 1.01021277904510498047e+00) (17, 3.55052441358566284180e-01) (18, 5.56208431720733642578e-01) (19, -3.91844004392623901367e-01) (20, -4.27734494209289550781e-01) (21, 7.73214995861053466797e-01) (22, -1.83172941207885742188e-01) (23, -3.71670603752136230469e-01) (24, -1.87346726655960083008e-01) (25, -6.04798614978790283203e-01) (26, -1.62502318620681762695e-01) (27, 5.17033994197845458984e-01) (28, -7.97432512044906616211e-02) (29, 2.26073581725358963013e-02) (30, 5.90772092342376708984e-01) (31, -6.80914878845214843750e-01) (32, -4.18098300695419311523e-01) (33, 1.48709133267402648926e-01) (34, 5.43607056140899658203e-01) (35, -6.46430909633636474609e-01) (36, 1.19519817829132080078e+00) (37, -1.05370879173278808594e+00) (38, -1.38631784915924072266e+00) (39, 5.48327028751373291016e-01) (40, 3.48887532949447631836e-01) (41, 2.96262472867965698242e-01) (42, -2.54736751317977905273e-01) (12, 6.94240391254425048828e-01) (13, 1.54983925819396972656e+00) (14, -6.91755473613739013672e-01) (15, -9.34874653816223144531e-01) (16, -2.95719265937805175781e+00) (17, -3.22953134775161743164e-01) (18, -5.84055408835411071777e-02) (19, 1.55921295285224914551e-01) (20, -9.05176177620887756348e-02) (21, -2.18360751867294311523e-01) (22, 6.15776360034942626953e-01) (23, -6.23479671776294708252e-02) (24, -8.46819877624511718750e-01) (25, 9.56583321094512939453e-01) (26, 4.21114534139633178711e-01) (27, 2.28203821182250976562e+00) (28, 5.23826539516448974609e-01) (29, 4.91624653339385986328e-01) (30, 1.76230952143669128418e-01) (31, 2.21637225151062011719e+00) (32, 3.05622887611389160156e+00) (33, 9.89967644214630126953e-01) (34, 3.28963756561279296875e-01) (35, -1.17786324024200439453e+00) (36, 2.79630255699157714844e+00) (37, -9.58461284637451171875e-01) (38, 5.85176348686218261719e-01) (39, 7.47816562652587890625e-01) (40, -8.84148836135864257812e-01) (41, 1.70271754264831542969e+00) (42, -7.99200013279914855957e-02) (12, 1.18419551849365234375e+00) (13, -1.23246777057647705078e+00) (14, 2.32291102409362792969e+00) (15, 2.86995947360992431641e-01) (16, -1.10085415840148925781e+00) (17, -9.15675818920135498047e-01) (18, -6.60055816173553466797e-01) (19, 4.57936227321624755859e-02) (20, -9.10226047039031982422e-01) (21, -2.07083106040954589844e-01) (22, 4.46259588003158569336e-01) (23, -7.13414728641510009766e-01) (24, 2.28797987103462219238e-01) (25, 7.18254208564758300781e-01) (26, 1.31026268005371093750e+00) (27, -5.94512045383453369141e-01) (28, 2.42053821682929992676e-01) (29, -5.73166429996490478516e-01) (30, -1.51896044611930847168e-01) (31, 9.06620025634765625000e-01) (32, -1.41043317317962646484e+00) (33, -3.51517856121063232422e-01) (34, -5.46570658683776855469e-01) (35, 6.48559212684631347656e-01) (36, 7.16242372989654541016e-01) (37, -9.26519155502319335938e-01) (38, -1.65014004707336425781e+00) (39, -4.88781869411468505859e-01) (40, -3.89641761779785156250e-01) (41, 2.02039122581481933594e-01) (42, 1.42507040500640869141e+00) (12, 4.47239398956298828125e+00) (13, -8.00995945930480957031e-01) (14, 5.70482492446899414062e-01) (15, -1.70719456672668457031e+00) (16, 3.81877732276916503906e+00) (17, 3.74270558357238769531e+00) (18, -2.01564252376556396484e-01) (19, 1.38974606990814208984e+00) (20, -2.92994999885559082031e+00) (21, -1.05584025382995605469e+00) (22, -2.87602591514587402344e+00) (23, -5.91279363632202148438e+00) (24, -2.47079086303710937500e+00) (25, 1.41065621376037597656e+00) (26, 3.03287363052368164062e+00) (27, 1.20954656600952148438e+00) (28, 7.45442688465118408203e-01) (29, 1.40378594398498535156e+00) (30, 3.13940644264221191406e-01) (31, -3.52177530527114868164e-01) (32, -5.73044598102569580078e-01) (33, -2.67053890228271484375e+00) (34, 9.28758680820465087891e-01) (35, 9.75996255874633789062e-01) (36, -2.47195169329643249512e-01) (37, 8.46937298774719238281e-01) (38, 1.81524610519409179688e+00) (39, -2.57040429115295410156e+00) (40, -5.20270645618438720703e-01) (41, 2.20398807525634765625e+00) (42, -7.01884448528289794922e-01) (12, -1.16219818592071533203e+00) (13, 1.34631943702697753906e+00) (14, 3.58972460031509399414e-01) (15, -1.57548068091273307800e-03) (16, -1.51196849346160888672e+00) (17, -1.70936310291290283203e+00) (18, -2.17884406447410583496e-01) (19, 2.50044226646423339844e+00) (20, -6.56622648239135742188e-01) (21, 4.74255502223968505859e-01) (22, -5.75007021427154541016e-01) (23, -9.77143645286560058594e-01) (24, 9.51540470123291015625e-02) (25, -1.99279224872589111328e+00) (26, 1.87789961695671081543e-01) (27, 3.48299002647399902344e+00) (28, 3.25032687187194824219e+00) (29, -1.33824896812438964844e+00) (30, 1.24265623092651367188e+00) (31, -5.60200870037078857422e-01) (32, 1.03765618801116943359e+00) (33, 1.86463510990142822266e+00) (34, 8.55612933635711669922e-01) (35, -9.69192147254943847656e-01) (36, -7.56235718727111816406e-01) (37, 9.96085226535797119141e-01) (38, 1.08393967151641845703e+00) (39, 1.38025926426053047180e-02) (40, -3.24818521738052368164e-01) (41, 2.22977742552757263184e-01) (42, -7.25965261459350585938e-01) (12, 9.34010410308837890625e+00) (13, -2.64654850959777832031e+00) (14, -4.06751304864883422852e-01) (15, -3.18205714225769042969e+00) (16, -3.01660060882568359375e+00) (17, -8.33541107177734375000e+00) (18, -4.63194400072097778320e-01) (19, 8.13720524311065673828e-01) (20, 1.51613712310791015625e+00) (21, 1.39245820045471191406e+00) (22, -2.31054857373237609863e-01) (23, -4.30572414398193359375e+00) (24, -2.56398940086364746094e+00) (25, -1.03260010480880737305e-01) (26, -1.97229897975921630859e+00) (27, -1.02415673434734344482e-01) (28, -7.37182140350341796875e+00) (29, -6.96592617034912109375e+00) (30, -9.09855782985687255859e-01) (31, 5.06209182739257812500e+00) (32, 5.44180870056152343750e+00) (33, 3.50661784410476684570e-01) (34, -9.62398648262023925781e-01) (35, 1.32845270633697509766e+00) (36, 2.41063475608825683594e+00) (37, -4.10702610015869140625e+00) (38, -5.15603637695312500000e+00) (39, 1.24961602687835693359e+00) (40, 1.76078891754150390625e+01) (41, 1.05668771266937255859e+00) (42, 5.37938237190246582031e-01) (12, 2.60768032073974609375e+00) (13, 6.03918170928955078125e+00) (14, 1.05548381805419921875e+00) (15, -1.32442450523376464844e+00) (16, -2.26296114921569824219e+00) (17, 1.82968986034393310547e+00) (18, -9.91048276424407958984e-01) (19, -2.75622367858886718750e-01) (20, 4.73475980758666992188e+00) (21, -7.31180002912878990173e-03) (22, -4.17759227752685546875e+00) (23, 1.80481660366058349609e+00) (24, 1.19076645374298095703e+00) (25, 1.83982896804809570312e+00) (26, -1.79351210594177246094e+00) (27, 2.93491601943969726562e-01) (28, -9.59554135799407958984e-01) (29, -3.33210062980651855469e+00) (30, 3.26273053884506225586e-01) (31, 2.27971315383911132812e+00) (32, 5.44814348220825195312e-01) (33, 2.54307985305786132812e+00) (34, 1.13565266132354736328e+00) (35, -1.03925609588623046875e+00) (36, -2.96149277687072753906e+00) (37, -7.92150259017944335938e-01) (38, -3.14503848552703857422e-01) (39, 3.23540353775024414062e+00) (40, -1.79912745952606201172e+00) (41, 4.97431278228759765625e-01) (42, 8.15202414989471435547e-01) (12, 9.87283885478973388672e-01) (13, 6.12897872924804687500e-02) (14, 2.88646489381790161133e-01) (15, -1.49113988876342773438e+00) (16, 5.75081527233123779297e-01) (17, -7.67914116382598876953e-01) (18, 9.41612005233764648438e-01) (19, 6.08471751213073730469e-01) (20, 7.07618176937103271484e-01) (21, -8.91284227371215820312e-01) (22, -1.84121042490005493164e-01) (23, -3.24630427360534667969e+00) (24, 5.83183243870735168457e-02) (25, 8.35478127002716064453e-01) (26, 3.84843051433563232422e-02) (27, -1.07660762965679168701e-01) (28, -4.89352643489837646484e-01) (29, -5.01223921775817871094e-01) (30, -2.20054388046264648438e-01) (31, -1.65832972526550292969e+00) (32, 1.94551110267639160156e-01) (33, 9.03596282005310058594e-01) (34, -2.45512068271636962891e-01) (35, 5.80894052982330322266e-01) (36, 2.80473768711090087891e-01) (37, 1.75084280967712402344e+00) (38, 2.69440531730651855469e-01) (39, 2.64687985181808471680e-01) (40, -1.15310795605182647705e-01) (41, -1.50867789983749389648e-01) (42, 3.58814924955368041992e-01) (12, 5.51286041736602783203e-01) (13, 5.02848386764526367188e-01) (14, 4.21006828546524047852e-01) (15, -1.06660477817058563232e-01) (16, 1.31719756126403808594e+00) (17, 1.03134369850158691406e+00) (18, 1.88637807965278625488e-01) (19, -7.09769546985626220703e-01) (20, 6.21583819389343261719e-01) (21, 9.23744499683380126953e-01) (22, -4.52078938484191894531e-01) (23, -7.24499821662902832031e-01) (24, -4.23434019088745117188e-01) (25, 1.14613687992095947266e+00) (26, -1.92212641239166259766e-01) (27, -5.65042048692703247070e-02) (28, 6.56076788902282714844e-01) (29, -6.11061275005340576172e-01) (30, 5.90122401714324951172e-01) (31, 2.21618175506591796875e-01) (32, -4.83140647411346435547e-02) (33, 6.31151348352432250977e-02) (34, -8.07260394096374511719e-01) (35, 7.41683959960937500000e-01) (36, -7.30715930461883544922e-01) (37, 1.92273867130279541016e+00) (38, 1.19126117229461669922e+00) (39, 8.35819244384765625000e-01) (40, 4.26635116338729858398e-01) (41, 1.31661510467529296875e+00) (42, 3.54073703289031982422e-01) (12, 7.19265401363372802734e-01) (13, 1.34484514594078063965e-01) (14, -8.55638444423675537109e-01) (15, -5.35281598567962646484e-01) (16, -1.17651963233947753906e+00) (17, 1.56168830394744873047e+00) (18, 5.22687971591949462891e-01) (19, -4.66430753469467163086e-01) (20, 3.45756679773330688477e-01) (21, 1.51455390453338623047e+00) (22, 3.31556141376495361328e-01) (23, 7.21952319145202636719e-01) (24, -7.10055828094482421875e-02) (25, -1.28181561827659606934e-01) (26, 2.63768076896667480469e-01) (27, 2.32426190376281738281e+00) (28, 1.18832039833068847656e+00) (29, 1.06029510498046875000e+00) (30, 6.73389017581939697266e-01) (31, 5.71727752685546875000e-01) (32, 6.27928197383880615234e-01) (33, -4.69220966100692749023e-01) (34, 3.20560544729232788086e-01) (35, -1.58183136954903602600e-03) (36, 7.76131391525268554688e-01) (37, 2.20143929123878479004e-01) (38, -3.96388202905654907227e-01) (39, 9.16895508766174316406e-01) (40, -5.27809679508209228516e-01) (41, -2.20552951097488403320e-01) (42, 6.95365786552429199219e-01) (12, 3.23771715164184570312e-01) (13, 3.91286909580230712891e-01) (14, 1.51058936119079589844e+00) (15, -1.80537283420562744141e-01) (16, 9.43882703781127929688e-01) (17, 1.52023598551750183105e-01) (18, -5.06852686405181884766e-01) (19, 6.55735015869140625000e-01) (20, 3.40849041938781738281e-01) (21, -2.81778335571289062500e-01) (22, 2.12018340826034545898e-01) (23, -4.07704234123229980469e-01) (24, -8.03727626800537109375e-01) (25, 6.72235265374183654785e-02) (26, 5.99674344062805175781e-01) (27, 3.39584529399871826172e-01) (28, -1.05946227908134460449e-01) (29, 1.38096702098846435547e+00) (30, 3.34394335746765136719e-01) (31, -4.54212874174118041992e-02) (32, 1.52025461196899414062e+00) (33, 1.13325476646423339844e+00) (34, -5.06723463535308837891e-01) (35, -2.90978282690048217773e-01) (36, 3.35485726594924926758e-01) (37, 6.25178754329681396484e-01) (38, 2.28555107116699218750e+00) (39, 3.24397116899490356445e-01) (40, 2.09427356719970703125e-01) (41, 2.05925762653350830078e-01) (42, -6.74117565155029296875e-01) (43, -3.68803560733795166016e-01) (44, 5.85369229316711425781e-01) (45, -6.32914423942565917969e-01) (46, 2.30748757719993591309e-01) (47, -3.08880567550659179688e-01) (48, 5.58205425739288330078e-01) (49, -9.83290225267410278320e-02) (50, 3.48887056112289428711e-01) (51, -1.37482255697250366211e-01) (52, 1.02997946739196777344e+00) (53, -6.97272121906280517578e-02) (54, -1.48409649729728698730e-01) (55, 2.38617077469825744629e-01) (56, 1.07372328639030456543e-01) (57, -2.44724586606025695801e-01) (58, 1.02646756172180175781e+00) (59, -7.05805420875549316406e-01) (60, -1.45247340202331542969e+00) (61, 2.02157959342002868652e-01) (62, 5.69902837276458740234e-01) (63, 2.94975191354751586914e-03) (64, -4.37547510955482721329e-04) (65, -8.12949612736701965332e-02) (66, -1.95383369922637939453e-01) (67, 2.57262941449880599976e-02) (68, -7.56978318095207214355e-02) (69, 2.77826756238937377930e-01) (70, -5.48169715330004692078e-04) (71, -2.25895214080810546875e+00) (72, -4.91086512804031372070e-01) (73, 4.90096151828765869141e-01) (43, 2.57580280303955078125e-01) (44, 8.25037896633148193359e-01) (45, -1.57907772809267044067e-02) (46, -1.93667754530906677246e-01) (47, -4.48155775666236877441e-02) (48, 2.20919065177440643311e-02) (49, 9.04373452067375183105e-02) (50, -3.55370372533798217773e-01) (51, 3.43770086765289306641e-01) (52, 2.34100520610809326172e-01) (53, 2.33911514282226562500e-01) (54, -1.68135960120707750320e-03) (55, -4.77255165576934814453e-01) (56, -1.16795085370540618896e-01) (57, 1.09132401645183563232e-01) (58, 6.65340900421142578125e-01) (59, -5.78199744224548339844e-01) (60, -4.35655295848846435547e-01) (61, 1.24838137626647949219e+00) (62, 7.36796438694000244141e-01) (63, -1.23842030763626098633e-01) (64, 2.40976929664611816406e-01) (65, 1.30149438977241516113e-01) (66, -1.57903611660003662109e-01) (67, 4.71126809716224670410e-02) (68, 1.41745689325034618378e-03) (69, 7.75079309940338134766e-01) (70, -3.40934395790100097656e-01) (71, -2.12546914815902709961e-01) (72, -4.76020395755767822266e-01) (73, -2.17526599764823913574e-01) (43, 1.27035832405090332031e+00) (44, -9.41431242972612380981e-03) (45, -1.35318601131439208984e+00) (46, 3.58496665954589843750e-01) (47, 2.85016596317291259766e-01) (48, -1.46686017513275146484e-01) (49, -7.27073773741722106934e-02) (50, -4.37850296497344970703e-01) (51, 6.01003706455230712891e-01) (52, 5.93650758266448974609e-01) (53, -2.22487393766641616821e-02) (54, -3.23703765869140625000e-01) (55, -8.09643268585205078125e-01) (56, 2.18756631016731262207e-01) (57, 1.99219658970832824707e-01) (58, 1.87342453002929687500e+00) (59, -5.51603853702545166016e-01) (60, -1.02950572967529296875e+00) (61, 8.10602247714996337891e-01) (62, 1.48960435390472412109e+00) (63, -3.58267009258270263672e-01) (64, 1.15497946739196777344e+00) (65, -1.01956330239772796631e-01) (66, -4.26355451345443725586e-01) (67, 3.25469404458999633789e-01) (68, -1.79067865014076232910e-01) (69, 7.26584970951080322266e-01) (70, -1.96284484118223190308e-02) (71, 6.59834086894989013672e-01) (72, -6.86212360858917236328e-01) (73, -5.89004337787628173828e-01) (43, 1.18361428380012512207e-01) (44, -3.10761213302612304688e-01) (45, -3.50171536207199096680e-01) (46, -5.02143681049346923828e-01) (47, 4.55525279045104980469e-01) (48, -1.22368030250072479248e-01) (49, 1.44199579954147338867e-01) (50, 3.31599712371826171875e-01) (51, 2.06798887252807617188e+00) (52, -4.57660496234893798828e-01) (53, 1.54809132218360900879e-01) (54, 4.63551372289657592773e-01) (55, -9.99006867408752441406e-01) (56, 3.08972060680389404297e-01) (57, 4.45420473814010620117e-01) (58, -4.72344952868297696114e-04) (59, -2.59755700826644897461e-02) (60, 1.09594129025936126709e-02) (61, -8.64115595817565917969e-01) (62, -5.07783353328704833984e-01) (63, -4.26032274961471557617e-01) (64, 5.19868433475494384766e-01) (65, -1.78220689296722412109e-01) (66, 5.94742894172668457031e-01) (67, 4.28571760654449462891e-01) (68, -1.39750391244888305664e-01) (69, -8.60690832138061523438e-01) (70, -4.85605090856552124023e-01) (71, -6.05154186487197875977e-02) (72, 1.70954521745443344116e-02) (73, 1.85351371765136718750e+00) (43, -8.46660315990447998047e-01) (44, 1.91880419850349426270e-01) (45, -1.42989945411682128906e+00) (46, -2.67586648464202880859e-01) (47, 1.06050325557589530945e-02) (48, 5.58743417263031005859e-01) (49, -3.74061241745948791504e-02) (50, 2.14218115806579589844e+00) (51, 6.34491503238677978516e-01) (52, 7.73148179054260253906e-01) (53, -6.64806723594665527344e-01) (54, 1.02265775203704833984e+00) (55, -1.25924980640411376953e+00) (56, 5.95253825187683105469e-01) (57, 7.49535977840423583984e-01) (58, -9.10222887992858886719e-01) (59, -2.84157365560531616211e-01) (60, 2.48894667625427246094e+00) (61, 5.21556496620178222656e-01) (62, -2.27619826793670654297e-01) (63, 1.72784611582756042480e-01) (64, -5.29406726360321044922e-01) (65, -4.32506203651428222656e-02) (66, -7.34482467174530029297e-01) (67, -8.57606995850801467896e-04) (68, -5.60254007577896118164e-02) (69, -1.33528363704681396484e+00) (70, 4.10298675298690795898e-01) (71, -6.83775007724761962891e-01) (72, 1.00515007972717285156e+00) (73, 1.02095329761505126953e+00) (43, 3.27240848541259765625e+00) (44, 5.75737804174423217773e-02) (45, -1.52239680290222167969e+00) (46, 2.04813671112060546875e+00) (47, -6.79053246974945068359e-01) (48, -4.13094806671142578125e+00) (49, -1.61078000068664550781e+00) (50, -1.67924058437347412109e+00) (51, -1.92872256040573120117e-01) (52, 8.56128931045532226562e-01) (53, 2.50259494781494140625e+00) (54, 5.52129626274108886719e-01) (55, 3.03369331359863281250e+00) (56, -3.26441979408264160156e+00) (57, 3.51920872926712036133e-01) (58, 3.54009747505187988281e-01) (59, 1.30874693393707275391e+00) (60, 6.19955003261566162109e-01) (61, 5.93225657939910888672e-01) (62, 1.81507086753845214844e+00) (63, -1.28182327747344970703e+00) (64, -1.20868670940399169922e+00) (65, 1.58909404277801513672e+00) (66, -1.22725240886211395264e-01) (67, -1.01496577262878417969e+00) (68, -2.28367710113525390625e+00) (69, -1.43939718604087829590e-01) (70, -2.23333764076232910156e+00) (71, 4.00490254163742065430e-01) (72, 2.78969621658325195312e+00) (73, 1.10618531703948974609e+00) (43, 7.56522893905639648438e-01) (44, 1.52090322971343994141e+00) (45, 8.22080373764038085938e-01) (46, -5.47501385211944580078e-01) (47, -3.84374648332595825195e-01) (48, -1.28650799393653869629e-01) (49, 5.07961392402648925781e-01) (50, 1.13969683647155761719e+00) (51, -1.92501223087310791016e+00) (52, -1.03317713737487792969e+00) (53, -6.87470078468322753906e-01) (54, 2.76537299156188964844e-01) (55, 8.37561964988708496094e-01) (56, -2.68292874097824096680e-01) (57, 2.75529652833938598633e-01) (58, 5.40485382080078125000e-01) (59, 1.10670137405395507812e+00) (60, -5.68131625652313232422e-01) (61, 1.43286776542663574219e+00) (62, 2.17736935615539550781e+00) (63, -1.95171326398849487305e-01) (64, 1.04418349266052246094e+00) (65, -2.09637925028800964355e-01) (66, -1.76206007599830627441e-01) (67, 6.45122351124882698059e-03) (68, -5.33752366900444030762e-02) (69, 6.93324863910675048828e-01) (70, 8.64865720272064208984e-01) (71, -2.96095299720764160156e+00) (72, 6.93505525588989257812e-01) (73, 2.02931189537048339844e+00) (43, 5.54925680160522460938e-01) (44, 2.19367504119873046875e+00) (45, 4.93567466735839843750e-01) (46, -8.05984377861022949219e-01) (47, -3.93358379602432250977e-01) (48, -1.52725946903228759766e+00) (49, 3.50870072841644287109e-01) (50, 3.05617868900299072266e-01) (51, -3.58103811740875244141e-01) (52, 2.37209224700927734375e+00) (53, -3.07387650012969970703e-01) (54, 2.92175650596618652344e-01) (55, -6.82950198650360107422e-01) (56, -2.38817274570465087891e-01) (57, 6.99240267276763916016e-01) (58, -6.47576749324798583984e-01) (59, -1.31050848960876464844e+00) (60, -9.74738746881484985352e-02) (61, 1.46280360221862792969e+00) (62, 1.02591477334499359131e-01) (63, -1.97466202080249786377e-02) (64, -1.41374543309211730957e-01) (65, -1.82684641331434249878e-02) (66, 2.88752496242523193359e-01) (67, 3.39790105819702148438e-01) (68, 1.10980588942766189575e-02) (69, 1.70785605907440185547e+00) (70, -2.97577798366546630859e-01) (71, -7.08442211151123046875e-01) (72, 8.29759061336517333984e-01) (73, -6.69677853584289550781e-01) (43, 8.56066942214965820312e-02) (44, 1.04219841957092285156e+00) (45, -2.41419076919555664062e-01) (46, 5.91058850288391113281e-01) (47, 8.48569989204406738281e-01) (48, 2.97294974327087402344e-01) (49, -1.16040599346160888672e+00) (50, -3.86929720640182495117e-01) (51, 1.21313536167144775391e+00) (52, 4.56622302532196044922e-01) (53, -1.62031662464141845703e+00) (54, -1.62827122211456298828e+00) (55, -2.79689526557922363281e+00) (56, -8.72458636760711669922e-01) (57, 2.60286360979080200195e-01) (58, 2.22125148773193359375e+00) (59, 8.91151964664459228516e-01) (60, -5.08439600467681884766e-01) (61, 1.81645548343658447266e+00) (62, 1.05419147014617919922e+00) (63, -4.76902276277542114258e-01) (64, 2.65563344955444335938e+00) (65, -5.96231162548065185547e-01) (66, 2.37569260597229003906e+00) (67, 6.86333596706390380859e-01) (68, -4.11606729030609130859e-02) (69, 2.63179659843444824219e-01) (70, 2.57907438278198242188e+00) (71, -5.52599020302295684814e-02) (72, 2.37616628408432006836e-01) (73, 5.66464543342590332031e-01)
input_names='a' 'betan' 'bt' 'delta' 'i_coil' 'ip' 'kappa' 'neped' 'r' 'rotation' 'zeffped'
output_names='OUT_P2e_EPED' 'OUT_P2e_rmpsoff' 'OUT_P2e_rmpson' 'OUT_elm_frequency_EPED' 'OUT_elm_frequency_rmpsoff' 'OUT_elm_frequency_rmpson' 'OUT_wte_EPED' 'OUT_wte_rmpsoff' 'OUT_wte_rmpson'
norm_output=0.0 0.0 0.0 0.0 0.0 0.0 0.0 0.0 0.0 0.0 0.0 0.0 0.0 0.0 0.0 0.0 0.0 0.0 0.0 0.0 0.0 0.0 0.0 0.0 0.0 0.0 0.0 0.0 0.0 0.0 0.0 0.0 0.0 0.0 0.0 0.0 0.0 0.0 0.0 0.0 0.0 0.0 0.0 0.0 0.0 0.0 0.0 0.0 0.0 0.0 0.0 0.0 0.0 0.0 0.0 0.0 0.0 0.0 0.0 0.0 0.0 0.0 0.0 0.0 0.0 0.0 0.0 0.0 0.0 0.0 0.0 0.0 0.0 0.0 0.0 0.0 0.0 0.0 0.0 0.0 0.0 0.0 0.0 0.0 0.0 0.0 0.0 0.0 0.0 0.0 0.0 0.0 0.0 0.0 0.0 0.0 0.0 0.0 0.0
MSE= 0.211750119925