FANN_FLO_2.1
num_layers=4
learning_rate=0.700000
connection_rate=1.000000
network_type=0
learning_momentum=0.000000
training_algorithm=2
train_error_function=0
train_stop_function=0
cascade_output_change_fraction=0.010000
quickprop_decay=224.973267
quickprop_mu=1.750000
rprop_increase_factor=1.200000
rprop_decrease_factor=0.500000
rprop_delta_min=0.000000
rprop_delta_max=50.000000
rprop_delta_zero=0.100000
cascade_output_stagnation_epochs=12
cascade_candidate_change_fraction=0.010000
cascade_candidate_stagnation_epochs=12
cascade_max_out_epochs=150
cascade_min_out_epochs=50
cascade_max_cand_epochs=150
cascade_min_cand_epochs=50
cascade_num_candidate_groups=2
bit_fail_limit=3.49999994039535522461e-01
cascade_candidate_limit=1.00000000000000000000e+03
cascade_weight_multiplier=4.00000005960464477539e-01
cascade_activation_functions_count=10
cascade_activation_functions=3 5 7 8 10 11 14 15 16 17
cascade_activation_steepnesses_count=4
cascade_activation_steepnesses=2.50000000000000000000e-01 5.00000000000000000000e-01 7.50000000000000000000e-01 1.00000000000000000000e+00
layer_sizes=12 31 31 10
scale_included=1
scale_mean_in=0.595710 1.725386 1.856146 0.505992 3676.362793 1.428655 1.810080 3.038681 1.739604 -8.041503 1.898420
scale_deviation_in=0.002873 0.364799 0.150563 0.019752 1002.251953 0.206163 0.008729 1.216456 0.020967 7.740559 0.492744
scale_new_min_in=-1.000000 -1.000000 -1.000000 -1.000000 -1.000000 -1.000000 -1.000000 -1.000000 -1.000000 -1.000000 -1.000000
scale_factor_in=1.000000 1.000000 1.000000 1.000000 1.000000 1.000000 1.000000 1.000000 1.000000 1.000000 1.000000
scale_mean_out=0.006885 0.006940 0.006452 0.000000 1.617205 1.805368 0.028493 0.033410 0.029136
scale_deviation_out=0.001293 0.001990 0.002194 0.000001 0.176400 0.429144 0.002952 0.003744 0.008478
scale_new_min_out=-1.000000 -1.000000 -1.000000 -1.000000 -1.000000 -1.000000 -1.000000 -1.000000 -1.000000
scale_factor_out=1.000000 1.000000 1.000000 1.000000 1.000000 1.000000 1.000000 1.000000 1.000000
neurons (num_inputs, activation_function, activation_steepness)=(0, 0, 0.00000000000000000000e+00) (0, 0, 0.00000000000000000000e+00) (0, 0, 0.00000000000000000000e+00) (0, 0, 0.00000000000000000000e+00) (0, 0, 0.00000000000000000000e+00) (0, 0, 0.00000000000000000000e+00) (0, 0, 0.00000000000000000000e+00) (0, 0, 0.00000000000000000000e+00) (0, 0, 0.00000000000000000000e+00) (0, 0, 0.00000000000000000000e+00) (0, 0, 0.00000000000000000000e+00) (0, 0, 0.00000000000000000000e+00) (12, 5, 5.00000000000000000000e-01) (12, 5, 5.00000000000000000000e-01) (12, 5, 5.00000000000000000000e-01) (12, 5, 5.00000000000000000000e-01) (12, 5, 5.00000000000000000000e-01) (12, 5, 5.00000000000000000000e-01) (12, 5, 5.00000000000000000000e-01) (12, 5, 5.00000000000000000000e-01) (12, 5, 5.00000000000000000000e-01) (12, 5, 5.00000000000000000000e-01) (12, 5, 5.00000000000000000000e-01) (12, 5, 5.00000000000000000000e-01) (12, 5, 5.00000000000000000000e-01) (12, 5, 5.00000000000000000000e-01) (12, 5, 5.00000000000000000000e-01) (12, 5, 5.00000000000000000000e-01) (12, 5, 5.00000000000000000000e-01) (12, 5, 5.00000000000000000000e-01) (12, 5, 5.00000000000000000000e-01) (12, 5, 5.00000000000000000000e-01) (12, 5, 5.00000000000000000000e-01) (12, 5, 5.00000000000000000000e-01) (12, 5, 5.00000000000000000000e-01) (12, 5, 5.00000000000000000000e-01) (12, 5, 5.00000000000000000000e-01) (12, 5, 5.00000000000000000000e-01) (12, 5, 5.00000000000000000000e-01) (12, 5, 5.00000000000000000000e-01) (12, 5, 5.00000000000000000000e-01) (12, 5, 5.00000000000000000000e-01) (0, 5, 0.00000000000000000000e+00) (31, 5, 5.00000000000000000000e-01) (31, 5, 5.00000000000000000000e-01) (31, 5, 5.00000000000000000000e-01) (31, 5, 5.00000000000000000000e-01) (31, 5, 5.00000000000000000000e-01) (31, 5, 5.00000000000000000000e-01) (31, 5, 5.00000000000000000000e-01) (31, 5, 5.00000000000000000000e-01) (31, 5, 5.00000000000000000000e-01) (31, 5, 5.00000000000000000000e-01) (31, 5, 5.00000000000000000000e-01) (31, 5, 5.00000000000000000000e-01) (31, 5, 5.00000000000000000000e-01) (31, 5, 5.00000000000000000000e-01) (31, 5, 5.00000000000000000000e-01) (31, 5, 5.00000000000000000000e-01) (31, 5, 5.00000000000000000000e-01) (31, 5, 5.00000000000000000000e-01) (31, 5, 5.00000000000000000000e-01) (31, 5, 5.00000000000000000000e-01) (31, 5, 5.00000000000000000000e-01) (31, 5, 5.00000000000000000000e-01) (31, 5, 5.00000000000000000000e-01) (31, 5, 5.00000000000000000000e-01) (31, 5, 5.00000000000000000000e-01) (31, 5, 5.00000000000000000000e-01) (31, 5, 5.00000000000000000000e-01) (31, 5, 5.00000000000000000000e-01) (31, 5, 5.00000000000000000000e-01) (31, 5, 5.00000000000000000000e-01) (0, 5, 0.00000000000000000000e+00) (31, 0, 5.00000000000000000000e-01) (31, 0, 5.00000000000000000000e-01) (31, 0, 5.00000000000000000000e-01) (31, 0, 5.00000000000000000000e-01) (31, 0, 5.00000000000000000000e-01) (31, 0, 5.00000000000000000000e-01) (31, 0, 5.00000000000000000000e-01) (31, 0, 5.00000000000000000000e-01) (31, 0, 5.00000000000000000000e-01) (0, 0, 0.00000000000000000000e+00)
connections (connected_to_neuron, weight)=(0, 2.55881339311599731445e-01) (1, 1.33790040016174316406e+00) (2, -7.55275428295135498047e-01) (3, 6.70008540153503417969e-01) (4, -9.04107868671417236328e-01) (5, 1.05458533763885498047e+00) (6, 1.22761988639831542969e+00) (7, 1.24325227737426757812e+00) (8, 5.17554461956024169922e-01) (9, -8.52355659008026123047e-01) (10, -1.84488281607627868652e-01) (11, 1.86660158634185791016e+00) (0, -9.50289428234100341797e-01) (1, -1.32808184623718261719e+00) (2, 5.43907976150512695312e+00) (3, 1.68212437629699707031e+00) (4, 9.22451400756835937500e+00) (5, 6.90727996826171875000e+00) (6, -2.61447858810424804688e+00) (7, -5.33455705642700195312e+00) (8, 8.55214500427246093750e+00) (9, 1.50098257064819335938e+01) (10, -3.41038197278976440430e-01) (11, -3.44592618942260742188e+00) (0, 1.87120959162712097168e-01) (1, -9.51740443706512451172e-02) (2, 1.16316115856170654297e+00) (3, 9.52100157737731933594e-01) (4, 2.54703871905803680420e-02) (5, -1.55030727386474609375e+00) (6, -7.68409609794616699219e-01) (7, 1.35064756870269775391e+00) (8, 4.52682338654994964600e-02) (9, -1.50727719068527221680e-01) (10, 8.18852484226226806641e-01) (11, 9.97149705886840820312e-01) (0, -1.49576678872108459473e-01) (1, -1.99326634407043457031e-01) (2, 6.51825785636901855469e-01) (3, 1.18900798261165618896e-01) (4, 1.13780081272125244141e-01) (5, -6.36430680751800537109e-01) (6, 2.50213801860809326172e-01) (7, 1.85165309906005859375e+00) (8, -3.51795792579650878906e-01) (9, 1.70435249805450439453e-01) (10, -9.43123996257781982422e-02) (11, -2.50158496201038360596e-02) (0, 7.90125668048858642578e-01) (1, -2.38280504941940307617e-01) (2, 4.05549812316894531250e+00) (3, 5.53018987178802490234e-01) (4, -5.86284743621945381165e-03) (5, 1.14402651786804199219e+00) (6, 3.22972416877746582031e-01) (7, 1.09314286708831787109e+00) (8, -4.34110611677169799805e-01) (9, -1.33602514863014221191e-01) (10, -3.19489628076553344727e-01) (11, -1.17041599750518798828e+00) (0, 6.66718333959579467773e-02) (1, 1.53446662425994873047e+00) (2, 4.80395048856735229492e-01) (3, -1.40627193450927734375e+00) (4, -1.10059714317321777344e+00) (5, -2.04119533300399780273e-01) (6, -4.14067596197128295898e-01) (7, 1.03251226246356964111e-01) (8, 3.07392150163650512695e-01) (9, 7.17920735478401184082e-02) (10, -1.57366245985031127930e-01) (11, 6.40451371669769287109e-01) (0, 1.55074167251586914062e+00) (1, -1.74933481216430664062e+00) (2, 6.23340427875518798828e-01) (3, 9.75652575492858886719e-01) (4, -3.47269564867019653320e-01) (5, 4.27714228630065917969e-01) (6, 2.00112462043762207031e+00) (7, 4.58307313919067382812e+00) (8, 2.96424478292465209961e-01) (9, 3.76632779836654663086e-01) (10, -3.09176295995712280273e-01) (11, 3.89055633544921875000e+00) (0, 8.01894485950469970703e-01) (1, 1.47403228282928466797e+00) (2, -2.63215512037277221680e-01) (3, -3.77833023667335510254e-02) (4, 3.60164076089859008789e-01) (5, -1.03276169300079345703e+00) (6, 2.56713807582855224609e-01) (7, -4.99590778350830078125e+00) (8, -1.75769031047821044922e+00) (9, -6.35325610637664794922e-01) (10, 3.72050166130065917969e-01) (11, -6.73366546630859375000e-01) (0, -8.44717957079410552979e-03) (1, 1.33805811405181884766e-01) (2, 4.50076043605804443359e-01) (3, 3.15835863351821899414e-01) (4, -1.82004764676094055176e-01) (5, 6.96301087737083435059e-02) (6, -1.25615984201431274414e-01) (7, 1.02741110324859619141e+00) (8, 1.36789059638977050781e+00) (9, 2.39703178405761718750e-01) (10, -2.02200457453727722168e-01) (11, -1.40916311740875244141e+00) (0, 1.10146713256835937500e+00) (1, 6.21775448322296142578e-01) (2, 4.08840596675872802734e-01) (3, -8.73230874538421630859e-01) (4, 7.07079609856009483337e-03) (5, -2.45232030749320983887e-01) (6, 2.14033031463623046875e+00) (7, -8.73429656028747558594e-01) (8, 1.03957474231719970703e+00) (9, 6.58579945564270019531e-01) (10, -3.10598492622375488281e-01) (11, -5.52088856697082519531e-01) (0, -3.06187480688095092773e-01) (1, -4.64682102203369140625e-01) (2, 1.01107621192932128906e+00) (3, 4.50436741113662719727e-01) (4, -1.48905798792839050293e-01) (5, 1.27457332611083984375e+00) (6, -3.05354893207550048828e-01) (7, -8.56894493103027343750e-01) (8, -1.20536530017852783203e+00) (9, -7.68343150615692138672e-01) (10, 2.11228534579277038574e-01) (11, 1.86561778187751770020e-01) (0, 9.32426214218139648438e-01) (1, 1.08918070793151855469e+00) (2, -1.58292904496192932129e-01) (3, -2.36212775111198425293e-01) (4, -1.48891180753707885742e-01) (5, 9.58362638950347900391e-01) (6, 3.79354625940322875977e-01) (7, 3.12814146280288696289e-01) (8, -5.65714120864868164062e-01) (9, 1.50407291948795318604e-02) (10, 9.79976832866668701172e-01) (11, 1.21110570430755615234e+00) (0, -1.18464250117540359497e-02) (1, -1.06163024902343750000e+00) (2, -1.01550960540771484375e+00) (3, 4.40239787101745605469e-01) (4, 6.36359274387359619141e-01) (5, 3.04870665073394775391e-01) (6, -2.84394025802612304688e-01) (7, -1.41004160046577453613e-01) (8, 1.66076445579528808594e+00) (9, 8.98253679275512695312e-01) (10, 4.80081319808959960938e-01) (11, -1.88262581825256347656e+00) (0, -7.69411504268646240234e-01) (1, -4.48408752679824829102e-01) (2, -1.14008498191833496094e+00) (3, 3.19488793611526489258e-01) (4, 2.80926283448934555054e-02) (5, 1.11421298980712890625e+00) (6, 5.18744051456451416016e-01) (7, -2.63693153858184814453e-01) (8, 1.35012596845626831055e-01) (9, -1.15035378932952880859e+00) (10, 1.53996616601943969727e-01) (11, -8.28671514987945556641e-01) (0, 3.48913311958312988281e+00) (1, -7.40589916706085205078e-01) (2, 1.94637194275856018066e-01) (3, 1.10168015956878662109e+00) (4, 5.68041849136352539062e+00) (5, -3.07699441909790039062e-01) (6, 3.10019493103027343750e+00) (7, 5.90559911727905273438e+00) (8, 4.83439743518829345703e-01) (9, 3.45880651473999023438e+00) (10, -4.50812220573425292969e-01) (11, -6.06784760951995849609e-01) (0, -2.77716457843780517578e-01) (1, -5.88888943195343017578e-01) (2, 5.03752112388610839844e-01) (3, -3.59317511320114135742e-01) (4, -1.93402603268623352051e-01) (5, -1.17313750088214874268e-01) (6, -1.29037857055664062500e-01) (7, 2.81395912170410156250e-02) (8, 1.07247263193130493164e-01) (9, 1.39491319656372070312e-01) (10, -9.33560669422149658203e-01) (11, -7.59502887725830078125e-01) (0, -3.40682566165924072266e-01) (1, 6.83742761611938476562e-01) (2, -3.29149067401885986328e-01) (3, 1.00038386881351470947e-01) (4, 2.00401708483695983887e-01) (5, 1.70434117317199707031e+00) (6, -7.71106705069541931152e-02) (7, 3.57232034206390380859e-01) (8, -6.39413952827453613281e-01) (9, -3.38709980249404907227e-01) (10, 4.67816889286041259766e-01) (11, -2.66583263874053955078e-02) (0, -6.43678307533264160156e-02) (1, -5.51308572292327880859e-01) (2, 5.44185578823089599609e-01) (3, -6.11603021621704101562e-01) (4, 4.89240556955337524414e-01) (5, -9.45142328739166259766e-01) (6, -4.52838726341724395752e-02) (7, -1.09011375904083251953e+00) (8, 9.30658578872680664062e-01) (9, -6.42059743404388427734e-02) (10, -3.29408079385757446289e-01) (11, -2.50158935785293579102e-01) (0, 7.41409733891487121582e-02) (1, -1.22987627983093261719e+00) (2, 1.08415102958679199219e+00) (3, -6.47057294845581054688e-01) (4, -5.31312942504882812500e-01) (5, -1.21706867218017578125e+00) (6, -1.95107787847518920898e-01) (7, 1.75771787762641906738e-01) (8, 1.36393320560455322266e+00) (9, 6.06382898986339569092e-02) (10, 3.35210591554641723633e-01) (11, -7.11097791790962219238e-02) (0, -3.80468130111694335938e-01) (1, -2.18521673232316970825e-02) (2, 1.58886045217514038086e-01) (3, 1.84400863945484161377e-02) (4, 2.34663009643554687500e-01) (5, 1.76442515850067138672e+00) (6, -1.03396080434322357178e-01) (7, 6.97772622108459472656e-01) (8, 6.50671601295471191406e-01) (9, 5.03401458263397216797e-01) (10, -1.03881621360778808594e+00) (11, 2.18441939353942871094e+00) (0, -1.56096041202545166016e+00) (1, -2.95867711305618286133e-01) (2, 1.40783131122589111328e+00) (3, 5.34796893596649169922e-01) (4, -1.00804460048675537109e+00) (5, -1.43038523197174072266e+00) (6, -1.08521103858947753906e-01) (7, -2.00384998321533203125e+00) (8, -9.06688570976257324219e-02) (9, -1.33489930629730224609e+00) (10, 6.92189157009124755859e-01) (11, 1.54677629470825195312e+00) (0, -2.10460759699344635010e-02) (1, 6.91082328557968139648e-02) (2, -6.78645253181457519531e-01) (3, 1.40109792351722717285e-01) (4, 2.82309263944625854492e-01) (5, 1.83848667144775390625e+00) (6, 6.15540444850921630859e-01) (7, 1.40656277537345886230e-01) (8, 1.23966360092163085938e+00) (9, 1.38683468103408813477e-01) (10, -1.09238483011722564697e-01) (11, -8.68674933910369873047e-01) (0, 2.23818153142929077148e-01) (1, 6.25136137008666992188e-01) (2, -1.09752762317657470703e+00) (3, 1.69010534882545471191e-01) (4, -1.72677922248840332031e+00) (5, 1.49994897842407226562e+00) (6, 6.26044392585754394531e-01) (7, -9.80433285236358642578e-01) (8, 6.02307915687561035156e-01) (9, 1.83325982093811035156e+00) (10, -2.22191095352172851562e-01) (11, 1.49639463424682617188e+00) (0, 1.31195066496729850769e-02) (1, 2.31188625097274780273e-01) (2, -7.75587463378906250000e+00) (3, 2.88653314113616943359e-01) (4, 4.21030044555664062500e-01) (5, -4.15035200119018554688e+00) (6, 5.60150444507598876953e-01) (7, -2.36067509651184082031e+00) (8, 2.15359777212142944336e-01) (9, -1.28523871302604675293e-01) (10, 5.93858420848846435547e-01) (11, -1.38976585865020751953e+00) (0, -1.01807057857513427734e+00) (1, -9.69916248321533203125e+00) (2, -8.49871039390563964844e-01) (3, 3.08714842796325683594e+00) (4, 3.46405649185180664062e+00) (5, 2.38716065883636474609e-01) (6, 8.36317002773284912109e-01) (7, -3.39808058738708496094e+00) (8, 5.47127008438110351562e+00) (9, -3.82404470443725585938e+00) (10, 2.37402725219726562500e+00) (11, 3.71031403541564941406e-01) (0, -1.30861803889274597168e-01) (1, -3.80468845367431640625e-01) (2, -1.63713073730468750000e+00) (3, -4.80662941932678222656e-01) (4, 2.41335511207580566406e+00) (5, -8.94698202610015869141e-01) (6, -3.90694558620452880859e-01) (7, -8.78037333488464355469e-01) (8, -1.52261137962341308594e+00) (9, 6.97991013526916503906e-01) (10, -3.28858643770217895508e-02) (11, -8.50459560751914978027e-02) (0, 1.49125710129737854004e-01) (1, 1.11316013336181640625e+00) (2, 1.02215158939361572266e+00) (3, -3.68056029081344604492e-01) (4, 1.23270926997065544128e-02) (5, -2.31853008270263671875e-01) (6, 1.17141947150230407715e-01) (7, 1.31484556198120117188e+00) (8, -1.65634050965309143066e-01) (9, 2.31864809989929199219e-01) (10, -1.20112925767898559570e-01) (11, 1.10593751072883605957e-01) (0, 9.25793722271919250488e-02) (1, 2.16042995452880859375e+00) (2, -8.28558385372161865234e-01) (3, 8.30512285232543945312e-01) (4, 2.96452902257442474365e-02) (5, -1.08838088810443878174e-01) (6, -6.95906877517700195312e-01) (7, 1.12962201237678527832e-01) (8, -1.01686036586761474609e+00) (9, 4.73918408155441284180e-01) (10, -3.12891416251659393311e-02) (11, -6.83462440967559814453e-01) (0, 2.97405540943145751953e-01) (1, 5.85648953914642333984e-01) (2, -3.45786780118942260742e-01) (3, 8.51431250572204589844e-01) (4, 3.68579804897308349609e-01) (5, 3.62665623426437377930e-01) (6, 9.86726284027099609375e-02) (7, 1.37942111492156982422e+00) (8, -4.49991285800933837891e-01) (9, -1.97661921381950378418e-01) (10, 1.04965758323669433594e+00) (11, -1.73558068275451660156e+00) (0, 1.40771460533142089844e+00) (1, -5.58488082885742187500e+00) (2, -1.68159520626068115234e+00) (3, 2.34660649299621582031e+00) (4, 3.64353656768798828125e+00) (5, -2.99705100059509277344e+00) (6, 3.07500630617141723633e-01) (7, -2.84421348571777343750e+00) (8, 1.38086891174316406250e+00) (9, 1.42241463065147399902e-01) (10, -9.71602261066436767578e-01) (11, 1.25517582893371582031e+00) (12, 7.42531567811965942383e-02) (13, -1.57758697867393493652e-01) (14, 5.64347445964813232422e-01) (15, 8.36292386054992675781e-01) (16, 3.26708227396011352539e-01) (17, -2.83236265182495117188e-01) (18, 2.06834778189659118652e-01) (19, -4.47267651557922363281e-01) (20, 8.30120816826820373535e-02) (21, -2.97745764255523681641e-01) (22, 5.05865275859832763672e-01) (23, 1.18900001049041748047e+00) (24, 9.27791416645050048828e-01) (25, 2.57334634661674499512e-02) (26, 1.52492389082908630371e-01) (27, 2.00548124313354492188e+00) (28, 2.08426356315612792969e+00) (29, 1.38455533981323242188e+00) (30, 1.15588819980621337891e+00) (31, -5.05662024021148681641e-01) (32, -1.51327652856707572937e-02) (33, 7.01977312564849853516e-01) (34, 2.01777800917625427246e-01) (35, -6.22771739959716796875e-01) (36, -2.76566207408905029297e-01) (37, 3.05047780275344848633e-01) (38, 1.52185130119323730469e+00) (39, -5.06267964839935302734e-01) (40, 1.80581820011138916016e+00) (41, -5.31682848930358886719e-01) (42, -8.38258802890777587891e-01) (12, -7.48312175273895263672e-01) (13, 3.24094176292419433594e+00) (14, 1.25706219673156738281e+00) (15, -4.68744134902954101562e+00) (16, 1.81520652770996093750e+00) (17, 1.29026162624359130859e+00) (18, -4.69857245683670043945e-01) (19, 9.77259755134582519531e-01) (20, 1.44855618476867675781e+00) (21, -1.21794211864471435547e+00) (22, -2.20974302291870117188e+00) (23, -5.44854223728179931641e-01) (24, -6.21116399765014648438e-01) (25, 2.01791509985923767090e-01) (26, -1.61723101139068603516e+00) (27, -6.31407558917999267578e-01) (28, 9.52770888805389404297e-01) (29, -8.45324754714965820312e-01) (30, -2.85753750801086425781e+00) (31, -1.06813216209411621094e+00) (32, 2.02959108352661132812e+00) (33, 9.49270904064178466797e-01) (34, 3.24101090431213378906e+00) (35, 8.26668515801429748535e-02) (36, 1.47600734233856201172e+00) (37, -2.37054800987243652344e+00) (38, -1.31778502464294433594e+00) (39, -2.55812215805053710938e+00) (40, 1.92880451679229736328e-01) (41, 1.30528330802917480469e+00) (42, 1.39138549566268920898e-01) (12, -2.23764920234680175781e+00) (13, -2.93065965175628662109e-01) (14, 1.19993722438812255859e+00) (15, 5.22310920059680938721e-02) (16, 1.03784155845642089844e+00) (17, 4.55831706523895263672e-01) (18, 3.22588294744491577148e-01) (19, 2.53523588180541992188e+00) (20, 1.05085134506225585938e+00) (21, 6.30937218666076660156e-01) (22, 9.92528498172760009766e-02) (23, 1.76509484648704528809e-01) (24, 6.90822362899780273438e-01) (25, -6.36336952447891235352e-03) (26, 1.99198722839355468750e-01) (27, 9.23663079738616943359e-01) (28, 1.22037518024444580078e+00) (29, -5.93135580420494079590e-02) (30, 9.62585031986236572266e-01) (31, 1.41846764087677001953e+00) (32, 1.19870734214782714844e+00) (33, -7.86832034587860107422e-01) (34, -1.53731966018676757812e+00) (35, 7.97805339097976684570e-02) (36, 1.05585014820098876953e+00) (37, -9.27695989608764648438e-01) (38, -7.71328747272491455078e-01) (39, 4.24611479043960571289e-01) (40, 1.15894281864166259766e+00) (41, -7.62700855731964111328e-01) (42, 6.09840095043182373047e-01) (12, 4.61274951696395874023e-01) (13, -2.39186972379684448242e-01) (14, -6.87994122505187988281e-01) (15, 1.65852892398834228516e+00) (16, -1.63149058818817138672e+00) (17, -1.68036058545112609863e-01) (18, 1.14510983228683471680e-01) (19, -6.89622581005096435547e-01) (20, 2.71695166826248168945e-01) (21, -3.93281966447830200195e-01) (22, 6.84424877166748046875e-01) (23, 1.57641470432281494141e-01) (24, -7.52212256193161010742e-02) (25, -3.12818080186843872070e-01) (26, 3.80607068538665771484e-01) (27, -2.75460988283157348633e-01) (28, -1.03698408603668212891e+00) (29, -1.09435677528381347656e+00) (30, 2.19569906592369079590e-01) (31, 9.25813838839530944824e-02) (32, -6.24429762363433837891e-01) (33, -6.06783568859100341797e-01) (34, -8.86215090751647949219e-01) (35, -6.55742958188056945801e-02) (36, 3.31046372652053833008e-01) (37, 5.42341947555541992188e-01) (38, 5.66755712032318115234e-01) (39, 2.56138294935226440430e-01) (40, -1.72572448849678039551e-01) (41, -3.40204983949661254883e-01) (42, 1.56298303604125976562e+00) (12, -6.41631305217742919922e-01) (13, -3.13186138868331909180e-01) (14, 1.52237966656684875488e-01) (15, -2.03657984733581542969e-01) (16, 1.54025673866271972656e+00) (17, -7.54633963108062744141e-01) (18, -2.06854924559593200684e-01) (19, -9.52351242303848266602e-02) (20, 1.05278599262237548828e+00) (21, 4.02630656957626342773e-01) (22, 1.23152039945125579834e-01) (23, 8.31110477447509765625e-02) (24, 1.74271667003631591797e+00) (25, -1.04062426090240478516e+00) (26, 7.37003028392791748047e-01) (27, 5.73746025562286376953e-01) (28, -3.03650408983230590820e-01) (29, 7.45882451534271240234e-01) (30, 1.91581237316131591797e+00) (31, 8.85535329580307006836e-02) (32, 2.44400668144226074219e+00) (33, 7.49093145132064819336e-02) (34, 4.13942724466323852539e-01) (35, 1.06459558010101318359e+00) (36, 1.70902591198682785034e-02) (37, 9.33847352862358093262e-02) (38, -1.02752745151519775391e+00) (39, 3.94706189632415771484e-01) (40, 3.47568750381469726562e+00) (41, -3.77919673919677734375e-01) (42, 1.61898648738861083984e+00) (12, -1.32415437698364257812e+00) (13, -9.32906940579414367676e-02) (14, -8.36084723472595214844e-01) (15, 2.26308435201644897461e-01) (16, 4.28362488746643066406e-01) (17, 1.43944725394248962402e-01) (18, -9.35056060552597045898e-02) (19, 2.47323527932167053223e-01) (20, 1.70897221565246582031e+00) (21, -1.04693555831909179688e+00) (22, -1.61604321002960205078e+00) (23, 7.13369190692901611328e-01) (24, -3.36257457733154296875e-01) (25, 1.24819839000701904297e+00) (26, 1.01374182850122451782e-02) (27, -2.38153362274169921875e+00) (28, 5.84722816944122314453e-01) (29, -3.41327548027038574219e-01) (30, 1.96034181118011474609e+00) (31, 2.25643420219421386719e+00) (32, 2.19454899430274963379e-01) (33, 6.64156615734100341797e-01) (34, 6.10293388366699218750e-01) (35, 2.22359538078308105469e+00) (36, 4.17674630880355834961e-01) (37, -8.74294877052307128906e-01) (38, 1.43144810199737548828e+00) (39, -5.50387680530548095703e-01) (40, 8.76523315906524658203e-01) (41, 6.03586956858634948730e-02) (42, -2.82784163951873779297e-01) (12, 6.83478593826293945312e-01) (13, -5.78336358070373535156e-01) (14, 1.85977375507354736328e+00) (15, 1.13794326782226562500e+00) (16, 2.68787205219268798828e-01) (17, -2.22662043571472167969e+00) (18, 1.37728035449981689453e+00) (19, 5.91517146676778793335e-03) (20, -5.67489087581634521484e-01) (21, -1.21048474311828613281e+00) (22, 2.31849503517150878906e+00) (23, 4.66669023036956787109e-01) (24, -1.25466346740722656250e+00) (25, 3.41523140668869018555e-01) (26, 2.04015731811523437500e+00) (27, 3.03045272827148437500e-01) (28, -2.38016438484191894531e+00) (29, 8.07676374912261962891e-01) (30, -8.26929062604904174805e-02) (31, 1.78415566682815551758e-01) (32, -9.64623212814331054688e-01) (33, -1.30234062671661376953e-02) (34, 4.48473989963531494141e-01) (35, -9.44066882133483886719e-01) (36, -2.09497404098510742188e+00) (37, 1.14072060585021972656e+00) (38, 1.07164180278778076172e+00) (39, 2.51914530992507934570e-01) (40, 1.32510256767272949219e+00) (41, -1.14570760726928710938e+00) (42, -4.21366751194000244141e-01) (12, 2.72719804197549819946e-02) (13, -2.59723454713821411133e-01) (14, -1.13034188747406005859e+00) (15, -3.28844994306564331055e-01) (16, 1.97444468736648559570e-01) (17, 5.98239190876483917236e-02) (18, 1.32552385330200195312e-01) (19, 6.60418629646301269531e-01) (20, 1.84267312288284301758e-01) (21, -1.13668084144592285156e-01) (22, -7.16540455818176269531e-01) (23, 1.11026871204376220703e+00) (24, 4.14458423852920532227e-01) (25, 6.81001961231231689453e-01) (26, -1.29464834928512573242e-01) (27, 1.75508272647857666016e+00) (28, 2.33496618270874023438e+00) (29, 6.71275436878204345703e-01) (30, 4.66632902622222900391e-01) (31, 5.59850692749023437500e-01) (32, -4.51112210750579833984e-01) (33, -1.24081738293170928955e-01) (34, 1.12408554553985595703e+00) (35, 6.56388979405164718628e-03) (36, 7.94236212968826293945e-02) (37, -1.76761046051979064941e-01) (38, -5.28786957263946533203e-01) (39, 1.55655705928802490234e+00) (40, 4.67040330171585083008e-01) (41, 8.16072046756744384766e-01) (42, -6.18900239467620849609e-01) (12, 3.36878001689910888672e-01) (13, 4.40782785415649414062e-01) (14, -1.04316365718841552734e+00) (15, -2.74261862039566040039e-01) (16, -1.71219423413276672363e-01) (17, -3.87450814247131347656e-01) (18, -2.06584841012954711914e-01) (19, 3.52521866559982299805e-01) (20, -4.98726695775985717773e-01) (21, -6.41684353351593017578e-01) (22, -1.85817527770996093750e+00) (23, 9.75803375244140625000e-01) (24, 5.04709064960479736328e-01) (25, 7.42151558399200439453e-01) (26, -3.40236812829971313477e-01) (27, 2.02494382858276367188e+00) (28, 2.43787217140197753906e+00) (29, -1.84157922863960266113e-01) (30, 1.12915551662445068359e+00) (31, 2.82820135354995727539e-01) (32, 2.86976933479309082031e-01) (33, -1.53350496292114257812e+00) (34, 7.23692297935485839844e-01) (35, 1.74329233169555664062e+00) (36, 2.53141015768051147461e-01) (37, 8.50782811641693115234e-01) (38, 2.23452830314636230469e+00) (39, 1.45620036125183105469e+00) (40, -1.66806563735008239746e-01) (41, 6.11983776092529296875e-01) (42, -3.14503312110900878906e-01) (12, -3.02236318588256835938e-01) (13, -2.68044024705886840820e-01) (14, -1.31446704268455505371e-01) (15, -2.61783391237258911133e-01) (16, 9.61081981658935546875e-01) (17, -4.79053318500518798828e-01) (18, -8.98389697074890136719e-01) (19, 7.20099866390228271484e-01) (20, -6.36949717998504638672e-01) (21, -1.55822008848190307617e-01) (22, -1.39552366733551025391e+00) (23, -5.15320956707000732422e-01) (24, -1.62957936525344848633e-01) (25, 7.58651375770568847656e-01) (26, 6.67682647705078125000e-01) (27, -5.89044272899627685547e-01) (28, 2.06378769874572753906e+00) (29, -1.07555437088012695312e+00) (30, 1.52025234699249267578e+00) (31, 1.12154507637023925781e+00) (32, 6.18240237236022949219e-01) (33, -1.16871781647205352783e-02) (34, 2.72050380706787109375e-01) (35, 2.59483069181442260742e-01) (36, -1.86638701707124710083e-02) (37, -6.37696623802185058594e-01) (38, -1.08351922035217285156e+00) (39, 9.99827444553375244141e-01) (40, -2.70702034235000610352e-01) (41, 2.25026562809944152832e-01) (42, 1.46625590324401855469e+00) (12, 4.70210731029510498047e-01) (13, -2.74596840143203735352e-01) (14, 1.00786697864532470703e+00) (15, 1.51627862453460693359e+00) (16, 4.08606171607971191406e-01) (17, -3.21283221244812011719e-01) (18, -1.70108452439308166504e-01) (19, 9.56982448697090148926e-02) (20, 4.50288429856300354004e-02) (21, -8.41787576675415039062e-01) (22, 4.58918482065200805664e-01) (23, 4.19634312391281127930e-01) (24, 9.16476190090179443359e-01) (25, -4.37962651252746582031e-01) (26, 1.47856518626213073730e-01) (27, 2.53340989351272583008e-01) (28, -6.12763822078704833984e-01) (29, 1.03390395641326904297e-01) (30, 1.10149189829826354980e-01) (31, -2.08574557304382324219e+00) (32, 5.75380325317382812500e-01) (33, 5.20088896155357360840e-02) (34, -7.90970683097839355469e-01) (35, 2.20608070492744445801e-01) (36, -5.16235232353210449219e-02) (37, -4.40538346767425537109e-01) (38, 9.84057009220123291016e-01) (39, -5.45870780944824218750e-01) (40, 5.99168837070465087891e-01) (41, -2.31405362486839294434e-01) (42, -1.01122558116912841797e+00) (12, -4.12287682294845581055e-01) (13, 3.63753706216812133789e-01) (14, 2.23886799812316894531e+00) (15, 1.08633235096931457520e-01) (16, -4.90073598921298980713e-02) (17, 2.32288503646850585938e+00) (18, 1.40325152873992919922e+00) (19, 1.04624323546886444092e-01) (20, 2.15762901306152343750e+00) (21, 2.24280381202697753906e+00) (22, -3.56918275356292724609e-01) (23, -8.11952292919158935547e-01) (24, 7.78432846069335937500e-01) (25, -1.06080937385559082031e+00) (26, -1.18472091853618621826e-01) (27, 1.26636052131652832031e+00) (28, -1.49128779768943786621e-01) (29, 2.89476603269577026367e-01) (30, 1.96100103855133056641e+00) (31, 2.47057604789733886719e+00) (32, 3.31928825378417968750e+00) (33, -4.04085779190063476562e+00) (34, -1.42260834574699401855e-01) (35, -3.94104532897472381592e-02) (36, 1.11320555210113525391e-01) (37, 7.40016698837280273438e-01) (38, 6.69025897979736328125e-01) (39, -4.49346065521240234375e-01) (40, -1.37543189525604248047e+00) (41, 8.76514837145805358887e-02) (42, 9.70716476440429687500e-01) (12, 1.10337758064270019531e+00) (13, 1.21357522904872894287e-01) (14, 2.92738771438598632812e+00) (15, 2.39799022674560546875e+00) (16, -1.59823119640350341797e-01) (17, -1.05255973339080810547e+00) (18, 2.10129022598266601562e+00) (19, 1.29496645927429199219e+00) (20, -2.29879403114318847656e+00) (21, 1.21255600452423095703e+00) (22, 2.96966552734375000000e+00) (23, -2.84922629594802856445e-01) (24, -6.00961863994598388672e-01) (25, -2.84283012151718139648e-01) (26, -2.45387148857116699219e+00) (27, -6.54792547225952148438e-01) (28, -1.12977457046508789062e+00) (29, 2.08128643035888671875e+00) (30, -7.26471424102783203125e-01) (31, 1.51083076000213623047e+00) (32, 1.22252178192138671875e+00) (33, 2.35358190536499023438e+00) (34, 1.89753937721252441406e+00) (35, 1.23462021350860595703e+00) (36, -1.20737828314304351807e-01) (37, -5.05356311798095703125e-01) (38, 2.10712409019470214844e+00) (39, 5.80192685127258300781e-01) (40, 1.21541666984558105469e+00) (41, -5.12724518775939941406e-01) (42, -6.23026788234710693359e-01) (12, 3.35321784019470214844e-01) (13, 6.98214173316955566406e-01) (14, 9.50654625892639160156e-01) (15, 3.92712533473968505859e-01) (16, 1.65628123283386230469e+00) (17, -2.87604749202728271484e-01) (18, 3.40576618909835815430e-01) (19, -1.27125620841979980469e+00) (20, 1.68809318542480468750e+00) (21, 4.98600423336029052734e-01) (22, 1.82393002510070800781e+00) (23, -8.00126612186431884766e-01) (24, -3.97704578936100006104e-02) (25, 2.51907378435134887695e-01) (26, 4.33271378278732299805e-01) (27, -9.29009556770324707031e-01) (28, 1.66934084892272949219e+00) (29, 1.97187304496765136719e+00) (30, 6.94373428821563720703e-01) (31, -6.55300915241241455078e-01) (32, -8.38860332965850830078e-01) (33, 1.59213459491729736328e+00) (34, 5.20381093025207519531e-01) (35, -9.58908438682556152344e-01) (36, -9.28397417068481445312e-01) (37, -1.47366333007812500000e+00) (38, 8.01900744438171386719e-01) (39, -1.72811940312385559082e-01) (40, -1.38084322214126586914e-01) (41, -1.12828814983367919922e+00) (42, -1.10480511188507080078e+00) (12, 2.02385473251342773438e+00) (13, -7.65415251255035400391e-01) (14, 1.54392766952514648438e+00) (15, 1.82592535018920898438e+00) (16, 2.77592682838439941406e+00) (17, 1.07250332832336425781e+00) (18, 4.41014111042022705078e-01) (19, -8.97343397140502929688e-01) (20, -6.87833011150360107422e-01) (21, -1.52232244610786437988e-01) (22, -2.55092680454254150391e-01) (23, -1.14944195747375488281e+00) (24, 3.87083329260349273682e-02) (25, -4.59417849779129028320e-01) (26, 1.56909382343292236328e+00) (27, 3.28449368476867675781e-01) (28, -4.83625411987304687500e-01) (29, -1.26945245265960693359e+00) (30, -1.33142963051795959473e-01) (31, -1.50312244892120361328e+00) (32, -1.13678567111492156982e-01) (33, 5.73373436927795410156e-02) (34, 3.49941372871398925781e-01) (35, -3.97794544696807861328e-01) (36, -1.76736807823181152344e+00) (37, 8.28290998935699462891e-01) (38, 2.08940720558166503906e+00) (39, 3.61343652009963989258e-01) (40, 1.01399385929107666016e+00) (41, -1.73012149333953857422e+00) (42, 1.11645157448947429657e-03) (12, 4.69237953424453735352e-01) (13, -4.94334027171134948730e-02) (14, -5.52702188491821289062e-01) (15, 4.35187846422195434570e-01) (16, 8.29919219017028808594e-01) (17, 4.86577600240707397461e-02) (18, -4.04067367315292358398e-01) (19, 4.01910215616226196289e-01) (20, 8.88331115245819091797e-01) (21, 4.00831282138824462891e-01) (22, -2.57617640495300292969e+00) (23, -1.13248646259307861328e+00) (24, -1.55405208468437194824e-01) (25, -1.39585900306701660156e+00) (26, 2.32447251677513122559e-01) (27, -7.29883372783660888672e-01) (28, 8.68969798088073730469e-01) (29, 3.22680436074733734131e-02) (30, 4.03236418962478637695e-01) (31, -1.89512670040130615234e+00) (32, 7.60136902332305908203e-01) (33, 3.26922029256820678711e-01) (34, 2.64745801687240600586e-01) (35, 1.53394863009452819824e-01) (36, -6.75965309143066406250e-01) (37, 9.90631639957427978516e-01) (38, -3.82536292076110839844e-01) (39, 4.09532368183135986328e-01) (40, -8.85655432939529418945e-02) (41, 5.14361321926116943359e-01) (42, -1.13569521903991699219e+00) (12, -6.49977207183837890625e-01) (13, -9.34081196784973144531e-01) (14, 3.85329276323318481445e-01) (15, -8.70664477348327636719e-01) (16, -6.73565626144409179688e-01) (17, 5.54159164428710937500e-01) (18, 7.58440494537353515625e-01) (19, 7.57331967353820800781e-01) (20, 1.83035540580749511719e+00) (21, 2.44884192943572998047e-01) (22, 6.88105702400207519531e-01) (23, -2.75983840227127075195e-01) (24, -1.41731584072113037109e+00) (25, 9.33161258697509765625e-01) (26, -7.22138881683349609375e-01) (27, 1.24196171760559082031e+00) (28, -1.12549483776092529297e+00) (29, -8.73908102512359619141e-01) (30, 1.08340167999267578125e+00) (31, 6.75853729248046875000e-01) (32, -1.10470846295356750488e-01) (33, 1.20999062061309814453e+00) (34, 1.36531221866607666016e+00) (35, 2.23902240395545959473e-01) (36, 2.15399608016014099121e-01) (37, 2.88896739482879638672e-01) (38, 1.65471625328063964844e+00) (39, 6.67625546455383300781e-01) (40, 5.04774808883666992188e-01) (41, 2.77446717023849487305e-01) (42, -8.55646073818206787109e-01) (12, 7.55995213985443115234e-01) (13, 5.03659546375274658203e-01) (14, 5.03053627908229827881e-02) (15, 6.40033245086669921875e-01) (16, 6.55292510986328125000e-01) (17, 1.12424039840698242188e+00) (18, 1.71530336141586303711e-01) (19, -1.02247607707977294922e+00) (20, 9.19802129268646240234e-01) (21, 6.58405065536499023438e-01) (22, 1.96269318461418151855e-01) (23, 8.23617696762084960938e-01) (24, 8.89131069183349609375e-01) (25, 2.26242825388908386230e-01) (26, -6.19821622967720031738e-02) (27, -5.88490128517150878906e-01) (28, 8.19098889827728271484e-01) (29, 2.69884437322616577148e-01) (30, -5.33413171768188476562e-01) (31, 3.47304582595825195312e-01) (32, 5.55076658725738525391e-01) (33, -1.48289752006530761719e+00) (34, 7.79776498675346374512e-02) (35, -5.33475220203399658203e-01) (36, -1.24851530417799949646e-02) (37, 5.84173917770385742188e-01) (38, 1.60002112388610839844e+00) (39, -6.06113858520984649658e-02) (40, -7.32223927974700927734e-01) (41, 3.17338496446609497070e-01) (42, 7.23824441432952880859e-01) (12, -1.59403979778289794922e+00) (13, 1.75751745700836181641e-01) (14, -1.71171277761459350586e-01) (15, -8.92304420471191406250e-01) (16, -2.05473828315734863281e+00) (17, -5.79010605812072753906e-01) (18, 3.43451529741287231445e-01) (19, -6.01933479309082031250e-01) (20, 6.04053199291229248047e-01) (21, -1.18881797790527343750e+00) (22, 1.57688581943511962891e+00) (23, 2.24559292197227478027e-01) (24, 3.91716629266738891602e-01) (25, 6.49896800518035888672e-01) (26, 6.50482952594757080078e-01) (27, -2.03183591365814208984e-01) (28, -1.19348132610321044922e+00) (29, -2.28430318832397460938e+00) (30, 2.49032711982727050781e+00) (31, 4.70112979412078857422e-01) (32, 1.34413588047027587891e+00) (33, 2.03597235679626464844e+00) (34, -4.05088439583778381348e-02) (35, 1.45196390151977539062e+00) (36, -7.68058061599731445312e-01) (37, -2.24353805184364318848e-01) (38, -1.04604101181030273438e+00) (39, 5.49579679965972900391e-01) (40, -2.44044270366430282593e-02) (41, 6.07005298137664794922e-01) (42, 1.77112793922424316406e+00) (12, -1.44236665219068527222e-02) (13, 3.54084759950637817383e-01) (14, -4.14679139852523803711e-01) (15, -4.16816631332039833069e-03) (16, 1.55646765232086181641e+00) (17, -2.89736595004796981812e-02) (18, -3.62337201833724975586e-01) (19, 3.82942795753479003906e-01) (20, 1.34885478019714355469e+00) (21, 7.07110345363616943359e-01) (22, -3.71574312448501586914e-01) (23, 7.08733737468719482422e-01) (24, 9.38159674406051635742e-02) (25, 1.65515169501304626465e-01) (26, -1.12289950251579284668e-01) (27, 2.40132182836532592773e-01) (28, 1.19599246978759765625e+00) (29, -2.33821779489517211914e-01) (30, 8.69917333126068115234e-01) (31, 4.42636877298355102539e-01) (32, 8.31336081027984619141e-01) (33, 1.10439836978912353516e-01) (34, 1.25486505031585693359e+00) (35, 2.12061047554016113281e+00) (36, 3.97086948156356811523e-01) (37, -7.77212306857109069824e-02) (38, 1.09292292594909667969e+00) (39, -3.11852037906646728516e-01) (40, 1.44177448749542236328e+00) (41, 9.17720124125480651855e-02) (42, -1.85107958316802978516e+00) (12, 1.95850759744644165039e-01) (13, -6.53037279844284057617e-02) (14, -1.43244132399559020996e-01) (15, -3.68662208318710327148e-01) (16, -2.97129201889038085938e+00) (17, 5.28321444988250732422e-01) (18, 5.26170253753662109375e-01) (19, 4.04358029365539550781e-01) (20, -1.65658164024353027344e+00) (21, 4.99444035813212394714e-03) (22, 1.68323934078216552734e+00) (23, -3.04498761892318725586e-01) (24, 7.74792134761810302734e-01) (25, 6.80300712585449218750e-01) (26, 8.76054584980010986328e-01) (27, -1.71940660476684570312e+00) (28, 1.01436269283294677734e+00) (29, -1.25883710384368896484e+00) (30, 1.53367102146148681641e+00) (31, 1.11042961478233337402e-01) (32, 8.07659700512886047363e-02) (33, -8.56752812862396240234e-01) (34, 1.68941009044647216797e+00) (35, -9.24744009971618652344e-02) (36, 1.96686863899230957031e-01) (37, 7.73683190345764160156e-01) (38, 1.56434726715087890625e+00) (39, 3.47963541746139526367e-01) (40, -7.39710271358489990234e-01) (41, 8.64398628473281860352e-02) (42, 1.80296325683593750000e+00) (12, -1.19135224819183349609e+00) (13, -2.78145849704742431641e-01) (14, -3.55897605419158935547e-01) (15, -1.09935629367828369141e+00) (16, 1.23048329353332519531e+00) (17, 6.41578257083892822266e-01) (18, 2.30658769607543945312e+00) (19, 7.22815155982971191406e-01) (20, 1.14104151725769042969e+00) (21, 1.36863064765930175781e+00) (22, 1.54016876220703125000e+00) (23, -6.07789754867553710938e-01) (24, 8.01566481590270996094e-01) (25, 1.51533269882202148438e+00) (26, -9.81364190578460693359e-01) (27, -5.97663462162017822266e-01) (28, 1.55057549476623535156e+00) (29, 1.70533955097198486328e+00) (30, 2.37547874450683593750e-01) (31, 1.57327175140380859375e-01) (32, -1.10588419437408447266e+00) (33, 6.85839414596557617188e-01) (34, 1.17161774635314941406e+00) (35, 6.81943297386169433594e-01) (36, 2.00721770524978637695e-01) (37, -1.26487648487091064453e+00) (38, 1.78843510150909423828e+00) (39, 1.81191340088844299316e-01) (40, 3.76849502325057983398e-01) (41, 1.31666123867034912109e+00) (42, -7.91100442409515380859e-01) (12, -8.03697288036346435547e-01) (13, -6.14304840564727783203e-01) (14, 2.58446276187896728516e-01) (15, 9.39725041389465332031e-01) (16, 2.29316011071205139160e-01) (17, 1.55487930774688720703e+00) (18, 1.43845283985137939453e+00) (19, 1.15034453570842742920e-01) (20, 1.46016433835029602051e-01) (21, 1.65833449363708496094e+00) (22, 8.52676033973693847656e-01) (23, 5.01403510570526123047e-01) (24, 1.14079248905181884766e+00) (25, 1.02588489651679992676e-01) (26, -1.38598382472991943359e+00) (27, 1.15557765960693359375e+00) (28, -9.10409927368164062500e-01) (29, 1.13096809387207031250e+00) (30, 1.50996255874633789062e+00) (31, 6.32274329662322998047e-01) (32, 1.20807492733001708984e+00) (33, -1.11254915595054626465e-01) (34, 1.42080020904541015625e+00) (35, 5.79836964607238769531e-01) (36, 1.84103950858116149902e-01) (37, 1.02051305770874023438e+00) (38, 2.96734988689422607422e-01) (39, 3.26386034488677978516e-01) (40, 1.05375981330871582031e+00) (41, 2.17508181929588317871e-01) (42, -4.59194660186767578125e-01) (12, 2.45876371860504150391e-01) (13, 4.54098880290985107422e-02) (14, 4.50232446193695068359e-01) (15, -1.27961933612823486328e+00) (16, -1.62373974919319152832e-01) (17, 2.72313386201858520508e-01) (18, 2.07910805940628051758e-01) (19, -1.29220023751258850098e-01) (20, -1.81087553501129150391e-01) (21, -4.14843708276748657227e-01) (22, 1.03456151485443115234e+00) (23, 7.62121438980102539062e-01) (24, -1.49463623762130737305e-01) (25, 3.46266716718673706055e-01) (26, 8.24382901191711425781e-02) (27, -2.27621030807495117188e+00) (28, 1.18230056762695312500e+00) (29, 3.28144520521163940430e-01) (30, 8.10303032398223876953e-01) (31, 9.36699807643890380859e-01) (32, 1.87973573803901672363e-01) (33, 1.67442277073860168457e-01) (34, 1.12412011623382568359e+00) (35, -9.95801985263824462891e-01) (36, 4.16843026876449584961e-01) (37, 7.67093718051910400391e-01) (38, 4.61585074663162231445e-01) (39, -4.23315346240997314453e-01) (40, -1.50495755672454833984e+00) (41, -3.19616436958312988281e-01) (42, 3.52595329284667968750e-01) (12, -1.07975304126739501953e+00) (13, 4.97546076774597167969e-01) (14, 1.82870459556579589844e+00) (15, 7.37316131591796875000e-01) (16, 1.16163000464439392090e-01) (17, -4.48668986558914184570e-01) (18, 1.64661622047424316406e+00) (19, 7.07727000117301940918e-02) (20, -3.37562024593353271484e-01) (21, 1.81158578395843505859e+00) (22, -5.10451197624206542969e-01) (23, -4.29051697254180908203e-01) (24, 3.07920515537261962891e-01) (25, -8.08256924152374267578e-01) (26, -5.18367350101470947266e-01) (27, -1.16489148139953613281e+00) (28, 2.25382947921752929688e+00) (29, 2.29097461700439453125e+00) (30, -1.55380892753601074219e+00) (31, -1.58843672275543212891e+00) (32, -2.04945340752601623535e-01) (33, 1.28475773334503173828e+00) (34, -6.58884227275848388672e-01) (35, -2.00984850525856018066e-01) (36, 3.00736352801322937012e-03) (37, 6.44838623702526092529e-03) (38, -1.08754742145538330078e+00) (39, 3.73363345861434936523e-01) (40, 1.27001225948333740234e+00) (41, 3.29206645488739013672e-01) (42, 7.64289498329162597656e-01) (12, -1.00063621997833251953e+00) (13, 2.03138613700866699219e+00) (14, -5.08445538580417633057e-02) (15, -1.54093992710113525391e+00) (16, -5.14531791210174560547e-01) (17, -6.93106532096862792969e-01) (18, -8.79669427871704101562e-01) (19, 1.08968281745910644531e+00) (20, -4.75620657205581665039e-01) (21, 5.40713071823120117188e-01) (22, 4.78259474039077758789e-01) (23, 1.71224749088287353516e+00) (24, -1.53784525394439697266e+00) (25, 2.85640883445739746094e+00) (26, 1.71857035160064697266e+00) (27, 9.96069490909576416016e-01) (28, -7.27441191673278808594e-01) (29, 1.28822994232177734375e+00) (30, -8.44319462776184082031e-02) (31, 1.17291629314422607422e+00) (32, 2.55580544471740722656e-02) (33, 3.26793193817138671875e+00) (34, -6.10697746276855468750e-01) (35, 2.39792585372924804688e+00) (36, -8.10124725103378295898e-02) (37, 8.57155144214630126953e-01) (38, -1.14816439151763916016e+00) (39, 5.62328040599822998047e-01) (40, 6.13874316215515136719e-01) (41, -1.28826761245727539062e+00) (42, -9.66905951499938964844e-01) (12, 7.00679570436477661133e-02) (13, 6.26902639865875244141e-01) (14, 6.42697989940643310547e-01) (15, -1.48370802402496337891e+00) (16, 1.61176908016204833984e+00) (17, -4.15971457958221435547e-01) (18, 4.50526863336563110352e-01) (19, 5.77565312385559082031e-01) (20, 6.98659837245941162109e-01) (21, 2.04525426030158996582e-01) (22, 8.26168239116668701172e-01) (23, -4.76005584001541137695e-01) (24, 9.76421296596527099609e-01) (25, 3.10681939125061035156e-01) (26, 3.47446382045745849609e-01) (27, -2.37003669142723083496e-01) (28, -1.02292084693908691406e+00) (29, 8.70116055011749267578e-01) (30, 6.77689462900161743164e-02) (31, -7.40696430206298828125e-01) (32, 1.63803005218505859375e+00) (33, -1.19362282752990722656e+00) (34, -1.60020560026168823242e-01) (35, 1.85788846015930175781e+00) (36, -6.13069295883178710938e-01) (37, -2.91628599166870117188e-01) (38, -1.67195424437522888184e-01) (39, -2.93881386518478393555e-01) (40, -8.19926857948303222656e-01) (41, -2.87291347980499267578e-01) (42, -1.22151875495910644531e+00) (12, 3.37545305490493774414e-01) (13, 5.33585011959075927734e-01) (14, 1.74623742699623107910e-01) (15, 1.19195091724395751953e+00) (16, 2.14991569519042968750e+00) (17, 4.34095710515975952148e-01) (18, 9.94157671928405761719e-01) (19, -5.26656247675418853760e-02) (20, -9.86662447452545166016e-01) (21, 8.52458119392395019531e-01) (22, 1.42185807228088378906e+00) (23, 2.23723500967025756836e-01) (24, 1.02704715728759765625e+00) (25, 4.48960781097412109375e-01) (26, 9.56671461462974548340e-02) (27, -1.85130584239959716797e+00) (28, 3.82714301347732543945e-01) (29, -3.58466804027557373047e-01) (30, 8.49435091018676757812e-01) (31, 1.23388099670410156250e+00) (32, 4.55779761075973510742e-01) (33, -1.39547872543334960938e+00) (34, -1.83752611279487609863e-01) (35, 1.34750112891197204590e-01) (36, -1.13186299800872802734e+00) (37, -3.55699658393859863281e-01) (38, 1.70113906264305114746e-01) (39, 1.21690249443054199219e+00) (40, -1.20908427238464355469e+00) (41, -4.01544690132141113281e-01) (42, 1.89925760030746459961e-01) (12, -4.20588135719299316406e-01) (13, -7.87701189517974853516e-01) (14, -2.47530862689018249512e-01) (15, 1.07824109494686126709e-01) (16, 9.23602759838104248047e-01) (17, 1.23195135593414306641e+00) (18, 7.71944224834442138672e-01) (19, 2.46316981315612792969e+00) (20, 1.30879509449005126953e+00) (21, -2.32497423887252807617e-01) (22, 1.05637717247009277344e+00) (23, -2.19167932868003845215e-01) (24, 2.27018848061561584473e-01) (25, -3.86478066444396972656e-01) (26, -1.02201473712921142578e+00) (27, 1.26041793823242187500e+00) (28, 2.68788075447082519531e+00) (29, -8.06328654289245605469e-01) (30, 1.46889591217041015625e+00) (31, -1.63207113742828369141e-01) (32, 9.90825831890106201172e-01) (33, 1.16992831230163574219e+00) (34, 1.74011576175689697266e+00) (35, 2.63254284858703613281e-01) (36, 1.00405621528625488281e+00) (37, 1.52093613147735595703e+00) (38, -3.30223768949508666992e-01) (39, 4.17650081217288970947e-02) (40, 9.15390133857727050781e-01) (41, 1.20713150501251220703e+00) (42, -4.66490447521209716797e-01) (12, -2.53818869590759277344e+00) (13, -5.43081223964691162109e-01) (14, 3.25710564851760864258e-01) (15, 3.32148766517639160156e+00) (16, 5.58980047702789306641e-01) (17, 1.08254954218864440918e-01) (18, -2.16396617889404296875e+00) (19, 1.05440866947174072266e+00) (20, 4.07588869333267211914e-01) (21, 1.00629599764943122864e-02) (22, 3.40234684944152832031e+00) (23, 5.87408065795898437500e-01) (24, -3.38681054115295410156e+00) (25, -8.52537572383880615234e-01) (26, 1.26222300529479980469e+00) (27, 2.05934929847717285156e+00) (28, -2.37364578247070312500e+00) (29, -1.17294931411743164062e+00) (30, 7.79090225696563720703e-01) (31, -1.84515202045440673828e+00) (32, -4.02731329202651977539e-01) (33, 2.55532169342041015625e+00) (34, 1.22046864032745361328e+00) (35, 1.73170268535614013672e+00) (36, -1.64914548397064208984e+00) (37, 8.40850114822387695312e-01) (38, 1.05474901199340820312e+00) (39, 6.16791546344757080078e-01) (40, 1.32330799102783203125e+00) (41, -1.60697424411773681641e+00) (42, -1.20560157299041748047e+00) (43, 7.13936984539031982422e-01) (44, 8.26048851013183593750e-02) (45, 1.90227270126342773438e-01) (46, 4.20282393693923950195e-01) (47, 1.09226293861865997314e-01) (48, 1.30567356944084167480e-01) (49, 1.67374074459075927734e-01) (50, -8.03145945072174072266e-01) (51, 7.13183641433715820312e-01) (52, 1.20022010803222656250e+00) (53, 1.48994612693786621094e+00) (54, 6.45747482776641845703e-02) (55, 2.82852184027433395386e-02) (56, 1.68513312935829162598e-01) (57, 1.59369274973869323730e-01) (58, -4.96928811073303222656e-01) (59, -1.74401670694351196289e-01) (60, -9.50286611914634704590e-02) (61, 1.37851953506469726562e-01) (62, 1.25518906116485595703e+00) (63, -5.90756237506866455078e-01) (64, 3.44123214483261108398e-01) (65, -1.49384051561355590820e-01) (66, 3.69244813919067382812e-01) (67, 2.22954735159873962402e-01) (68, -2.34038129448890686035e-01) (69, -9.97314214706420898438e-01) (70, 9.40038681030273437500e-01) (71, 2.62804150581359863281e-01) (72, 1.18236318230628967285e-01) (73, 4.37050402164459228516e-01) (43, 5.91942310333251953125e-01) (44, 7.05680400133132934570e-02) (45, 3.04888505488634109497e-02) (46, 8.75859260559082031250e-01) (47, -1.03760315105319023132e-02) (48, 2.51698046922683715820e-01) (49, -6.74367100000381469727e-02) (50, -5.32082505524158477783e-02) (51, 7.02699199318885803223e-02) (52, 2.38007828593254089355e-01) (53, 9.85091701149940490723e-02) (54, 5.63419423997402191162e-02) (55, 2.33092382550239562988e-01) (56, 1.88698023557662963867e-01) (57, -2.74031683802604675293e-02) (58, 8.79804432392120361328e-01) (59, 7.55120038986206054688e-01) (60, 1.11820912361145019531e+00) (61, -1.25980511307716369629e-01) (62, 6.91398322582244873047e-01) (63, 4.49949204921722412109e-01) (64, 9.39337350428104400635e-03) (65, -5.45122563838958740234e-01) (66, 1.78390488028526306152e-01) (67, 1.10417768359184265137e-01) (68, -1.15814879536628723145e-01) (69, -3.36683154106140136719e-01) (70, -1.44112527370452880859e-01) (71, -8.73628854751586914062e-02) (72, -6.06274493038654327393e-02) (73, -2.74442523717880249023e-01) (43, -5.68943500518798828125e-01) (44, -1.59700930118560791016e-01) (45, 3.83577674627304077148e-01) (46, 1.47700798511505126953e+00) (47, -1.41849279403686523438e+00) (48, 3.94841641187667846680e-01) (49, 2.39894747734069824219e-01) (50, 5.98585784435272216797e-01) (51, 3.65984827280044555664e-01) (52, -4.03535246849060058594e-01) (53, 7.48943448066711425781e-01) (54, 3.40443193912506103516e-01) (55, 4.06370192766189575195e-01) (56, 1.48853468894958496094e+00) (57, -3.06324899196624755859e-01) (58, 4.88624751567840576172e-01) (59, 8.25629711151123046875e-01) (60, 8.08061778545379638672e-01) (61, 2.76809245347976684570e-01) (62, 8.23370695114135742188e-01) (63, 8.82159829139709472656e-01) (64, -2.43522420525550842285e-01) (65, -4.62925463914871215820e-01) (66, 2.87233710289001464844e-01) (67, 6.15706443786621093750e-01) (68, -3.31601053476333618164e-01) (69, 6.30648285150527954102e-02) (70, 1.30321875214576721191e-01) (71, 1.92227348685264587402e-01) (72, 1.75571337342262268066e-01) (73, -3.00858110189437866211e-01) (43, -6.12464308738708496094e-01) (44, -4.51376020908355712891e-01) (45, -5.00412285327911376953e-02) (46, -2.94716674834489822388e-02) (47, -2.56825715303421020508e-01) (48, -5.18762409687042236328e-01) (49, 1.80487751960754394531e-01) (50, -3.14633399248123168945e-02) (51, 8.68352651596069335938e-02) (52, 1.32472026348114013672e+00) (53, -2.05600336194038391113e-01) (54, -1.58409133553504943848e-01) (55, -2.31678947806358337402e-01) (56, 6.10185444355010986328e-01) (57, -3.19795429706573486328e-01) (58, 1.39978244900703430176e-01) (59, -6.74331486225128173828e-02) (60, 3.48089218139648437500e-01) (61, 6.60923495888710021973e-03) (62, 5.26010870933532714844e-01) (63, 1.76349446177482604980e-01) (64, 1.90627604722976684570e-01) (65, -4.53926436603069305420e-03) (66, -3.36486160755157470703e-01) (67, 5.63534237444400787354e-02) (68, -5.48014402389526367188e-01) (69, 5.12078285217285156250e-01) (70, -3.49171638488769531250e-01) (71, -9.66731160879135131836e-02) (72, 2.44163319468498229980e-01) (73, -1.83307483792304992676e-01) (43, -1.40643513202667236328e+00) (44, 1.88240602612495422363e-01) (45, -5.85514366626739501953e-01) (46, 6.39840185642242431641e-01) (47, 4.11212414503097534180e-01) (48, 1.06859755516052246094e+00) (49, -9.95208472013473510742e-02) (50, 1.31988847255706787109e+00) (51, -1.41034853458404541016e+00) (52, 8.06668996810913085938e-01) (53, 2.59537547826766967773e-01) (54, 2.36328333616256713867e-01) (55, -2.44663313031196594238e-01) (56, 7.40390121936798095703e-01) (57, 1.76749184727668762207e-01) (58, 7.25464165210723876953e-01) (59, -3.02641212940216064453e-01) (60, 1.10640335083007812500e+00) (61, -1.20893108844757080078e+00) (62, -2.21972489356994628906e+00) (63, -2.12026858329772949219e+00) (64, -1.43697764724493026733e-02) (65, 4.76966798305511474609e-01) (66, 1.64456176757812500000e+00) (67, 7.79419779777526855469e-01) (68, -7.94595554471015930176e-02) (69, 1.02640426158905029297e+00) (70, -2.58981078863143920898e-01) (71, 2.50902622938156127930e-01) (72, 8.09310197830200195312e-01) (73, 3.60946387052536010742e-01) (43, -8.36955532431602478027e-02) (44, 2.43733429908752441406e+00) (45, 2.06461429595947265625e+00) (46, 1.99436485767364501953e-01) (47, -1.31381750106811523438e+00) (48, -7.47814103960990905762e-02) (49, 2.31856203079223632812e+00) (50, 3.63208562135696411133e-01) (51, 1.43331265449523925781e+00) (52, -1.93153113126754760742e-01) (53, -2.66436710953712463379e-02) (54, -1.64315962791442871094e+00) (55, 2.36771941184997558594e+00) (56, 1.12726914882659912109e+00) (57, -2.81563329696655273438e+00) (58, 3.87913525104522705078e-01) (59, -1.36828255653381347656e+00) (60, 1.11247643828392028809e-01) (61, 7.32421100139617919922e-01) (62, -1.70687496662139892578e-01) (63, -8.55801463127136230469e-01) (64, 1.81174957752227783203e+00) (65, 2.35806965827941894531e+00) (66, -1.27703696489334106445e-01) (67, -7.19265580177307128906e-01) (68, -1.45633351802825927734e+00) (69, -7.34694123268127441406e-01) (70, -1.68204009532928466797e+00) (71, -4.74933815002441406250e+00) (72, 1.58396542072296142578e+00) (73, 5.98486661911010742188e-01) (43, -5.22685289382934570312e-01) (44, 9.11699160933494567871e-02) (45, -9.00472700595855712891e-02) (46, 6.81503891944885253906e-01) (47, 6.35663211345672607422e-01) (48, 5.81935346126556396484e-01) (49, -4.68246778473258018494e-03) (50, -1.40602993965148925781e+00) (51, 2.52913922071456909180e-01) (52, 3.41139614582061767578e-01) (53, 1.94731581211090087891e+00) (54, 3.40738780796527862549e-02) (55, 2.51908272504806518555e-01) (56, -3.93790543079376220703e-01) (57, 1.53988897800445556641e-01) (58, 8.42218458652496337891e-01) (59, 4.37953621149063110352e-01) (60, 8.49052429199218750000e-01) (61, -1.33942784741520881653e-02) (62, 1.36606395244598388672e+00) (63, 1.01546871662139892578e+00) (64, 2.98379153013229370117e-01) (65, -3.00915330648422241211e-01) (66, -7.11054384708404541016e-01) (67, 4.22919660806655883789e-01) (68, -4.25138652324676513672e-01) (69, -6.93214451894164085388e-03) (70, -1.54473930597305297852e-01) (71, -2.61044949293136596680e-01) (72, 3.85588288307189941406e-01) (73, 2.47343945503234863281e+00) (43, 1.18259513378143310547e+00) (44, 1.79901957511901855469e-01) (45, -2.36535161733627319336e-01) (46, 2.06737947463989257812e+00) (47, 1.36942137032747268677e-02) (48, 9.05074894428253173828e-01) (49, -7.03879535198211669922e-01) (50, -2.80701756477355957031e-01) (51, -7.85365164279937744141e-01) (52, 6.33317708969116210938e-01) (53, 1.17566108703613281250e+00) (54, 3.41409295797348022461e-02) (55, 5.56431531906127929688e-01) (56, -3.15168678760528564453e-01) (57, -2.02564090490341186523e-01) (58, 3.06002783775329589844e+00) (59, 2.42322683334350585938e-03) (60, 9.14652943611145019531e-01) (61, 9.29060876369476318359e-01) (62, 1.19696773588657379150e-01) (63, -9.66692194342613220215e-02) (64, 4.98367935419082641602e-01) (65, -1.29913449287414550781e-01) (66, 3.14839029312133789062e+00) (67, -4.25484269857406616211e-01) (68, 3.91892999410629272461e-01) (69, 6.96588307619094848633e-02) (70, -9.42059695720672607422e-01) (71, -1.78158104419708251953e-01) (72, 2.44221642613410949707e-01) (73, -1.55334755778312683105e-01) (43, 4.04380738735198974609e-01) (44, -4.49822932481765747070e-01) (45, 2.92411535978317260742e-01) (46, -3.68129521608352661133e-01) (47, -2.62368607521057128906e+00) (48, 1.87294030189514160156e+00) (49, -5.50480857491493225098e-02) (50, 1.90222418308258056641e+00) (51, -2.13246369361877441406e+00) (52, -1.79499650001525878906e+00) (53, 1.51274132728576660156e+00) (54, -1.93596184253692626953e-01) (55, 4.69326227903366088867e-01) (56, -4.48534302413463592529e-02) (57, -3.47161352634429931641e-01) (58, 4.01858836412429809570e-01) (59, 6.75066471099853515625e-01) (60, 2.43445634841918945312e+00) (61, 1.16650044918060302734e+00) (62, 1.54742205142974853516e+00) (63, 2.06669139862060546875e+00) (64, -1.57546401023864746094e+00) (65, 6.14775121212005615234e-01) (66, 9.28033828735351562500e-01) (67, 9.74970281124114990234e-01) (68, -5.75650453567504882812e-01) (69, 2.33612656593322753906e+00) (70, -1.51573598384857177734e+00) (71, -7.35778033733367919922e-01) (72, -7.66008377075195312500e-01) (73, 6.18428349494934082031e-01)
input_names='a' 'betan' 'bt' 'delta' 'i_coil' 'ip' 'kappa' 'neped' 'r' 'rotation' 'zeffped'
output_names='OUT_P2e_EPED' 'OUT_P2e_rmpsoff' 'OUT_P2e_rmpson' 'OUT_elm_frequency_EPED' 'OUT_elm_frequency_rmpsoff' 'OUT_elm_frequency_rmpson' 'OUT_wte_EPED' 'OUT_wte_rmpsoff' 'OUT_wte_rmpson'
norm_output=0.0 0.0 0.0 0.0 0.0 0.0 0.0 0.0 0.0 0.0 0.0 0.0 0.0 0.0 0.0 0.0 0.0 0.0 0.0 0.0 0.0 0.0 0.0 0.0 0.0 0.0 0.0 0.0 0.0 0.0 0.0 0.0 0.0 0.0 0.0 0.0 0.0 0.0 0.0 0.0 0.0 0.0 0.0 0.0 0.0 0.0 0.0 0.0 0.0 0.0 0.0 0.0 0.0 0.0 0.0 0.0 0.0 0.0 0.0 0.0 0.0 0.0 0.0 0.0 0.0 0.0 0.0 0.0 0.0 0.0 0.0 0.0 0.0 0.0 0.0 0.0 0.0 0.0 0.0 0.0 0.0 0.0 0.0 0.0 0.0 0.0 0.0 0.0 0.0 0.0 0.0 0.0 0.0 0.0 0.0 0.0 0.0 0.0 0.0
MSE= 0.213501259685