FANN_FLO_2.1
num_layers=4
learning_rate=0.700000
connection_rate=1.000000
network_type=0
learning_momentum=0.000000
training_algorithm=2
train_error_function=0
train_stop_function=0
cascade_output_change_fraction=0.010000
quickprop_decay=167.954666
quickprop_mu=1.750000
rprop_increase_factor=1.200000
rprop_decrease_factor=0.500000
rprop_delta_min=0.000000
rprop_delta_max=50.000000
rprop_delta_zero=0.100000
cascade_output_stagnation_epochs=12
cascade_candidate_change_fraction=0.010000
cascade_candidate_stagnation_epochs=12
cascade_max_out_epochs=150
cascade_min_out_epochs=50
cascade_max_cand_epochs=150
cascade_min_cand_epochs=50
cascade_num_candidate_groups=2
bit_fail_limit=3.49999994039535522461e-01
cascade_candidate_limit=1.00000000000000000000e+03
cascade_weight_multiplier=4.00000005960464477539e-01
cascade_activation_functions_count=10
cascade_activation_functions=3 5 7 8 10 11 14 15 16 17
cascade_activation_steepnesses_count=4
cascade_activation_steepnesses=2.50000000000000000000e-01 5.00000000000000000000e-01 7.50000000000000000000e-01 1.00000000000000000000e+00
layer_sizes=12 31 31 10
scale_included=1
scale_mean_in=0.595710 1.725386 1.856146 0.505992 3676.362793 1.428655 1.810080 3.038681 1.739604 -8.041503 1.898420
scale_deviation_in=0.002873 0.364799 0.150563 0.019752 1002.251953 0.206163 0.008729 1.216456 0.020967 7.740559 0.492744
scale_new_min_in=-1.000000 -1.000000 -1.000000 -1.000000 -1.000000 -1.000000 -1.000000 -1.000000 -1.000000 -1.000000 -1.000000
scale_factor_in=1.000000 1.000000 1.000000 1.000000 1.000000 1.000000 1.000000 1.000000 1.000000 1.000000 1.000000
scale_mean_out=0.006885 0.006940 0.006452 0.000000 1.617205 1.805368 0.028493 0.033410 0.029136
scale_deviation_out=0.001293 0.001990 0.002194 0.000001 0.176400 0.429144 0.002952 0.003744 0.008478
scale_new_min_out=-1.000000 -1.000000 -1.000000 -1.000000 -1.000000 -1.000000 -1.000000 -1.000000 -1.000000
scale_factor_out=1.000000 1.000000 1.000000 1.000000 1.000000 1.000000 1.000000 1.000000 1.000000
neurons (num_inputs, activation_function, activation_steepness)=(0, 0, 0.00000000000000000000e+00) (0, 0, 0.00000000000000000000e+00) (0, 0, 0.00000000000000000000e+00) (0, 0, 0.00000000000000000000e+00) (0, 0, 0.00000000000000000000e+00) (0, 0, 0.00000000000000000000e+00) (0, 0, 0.00000000000000000000e+00) (0, 0, 0.00000000000000000000e+00) (0, 0, 0.00000000000000000000e+00) (0, 0, 0.00000000000000000000e+00) (0, 0, 0.00000000000000000000e+00) (0, 0, 0.00000000000000000000e+00) (12, 5, 5.00000000000000000000e-01) (12, 5, 5.00000000000000000000e-01) (12, 5, 5.00000000000000000000e-01) (12, 5, 5.00000000000000000000e-01) (12, 5, 5.00000000000000000000e-01) (12, 5, 5.00000000000000000000e-01) (12, 5, 5.00000000000000000000e-01) (12, 5, 5.00000000000000000000e-01) (12, 5, 5.00000000000000000000e-01) (12, 5, 5.00000000000000000000e-01) (12, 5, 5.00000000000000000000e-01) (12, 5, 5.00000000000000000000e-01) (12, 5, 5.00000000000000000000e-01) (12, 5, 5.00000000000000000000e-01) (12, 5, 5.00000000000000000000e-01) (12, 5, 5.00000000000000000000e-01) (12, 5, 5.00000000000000000000e-01) (12, 5, 5.00000000000000000000e-01) (12, 5, 5.00000000000000000000e-01) (12, 5, 5.00000000000000000000e-01) (12, 5, 5.00000000000000000000e-01) (12, 5, 5.00000000000000000000e-01) (12, 5, 5.00000000000000000000e-01) (12, 5, 5.00000000000000000000e-01) (12, 5, 5.00000000000000000000e-01) (12, 5, 5.00000000000000000000e-01) (12, 5, 5.00000000000000000000e-01) (12, 5, 5.00000000000000000000e-01) (12, 5, 5.00000000000000000000e-01) (12, 5, 5.00000000000000000000e-01) (0, 5, 0.00000000000000000000e+00) (31, 5, 5.00000000000000000000e-01) (31, 5, 5.00000000000000000000e-01) (31, 5, 5.00000000000000000000e-01) (31, 5, 5.00000000000000000000e-01) (31, 5, 5.00000000000000000000e-01) (31, 5, 5.00000000000000000000e-01) (31, 5, 5.00000000000000000000e-01) (31, 5, 5.00000000000000000000e-01) (31, 5, 5.00000000000000000000e-01) (31, 5, 5.00000000000000000000e-01) (31, 5, 5.00000000000000000000e-01) (31, 5, 5.00000000000000000000e-01) (31, 5, 5.00000000000000000000e-01) (31, 5, 5.00000000000000000000e-01) (31, 5, 5.00000000000000000000e-01) (31, 5, 5.00000000000000000000e-01) (31, 5, 5.00000000000000000000e-01) (31, 5, 5.00000000000000000000e-01) (31, 5, 5.00000000000000000000e-01) (31, 5, 5.00000000000000000000e-01) (31, 5, 5.00000000000000000000e-01) (31, 5, 5.00000000000000000000e-01) (31, 5, 5.00000000000000000000e-01) (31, 5, 5.00000000000000000000e-01) (31, 5, 5.00000000000000000000e-01) (31, 5, 5.00000000000000000000e-01) (31, 5, 5.00000000000000000000e-01) (31, 5, 5.00000000000000000000e-01) (31, 5, 5.00000000000000000000e-01) (31, 5, 5.00000000000000000000e-01) (0, 5, 0.00000000000000000000e+00) (31, 0, 5.00000000000000000000e-01) (31, 0, 5.00000000000000000000e-01) (31, 0, 5.00000000000000000000e-01) (31, 0, 5.00000000000000000000e-01) (31, 0, 5.00000000000000000000e-01) (31, 0, 5.00000000000000000000e-01) (31, 0, 5.00000000000000000000e-01) (31, 0, 5.00000000000000000000e-01) (31, 0, 5.00000000000000000000e-01) (0, 0, 0.00000000000000000000e+00)
connections (connected_to_neuron, weight)=(0, 1.20496012270450592041e-01) (1, -4.44050639867782592773e-01) (2, 1.31622624397277832031e+00) (3, 3.29134315252304077148e-01) (4, 1.21508203446865081787e-01) (5, 3.28055918216705322266e-01) (6, -8.74533504247665405273e-03) (7, -1.74843263626098632812e+00) (8, -4.73414175212383270264e-02) (9, -5.01993477344512939453e-01) (10, 7.49737909063696861267e-03) (11, -1.22875797748565673828e+00) (0, 2.56915539503097534180e-01) (1, -3.01714483648538589478e-02) (2, -5.08265376091003417969e-01) (3, -4.09020215272903442383e-01) (4, -4.76644039154052734375e-02) (5, 3.36397498846054077148e-01) (6, -1.33530423045158386230e-01) (7, -7.99979686737060546875e-01) (8, -9.66974496841430664062e-01) (9, -4.84973281621932983398e-01) (10, 5.36574542522430419922e-01) (11, 9.95053410530090332031e-01) (0, -3.61918717622756958008e-01) (1, -3.73665064573287963867e-01) (2, -2.41679713129997253418e-01) (3, -2.01090455055236816406e-01) (4, -9.00747627019882202148e-03) (5, 5.51548540592193603516e-01) (6, 2.32091292738914489746e-01) (7, -5.97322583198547363281e-01) (8, -1.26387107372283935547e+00) (9, -5.19642949104309082031e-01) (10, 4.31019544601440429688e-01) (11, 7.30794519186019897461e-02) (0, -1.11156761646270751953e+00) (1, 1.13651299476623535156e+00) (2, -1.12463724613189697266e+00) (3, -7.54681766033172607422e-01) (4, -4.48433935642242431641e-01) (5, -1.34713158011436462402e-01) (6, -8.01347374916076660156e-01) (7, -2.86513626575469970703e-01) (8, 1.08853793144226074219e+00) (9, -2.84428954124450683594e-01) (10, 1.27522933483123779297e+00) (11, -2.35738500952720642090e-01) (0, 2.19076484441757202148e-01) (1, -4.58481311798095703125e-01) (2, -5.42262569069862365723e-02) (3, 3.29716533422470092773e-01) (4, 3.32140982151031494141e-01) (5, 1.44298589229583740234e+00) (6, 8.56563746929168701172e-01) (7, 2.83139014244079589844e+00) (8, 8.62434804439544677734e-01) (9, -2.08254680037498474121e-01) (10, -7.86516845226287841797e-01) (11, 2.71760773658752441406e+00) (0, 9.73773226141929626465e-02) (1, -8.90731438994407653809e-02) (2, 8.36184978485107421875e-01) (3, 1.58397972583770751953e-01) (4, -2.59530931711196899414e-01) (5, 7.25397706031799316406e-01) (6, -3.54300290346145629883e-02) (7, 8.97438287734985351562e-01) (8, 4.56465005874633789062e-01) (9, 6.53044641017913818359e-01) (10, 2.27480873465538024902e-01) (11, -7.78411149978637695312e-01) (0, 2.49653369188308715820e-01) (1, 3.54317724704742431641e-01) (2, -5.11641144752502441406e-01) (3, 3.16798716783523559570e-01) (4, 1.37542933225631713867e-01) (5, 1.38118088245391845703e+00) (6, -2.41015702486038208008e-01) (7, -3.50261151790618896484e-01) (8, -1.15966483950614929199e-01) (9, 2.89160639047622680664e-01) (10, 1.68255543708801269531e+00) (11, 1.31329703330993652344e+00) (0, -1.21877841651439666748e-01) (1, 6.38797879219055175781e-01) (2, 3.70323032140731811523e-01) (3, -3.11560090631246566772e-02) (4, -1.19950450956821441650e-01) (5, 8.22873637080192565918e-02) (6, -1.35387003421783447266e-01) (7, 8.71552526950836181641e-01) (8, -5.84974527359008789062e-01) (9, -4.43610996007919311523e-01) (10, 5.68995654582977294922e-01) (11, 3.15890848636627197266e-01) (0, 8.43386888504028320312e-01) (1, 1.33844625949859619141e+00) (2, -5.80362915992736816406e-01) (3, 8.95704776048660278320e-02) (4, -5.54026067256927490234e-01) (5, 1.13600349426269531250e+00) (6, 7.93676018714904785156e-01) (7, 8.92044186592102050781e-01) (8, 1.21765232086181640625e+00) (9, 1.26585865020751953125e+00) (10, -7.21685409545898437500e-01) (11, -1.12507231533527374268e-01) (0, 5.58507382869720458984e-01) (1, 4.90732848644256591797e-01) (2, -1.14153933525085449219e+00) (3, 1.26796555519104003906e+00) (4, 1.27155399322509765625e+00) (5, -1.17453491687774658203e+00) (6, 1.91928520798683166504e-01) (7, 4.17908206582069396973e-02) (8, 9.13830637931823730469e-01) (9, 6.06337726116180419922e-01) (10, 3.01626741886138916016e-01) (11, 7.89729058742523193359e-01) (0, -1.02249515056610107422e+00) (1, 2.77227163314819335938e-01) (2, 1.16924810409545898438e+00) (3, 8.85182738304138183594e-01) (4, -1.41644850373268127441e-01) (5, 1.89802646636962890625e+00) (6, -7.64539182186126708984e-01) (7, 1.59610474109649658203e+00) (8, 4.16937291622161865234e-01) (9, 6.17282211780548095703e-01) (10, 2.45758697390556335449e-01) (11, -9.85642015933990478516e-01) (0, 9.93814826011657714844e-01) (1, -7.76445865631103515625e-02) (2, 1.23560678958892822266e+00) (3, 7.16063659638166427612e-04) (4, 3.22814732789993286133e-01) (5, 1.93169510364532470703e+00) (6, 5.82672357559204101562e-01) (7, 2.93022394180297851562e-01) (8, 5.29081881046295166016e-01) (9, 9.35029745101928710938e-01) (10, -2.58694797754287719727e-01) (11, -2.17278885841369628906e+00) (0, 9.48046982288360595703e-01) (1, -1.96836650371551513672e-01) (2, 1.61915743350982666016e+00) (3, 2.57171034812927246094e-01) (4, 2.50997692346572875977e-01) (5, -1.67219734191894531250e+00) (6, -2.24772885441780090332e-01) (7, 1.78612887859344482422e+00) (8, -7.16039955615997314453e-01) (9, -1.19731254875659942627e-01) (10, -5.21428763866424560547e-01) (11, 2.21291637420654296875e+00) (0, 1.93041205406188964844e-01) (1, 2.67096340656280517578e-01) (2, 8.89123082160949707031e-01) (3, -6.45911395549774169922e-01) (4, -9.29710507392883300781e-01) (5, -1.18543677031993865967e-01) (6, 1.04239039123058319092e-01) (7, -1.00545513629913330078e+00) (8, 1.29435455799102783203e+00) (9, 8.52232754230499267578e-01) (10, -2.82141923904418945312e-01) (11, 2.80875384807586669922e-01) (0, 2.07750058174133300781e+00) (1, 6.21250104904174804688e+00) (2, 6.00760078430175781250e+00) (3, 2.29677343368530273438e+00) (4, 4.44672060012817382812e+00) (5, 7.94847822189331054688e+00) (6, -1.26868438720703125000e+00) (7, 1.92664265632629394531e+00) (8, 3.18693065643310546875e+00) (9, 4.38584297895431518555e-01) (10, -2.07189857959747314453e-01) (11, -2.79293322563171386719e+00) (0, 3.68768632411956787109e-01) (1, -7.16430306434631347656e-01) (2, 2.31192931532859802246e-01) (3, 1.02853095531463623047e+00) (4, 6.82918488979339599609e-01) (5, -1.09528064727783203125e+00) (6, 3.71101468801498413086e-01) (7, -5.15194952487945556641e-01) (8, 7.04126179218292236328e-01) (9, -4.94915902614593505859e-01) (10, 1.19296155869960784912e-01) (11, -8.36222887039184570312e-01) (0, -7.92183801531791687012e-02) (1, -1.50092765688896179199e-01) (2, -4.57431852817535400391e-01) (3, 1.23312696814537048340e-02) (4, 8.69523435831069946289e-02) (5, 1.13513696193695068359e+00) (6, -1.59381069242954254150e-02) (7, -4.07010018825531005859e-01) (8, -7.85401847679167985916e-04) (9, 1.03438459336757659912e-01) (10, -4.55515474081039428711e-01) (11, 1.21542930603027343750e+00) (0, 6.28130257129669189453e-01) (1, -5.25934696197509765625e-01) (2, 1.07090413570404052734e+00) (3, -3.70490729808807373047e-01) (4, -8.73536527156829833984e-01) (5, 1.85570883750915527344e+00) (6, -1.54393747448921203613e-01) (7, 1.13090135157108306885e-01) (8, 7.05883562564849853516e-01) (9, 2.86790907382965087891e-01) (10, -3.97200107574462890625e-01) (11, 2.48575973510742187500e+00) (0, 1.42270579934120178223e-01) (1, -5.33554315567016601562e-01) (2, -1.34970998764038085938e+00) (3, -3.15112441778182983398e-01) (4, 7.91553318500518798828e-01) (5, 3.38741898536682128906e+00) (6, -8.38023647665977478027e-02) (7, -2.28327250480651855469e+00) (8, 9.71848368644714355469e-01) (9, -7.32333660125732421875e-02) (10, -2.75683313608169555664e-01) (11, -1.74431061744689941406e+00) (0, 2.75410711765289306641e-01) (1, 4.78531867265701293945e-01) (2, 1.96082246303558349609e+00) (3, 1.07840514183044433594e+00) (4, 1.92074090242385864258e-01) (5, 3.08360844850540161133e-01) (6, 2.88300365209579467773e-01) (7, 1.43709170818328857422e+00) (8, -1.58044323325157165527e-01) (9, 7.18276977539062500000e-01) (10, 8.11984315514564514160e-02) (11, -3.43563222885131835938e+00) (0, 2.26236194372177124023e-01) (1, -7.35772326588630676270e-02) (2, -5.62354326248168945312e-01) (3, 1.32350826263427734375e+00) (4, 1.90701439976692199707e-01) (5, 7.34710931777954101562e-01) (6, 6.85731098055839538574e-02) (7, -2.02464723587036132812e+00) (8, -1.41222059726715087891e+00) (9, -3.29588681459426879883e-01) (10, -4.74255055189132690430e-01) (11, 2.11652970314025878906e+00) (0, -5.35095989704132080078e-01) (1, -5.51204442977905273438e-01) (2, -1.29424571990966796875e+01) (3, 2.95373129844665527344e+00) (4, 1.65374112129211425781e+00) (5, 2.97719764709472656250e+00) (6, 1.23314812779426574707e-01) (7, -4.37529325485229492188e-01) (8, -5.78181266784667968750e-01) (9, 8.50354373455047607422e-01) (10, -7.76206031441688537598e-02) (11, 2.26660299301147460938e+00) (0, 5.56910820305347442627e-02) (1, -1.31175041198730468750e+00) (2, -2.59031677246093750000e+00) (3, 4.07713562250137329102e-01) (4, -4.53402191400527954102e-01) (5, 5.55308386683464050293e-02) (6, 3.48047763109207153320e-01) (7, 7.48053848743438720703e-01) (8, 1.22296047210693359375e+00) (9, -2.09216005168855190277e-03) (10, -7.25076019763946533203e-01) (11, 6.58884167671203613281e-01) (0, 2.33628213405609130859e-01) (1, -1.10350692272186279297e+00) (2, -4.43589121103286743164e-01) (3, 7.62145102024078369141e-01) (4, -1.59102678298950195312e-01) (5, -2.35091543197631835938e+00) (6, -8.55759754776954650879e-02) (7, 2.49204802513122558594e+00) (8, -1.02112329006195068359e+00) (9, -4.39085811376571655273e-01) (10, 1.19019597768783569336e-01) (11, -1.93050527572631835938e+00) (0, -4.59142088890075683594e-01) (1, 3.31342667341232299805e-02) (2, 1.13192431628704071045e-01) (3, -3.99302035570144653320e-01) (4, 6.62161648273468017578e-01) (5, -2.61975109577178955078e-01) (6, -1.14931665360927581787e-01) (7, 1.55783683061599731445e-01) (8, 9.15019690990447998047e-01) (9, 1.07442952692508697510e-01) (10, 5.64120411872863769531e-01) (11, -1.11198532581329345703e+00) (0, 1.54771065711975097656e+00) (1, 1.22841906547546386719e+00) (2, 2.15601682662963867188e+00) (3, -1.46150827407836914062e+00) (4, -3.34508943557739257812e+00) (5, 2.57309293746948242188e+00) (6, 2.43096292018890380859e-01) (7, 3.23518776893615722656e+00) (8, 5.11579871177673339844e-01) (9, 1.62973237037658691406e+00) (10, -1.08400714397430419922e+00) (11, 1.64049339294433593750e+00) (0, -6.73964321613311767578e-02) (1, 9.39418673515319824219e-02) (2, 1.29983711242675781250e+00) (3, -1.31065309047698974609e-01) (4, 3.67254823446273803711e-01) (5, 9.23205077648162841797e-01) (6, -7.32291257008910179138e-03) (7, 7.61934369802474975586e-02) (8, 1.30569994449615478516e+00) (9, -6.98362529277801513672e-01) (10, 3.30481588840484619141e-01) (11, 1.30823731422424316406e+00) (0, -2.01862350106239318848e-01) (1, -2.48408168554306030273e-01) (2, 8.09221267700195312500e-01) (3, 4.26702976226806640625e-01) (4, 1.72498241066932678223e-01) (5, -3.45366418361663818359e-01) (6, -2.14475825428962707520e-01) (7, 2.92058587074279785156e-01) (8, -9.31740403175354003906e-02) (9, 1.79510056972503662109e-01) (10, 3.76018702983856201172e-01) (11, 3.30575883388519287109e-01) (0, -5.14671087265014648438e-01) (1, 5.76094388961791992188e+00) (2, 6.36413621902465820312e+00) (3, 7.47918319702148437500e+00) (4, -1.06930637359619140625e+01) (5, 1.85282278060913085938e+00) (6, 8.04995179176330566406e-01) (7, 1.79715938568115234375e+01) (8, -1.71121931076049804688e+00) (9, 2.74116945266723632812e+00) (10, -3.61556577682495117188e+00) (11, 8.38632869720458984375e+00) (0, 2.88336217403411865234e-01) (1, 1.83791124820709228516e+00) (2, 1.12039840221405029297e+00) (3, -1.51688475161790847778e-02) (4, 2.45257690548896789551e-01) (5, 9.31719303131103515625e-01) (6, 4.11640912294387817383e-01) (7, 1.35036602616310119629e-01) (8, -8.01418662071228027344e-01) (9, 2.48622164130210876465e-01) (10, -7.16485142707824707031e-01) (11, 1.04256248474121093750e+00) (12, 1.22150766849517822266e+00) (13, 3.59829634428024291992e-01) (14, -2.43735983967781066895e-01) (15, -1.09076082706451416016e+00) (16, -1.29306949675083160400e-02) (17, 1.98420429229736328125e+00) (18, 1.38953685760498046875e+00) (19, 2.70498394966125488281e+00) (20, -3.06469768285751342773e-01) (21, -8.64636480808258056641e-01) (22, -1.07721996307373046875e+00) (23, -2.40676954388618469238e-01) (24, 5.04172503948211669922e-01) (25, 1.33442628383636474609e+00) (26, 1.89443454146385192871e-01) (27, 1.21893012523651123047e+00) (28, -5.23770414292812347412e-02) (29, -8.81272614002227783203e-01) (30, 5.64225554466247558594e-01) (31, 9.37956333160400390625e-01) (32, -1.28870415687561035156e+00) (33, 5.80021381378173828125e-01) (34, 1.65182483196258544922e+00) (35, 4.91534531116485595703e-01) (36, 4.47957664728164672852e-01) (37, -1.20862647891044616699e-01) (38, 8.08721005916595458984e-01) (39, 1.83272525668144226074e-01) (40, -5.83432853221893310547e-01) (41, -2.90534824132919311523e-01) (42, -3.34113882854580879211e-03) (12, 7.94838190078735351562e-01) (13, -2.15954804420471191406e+00) (14, -1.32250636816024780273e-01) (15, -2.48228296637535095215e-01) (16, 1.54254901409149169922e+00) (17, -1.69474565982818603516e+00) (18, 2.16361975669860839844e+00) (19, -2.34635806083679199219e+00) (20, -2.77826637029647827148e-01) (21, 1.39659047126770019531e+00) (22, 1.12362019717693328857e-01) (23, 1.04599356651306152344e+00) (24, 7.33784317970275878906e-01) (25, 2.81433510780334472656e+00) (26, 8.34031850099563598633e-02) (27, 1.27115666866302490234e+00) (28, -4.85350489616394042969e-01) (29, 1.83372211456298828125e+00) (30, 7.91506350040435791016e-01) (31, 5.92446029186248779297e-01) (32, 1.34049463272094726562e+00) (33, 5.44383168220520019531e-01) (34, -1.67160987854003906250e+00) (35, 2.40558958053588867188e+00) (36, 2.01148700714111328125e+00) (37, -1.32006907463073730469e+00) (38, -3.79361957311630249023e-01) (39, 1.62577271461486816406e+00) (40, -2.63037347793579101562e+00) (41, -1.48644709587097167969e+00) (42, -7.37259566783905029297e-01) (12, -3.24292987585067749023e-01) (13, 1.79728484153747558594e+00) (14, 3.42519134283065795898e-01) (15, 1.29140213131904602051e-01) (16, 2.22132846713066101074e-01) (17, 3.44437777996063232422e-01) (18, 6.87735259532928466797e-01) (19, -3.43349128961563110352e-01) (20, 4.14689332246780395508e-02) (21, 1.07013428211212158203e+00) (22, 2.08595037460327148438e+00) (23, -1.93104013800621032715e-01) (24, -6.37562692165374755859e-01) (25, -1.61452740430831909180e-01) (26, 1.95757403969764709473e-01) (27, 3.35617363452911376953e-01) (28, 1.65360295772552490234e+00) (29, -1.15682385861873626709e-01) (30, 1.01947677135467529297e+00) (31, -7.60368287563323974609e-01) (32, -6.34718164801597595215e-02) (33, 1.39716470241546630859e+00) (34, 1.35516428947448730469e+00) (35, -2.20191359519958496094e-01) (36, 2.67174988985061645508e-01) (37, 1.47628569602966308594e+00) (38, -2.91306078433990478516e-01) (39, -2.90367841720581054688e-01) (40, -1.82019805908203125000e+00) (41, -2.72431612014770507812e-01) (42, -4.43437546491622924805e-01) (12, -2.51569151878356933594e+00) (13, -3.26503515243530273438e-01) (14, 2.27704092860221862793e-01) (15, -8.32687139511108398438e-01) (16, -7.14115381240844726562e-01) (17, 5.04779219627380371094e-01) (18, -1.18354952335357666016e+00) (19, 4.62178897857666015625e+00) (20, -5.55547297000885009766e-01) (21, -7.09745809435844421387e-02) (22, -3.32869815826416015625e+00) (23, 1.44597423076629638672e+00) (24, -3.10140452347695827484e-03) (25, 1.37525713443756103516e+00) (26, -1.99151277542114257812e-01) (27, -1.29412722587585449219e+00) (28, -1.87850129604339599609e+00) (29, 1.20228958129882812500e+00) (30, 8.71821820735931396484e-01) (31, 3.09071213006973266602e-01) (32, 3.92362451553344726562e+00) (33, 1.49428713321685791016e+00) (34, 6.26890778541564941406e-01) (35, 4.14255231618881225586e-01) (36, 1.12660121917724609375e+00) (37, 9.22408401966094970703e-01) (38, -3.62209057807922363281e+00) (39, 6.04848432540893554688e+00) (40, 1.15469396114349365234e+00) (41, 2.67211151123046875000e+00) (42, -5.32532513141632080078e-01) (12, 9.08565342426300048828e-01) (13, -9.86787378787994384766e-01) (14, -1.05180978775024414062e+00) (15, 1.14759516716003417969e+00) (16, 9.42199707031250000000e-01) (17, 8.27535986900329589844e-01) (18, -5.11397346854209899902e-02) (19, 2.16723155975341796875e+00) (20, -2.81325268745422363281e+00) (21, 1.44153952598571777344e+00) (22, -2.28684663772583007812e+00) (23, 8.27635169029235839844e-01) (24, -2.76883095502853393555e-01) (25, 1.69306743144989013672e+00) (26, -8.37769582867622375488e-02) (27, 1.41232624650001525879e-01) (28, 1.21316301822662353516e+00) (29, 9.92469191551208496094e-01) (30, 4.80764091014862060547e-01) (31, -1.16658198833465576172e+00) (32, 1.33194363117218017578e+00) (33, -6.48977696895599365234e-01) (34, -9.08835530281066894531e-01) (35, -1.77357232570648193359e+00) (36, 1.05889952182769775391e+00) (37, 1.04452562332153320312e+00) (38, -1.35004544258117675781e+00) (39, 3.63791525363922119141e-01) (40, -5.15315413475036621094e-01) (41, -4.14227455854415893555e-01) (42, 9.94718670845031738281e-01) (12, 9.19049620628356933594e-01) (13, -7.87657946348190307617e-02) (14, 2.07508504390716552734e-01) (15, 1.28320762887597084045e-02) (16, 7.58278667926788330078e-01) (17, -8.12989100813865661621e-02) (18, 6.99825465679168701172e-01) (19, 9.02370274066925048828e-01) (20, 5.21460235118865966797e-01) (21, -5.67711174488067626953e-01) (22, -1.09787844121456146240e-01) (23, -8.14342796802520751953e-01) (24, -5.98367333412170410156e-01) (25, 1.36504578590393066406e+00) (26, -5.58814048767089843750e-01) (27, 6.10411345958709716797e-01) (28, -4.23106402158737182617e-01) (29, 1.20142161846160888672e+00) (30, 6.63785696029663085938e-01) (31, 5.81848800182342529297e-01) (32, 1.77850604057312011719e-01) (33, 3.41009140014648437500e-01) (34, 7.06144154071807861328e-01) (35, 4.29164111614227294922e-01) (36, 7.87339806556701660156e-02) (37, 7.44247198104858398438e-01) (38, 1.48657798767089843750e+00) (39, 1.84367048740386962891e+00) (40, -7.09863424301147460938e-01) (41, 8.98409128189086914062e-01) (42, 5.79665660858154296875e-01) (12, 2.39030957221984863281e-01) (13, 1.63315200805664062500e+00) (14, 1.92372456192970275879e-01) (15, -4.75258797407150268555e-01) (16, 4.15819846093654632568e-02) (17, 5.96938371658325195312e-01) (18, 8.69109779596328735352e-02) (19, -1.96838214993476867676e-01) (20, -3.74831974506378173828e-01) (21, 1.13603360950946807861e-01) (22, -2.77491986751556396484e-01) (23, -4.90618765354156494141e-01) (24, -6.57516181468963623047e-01) (25, 6.13600909709930419922e-01) (26, 8.72439086437225341797e-01) (27, -6.85460329055786132812e-01) (28, 1.48524761199951171875e+00) (29, 1.82845234870910644531e+00) (30, -4.95467901229858398438e-01) (31, -9.11937713623046875000e-01) (32, 7.70916044712066650391e-01) (33, -1.23972088098526000977e-01) (34, -5.37892011925578117371e-03) (35, -1.16477155685424804688e+00) (36, -2.52957201004028320312e+00) (37, -1.54727959632873535156e+00) (38, 4.86832559108734130859e-01) (39, 1.00209963321685791016e+00) (40, 8.04378837347030639648e-02) (41, -1.72170653939247131348e-01) (42, 1.56368231773376464844e+00) (12, 1.55874478816986083984e+00) (13, -1.57075202465057373047e+00) (14, 4.84180420637130737305e-01) (15, -1.03657014667987823486e-01) (16, -1.55830740928649902344e-01) (17, 7.67083168029785156250e-01) (18, 2.75088816881179809570e-01) (19, 8.27448189258575439453e-01) (20, 1.49597257375717163086e-01) (21, -2.43159513920545578003e-02) (22, 1.84973084926605224609e+00) (23, 1.06299281120300292969e+00) (24, 3.53415876626968383789e-01) (25, -5.71706652641296386719e-01) (26, -4.16842728853225708008e-01) (27, 1.26728689670562744141e+00) (28, 3.99364382028579711914e-01) (29, 6.56460046768188476562e-01) (30, 1.38199388980865478516e-01) (31, -1.52009502053260803223e-01) (32, -2.42595061659812927246e-01) (33, -2.50442981719970703125e-01) (34, -3.29005002975463867188e-01) (35, 3.62394303083419799805e-01) (36, -5.36941111087799072266e-01) (37, 7.76059269905090332031e-01) (38, -4.64836329221725463867e-01) (39, -4.26799535751342773438e+00) (40, 8.45592170953750610352e-02) (41, 8.25154781341552734375e-01) (42, -1.47391521930694580078e+00) (12, 3.54396438598632812500e+00) (13, -2.34102815389633178711e-01) (14, -3.41787308454513549805e-01) (15, 1.40747237205505371094e+00) (16, 6.61808311939239501953e-01) (17, 2.91781723499298095703e-01) (18, 3.42125982046127319336e-01) (19, 3.76308038830757141113e-02) (20, 6.62039279937744140625e-01) (21, 3.82229238748550415039e-01) (22, -2.67721271514892578125e+00) (23, -1.90337657928466796875e-01) (24, 5.87929129600524902344e-01) (25, 2.31610918045043945312e+00) (26, -1.89576876163482666016e+00) (27, -1.67758989334106445312e+00) (28, 2.75996184349060058594e+00) (29, -7.11010158061981201172e-01) (30, 1.20960307121276855469e+00) (31, -1.18978095054626464844e+00) (32, 2.66879856586456298828e-01) (33, 1.16311442852020263672e+00) (34, 2.88833002559840679169e-03) (35, 2.51735258102416992188e+00) (36, 6.91782236099243164062e-01) (37, -1.59373390674591064453e+00) (38, 1.91392230987548828125e+00) (39, 1.56907451152801513672e+00) (40, -1.15672397613525390625e+00) (41, 2.62177109718322753906e-01) (42, -2.92251110076904296875e-01) (12, -3.72035384178161621094e-01) (13, -9.68733251094818115234e-01) (14, 2.21154189109802246094e+00) (15, -3.24490845203399658203e-01) (16, 7.75377690792083740234e-01) (17, 8.43697130680084228516e-01) (18, 1.60193085670471191406e-01) (19, 1.94641935825347900391e+00) (20, 1.09673130512237548828e+00) (21, -8.77769052982330322266e-01) (22, 1.11948978900909423828e+00) (23, -2.86754399538040161133e-01) (24, 1.06914770603179931641e+00) (25, -9.54370424151420593262e-02) (26, 3.47517937421798706055e-01) (27, -2.48415052890777587891e-01) (28, 1.42186868190765380859e+00) (29, 8.49451661109924316406e-01) (30, 1.00479459762573242188e+00) (31, -1.74652695655822753906e-01) (32, -1.01743614673614501953e+00) (33, -1.73508554697036743164e-01) (34, -8.34894031286239624023e-02) (35, 8.10820817947387695312e-01) (36, -1.76736688613891601562e+00) (37, 9.93390738964080810547e-01) (38, -5.94523444306105375290e-04) (39, 1.06631100177764892578e+00) (40, -6.95003569126129150391e-01) (41, 5.89711070060729980469e-01) (42, -1.05832934379577636719e+00) (12, 1.94116914272308349609e+00) (13, 6.93103909492492675781e-01) (14, 4.91416066884994506836e-01) (15, 3.19655328989028930664e-01) (16, 8.02074491977691650391e-01) (17, -1.19808340072631835938e+00) (18, 5.80355525016784667969e-01) (19, -6.30956590175628662109e-01) (20, 1.66077852249145507812e-01) (21, 5.97364068031311035156e-01) (22, 7.14024305343627929688e-01) (23, 1.40602201223373413086e-01) (24, 1.71485531330108642578e+00) (25, 2.36140057444572448730e-01) (26, 2.03368082642555236816e-01) (27, -1.81217238306999206543e-01) (28, 4.89748805761337280273e-01) (29, -5.79273939132690429688e-01) (30, 2.54747182130813598633e-01) (31, 4.35278475284576416016e-01) (32, -1.31380534172058105469e+00) (33, 1.25606834888458251953e-01) (34, 6.44121885299682617188e-01) (35, 1.47319126129150390625e+00) (36, 6.25327706336975097656e-01) (37, -8.02547931671142578125e-01) (38, 5.18954038619995117188e-01) (39, 5.89708566665649414062e-01) (40, -1.25129497051239013672e+00) (41, -5.69857954978942871094e-01) (42, 3.18002581596374511719e-01) (12, -7.92690217494964599609e-01) (13, 2.25526079535484313965e-01) (14, 1.41499280929565429688e+00) (15, 6.04709923267364501953e-01) (16, 1.13374006748199462891e+00) (17, 1.53502476215362548828e+00) (18, -1.22039867565035820007e-02) (19, -1.10307586193084716797e+00) (20, 7.46697783470153808594e-01) (21, -7.56860256195068359375e-01) (22, 5.19227266311645507812e-01) (23, -1.51280760765075683594e-02) (24, 1.44791555404663085938e+00) (25, -8.87802660465240478516e-01) (26, 1.80404663085937500000e+00) (27, 1.38338506221771240234e+00) (28, -3.78403514623641967773e-01) (29, -6.96961224079132080078e-01) (30, 1.45986735820770263672e+00) (31, 1.56802785396575927734e+00) (32, -5.44364809989929199219e-01) (33, 1.65872907638549804688e+00) (34, -3.00593435764312744141e-01) (35, -6.75100266933441162109e-01) (36, 7.78262436389923095703e-01) (37, -4.33202654123306274414e-01) (38, 4.31971326470375061035e-02) (39, -7.31957554817199707031e-01) (40, 7.05073893070220947266e-01) (41, -4.30690109729766845703e-01) (42, -3.19998012855648994446e-03) (12, 1.77760970592498779297e+00) (13, 1.72695115208625793457e-01) (14, 5.54285645484924316406e-01) (15, -8.04245322942733764648e-02) (16, -2.11110040545463562012e-01) (17, -3.12598824501037597656e-01) (18, -4.95197087526321411133e-01) (19, -6.24222934246063232422e-01) (20, 7.19094991683959960938e-01) (21, -3.05888086557388305664e-01) (22, 3.52633535861968994141e-01) (23, -1.92835051566362380981e-02) (24, 3.37407916784286499023e-01) (25, 5.69411516189575195312e-01) (26, 5.45432925224304199219e-01) (27, 1.06482875347137451172e+00) (28, -2.35050225257873535156e+00) (29, -2.34703645110130310059e-01) (30, 9.92959976196289062500e-01) (31, 5.28698921203613281250e-01) (32, -4.03636753559112548828e-01) (33, 2.30791401118040084839e-02) (34, 4.87632781267166137695e-01) (35, 7.84921944141387939453e-01) (36, 1.63439178466796875000e+00) (37, 8.38623821735382080078e-01) (38, -1.29020655155181884766e+00) (39, 8.61176326870918273926e-02) (40, 5.49727678298950195312e-01) (41, -3.07205140590667724609e-01) (42, -1.20987629890441894531e+00) (12, 4.06501442193984985352e-01) (13, 6.01208209991455078125e-01) (14, 1.00779271125793457031e+00) (15, -1.34985196590423583984e+00) (16, 1.11557316780090332031e+00) (17, 3.77713584899902343750e+00) (18, 1.49655923247337341309e-01) (19, 7.47023820877075195312e-01) (20, 1.21994674205780029297e+00) (21, 2.52575248479843139648e-01) (22, 1.17546617984771728516e+00) (23, -1.46475684642791748047e+00) (24, 4.74333822727203369141e-01) (25, 3.35562682151794433594e+00) (26, -4.45058196783065795898e-01) (27, 9.16311681270599365234e-01) (28, -2.34744548797607421875e-02) (29, 5.68144500255584716797e-01) (30, 7.80940532684326171875e-01) (31, 8.35503637790679931641e-02) (32, -1.00624859333038330078e-01) (33, 1.25183904170989990234e+00) (34, 1.00374662876129150391e+00) (35, -1.32963013648986816406e+00) (36, 2.08102750778198242188e+00) (37, -1.79214209318161010742e-01) (38, 2.96214699745178222656e+00) (39, -2.95571422576904296875e+00) (40, -2.11029767990112304688e+00) (41, 1.45013928413391113281e+00) (42, -2.93803125619888305664e-01) (12, 8.19082140922546386719e-01) (13, 8.10732841491699218750e-01) (14, 1.66576910018920898438e+00) (15, -3.50725263357162475586e-01) (16, 6.68709158897399902344e-01) (17, 4.93312001228332519531e-01) (18, 7.16313958168029785156e-01) (19, 3.12105119228363037109e-01) (20, 1.69609859585762023926e-02) (21, 4.73382055759429931641e-01) (22, 9.13666486740112304688e-01) (23, 2.44910612702369689941e-01) (24, -7.50892534852027893066e-02) (25, 2.50374746322631835938e+00) (26, -5.03742456436157226562e-01) (27, 1.38354444503784179688e+00) (28, -9.29925024509429931641e-01) (29, 4.28558617830276489258e-01) (30, 8.90646576881408691406e-01) (31, 2.21306681632995605469e-01) (32, 1.18059456348419189453e+00) (33, 6.60365939140319824219e-01) (34, 8.77422839403152465820e-02) (35, 6.80760681629180908203e-01) (36, 1.77812707424163818359e+00) (37, 9.73457098007202148438e-01) (38, -1.21184992790222167969e+00) (39, 6.06850922107696533203e-01) (40, -1.59388780593872070312e-01) (41, -6.83759748935699462891e-01) (42, 6.73834919929504394531e-01) (12, -7.52932369709014892578e-01) (13, 5.00649921596050262451e-02) (14, -1.30922818183898925781e+00) (15, -4.76059317588806152344e-01) (16, -1.41625726222991943359e+00) (17, -1.20417797565460205078e+00) (18, 2.11207389831542968750e-01) (19, -3.83858990669250488281e+00) (20, 2.65850871801376342773e-01) (21, -1.18523780256509780884e-02) (22, 3.73612344264984130859e-01) (23, 1.12229239940643310547e+00) (24, 2.74859741330146789551e-02) (25, 2.26997900009155273438e+00) (26, -1.29726931452751159668e-01) (27, 2.25929692387580871582e-01) (28, -4.02068376541137695312e+00) (29, -1.91660785675048828125e+00) (30, 1.13826239109039306641e+00) (31, -1.46677482128143310547e+00) (32, -1.11375391483306884766e+00) (33, -5.09398937225341796875e-01) (34, 3.95349323749542236328e-01) (35, 1.11656200885772705078e+00) (36, -2.34583422541618347168e-01) (37, 6.61187946796417236328e-01) (38, 2.41377145051956176758e-01) (39, 7.31302917003631591797e-01) (40, 5.36034405231475830078e-01) (41, -1.89224922657012939453e+00) (42, 1.94606915116310119629e-01) (12, -1.33500969409942626953e+00) (13, -1.59500271081924438477e-01) (14, 2.56182575225830078125e+00) (15, 4.11447376012802124023e-01) (16, 1.29172062873840332031e+00) (17, 6.31385147571563720703e-01) (18, 1.18438148498535156250e+00) (19, 1.20854474604129791260e-01) (20, -6.10622882843017578125e-01) (21, -1.92409098148345947266e-01) (22, 1.41481697559356689453e+00) (23, -7.80783653259277343750e-01) (24, 7.09276795387268066406e-01) (25, 3.18118953704833984375e+00) (26, -4.52668339014053344727e-01) (27, 1.71746051311492919922e+00) (28, 6.00295066833496093750e-01) (29, 5.99493205547332763672e-01) (30, -6.66670262813568115234e-01) (31, -1.97577953338623046875e-01) (32, -5.11030405759811401367e-02) (33, -1.64388489723205566406e+00) (34, 7.83528268337249755859e-01) (35, -1.49629235267639160156e+00) (36, 5.67831695079803466797e-01) (37, 1.59422159194946289062e+00) (38, 9.99111115932464599609e-01) (39, 2.20840528607368469238e-01) (40, -5.24399042129516601562e-01) (41, -6.25796735286712646484e-01) (42, 2.35349869728088378906e+00) (12, 2.85772037506103515625e+00) (13, 9.31928753852844238281e-01) (14, 3.35578590631484985352e-01) (15, -1.11268281936645507812e+00) (16, -1.60975933074951171875e-01) (17, -5.44264733791351318359e-01) (18, 7.15302824974060058594e-01) (19, -5.26192903518676757812e-01) (20, 1.40253543853759765625e+00) (21, 2.36828610301017761230e-01) (22, 1.16936075687408447266e+00) (23, -2.21325922012329101562e+00) (24, -7.86665201187133789062e-01) (25, 1.36965310573577880859e+00) (26, -3.12100857496261596680e-01) (27, 1.66714525222778320312e+00) (28, -5.11224567890167236328e-01) (29, 8.22207272052764892578e-01) (30, -1.12981188297271728516e+00) (31, 2.39387154579162597656e-01) (32, 1.22389793395996093750e+00) (33, -1.15833067893981933594e+00) (34, 2.23582196235656738281e+00) (35, 4.25239592790603637695e-01) (36, 1.91144913434982299805e-01) (37, 9.78245198726654052734e-01) (38, -4.17159236967563629150e-02) (39, 1.23548829555511474609e+00) (40, -5.93417584896087646484e-01) (41, 8.47993314266204833984e-01) (42, -2.60868936777114868164e-01) (12, -2.60952532291412353516e-01) (13, 1.61572408676147460938e+00) (14, 1.04663729667663574219e+00) (15, 9.05588492751121520996e-02) (16, 4.92965787649154663086e-01) (17, 1.23880994319915771484e+00) (18, 5.47152310609817504883e-02) (19, -4.00494992733001708984e-01) (20, 3.59041988849639892578e-01) (21, -1.76535964012145996094e-01) (22, 8.00744354724884033203e-01) (23, -7.92918279767036437988e-02) (24, -3.55339884757995605469e-01) (25, 2.90675640106201171875e-01) (26, -2.74278849363327026367e-01) (27, -1.96515187621116638184e-01) (28, 9.50099349021911621094e-01) (29, 7.40368366241455078125e-01) (30, 3.79538297653198242188e-01) (31, -3.57765331864356994629e-02) (32, -5.39098419249057769775e-02) (33, 9.36390757560729980469e-02) (34, 6.08787119388580322266e-01) (35, -3.09449553489685058594e-01) (36, 1.03903722763061523438e+00) (37, -2.21607059240341186523e-01) (38, -1.84640064835548400879e-01) (39, -4.30848538875579833984e-01) (40, -2.18428537249565124512e-01) (41, -6.75629258155822753906e-01) (42, -2.49823778867721557617e-01) (12, 8.41648519039154052734e-01) (13, 4.45894330739974975586e-01) (14, -1.26850032806396484375e+00) (15, 7.30207443237304687500e-01) (16, 1.51100659370422363281e+00) (17, 7.89144456386566162109e-01) (18, 9.27328541874885559082e-02) (19, 1.25622177124023437500e+00) (20, -1.31646692752838134766e+00) (21, 4.09557342529296875000e-01) (22, -2.08713459968566894531e+00) (23, -1.43459415435791015625e+00) (24, -9.13644909858703613281e-01) (25, 1.08194045722484588623e-01) (26, -2.28475618362426757812e+00) (27, -8.70553314685821533203e-01) (28, 1.15853726863861083984e+00) (29, -2.06664070487022399902e-01) (30, 3.60099172592163085938e+00) (31, 1.93243637681007385254e-01) (32, 1.50932919979095458984e+00) (33, -5.87266683578491210938e-01) (34, 9.05918359756469726562e-01) (35, 4.39888328313827514648e-01) (36, 1.35519409179687500000e+00) (37, 1.66793775558471679688e+00) (38, 1.23776286840438842773e-01) (39, 1.94112038612365722656e+00) (40, -1.13324439525604248047e+00) (41, -9.37013551592826843262e-02) (42, -1.24785244464874267578e+00) (12, 8.99606883525848388672e-01) (13, -4.87578928470611572266e-01) (14, -1.69145837426185607910e-02) (15, -1.57179638743400573730e-01) (16, -5.19436858594417572021e-02) (17, -1.20904719829559326172e+00) (18, -4.09373231232166290283e-02) (19, -7.27318704128265380859e-01) (20, 2.98118472099304199219e-01) (21, -1.49516180157661437988e-01) (22, -8.46040397882461547852e-02) (23, 3.42286586761474609375e-01) (24, 3.31577569246292114258e-01) (25, 6.13453269004821777344e-01) (26, -2.28835586458444595337e-02) (27, 8.57371509075164794922e-01) (28, 7.53572821617126464844e-01) (29, -1.97500661015510559082e-01) (30, -8.41669663786888122559e-02) (31, 7.48897254467010498047e-01) (32, 6.88822746276855468750e-01) (33, 3.26500713825225830078e-01) (34, -5.33388137817382812500e-01) (35, -3.16400021314620971680e-01) (36, 2.43872538208961486816e-01) (37, 5.06614670157432556152e-02) (38, -1.64514422416687011719e-01) (39, -4.89806443452835083008e-01) (40, 5.43123483657836914062e-02) (41, -5.15070676803588867188e-01) (42, 9.16735470294952392578e-01) (12, 3.43438982963562011719e-02) (13, 2.28336453437805175781e-01) (14, 1.08515918254852294922e-01) (15, 1.56945675611495971680e-01) (16, 1.50380039215087890625e+00) (17, 1.94238066673278808594e+00) (18, 9.77758765220642089844e-01) (19, -1.69945371150970458984e+00) (20, 7.07715973258018493652e-02) (21, 1.17479002475738525391e+00) (22, 5.70514738559722900391e-01) (23, -1.46080827713012695312e+00) (24, 1.46832644939422607422e-01) (25, 1.01678311824798583984e+00) (26, -2.79722332954406738281e-01) (27, 4.45852503180503845215e-02) (28, -9.21791911125183105469e-01) (29, -2.41180801391601562500e+00) (30, -1.57417148351669311523e-01) (31, 8.93061816692352294922e-01) (32, 1.56325125694274902344e+00) (33, 6.94905102252960205078e-01) (34, -1.13891696929931640625e+00) (35, -6.64151087403297424316e-02) (36, -8.24361205101013183594e-01) (37, 6.05502486228942871094e-01) (38, 1.75465658307075500488e-01) (39, 4.00237888097763061523e-01) (40, -4.81771320104598999023e-01) (41, -2.86050766706466674805e-01) (42, -3.33292745053768157959e-02) (12, -1.54012894630432128906e+00) (13, 5.55124700069427490234e-01) (14, 1.65552580356597900391e+00) (15, -6.92142993211746215820e-02) (16, 9.83033329248428344727e-02) (17, -2.55519926548004150391e-01) (18, 4.52374905347824096680e-01) (19, 2.39555692672729492188e+00) (20, 2.40703076124191284180e-01) (21, -6.93369269371032714844e-01) (22, -7.34927773475646972656e-01) (23, -4.58457529544830322266e-01) (24, 2.14144492149353027344e+00) (25, -1.01678647100925445557e-01) (26, 6.26815706491470336914e-02) (27, -9.04299855232238769531e-01) (28, -9.95731651782989501953e-01) (29, 4.90215793251991271973e-02) (30, -4.93005931377410888672e-01) (31, -1.47630676627159118652e-01) (32, 4.12790596485137939453e-01) (33, 7.73422300815582275391e-01) (34, 5.45964479446411132812e-01) (35, 5.04435420036315917969e-01) (36, 1.43474781513214111328e+00) (37, -5.64106702804565429688e-01) (38, 1.18373107910156250000e+00) (39, -2.87051685154438018799e-03) (40, 5.40298938751220703125e-01) (41, 6.97658538818359375000e-01) (42, 1.22492647171020507812e+00) (12, 1.89898419380187988281e+00) (13, 9.72409546375274658203e-01) (14, 7.47328400611877441406e-02) (15, -5.02781942486763000488e-03) (16, 1.73206895589828491211e-01) (17, -1.47183263301849365234e+00) (18, -8.38470816612243652344e-01) (19, 9.26342666149139404297e-01) (20, 1.36818289756774902344e+00) (21, 2.45237499475479125977e-02) (22, -4.83214035630226135254e-02) (23, 8.98614108562469482422e-01) (24, 8.51512491703033447266e-01) (25, 1.45930993556976318359e+00) (26, 2.00152441859245300293e-01) (27, -3.90957802534103393555e-01) (28, 1.20563209056854248047e+00) (29, 1.97148784995079040527e-01) (30, 2.88559466600418090820e-01) (31, 4.37531294301152229309e-03) (32, 4.77365523576736450195e-01) (33, 9.41068112850189208984e-01) (34, -1.25702536106109619141e+00) (35, 3.06185692548751831055e-01) (36, 6.11430227756500244141e-01) (37, -3.97704511880874633789e-01) (38, -7.14156508445739746094e-01) (39, 1.11428260803222656250e+00) (40, 1.88935115933418273926e-01) (41, -8.78703176975250244141e-01) (42, -1.45141601562500000000e-01) (12, 2.16745996475219726562e+00) (13, -2.31122642755508422852e-01) (14, 3.21641296148300170898e-01) (15, 1.77153348922729492188e+00) (16, -5.46951234340667724609e-01) (17, 1.49600803852081298828e+00) (18, 4.13791313767433166504e-02) (19, -3.28614354133605957031e-01) (20, 6.56779408454895019531e-01) (21, -1.71563065052032470703e+00) (22, -2.55884480476379394531e+00) (23, -1.80070388317108154297e+00) (24, 9.68229830265045166016e-01) (25, 1.67232489585876464844e+00) (26, 1.82570528984069824219e+00) (27, 9.78927612304687500000e-01) (28, 6.12379729747772216797e-01) (29, 5.21989524364471435547e-01) (30, 2.69012093544006347656e+00) (31, -1.19840300083160400391e+00) (32, 4.79188799858093261719e-01) (33, 3.88786196708679199219e+00) (34, 7.65973031520843505859e-01) (35, 8.00502538681030273438e-01) (36, 2.12185955047607421875e+00) (37, -2.68488097190856933594e+00) (38, 1.30604839324951171875e+00) (39, -9.91885885596275329590e-02) (40, -4.69145268201828002930e-01) (41, -1.39309489727020263672e+00) (42, -2.05640172958374023438e+00) (12, 1.88382863998413085938e+00) (13, -2.65399307012557983398e-01) (14, 1.25657927989959716797e+00) (15, 2.26859733462333679199e-01) (16, 6.28025114536285400391e-01) (17, 8.46633166074752807617e-02) (18, 8.41313540935516357422e-01) (19, 4.14972126483917236328e-01) (20, 1.87769517302513122559e-01) (21, 3.57633084058761596680e-01) (22, 1.06985080242156982422e+00) (23, 2.74905502796173095703e-01) (24, 3.36904883384704589844e-01) (25, -7.15122163295745849609e-01) (26, -2.89291322231292724609e-01) (27, 1.69809982180595397949e-01) (28, 2.08035016059875488281e+00) (29, 5.71063220500946044922e-01) (30, 1.70289482921361923218e-02) (31, 2.88183748722076416016e-01) (32, 6.58610761165618896484e-01) (33, -1.00392091274261474609e+00) (34, 9.78675186634063720703e-01) (35, -6.85535073280334472656e-01) (36, 1.41653203964233398438e+00) (37, 7.00740814208984375000e-01) (38, 5.56653328239917755127e-02) (39, -1.53859531879425048828e+00) (40, 1.85787662863731384277e-01) (41, -4.24740076065063476562e-01) (42, 1.18107199668884277344e+00) (12, -2.04578018188476562500e+00) (13, -1.38712763786315917969e+00) (14, -1.83296549320220947266e+00) (15, -4.15362149477005004883e-01) (16, -1.15813028812408447266e+00) (17, 2.79284149408340454102e-01) (18, -1.23078517615795135498e-01) (19, -2.10877728462219238281e+00) (20, -1.86364203691482543945e-01) (21, -5.84257692098617553711e-02) (22, -3.65848928689956665039e-01) (23, 6.07578873634338378906e-01) (24, 2.27728951722383499146e-02) (25, -1.48041546344757080078e+00) (26, 5.11839747428894042969e-01) (27, -1.56272423267364501953e+00) (28, -2.80532073974609375000e+00) (29, 1.35754719376564025879e-01) (30, -3.58100235462188720703e-01) (31, -1.49745404720306396484e+00) (32, -1.43182933330535888672e+00) (33, 2.54734420776367187500e+00) (34, 1.34629940986633300781e+00) (35, 1.16123437881469726562e+00) (36, -1.22762668132781982422e+00) (37, -2.74461746215820312500e+00) (38, 2.19431161880493164062e-01) (39, -4.17392849922180175781e-01) (40, -8.77828523516654968262e-02) (41, -1.06553924083709716797e+00) (42, -2.16468119621276855469e+00) (12, 1.67275905609130859375e+00) (13, 4.54525381326675415039e-01) (14, -1.95463225245475769043e-01) (15, 3.88250976800918579102e-01) (16, 1.21823418140411376953e+00) (17, 4.00092810392379760742e-01) (18, 1.42445683479309082031e+00) (19, 6.17919027805328369141e-01) (20, 1.56105253845453262329e-02) (21, -8.48149180412292480469e-01) (22, -2.85461962223052978516e-01) (23, -8.83095979690551757812e-01) (24, -7.23748207092285156250e-01) (25, 9.92611467838287353516e-01) (26, -7.70567879080772399902e-02) (27, -5.45464754104614257812e-01) (28, 3.20746541023254394531e+00) (29, 7.70338654518127441406e-01) (30, 1.12254559993743896484e+00) (31, 9.29800808429718017578e-01) (32, 4.55319494009017944336e-01) (33, 1.80318951606750488281e+00) (34, 1.95010781288146972656e+00) (35, -6.67767703533172607422e-01) (36, 6.69775545597076416016e-01) (37, -7.08266556262969970703e-01) (38, 1.82474076747894287109e-01) (39, -2.34575167298316955566e-01) (40, -1.03934264183044433594e+00) (41, -7.26579368114471435547e-01) (42, 7.19294428825378417969e-01) (12, 1.94741034507751464844e+00) (13, 1.93898940086364746094e+00) (14, 1.38185036182403564453e+00) (15, 2.95231878757476806641e-01) (16, 2.79385030269622802734e-01) (17, 1.48259043693542480469e+00) (18, 7.28862166404724121094e-01) (19, -1.01061487197875976562e+00) (20, 7.03986585140228271484e-01) (21, -3.26018244028091430664e-01) (22, 1.05923521518707275391e+00) (23, 9.19823169708251953125e-01) (24, 1.32532909512519836426e-01) (25, -8.13383221626281738281e-01) (26, 9.41227912902832031250e-01) (27, -1.50961899757385253906e+00) (28, -9.57946300506591796875e-01) (29, 2.23411846160888671875e+00) (30, -2.12818622589111328125e-01) (31, 7.14702248573303222656e-01) (32, 6.34540438652038574219e-01) (33, 2.70097827911376953125e+00) (34, 1.51899421215057373047e+00) (35, -7.79666125774383544922e-01) (36, 1.89042949676513671875e+00) (37, 6.49522423744201660156e-01) (38, 4.08523529767990112305e-01) (39, -1.81771266460418701172e+00) (40, -1.14993906021118164062e+00) (41, 3.19041222333908081055e-01) (42, 1.21702626347541809082e-01) (12, -1.25136113166809082031e+00) (13, -1.88363277912139892578e+00) (14, 6.55311882495880126953e-01) (15, 1.79134893417358398438e+00) (16, -7.45344996452331542969e-01) (17, 2.52130126953125000000e+00) (18, -1.17372274398803710938e-01) (19, 5.55307805538177490234e-01) (20, 7.99078941345214843750e-01) (21, 1.95118355751037597656e+00) (22, -4.64607179164886474609e-01) (23, 1.23671627044677734375e+00) (24, 8.72834503650665283203e-01) (25, -9.28976893424987792969e-01) (26, -9.27960813045501708984e-01) (27, 2.47925376892089843750e+00) (28, -3.01225352287292480469e+00) (29, 8.35009038448333740234e-01) (30, -1.16066277027130126953e+00) (31, 9.56595301628112792969e-01) (32, -6.65843844413757324219e-01) (33, 5.86663112044334411621e-02) (34, 1.31199455261230468750e+00) (35, -1.81988036632537841797e+00) (36, 1.28456079959869384766e+00) (37, -1.77656173706054687500e+00) (38, -4.14528751373291015625e+00) (39, 3.39816927909851074219e-01) (40, 1.09591245651245117188e+00) (41, -1.29508602619171142578e+00) (42, -2.10253655910491943359e-01) (43, 7.46574819087982177734e-01) (44, -1.75586000084877014160e-01) (45, -4.60854947566986083984e-01) (46, 1.96591600775718688965e-01) (47, -4.20328110456466674805e-01) (48, 5.22411465644836425781e-01) (49, 1.73627302050590515137e-01) (50, 1.02041050791740417480e-01) (51, -2.97075957059860229492e-01) (52, 5.78851960599422454834e-02) (53, 5.55419683456420898438e-01) (54, 3.04229348897933959961e-01) (55, 1.59388363361358642578e-01) (56, 3.77807244658470153809e-02) (57, 3.17623585462570190430e-01) (58, -3.79744768142700195312e-01) (59, -3.30365180969238281250e-01) (60, -1.26574024558067321777e-01) (61, -4.27974373102188110352e-01) (62, 1.00691303610801696777e-01) (63, -2.48138356208801269531e+00) (64, 6.28914594650268554688e-01) (65, 6.64056092500686645508e-02) (66, 4.17650699615478515625e-01) (67, -1.75443872809410095215e-01) (68, 7.77583599090576171875e-01) (69, -1.23432226479053497314e-01) (70, -1.17613434791564941406e-01) (71, 2.56650149822235107422e-01) (72, 9.05489742755889892578e-01) (73, 8.44378471374511718750e-01) (43, 8.14697816967964172363e-02) (44, 1.10844112932682037354e-01) (45, 8.65697041153907775879e-02) (46, 9.63007882237434387207e-02) (47, -2.26598363369703292847e-02) (48, 6.11238062381744384766e-01) (49, -7.37828612327575683594e-01) (50, 8.57162326574325561523e-02) (51, -2.97483325004577636719e-01) (52, 1.92124739289283752441e-01) (53, -4.71686452627182006836e-01) (54, 2.90871709585189819336e-01) (55, 7.48663991689682006836e-02) (56, 3.65354508161544799805e-01) (57, -9.73706781864166259766e-01) (58, -1.49213016033172607422e-01) (59, 3.87718677520751953125e-01) (60, -9.48415696620941162109e-03) (61, 2.44518458843231201172e-01) (62, 3.25762666761875152588e-02) (63, -6.03504061698913574219e-01) (64, 7.74414777755737304688e-01) (65, 6.87343239784240722656e-01) (66, -3.94823163747787475586e-01) (67, -5.56868463754653930664e-02) (68, -4.86042857170104980469e-01) (69, -1.26626312732696533203e-01) (70, -1.08214065432548522949e-01) (71, 2.04133111983537673950e-02) (72, 5.25330245494842529297e-01) (73, -3.34406286478042602539e-01) (43, 8.82888674736022949219e-01) (44, 8.45416069030761718750e-01) (45, 3.03161054849624633789e-01) (46, 4.04255032539367675781e-01) (47, 4.86255973577499389648e-01) (48, 2.96368122100830078125e-01) (49, -9.73981440067291259766e-01) (50, 1.71369934082031250000e+00) (51, 3.59465956687927246094e-01) (52, 2.41850852966308593750e-01) (53, -1.20861065387725830078e+00) (54, 5.42554140090942382812e-01) (55, -1.03444063663482666016e+00) (56, -1.79604381322860717773e-01) (57, -1.57763659954071044922e+00) (58, -3.97790782153606414795e-02) (59, 8.10562551021575927734e-01) (60, 3.99081200361251831055e-01) (61, 4.63510602712631225586e-01) (62, -1.61015793681144714355e-01) (63, -1.11750972270965576172e+00) (64, 1.17965352535247802734e+00) (65, 1.41546154022216796875e+00) (66, 1.30513146519660949707e-01) (67, -1.42200157046318054199e-01) (68, 2.76145726442337036133e-01) (69, -1.84355631470680236816e-01) (70, 2.12384805083274841309e-01) (71, -8.15824270248413085938e-01) (72, 1.51368394494056701660e-01) (73, -1.05094516277313232422e+00) (43, -7.44100958108901977539e-02) (44, -2.09509834647178649902e-01) (45, -7.01481550931930541992e-02) (46, -5.45979030430316925049e-02) (47, -1.25603169202804565430e-01) (48, 6.12699985504150390625e-01) (49, 9.61070507764816284180e-02) (50, 9.52082052826881408691e-02) (51, -3.41173261404037475586e-01) (52, 7.44556123390793800354e-03) (53, 1.32513776421546936035e-01) (54, -9.51925814151763916016e-02) (55, 1.27857476472854614258e-01) (56, -3.20807173848152160645e-02) (57, -8.36660265922546386719e-02) (58, 4.71497446298599243164e-01) (59, -3.92329543828964233398e-02) (60, -8.72726272791624069214e-03) (61, 3.35640497505664825439e-02) (62, 3.55711728334426879883e-01) (63, -8.56829399708658456802e-04) (64, 3.50249379873275756836e-01) (65, 5.02231299877166748047e-01) (66, 8.34910750389099121094e-01) (67, 6.58671483397483825684e-02) (68, 8.24591457843780517578e-01) (69, 8.53343963623046875000e-01) (70, -4.90633547306060791016e-01) (71, -1.21916972100734710693e-01) (72, -1.05968818068504333496e-01) (73, -1.15792170166969299316e-01) (43, -1.12484526634216308594e+00) (44, 2.56181299686431884766e-01) (45, -8.61440062522888183594e-01) (46, -1.02849572896957397461e-01) (47, 8.46250116825103759766e-01) (48, 3.59798789024353027344e-01) (49, 1.27271497249603271484e+00) (50, 1.46053957939147949219e+00) (51, 4.08300727605819702148e-01) (52, 8.31523120403289794922e-01) (53, 2.95987546443939208984e-01) (54, 3.96569013595581054688e-01) (55, 2.67780125141143798828e-01) (56, 1.04557895660400390625e+00) (57, 8.62020432949066162109e-01) (58, 1.35337483882904052734e+00) (59, 6.19569301605224609375e-01) (60, -2.97724064439535140991e-02) (61, -2.34711337089538574219e+00) (62, -1.90547645092010498047e-01) (63, 2.09428638219833374023e-01) (64, -6.81652486324310302734e-01) (65, 8.66728782653808593750e-01) (66, -9.70830202102661132812e-01) (67, 7.62894796207547187805e-03) (68, 2.63725900650024414062e+00) (69, 1.99049150943756103516e+00) (70, -4.98466700315475463867e-01) (71, 1.28325355052947998047e+00) (72, 6.10354661941528320312e-01) (73, -2.38404750823974609375e-01) (43, 1.25913989543914794922e+00) (44, -4.17070463299751281738e-02) (45, 3.98524951934814453125e+00) (46, 1.69654810428619384766e+00) (47, 2.96719646453857421875e+00) (48, -1.21061456203460693359e+00) (49, -6.17842853069305419922e-01) (50, 1.84303152561187744141e+00) (51, 3.14089059829711914062e+00) (52, -2.62101006507873535156e+00) (53, 5.12046039104461669922e-01) (54, 2.69379949569702148438e+00) (55, -5.92927515506744384766e-01) (56, 1.77525079250335693359e+00) (57, 1.99981659650802612305e-01) (58, -4.28425133228302001953e-01) (59, -1.33135294914245605469e+00) (60, 2.81457805633544921875e+00) (61, 1.64821577072143554688e+00) (62, -2.89524149894714355469e+00) (63, -5.09698927402496337891e-01) (64, -1.93077325820922851562e+00) (65, 2.19098761677742004395e-01) (66, -1.24256861209869384766e+00) (67, -2.20993256568908691406e+00) (68, 4.33903157711029052734e-01) (69, 3.64903241395950317383e-01) (70, -2.78714847564697265625e+00) (71, -2.53407573699951171875e+00) (72, -1.11830306053161621094e+00) (73, 3.49839299917221069336e-01) (43, 1.23050101101398468018e-02) (44, 7.95957297086715698242e-02) (45, -5.65222263336181640625e-01) (46, 1.37365236878395080566e-01) (47, -9.91812273859977722168e-02) (48, 5.00098824501037597656e-01) (49, -1.04111528396606445312e+00) (50, -7.28193461894989013672e-01) (51, -7.03310295939445495605e-02) (52, -3.24235022068023681641e-01) (53, 4.18921649456024169922e-01) (54, 2.47592076659202575684e-01) (55, 9.55508995056152343750e+00) (56, 5.98114728927612304688e-02) (57, 5.72960197925567626953e-01) (58, 1.71736851334571838379e-01) (59, 3.03610205650329589844e-01) (60, 1.59593388438224792480e-01) (61, -1.26458263397216796875e+00) (62, -1.74358159303665161133e-01) (63, -1.67298614978790283203e+00) (64, 5.52730500698089599609e-01) (65, 9.55631971359252929688e-01) (66, -5.64973890781402587891e-01) (67, -2.09143474698066711426e-01) (68, -8.98289084434509277344e-01) (69, 2.62641251087188720703e-01) (70, -2.80537068843841552734e-01) (71, 1.33146718144416809082e-01) (72, 2.92133867740631103516e-01) (73, 1.10469760894775390625e+01) (43, 2.81198859214782714844e-01) (44, 1.09572246670722961426e-01) (45, -1.65341183543205261230e-01) (46, 1.07625471428036689758e-02) (47, 1.85583412647247314453e-01) (48, 2.62772965431213378906e+00) (49, 1.35558676719665527344e+00) (50, -4.32005524635314941406e-01) (51, -2.61868238449096679688e-01) (52, -1.35136306285858154297e+00) (53, -3.70097190141677856445e-01) (54, 6.80481553077697753906e-01) (55, 2.09650015830993652344e+00) (56, 1.26438632607460021973e-01) (57, 1.07945669442415237427e-02) (58, 1.28387212753295898438e-01) (59, 1.42810654640197753906e+00) (60, 8.40711593627929687500e-03) (61, 1.45794248580932617188e+00) (62, -2.58155375719070434570e-01) (63, 5.24926960468292236328e-01) (64, 3.98428022861480712891e-01) (65, 8.55957448482513427734e-01) (66, -2.53365206718444824219e+00) (67, 2.98604309558868408203e-01) (68, -1.47919428348541259766e+00) (69, 4.87643629312515258789e-01) (70, -1.12882018089294433594e+00) (71, 5.93884050846099853516e-01) (72, 1.04130697250366210938e+00) (73, -2.29056015610694885254e-01) (43, 2.13130474090576171875e+00) (44, 2.54942011833190917969e+00) (45, 4.07051384449005126953e-01) (46, -9.54904913902282714844e-01) (47, -1.75898462533950805664e-01) (48, -1.68454065918922424316e-01) (49, -1.49118912220001220703e+00) (50, -7.18519926071166992188e-01) (51, 1.34299254417419433594e+00) (52, -6.39937147498130798340e-02) (53, -4.20210075378417968750e+00) (54, 1.39656579494476318359e+00) (55, 9.84478175640106201172e-01) (56, -6.72857761383056640625e-01) (57, -1.56921184062957763672e+00) (58, 2.14504718780517578125e+00) (59, -2.71515280008316040039e-01) (60, 1.72009718418121337891e+00) (61, 9.24890190362930297852e-02) (62, -4.76742498576641082764e-02) (63, -8.30187976360321044922e-01) (64, 1.07554292678833007812e+00) (65, 3.34599137306213378906e+00) (66, -4.03224050998687744141e-01) (67, 1.17978073656558990479e-01) (68, 2.22093582153320312500e+00) (69, 3.70003879070281982422e-02) (70, -5.48963010311126708984e-01) (71, -9.51177347451448440552e-03) (72, -1.17720520496368408203e+00) (73, 9.29025113582611083984e-01)
input_names='a' 'betan' 'bt' 'delta' 'i_coil' 'ip' 'kappa' 'neped' 'r' 'rotation' 'zeffped'
output_names='OUT_P2e_EPED' 'OUT_P2e_rmpsoff' 'OUT_P2e_rmpson' 'OUT_elm_frequency_EPED' 'OUT_elm_frequency_rmpsoff' 'OUT_elm_frequency_rmpson' 'OUT_wte_EPED' 'OUT_wte_rmpsoff' 'OUT_wte_rmpson'
norm_output=0.0 0.0 0.0 0.0 0.0 0.0 0.0 0.0 0.0 0.0 0.0 0.0 0.0 0.0 0.0 0.0 0.0 0.0 0.0 0.0 0.0 0.0 0.0 0.0 0.0 0.0 0.0 0.0 0.0 0.0 0.0 0.0 0.0 0.0 0.0 0.0 0.0 0.0 0.0 0.0 0.0 0.0 0.0 0.0 0.0 0.0 0.0 0.0 0.0 0.0 0.0 0.0 0.0 0.0 0.0 0.0 0.0 0.0 0.0 0.0 0.0 0.0 0.0 0.0 0.0 0.0 0.0 0.0 0.0 0.0 0.0 0.0 0.0 0.0 0.0 0.0 0.0 0.0 0.0 0.0 0.0 0.0 0.0 0.0 0.0 0.0 0.0 0.0 0.0 0.0 0.0 0.0 0.0 0.0 0.0 0.0 0.0 0.0 0.0
MSE= 0.211841091514